-8.444225788116455078e-01 -1.922210693359375000e+00 8.681712150573730469e-01 -1.381504893302917480e+00 -1.379142284393310547e+00 6.029503941535949707e-01 -2.008146420121192932e-02 3.533024489879608154e-01 2.630717515945434570e+00 -1.075954914093017578e+00 -1.314942121505737305e+00 -2.307131528854370117e+00 1.063582301139831543e+00 -8.043742775917053223e-01 1.102253794670104980e+00 4.231425523757934570e-01 3.503412246704101562e+00 1.081117272377014160e+00 1.380284547805786133e+00 -5.239516258239746094e+00 -1.364772558212280273e+00 2.111459255218505859e+00 -3.057756423950195312e+00 1.417432546615600586e+00 -1.300341039896011353e-01 2.563795804977416992e+00 -2.175067067146301270e-01 2.193184137344360352e+00 1.441119790077209473e+00 3.898555338382720947e-01 -4.289940357208251953e+00 3.920502185821533203e+00 2.307240486145019531e+00 -3.394995212554931641e+00 4.541678428649902344e-01 1.473269462585449219e+00 -5.136780738830566406e+00 1.115947365760803223e+00 1.813915848731994629e+00 -2.296172618865966797e+00 2.067716121673583984e-01 -6.624125838279724121e-01 -2.412463903427124023e+00 2.927213668823242188e+00 -9.311539530754089355e-01 -6.776156276464462280e-02 -6.646981239318847656e-01 2.165660411119461060e-01 3.502369642257690430e+00 -9.275050759315490723e-01 1.195956468582153320e+00 -1.172796487808227539e+00 -4.021664142608642578e+00 1.099145412445068359e+00 1.839454889297485352e+00 -2.328984498977661133e+00 4.365391731262207031e-01 -1.068395733833312988e+00 -2.344560146331787109e+00 8.687995076179504395e-01 1.477231621742248535e+00 5.755170345306396484e+00 -3.752723693847656250e+00 -5.697275400161743164e-01 2.821312248706817627e-01 -1.705323576927185059e+00 -4.253663122653961182e-01 6.797282695770263672e-01 -5.741738080978393555e-01 1.356626033782958984e+00 1.067074060440063477e+00 1.155437827110290527e+00 1.510550975799560547e+00 -1.532194018363952637e-01 3.204229116439819336e+00 -2.146836757659912109e+00 -4.989852905273437500e+00 4.322397410869598389e-01 -2.189046293497085571e-01 5.021011233329772949e-01 -1.324801683425903320e+00 3.478348255157470703e-01 1.577408075332641602e+00 4.243302941322326660e-01 1.508253812789916992e+00 6.800889015197753906e+00 1.116618394851684570e+00 -7.291581034660339355e-01 2.157679319381713867e+00 9.884180426597595215e-01 1.248678088188171387e+00 5.837987065315246582e-01 9.858249425888061523e-01 3.287467479705810547e+00 1.153121590614318848e+00 -2.231299638748168945e+00 -3.198064565658569336e+00 3.265157461166381836e+00 -4.508166760206222534e-02 -8.520641326904296875e-01 -2.201360225677490234e+00 -7.229129076004028320e-01 -1.201575040817260742e+00 -8.545535206794738770e-01 -1.046784281730651855e+00 -3.103651046752929688e+00 -3.244636297225952148e+00 9.697080850601196289e-01 5.665070414543151855e-01 1.891335964202880859e+00 2.174866199493408203e+00 -2.457124471664428711e+00 1.098400712013244629e+00 1.124452590942382812e+00 -1.581902861595153809e+00 -1.291466116905212402e+00 4.474171161651611328e+00 9.086458683013916016e-01 1.988116621971130371e+00 -2.694267749786376953e+00 2.750685930252075195e+00 -1.871538281440734863e+00 1.497534036636352539e+00 2.313774637877941132e-02 1.294398069381713867e+00 1.111941933631896973e+00 3.982528448104858398e-01 2.666904330253601074e-01 -3.596929311752319336e-01 -4.006450176239013672e-01 1.884133338928222656e+00 1.033137917518615723e+00 -8.768472671508789062e-01 -9.594182968139648438e-01 -3.811228036880493164e+00 4.718634605407714844e+00 7.358941435813903809e-01 -2.529777765274047852e+00 2.037678718566894531e+00 6.839778423309326172e+00 1.823686361312866211e-01 -2.347105264663696289e+00 -9.922637343406677246e-01 2.710956573486328125e+00 2.123681306838989258e+00 -1.952207684516906738e-01 1.617375969886779785e+00 2.389132738113403320e+00 4.272592067718505859e+00 -2.899328231811523438e+00 -3.699957132339477539e-01 -2.508024215698242188e+00 9.604949355125427246e-01 -1.536242961883544922e+00 8.641404509544372559e-01 -3.377447128295898438e+00 9.010345935821533203e-01 -1.003125429153442383e+00 1.119616031646728516e+00 -2.603263139724731445e+00 -5.508821606636047363e-01 -6.839873790740966797e-01 -1.736729860305786133e+00 -6.544829607009887695e-01 3.005613327026367188e+00 -3.910295248031616211e+00 -2.828835964202880859e+00 -2.093034535646438599e-01 3.529042959213256836e+00 5.324110388755798340e-01 -2.237332820892333984e+00 1.916793227195739746e+00 3.701396942138671875e+00 -1.198174953460693359e+00 4.715155363082885742e-01 -3.583012819290161133e+00 -9.974895119667053223e-01 -2.149165868759155273e+00 1.627296924591064453e+00 -1.595373034477233887e+00 -8.669994354248046875e+00 -2.057153940200805664e+00 1.456947922706604004e+00 1.220395326614379883e+00 2.861578702926635742e+00 2.427567720413208008e+00 -2.310773372650146484e+00 -1.901230454444885254e+00 -3.556407988071441650e-01 -1.802067041397094727e+00 9.851792454719543457e-01 -3.702753782272338867e+00 -1.789521098136901855e+00 2.371760606765747070e+00 -1.492738723754882812e+00 1.459518313407897949e+00 5.675621032714843750e-01 4.432708740234375000e+00 2.181327342987060547e+00 -1.968366265296936035e+00
