-1.143055820465087891e+01 -1.246399506926536560e-01 -2.370096683502197266e+00 1.395728111267089844e+00 3.356083869934082031e+00 7.683127403259277344e+00 -1.036590480804443359e+01 -8.588999748229980469e+00 9.440093040466308594e+00 3.666511058807373047e+00 4.593694210052490234e+00 5.591485500335693359e-01 -8.162956237792968750e+00 2.090112924575805664e+00 6.083043098449707031e+00 5.165151596069335938e+00 -1.257687091827392578e+00 -1.867685914039611816e+00 -5.396182537078857422e+00 3.418836116790771484e+00 -7.327995777130126953e+00 3.984102904796600342e-01 2.281313419342041016e+00 2.165423870086669922e+00 -6.092291474342346191e-01 -5.322001934051513672e+00 9.602546691894531250e+00 -1.031569004058837891e+01 1.368700504302978516e+01 1.405560374259948730e+00 5.749683380126953125e+00 3.318684339523315430e+00 8.437646031379699707e-01 -1.151784777641296387e+00 5.535466194152832031e+00 5.037093758583068848e-01 8.539710998535156250e+00 -2.199801206588745117e+00 6.084162741899490356e-02 -2.061151266098022461e+00 5.183532238006591797e+00 1.969360351562500000e+00 -2.423960924148559570e+00 -9.915946125984191895e-01 2.089225769042968750e+00 8.425209999084472656e+00 -6.140639305114746094e+00 -5.942582607269287109e+00 -9.661322236061096191e-01 -5.463998794555664062e+00 9.695733070373535156e+00 4.458955287933349609e+00 5.802819252014160156e+00 9.438096880912780762e-01 7.408175945281982422e+00 -9.478389620780944824e-01 -2.735727310180664062e+00 -4.736661911010742188e+00 -1.106264877319335938e+01 2.251827239990234375e+00 -9.805045127868652344e+00 -1.061441563069820404e-02 -1.427064776420593262e+00 3.501945436000823975e-01 -5.110457897186279297e+00 5.206321239471435547e+00 -5.612163543701171875e+00 -6.878298282623291016e+00 6.142647266387939453e-01 1.765262931585311890e-01 5.821119308471679688e+00 6.638221740722656250e+00 1.535424947738647461e+00 -2.409293651580810547e-01 5.491287231445312500e+00 5.011219024658203125e+00 3.778614759445190430e+00 2.474450349807739258e+00 -3.951011896133422852e+00 3.842981338500976562e+00 -3.104702472686767578e+00 -7.694948315620422363e-01 -5.780371427536010742e-01 4.852069914340972900e-01 -1.003080844879150391e+00 5.482088088989257812e+00 1.776093602180480957e+00 2.460376977920532227e+00 2.137930393218994141e+00 -1.993577003479003906e+00 2.032048225402832031e+00 1.208577752113342285e+00 -1.490739464759826660e+00 -3.775574445724487305e+00 -7.043859481811523438e+00 -1.177142858505249023e+00 1.197905182838439941e+00 5.710914731025695801e-01 2.435988187789916992e-01 -4.473062038421630859e+00
