3.639259099960327148e+00 1.907645463943481445e+00 5.534415841102600098e-01 -2.321398496627807617e+00 9.890685081481933594e-01 1.079577207565307617e+00 1.806648969650268555e+00 -1.784261584281921387e+00 -4.615476131439208984e-01 -8.487980067729949951e-02 1.778024286031723022e-01 -1.262646317481994629e+00 1.616756677627563477e+00 4.611572027206420898e-01 2.400285482406616211e+00 1.537933051586151123e-01 -1.132699608802795410e+00 -3.151314258575439453e+00 1.393411040306091309e+00 9.923565983772277832e-01 -8.331050276756286621e-01 4.924100637435913086e-01 5.934210419654846191e-01 -5.670661330223083496e-01 -8.228508383035659790e-02 1.129171490669250488e+00 -1.940942704677581787e-01 1.575771212577819824e+00 -9.687849879264831543e-01 -1.986540913581848145e+00 -8.018894791603088379e-01 -1.170959949493408203e+00 -2.360633313655853271e-01 1.573211431503295898e+00 -2.125681161880493164e+00 -1.474951654672622681e-01 -2.296050071716308594e+00 -1.835977882146835327e-01 -2.682167589664459229e-01 -1.122756972908973694e-01 -1.865498900413513184e+00 2.386036872863769531e+00 2.491378307342529297e+00 8.930876851081848145e-01 -1.636838316917419434e+00 4.191952645778656006e-01 -1.258314728736877441e+00 3.473799526691436768e-01 -9.148820042610168457e-01 1.840005993843078613e+00 -3.670168519020080566e-01 -5.031769871711730957e-01 1.895579099655151367e+00 1.730752348899841309e+00 2.295541048049926758e+00 -2.184195041656494141e+00 3.522421419620513916e-01 -2.022396773099899292e-01 -2.779106497764587402e-01 -1.650063753128051758e+00 -2.719826996326446533e-02 9.991961121559143066e-01 -1.940348505973815918e+00 1.223208680748939514e-01 -2.163579761981964111e-01 1.025504231452941895e+00 3.623064279556274414e+00 7.366957664489746094e-01 -8.166465759277343750e-01 -6.309542655944824219e-01 -9.448679089546203613e-01 -4.383551478385925293e-01 -1.576473355293273926e+00 4.442828893661499023e-01 -1.848721385002136230e+00 -4.898664653301239014e-01 -6.546369791030883789e-01 -1.318273305892944336e+00 1.238423585891723633e+00 -6.894280910491943359e-01 -2.427323102951049805e+00 -1.811790943145751953e+00 2.534063816070556641e+00 2.194202423095703125e+00 -2.258442491292953491e-01 2.494609117507934570e+00 -1.239678263664245605e+00 -7.895054817199707031e-01 1.225712060928344727e+00 1.663678050041198730e+00 1.511219382286071777e+00 3.217179179191589355e-01 2.334101200103759766e+00 4.123147487640380859e+00 2.470641374588012695e+00 1.839486122131347656e+00 6.622862815856933594e-01 -3.338900208473205566e-01 -2.011449635028839111e-01 -2.078953981399536133e+00 -2.871841564774513245e-02 -2.709744691848754883e+00 -4.418821036815643311e-01 -4.161846339702606201e-01 2.105115652084350586e+00 -3.064543902873992920e-01 -1.972393393516540527e+00 1.694993972778320312e+00 9.679757803678512573e-02 6.546287238597869873e-02 -4.079144954681396484e+00 2.986663281917572021e-01 -1.851687192916870117e+00 2.473478913307189941e-01 1.143960058689117432e-01 -3.321140408515930176e-01 -1.349695563316345215e+00 1.105513334274291992e+00 1.066399693489074707e+00 -2.126557111740112305e+00 1.261567115783691406e+00 1.660475134849548340e-01 -1.878427863121032715e-01 6.029175519943237305e-01 4.675627946853637695e-01 -8.121389746665954590e-01 -5.273100137710571289e-01
-1.282732248306274414e+00 -1.940947026014328003e-03 -9.512509405612945557e-02 -1.731755614280700684e+00 -1.496084928512573242e+00 -3.674669265747070312e-01 -1.237101793289184570e+00 2.049799680709838867e+00 -2.555533945560455322e-01 -2.382316142320632935e-01 -3.583222925662994385e-01 -1.765261411666870117e+00 3.070540666580200195e+00 4.328920319676399231e-02 -1.329733848571777344e+00 -1.919877976179122925e-01 -5.372488871216773987e-02 -1.039791703224182129e+00 5.504603385925292969e-01 -5.462755262851715088e-02 1.581194639205932617e+00 1.414598107337951660e+00 1.961204767227172852e+00 2.615567669272422791e-02 -8.527086377143859863e-01 8.950518965721130371e-01 -2.588980495929718018e-01 1.224463343620300293e+00 -2.827907562255859375e+00 -1.296680808067321777e+00 -2.430803887546062469e-02 5.412960648536682129e-01 3.106277585029602051e-01 -2.631519138813018799e-01 -2.560417950153350830e-01 3.551690101623535156e+00 6.457666754722595215e-01 5.737987160682678223e-01 2.578397653996944427e-02 6.636012792587280273e-01 1.721198439598083496e+00 -3.724284768104553223e-01 9.060606360435485840e-01 3.342522978782653809e-01 1.314789950847625732e-01 -9.905490875244140625e-01 -1.285770416259765625e+00 3.970541238784790039e+00 1.017307877540588379e+00 -1.017507195472717285e+00 5.374135375022888184e-01 -4.364614188671112061e-01 2.270682454109191895e-01 7.341406941413879395e-01 -1.667759776115417480e+00 -1.746744394302368164e+00 1.370418429374694824e+00 1.864016771316528320e+00 1.762853741645812988e+00 8.602289557456970215e-01 -8.099491000175476074e-01 9.027186781167984009e-02 -1.438885688781738281e+00 -2.229196310043334961e+00 2.731350958347320557e-01 1.895349383354187012e+00 -1.306350946426391602e+00 2.252112150192260742e+00 1.849123477935791016e+00 2.162724018096923828e+00 2.232839107513427734e+00 2.882193326950073242e-01 -1.360390186309814453e+00 4.041150510311126709e-01 -2.077140957117080688e-01 1.383438110351562500e+00 -4.369943439960479736e-01 1.276045083999633789e+00 9.589633941650390625e-01 -1.921510696411132812e+00 4.325018525123596191e-01 1.368519812822341919e-01 -1.034300565719604492e+00 1.972825080156326294e-01 -5.012671947479248047e-01 1.184634044766426086e-01 -2.751349806785583496e-01 -7.161868214607238770e-01 2.316607981920242310e-01 -3.872692346572875977e+00 -4.877893328666687012e-01 -2.089642286300659180e+00 8.598725199699401855e-01 1.236924648284912109e+00 -2.948149681091308594e+00 1.318038344383239746e+00 1.159470081329345703e+00 2.413872957229614258e+00 1.096509218215942383e+00 -1.577438831329345703e+00 -7.830681204795837402e-01 -2.856093347072601318e-01 8.001478314399719238e-01 2.829537689685821533e-01 3.725466430187225342e-01 -1.116240739822387695e+00 8.787129521369934082e-01 3.389247357845306396e-01 8.640910983085632324e-01 -2.705804444849491119e-02 -9.484776258468627930e-01 -9.253498315811157227e-01 -7.471367120742797852e-01 -2.716069109737873077e-02 -7.500815987586975098e-01 2.623827382922172546e-02 -3.159324452280998230e-02 3.757797479629516602e-01 -1.818184018135070801e+00 2.500876665115356445e+00 9.958357810974121094e-01 1.587572216987609863e+00 -5.535064265131950378e-02 4.297083914279937744e-01 3.104529380798339844e+00 -8.294942229986190796e-02 3.449616432189941406e-01
-5.982469916343688965e-01 -1.479924321174621582e+00 2.210363864898681641e+00 -6.143732666969299316e-01 5.217689871788024902e-01 5.855201929807662964e-02 -1.234116435050964355e+00 1.150336384773254395e+00 2.794982194900512695e-01 -3.714246749877929688e-01 -7.389819622039794922e-01 -2.346371412277221680e+00 2.308417320251464844e+00 6.686424612998962402e-01 7.945034652948379517e-02 -2.808187305927276611e-01 8.625572174787521362e-02 -8.100118041038513184e-01 1.848670005798339844e+00 -1.026046574115753174e-01 4.955345988273620605e-01 -2.005172073841094971e-01 1.216217875480651855e+00 -1.543227076530456543e+00 -1.168649196624755859e+00 -5.692045688629150391e-01 -1.818556547164916992e+00 -1.681740581989288330e-01 -1.685132980346679688e+00 -6.976793408393859863e-01 8.436008095741271973e-01 1.664599299430847168e+00 1.411754846572875977e+00 -5.974602103233337402e-01 1.821041226387023926e+00 6.063631772994995117e-01 -4.763148427009582520e-01 -1.859035938978195190e-01 -6.331478953361511230e-01 -1.864358067512512207e+00 -8.142874836921691895e-01 -7.524734735488891602e-01 -2.339246273040771484e+00 7.032701373100280762e-01 2.913134396076202393e-01 2.831964969635009766e+00 -2.020947456359863281e+00 -6.729730963706970215e-01 -3.312150239944458008e+00 1.347542762756347656e+00 -1.422179818153381348e+00 -1.203092098236083984e+00 1.827005386352539062e+00 -1.163653016090393066e+00 -8.975527286529541016e-01 -2.707422733306884766e+00 -3.380090296268463135e-01 3.447741568088531494e-01 2.589220523834228516e+00 1.230880618095397949e-01 5.367828607559204102e-01 2.855463325977325439e-01 6.975513100624084473e-01 3.450855255126953125e+00 -1.804843664169311523e+00 -8.151162266731262207e-01 -3.359887123107910156e+00 -2.905932664871215820e-01 -1.477575063705444336e+00 -5.862501263618469238e-01 8.655761480331420898e-01 2.516799211502075195e+00 9.465906620025634766e-01 5.570418834686279297e-01 8.556174635887145996e-01 4.027915894985198975e-01 7.994220256805419922e-01 -4.805987700819969177e-02 3.561432838439941406e+00 1.013321802020072937e-01 1.407892584800720215e+00 -6.137241125106811523e-01 -1.916916728019714355e+00 5.793933272361755371e-01 1.398596405982971191e+00 7.363522648811340332e-01 -1.544537544250488281e-01 -1.475807428359985352e+00 -9.807938933372497559e-01 -6.379110217094421387e-01 -8.917425572872161865e-02 -9.003680348396301270e-01 7.053682804107666016e-01 -4.972290396690368652e-01 -9.872345924377441406e-01 -7.067669034004211426e-01 1.981533288955688477e+00 -1.409467101097106934e+00 1.857339590787887573e-01 1.290855884552001953e+00 9.539630413055419922e-01 -2.473820209503173828e+00 -5.890762805938720703e-01 -1.550565958023071289e+00 5.061618685722351074e-01 2.113341093063354492e+00 -1.945297360420227051e+00 2.057038068771362305e+00 -4.992921054363250732e-01 3.998345732688903809e-01 -3.247524201869964600e-01 -1.159864664077758789e+00 1.454314827919006348e+00 -8.774518370628356934e-01 -6.593117117881774902e-01 2.387305021286010742e+00 1.846124053001403809e+00 3.896153569221496582e-01 -5.286232829093933105e-01 -1.541653752326965332e+00 -9.026935324072837830e-03 -3.343757629394531250e+00 -1.858809351921081543e+00 1.740626335144042969e+00 2.434690952301025391e+00 -8.130390048027038574e-01 4.110239911824464798e-03
1.409497499465942383e+00 -1.175784230232238770e+00 1.529300928115844727e+00 1.819056868553161621e-01 2.127098083496093750e+00 1.106148481369018555e+00 -1.317296624183654785e+00 6.998860836029052734e-02 1.996347308158874512e+00 -2.308633923530578613e-01 2.709040641784667969e+00 9.706315398216247559e-01 1.337903380393981934e+00 -6.369534134864807129e-01 -7.310270071029663086e-01 -4.191307127475738525e-01 8.589750528335571289e-01 3.671453297138214111e-01 -6.235419958829879761e-02 -1.308718085289001465e+00 -1.553122401237487793e-01 2.522225379943847656e-01 1.064897060394287109e+00 1.553468942642211914e+00 8.845821022987365723e-01 -1.568280339241027832e+00 -1.243427157402038574e+00 -1.781550608575344086e-02 -2.048804610967636108e-01 -1.644842028617858887e+00 -1.099933743476867676e+00 2.795578956604003906e+00 1.182864665985107422e+00 -1.052321791648864746e+00 1.442160606384277344e+00 -1.159942030906677246e+00 -8.285508751869201660e-01 1.407740116119384766e+00 1.251654505729675293e+00 1.459375023841857910e+00 7.137504220008850098e-01 1.238951921463012695e+00 -3.607937693595886230e-02 1.841009020805358887e+00 1.694242060184478760e-01 -5.101512670516967773e-01 1.397233963012695312e+00 -1.374748706817626953e+00 4.030722975730895996e-01 -1.278658270835876465e+00 -1.179085001349449158e-01 -4.214780926704406738e-01 -9.972504973411560059e-01 3.032163083553314209e-01 -2.533548116683959961e+00 3.080838173627853394e-02 8.884319663047790527e-02 -2.644459903240203857e-01 1.532888293266296387e+00 -5.471298098564147949e-01 5.071626305580139160e-01 -3.004867553710937500e+00 -3.630807876586914062e+00 4.328773021697998047e-01 -9.341112375259399414e-01 -3.173863589763641357e-01 1.995839238166809082e+00 -4.280427694320678711e-01 1.628499150276184082e+00 1.277925491333007812e+00 1.610260367393493652e+00 8.326773643493652344e-01 -1.755877584218978882e-01 2.827176749706268311e-01 -1.826532363891601562e+00 -5.991992950439453125e-01 -1.324311852455139160e+00 -1.101378917694091797e+00 -1.957875967025756836e+00 -2.956490993499755859e+00 1.031370162963867188e+00 8.376059532165527344e-01 -5.993641018867492676e-01 -1.163343906402587891e+00 -3.270320653915405273e+00 -1.708231925964355469e+00 8.946379423141479492e-01 -2.049954414367675781e+00 1.488758921623229980e-01 1.343429923057556152e+00 2.712152481079101562e+00 -2.250252813100814819e-01 -1.772994875907897949e+00 -7.248087525367736816e-01 1.331731557846069336e+00 -1.157357454299926758e+00 1.190163135528564453e+00 -9.950805902481079102e-01 -1.605995595455169678e-01 -2.477557420730590820e+00 -1.529472351074218750e+00 -3.004072606563568115e-01 -3.502023816108703613e-01 1.163012504577636719e+00 -1.465425848960876465e+00 1.306019544601440430e+00 -3.261549949645996094e+00 -7.146694511175155640e-02 3.580996692180633545e-01 1.935251355171203613e+00 -1.127229094505310059e+00 3.581543862819671631e-01 2.133534431457519531e+00 -6.206845641136169434e-01 7.861059904098510742e-02 4.765736758708953857e-01 2.365325450897216797e+00 -1.219820976257324219e+00 -1.304677605628967285e+00 1.990253448486328125e+00 -3.317600488662719727e-01 -1.222609639167785645e+00 -3.027657270431518555e+00 6.681461334228515625e-01 1.528680771589279175e-01 -8.845520615577697754e-01 1.141178011894226074e+00
7.717915177345275879e-01 -2.944451272487640381e-01 9.219889044761657715e-01 1.255578041076660156e+00 -1.616253614425659180e+00 2.193892478942871094e+00 -3.227657079696655273e-01 -9.681466817855834961e-01 -2.073425769805908203e+00 -2.043038845062255859e+00 1.542900800704956055e+00 4.558649361133575439e-01 -1.702417850494384766e+00 -5.260511636734008789e-01 -1.173018455505371094e+00 6.002733707427978516e-01 1.267003417015075684e+00 -5.793362855911254883e-01 1.219552636146545410e+00 -2.506769418716430664e+00 -1.327863186597824097e-01 9.971863031387329102e-01 -7.397885918617248535e-01 1.228880524635314941e+00 -3.182378768920898438e+00 3.176624059677124023e+00 1.228705167770385742e+00 1.014093637466430664e+00 -8.939473032951354980e-01 5.704519748687744141e-01 -1.598958969116210938e+00 2.405441999435424805e+00 -3.788673579692840576e-01 -7.736787199974060059e-01 -4.424394667148590088e-01 4.170487821102142334e-01 -1.608985662460327148e+00 -8.669425249099731445e-01 5.972529053688049316e-01 5.398321151733398438e-01 7.914822697639465332e-01 1.071615457534790039e+00 1.535463213920593262e+00 -3.773383796215057373e-01 1.449535846710205078e+00 1.588608026504516602e+00 2.686384916305541992e-01 -3.599368333816528320e-01 1.102883219718933105e+00 1.284941285848617554e-01 -2.121112108230590820e+00 -5.575708299875259399e-02 -7.729326486587524414e-01 -2.863473176956176758e+00 -2.477073371410369873e-01 4.453474283218383789e-01 4.456067383289337158e-01 -1.123420596122741699e+00 -5.015683174133300781e-01 1.518703341484069824e+00 1.408195137977600098e+00 1.527858257293701172e+00 -2.039198637008666992e+00 -2.474831193685531616e-01 3.812143564224243164e+00 -6.334965825080871582e-01 -1.720506906509399414e+00 -4.648954868316650391e-01 -1.946942210197448730e+00 -3.959013223648071289e-01 -7.165187597274780273e-02 -4.219765067100524902e-01 -1.412788152694702148e+00 1.110831141471862793e+00 -3.919821381568908691e-01 -1.898421049118041992e-01 2.736755132675170898e+00 2.152607589960098267e-01 -5.351526141166687012e-01 7.694841623306274414e-01 -2.168806314468383789e+00 -4.535652697086334229e-01 -2.276824712753295898e-01 9.671576023101806641e-01 -5.749892592430114746e-01 4.390729904174804688e+00 -5.308793783187866211e-01 1.321603536605834961e+00 1.622978806495666504e+00 -1.888129115104675293e+00 2.941782236099243164e+00 2.910138368606567383e-01 1.265576779842376709e-01 -7.367379069328308105e-01 1.308369994163513184e+00 -2.272823810577392578e+00 6.511881947517395020e-01 -2.445072978734970093e-01 -1.567557215690612793e+00 -3.946417868137359619e-01 5.207653045654296875e-01 -1.592408657073974609e+00 8.645977973937988281e-01 -1.273124098777770996e+00 -4.305238127708435059e-01 -5.982658863067626953e-01 3.557416424155235291e-02 2.498095631599426270e-01 -1.271098852157592773e+00 1.040972709655761719e+00 7.355841398239135742e-01 1.698165982961654663e-01 4.611244499683380127e-01 1.452985126525163651e-02 -4.574118852615356445e-01 -1.421824216842651367e+00 1.538744807243347168e+00 -2.892145633697509766e+00 1.204302549362182617e+00 2.883719280362129211e-02 -3.603504002094268799e-01 -5.843148231506347656e-01 -5.014050006866455078e-01 -1.455346465110778809e+00 3.430826663970947266e-01 2.534694075584411621e-01 -9.288170337677001953e-01
-7.238729000091552734e-01 9.173280000686645508e-01 4.265857934951782227e-01 6.766901612281799316e-01 1.493982672691345215e-01 -1.734686255455017090e+00 -7.504230737686157227e-01 -2.668563425540924072e-01 -1.153060078620910645e+00 3.827813565731048584e-01 9.573969841003417969e-01 2.628504037857055664e+00 6.721924543380737305e-01 3.044148385524749756e-01 9.236401915550231934e-01 -2.417341470718383789e-01 8.742167949676513672e-01 2.039277553558349609e+00 -5.562899261713027954e-02 1.140200495719909668e+00 -4.899086654186248779e-01 -1.652089595794677734e+00 -5.331262946128845215e-01 5.763899683952331543e-01 -2.380666017532348633e+00 -1.466525793075561523e+00 1.826101541519165039e+00 2.864197492599487305e-01 1.074954628944396973e+00 -1.240322828292846680e+00 -9.636696577072143555e-01 2.514135122299194336e+00 8.293289542198181152e-01 -1.016408562660217285e+00 -2.482731819152832031e+00 8.032646775245666504e-01 1.445127129554748535e+00 1.571585059165954590e+00 -2.494656145572662354e-01 -2.097537279129028320e+00 -8.705808520317077637e-01 2.412617683410644531e+00 -1.124784708023071289e+00 2.133558273315429688e+00 7.153805345296859741e-02 -2.822716951370239258e+00 4.605810344219207764e-01 -1.044073104858398438e+00 1.787644773721694946e-01 -4.436913728713989258e-01 2.951803505420684814e-01 5.674085021018981934e-01 1.036779046058654785e+00 -2.148461639881134033e-01 1.009402632713317871e+00 -1.433278560638427734e+00 7.735245823860168457e-01 -1.600067973136901855e+00 -7.425882816314697266e-01 3.294458150863647461e+00 1.566456675529479980e+00 -4.926946461200714111e-01 1.577070355415344238e+00 1.659318447113037109e+00 -2.075062036514282227e+00 -6.120930314064025879e-01 -1.814128994941711426e+00 -5.380382537841796875e-01 9.112234115600585938e-01 -9.337127208709716797e-02 1.396482825279235840e+00 -7.400469183921813965e-01 -4.381795823574066162e-01 2.484748125076293945e+00 -1.632277011871337891e+00 -1.821764230728149414e+00 1.522762179374694824e+00 1.746055006980895996e+00 3.633141517639160156e-01 9.089010953903198242e-01 -2.207693338394165039e+00 -1.324375867843627930e+00 4.248204529285430908e-01 3.932530581951141357e-01 -5.409786105155944824e-01 1.593329906463623047e+00 -2.895455658435821533e-01 -2.984498739242553711e-01 -8.385888338088989258e-01 1.765264153480529785e+00 2.661010250449180603e-02 -5.370033979415893555e-01 9.155645370483398438e-01 -1.818247914314270020e+00 -2.038480043411254883e+00 3.375105261802673340e-01 7.638437300920486450e-02 -1.311609983444213867e+00 2.280068099498748779e-01 1.240207552909851074e+00 -2.110313475131988525e-01 4.437062740325927734e+00 1.171952247619628906e+00 -3.071340024471282959e-01 -6.954355239868164062e-01 -6.169893145561218262e-01 3.933583199977874756e-01 -1.889794468879699707e+00 -1.912985563278198242e+00 1.543058753013610840e-01 -6.838414072990417480e-01 2.506421566009521484e+00 7.351207137107849121e-01 -1.329072237014770508e+00 -7.402513176202774048e-02 8.970427513122558594e-02 -6.203308328986167908e-02 -6.049619913101196289e-01 1.456350445747375488e+00 6.448948383331298828e-01 1.728498458862304688e+00 6.925044655799865723e-01 -1.024561762809753418e+00 1.134395599365234375e+00 3.018761157989501953e+00 -5.343198180198669434e-01 -1.944566965103149414e+00
8.880535960197448730e-01 5.790665000677108765e-02 -8.528380990028381348e-01 -1.941673517227172852e+00 1.208949565887451172e+00 9.652815461158752441e-01 -4.786082506179809570e-01 -1.310906171798706055e+00 -1.356959819793701172e+00 3.768347799777984619e-01 7.221246361732482910e-01 1.003747344017028809e+00 -3.996621668338775635e-01 7.556779384613037109e-01 -2.291348576545715332e-01 -1.284933686256408691e+00 -2.679383754730224609e+00 -1.832989454269409180e+00 -2.684181690216064453e+00 -8.339678645133972168e-01 7.097027897834777832e-01 9.662025570869445801e-01 -4.901645183563232422e-01 4.676735699176788330e-01 3.266313672065734863e-01 -3.522872924804687500e-01 3.702706098556518555e-01 -1.444748997688293457e+00 -8.359853625297546387e-01 2.725699245929718018e-01 -9.121977090835571289e-01 -1.119644522666931152e+00 1.008294522762298584e-02 -1.163376346230506897e-01 2.969087362289428711e+00 3.324948310852050781e+00 -1.140953153371810913e-01 -7.482547312974929810e-02 -1.563133955001831055e+00 -1.375847458839416504e+00 -3.457916080951690674e-01 -1.559020876884460449e+00 -6.626319289207458496e-01 -8.732643127441406250e-01 1.008242249488830566e+00 2.842771708965301514e-01 -1.414167046546936035e+00 -6.226225942373275757e-02 1.541345953941345215e+00 -1.308857798576354980e+00 6.829260587692260742e-01 -1.501643300056457520e+00 -1.259072542190551758e+00 1.294083833694458008e+00 -1.878563880920410156e+00 1.106652021408081055e+00 -5.111243724822998047e-01 -8.346592187881469727e-01 3.340571224689483643e-01 -4.379440546035766602e-01 -4.734777510166168213e-01 3.102572679519653320e+00 -1.146850109100341797e+00 -1.437443137168884277e+00 -1.390213966369628906e+00 7.409073114395141602e-01 1.734603047370910645e+00 -3.971825540065765381e-01 -6.950227618217468262e-01 1.967268705368041992e+00 1.996162980794906616e-01 -2.280385792255401611e-01 5.427070260047912598e-01 -6.843171119689941406e-01 -1.226096749305725098e+00 -1.978615999221801758e+00 -1.171664237976074219e+00 -6.958622336387634277e-01 -2.088634014129638672e+00 -7.193406820297241211e-01 -3.379837796092033386e-02 2.381026268005371094e+00 -3.654731810092926025e-01 7.681661844253540039e-01 1.778551578521728516e+00 7.024676203727722168e-01 4.978192746639251709e-01 -8.008762598037719727e-01 1.670562267303466797e+00 1.130839943885803223e+00 6.144996881484985352e-01 2.656476974487304688e+00 1.237779334187507629e-01 9.879339337348937988e-01 3.261116147041320801e-01 2.142574787139892578e+00 1.682730078697204590e+00 1.276059895753860474e-01 1.580228954553604126e-01 2.383706122636795044e-01 8.143818378448486328e-01 1.259917736053466797e+00 4.197409749031066895e-01 -9.226941466331481934e-01 -2.509062290191650391e+00 -5.989184975624084473e-01 -1.890032887458801270e+00 2.236961275339126587e-01 2.569546699523925781e-01 4.241765737533569336e-01 -1.989670991897583008e+00 3.317929506301879883e+00 6.097677946090698242e-01 -8.737677931785583496e-01 1.618966341018676758e+00 -8.248797655105590820e-01 1.549955487251281738e+00 2.012876510620117188e+00 -2.117170333862304688e+00 -1.065815463662147522e-01 4.246487319469451904e-01 1.629721999168395996e+00 1.396382212638854980e+00 -3.687467426061630249e-02 2.449112892150878906e+00 -1.380605459213256836e+00 4.871727228164672852e-01
-7.351356148719787598e-01 8.101112842559814453e-01 1.799060940742492676e+00 4.819174110889434814e-01 -2.676109552383422852e+00 -3.620656728744506836e+00 -7.859755158424377441e-01 1.254841089248657227e+00 -1.209207296371459961e+00 1.688022494316101074e+00 -5.463405251502990723e-01 1.702478826045989990e-01 8.056935667991638184e-01 -4.753021895885467529e-01 -1.627026200294494629e-01 -8.184506297111511230e-01 8.851855993270874023e-01 -1.309208989143371582e+00 1.375997304916381836e+00 3.167061805725097656e+00 -7.242164611816406250e-01 -4.068975746631622314e-01 1.698660492897033691e+00 3.943136930465698242e-01 9.458683133125305176e-01 -2.062948226928710938e+00 2.727348804473876953e+00 2.011162191629409790e-01 -7.669778466224670410e-01 2.460784196853637695e+00 4.249432682991027832e-01 3.493759155273437500e+00 1.322377800941467285e+00 1.994771212339401245e-01 1.141897082328796387e+00 -1.315187215805053711e+00 1.380661725997924805e+00 1.893762350082397461e+00 -7.132048010826110840e-01 3.106324076652526855e-01 -1.897019863128662109e+00 3.075469732284545898e-01 1.990382075309753418e+00 -5.728426575660705566e-01 -1.453870296478271484e+00 1.218240141868591309e+00 1.885649561882019043e+00 8.544123172760009766e-01 7.062433958053588867e-01 1.998948305845260620e-01 6.748248934745788574e-01 -1.559749603271484375e+00 -7.031596302986145020e-01 1.657102465629577637e+00 2.055088996887207031e+00 1.373482823371887207e+00 7.370985150337219238e-01 2.260154932737350464e-01 -2.010703802108764648e+00 -5.664520859718322754e-01 3.711930811405181885e-01 -5.517982244491577148e-01 6.760738492012023926e-01 -3.279046773910522461e+00 2.805407643318176270e-01 3.955059647560119629e-01 4.028488397598266602e-01 -1.907027125358581543e+00 -2.659079134464263916e-01 -3.280040025711059570e+00 2.588772475719451904e-01 1.035856530070304871e-01 1.263232469558715820e+00 -1.915042996406555176e+00 -7.909806370735168457e-01 2.866553962230682373e-01 -1.718110084533691406e+00 3.094069957733154297e+00 -7.434135079383850098e-01 -3.226616680622100830e-01 -9.220943450927734375e-01 -1.073576331138610840e+00 2.610833942890167236e-01 8.760015368461608887e-01 6.003401055932044983e-02 -9.956283569335937500e-01 -2.402322053909301758e+00 -1.638657450675964355e-01 1.297027587890625000e+00 1.663403362035751343e-01 -1.581884860992431641e+00 2.575043201446533203e+00 -2.378571271896362305e+00 -7.961049079895019531e-01 -1.046649932861328125e+00 -5.335420742630958557e-02 -2.179188251495361328e+00 -1.099687337875366211e+00 -5.744017958641052246e-01 1.873599529266357422e+00 2.152245283126831055e+00 -5.663951635360717773e-01 -1.347069740295410156e+00 2.314306259155273438e+00 -9.686455875635147095e-02 -2.148503959178924561e-01 -5.458751693367958069e-02 1.285493493080139160e+00 -2.406857967376708984e+00 -6.648193001747131348e-01 3.670629858970642090e-01 2.882023572921752930e+00 6.265832185745239258e-01 -2.006998538970947266e+00 6.129630804061889648e-01 -3.106340765953063965e-01 2.397452145814895630e-01 1.530147492885589600e-01 -2.065377086400985718e-01 3.693043589591979980e-01 1.291500806808471680e+00 5.052793025970458984e-01 2.384830951690673828e+00 -1.580819934606552124e-01 -5.532357692718505859e-01 9.639519453048706055e-01 -1.626930594444274902e+00
2.780148088932037354e-01 2.586760222911834717e-01 -1.848603844642639160e+00 -1.158848881721496582e+00 7.387104630470275879e-01 -8.142598867416381836e-01 1.663079500198364258e+00 1.477163910865783691e+00 -7.187463641166687012e-01 4.058094322681427002e-01 1.312379121780395508e+00 2.175104856491088867e+00 -1.014313817024230957e+00 -1.640876531600952148e+00 -6.659801006317138672e-01 -2.619166612625122070e+00 2.874517627060413361e-02 1.615740537643432617e+00 4.744300544261932373e-01 3.225539684295654297e+00 1.622282266616821289e-01 1.152018666267395020e+00 -3.110128827393054962e-02 -8.923975229263305664e-01 -3.421323895454406738e-01 1.471812874078750610e-01 -1.270811319351196289e+00 -7.774377465248107910e-01 -2.412220716476440430e+00 2.627199515700340271e-02 -2.813467681407928467e-01 1.484933853149414062e+00 1.475783158093690872e-02 -9.626001715660095215e-01 3.134722411632537842e-01 -6.630476564168930054e-03 1.998633444309234619e-01 -3.903793692588806152e-01 4.530425667762756348e-01 5.874641537666320801e-01 -1.154376029968261719e+00 -9.929646849632263184e-01 -4.552425742149353027e-01 -5.243752598762512207e-01 -4.538913071155548096e-01 8.503748774528503418e-01 -8.299876749515533447e-02 -1.470364689826965332e+00 7.343340665102005005e-02 -7.820694893598556519e-02 -1.245180606842041016e+00 -1.556800007820129395e-01 -8.781497180461883545e-02 -1.817287564277648926e+00 1.358163475990295410e+00 1.345880627632141113e+00 -2.600699365139007568e-01 -1.147211566567420959e-01 -1.002340435981750488e+00 4.275566041469573975e-01 -4.512513056397438049e-03 4.368736147880554199e-01 1.610671758651733398e+00 -9.332310557365417480e-01 1.364032030105590820e+00 -2.621772885322570801e-01 2.225025594234466553e-01 1.050427556037902832e+00 -3.463156521320343018e-01 1.050721883773803711e+00 -2.044925689697265625e+00 1.636694669723510742e-01 -5.390234589576721191e-01 -9.550040960311889648e-01 -2.064922809600830078e+00 -1.699081510305404663e-01 6.811676025390625000e-01 3.178777098655700684e-01 3.515842437744140625e+00 -2.513876557350158691e-01 -8.444111794233322144e-02 -4.305629432201385498e-01 -1.338746309280395508e+00 4.898100495338439941e-01 -4.581066668033599854e-01 -4.353408515453338623e-01 4.344944357872009277e-01 1.947337627410888672e+00 1.484430313110351562e+00 1.087309837341308594e+00 -9.843887090682983398e-01 -1.689560294151306152e+00 -2.827636241912841797e+00 3.085087537765502930e+00 -9.299866855144500732e-02 -1.362282037734985352e-01 3.599406480789184570e+00 -1.088435292243957520e+00 -1.609055995941162109e+00 -1.099846720695495605e+00 -4.449824690818786621e-01 5.235307812690734863e-01 -2.244311273097991943e-01 -1.609329938888549805e+00 -7.903791069984436035e-01 1.551157116889953613e+00 -1.680716037750244141e+00 1.270878553390502930e+00 -1.002243518829345703e+00 4.911620914936065674e-01 4.230227470397949219e-01 -1.348944902420043945e+00 2.433977365493774414e+00 3.165160894393920898e+00 2.033501148223876953e+00 -2.821239531040191650e-01 -1.869050025939941406e+00 -1.644908905029296875e+00 -7.964177131652832031e-01 8.487586975097656250e-01 -2.696104347705841064e-01 -6.132679581642150879e-01 2.206802606582641602e+00 -2.229701280593872070e+00 -1.239352583885192871e+00 -1.128652572631835938e+00 8.187942504882812500e-01
5.449321866035461426e-01 -4.847349524497985840e-01 8.445921540260314941e-02 1.212193846702575684e+00 7.360619306564331055e-01 -4.281246364116668701e-01 4.071181714534759521e-01 -8.210493326187133789e-01 -2.945949733257293701e-01 2.880819141864776611e-01 1.378543496131896973e+00 1.826286911964416504e+00 -3.681044578552246094e-01 -3.602664470672607422e-01 3.490801155567169189e-01 1.261677384376525879e+00 -9.435737878084182739e-02 5.102074146270751953e-01 1.281988024711608887e+00 1.343176960945129395e-01 1.958595275878906250e+00 -7.248708605766296387e-01 -1.178503751754760742e+00 -1.124930381774902344e-01 1.307855129241943359e+00 -7.246122956275939941e-01 -6.959729790687561035e-01 -8.446813225746154785e-01 6.187247633934020996e-01 -1.712230920791625977e+00 -3.277956247329711914e-01 -5.478451251983642578e-01 1.085288763046264648e+00 1.941875696182250977e+00 2.409011125564575195e+00 -3.432037532329559326e-01 -2.822943031787872314e-01 7.860771417617797852e-01 1.158152341842651367e+00 -4.283096790313720703e-01 1.524072140455245972e-01 -7.858494520187377930e-01 2.172904968261718750e+00 -6.550828814506530762e-01 -1.141330972313880920e-01 1.754613518714904785e+00 -2.604859113693237305e+00 -6.787662506103515625e-01 2.844339847564697266e+00 -5.985202193260192871e-01 1.637214779853820801e+00 -1.678215622901916504e+00 1.420001864433288574e+00 1.397749423980712891e+00 -5.651428103446960449e-01 1.433584541082382202e-01 -2.228823423385620117e+00 1.463263630867004395e-01 2.221779227256774902e-01 -8.088881969451904297e-01 8.591391444206237793e-01 -5.461841821670532227e-01 2.748585641384124756e-01 -1.341122627258300781e+00 1.911588072776794434e+00 7.685815095901489258e-01 1.160448193550109863e+00 -2.431244134902954102e+00 1.092520117759704590e+00 -4.798055589199066162e-01 -5.031476020812988281e-01 -9.908971190452575684e-01 -1.321985870599746704e-01 2.147925376892089844e+00 -8.684996962547302246e-01 -1.590139418840408325e-01 1.252278447151184082e+00 1.689766645431518555e-01 2.188930988311767578e+00 -1.302892088890075684e+00 3.438183665275573730e-01 1.307213902473449707e+00 1.650612235069274902e+00 3.061046302318572998e-01 9.045360609889030457e-03 -3.840122222900390625e-01 -1.891698718070983887e+00 1.315082669258117676e+00 4.406943321228027344e-01 -2.790583133697509766e+00 -5.009598135948181152e-01 -5.628290772438049316e-01 -3.391319513320922852e-01 6.135055422782897949e-01 -7.749063372611999512e-01 -9.143453240394592285e-01 -4.273357093334197998e-01 -1.170425057411193848e+00 -1.802679181098937988e+00 2.145612478256225586e+00 3.428023457527160645e-01 9.903162717819213867e-01 -3.888913869857788086e+00 1.206671476364135742e+00 4.659991860389709473e-01 -2.635343313217163086e+00 -3.397623300552368164e+00 -6.097124218940734863e-01 4.744485020637512207e-01 -3.565407693386077881e-01 1.818154215812683105e+00 -2.023622512817382812e+00 -1.594420909881591797e+00 2.931584358215332031e+00 2.003301858901977539e+00 1.179147791117429733e-02 -4.821596145629882812e-01 -2.337369471788406372e-01 -5.171942710876464844e-01 -5.723843574523925781e-01 2.941566407680511475e-01 -4.151968479156494141e+00 8.034651875495910645e-01 2.160463929176330566e-01 8.210846185684204102e-01 -2.994231283664703369e-01 -3.640939235687255859e+00
1.338765501976013184e+00 -3.396172523498535156e-01 1.618284881114959717e-01 -1.117242336273193359e+00 -3.473436117172241211e+00 3.194097280502319336e-01 -7.560716867446899414e-01 3.515152633190155029e-01 -4.671596884727478027e-01 -6.634292602539062500e-01 3.102782011032104492e+00 7.631443738937377930e-01 -2.007454186677932739e-01 -7.514209747314453125e-01 4.800075292587280273e-01 2.042361259460449219e+00 4.040063321590423584e-01 1.109172701835632324e+00 1.345037817955017090e+00 -5.377373695373535156e-01 -6.941484212875366211e-01 1.723151564598083496e+00 -1.214196681976318359e+00 1.876689553260803223e+00 7.211915850639343262e-01 6.551316976547241211e-01 1.763374924659729004e+00 -1.410278201103210449e+00 -6.330140680074691772e-02 3.481554687023162842e-01 -2.243949890136718750e+00 1.089722990989685059e+00 8.391070365905761719e-01 -2.200431190431118011e-02 -2.808042287826538086e+00 -1.451364457607269287e-01 1.714794158935546875e+00 2.728424035012722015e-02 1.030806541442871094e+00 -1.874799132347106934e+00 8.977597951889038086e-01 2.539922714233398438e+00 -7.084146738052368164e-01 1.814134001731872559e+00 -7.133219838142395020e-01 1.442660927772521973e+00 -2.956859827041625977e+00 1.583543419837951660e-01 1.414310783147811890e-01 -2.270632982254028320e+00 -1.298200488090515137e+00 1.494428992271423340e+00 6.269531250000000000e-01 -9.246991872787475586e-01 -4.761236906051635742e-01 9.712957739830017090e-01 -3.424650132656097412e-01 3.063469827175140381e-01 2.496610403060913086e+00 1.220373988151550293e+00 3.108419179916381836e-01 -1.118161916732788086e+00 7.075298428535461426e-01 -1.054906249046325684e-01 -1.544558908790349960e-02 3.359386622905731201e-01 -1.907045692205429077e-01 6.731998324394226074e-01 -2.087412029504776001e-01 1.282435774803161621e+00 1.946418166160583496e+00 -1.952298402786254883e+00 3.315835475921630859e+00 -2.330335676670074463e-01 2.046133995056152344e+00 3.612794637680053711e+00 1.749843120574951172e+00 -1.405206322669982910e+00 -1.523725032806396484e+00 3.340973258018493652e-01 2.767682790756225586e+00 -7.025578022003173828e-01 8.437774777412414551e-01 -2.707872390747070312e-01 1.708760023117065430e+00 6.445967555046081543e-01 -2.981714248657226562e+00 -7.977244257926940918e-01 -2.007808923721313477e+00 3.536384105682373047e-01 -4.316655993461608887e-01 3.712275266647338867e+00 -4.075787961483001709e-01 3.568551838397979736e-01 -3.218644142150878906e+00 1.453962564468383789e+00 -9.068510532379150391e-01 -1.634371995925903320e+00 5.400050282478332520e-01 -2.325471162796020508e+00 -7.370647192001342773e-01 -1.566374301910400391e-01 -7.191151380538940430e-01 8.150755763053894043e-01 4.942608475685119629e-01 6.246220469474792480e-01 -5.121728777885437012e-01 2.316304206848144531e+00 -1.406624794006347656e+00 2.032387256622314453e-01 3.208567798137664795e-01 -4.669225215911865234e-01 9.431146085262298584e-02 2.590789556503295898e+00 7.686029672622680664e-01 -1.343940973281860352e+00 -2.667203247547149658e-01 -1.142767071723937988e+00 -1.128627896308898926e+00 3.346987485885620117e+00 -1.402920126914978027e+00 -5.691579580307006836e-01 -6.734749078750610352e-01 1.814916282892227173e-01 3.280903100967407227e-01 2.154880948364734650e-02 -1.188904166221618652e+00
2.775278329849243164e+00 -4.593846201896667480e-01 -1.334620714187622070e+00 -1.893371701240539551e+00 -1.734278321266174316e+00 7.942163348197937012e-01 1.713930249214172363e+00 -5.068798661231994629e-01 5.454289540648460388e-02 8.847703337669372559e-01 7.158672809600830078e-02 -2.399672031402587891e+00 1.591705799102783203e+00 -1.539341211318969727e+00 9.861375689506530762e-01 -8.219258189201354980e-01 -2.516978979110717773e-01 1.692049026489257812e+00 1.006708979606628418e+00 -5.976647138595581055e-01 -3.141968011856079102e+00 2.726207077503204346e-01 -2.709051407873630524e-02 -2.486038720235228539e-03 3.794060051441192627e-01 -8.121371269226074219e-01 -6.784750819206237793e-01 5.605592727661132812e-01 7.837321758270263672e-01 7.219275832176208496e-01 9.764645099639892578e-01 -1.840979456901550293e-01 -1.246945500373840332e+00 -2.841493368148803711e+00 -1.370256543159484863e+00 -1.040812611579895020e+00 -9.044774174690246582e-01 1.315678656101226807e-01 -2.327907830476760864e-01 -1.205833330750465393e-01 2.964034974575042725e-01 -9.359000325202941895e-01 -1.125141501426696777e+00 9.788843989372253418e-01 9.937049746513366699e-01 -4.852353036403656006e-01 1.901755332946777344e+00 1.200095862150192261e-01 1.298876047134399414e+00 -1.065553545951843262e+00 -7.535429596900939941e-01 -1.850151896476745605e+00 1.972940683364868164e+00 -1.346714138984680176e+00 6.279941201210021973e-01 2.435383498668670654e-01 1.316290736198425293e+00 9.952377080917358398e-01 -8.148334026336669922e-01 2.665786445140838623e-01 -2.943046391010284424e-01 -2.584612071514129639e-01 -1.560166925191879272e-01 -1.677710860967636108e-01 -1.323317050933837891e+00 7.680300474166870117e-01 5.927348136901855469e-01 2.685067057609558105e-01 2.839869737625122070e+00 -6.981308460235595703e-01 -1.678353071212768555e+00 -2.751674354076385498e-01 -2.478688210248947144e-01 4.592036008834838867e-01 1.712187409400939941e+00 1.665533632040023804e-01 -2.346477508544921875e+00 -1.925287246704101562e-01 -1.428118497133255005e-01 3.289149284362792969e+00 1.157929539680480957e+00 3.170579195022583008e+00 8.202153444290161133e-02 -1.674351811408996582e+00 -1.397809863090515137e+00 -5.659638643264770508e-01 1.079155325889587402e+00 1.267981648445129395e+00 -1.855595946311950684e+00 -1.155309677124023438e+00 -1.925176531076431274e-01 -5.722663998603820801e-01 8.398963212966918945e-01 5.908626914024353027e-01 2.382339000701904297e+00 -1.444497108459472656e+00 2.053663969039916992e+00 -1.119087576866149902e+00 -1.891979932785034180e+00 2.720787525177001953e-01 1.580780267715454102e+00 -1.765756487846374512e+00 -1.293672919273376465e+00 3.088833808898925781e+00 -1.801005005836486816e+00 6.287853717803955078e-01 -5.810030102729797363e-01 -1.348780035972595215e+00 1.864226907491683960e-01 -2.553435862064361572e-01 1.433404207229614258e+00 1.234560012817382812e+00 1.690248966217041016e+00 -3.638191521167755127e-01 -1.601595759391784668e+00 -7.917816042900085449e-01 1.277406215667724609e+00 8.556615114212036133e-01 -1.621877789497375488e+00 9.002143740653991699e-01 2.011431455612182617e+00 2.937546968460083008e+00 -2.205230712890625000e+00 3.471807718276977539e+00 -1.577952742576599121e+00 -6.838604211807250977e-01 -1.071298480033874512e+00
1.664149947464466095e-02 7.213239073753356934e-01 -1.336197733879089355e+00 1.191825628280639648e+00 -2.095958232879638672e+00 -4.047948837280273438e+00 1.256301164627075195e+00 -2.371626853942871094e+00 -7.530936971306800842e-03 -1.300106644630432129e+00 -2.476271539926528931e-01 6.077737808227539062e-01 -4.216804802417755127e-01 3.170034885406494141e+00 -9.715616106986999512e-01 1.115776419639587402e+00 -2.172048807144165039e+00 -9.598142467439174652e-03 1.388021945953369141e+00 -3.732319772243499756e-01 -3.631659224629402161e-02 1.061980247497558594e+00 1.479640722274780273e+00 2.508836090564727783e-01 1.763814806938171387e+00 -2.680058479309082031e+00 -2.363972425460815430e+00 -1.304651975631713867e+00 -8.246223330497741699e-01 -1.318834900856018066e+00 5.334585905075073242e-03 1.169493347406387329e-01 1.018619060516357422e+00 3.956804871559143066e-01 -2.840011119842529297e+00 -4.837545752525329590e-01 6.744070649147033691e-01 -6.607306003570556641e-01 1.062644243240356445e+00 8.014861345291137695e-01 1.410969853401184082e+00 3.390969634056091309e-01 -1.991830468177795410e-01 -7.997598648071289062e-01 7.015102505683898926e-01 -1.903320074081420898e+00 -5.645126700401306152e-01 -2.196545302867889404e-01 -3.232204914093017578e-02 5.328621268272399902e-01 6.239489912986755371e-01 4.244050383567810059e-01 8.893586695194244385e-03 -3.569553196430206299e-01 -6.418650150299072266e-01 -1.456495523452758789e+00 7.545990496873855591e-02 2.250516176223754883e+00 -4.256106615066528320e-01 -1.213197112083435059e+00 9.816685318946838379e-01 8.109943866729736328e-01 -2.471046708524227142e-02 -5.586934685707092285e-01 3.216740846633911133e+00 -8.062894344329833984e-01 1.466893076896667480e+00 7.477518320083618164e-01 1.846187829971313477e+00 1.029494166374206543e+00 4.865967929363250732e-01 -2.010046988725662231e-01 -4.319014847278594971e-01 2.082844018936157227e+00 1.018876910209655762e+00 2.726629257202148438e+00 5.631166100502014160e-01 -1.873893141746520996e-01 -5.342062711715698242e-01 1.153137803077697754e+00 8.408809304237365723e-01 -6.514170169830322266e-01 7.172505855560302734e-01 2.449565410614013672e+00 1.517301559448242188e+00 -1.458520293235778809e-01 -1.913297325372695923e-01 4.285080730915069580e-01 -1.506402969360351562e+00 1.206515654921531677e-01 4.034231901168823242e-01 -5.232317447662353516e-01 -1.007122397422790527e+00 -1.278830528259277344e+00 1.464283466339111328e-01 -2.046116113662719727e+00 -1.832444071769714355e+00 -1.965901970863342285e+00 2.662425637245178223e-01 7.634915709495544434e-01 -8.909968137741088867e-01 -6.019982695579528809e-01 8.944433927536010742e-01 1.369812041521072388e-01 -2.063551664352416992e+00 -6.057541370391845703e-01 3.878331184387207031e-01 -8.205453306436538696e-02 8.002241849899291992e-01 4.314954876899719238e-01 1.724986076354980469e+00 1.302112825214862823e-02 -1.138904094696044922e-01 1.052972793579101562e+00 -3.081944584846496582e-01 -1.417797952890396118e-01 2.558349967002868652e-01 1.055085420608520508e+00 -3.668129205703735352e+00 6.955012083053588867e-01 2.046335697174072266e+00 2.480706930160522461e+00 2.019958972930908203e+00 -3.923549950122833252e-01 -1.113009333610534668e+00 -2.984668314456939697e-02 3.089775145053863525e-01
2.011404275894165039e+00 -3.114588260650634766e-01 3.763706386089324951e-01 -3.226677179336547852e-01 8.705584406852722168e-01 -2.122611522674560547e+00 -1.812961935997009277e+00 -4.808707833290100098e-01 3.007885694503784180e+00 -4.665676131844520569e-02 -3.069006800651550293e-01 -2.913633882999420166e-01 -6.665516495704650879e-01 1.378715038299560547e+00 -4.063076972961425781e-01 -9.569661319255828857e-02 -1.595000028610229492e+00 1.007849216461181641e+00 2.331310033798217773e+00 5.628432631492614746e-01 2.463197112083435059e-01 1.674735426902770996e+00 -9.283768534660339355e-01 -1.792098432779312134e-01 3.350624740123748779e-01 -3.120270669460296631e-01 1.191574931144714355e+00 -2.941704988479614258e-01 -6.824152171611785889e-02 2.629162371158599854e-01 8.348060846328735352e-01 -1.639054894447326660e+00 -1.994727849960327148e+00 -1.501540660858154297e+00 -1.479418575763702393e-01 -4.645721912384033203e-01 -7.600140571594238281e-01 6.551942229270935059e-01 -1.428542852401733398e+00 -9.668959975242614746e-01 -2.307067215442657471e-01 1.250838279724121094e+00 -2.589718818664550781e+00 1.051631450653076172e+00 -1.344368100166320801e+00 -4.981346726417541504e-01 1.488822817802429199e+00 6.813838481903076172e-01 1.097011327743530273e+00 -1.336345553398132324e+00 1.278724223375320435e-01 6.273123621940612793e-01 -1.624867796897888184e+00 9.998751878738403320e-01 3.877895355224609375e+00 -1.058934330940246582e+00 2.157435417175292969e+00 1.547824025154113770e+00 2.076525986194610596e-01 -1.227160692214965820e+00 1.913237333297729492e+00 -1.539100408554077148e+00 -3.094515800476074219e+00 4.849132522940635681e-02 -4.154025018215179443e-01 -3.717598676681518555e+00 -3.141010105609893799e-01 -7.612854242324829102e-01 -1.090808868408203125e+00 -6.737838983535766602e-01 -5.067303776741027832e-01 -1.878203153610229492e+00 -1.221391931176185608e-01 -2.775971889495849609e+00 -3.031172037124633789e+00 3.134405016899108887e-01 -2.852128744125366211e-01 -2.961945831775665283e-01 -1.922643184661865234e+00 1.932687163352966309e-01 -1.469795584678649902e+00 2.946468591690063477e+00 1.247119426727294922e+00 5.352193117141723633e-01 1.635068535804748535e+00 -1.780978083610534668e+00 -1.720113158226013184e+00 -5.051472783088684082e-01 2.624706983566284180e+00 -7.198502421379089355e-01 2.470992326736450195e+00 -1.933755427598953247e-01 -5.650981664657592773e-01 2.151361703872680664e+00 -8.852057904005050659e-02 -1.412625670433044434e+00 2.131506353616714478e-01 2.693214178085327148e+00 5.029192566871643066e-01 9.569342136383056641e-01 -5.196121931076049805e-01 1.407603025436401367e+00 -2.308209896087646484e+00 3.401980102062225342e-01 -8.028753995895385742e-01 9.744957685470581055e-01 -7.509874701499938965e-01 5.984112620353698730e-01 6.824238896369934082e-01 4.861897975206375122e-02 -6.059236526489257812e-01 1.379968404769897461e+00 -1.078242659568786621e-01 -4.128059446811676025e-01 1.634139537811279297e+00 -1.623919248580932617e+00 -5.341219902038574219e-01 -1.602866351604461670e-01 9.408770799636840820e-01 6.373170763254165649e-02 -1.279865503311157227e+00 1.424707770347595215e+00 3.759151399135589600e-01 -2.065918222069740295e-02 -6.627157926559448242e-01 -6.209167838096618652e-01 1.192392110824584961e+00
-1.452150106430053711e+00 -1.761662960052490234e+00 3.450411856174468994e-01 7.931382060050964355e-01 -4.430815577507019043e-01 2.044752597808837891e+00 -1.182712540030479431e-01 2.040783405303955078e+00 6.459860205650329590e-01 -3.685979843139648438e-01 1.872102022171020508e+00 -2.098420858383178711e+00 7.643492817878723145e-01 4.316374957561492920e-01 2.693169414997100830e-01 3.344275951385498047e-01 -1.526197671890258789e+00 -8.240977525711059570e-01 2.106288671493530273e+00 -8.721977472305297852e-02 7.280831336975097656e-01 1.186400651931762695e+00 -1.985555589199066162e-01 1.573148608207702637e+00 -1.786238849163055420e-01 -3.756197392940521240e-01 3.810362815856933594e-01 -1.488118290901184082e+00 5.157278776168823242e-01 1.254569649696350098e+00 -2.595803141593933105e-01 9.288896620273590088e-02 2.178160190582275391e+00 -2.146774977445602417e-01 6.551029086112976074e-01 -1.110358953475952148e+00 -2.472268581390380859e+00 1.390743494033813477e+00 3.838106155395507812e+00 2.201319038867950439e-01 -3.452212095260620117e+00 -9.032728523015975952e-02 1.981290340423583984e+00 -1.049588561058044434e+00 2.136158049106597900e-01 6.552566289901733398e-01 -2.004657506942749023e+00 1.634484082460403442e-01 -2.169854164123535156e+00 -1.799325346946716309e-01 -6.178030371665954590e-01 -2.275698423385620117e+00 6.913652420043945312e-01 -2.538775682449340820e+00 1.555225968360900879e+00 -3.300410032272338867e+00 7.561796903610229492e-02 -1.003495976328849792e-01 1.216844201087951660e+00 -2.766950130462646484e-01 -1.602896571159362793e+00 -1.078411579132080078e+00 2.948757648468017578e+00 -3.228173553943634033e-01 3.745715366676449776e-03 -1.773845911026000977e+00 3.896576464176177979e-01 -2.141886472702026367e+00 5.955077358521521091e-04 4.785824120044708252e-01 1.670458078384399414e+00 -1.445868760347366333e-01 1.819378256797790527e+00 1.374970078468322754e-01 -8.998882770538330078e-02 -4.861179888248443604e-01 1.216184139251708984e+00 2.108928114175796509e-01 3.050670921802520752e-01 8.866727352142333984e-01 1.100061655044555664e+00 1.103291884064674377e-01 -1.492535471916198730e+00 -1.682171702384948730e+00 2.276461124420166016e+00 4.779299497604370117e-01 1.044215559959411621e+00 -6.037382036447525024e-02 9.776764512062072754e-01 8.826199769973754883e-01 -2.067816019058227539e+00 -1.731925249099731445e+00 -1.213877201080322266e+00 -1.299376368522644043e+00 1.195663571357727051e+00 1.389874577522277832e+00 2.878478527069091797e+00 -3.497840762138366699e-01 2.760263681411743164e-01 -1.629523158073425293e+00 8.725531697273254395e-01 9.574256539344787598e-01 -2.240303516387939453e+00 1.004599690437316895e+00 2.956636250019073486e-01 1.092395186424255371e-01 -3.149708747863769531e+00 1.059819340705871582e+00 7.575011253356933594e-01 1.930027484893798828e+00 6.882292032241821289e-01 1.053614839911460876e-01 -1.895233988761901855e+00 1.347368001937866211e+00 -4.744499027729034424e-01 -2.724918365478515625e+00 1.416855335235595703e+00 4.316738843917846680e-01 -2.772082388401031494e-01 2.574164867401123047e-01 1.912429928779602051e+00 -3.317037224769592285e-01 -1.338561624288558960e-01 1.506368637084960938e+00 6.460877507925033569e-02 -1.571818828582763672e+00 -1.842483758926391602e+00
6.376735568046569824e-01 1.825455546379089355e+00 -7.412087917327880859e-01 9.288980364799499512e-01 6.873493194580078125e-01 3.431073157116770744e-03 2.068046033382415771e-01 2.666052430868148804e-02 -2.333138942718505859e+00 -4.786223918199539185e-02 -8.126269578933715820e-01 1.392393112182617188e-01 -1.864669799804687500e+00 8.510640263557434082e-01 8.081018924713134766e-01 3.018356323242187500e+00 -7.144655585289001465e-01 2.431540489196777344e+00 5.824797749519348145e-01 1.325915575027465820e+00 -1.252838730812072754e+00 -9.899109005928039551e-01 1.114523053169250488e+00 -1.510617136955261230e+00 -1.609101444482803345e-01 -8.894578814506530762e-01 -7.903453707695007324e-01 5.189212560653686523e-01 5.598463416099548340e-01 6.141197681427001953e-01 -1.869404315948486328e-01 8.752450346946716309e-01 2.644365727901458740e-01 -6.170789152383804321e-02 -1.708384156227111816e+00 -7.170625329017639160e-01 -7.745843380689620972e-02 -1.372681409120559692e-01 5.071167647838592529e-02 7.249042987823486328e-01 -4.024417400360107422e+00 1.002038955688476562e+00 8.841497898101806641e-01 8.486384153366088867e-02 -5.652388334274291992e-01 -9.677842259407043457e-01 9.232403635978698730e-01 3.522014319896697998e-01 -2.444521903991699219e+00 -1.309819936752319336e+00 -7.404738068580627441e-01 3.369365930557250977e-01 -3.695489466190338135e-01 1.921637296676635742e+00 9.186325669288635254e-01 1.103771090507507324e+00 3.347337961196899414e+00 1.382542401552200317e-02 2.430610895156860352e+00 -4.860201179981231689e-01 3.666674196720123291e-01 3.058519065380096436e-01 -7.571871578693389893e-02 1.100166916847229004e+00 1.328504204750061035e+00 -1.119959115982055664e+00 3.018982708454132080e-01 7.623584270477294922e-01 1.775507032871246338e-01 -2.128727734088897705e-01 -4.932239651679992676e-02 -7.761250734329223633e-01 -1.279344081878662109e+00 5.601244568824768066e-01 -5.962010622024536133e-01 1.840609163045883179e-01 2.460636615753173828e+00 2.230204939842224121e-01 -1.013704895973205566e+00 -1.000398874282836914e+00 -1.859234213829040527e+00 2.950340986251831055e+00 -3.574313223361968994e-01 1.899744272232055664e+00 1.212796092033386230e+00 -8.196605443954467773e-01 1.038998126983642578e+00 -1.867907285690307617e+00 2.748026847839355469e+00 -7.690558433532714844e-01 -1.666811227798461914e+00 2.619884014129638672e+00 -8.356941342353820801e-01 -1.255158185958862305e+00 1.856754660606384277e+00 1.253150463104248047e+00 2.000622272491455078e+00 -2.292719841003417969e+00 -1.083997488021850586e+00 -1.214678049087524414e+00 1.053972840309143066e+00 8.559368252754211426e-01 3.163215816020965576e-01 8.427292108535766602e-01 -3.026272654533386230e-01 1.838224411010742188e+00 -1.374599486589431763e-01 4.234089255332946777e-01 2.865379452705383301e-01 2.157346457242965698e-01 1.953217506408691406e+00 -2.132009267807006836e+00 1.456950664520263672e+00 1.290994137525558472e-01 -7.646383047103881836e-01 6.435297727584838867e-01 -1.941638112068176270e+00 -2.184460163116455078e+00 -9.427049756050109863e-02 -1.380303949117660522e-01 3.051892817020416260e-01 -3.782487809658050537e-01 -9.150440692901611328e-01 4.171365261077880859e+00 4.226196408271789551e-01 1.547368615865707397e-01 -7.157994508743286133e-01
-8.941315412521362305e-01 4.222272336483001709e-01 -6.784030199050903320e-01 -7.036705613136291504e-01 1.615481615066528320e+00 6.802979111671447754e-01 -1.839597821235656738e+00 -1.142562389373779297e+00 1.221613526344299316e+00 -7.010005116462707520e-01 -2.242376565933227539e+00 4.593589603900909424e-01 -3.903208076953887939e-01 -1.621192574501037598e+00 2.270305305719375610e-01 -1.193829894065856934e+00 -3.862807750701904297e-01 4.531916081905364990e-01 1.916165471076965332e+00 -1.222771048545837402e+00 -9.675253629684448242e-01 7.861643433570861816e-01 -1.493725061416625977e+00 -1.318782329559326172e+00 -1.664724349975585938e-01 2.100865691900253296e-01 -1.599387645721435547e+00 -1.025884002447128296e-01 1.685845851898193359e+00 3.580607414245605469e+00 -1.624319791793823242e+00 -5.125257372856140137e-01 -2.703677177429199219e+00 -8.147003501653671265e-02 -3.318252861499786377e-01 2.547925233840942383e+00 2.941551804542541504e-01 -1.040535688400268555e+00 2.126954793930053711e+00 2.767925977706909180e+00 1.261616706848144531e+00 -1.214700818061828613e+00 5.159074664115905762e-01 -2.373314380645751953e+00 6.167473793029785156e-01 8.236916065216064453e-01 2.488146543502807617e+00 -8.742731213569641113e-01 -2.227561473846435547e+00 -2.393028020858764648e+00 -8.035445809364318848e-01 1.607760429382324219e+00 -1.715488076210021973e+00 -1.848394513130187988e+00 -1.233703255653381348e+00 -3.666209802031517029e-02 4.219781875610351562e+00 -1.304248571395874023e+00 2.480735182762145996e-01 -8.070132136344909668e-02 1.378584146499633789e+00 -1.250799059867858887e+00 -8.867071270942687988e-01 -1.944606542587280273e+00 5.063010379672050476e-02 8.620122671127319336e-01 -3.064102172851562500e+00 -5.471887588500976562e-01 2.746360063552856445e+00 -2.490360498428344727e+00 2.101428985595703125e+00 6.136260032653808594e-01 -8.274725675582885742e-01 7.229104042053222656e-01 -8.096759319305419922e-01 -9.479218125343322754e-01 -4.114135801792144775e-01 3.080280125141143799e-01 -2.790767908096313477e+00 -3.534698188304901123e-01 -7.905431389808654785e-01 6.666494607925415039e-01 -2.978688776493072510e-01 -1.117650985717773438e+00 -3.721285164356231689e-01 1.010544821619987488e-01 5.561847686767578125e-01 -1.953030347824096680e+00 3.783463537693023682e-01 1.284839749336242676e+00 1.454829931259155273e+00 6.524531841278076172e-01 -2.043488770723342896e-01 -8.264030814170837402e-01 -1.555118918418884277e+00 3.320417404174804688e-01 -1.360414743423461914e+00 3.917379081249237061e-01 -2.875403642654418945e+00 -8.595075011253356934e-01 5.502601265907287598e-01 -8.853102922439575195e-01 -2.097866982221603394e-01 -2.905870974063873291e-01 2.259664982557296753e-01 1.676342129707336426e+00 -2.537775039672851562e+00 8.210949301719665527e-01 -1.553330421447753906e+00 -1.646444559097290039e+00 1.881838589906692505e-01 -8.424695730209350586e-01 8.959746956825256348e-01 2.082061767578125000e+00 4.628523066639900208e-02 3.310707569122314453e+00 2.135981917381286621e-01 -9.227582216262817383e-01 1.684680342674255371e+00 1.077586174011230469e+00 -1.126933813095092773e+00 7.339935302734375000e-01 -1.471886754035949707e+00 -7.064486742019653320e-01 -2.144972980022430420e-01 2.861665785312652588e-01 3.393621742725372314e-01
2.516777627170085907e-02 8.987622261047363281e-01 2.456262111663818359e+00 8.200945854187011719e-01 -4.106996953487396240e-02 -6.794068217277526855e-02 -1.135118246078491211e+00 1.384621262550354004e+00 3.859960734844207764e-01 2.114138454198837280e-01 -1.241837907582521439e-02 -1.640975177288055420e-01 5.036172866821289062e-01 1.222566813230514526e-01 -2.005932480096817017e-01 -1.414497852325439453e+00 1.530149430036544800e-01 -8.341954648494720459e-02 -5.689899921417236328e-01 -1.963245987892150879e+00 7.183026671409606934e-01 1.688081860542297363e+00 -9.080836176872253418e-02 1.177400127053260803e-01 -5.777180194854736328e-01 -1.692545771598815918e+00 -1.149595379829406738e+00 -1.895652890205383301e+00 2.138473033905029297e+00 -8.588917255401611328e-01 -1.074389696121215820e+00 -1.019285440444946289e+00 3.933523893356323242e-01 1.758066892623901367e+00 1.215263605117797852e+00 4.107920229434967041e-01 4.732910990715026855e-01 -4.848973751068115234e-01 -1.803455114364624023e+00 -9.067070484161376953e-01 1.885928153991699219e+00 2.519451856613159180e+00 -2.253532260656356812e-01 3.797975480556488037e-01 2.464474886655807495e-01 1.301005244255065918e+00 -2.825760841369628906e+00 2.606490135192871094e+00 -3.456265211105346680e+00 -7.697351574897766113e-01 -1.658413767814636230e+00 4.704335331916809082e-01 2.146893501281738281e+00 -1.018534779548645020e+00 -8.316272497177124023e-02 -1.727677434682846069e-01 2.370240926742553711e+00 4.433339536190032959e-01 -1.668476819992065430e+00 3.761648014187812805e-02 -2.498928546905517578e+00 -8.123054355382919312e-02 2.579295158386230469e+00 -1.866928696632385254e+00 1.021278858184814453e+00 -3.806261420249938965e-01 -3.889911472797393799e-01 4.476299509406089783e-02 -5.058979615569114685e-02 4.505230188369750977e-01 -2.103815078735351562e+00 7.795288562774658203e-01 7.873221039772033691e-01 7.473851442337036133e-01 -2.625254392623901367e+00 2.044274657964706421e-01 -3.002452291548252106e-02 1.587246656417846680e+00 -1.099258542060852051e+00 -1.875879526138305664e+00 -4.364483356475830078e-01 -6.988874673843383789e-01 -2.924677133560180664e+00 -1.785886526107788086e+00 -1.515596747398376465e+00 8.529437184333801270e-01 -1.076281666755676270e+00 1.621260404586791992e+00 -1.422200083732604980e+00 4.007980227470397949e-01 1.216573953628540039e+00 -1.266944646835327148e+00 -1.899155855178833008e+00 2.447005175054073334e-02 3.887332677841186523e-01 5.875307321548461914e-01 -1.472625970840454102e+00 -2.377562761306762695e+00 -7.581306099891662598e-01 -2.659029245376586914e+00 -1.296326994895935059e+00 2.726171910762786865e-01 -3.609473705291748047e+00 -3.921616077423095703e-01 -1.520840525627136230e+00 -4.801565408706665039e-01 2.929435372352600098e-01 2.170661687850952148e+00 2.817093610763549805e+00 -4.343245029449462891e-01 -8.657498359680175781e-01 1.926414489746093750e+00 -6.723425388336181641e-01 -5.850204229354858398e-01 4.219019412994384766e-01 -2.060903310775756836e+00 2.087349891662597656e+00 -3.847815096378326416e-01 5.541582033038139343e-02 1.496894359588623047e+00 1.948485612869262695e+00 1.470453262329101562e+00 4.593807458877563477e-01 -3.412864804267883301e-01 1.306524723768234253e-01 1.250844001770019531e+00 7.223755121231079102e-01
1.565013647079467773e+00 -6.522601842880249023e-01 7.220947742462158203e-01 -3.306505441665649414e+00 3.135700821876525879e-01 -2.354131698608398438e+00 -1.707425266504287720e-01 -7.591577172279357910e-01 4.768508672714233398e-01 2.969249248504638672e+00 6.267550587654113770e-01 -3.232746362686157227e+00 -2.896421432495117188e+00 7.647344470024108887e-01 -1.062709689140319824e-01 1.239695787429809570e+00 -1.937932014465332031e+00 -1.612356543540954590e+00 7.204005867242813110e-02 2.406228780746459961e+00 -2.077828407287597656e+00 1.492080688476562500e+00 -7.105551362037658691e-01 4.540730714797973633e-01 -5.697419643402099609e-01 -8.553230762481689453e-01 2.590179443359375000e-01 -4.572003483772277832e-01 1.318919897079467773e+00 -2.558524906635284424e-01 3.515577018260955811e-01 -1.000709891319274902e+00 1.012197017669677734e+00 1.101503729820251465e+00 -9.017068147659301758e-01 -1.419992566108703613e+00 2.928418874740600586e+00 -1.290296435356140137e+00 -6.643603444099426270e-01 4.066007211804389954e-02 -1.987872004508972168e+00 3.620174527168273926e-01 -1.260061264038085938e-01 -2.615664243698120117e+00 -1.002703428268432617e+00 1.572872161865234375e+00 -3.347562551498413086e-01 6.675612330436706543e-01 -2.235231697559356689e-01 -6.972070932388305664e-01 3.253885746002197266e+00 -8.355110883712768555e-01 3.943879604339599609e-01 -7.938175797462463379e-01 -1.788055300712585449e+00 -5.713832974433898926e-01 1.002385139465332031e+00 1.686609983444213867e+00 -1.601589322090148926e-01 1.434991657733917236e-01 4.379108846187591553e-01 3.922461867332458496e-01 4.696805775165557861e-01 -4.638879001140594482e-01 6.032864451408386230e-01 1.383409619331359863e+00 1.824078917503356934e+00 1.010218620300292969e+00 -9.849430620670318604e-02 -1.464039325714111328e+00 6.158833503723144531e-01 7.882583886384963989e-02 -3.797824978828430176e-01 5.281025767326354980e-01 -4.205380976200103760e-01 -1.156766653060913086e+00 2.399096012115478516e+00 -1.088978648185729980e+00 -1.698214769363403320e+00 -5.170215368270874023e-01 -6.214471459388732910e-01 4.677996933460235596e-01 1.807004809379577637e+00 -1.461279392242431641e+00 3.221396207809448242e-01 1.001837730407714844e+00 2.525102579966187477e-03 -4.932293593883514404e-01 1.360210537910461426e+00 -1.041681647300720215e+00 -6.917248368263244629e-01 1.328153014183044434e+00 5.947005152702331543e-01 8.759181499481201172e-01 6.425938755273818970e-02 -9.858555197715759277e-01 -6.210162639617919922e-01 -1.714051961898803711e+00 -1.351329684257507324e+00 5.106080770492553711e-01 1.198591828346252441e+00 3.621524810791015625e+00 6.100406646728515625e-01 -2.540194272994995117e+00 -2.884285449981689453e+00 2.006957054138183594e+00 3.788112998008728027e-01 1.654370069503784180e+00 1.380138397216796875e-01 -3.755494058132171631e-01 4.810221791267395020e-01 1.865373402833938599e-01 2.219612360000610352e+00 -1.377750277519226074e+00 1.721829891204833984e+00 -4.566913843154907227e-01 -1.245761871337890625e+00 2.020720541477203369e-01 -1.080362796783447266e+00 1.966327130794525146e-01 5.591521263122558594e-01 1.245407462120056152e+00 -2.150164842605590820e+00 -1.640061259269714355e+00 2.471137195825576782e-01 -5.072737485170364380e-02 -1.244216084480285645e+00
-6.198142170906066895e-01 1.596822738647460938e-01 4.916172623634338379e-01 -1.598458051681518555e+00 -1.189174652099609375e+00 -8.470774888992309570e-01 3.096145868301391602e+00 1.069091081619262695e+00 2.967258691787719727e-01 -1.960258126258850098e+00 -1.003482222557067871e+00 9.259930253028869629e-01 -1.275907993316650391e+00 -4.748488366603851318e-01 -1.248888254165649414e+00 4.304857850074768066e-01 2.339552640914916992e+00 -4.621310532093048096e-01 -2.401860713958740234e+00 1.797432422637939453e+00 7.363071441650390625e-01 -1.072367355227470398e-01 2.549360990524291992e-01 -1.771257638931274414e+00 3.236313819885253906e+00 -1.238661527633666992e+00 2.624312162399291992e+00 1.527078270912170410e+00 1.554201245307922363e+00 -1.904011249542236328e+00 3.265815377235412598e-01 -1.140660867094993591e-01 -3.026684746146202087e-02 -3.193297982215881348e-01 -6.786410808563232422e-01 1.405776858329772949e+00 -2.079173803329467773e+00 -3.211449682712554932e-01 -9.538105726242065430e-01 1.199865460395812988e+00 1.786633014678955078e+00 7.636235952377319336e-01 1.036520004272460938e+00 -2.188796401023864746e-01 -6.093045696616172791e-02 1.436896175146102905e-01 1.575947999954223633e+00 -1.591885089874267578e+00 1.167005777359008789e+00 -1.189472079277038574e+00 -8.975611925125122070e-01 9.047192335128784180e-01 -1.493402600288391113e+00 -3.202180564403533936e-01 1.247530221939086914e+00 5.282430648803710938e-01 -9.010837972164154053e-02 -1.148627400398254395e+00 1.843708157539367676e+00 -4.647596776485443115e-01 -2.344965219497680664e+00 -2.669270753860473633e+00 1.919453024864196777e+00 -9.400268793106079102e-01 -2.660314738750457764e-01 6.570068746805191040e-02 1.650752425193786621e-01 -1.226046919822692871e+00 3.723211050033569336e+00 1.216406583786010742e+00 -2.118670046329498291e-01 -7.765344381332397461e-01 -3.126617670059204102e-01 3.172703683376312256e-01 1.356005549430847168e+00 -1.570166647434234619e-01 1.179870247840881348e+00 6.107239723205566406e-01 1.768994212150573730e+00 -1.566597819328308105e+00 8.653531670570373535e-01 -7.850647717714309692e-02 6.799558997154235840e-01 5.343474149703979492e-01 9.244681000709533691e-01 -1.599618792533874512e+00 -1.155743479728698730e+00 1.014864087104797363e+00 -1.131469964981079102e+00 -2.280078411102294922e+00 -9.186782836914062500e-01 -1.154935121536254883e+00 1.050795793533325195e+00 -5.658335685729980469e-01 8.946331739425659180e-01 -1.913554310798645020e+00 3.763607978820800781e+00 -8.162541985511779785e-01 -4.139224886894226074e-01 1.026277303695678711e+00 -9.572742134332656860e-02 1.703597754240036011e-01 1.425513863563537598e+00 1.097578048706054688e+00 -1.132442235946655273e+00 -1.192044019699096680e+00 1.057271003723144531e+00 9.202396273612976074e-01 1.154704332351684570e+00 -3.949007987976074219e-01 -5.578702688217163086e-01 -1.678892254829406738e+00 1.214897394180297852e+00 -3.611298203468322754e-01 1.277209639549255371e+00 -3.831416964530944824e-01 1.645375341176986694e-01 3.888688609004020691e-02 1.813331395387649536e-01 -8.033474683761596680e-01 8.552355170249938965e-01 1.749487280845642090e+00 9.128261804580688477e-01 -2.316458374261856079e-01 7.633404731750488281e-01 1.347536921501159668e+00 -2.629275918006896973e-01
-1.301113009452819824e+00 -1.029391169548034668e+00 -3.440807461738586426e-01 1.615647077560424805e+00 1.159968972206115723e+00 -1.542066931724548340e+00 -1.514289379119873047e+00 -5.837512612342834473e-01 5.087141394615173340e-01 -7.094179987907409668e-01 -3.601259291172027588e-01 -9.937391877174377441e-01 -5.248906016349792480e-01 -9.323995709419250488e-01 2.515845298767089844e+00 -1.843264579772949219e+00 2.068029403686523438e+00 7.643364071846008301e-01 1.524553447961807251e-01 6.200175285339355469e-01 -1.524121314287185669e-01 -2.710892260074615479e-01 1.261140227317810059e+00 -3.064968883991241455e-01 -2.813186049461364746e-01 9.907606840133666992e-01 1.693737745285034180e+00 -5.652236938476562500e-01 -2.214894533157348633e+00 4.905853271484375000e-01 -5.852695703506469727e-01 -1.540288805961608887e+00 -2.087852239608764648e+00 -1.355055451393127441e+00 7.032994031906127930e-01 -1.044594526290893555e+00 8.651515841484069824e-01 1.144555211067199707e+00 -2.094540446996688843e-01 7.209883332252502441e-01 1.933976531028747559e+00 1.577981352806091309e+00 -6.361797451972961426e-01 2.179867267608642578e+00 4.190054535865783691e-01 2.439874410629272461e+00 -2.296058177947998047e+00 5.618413090705871582e-01 -1.495020866394042969e+00 2.004787206649780273e+00 8.578352928161621094e-01 -5.689719319343566895e-01 -7.174496352672576904e-02 -1.367391943931579590e+00 -1.164341449737548828e+00 -1.718238368630409241e-02 1.193051934242248535e+00 -2.246091365814208984e+00 -2.423380851745605469e+00 -8.855475783348083496e-01 -3.133811950683593750e-01 -2.308929681777954102e+00 1.912252664566040039e+00 1.364206671714782715e-01 -4.374493360519409180e-01 3.703626245260238647e-02 2.082854032516479492e+00 1.837691426277160645e+00 -1.679258227348327637e+00 -1.752062559127807617e+00 -1.522457718849182129e+00 -1.370708465576171875e+00 -1.886666059494018555e+00 1.837487459182739258e+00 -3.113247632980346680e+00 1.136755824089050293e+00 4.161972105503082275e-01 1.251148819923400879e+00 -1.785677909851074219e+00 2.174386024475097656e+00 1.187402486801147461e+00 -1.905256628990173340e+00 7.671195268630981445e-01 4.157788753509521484e-01 2.434026896953582764e-01 -5.902873277664184570e-01 -3.537409305572509766e+00 -9.010338783264160156e-01 7.114884853363037109e-01 -1.687750577926635742e+00 -1.796535134315490723e+00 3.363871574401855469e-01 1.527709007263183594e+00 2.168480873107910156e+00 2.941917479038238525e-01 -1.144485473632812500e+00 -7.299189269542694092e-02 -3.416430354118347168e-01 4.324432313442230225e-01 -2.667914628982543945e-01 3.278027474880218506e-01 2.826192975044250488e-01 3.606748282909393311e-01 -7.385258078575134277e-01 -8.282201737165451050e-02 1.681090593338012695e+00 6.595575809478759766e-01 -9.889712929725646973e-01 1.781140863895416260e-01 6.256340146064758301e-01 -2.180684208869934082e-01 -1.228927016258239746e+00 -2.590884208679199219e+00 -1.440149247646331787e-01 -4.918170571327209473e-01 -2.664882838726043701e-01 4.434774875640869141e+00 -6.233249306678771973e-01 -1.724199175834655762e+00 2.813898563385009766e+00 -5.518633127212524414e-01 -2.514631748199462891e-01 6.739286780357360840e-01 1.993901282548904419e-01 2.938392460346221924e-01 8.854836225509643555e-01 7.391555309295654297e-01
1.707571029663085938e+00 -1.036818861961364746e+00 -1.242348790168762207e+00 7.574474811553955078e-01 4.204040467739105225e-01 1.448208451271057129e+00 -3.561994135379791260e-01 4.184671342372894287e-01 1.055350542068481445e+00 3.147875368595123291e-01 5.008266568183898926e-01 2.288051366806030273e+00 -6.315319985151290894e-02 2.642569303512573242e+00 -3.240641951560974121e-01 1.810190379619598389e-01 -2.534290313720703125e+00 -6.468314528465270996e-01 -1.682072043418884277e+00 -1.304097652435302734e+00 9.504714608192443848e-01 -5.401855111122131348e-01 5.354076623916625977e-01 -1.516922831535339355e+00 -1.654365897178649902e+00 7.038400173187255859e-01 -1.559043407440185547e+00 2.383045911788940430e+00 7.633137702941894531e-01 2.532913208007812500e+00 6.031831502914428711e-01 -1.704339623451232910e+00 -6.095217540860176086e-02 -2.222372591495513916e-01 1.668575525283813477e+00 -1.198439240455627441e+00 8.084895014762878418e-01 1.658160567283630371e+00 -2.685319818556308746e-02 -1.608313322067260742e+00 -2.495789527893066406e+00 2.665503025054931641e+00 -7.018633186817169189e-02 1.674078583717346191e+00 -1.151650905609130859e+00 -2.479307502508163452e-01 6.673770397901535034e-02 5.769934654235839844e-01 1.367451906204223633e+00 1.111339211463928223e+00 2.471415519714355469e+00 -2.058842658996582031e+00 -6.032268404960632324e-01 -4.646074473857879639e-01 5.260363221168518066e-01 3.691447079181671143e-01 1.633688926696777344e+00 -9.409239292144775391e-01 1.046612858772277832e+00 1.367920160293579102e+00 -1.809609055519104004e+00 -7.498875260353088379e-01 1.630250066518783569e-01 6.611155271530151367e-01 -1.964422225952148438e+00 7.296781539916992188e-01 -1.418351411819458008e+00 -2.780494987964630127e-01 1.362770050764083862e-01 2.256702482700347900e-01 -1.227491736412048340e+00 -1.673516273498535156e+00 -6.100214719772338867e-01 1.342050194740295410e+00 2.439970523118972778e-01 1.217789769172668457e+00 -9.780219793319702148e-01 1.787274479866027832e+00 1.201134681701660156e+00 -6.071467399597167969e-01 -1.612091250717639923e-02 -2.517378330230712891e-01 -2.098273754119873047e+00 5.048327445983886719e-01 -3.965915203094482422e+00 1.352975368499755859e+00 -7.739498019218444824e-01 6.212118268013000488e-01 6.442313790321350098e-01 1.155218958854675293e+00 1.032016515731811523e+00 -1.736727952957153320e-01 -1.046957373619079590e-01 -1.260338902473449707e+00 -1.653308749198913574e+00 -1.387821078300476074e+00 6.327622532844543457e-01 -1.076520234346389771e-01 1.289283990859985352e+00 -1.313346982002258301e+00 3.778621852397918701e-01 -1.006554722785949707e+00 -3.546906709671020508e+00 -9.634683728218078613e-01 -1.249850749969482422e+00 1.009079337120056152e+00 1.020925045013427734e+00 -9.488369226455688477e-01 -6.927084922790527344e-01 1.006542801856994629e+00 4.963555932044982910e-01 -1.460364937782287598e+00 1.884448409080505371e+00 1.076537013053894043e+00 -1.609302520751953125e+00 -9.672862887382507324e-01 -1.059076309204101562e+00 -9.731183648109436035e-01 6.568574309349060059e-01 3.040210247039794922e+00 -1.554318904876708984e+00 1.283954381942749023e+00 1.800531625747680664e+00 4.301246404647827148e-01 -7.903420329093933105e-01 1.262038111686706543e+00 -2.822416067123413086e+00
-9.770815968513488770e-01 -5.345355272293090820e-01 -8.096265196800231934e-01 -4.653507471084594727e-01 -1.783561944961547852e+00 8.663602471351623535e-01 -1.623834490776062012e+00 -1.457203984260559082e+00 9.698728919029235840e-01 -1.181493997573852539e+00 -5.955407023429870605e-01 9.471791386604309082e-01 -3.873492777347564697e-01 -7.678994536399841309e-01 -4.312736690044403076e-01 -1.765569090843200684e+00 -1.746117711067199707e+00 -2.830597758293151855e-01 5.059924125671386719e-01 -1.264979004859924316e+00 2.559883594512939453e-01 -8.568411320447921753e-02 7.705291509628295898e-01 1.709113001823425293e+00 -1.581100702285766602e+00 -2.643849372863769531e+00 5.952793359756469727e-01 -1.905216276645660400e-01 1.946866393089294434e+00 5.115457773208618164e-01 4.182860255241394043e-01 -1.436310648918151855e+00 -1.072939872741699219e+00 -2.108851671218872070e-01 -1.153581619262695312e+00 1.019382834434509277e+00 -1.209130287170410156e+00 -1.688184738159179688e+00 -1.093889594078063965e+00 -4.963364005088806152e-01 1.826610326766967773e+00 7.745928168296813965e-01 -2.632510185241699219e+00 2.340454578399658203e+00 4.150257408618927002e-01 9.305381774902343750e-01 2.204070806503295898e+00 1.405159115791320801e+00 1.613906502723693848e+00 -1.063211798667907715e+00 1.962041497230529785e+00 -1.135785102844238281e+00 -2.735036909580230713e-01 -7.813518047332763672e-01 4.467127323150634766e-01 1.146573066711425781e+00 -1.760082006454467773e+00 3.812112510204315186e-01 1.171906232833862305e+00 7.846612334251403809e-01 1.491515040397644043e+00 2.968574285507202148e+00 7.512112259864807129e-01 5.283721685409545898e-01 1.147709846496582031e+00 1.867854952812194824e+00 1.420123815536499023e+00 2.743329405784606934e-01 1.350936055183410645e+00 -1.700714349746704102e+00 -1.454202681779861450e-01 -1.795097231864929199e+00 2.200191497802734375e+00 3.489903807640075684e-01 6.810044646263122559e-01 1.766164451837539673e-01 6.095411181449890137e-01 1.078390002250671387e+00 -1.434450149536132812e-01 9.583950042724609375e-02 1.533198833465576172e+00 1.385143280029296875e+00 -2.236004829406738281e+00 2.612412452697753906e+00 -3.536974191665649414e-01 -8.201566338539123535e-01 1.118468642234802246e+00 -1.323619127273559570e+00 1.269492268562316895e+00 1.413846850395202637e+00 1.547569990158081055e+00 -7.187960743904113770e-01 -1.315213590860366821e-01 2.253754884004592896e-01 -5.640941262245178223e-01 -8.949620723724365234e-01 -1.295623183250427246e-01 -2.259058713912963867e+00 -1.040436506271362305e+00 -1.046238780021667480e+00 -2.615305662155151367e+00 -1.162710309028625488e+00 -2.955551147460937500e-01 -1.218721270561218262e+00 1.668748617172241211e+00 1.156645894050598145e+00 -1.929369270801544189e-01 4.873540997505187988e-01 -3.237984180450439453e+00 1.711859600618481636e-03 1.989239692687988281e+00 -4.594130218029022217e-01 -2.673736810684204102e+00 2.599264085292816162e-01 -2.540794014930725098e-01 -7.593442797660827637e-01 -1.096372246742248535e+00 -3.939668834209442139e-01 -1.122491836547851562e+00 -1.056892633438110352e+00 1.296974182128906250e+00 1.820148348808288574e+00 1.839253425598144531e+00 1.237491488456726074e+00 5.793254971504211426e-01 -1.298457026481628418e+00 6.349321007728576660e-01
-4.915503785014152527e-02 -1.669488430023193359e+00 8.479630947113037109e-01 -8.964251726865768433e-02 1.062155723571777344e+00 1.939874649047851562e+00 -7.680588960647583008e-01 2.235804080963134766e+00 -1.007899641990661621e+00 7.826421856880187988e-01 6.999121904373168945e-01 -6.377922296524047852e-01 1.208818316459655762e+00 -1.973371982574462891e+00 8.875011205673217773e-01 -1.380616068840026855e+00 -6.160776615142822266e-01 -7.898080945014953613e-01 2.461075931787490845e-01 -9.360483288764953613e-01 9.009422063827514648e-01 -3.363491773605346680e+00 8.090495467185974121e-01 -2.889415025711059570e-01 -4.544665813446044922e-01 2.528099417686462402e-01 -1.449333310127258301e+00 -1.719377040863037109e+00 3.414148986339569092e-01 4.440548121929168701e-01 3.253335654735565186e-01 4.405288994312286377e-01 -2.650552093982696533e-01 3.803249076008796692e-02 -2.355108499526977539e+00 -1.278493702411651611e-01 -1.657543897628784180e+00 -1.480705857276916504e+00 2.209321498870849609e+00 -1.493714332580566406e+00 2.798644542694091797e+00 5.112670063972473145e-01 -4.118130207061767578e-01 -7.820298075675964355e-01 -5.111907124519348145e-01 2.138175964355468750e+00 1.032742619514465332e+00 -1.737994551658630371e+00 -1.962603688240051270e+00 -7.893438935279846191e-01 -1.668283462524414062e+00 -5.031103491783142090e-01 6.054397821426391602e-01 -8.370240330696105957e-01 -2.469142526388168335e-01 -3.512989878654479980e-01 3.101189851760864258e+00 -2.026139259338378906e+00 -1.851773023605346680e+00 2.736608088016510010e-01 2.370711326599121094e+00 5.447064638137817383e-01 -1.466293483972549438e-01 1.535944700241088867e+00 -1.725285172462463379e+00 -3.975011110305786133e-01 8.284211158752441406e-01 -1.369920074939727783e-01 4.748853389173746109e-03 2.144024848937988281e+00 4.147140085697174072e-01 -1.146096706390380859e+00 -2.940325438976287842e-01 -1.162288635969161987e-01 2.565016984939575195e+00 3.206118643283843994e-01 5.695127248764038086e-01 -6.131433844566345215e-01 6.604256629943847656e-01 2.038558721542358398e+00 -1.098134040832519531e+00 7.321144938468933105e-01 2.877283334732055664e+00 9.077717363834381104e-02 1.343935966491699219e+00 -2.930663347244262695e+00 1.201755166053771973e+00 2.850303888320922852e+00 -2.459053136408329010e-02 -2.033829927444458008e+00 -1.880450963973999023e+00 -1.254521489143371582e+00 -6.911674737930297852e-01 2.892777025699615479e-01 -2.491485834121704102e+00 6.383545398712158203e-01 -1.648420810699462891e+00 8.462377190589904785e-01 -3.637803196907043457e-01 -1.249974608421325684e+00 -9.238848090171813965e-01 8.142941594123840332e-01 1.224496662616729736e-01 -8.475667238235473633e-01 -7.138198018074035645e-01 -6.909186244010925293e-01 -1.714386224746704102e+00 -1.071954965591430664e+00 1.392323851585388184e+00 2.143681049346923828e+00 -4.222135543823242188e-01 -1.542932391166687012e+00 -2.934967912733554840e-02 3.032212555408477783e-01 5.453855991363525391e-01 5.551567673683166504e-01 1.850105404853820801e+00 7.454453706741333008e-01 8.919948339462280273e-01 -1.081842660903930664e+00 7.182223200798034668e-01 -1.419710516929626465e+00 -9.850440919399261475e-02 2.555055379867553711e+00 8.580120801925659180e-01 4.345756173133850098e-01 -2.238814592361450195e+00
3.984770476818084717e-01 -1.417747855186462402e+00 -5.086113810539245605e-01 4.048885032534599304e-02 1.283763885498046875e+00 -1.881748288869857788e-01 1.030649337917566299e-02 -4.786862432956695557e-01 9.410744905471801758e-01 -7.211366295814514160e-01 -3.127142786979675293e-01 5.350279808044433594e-01 4.798389077186584473e-01 4.013866484165191650e-01 1.665838718414306641e+00 -8.551782369613647461e-01 1.355899333953857422e+00 2.245505303144454956e-01 -2.901978492736816406e-01 2.823441982269287109e+00 8.433021306991577148e-01 1.156255125999450684e+00 -2.783604860305786133e+00 1.206825822591781616e-01 2.300321102142333984e+00 1.411928057670593262e+00 5.720478892326354980e-01 -4.391809701919555664e-01 3.841382265090942383e-01 -1.191966533660888672e-01 1.084331989288330078e+00 -1.342321991920471191e+00 -2.729477733373641968e-02 -1.503010511398315430e+00 5.898345708847045898e-01 -2.303513586521148682e-01 -2.529838323593139648e+00 2.206744104623794556e-01 1.901613473892211914e+00 1.733439326286315918e+00 -3.586871325969696045e-01 -5.846499800682067871e-01 -3.920394778251647949e-01 2.049565553665161133e+00 1.072553038597106934e+00 -2.072422742843627930e+00 -1.646248698234558105e+00 -1.137685656547546387e+00 7.284880876541137695e-01 -5.491161346435546875e-01 -9.119482040405273438e-01 3.543512821197509766e+00 1.991110801696777344e+00 1.425129055976867676e+00 6.520401239395141602e-01 -1.733275890350341797e+00 5.453217029571533203e-01 -7.078201770782470703e-01 -9.517630934715270996e-01 -1.283376455307006836e+00 -2.293955564498901367e+00 -9.111913293600082397e-02 2.335001230239868164e-01 5.404087901115417480e-01 4.779861271381378174e-01 4.608511030673980713e-01 -1.649797201156616211e+00 1.353042840957641602e+00 -1.245545506477355957e+00 -2.625092267990112305e+00 -6.787917017936706543e-01 -1.199008941650390625e+00 5.369084477424621582e-01 -3.344712555408477783e-01 -6.153387427330017090e-01 -4.040904343128204346e-01 2.611043214797973633e+00 -2.056508809328079224e-01 3.355975627899169922e+00 -1.288574486970901489e-01 8.391100764274597168e-01 -1.209764122962951660e+00 -4.388677477836608887e-01 -5.271716415882110596e-02 -3.534360885620117188e+00 -2.080913066864013672e+00 5.052252411842346191e-01 -1.536817997694015503e-01 1.801083803176879883e+00 -2.649811744689941406e+00 2.133856534957885742e+00 -2.623049020767211914e-01 2.866085171699523926e-01 -1.632759094238281250e+00 7.884392142295837402e-01 3.571851253509521484e-01 1.185672655701637268e-01 1.704631447792053223e+00 1.494689345359802246e+00 -2.753271162509918213e-01 1.597075839526951313e-03 2.004362493753433228e-01 6.876052021980285645e-01 3.509783744812011719e-01 -1.401285290718078613e+00 1.278251409530639648e+00 -3.703948557376861572e-01 -1.951874375343322754e+00 -2.321163177490234375e+00 -2.032151460647583008e+00 3.002489566802978516e+00 5.826149582862854004e-01 9.911021590232849121e-02 6.516764760017395020e-01 -1.424444079399108887e+00 6.799780130386352539e-01 2.987258732318878174e-01 7.802769541740417480e-01 1.201262712478637695e+00 -2.282373189926147461e+00 -1.215060591697692871e+00 1.157966852188110352e+00 -4.912928640842437744e-01 7.382766008377075195e-01 -7.660379260778427124e-02 -2.113632202148437500e+00 -1.115314126014709473e+00
-4.656742513179779053e-01 -4.053689911961555481e-02 1.563010692596435547e+00 1.584890246391296387e+00 -1.302838563919067383e+00 1.734700083732604980e+00 -1.795604944229125977e+00 4.365780949592590332e-01 -2.024424791336059570e+00 -3.261611983180046082e-02 7.562472820281982422e-01 -2.458724975585937500e+00 3.663634359836578369e-01 1.227429747581481934e+00 -2.052964925765991211e+00 -2.648979425430297852e+00 -2.353090494871139526e-01 1.841554880142211914e+00 2.528645515441894531e+00 2.859367370605468750e+00 -1.687998771667480469e-01 9.580981731414794922e-01 1.516469478607177734e+00 7.413222789764404297e-01 -1.737139940261840820e+00 5.183623433113098145e-01 5.884666442871093750e-01 -1.700545310974121094e+00 -3.394210577011108398e+00 -1.242484569549560547e+00 3.420848026871681213e-02 -1.730862855911254883e-01 -1.310408711433410645e+00 1.728742003440856934e+00 8.272127509117126465e-01 -1.045574069023132324e+00 -1.443640351295471191e+00 -2.921954691410064697e-01 -8.744623064994812012e-01 -1.984697937965393066e+00 5.438567399978637695e-01 1.039858236908912659e-01 8.901829123497009277e-01 3.294156491756439209e-01 -1.799216628074645996e+00 3.370354697108268738e-02 -3.648510202765464783e-02 -5.488465353846549988e-02 2.440880775451660156e+00 -4.532273411750793457e-01 1.103972911834716797e+00 -2.173292875289916992e+00 1.388910651206970215e+00 1.069798707962036133e+00 1.658439338207244873e-01 -1.769428133964538574e+00 1.183914899826049805e+00 -3.936423957347869873e-01 -5.176408216357231140e-02 -7.720290124416351318e-02 1.427334904670715332e+00 -1.020301818847656250e+00 2.666774749755859375e+00 2.016515254974365234e+00 5.131236314773559570e-01 -4.267687797546386719e-01 1.776159763336181641e+00 -1.694237947463989258e+00 -9.495139122009277344e-02 1.958946228027343750e+00 -7.769160866737365723e-01 2.056395076215267181e-02 -1.163349300622940063e-01 -3.665494322776794434e-01 1.584857463836669922e+00 1.554806232452392578e-01 -1.755146384239196777e+00 1.502914905548095703e+00 1.852296948432922363e+00 1.607680678367614746e+00 -9.182789325714111328e-01 8.613495230674743652e-01 -1.407100915908813477e+00 2.258572101593017578e+00 -2.528388261795043945e+00 -9.195544123649597168e-01 -2.530082762241363525e-01 -3.486320003867149353e-02 -1.081022739410400391e+00 1.629611849784851074e+00 1.363591313362121582e+00 1.542697072029113770e+00 -1.480858564376831055e+00 -2.018184185028076172e+00 -4.539047479629516602e-01 9.193082451820373535e-01 7.766736149787902832e-01 -1.161187648773193359e+00 -2.933402776718139648e+00 -2.488076537847518921e-01 -9.684380143880844116e-02 -2.779013216495513916e-01 4.658622145652770996e-01 -1.168631672859191895e+00 -9.753933548927307129e-01 -1.375359177589416504e+00 2.750592470169067383e+00 1.153045535087585449e+00 -1.593250155448913574e+00 -1.965170264244079590e+00 3.248379230499267578e-01 4.726946949958801270e-01 6.030215024948120117e-01 -1.367845773696899414e+00 -2.585432827472686768e-01 7.943255305290222168e-01 5.167165994644165039e-01 -3.539970815181732178e-01 2.502753026783466339e-02 -1.154994964599609375e+00 5.578346848487854004e-01 -5.881923437118530273e-01 -1.085591763257980347e-01 1.553777694702148438e+00 9.366592764854431152e-01 -8.939862251281738281e-01 -1.112729430198669434e+00
9.861245155334472656e-01 -5.733318328857421875e-01 2.055602550506591797e+00 2.298878729343414307e-01 -2.998785078525543213e-01 4.689686000347137451e-01 7.380979657173156738e-01 -1.214616179466247559e+00 4.938654303550720215e-01 -2.835365295410156250e+00 -6.131560802459716797e-01 1.299284696578979492e-01 -1.310869693756103516e+00 -9.988399595022201538e-02 5.206846594810485840e-01 -2.908852398395538330e-01 7.551547884941101074e-01 -5.556765794754028320e-01 4.332231581211090088e-01 6.592732071876525879e-01 -4.655107259750366211e-01 1.090661212801933289e-01 -1.917568743228912354e-01 -4.752816259860992432e-01 -1.003620743751525879e+00 4.458294510841369629e-01 -1.438829421997070312e+00 -1.424619704484939575e-01 2.878860950469970703e+00 1.914594769477844238e+00 -8.351317048072814941e-01 -6.185629367828369141e-01 -5.713893175125122070e-01 1.187083959579467773e+00 -7.712278962135314941e-01 -1.198416054248809814e-01 -9.251968264579772949e-01 -4.058321475982666016e+00 1.474069833755493164e+00 -7.784353941679000854e-02 -9.064245820045471191e-01 -4.553211927413940430e-01 1.668507337570190430e+00 -1.281778573989868164e+00 -8.937891125679016113e-01 1.380139440298080444e-01 -2.744248867034912109e+00 1.280394196510314941e+00 2.658003866672515869e-01 3.000673353672027588e-01 2.148762792348861694e-01 -1.159247398376464844e+00 3.125308990478515625e+00 3.096615552902221680e+00 1.323283195495605469e+00 1.822578668594360352e+00 6.696051955223083496e-01 1.866401135921478271e-01 1.165124177932739258e+00 -1.518180489540100098e+00 -1.453660011291503906e+00 1.491993851959705353e-02 1.870819926261901855e+00 1.519491195678710938e+00 -2.833749651908874512e-01 1.740172982215881348e+00 -2.754851579666137695e+00 8.761888742446899414e-01 3.116459548473358154e-01 -1.200868248939514160e+00 1.386557817459106445e+00 1.635746240615844727e+00 -8.429497480392456055e-01 -6.200653687119483948e-02 -1.591569423675537109e+00 7.059708833694458008e-01 -2.175451755523681641e+00 2.365440875291824341e-01 1.452965378761291504e+00 -1.260854601860046387e+00 1.186126470565795898e+00 -4.970711469650268555e-02 1.656339883804321289e+00 2.695672035217285156e+00 1.184554934501647949e+00 -1.886689901351928711e+00 -1.998919725418090820e+00 1.514240860939025879e+00 4.407097995281219482e-01 9.245546460151672363e-01 1.945689171552658081e-01 -1.218246221542358398e+00 1.340717434883117676e+00 -1.635844260454177856e-01 9.400428533554077148e-01 -3.078513145446777344e-01 -1.637283802032470703e+00 1.569462537765502930e+00 1.208769321441650391e+00 -5.806645750999450684e-01 -1.263898253440856934e+00 2.822103738784790039e+00 1.484550088644027710e-01 3.599507570266723633e+00 -1.527128815650939941e+00 -1.076803058385848999e-01 1.206166744232177734e+00 -1.480299115180969238e+00 -2.097753286361694336e+00 -3.066742420196533203e+00 -7.761402130126953125e-01 -1.241511940956115723e+00 -1.733767837285995483e-01 -1.641161680221557617e+00 2.261126518249511719e+00 -9.898599982261657715e-01 -1.312484860420227051e+00 2.095111131668090820e+00 9.940551966428756714e-02 3.266305625438690186e-01 -1.482452154159545898e-01 1.384536981582641602e+00 -1.583201289176940918e+00 -2.921850085258483887e-01 -3.751378953456878662e-01 9.595361948013305664e-01 5.986946821212768555e-01
1.384676933288574219e+00 -1.364319801330566406e+00 4.334166049957275391e-01 -4.551915824413299561e-01 1.755701065063476562e+00 1.739849567413330078e+00 1.607990860939025879e-01 -2.084136724472045898e+00 -1.670096635818481445e+00 1.181403875350952148e+00 -8.233820647001266479e-02 -1.121727943420410156e+00 -8.136612772941589355e-01 9.173955023288726807e-02 1.434527516365051270e+00 9.088966995477676392e-02 -8.779668062925338745e-02 -1.068948656320571899e-01 1.267587900161743164e+00 2.040531039237976074e-01 1.256074547767639160e+00 -2.586431980133056641e+00 9.590869545936584473e-01 3.058511018753051758e+00 -2.644543409347534180e+00 1.654196739196777344e+00 -1.073101997375488281e+00 -2.109248638153076172e-01 -3.400905132293701172e-01 -1.239968180656433105e+00 -2.227244138717651367e+00 2.614723443984985352e+00 -2.797510921955108643e-01 2.274033874273300171e-01 1.073541760444641113e+00 -7.713900804519653320e-01 -4.381053447723388672e-01 2.051232814788818359e+00 7.587460875511169434e-01 -2.031101942062377930e+00 2.381269931793212891e-01 5.918565392494201660e-02 -3.000554323196411133e+00 -3.016083538532257080e-01 -3.901868462562561035e-01 1.441964268684387207e+00 9.461056590080261230e-01 2.262532472610473633e+00 -1.052563905715942383e+00 -2.462188005447387695e-01 -6.881583333015441895e-01 1.986651062965393066e+00 -1.496282815933227539e+00 2.537305951118469238e-01 -8.663263916969299316e-01 -1.479058623313903809e+00 -1.167248725891113281e+00 1.156956672668457031e+00 -1.202739253640174866e-01 4.115857779979705811e-01 -1.866130828857421875e+00 1.257568597793579102e+00 -1.958997547626495361e-01 1.493860874325037003e-02 -1.051929831504821777e+00 -5.741362571716308594e-01 -9.962044358253479004e-01 -8.426870107650756836e-01 -1.045537590980529785e+00 -1.476041555404663086e+00 7.326604127883911133e-01 1.798390150070190430e+00 6.723992824554443359e-01 2.586765214800834656e-02 1.989897966384887695e+00 -5.023904889822006226e-02 1.624441742897033691e+00 9.302290081977844238e-01 1.938089430332183838e-01 -1.399728655815124512e+00 1.154580116271972656e+00 -1.175116658210754395e+00 -7.050669193267822266e-01 6.923472881317138672e-01 8.625909090042114258e-01 2.065273523330688477e-01 -1.591126441955566406e+00 -1.742690563201904297e+00 -5.584924221038818359e-01 5.032352209091186523e-01 1.933495163917541504e+00 5.868267416954040527e-01 -1.777337551116943359e+00 8.130663633346557617e-01 5.387135595083236694e-02 6.041359901428222656e-01 -4.918665885925292969e-01 -7.174419760704040527e-01 -9.593238830566406250e-01 7.840422987937927246e-01 6.799032092094421387e-01 4.831243455410003662e-01 -2.757921516895294189e-01 -9.059123396873474121e-01 1.813045620918273926e+00 3.493796586990356445e-01 2.728096723556518555e+00 -2.074231147766113281e+00 -1.165978789329528809e+00 -2.193638086318969727e+00 1.233120322227478027e+00 -1.564977765083312988e+00 1.301693558692932129e+00 1.538102984428405762e+00 1.932144045829772949e+00 -8.198476433753967285e-01 -5.813183188438415527e-01 -1.269999384880065918e+00 2.618376970291137695e+00 9.430325627326965332e-01 1.788204312324523926e+00 1.348560571670532227e+00 -3.840908110141754150e-01 -3.634009361267089844e-01 -3.165949583053588867e-01 -1.496985554695129395e-01 -5.122212767601013184e-01
1.394059181213378906e+00 -1.823930501937866211e+00 1.624082565307617188e+00 1.939853191375732422e+00 -9.750033617019653320e-01 1.047933578491210938e+00 3.360569715499877930e+00 5.446026325225830078e-01 -2.429067790508270264e-01 4.401361048221588135e-01 -1.614645123481750488e+00 -5.240918993949890137e-01 4.163014516234397888e-02 -6.729180216789245605e-01 -5.808005332946777344e-01 1.833443164825439453e+00 3.908025324344635010e-01 -3.981589078903198242e-01 2.219724178314208984e+00 1.024963021278381348e+00 -5.106461644172668457e-01 7.293022274971008301e-01 2.554796040058135986e-01 9.763070344924926758e-01 1.136236906051635742e+00 9.282919764518737793e-02 1.972793102264404297e+00 4.554334163665771484e+00 -1.713983297348022461e+00 -1.469652175903320312e+00 -2.112405538558959961e+00 -1.364916324615478516e+00 -1.431152820587158203e+00 -1.827696152031421661e-02 1.630776166915893555e+00 -1.367409825325012207e+00 -9.828299880027770996e-01 1.705873370170593262e+00 -1.457190394401550293e+00 -7.570816874504089355e-01 1.385165333747863770e+00 -5.195786356925964355e-01 -8.762242197990417480e-01 7.859359383583068848e-01 1.060499668121337891e+00 -4.000841081142425537e-01 -1.035441279411315918e+00 -1.308374762535095215e+00 -1.018959522247314453e+00 -9.000475704669952393e-02 -1.186360836029052734e+00 -7.837961912155151367e-01 -2.153482437133789062e+00 1.539950072765350342e-01 -1.643157243728637695e+00 4.507131874561309814e-02 -9.531804919242858887e-01 -2.233533382415771484e+00 -6.403688192367553711e-01 8.082625865936279297e-01 7.228740490972995758e-03 -2.096659421920776367e+00 -3.865866661071777344e-01 -2.657700300216674805e+00 -2.576721191406250000e+00 1.429888725280761719e+00 -6.366158723831176758e-01 7.156049013137817383e-01 1.331179380416870117e+00 8.324152827262878418e-01 -1.232267260551452637e+00 -1.907305479049682617e+00 2.147996187210083008e+00 -5.112632513046264648e-01 -7.002549171447753906e-01 -7.716680169105529785e-01 3.121555596590042114e-02 9.437080472707748413e-02 2.879592657089233398e+00 -1.220939397811889648e+00 1.536580562591552734e+00 -1.634925007820129395e-01 1.409605026245117188e+00 8.405603170394897461e-01 2.079971790313720703e+00 2.463482618331909180e-01 1.352355837821960449e+00 -1.351634413003921509e-01 -1.229032039642333984e+00 1.058163166046142578e+00 -1.132219433784484863e+00 -8.421187400817871094e-01 -9.564933180809020996e-01 -7.719097733497619629e-01 4.564306735992431641e-01 -5.695831775665283203e-01 1.698250532150268555e+00 -2.544502541422843933e-02 -2.468620538711547852e+00 -1.764899343252182007e-01 4.919609427452087402e-01 -3.778904974460601807e-01 1.009929925203323364e-01 6.108953356742858887e-01 1.939580202102661133e+00 -2.208251237869262695e+00 -1.342904567718505859e+00 -5.167198777198791504e-01 -1.588787287473678589e-01 1.296381711959838867e+00 -5.163623094558715820e-01 2.621031522750854492e+00 -1.255228042602539062e+00 1.807834386825561523e+00 3.204447329044342041e-01 8.282608985900878906e-01 -1.443414390087127686e-01 6.878737211227416992e-01 -9.209322929382324219e-01 -4.006596207618713379e-01 1.620101690292358398e+00 -2.413234710693359375e+00 -1.045893907546997070e+00 -9.078117460012435913e-02 -1.304407358169555664e+00 7.817758321762084961e-01 2.624001741409301758e+00
1.006960272789001465e+00 -1.744862079620361328e+00 -1.367455720901489258e-01 2.212054133415222168e-01 -7.894254922866821289e-01 1.082726240158081055e+00 1.225266695022583008e+00 2.919912099838256836e+00 -3.783548772335052490e-01 -3.615256026387214661e-02 1.715644448995590210e-01 2.233468532562255859e+00 -1.723778724670410156e+00 6.189318299293518066e-01 -9.998944997787475586e-01 1.045135140419006348e+00 -7.880366444587707520e-01 4.914533495903015137e-01 -1.547416687011718750e+00 -1.476809501647949219e+00 3.137146234512329102e-01 -5.532847046852111816e-01 -6.264974921941757202e-02 -2.614214122295379639e-01 -1.893457055091857910e+00 2.054924011230468750e+00 1.950709104537963867e+00 1.357476711273193359e+00 -1.363212704658508301e+00 -1.620053291320800781e+00 1.874759793281555176e+00 1.001933097839355469e+00 -2.491138935089111328e+00 1.917878538370132446e-01 -7.943032681941986084e-02 -8.558986783027648926e-01 4.491224586963653564e-01 1.498044848442077637e+00 -3.595426976680755615e-01 3.483777046203613281e-01 2.546704113483428955e-01 -1.129629135131835938e+00 7.569100260734558105e-01 -4.081194400787353516e-01 -4.354958236217498779e-01 1.305747270584106445e+00 -2.042160034179687500e+00 -1.170339345932006836e+00 -5.544516444206237793e-01 -7.590206861495971680e-01 3.197821140289306641e+00 2.421591281890869141e+00 -4.076732099056243896e-01 -1.456357717514038086e+00 9.841658473014831543e-01 4.243005216121673584e-01 -1.198699951171875000e+00 3.731552362442016602e-01 1.993206262588500977e+00 1.639915466308593750e+00 6.551809906959533691e-01 2.248580217361450195e+00 1.879025578498840332e+00 -1.674481779336929321e-01 -1.014604926109313965e+00 -7.101358175277709961e-01 1.121812760829925537e-01 8.008529543876647949e-01 1.314200878143310547e+00 -3.440129518508911133e+00 6.130207180976867676e-01 3.263111114501953125e+00 2.313800334930419922e+00 1.081924512982368469e-01 -9.749728441238403320e-01 1.689763069152832031e+00 -1.339540719985961914e+00 -2.011483669281005859e+00 -1.342471361160278320e+00 -8.221459984779357910e-01 4.874873757362365723e-01 -7.368829846382141113e-02 -3.198058843612670898e+00 -1.806725621223449707e+00 -3.141878247261047363e-01 -1.238523960113525391e+00 7.623324990272521973e-01 7.166616320610046387e-01 -5.809666514396667480e-01 9.717549085617065430e-01 -4.677456244826316833e-02 -9.246832132339477539e-01 4.129901826381683350e-01 4.354099631309509277e-01 5.448926687240600586e-01 -9.562591910362243652e-01 -4.381519258022308350e-01 8.790273666381835938e-01 1.112109541893005371e+00 1.925812214612960815e-01 -2.822323143482208252e-01 -2.304534435272216797e+00 1.957738041877746582e+00 -1.524907350540161133e+00 1.032542109489440918e+00 -3.414274215698242188e+00 1.807032227516174316e-01 -1.081196427345275879e+00 -2.644675493240356445e+00 -2.057270109653472900e-01 2.538838386535644531e+00 -7.505205273628234863e-01 2.359524965286254883e-01 -4.422043561935424805e-01 2.335829734802246094e+00 -6.401133537292480469e-01 1.811443448066711426e+00 -9.994571208953857422e-01 -1.546837568283081055e+00 -1.160563707351684570e+00 1.892551064491271973e+00 8.020935654640197754e-01 1.941557675600051880e-01 8.538105338811874390e-02 -1.780691146850585938e-01 -8.803328275680541992e-01 -1.627631187438964844e-01
