-3.293764829635620117e+00 -1.390731334686279297e+00 -2.264264345169067383e+00 3.348485231399536133e+00 -2.903046369552612305e+00 -8.996701836585998535e-01 2.268612384796142578e+00 -2.006646394729614258e-01 1.124467611312866211e+00 -5.738082528114318848e-01 1.971453666687011719e+00 1.228369951248168945e+00 7.330572605133056641e-01 -1.508627295494079590e+00 2.215869724750518799e-01 1.421577811241149902e+00 -5.331964045763015747e-02 -1.269574016332626343e-01 -1.112832874059677124e-01 9.512698650360107422e-01 -9.681689739227294922e-01 2.015126645565032959e-01 -1.777995079755783081e-01 -2.470841169357299805e+00 9.076986908912658691e-01 2.458233088254928589e-01 -1.532087683677673340e+00 7.897933721542358398e-01 -4.661953747272491455e-01 2.715979337692260742e+00 3.953152000904083252e-01 1.518107295036315918e+00 -2.428953647613525391e+00 5.745220780372619629e-01 -2.290324449539184570e+00 -2.032225847244262695e+00 1.204828500747680664e+00 5.547545552253723145e-01 2.507110595703125000e+00 -2.453993558883666992e+00 2.298357039690017700e-01 -5.637785792350769043e-01 -3.141958415508270264e-01 4.128282368183135986e-01 -2.141510963439941406e+00 -1.596989750862121582e+00 5.988726615905761719e-01 -4.124301970005035400e-01 1.989756107330322266e+00 2.756981372833251953e+00 -1.989871740341186523e+00 5.902824401855468750e-01 1.830200672149658203e+00 1.741942167282104492e+00 -1.379832327365875244e-01 -1.544809103012084961e+00 -1.499566078186035156e+00 -4.041979312896728516e-01 -1.119046449661254883e+00 -1.221868872642517090e+00 -1.898774504661560059e-01 -7.006866335868835449e-01 -3.203867003321647644e-02 -9.548656940460205078e-01 6.996629238128662109e-01 -2.606313943862915039e+00 9.500343203544616699e-01 -8.894827216863632202e-02 5.364518985152244568e-02 1.569238305091857910e-01 -1.236438632011413574e+00 -3.542455434799194336e-01 -2.914874851703643799e-01 6.837283968925476074e-01 1.200920701026916504e+00 -1.832980036735534668e+00 -2.231427669525146484e+00 2.902775526046752930e+00 3.656425774097442627e-01 2.271623611450195312e+00 2.343493700027465820e+00 -2.701326310634613037e-01 -1.199121117591857910e+00 1.823711037635803223e+00 -1.014580130577087402e+00 -1.839712619781494141e+00 2.077459335327148438e+00 1.397971987724304199e+00 -8.337343335151672363e-01 9.401000142097473145e-01
-1.434056401252746582e+00 5.147587656974792480e-01 -3.227794408798217773e+00 5.926891043782234192e-02 -9.664313793182373047e-01 1.898201853036880493e-01 -1.135474205017089844e+00 1.935000181198120117e+00 6.596918106079101562e-01 2.288052558898925781e+00 1.178822517395019531e+00 5.866366624832153320e-01 -1.337281107902526855e+00 -2.519288063049316406e-01 6.406913995742797852e-01 6.363601982593536377e-02 -1.500243306159973145e+00 6.299635171890258789e-01 2.686513900756835938e+00 -9.206600189208984375e-01 8.545705676078796387e-02 -2.063692808151245117e+00 3.657222986221313477e+00 1.872797608375549316e+00 1.191040396690368652e+00 1.141360640525817871e+00 6.857498288154602051e-01 -1.168511152267456055e+00 -2.404182672500610352e+00 1.282654643058776855e+00 2.337171554565429688e+00 2.655264854431152344e+00 -1.350814402103424072e-01 -6.732228398323059082e-01 5.495045185089111328e-01 2.870320320129394531e+00 -2.772051811218261719e+00 -2.244241476058959961e+00 1.028061628341674805e+00 -3.680261969566345215e-01 -1.824354529380798340e+00 2.857175171375274658e-01 9.125031232833862305e-01 -1.061404123902320862e-01 -1.990203619003295898e+00 3.231040537357330322e-01 1.839284896850585938e+00 7.389726042747497559e-01 -5.360879898071289062e-01 -1.144533395767211914e+00 -3.897059559822082520e-01 -1.122223734855651855e+00 -1.316743016242980957e+00 -6.961781978607177734e-01 1.216687083244323730e+00 6.698549985885620117e-01 -1.117614150047302246e+00 -2.174564599990844727e+00 -4.410490989685058594e-01 -1.246347188949584961e+00 1.008496403694152832e+00 -3.652487993240356445e+00 3.243463277816772461e+00 1.674119114875793457e+00 3.093046903610229492e+00 5.977807044982910156e-01 -2.390133380889892578e+00 -1.853394746780395508e+00 1.749777197837829590e-01 -1.734223842620849609e+00 -1.028911709785461426e+00 -1.619214534759521484e+00 7.123928666114807129e-01 2.281386613845825195e+00 -1.617215394973754883e+00 8.267801403999328613e-01 -1.700119853019714355e+00 6.696355529129505157e-03 -1.525255680084228516e+00 1.010476872324943542e-01 -8.281052857637405396e-02 7.484778761863708496e-01 9.300076365470886230e-01 1.759132981300354004e+00 4.773467779159545898e-01 5.240135192871093750e-01 3.932735621929168701e-01 2.386976242065429688e+00 6.073100566864013672e-01 -1.107658863067626953e+00
5.080912113189697266e-01 6.899979710578918457e-02 2.870113551616668701e-01 1.913829594850540161e-01 2.546223163604736328e+00 -2.705076932907104492e-01 -1.181843206286430359e-01 1.666062474250793457e+00 -1.288611292839050293e+00 -8.009809255599975586e-01 2.174894660711288452e-01 -5.386080741882324219e-01 2.570748567581176758e+00 -4.824251234531402588e-01 -3.549647629261016846e-01 8.843266963958740234e-01 2.860851049423217773e+00 6.975063681602478027e-01 1.014430075883865356e-01 -3.347624093294143677e-02 2.738057613372802734e+00 -1.723745346069335938e+00 -2.162451028823852539e+00 -3.011493682861328125e+00 -3.131748676300048828e+00 1.060847163200378418e+00 4.859624505043029785e-01 -1.600808024406433105e+00 2.500358223915100098e-01 -9.264440536499023438e-01 7.058053463697433472e-02 1.818298459053039551e+00 -1.012570261955261230e-01 8.908158540725708008e-01 -1.622297763824462891e+00 7.474235892295837402e-01 4.220042824745178223e-01 -1.098641514778137207e+00 -1.113625526428222656e+00 -1.179935097694396973e+00 -7.919232845306396484e-01 -8.295747637748718262e-01 2.352803230285644531e+00 -5.225703716278076172e-01 2.477238416671752930e+00 -3.996503651142120361e-01 -4.045955240726470947e-01 -1.290267944335937500e+00 -1.906097888946533203e+00 -1.563359022140502930e+00 -3.152423143386840820e+00 1.681901693344116211e+00 -5.557172298431396484e-01 -3.751468062400817871e-01 -7.443655729293823242e-01 -1.328007578849792480e+00 -1.129909038543701172e+00 1.650513291358947754e+00 3.132738113403320312e+00 3.248668611049652100e-01 1.687132716178894043e-01 -2.225042879581451416e-01 1.060523390769958496e-01 -9.641637206077575684e-01 4.817493557929992676e-01 3.449649095535278320e+00 1.108234286308288574e+00 -1.721915483474731445e+00 -9.710178375244140625e-01 -5.300379395484924316e-01 -1.934047579765319824e+00 -9.488658905029296875e-01 4.656334400177001953e+00 -9.382604360580444336e-01 -9.909138679504394531e-01 -1.609044790267944336e+00 1.885417580604553223e+00 -9.559285640716552734e-01 2.452773571014404297e+00 8.755162954330444336e-01 5.642905831336975098e-01 -4.813968241214752197e-01 -2.418477088212966919e-01 2.772228479385375977e+00 7.998280525207519531e-01 2.348299264907836914e+00 1.915610581636428833e-01 -1.638108491897583008e+00 1.011049985885620117e+00 1.450186729431152344e+00
-1.600689530372619629e+00 5.150673389434814453e-01 -1.309035539627075195e+00 -4.636735320091247559e-01 -8.909002542495727539e-01 -1.753834366798400879e+00 -2.152165472507476807e-01 6.580578088760375977e-01 4.085471928119659424e-01 3.319703415036201477e-02 1.212486982345581055e+00 -4.530593007802963257e-02 -8.967656493186950684e-01 2.428677380084991455e-01 -2.954137563705444336e+00 -1.531898617744445801e+00 -1.151808977127075195e+00 9.306599497795104980e-01 2.467346191406250000e-01 7.656418681144714355e-01 1.174440622329711914e+00 -1.455228924751281738e+00 -1.663565278053283691e+00 -9.947319030761718750e-01 6.595500707626342773e-01 1.676620602607727051e+00 1.800720095634460449e-01 9.071470499038696289e-01 1.109105229377746582e+00 -1.260524392127990723e-01 1.603175640106201172e+00 -2.784241177141666412e-02 1.873246550559997559e+00 5.292363166809082031e-01 3.574557781219482422e+00 3.791545033454895020e-01 1.897331118583679199e+00 -7.969302535057067871e-01 -4.000036418437957764e-01 2.954424142837524414e+00 -1.847413778305053711e+00 -5.360697507858276367e-01 -1.994150638580322266e+00 1.512268424034118652e+00 -3.386578559875488281e-01 -7.836921811103820801e-01 2.728738188743591309e-01 1.002803683280944824e+00 -2.598515987396240234e+00 -3.373796939849853516e+00 -1.671156287193298340e-01 4.652851521968841553e-01 6.470355391502380371e-01 -2.467229366302490234e+00 1.516153693199157715e+00 8.476900458335876465e-01 8.180081248283386230e-01 -2.568183422088623047e+00 -2.372545003890991211e+00 3.364814996719360352e+00 2.548331022262573242e-01 -1.162825375795364380e-01 -6.040661409497261047e-02 -1.487836837768554688e-01 1.488785862922668457e+00 7.083483338356018066e-01 -2.241558551788330078e+00 2.473995685577392578e+00 3.298170566558837891e+00 1.411821007728576660e+00 2.942590415477752686e-02 -8.632588982582092285e-01 4.415662288665771484e-01 -8.114760369062423706e-02 6.190778017044067383e-01 -1.047468185424804688e+00 -2.228265851736068726e-01 2.499743223190307617e+00 2.966215908527374268e-01 3.317368626594543457e-01 2.674689292907714844e+00 -1.430944949388504028e-01 -3.196399927139282227e+00 2.159317255020141602e+00 -1.186077713966369629e+00 -1.254697442054748535e+00 1.423409938812255859e+00 -2.675168752670288086e+00 -2.386112689971923828e+00 1.324723124504089355e+00
5.572022795677185059e-01 -2.454846858978271484e+00 -8.985120654106140137e-01 6.820455789566040039e-01 2.142959594726562500e+00 4.094328582286834717e-01 3.667891979217529297e+00 -5.793752670288085938e-01 1.166249632835388184e+00 -1.306590557098388672e+00 -2.090004831552505493e-01 -1.043934106826782227e+00 -8.493773937225341797e-01 2.255610942840576172e+00 -5.982729420065879822e-02 -1.316284179687500000e+00 -6.655717492103576660e-01 -1.365117311477661133e+00 2.964460849761962891e+00 -2.480966091156005859e+00 2.398796319961547852e+00 -2.755436003208160400e-01 -1.400469779968261719e+00 1.319566607475280762e+00 -1.372207641601562500e+00 2.023616790771484375e+00 -1.740085631608963013e-01 -2.364541143178939819e-01 8.801541291177272797e-03 2.340337038040161133e+00 -4.641184806823730469e-01 -2.360719442367553711e+00 1.785615682601928711e+00 -2.378682494163513184e-01 1.030244827270507812e+00 -4.940411150455474854e-01 1.007444262504577637e+00 -3.237469792366027832e-01 -3.081741094589233398e+00 1.175261586904525757e-01 2.100496768951416016e+00 1.419173598289489746e+00 -1.818088889122009277e+00 2.441711574792861938e-01 -3.854889273643493652e-01 -1.957693338394165039e+00 -1.469519615173339844e+00 -1.882952332496643066e+00 -2.221683025360107422e+00 -7.034315466880798340e-01 1.580527067184448242e+00 -2.884906530380249023e+00 6.154171824455261230e-01 1.515744686126708984e+00 1.926175832748413086e+00 3.924567401409149170e-01 -3.180823028087615967e-01 -8.123670816421508789e-01 -8.603009581565856934e-01 -1.479622006416320801e+00 2.118970870971679688e+00 -2.650077641010284424e-01 -3.109912276268005371e-01 3.170512914657592773e+00 -1.673337668180465698e-01 4.894790947437286377e-01 -1.211862206459045410e+00 -9.357320070266723633e-01 9.203334450721740723e-01 -7.200818061828613281e-01 -1.251578927040100098e+00 2.223115205764770508e+00 9.724524617195129395e-01 -2.527869045734405518e-01 9.371713399887084961e-01 -1.592386960983276367e+00 -1.811817765235900879e+00 -6.198133230209350586e-01 -1.142358303070068359e+00 -3.199639558792114258e+00 1.745703697204589844e+00 1.973672628402709961e+00 -2.845983505249023438e+00 2.073682546615600586e+00 2.347941398620605469e+00 -1.794975847005844116e-01 9.398676156997680664e-01 1.413926243782043457e+00 -6.211515069007873535e-01 3.114683628082275391e+00
2.213425487279891968e-01 -4.061487317085266113e-02 4.555307924747467041e-01 9.159163832664489746e-01 3.435781240463256836e+00 -2.372910737991333008e+00 4.491297900676727295e-01 9.171300381422042847e-02 3.031120300292968750e-01 5.058830380439758301e-01 -3.433890104293823242e+00 1.594187498092651367e+00 1.773714065551757812e+00 2.348397970199584961e+00 -1.396810889244079590e+00 6.350949406623840332e-01 2.821018695831298828e+00 -5.956720709800720215e-01 2.827615499496459961e+00 8.283743858337402344e-01 -7.259804606437683105e-01 -9.895535707473754883e-01 -7.907114624977111816e-01 -7.416999340057373047e-01 3.295641541481018066e-01 -1.627890110015869141e+00 9.917041659355163574e-01 2.787584066390991211e+00 -6.865262240171432495e-02 1.849822998046875000e+00 -8.667246699333190918e-01 -1.401667833328247070e+00 -9.275367856025695801e-02 1.468303203582763672e+00 2.320108652114868164e+00 -2.229178667068481445e+00 -2.687933444976806641e+00 -6.874183416366577148e-01 9.898543357849121094e-01 -1.880846261978149414e+00 2.635996043682098389e-01 -7.423328608274459839e-02 -1.071060061454772949e+00 4.368006885051727295e-01 -2.502840280532836914e+00 -5.841275453567504883e-01 -9.338179826736450195e-01 -5.117256566882133484e-02 -1.182520151138305664e+00 -7.337450981140136719e-01 9.233808517456054688e-01 -3.011540889739990234e+00 1.889663338661193848e+00 7.050054073333740234e-01 4.435019493103027344e-01 -2.180754691362380981e-01 1.185834407806396484e+00 2.993404150009155273e+00 3.016960144042968750e+00 9.915412068367004395e-01 -2.159274555742740631e-02 -3.033787250518798828e+00 2.422158241271972656e+00 -1.018231987953186035e+00 2.714979052543640137e-01 -6.144889593124389648e-01 -1.786288142204284668e+00 -2.251561880111694336e-01 1.971789956092834473e+00 1.454899430274963379e+00 1.471871256828308105e+00 -1.893544197082519531e+00 4.960100352764129639e-01 -1.046444058418273926e+00 2.602325201034545898e+00 -1.853437274694442749e-01 7.486462593078613281e-01 -2.528877019882202148e+00 2.326164484024047852e+00 1.202834397554397583e-01 -9.292579889297485352e-01 7.611366361379623413e-02 2.103508234024047852e+00 -2.965305447578430176e-01 -2.040421962738037109e+00 8.487644791603088379e-01 -1.108814835548400879e+00 1.020452499389648438e+00 2.323286771774291992e+00 -1.589213967323303223e+00
-2.337522983551025391e+00 3.797899186611175537e-01 -8.921517729759216309e-01 -7.247455716133117676e-01 1.298028469085693359e+00 -6.537775397300720215e-01 8.705746531486511230e-01 -1.360121965408325195e+00 4.244730621576309204e-02 6.415395140647888184e-01 4.246321022510528564e-01 -2.506559371948242188e+00 -1.588904619216918945e+00 -9.862293004989624023e-01 -8.042371869087219238e-01 1.553228855133056641e+00 1.959038972854614258e+00 -3.163187950849533081e-02 -5.028090476989746094e-01 -9.448848962783813477e-01 1.942854285240173340e+00 -1.645407199859619141e+00 -1.283279180526733398e+00 2.655892670154571533e-01 -1.309795498847961426e+00 -2.632437705993652344e+00 -1.502574324607849121e+00 -8.354781270027160645e-01 3.461220502853393555e+00 5.185618996620178223e-01 -6.096698045730590820e-01 2.808829247951507568e-01 -1.573017001152038574e+00 4.506793916225433350e-01 -1.708260655403137207e+00 -1.155344486236572266e+00 -1.465172171592712402e-01 -1.158811926841735840e+00 -2.867145061492919922e+00 -7.197319865226745605e-01 -2.281345367431640625e+00 2.577348947525024414e+00 3.630677163600921631e-01 3.120624423027038574e-01 -1.794157862663269043e+00 -2.495150804519653320e+00 1.966529011726379395e+00 1.593202054500579834e-01 3.668748140335083008e+00 -1.977201700210571289e+00 -2.434900045394897461e+00 2.587974965572357178e-01 -1.402471303939819336e+00 -3.943319022655487061e-01 2.358956336975097656e+00 -2.402069568634033203e+00 9.934774637222290039e-01 -1.870038032531738281e+00 -2.311230659484863281e+00 -1.879920482635498047e+00 1.318035602569580078e+00 -2.349783897399902344e+00 -1.051372289657592773e+00 -1.045415282249450684e+00 2.014887094497680664e+00 3.955095112323760986e-01 -3.793096542358398438e-01 -7.126638889312744141e-01 1.168115511536598206e-01 -2.794767320156097412e-01 2.882271707057952881e-01 -1.558657288551330566e+00 9.367381334304809570e-01 -1.354615211486816406e+00 -6.459214091300964355e-01 7.753715664148330688e-02 2.552769184112548828e+00 3.838582336902618408e-01 -2.575492620468139648e+00 2.352895975112915039e+00 -2.653175890445709229e-01 2.537544727325439453e+00 9.062368422746658325e-02 -3.786162734031677246e-01 -6.325905919075012207e-01 -1.779238462448120117e+00 -1.314101219177246094e+00 1.100006818771362305e+00 1.847020506858825684e+00 -5.649583935737609863e-01
1.142315745353698730e+00 -5.463408231735229492e-01 -6.218497753143310547e-01 2.748363494873046875e+00 1.445479989051818848e+00 2.490911185741424561e-01 3.542437404394149780e-02 6.974459886550903320e-01 -2.508772134780883789e+00 -1.233577489852905273e+00 7.409002184867858887e-01 -1.017501473426818848e+00 -9.306054115295410156e-01 1.604506611824035645e+00 1.061543226242065430e-01 -2.529828846454620361e-01 6.541448831558227539e-01 -1.071613579988479614e-01 2.592571973800659180e+00 7.709485292434692383e-01 2.626118183135986328e+00 3.474286496639251709e-01 3.011248350143432617e+00 -7.192784547805786133e-01 1.147049784660339355e+00 -2.078157186508178711e+00 -5.202707052230834961e-01 1.174810886383056641e+00 2.144367545843124390e-01 -2.096916198730468750e+00 5.239337682723999023e-01 1.344673395156860352e+00 -1.178595423698425293e+00 -1.542679518461227417e-01 -7.273151278495788574e-01 -1.955637097358703613e+00 5.670767426490783691e-01 -5.252404510974884033e-02 1.102395057678222656e+00 1.665570139884948730e+00 1.095848679542541504e-01 1.535522818565368652e+00 1.541331648826599121e+00 -2.185890197753906250e+00 -2.787115335464477539e+00 1.157346367835998535e+00 -1.022592902183532715e+00 -4.898542910814285278e-02 1.663500666618347168e+00 -1.907791137695312500e+00 -3.000077486038208008e+00 2.438819408416748047e+00 8.403089046478271484e-01 1.958941072225570679e-01 -7.646495699882507324e-01 -1.865304410457611084e-01 -3.854570984840393066e-01 4.011848926544189453e+00 -7.613563537597656250e-01 1.516147613525390625e+00 -3.918644428253173828e+00 1.867961525917053223e+00 2.006492167711257935e-01 -1.963694095611572266e+00 -1.225135922431945801e+00 -7.784208655357360840e-01 -3.120313584804534912e-01 -1.373846411705017090e+00 -1.631342172622680664e-01 1.219149589538574219e+00 1.705193161964416504e+00 -1.233743309974670410e+00 -9.074606895446777344e-01 1.187922000885009766e+00 -8.482516407966613770e-01 2.867522954940795898e+00 -1.922739595174789429e-01 -2.859222888946533203e+00 1.416943430900573730e+00 -1.246594190597534180e+00 3.157480657100677490e-01 -1.302593588829040527e+00 -3.781746700406074524e-02 -8.005011081695556641e-01 3.080812096595764160e-01 -6.939183473587036133e-01 1.689845085144042969e+00 -2.259393692016601562e+00 -3.681421875953674316e-01 1.053606271743774414e+00
-1.328852176666259766e+00 -3.088168144226074219e+00 -4.939121007919311523e-01 -3.263971209526062012e-01 -1.021928071975708008e+00 3.266109466552734375e+00 -2.617860734462738037e-01 -8.185093998908996582e-01 4.443346261978149414e-01 2.918491840362548828e+00 -2.248077392578125000e+00 9.892681241035461426e-01 1.232787594199180603e-02 1.732065796852111816e+00 -1.528213858604431152e+00 -8.780629038810729980e-01 -1.037438392639160156e+00 1.761804819107055664e+00 -1.770074248313903809e+00 2.403459072113037109e+00 9.809491634368896484e-01 -1.418743252754211426e+00 -1.141614317893981934e+00 -4.023512303829193115e-01 -2.265709638595581055e+00 1.534720540046691895e+00 5.927109122276306152e-01 5.630474686622619629e-01 5.895950198173522949e-01 6.495234370231628418e-01 -9.311509728431701660e-01 -5.147542357444763184e-01 4.728370308876037598e-01 6.426075100898742676e-01 -7.691434025764465332e-01 7.502710223197937012e-01 9.465449452400207520e-01 1.296489357948303223e+00 -8.531125783920288086e-01 1.227537155151367188e+00 4.365114271640777588e-01 5.083575844764709473e-01 -1.321130156517028809e+00 1.514199674129486084e-01 -1.559719324111938477e+00 -1.768048554658889771e-01 9.083112478256225586e-01 2.926262617111206055e+00 1.404178023338317871e+00 1.319176197052001953e+00 1.572307586669921875e+00 4.112597703933715820e-01 -1.342926740646362305e+00 9.708802700042724609e-01 -3.063966035842895508e+00 -4.120693206787109375e-01 -3.007991552352905273e+00 2.232227802276611328e+00 -2.195261240005493164e+00 -3.580333590507507324e-01 1.280066490173339844e+00 1.837133884429931641e+00 -2.690917491912841797e+00 7.363107800483703613e-01 1.175684094429016113e+00 -4.237906336784362793e-01 8.459492921829223633e-01 3.065226554870605469e+00 -2.916543245315551758e+00 -1.856405884027481079e-01 -1.017348289489746094e+00 -9.841124415397644043e-01 1.060432717204093933e-01 3.205441534519195557e-01 -9.083070605993270874e-02 2.526585340499877930e+00 -1.100686073303222656e+00 9.584415555000305176e-01 -1.732751369476318359e+00 3.627073764801025391e+00 7.628786563873291016e-01 1.410961985588073730e+00 -5.842292904853820801e-01 -2.162101268768310547e+00 -2.686968445777893066e-01 -1.779283165931701660e+00 -1.794698536396026611e-01 4.491930305957794189e-01 1.926616311073303223e+00 2.342009916901588440e-02
-2.522413730621337891e+00 2.754454851150512695e+00 3.252120256423950195e+00 -8.592078685760498047e-01 3.048659324645996094e+00 1.720277518033981323e-01 -5.074314475059509277e-01 -9.057040810585021973e-01 2.356596469879150391e+00 -2.183411598205566406e+00 1.496180653572082520e+00 -1.169118165969848633e+00 2.837142229080200195e+00 -2.428378105163574219e+00 5.876690149307250977e-01 1.054883599281311035e+00 -2.146610975265502930e+00 -7.545131444931030273e-01 5.456523895263671875e-01 -4.517314136028289795e-01 -8.826724290847778320e-01 9.506511092185974121e-01 4.419868588447570801e-01 -1.263769268989562988e-01 1.488528773188591003e-02 1.147911310195922852e+00 3.071307539939880371e-01 -1.031898736953735352e+00 -9.675915539264678955e-02 2.920850276947021484e+00 1.251066207885742188e+00 1.274552106857299805e+00 -1.934301137924194336e+00 -4.636042416095733643e-01 1.809424519538879395e+00 7.415331006050109863e-01 -1.229271054267883301e+00 -4.430835247039794922e-01 3.257925748825073242e+00 5.356249213218688965e-01 -2.051048278808593750e+00 8.674739003181457520e-01 -2.144498109817504883e+00 -1.328717589378356934e+00 1.235998034477233887e+00 -4.212889969348907471e-01 2.022369384765625000e+00 -1.350660800933837891e+00 -1.668847322463989258e+00 -3.240066766738891602e+00 6.984360218048095703e-01 1.256846785545349121e+00 1.360425710678100586e+00 1.312810301780700684e+00 -2.280068956315517426e-02 1.151357769966125488e+00 2.108438491821289062e+00 8.109031915664672852e-01 -3.620278239250183105e-01 -1.354069709777832031e-01 1.486695766448974609e+00 7.418717145919799805e-01 4.897297918796539307e-01 -2.876204252243041992e-01 -2.166161298751831055e+00 -4.849673211574554443e-01 -1.113728404045104980e+00 2.415677785873413086e+00 1.823981165885925293e+00 -2.171929121017456055e+00 3.881525993347167969e-01 -2.020349979400634766e+00 1.960365772247314453e+00 -3.271559178829193115e-01 1.526804566383361816e-01 -1.034837961196899414e-02 -4.317009449005126953e-01 2.423133850097656250e-01 1.281732600182294846e-02 8.286500573158264160e-01 -6.827674508094787598e-01 1.342605948448181152e+00 -1.083104684948921204e-01 6.175149083137512207e-01 1.128484606742858887e+00 -2.788315057754516602e+00 -1.609197020530700684e+00 -1.682697422802448273e-02 -1.412370562553405762e+00 -1.666844964027404785e+00
-7.495767474174499512e-01 1.118331789970397949e+00 -2.184928178787231445e+00 -1.620147943496704102e+00 -6.511433124542236328e-01 -1.855363488197326660e+00 5.650768280029296875e-01 -2.364437341690063477e+00 7.539614439010620117e-01 1.258181482553482056e-01 1.699586749076843262e+00 -1.307063460350036621e+00 1.580786824226379395e+00 -1.617313027381896973e+00 -8.408061861991882324e-01 1.265264511108398438e+00 -1.870724558830261230e+00 5.655565485358238220e-02 -7.605695128440856934e-01 1.920331954956054688e+00 -1.131426692008972168e+00 1.268983483314514160e+00 -1.689162373542785645e+00 -1.388805389404296875e+00 2.125226736068725586e+00 2.356487751007080078e+00 6.092543601989746094e-01 4.041365385055541992e-01 9.146099090576171875e-01 4.580144882202148438e-01 -3.575822353363037109e+00 -2.057143449783325195e-01 2.723121643066406250e+00 1.086510062217712402e+00 -5.621875524520874023e-01 -1.889242410659790039e+00 -9.181816577911376953e-01 -1.473268032073974609e+00 -1.160952568054199219e+00 5.757356286048889160e-01 1.596116065979003906e+00 -1.831872344017028809e+00 2.388546943664550781e+00 -1.985074758529663086e+00 2.136202812194824219e+00 -6.897305846214294434e-01 -1.055446386337280273e+00 1.836572766304016113e+00 1.231066584587097168e+00 -1.567805409431457520e-01 2.396622180938720703e+00 -3.063230991363525391e+00 3.422074019908905029e-01 -3.713678419589996338e-01 -2.158501863479614258e+00 -5.072906017303466797e-01 1.147965192794799805e+00 9.486504793167114258e-01 -2.236472845077514648e+00 -1.694254398345947266e+00 3.233149647712707520e-01 1.387757420539855957e+00 9.473981857299804688e-01 -1.237315654754638672e+00 2.138774156570434570e+00 -2.607107400894165039e+00 -1.512601226568222046e-02 -2.168514251708984375e+00 1.256844282150268555e+00 1.895557045936584473e+00 1.233570128679275513e-01 7.674809694290161133e-01 -1.162892222404479980e+00 -8.124582767486572266e-01 -1.834174752235412598e+00 2.812082052230834961e+00 1.194889903068542480e+00 -3.051229000091552734e+00 -5.517349839210510254e-01 1.015690267086029053e-01 5.633223652839660645e-01 1.944566965103149414e+00 -4.632184207439422607e-01 -4.973887801170349121e-01 -9.965488910675048828e-01 1.363968372344970703e+00 1.320881724357604980e+00 -6.420949101448059082e-01 -1.724822998046875000e+00 -1.929812431335449219e+00
-3.264131844043731689e-01 2.325390100479125977e+00 1.921838879585266113e+00 6.908940076828002930e-01 1.243347525596618652e+00 -9.477705955505371094e-01 2.175590023398399353e-02 8.773218393325805664e-01 -1.681732177734375000e+00 -1.608172506093978882e-01 5.967453718185424805e-01 4.537673473358154297e+00 -1.469967365264892578e+00 -4.850369989871978760e-01 1.045356035232543945e+00 -7.239665985107421875e-01 1.039312243461608887e+00 -8.542619347572326660e-01 5.488836765289306641e-01 3.789273798465728760e-01 2.408537864685058594e+00 -7.358445525169372559e-01 7.034886479377746582e-01 3.171512126922607422e+00 -3.738560438156127930e+00 -1.160908460617065430e+00 1.066457152366638184e+00 1.022744417190551758e+00 5.043491721153259277e-01 1.652161836624145508e+00 -7.161912918090820312e-01 -5.954245328903198242e-01 -1.548975586891174316e+00 2.677321195602416992e+00 -1.433101654052734375e+00 8.478602766990661621e-01 2.638096809387207031e+00 -6.734190583229064941e-01 2.909079426899552345e-03 -1.030109405517578125e+00 -2.294648811221122742e-02 -1.132958531379699707e-01 -7.741657495498657227e-01 -2.501901388168334961e+00 -1.308651328086853027e+00 -1.301608443260192871e+00 -9.691218137741088867e-01 9.500333666801452637e-01 1.322991132736206055e+00 -4.665836393833160400e-01 -1.063454985618591309e+00 -2.452524423599243164e+00 7.843315005302429199e-01 4.246559143066406250e-01 -2.802924871444702148e+00 5.111140012741088867e-01 1.351409196853637695e+00 -8.887621164321899414e-01 8.237949609756469727e-01 2.527226805686950684e-01 1.451718449592590332e+00 -1.189181208610534668e+00 -1.405892074108123779e-01 -3.632175326347351074e-01 -2.304096698760986328e+00 2.628095149993896484e+00 -5.872918367385864258e-01 -3.083450794219970703e-01 2.340473413467407227e+00 2.445741891860961914e+00 1.951388955116271973e+00 -9.709818661212921143e-02 -5.804510712623596191e-01 -1.425697654485702515e-01 2.986445426940917969e+00 1.118643760681152344e+00 -4.899191260337829590e-01 -1.847618341445922852e+00 9.949584007263183594e-01 4.183854162693023682e-01 3.272076606750488281e+00 -1.577413268387317657e-02 -3.023803979158401489e-02 1.067391708493232727e-01 1.301722288131713867e+00 3.001323699951171875e+00 2.015393018722534180e+00 -2.645803928375244141e+00 -2.597454071044921875e+00 1.252334475517272949e+00
-7.043040394783020020e-01 1.354485034942626953e+00 7.436873912811279297e-01 1.544624924659729004e+00 2.897038161754608154e-01 3.001840353012084961e+00 8.244538307189941406e-02 -4.642952919006347656e+00 -1.322970628738403320e+00 1.441280722618103027e+00 3.834498226642608643e-01 9.214301705360412598e-01 3.398829698562622070e+00 -1.507546454668045044e-01 8.809109777212142944e-02 1.943914532661437988e+00 -1.300451904535293579e-01 -6.318444609642028809e-01 -3.526598811149597168e-01 1.735967755317687988e+00 2.931702435016632080e-01 2.223797321319580078e+00 -6.236007213592529297e-01 5.868476033210754395e-01 -5.509924888610839844e-01 -1.638607382774353027e-01 -2.395966276526451111e-02 1.611294031143188477e+00 -1.774881005287170410e+00 -2.385520458221435547e+00 -1.027267694473266602e+00 5.998827815055847168e-01 -1.794753074645996094e+00 7.996777892112731934e-01 1.435255765914916992e+00 1.298620700836181641e-01 -3.775057315826416016e+00 -1.199197024106979370e-02 -9.474754333496093750e-02 1.452167153358459473e+00 6.773140430450439453e-01 -7.014966011047363281e-01 -1.036857843399047852e+00 -6.908533573150634766e-01 -9.757263064384460449e-01 -6.388722658157348633e-01 -4.127748310565948486e-01 -7.121650576591491699e-01 -1.697218894958496094e+00 1.115994334220886230e+00 5.958071351051330566e-01 9.807772636413574219e-01 1.949062228202819824e+00 2.889990568161010742e+00 5.757421255111694336e-01 -6.659061908721923828e-01 8.204838633537292480e-01 -1.413805842399597168e+00 2.411980152130126953e+00 -6.419671773910522461e-01 3.693933486938476562e-01 2.021228708326816559e-02 9.168585538864135742e-01 3.115198612213134766e+00 1.998478055000305176e+00 -1.700678914785385132e-01 -9.879321455955505371e-01 2.169849395751953125e+00 7.751108407974243164e-01 3.890714347362518311e-01 3.068467974662780762e-01 -1.980357766151428223e+00 -1.207012295722961426e+00 2.171463727951049805e+00 1.226639509201049805e+00 -1.222799941897392273e-01 -9.240241348743438721e-02 -3.422906398773193359e+00 -9.049911051988601685e-02 -3.360739052295684814e-01 -6.202865242958068848e-01 2.228245973587036133e+00 2.384769201278686523e+00 -6.287579238414764404e-02 6.773738265037536621e-01 -9.134178161621093750e-01 3.744984865188598633e-01 5.150367021560668945e-01 8.489064574241638184e-01 3.938627839088439941e-01
9.027864336967468262e-01 1.094677090644836426e+00 -1.310456275939941406e+00 6.383586525917053223e-01 -2.462866306304931641e+00 -8.273477554321289062e-01 2.229366779327392578e+00 1.427449107170104980e+00 -1.336603760719299316e+00 2.270714044570922852e+00 3.750739991664886475e-01 -1.643909573554992676e+00 6.926648020744323730e-01 3.821121454238891602e-01 -6.460775136947631836e-01 2.400943040847778320e+00 1.722360402345657349e-02 -1.368706107139587402e+00 -5.273482799530029297e-01 -2.447725057601928711e+00 -1.130911633372306824e-01 -3.003247976303100586e+00 2.474107742309570312e+00 -9.884133338928222656e-01 -1.290642499923706055e+00 -2.470570802688598633e+00 3.300419747829437256e-01 -4.772039055824279785e-01 3.013034582138061523e+00 5.345594286918640137e-01 1.998117446899414062e+00 2.398134946823120117e+00 -6.750888228416442871e-01 5.215013027191162109e-01 -2.927967607975006104e-01 -6.000236868858337402e-01 -2.308365888893604279e-03 -5.026961565017700195e-01 -4.863787889480590820e-01 8.770667314529418945e-01 5.377424359321594238e-01 1.500053983181715012e-02 2.324800252914428711e+00 9.328464865684509277e-01 2.345707654953002930e+00 -8.107174038887023926e-01 -1.941020339727401733e-01 -1.730741411447525024e-01 7.607586383819580078e-01 3.666130602359771729e-01 1.237837433815002441e+00 -7.189875841140747070e-01 3.482845425605773926e-01 1.482640624046325684e+00 3.328943490982055664e+00 -2.821724712848663330e-01 7.891417145729064941e-01 1.237478613853454590e+00 -5.545649528503417969e-01 -2.494440555572509766e+00 2.574822902679443359e+00 9.314994812011718750e-01 -1.983749628067016602e+00 5.728796124458312988e-01 5.225034356117248535e-01 5.623491406440734863e-01 1.016107559204101562e+00 4.943667948246002197e-01 -8.667783141136169434e-01 3.424352407455444336e-01 1.666499614715576172e+00 6.362293362617492676e-01 -5.493645668029785156e-01 -1.674505352973937988e+00 -8.814586997032165527e-01 1.000876784324645996e+00 -4.175529003143310547e+00 -7.926841378211975098e-01 1.258181452751159668e+00 2.745119571685791016e+00 2.900781393051147461e+00 -1.289999008178710938e+00 1.873449802398681641e+00 -4.160816192626953125e+00 -8.482891321182250977e-01 7.757887840270996094e-01 -4.058057442307472229e-02 2.652363181114196777e-01 -3.381694316864013672e+00 -1.494878053665161133e+00
1.409620761871337891e+00 3.790269494056701660e-01 3.375614881515502930e-01 1.212977886199951172e+00 -1.468286991119384766e+00 1.908519744873046875e+00 -9.546799659729003906e-01 2.869927883148193359e-01 2.783980131149291992e+00 -3.606677353382110596e-01 1.816745698451995850e-01 1.194232821464538574e+00 -1.626613020896911621e+00 1.777068478986620903e-03 -4.660300314426422119e-01 1.520446240901947021e-01 3.524250388145446777e-01 -1.610814809799194336e+00 4.201677739620208740e-01 -1.015783429145812988e+00 7.055159807205200195e-01 2.930596172809600830e-01 -9.404364228248596191e-01 1.910055875778198242e+00 3.554969429969787598e-01 1.123338699340820312e+00 5.497812032699584961e-01 -1.697325110435485840e+00 3.200454235076904297e+00 -1.619510293006896973e+00 1.074460446834564209e-01 -2.706948280334472656e+00 6.460071206092834473e-01 -8.458644747734069824e-01 -2.333810627460479736e-01 -2.188405036926269531e+00 -5.133234709501266479e-02 1.281840085983276367e+00 5.422336459159851074e-01 -1.313471436500549316e+00 7.342571616172790527e-01 -1.938730597496032715e+00 -1.211535096168518066e+00 2.696249008178710938e+00 7.950733304023742676e-01 -1.498764157295227051e+00 1.028531670570373535e+00 9.512502551078796387e-01 -1.388156056404113770e+00 -6.497665643692016602e-01 -8.030447363853454590e-01 3.376698017120361328e+00 -1.110188663005828857e-01 -2.429183483123779297e+00 -1.206694483757019043e+00 2.130079507827758789e+00 2.065399885177612305e+00 -3.700161874294281006e-01 -1.968447864055633545e-01 -1.142524361610412598e+00 1.422888159751892090e+00 -3.262415885925292969e+00 -1.597939968109130859e+00 3.190941095352172852e+00 3.122367382049560547e+00 -2.824319601058959961e+00 -2.006874799728393555e+00 8.949517011642456055e-01 -6.424238085746765137e-01 2.565981388092041016e+00 -4.062148332595825195e-01 -2.674350142478942871e-01 -7.512290477752685547e-01 1.413206458091735840e+00 -7.191491127014160156e-02 1.685776352882385254e+00 1.719937443733215332e+00 1.046646714210510254e+00 2.141571521759033203e+00 4.702841639518737793e-01 1.676189780235290527e+00 1.090086340904235840e+00 2.214612960815429688e+00 9.386178851127624512e-01 3.028456211090087891e+00 -2.096861362457275391e+00 -7.277906537055969238e-01 -3.124688386917114258e+00 1.856650263071060181e-01 -4.015309512615203857e-01
1.343227744102478027e+00 1.932698369026184082e+00 3.357635021209716797e+00 6.977339833974838257e-02 -1.867637276649475098e+00 2.741566002368927002e-01 -6.005716919898986816e-01 -1.809066981077194214e-01 -2.442856878042221069e-02 -1.288891434669494629e+00 1.456603169441223145e+00 -1.194868922233581543e+00 -2.144889086484909058e-01 1.387824773788452148e+00 -3.914835751056671143e-01 -1.131466865539550781e+00 -2.271133810281753540e-01 3.443929553031921387e-01 -1.729262471199035645e-01 2.092364132404327393e-01 1.520009875297546387e+00 6.322785615921020508e-01 -1.261605143547058105e+00 -3.168231546878814697e-01 -1.016879916191101074e+00 -8.281753659248352051e-01 -1.836293816566467285e+00 1.627844691276550293e+00 -1.192061066627502441e+00 2.091887593269348145e-01 -9.238770604133605957e-01 1.129359126091003418e+00 1.425158500671386719e+00 -2.084440231323242188e+00 -1.655662298202514648e+00 4.185123443603515625e+00 -3.821064233779907227e+00 -3.171599626541137695e+00 -4.933212697505950928e-01 -6.165490746498107910e-01 1.503526568412780762e+00 -6.357116699218750000e-01 6.664351820945739746e-01 -1.564968466758728027e+00 -2.873328924179077148e+00 2.985799312591552734e+00 5.321014523506164551e-01 8.528903126716613770e-01 2.548957824707031250e+00 -2.947934865951538086e+00 5.512775182723999023e-01 -8.419869542121887207e-01 -9.195426106452941895e-01 5.936950445175170898e-01 1.885397434234619141e+00 2.451208233833312988e-01 -1.936895698308944702e-01 -4.489598572254180908e-01 -1.537581682205200195e+00 -2.155464649200439453e+00 1.606419086456298828e+00 1.305679529905319214e-01 -2.289841413497924805e+00 4.852140694856643677e-02 1.774749457836151123e-01 1.513309955596923828e+00 1.030889868736267090e+00 -1.246879816055297852e+00 2.869803011417388916e-01 1.018457889556884766e+00 2.263679742813110352e+00 -5.338037386536598206e-02 -2.027338445186614990e-01 1.099658906459808350e-01 -3.051325559616088867e+00 6.187865734100341797e-01 -1.238409042358398438e+00 2.117756843566894531e+00 2.039210200309753418e-01 -7.406107336282730103e-02 3.357267677783966064e-01 -5.454407930374145508e-01 -1.342509627342224121e+00 6.950076818466186523e-01 -5.992625951766967773e-01 1.430638194084167480e+00 3.079012930393218994e-01 -2.325783073902130127e-01 2.270774364471435547e+00 -1.339777350425720215e+00
1.978552341461181641e-02 4.716891050338745117e-01 -1.302512526512145996e+00 -1.551825165748596191e+00 1.174396157264709473e+00 2.416548252105712891e+00 1.192507386207580566e+00 -1.734372824430465698e-01 -5.385347008705139160e-01 -3.010565757751464844e+00 9.409981369972229004e-01 9.073738455772399902e-01 3.738591372966766357e-01 3.037555217742919922e+00 3.204652786254882812e+00 -2.324123382568359375e+00 -8.065740466117858887e-01 -2.595706462860107422e+00 -2.577187538146972656e+00 -1.664130568504333496e+00 -9.024780392646789551e-01 -1.393908262252807617e+00 1.264064311981201172e+00 4.619215056300163269e-02 -1.314670205116271973e+00 -1.135671973228454590e+00 1.612878203392028809e+00 -8.522766828536987305e-01 -1.942104339599609375e+00 1.987703680992126465e+00 -2.660157203674316406e+00 5.079016089439392090e-02 -5.101562142372131348e-01 4.347253441810607910e-01 -1.185868501663208008e+00 -2.383896112442016602e-01 6.526960730552673340e-01 1.817321181297302246e+00 -1.318155646324157715e+00 -2.341476917266845703e+00 7.994661331176757812e-01 2.088390588760375977e+00 -1.354107856750488281e+00 1.245071411132812500e+00 -8.555019497871398926e-01 6.377804875373840332e-01 -2.532720863819122314e-01 3.358917534351348877e-01 -1.819998860359191895e+00 -1.787957429885864258e+00 -7.079844176769256592e-02 2.023802042007446289e+00 6.097778677940368652e-01 3.382222652435302734e-01 1.370048522949218750e-01 1.202306628227233887e+00 1.482594013214111328e+00 -6.558037996292114258e-01 4.958061277866363525e-01 -1.285160541534423828e+00 1.152063608169555664e+00 -2.028990983963012695e+00 2.286761522293090820e+00 -1.807306647300720215e+00 2.002973556518554688e+00 -1.157383680343627930e+00 3.594624280929565430e+00 2.008287429809570312e+00 3.561527967453002930e+00 1.095830425620079041e-01 -6.583777666091918945e-01 4.169877469539642334e-01 -2.297121763229370117e+00 1.934359312057495117e+00 -1.019603133201599121e+00 -1.687917351722717285e+00 -9.737898707389831543e-01 6.342856884002685547e-01 2.903372526168823242e+00 -5.259039998054504395e-01 -1.556407094001770020e+00 2.171174287796020508e+00 -5.726224184036254883e-01 1.361904382705688477e+00 9.202622175216674805e-01 6.642882227897644043e-01 -4.925701618194580078e-01 -1.920393824577331543e+00 7.441781461238861084e-02 1.637212336063385010e-01
1.815905570983886719e+00 -2.481451034545898438e-01 -1.433306932449340820e-01 -2.363783597946166992e+00 -4.414384663105010986e-01 -1.281051874160766602e+00 9.820766448974609375e-01 -4.002816379070281982e-01 -7.445600032806396484e-01 -1.721897244453430176e+00 -1.605101943016052246e+00 -3.119960069656372070e+00 5.503373742103576660e-01 2.847479283809661865e-01 1.251163244247436523e+00 -4.387074410915374756e-01 -2.584388732910156250e+00 2.848687171936035156e-01 2.177632093429565430e+00 2.528959035873413086e+00 1.730225324630737305e+00 1.249841094017028809e+00 1.348828911781311035e+00 2.654958665370941162e-01 1.343632102012634277e+00 -2.138160228729248047e+00 -1.428737640380859375e+00 1.703772842884063721e-01 -3.132208287715911865e-01 -1.574272632598876953e+00 -2.700741529464721680e+00 -3.754245042800903320e-01 -1.350816249847412109e+00 -2.194054365158081055e+00 1.679657459259033203e+00 -8.410288691520690918e-01 1.809125781059265137e+00 4.924861490726470947e-01 -5.302405953407287598e-01 -1.391388177871704102e+00 -1.561616897583007812e+00 -2.837916851043701172e+00 2.570485174655914307e-01 -1.420749187469482422e+00 1.261784076690673828e+00 -4.461036026477813721e-01 -2.135245054960250854e-01 1.864177942276000977e+00 -2.530442476272583008e-01 8.268842697143554688e-01 -3.329150915145874023e+00 -1.808507323265075684e+00 1.707072734832763672e+00 1.081056356430053711e+00 6.022607684135437012e-01 2.243221044540405273e+00 -1.188001871109008789e+00 -9.383699893951416016e-01 4.590573310852050781e-01 4.945361018180847168e-01 -2.521121203899383545e-01 -3.424679860472679138e-02 1.933339834213256836e-01 -1.585585713386535645e+00 6.808450818061828613e-01 2.639079332351684570e+00 -2.552836418151855469e+00 1.163174867630004883e+00 -9.790034890174865723e-01 2.131162405014038086e+00 2.007170438766479492e+00 -8.829177021980285645e-01 1.639906406402587891e+00 -1.736606001853942871e+00 -7.656369209289550781e-01 -1.930359125137329102e+00 1.007723212242126465e+00 1.791827201843261719e+00 -1.104972600936889648e+00 -8.148650825023651123e-02 3.621560573577880859e+00 -2.517226457595825195e+00 -4.328433424234390259e-02 -1.594797968864440918e-01 1.054249763488769531e+00 -1.355725407600402832e+00 -3.039763212203979492e+00 2.919268906116485596e-01 1.815022349357604980e+00 6.098490953445434570e-01
-2.129685640335083008e+00 -2.100001096725463867e+00 -5.345194935798645020e-01 -4.274094104766845703e-01 1.331378966569900513e-01 1.738836169242858887e+00 4.405797421932220459e-01 -2.074940651655197144e-01 -9.424529671669006348e-01 8.412778973579406738e-01 -4.333975911140441895e-01 1.275903582572937012e+00 -5.334457159042358398e-01 1.788369417190551758e-01 1.802847266197204590e+00 -2.830994367599487305e+00 1.680074453353881836e+00 -5.183856561779975891e-02 9.451357126235961914e-01 -1.022073864936828613e+00 -1.385657548904418945e+00 4.411707222461700439e-01 1.430727690458297729e-01 -1.808086037635803223e+00 2.191864997148513794e-01 1.660472631454467773e+00 7.481988072395324707e-01 5.007398128509521484e-01 -1.767102360725402832e+00 -1.880166411399841309e+00 2.416518449783325195e+00 -1.465106248855590820e+00 -2.704520940780639648e+00 1.418307125568389893e-01 -1.936428695917129517e-01 8.762177824974060059e-01 1.129468679428100586e+00 1.899224758148193359e+00 -1.454223394393920898e+00 -4.025385856628417969e+00 -4.291575253009796143e-01 -2.468188703060150146e-01 -6.336685419082641602e-01 9.262111783027648926e-01 8.534191250801086426e-01 -4.982742071151733398e-01 -3.250529468059539795e-01 1.067225217819213867e+00 4.334501922130584717e-03 1.326002359390258789e+00 1.081603527069091797e+00 1.329095959663391113e-01 -9.642193913459777832e-01 -1.946776151657104492e+00 1.649377703666687012e+00 9.846342206001281738e-01 2.498208761215209961e+00 8.977025747299194336e-01 -1.909829974174499512e+00 1.098531603813171387e+00 1.421166419982910156e+00 2.618236780166625977e+00 -3.961379230022430420e-01 -5.130789279937744141e-01 8.089864850044250488e-01 -4.039737582206726074e-01 -1.949119806289672852e+00 -1.353558897972106934e+00 1.930019855499267578e+00 -2.722140073776245117e+00 9.477018117904663086e-01 -1.105583161115646362e-01 -1.097287461161613464e-01 1.467695355415344238e+00 9.078171849250793457e-01 2.058833122253417969e+00 -4.196282923221588135e-01 -3.663864135742187500e+00 -1.694597005844116211e+00 -5.968167185783386230e-01 -2.778235673904418945e+00 2.566929578781127930e+00 -6.336967647075653076e-02 9.366316795349121094e-01 -2.610312700271606445e+00 2.066757917404174805e+00 2.773012638092041016e+00 5.652905702590942383e-01 -8.269369602203369141e-01 1.238174796104431152e+00
7.143984436988830566e-01 1.469594240188598633e-01 -1.783347725868225098e+00 2.153868079185485840e-01 -1.758672893047332764e-01 8.648569695651531219e-03 4.722164273262023926e-01 6.077647805213928223e-01 3.789665102958679199e-01 1.276682376861572266e+00 1.437638282775878906e+00 4.366016089916229248e-01 -6.416217088699340820e-01 -2.698777318000793457e-01 2.184554934501647949e-01 1.457032710313796997e-01 3.263728320598602295e-02 7.879246473312377930e-01 2.876684069633483887e-02 -5.278126597404479980e-01 2.116768598556518555e+00 -1.953313708305358887e+00 -1.404519915580749512e+00 -1.111562848091125488e-01 5.765260457992553711e-01 -3.433125257492065430e+00 -4.036489486694335938e+00 1.831503391265869141e+00 -2.861996889114379883e+00 2.312975168228149414e+00 1.723563075065612793e+00 -8.741970658302307129e-01 -1.390267312526702881e-01 6.401027441024780273e-01 -2.936027348041534424e-01 -2.305171012878417969e+00 1.988044500350952148e+00 6.998274922370910645e-01 -8.188416957855224609e-01 1.743162274360656738e+00 2.538281917572021484e+00 1.542545258998870850e-01 -1.664677113294601440e-01 2.965710878372192383e+00 1.204955056309700012e-01 -8.676799535751342773e-01 7.128611803054809570e-01 -5.353342294692993164e-01 -3.655667066574096680e+00 3.555463552474975586e+00 1.352032065391540527e+00 2.868876457214355469e-01 6.241844892501831055e-01 -1.138601660728454590e+00 4.743134081363677979e-01 1.456804871559143066e+00 1.175644397735595703e+00 1.749510407447814941e+00 1.848617792129516602e+00 1.246443986892700195e+00 2.493332862854003906e+00 1.516320943832397461e+00 6.423224806785583496e-01 1.821989178657531738e+00 1.054479360580444336e+00 1.157333254814147949e+00 -1.120168685913085938e+00 -2.235970973968505859e+00 1.838565111160278320e+00 1.082024693489074707e+00 2.495265454053878784e-01 -8.181704878807067871e-01 3.077707529067993164e+00 -1.203856617212295532e-01 6.285372972488403320e-01 -1.086710095405578613e+00 9.500883221626281738e-01 -7.709126472473144531e-01 -2.528026342391967773e+00 1.428273677825927734e+00 -1.204174995422363281e+00 -1.058571934700012207e+00 -2.961491584777832031e+00 -4.279347062110900879e-01 -1.035775899887084961e+00 1.428492069244384766e+00 1.362275481224060059e+00 -8.998902440071105957e-01 -7.592243552207946777e-01 -9.537325501441955566e-01
6.355633735656738281e-01 1.705027103424072266e+00 -6.265349984169006348e-01 1.187959313392639160e+00 1.693281888961791992e+00 -3.933488428592681885e-01 1.090307593345642090e+00 -1.031428456306457520e+00 1.313369274139404297e+00 -1.240433454513549805e+00 -7.779362797737121582e-01 -6.561865806579589844e-01 2.092492341995239258e+00 -2.564237415790557861e-01 -1.626656889915466309e+00 -2.298535346984863281e+00 2.180777788162231445e+00 -8.159667849540710449e-01 -2.356373310089111328e+00 -6.747307777404785156e-01 -8.615435957908630371e-01 -1.915855765342712402e+00 -5.668234825134277344e-01 1.493200659751892090e-01 -2.917615413665771484e+00 -8.617388606071472168e-01 -2.273383855819702148e+00 -1.183784082531929016e-01 -2.166206359863281250e+00 5.812907218933105469e-02 2.126475572586059570e+00 -6.488846540451049805e-01 6.709704399108886719e-01 -1.927848458290100098e+00 3.036101818084716797e+00 2.889119625091552734e+00 4.228977262973785400e-01 -1.567102521657943726e-01 -1.150330901145935059e+00 -6.598386764526367188e-01 -3.810623288154602051e-01 1.373957633972167969e+00 2.704146862030029297e+00 -5.769363045692443848e-01 1.321829110383987427e-01 -8.792281150817871094e-01 1.483974575996398926e+00 2.731092453002929688e+00 8.308734893798828125e-01 -3.915541768074035645e-01 1.623121500015258789e+00 9.453575015068054199e-01 2.692368984222412109e+00 -8.904915452003479004e-01 -4.588550925254821777e-01 -2.161498069763183594e+00 3.127986192703247070e+00 2.640314579010009766e+00 -3.073739707469940186e-01 1.991734027862548828e+00 -2.079092979431152344e+00 -5.841332077980041504e-01 -2.005725383758544922e+00 5.534223914146423340e-01 -1.526148796081542969e+00 2.088242769241333008e+00 1.346412420272827148e+00 -1.439783811569213867e+00 -1.370521545410156250e+00 -1.044586539268493652e+00 -9.155414104461669922e-01 -4.075755774974822998e-01 -2.961108386516571045e-01 -9.780365824699401855e-01 1.967543482780456543e+00 -5.330393314361572266e-01 -2.907958030700683594e-01 2.216399192810058594e+00 9.532392024993896484e-01 -2.457137346267700195e+00 -3.799871504306793213e-01 1.735665678977966309e+00 -1.848761916160583496e+00 2.305781096220016479e-01 2.268352359533309937e-01 -1.906116455793380737e-01 2.223211824893951416e-01 -3.285001516342163086e+00 1.879250526428222656e+00 -1.288139343261718750e+00
8.942943811416625977e-01 -1.374167323112487793e+00 3.636128664016723633e+00 -1.173426270484924316e+00 -8.833491802215576172e-01 -2.034045457839965820e+00 4.698680639266967773e-01 6.421816945075988770e-01 -1.957667231559753418e+00 5.941664576530456543e-01 -1.003050088882446289e+00 -1.751765012741088867e-01 -2.056017398834228516e+00 -1.920936942100524902e+00 8.426524400711059570e-01 2.360592365264892578e+00 8.898605704307556152e-01 2.135499000549316406e+00 -2.245743513107299805e+00 3.221264600753784180e+00 -3.711510598659515381e-01 -7.653021216392517090e-01 3.692736923694610596e-01 -3.447190761566162109e+00 1.538522839546203613e+00 2.483118295669555664e+00 1.923811674118041992e+00 -2.830873489379882812e+00 -2.315819501876831055e+00 5.777270793914794922e-01 5.729449391365051270e-01 2.772929906845092773e+00 -2.007678747177124023e+00 -5.183564871549606323e-02 -8.635728806257247925e-02 -1.616011738777160645e+00 -9.665868282318115234e-01 2.407714873552322388e-01 -1.681624412536621094e+00 6.179225444793701172e-01 -4.381152689456939697e-01 1.101931929588317871e+00 -2.962590754032135010e-02 4.739488959312438965e-01 -2.839646816253662109e+00 1.636407017707824707e+00 2.517020702362060547e+00 2.252137213945388794e-01 -2.615148782730102539e+00 1.099919676780700684e+00 1.999855279922485352e+00 7.238487601280212402e-01 6.397157311439514160e-01 2.816067934036254883e+00 1.259303569793701172e+00 -1.130056619644165039e+00 1.469405531883239746e+00 1.898585408926010132e-01 -2.416351079940795898e+00 -6.417212486267089844e-01 1.742804646492004395e+00 1.082449436187744141e+00 2.239274680614471436e-01 1.150041967630386353e-01 -4.649493098258972168e-01 8.564247488975524902e-01 -2.314941644668579102e+00 -9.653520584106445312e-01 2.782857418060302734e+00 1.598608374595642090e+00 1.097210943698883057e-01 4.363430142402648926e-01 2.061316728591918945e+00 1.456572175025939941e+00 -1.788375526666641235e-01 -1.523485541343688965e+00 8.822508454322814941e-01 -2.001928806304931641e+00 -8.437139391899108887e-01 -1.154560446739196777e+00 -9.588613510131835938e-01 1.285871148109436035e+00 -5.230157375335693359e-01 -1.955934643745422363e+00 -1.523111343383789062e+00 -2.947265625000000000e+00 -1.551069140434265137e+00 5.288295149803161621e-01 -3.439754247665405273e-01 2.543376922607421875e+00
-7.140140533447265625e-01 1.052468180656433105e+00 -8.563807010650634766e-01 1.363791108131408691e+00 1.037138104438781738e+00 -1.896557569503784180e+00 2.545209884643554688e+00 -4.114172458648681641e+00 -1.600180417299270630e-01 1.914127349853515625e+00 3.240703821182250977e+00 1.527753710746765137e+00 -3.408873379230499268e-01 -1.572601318359375000e+00 -1.758478760719299316e+00 -6.421701312065124512e-01 1.567392110824584961e+00 2.551018714904785156e+00 -2.269029319286346436e-01 -1.805994510650634766e+00 1.173904895782470703e+00 1.459606647491455078e+00 2.571537494659423828e+00 -2.412831068038940430e+00 -1.740067481994628906e+00 9.745160937309265137e-01 -6.429681181907653809e-01 -1.582715749740600586e+00 -5.020681023597717285e-01 1.799946546554565430e+00 1.671172142028808594e+00 -1.208601117134094238e+00 -3.381787613034248352e-02 7.150279879570007324e-01 1.644161939620971680e+00 1.810750842094421387e+00 1.576252579689025879e+00 2.198840379714965820e+00 -4.492866992950439453e-01 2.355085134506225586e+00 -1.539888739585876465e+00 3.395282849669456482e-02 2.872397005558013916e-01 -1.708672404289245605e+00 -1.421480327844619751e-01 -4.715277552604675293e-01 9.761346876621246338e-02 -1.818093061447143555e+00 9.188757836818695068e-02 5.527174845337867737e-02 -1.937219142913818359e+00 -9.015946984291076660e-01 -1.534600496292114258e+00 9.055739641189575195e-01 1.240854859352111816e+00 8.339287638664245605e-01 -1.482281684875488281e+00 2.305495262145996094e+00 1.446235924959182739e-01 -1.660170078277587891e+00 -3.764294832944869995e-02 -3.424375295639038086e+00 1.495023012161254883e+00 1.831069707870483398e+00 1.108360052108764648e+00 2.744779288768768311e-01 -2.564541399478912354e-01 1.368871688842773438e+00 6.633189320564270020e-01 9.450880810618400574e-03 -4.575137197971343994e-01 1.241991162300109863e+00 2.175207138061523438e-01 -2.483932971954345703e-01 3.205307722091674805e+00 3.079740524291992188e+00 3.327298164367675781e+00 8.977860212326049805e-01 -9.788904190063476562e-01 1.621893048286437988e+00 5.610440969467163086e-01 2.831530332565307617e+00 1.139159917831420898e+00 -1.016163825988769531e+00 -9.472438693046569824e-01 7.989291548728942871e-01 -2.621446132659912109e+00 1.900674343109130859e+00 -2.407032012939453125e+00 2.415257692337036133e+00
-2.166492938995361328e+00 -2.372291237115859985e-01 -1.613151907920837402e+00 -5.166442990303039551e-01 -1.712974905967712402e+00 -1.632826805114746094e+00 4.103379249572753906e-01 -1.090947628021240234e+00 2.801392316818237305e+00 1.173930522054433823e-02 1.985844492912292480e+00 -1.510311484336853027e+00 -1.142134308815002441e+00 1.413605332374572754e+00 -1.403243899345397949e+00 8.339927196502685547e-01 -2.762984752655029297e+00 1.262795448303222656e+00 -3.015812486410140991e-02 2.247605919837951660e-01 -5.486759543418884277e-01 1.049792766571044922e+00 -1.631692767143249512e+00 5.061345696449279785e-01 -9.625614881515502930e-01 1.397229075431823730e+00 1.702661037445068359e+00 -2.599672377109527588e-01 -1.863671541213989258e-01 2.539126873016357422e+00 1.012968420982360840e+00 -7.528780102729797363e-01 -9.312770962715148926e-01 -2.309001445770263672e+00 -2.447215914726257324e-01 3.820888519287109375e+00 1.836872339248657227e+00 6.873605847358703613e-01 3.042435348033905029e-01 -8.285476565361022949e-01 1.181435137987136841e-01 1.345254540443420410e+00 -1.530247092247009277e+00 1.803020119667053223e+00 -2.978485636413097382e-02 -4.106757044792175293e-02 -8.296990394592285156e-01 2.875045776367187500e+00 -3.038389086723327637e-01 1.273532986640930176e+00 -3.474371194839477539e+00 -2.179758071899414062e+00 -1.932891964912414551e+00 -2.431568861007690430e+00 1.217140436172485352e+00 2.860105633735656738e-01 1.130272746086120605e+00 -2.356269508600234985e-01 3.256936788558959961e+00 -1.178102731704711914e+00 -1.793216824531555176e+00 9.195423871278762817e-02 1.122071623802185059e+00 1.276741176843643188e-01 -1.219489932060241699e+00 2.885886907577514648e+00 -1.489802360534667969e+00 1.174494981765747070e+00 3.283720016479492188e+00 2.524061679840087891e+00 -1.285770982503890991e-01 -9.917318224906921387e-01 -2.622797250747680664e+00 -8.239520192146301270e-01 -8.802955746650695801e-01 -1.511784076690673828e+00 -5.619314312934875488e-01 1.002222895622253418e+00 -3.399082273244857788e-02 -1.372058987617492676e+00 1.254320621490478516e+00 -4.929097294807434082e-01 1.907781839370727539e+00 -2.549653053283691406e+00 -1.931068003177642822e-01 -6.025611758232116699e-01 -1.928119778633117676e+00 -1.801775455474853516e+00 -1.759173154830932617e+00 6.645840406417846680e-01
1.612553477287292480e+00 -2.582713603973388672e+00 -1.821098208427429199e+00 3.893281221389770508e-01 -8.754996955394744873e-02 6.359525918960571289e-01 7.497220635414123535e-01 4.944987297058105469e-01 -1.542968630790710449e+00 8.394989967346191406e-01 1.096588969230651855e+00 2.364942789077758789e+00 -7.867854237556457520e-01 1.236415952444076538e-01 -4.318378865718841553e-02 1.201615571975708008e+00 2.988800525665283203e+00 -1.882198452949523926e+00 2.289956331253051758e+00 -3.996142148971557617e-01 -2.479398012161254883e+00 1.304100513458251953e+00 -1.365777015686035156e+00 -5.929588526487350464e-02 -2.936037257313728333e-02 1.147120952606201172e+00 7.672260403633117676e-01 -2.988537788391113281e+00 -1.201630949974060059e+00 -1.023774981498718262e+00 -1.476885795593261719e+00 2.243296951055526733e-01 -1.831854939460754395e+00 1.350296974182128906e+00 -1.042392134666442871e+00 -1.860241413116455078e+00 7.037254571914672852e-01 -9.779228568077087402e-01 -1.184197545051574707e+00 1.373568415641784668e+00 -2.355491399765014648e+00 -1.894547790288925171e-01 3.569464921951293945e+00 -8.956507444381713867e-01 -1.898482561111450195e+00 -1.580677032470703125e+00 2.172128915786743164e+00 -2.313618421554565430e+00 -9.892168045043945312e-01 -6.958358287811279297e-01 -1.800616502761840820e+00 -5.415650606155395508e-01 6.657004356384277344e-01 -1.342731118202209473e+00 -1.002659916877746582e+00 2.579874753952026367e+00 1.331963658332824707e+00 -1.274762630462646484e+00 1.312604427337646484e+00 6.911479830741882324e-01 -2.062450170516967773e+00 7.407341003417968750e-01 2.256184101104736328e+00 -2.061676740646362305e+00 5.771155357360839844e-01 -2.503227710723876953e+00 2.064496129751205444e-01 -6.823176741600036621e-01 4.490204453468322754e-01 -2.471442222595214844e+00 2.996541976928710938e+00 -1.042131185531616211e+00 7.705562114715576172e-01 -1.682125806808471680e+00 -2.932727336883544922e-01 8.000872731208801270e-01 2.971840202808380127e-01 1.756280303001403809e+00 -8.628108352422714233e-02 -6.879044771194458008e-01 -1.644940257072448730e+00 4.151937961578369141e+00 7.194087505340576172e-01 2.699644863605499268e-01 -2.240418195724487305e-01 -1.658057689666748047e+00 -1.591422259807586670e-01 -5.988623499870300293e-01 -8.163565993309020996e-01 2.183958053588867188e+00
-5.052037835121154785e-01 -6.282200813293457031e-01 6.750234216451644897e-02 -7.233128696680068970e-02 -1.692786335945129395e+00 9.009987711906433105e-01 5.084610581398010254e-01 5.698879957199096680e-01 6.230572611093521118e-02 -4.092264175415039062e-01 -6.267164349555969238e-01 3.204843044281005859e+00 3.732795953750610352e+00 -1.244980692863464355e+00 2.216255664825439453e-01 1.444424510002136230e+00 -1.116903066635131836e+00 -1.836344242095947266e+00 -2.760038852691650391e+00 -6.764846444129943848e-01 -5.862088203430175781e-01 -1.551812887191772461e+00 2.244718819856643677e-01 1.549197793006896973e+00 -1.197746396064758301e+00 -2.236477136611938477e+00 -3.945249319076538086e+00 -1.252113461494445801e+00 -1.033411026000976562e+00 -1.571805953979492188e+00 8.349112868309020996e-01 1.262726306915283203e+00 6.395663619041442871e-01 1.295941233634948730e+00 -6.936922073364257812e-01 9.772902727127075195e-01 1.739750027656555176e+00 -5.513300299644470215e-01 5.195491909980773926e-01 7.419754266738891602e-01 4.849676191806793213e-01 7.817975878715515137e-01 4.455085992813110352e-01 -1.855138778686523438e+00 1.294262409210205078e+00 5.699608325958251953e-01 6.466223597526550293e-01 -1.442977666854858398e+00 -2.343059778213500977e+00 -3.045137405395507812e+00 2.132910251617431641e+00 -6.157304644584655762e-01 2.260096520185470581e-01 2.680928409099578857e-01 3.477964997291564941e-01 1.262851595878601074e+00 -1.158128738403320312e+00 -3.161062896251678467e-01 2.939456701278686523e-01 -7.637184262275695801e-01 -4.276967048645019531e-01 -7.962199449539184570e-01 3.750066518783569336e+00 1.486856937408447266e+00 -1.406748533248901367e+00 1.028492212295532227e+00 -1.601107597351074219e+00 2.198497056961059570e+00 9.193555116653442383e-01 -2.010895013809204102e+00 -1.026518583297729492e+00 1.310153007507324219e-01 -7.826493978500366211e-01 1.815280675888061523e+00 -3.319202363491058350e-01 -8.295285701751708984e-01 2.395621091127395630e-01 -6.049495339393615723e-01 1.070269227027893066e+00 -2.238177299499511719e+00 5.979720950126647949e-01 -3.005426883697509766e+00 1.137428522109985352e+00 -1.007322192192077637e+00 5.707089304924011230e-01 1.842476844787597656e+00 7.686826586723327637e-01 2.640548050403594971e-01 3.406102180480957031e+00 9.060715436935424805e-01
-8.857854008674621582e-01 3.067521572113037109e+00 -1.029806494712829590e+00 9.911794066429138184e-01 -2.565669298171997070e+00 1.587281942367553711e+00 -2.098730325698852539e+00 1.497666954994201660e+00 -8.956463932991027832e-01 -1.208860635757446289e+00 -2.515558719635009766e+00 2.081040889024734497e-01 3.017810821533203125e+00 -4.017985761165618896e-01 -1.689241409301757812e+00 1.162488579750061035e+00 2.419054746627807617e+00 -5.738227963447570801e-01 2.463972806930541992e+00 -9.670846909284591675e-02 1.323020219802856445e+00 -3.313884437084197998e-01 1.744997262954711914e+00 -2.315611600875854492e+00 -2.868467569351196289e+00 -1.345911994576454163e-02 4.995806887745857239e-02 -4.898739457130432129e-01 2.325499773025512695e+00 -2.437937498092651367e+00 -5.074605345726013184e-01 2.742423295974731445e+00 3.301403820514678955e-01 -7.063206434249877930e-01 5.935241580009460449e-01 -1.887437582015991211e+00 -1.423785209655761719e+00 3.884458780288696289e+00 -2.715339362621307373e-01 1.971678256988525391e+00 9.459761381149291992e-01 -1.854827553033828735e-01 -5.045738220214843750e-01 1.868263632059097290e-01 -3.847251832485198975e-01 -1.410984158515930176e+00 8.348143696784973145e-01 -6.137056350708007812e-01 -4.243716299533843994e-01 1.261357665061950684e+00 2.109424829483032227e+00 -1.794489741325378418e+00 -1.934629917144775391e+00 2.663861036300659180e+00 1.917869567871093750e+00 1.791680455207824707e+00 -1.605107665061950684e+00 -6.925681829452514648e-01 2.244300842285156250e-01 5.022640228271484375e-01 -1.076929688453674316e+00 2.291455984115600586e+00 4.714247286319732666e-01 -7.679574191570281982e-02 1.349579930305480957e+00 -3.076285839080810547e+00 -3.030336201190948486e-01 8.476216793060302734e-01 1.576209187507629395e+00 -2.109532356262207031e+00 -9.086272716522216797e-01 -1.363408565521240234e+00 -1.784024596214294434e+00 -1.759049177169799805e+00 -2.161351442337036133e+00 -7.736646533012390137e-01 2.618066310882568359e+00 1.774660587310791016e+00 -1.992312073707580566e+00 -5.431633591651916504e-01 1.125193119049072266e+00 -8.931100368499755859e-01 -1.798161506652832031e+00 1.843693256378173828e+00 -9.477096050977706909e-02 1.191775798797607422e+00 4.081196784973144531e-01 1.267721056938171387e+00 7.365115284919738770e-01 5.622227787971496582e-01
3.819462954998016357e-01 1.079126745462417603e-01 2.432329207658767700e-01 -3.058089613914489746e-01 -3.876361623406410217e-02 1.614970969967544079e-03 5.439793467521667480e-01 9.062270820140838623e-02 -1.238914132118225098e+00 1.721763610839843750e+00 2.011114597320556641e+00 -1.615489721298217773e+00 1.252700209617614746e+00 -2.540585994720458984e+00 5.814625620841979980e-01 -1.337733030319213867e+00 3.129176795482635498e-02 -7.157641649246215820e-01 7.662864327430725098e-01 2.825578451156616211e+00 -2.502332031726837158e-01 8.922903537750244141e-01 -5.429666638374328613e-01 5.600663423538208008e-01 8.949227929115295410e-01 -3.185604333877563477e+00 7.646732926368713379e-01 -5.075060725212097168e-01 1.561714172363281250e+00 -1.537578701972961426e+00 -5.116625875234603882e-02 -1.922892570495605469e+00 -7.166587710380554199e-01 1.259697794914245605e+00 -2.179092645645141602e+00 -5.258109569549560547e-01 2.739924430847167969e+00 -2.126677781343460083e-01 -2.079169273376464844e+00 2.376840353012084961e+00 1.261187195777893066e+00 1.627507448196411133e+00 -3.399442136287689209e-01 -1.636007785797119141e+00 -1.639289557933807373e-01 -1.674681663513183594e+00 -2.500686407089233398e+00 -1.077847361564636230e+00 -2.511444330215454102e+00 2.639101505279541016e+00 1.137382864952087402e+00 2.017142295837402344e+00 -9.324588626623153687e-02 -5.047798752784729004e-01 2.412606954574584961e+00 1.169555664062500000e+00 1.865763068199157715e+00 -1.796973109245300293e+00 2.421784639358520508e+00 -1.833673954010009766e+00 -1.717136949300765991e-01 -1.721455216407775879e+00 -1.320866107940673828e+00 -2.438722372055053711e+00 -9.684181772172451019e-03 8.876914381980895996e-01 -6.890487074851989746e-01 -1.791821479797363281e+00 -1.212778210639953613e+00 -1.398998737335205078e+00 -1.055510759353637695e+00 -2.943032979965209961e-01 8.435121923685073853e-02 3.697330951690673828e+00 2.058519363403320312e+00 -1.314227938652038574e+00 -1.287052035331726074e-02 -9.390308856964111328e-01 -2.259988069534301758e+00 -5.067854002118110657e-02 1.160589218139648438e+00 2.183521032333374023e+00 1.684075593948364258e-01 -3.143188357353210449e-01 3.003056764602661133e+00 -3.167361259460449219e+00 1.758891105651855469e+00 6.407384276390075684e-01 2.962686419486999512e-01 -2.090924501419067383e+00
1.113655567169189453e+00 -3.584452569484710693e-01 -2.599875926971435547e+00 -1.323619127273559570e+00 2.716417312622070312e-01 -2.043703317642211914e+00 -1.554202437400817871e-01 -5.153176188468933105e-02 -9.947615265846252441e-01 -1.601256012916564941e+00 -4.362260103225708008e-01 -1.665623307228088379e+00 2.926914989948272705e-01 8.804944157600402832e-01 -2.003749132156372070e+00 -5.613557696342468262e-01 5.958642363548278809e-01 -1.796866536140441895e+00 -8.039234578609466553e-02 2.437741756439208984e+00 -1.607260465621948242e+00 2.812242984771728516e+00 4.420751094818115234e+00 1.829378247261047363e+00 -1.089628115296363831e-01 -1.510088562965393066e+00 7.821967601776123047e-01 -4.135431349277496338e-02 -1.820764183998107910e+00 -1.543414294719696045e-01 -2.274483919143676758e+00 3.130113184452056885e-01 2.434837341308593750e+00 -1.299727916717529297e+00 2.720303058624267578e+00 -1.931178450584411621e+00 -2.172909736633300781e+00 -3.532168269157409668e-01 4.848835617303848267e-02 -2.005094289779663086e+00 -2.244220018386840820e+00 2.750409841537475586e+00 -1.349461078643798828e+00 -1.189106583595275879e+00 -1.333579897880554199e+00 -8.251740783452987671e-02 -1.672337770462036133e+00 -2.110358238220214844e+00 8.661056756973266602e-01 1.543086469173431396e-01 -1.892113089561462402e-01 5.506397485733032227e-01 -3.177704572677612305e+00 -1.883495807647705078e+00 -1.245089650154113770e+00 8.226321339607238770e-01 6.187978386878967285e-01 -1.221368908882141113e+00 1.072258114814758301e+00 2.454035043716430664e+00 1.446810245513916016e+00 -8.280515074729919434e-01 -1.283637762069702148e+00 -1.367330312728881836e+00 -1.113222002983093262e+00 2.472475767135620117e+00 3.086442947387695312e-01 -1.077459573745727539e+00 1.693585753440856934e+00 1.640156954526901245e-01 -8.828640580177307129e-01 -1.332023620605468750e+00 -3.253504931926727295e-01 -1.477829337120056152e+00 2.571655750274658203e+00 2.576069116592407227e+00 -2.868794500827789307e-01 1.502148866653442383e+00 -7.135812044143676758e-01 -3.302629590034484863e-01 -1.603105783462524414e+00 -1.313065528869628906e+00 -1.720645666122436523e+00 -2.551221288740634918e-02 -3.948111236095428467e-01 -8.699991703033447266e-01 1.790400147438049316e+00 -3.451485157012939453e+00 -5.086959004402160645e-01 1.650789380073547363e+00
-4.446306228637695312e-01 7.958227992057800293e-01 -1.701590538024902344e+00 1.765540122985839844e+00 3.956941366195678711e+00 -1.576795101165771484e+00 -1.532743453979492188e+00 -1.462165236473083496e+00 6.376845836639404297e-01 -1.634705781936645508e+00 2.103627771139144897e-01 -8.517131209373474121e-01 -1.600430250167846680e+00 -5.042367577552795410e-01 -2.592040598392486572e-01 2.387293577194213867e+00 -2.228950500488281250e+00 1.698086857795715332e-01 -4.091054201126098633e-01 -1.797503113746643066e+00 3.189811706542968750e+00 -1.506732821464538574e+00 -1.174126267433166504e+00 -3.572255671024322510e-01 -3.242738962173461914e+00 1.017504692077636719e+00 2.479198694229125977e+00 -1.464713811874389648e+00 3.457273483276367188e+00 4.068177640438079834e-01 -5.528294444084167480e-01 1.252569705247879028e-01 1.679711103439331055e+00 1.010642290115356445e+00 -5.572788715362548828e-01 -1.313754767179489136e-01 -1.745456933975219727e+00 -2.608270645141601562e-01 1.805812716484069824e+00 -1.760667115449905396e-01 1.268271088600158691e+00 5.238506197929382324e-01 -1.958246231079101562e+00 -2.864491939544677734e+00 -5.503025054931640625e-01 7.826563119888305664e-01 -3.156461417675018311e-01 1.845208406448364258e-01 -2.130180895328521729e-01 6.611670851707458496e-01 -4.306974411010742188e-01 1.592508107423782349e-01 1.308522671461105347e-01 1.907174229621887207e+00 -2.007062584161758423e-01 -1.712378025054931641e+00 -1.619947910308837891e+00 -1.164924025535583496e+00 2.143445491790771484e+00 4.087871551513671875e+00 4.034626856446266174e-02 5.916906893253326416e-02 1.551556706428527832e+00 1.048877835273742676e+00 -2.080832719802856445e+00 5.681421160697937012e-01 -1.370407462120056152e+00 -1.477661013603210449e+00 1.652010798454284668e+00 -1.397596359252929688e+00 -1.122349500656127930e+00 9.162839055061340332e-01 1.601932644844055176e-01 8.336559534072875977e-01 -1.928086638450622559e+00 2.634108304977416992e+00 1.963127732276916504e+00 -2.139578759670257568e-01 2.735793352127075195e+00 -2.507571458816528320e+00 -1.176565960049629211e-01 1.278688311576843262e-01 -1.118856668472290039e+00 -2.113824367523193359e+00 -1.697515249252319336e+00 -2.932522296905517578e-01 -2.887093067169189453e+00 1.969473004341125488e+00 1.095089793205261230e+00 -3.361117839813232422e-01
1.486581802368164062e+00 -5.011086463928222656e-01 6.841090917587280273e-01 5.346228480339050293e-01 -9.809110760688781738e-01 3.225364387035369873e-01 -4.127897024154663086e-01 -1.479670047760009766e+00 -3.566790521144866943e-01 9.019604921340942383e-01 -1.084547281265258789e+00 -7.526561617851257324e-01 -2.954320907592773438e+00 1.282796621322631836e+00 -1.426367759704589844e+00 -1.043641567230224609e-01 8.569706231355667114e-02 -6.950330138206481934e-01 -1.734383702278137207e+00 2.115515708923339844e+00 1.207205176353454590e+00 -4.703681543469429016e-02 -5.633048415184020996e-01 -2.786445379257202148e+00 2.192936658859252930e+00 -2.310615062713623047e+00 -2.764309167861938477e+00 -2.258078098297119141e+00 1.650930285453796387e+00 1.370420575141906738e+00 2.246737241744995117e+00 -1.928502798080444336e+00 1.327151060104370117e-01 5.832388997077941895e-01 -1.345762729644775391e+00 5.001329779624938965e-01 7.244684696197509766e-01 -9.354239106178283691e-01 -3.575692474842071533e-01 -1.405822634696960449e+00 1.646909117698669434e+00 8.139167428016662598e-01 4.434030354022979736e-01 -1.453588128089904785e+00 -2.067377805709838867e+00 1.938000679016113281e+00 1.046742439270019531e+00 -7.873221039772033691e-01 -1.985530495643615723e+00 1.848265409469604492e+00 -1.134247064590454102e+00 -1.640680432319641113e+00 2.919089317321777344e+00 2.017429590225219727e+00 -3.501294136047363281e+00 -3.918942213058471680e-01 -2.413429617881774902e-01 6.754768490791320801e-01 -6.254726648330688477e-01 -9.712591171264648438e-01 6.930682659149169922e-01 -1.196152210235595703e+00 -5.861247777938842773e-01 3.693194389343261719e+00 -6.017809510231018066e-01 1.821273088455200195e+00 4.085290908813476562e+00 4.086033403873443604e-01 -1.417411684989929199e+00 -3.682979643344879150e-01 1.615099906921386719e+00 -1.436990857124328613e+00 -4.024608135223388672e-01 -1.753514885902404785e+00 6.019257754087448120e-02 -2.140010118484497070e+00 3.772739768028259277e-01 5.823163390159606934e-01 -2.627480268478393555e+00 3.101927042007446289e-01 1.732028961181640625e+00 2.871141433715820312e+00 1.256043672561645508e+00 -7.158991098403930664e-01 1.260410308837890625e+00 6.701235771179199219e-01 -2.546634674072265625e+00 1.428402900695800781e+00 -2.232218503952026367e+00 -1.560450077056884766e+00
4.912605285644531250e-01 -7.312417030334472656e-01 8.804513216018676758e-01 1.450924277305603027e+00 1.876643180847167969e+00 -1.437664031982421875e+00 1.881346344947814941e+00 -9.850286245346069336e-01 -1.545927643775939941e+00 -3.504368066787719727e+00 1.750280261039733887e+00 4.102348089218139648e-01 -5.501080155372619629e-01 -5.332750678062438965e-01 2.798470258712768555e-01 -1.118408441543579102e+00 -5.496684908866882324e-01 2.921736001968383789e+00 -7.436369061470031738e-01 1.808097481727600098e+00 -4.138317406177520752e-01 1.282342433929443359e+00 -1.340958476066589355e+00 3.193154573440551758e+00 -9.891878962516784668e-01 8.399294018745422363e-01 -1.198791146278381348e+00 -1.691311836242675781e+00 6.571216583251953125e-01 -1.742099165916442871e+00 -2.780485630035400391e+00 1.481767416000366211e+00 -9.645198583602905273e-01 -1.895383477210998535e+00 6.320571899414062500e-01 -1.144256114959716797e+00 -1.677419304847717285e+00 -5.868240594863891602e-01 1.838086843490600586e-01 8.856436610221862793e-01 -2.054881334304809570e+00 -4.442093849182128906e+00 -1.083711028099060059e+00 2.437646687030792236e-01 2.681892514228820801e-01 4.322897791862487793e-01 -6.202129274606704712e-02 -1.428996205329895020e+00 1.677611470222473145e+00 7.642560005187988281e-01 6.109176278114318848e-01 1.054003834724426270e+00 -1.746638417243957520e+00 1.418812990188598633e+00 -5.198603272438049316e-01 2.193404197692871094e+00 6.805704236030578613e-01 3.080269336700439453e+00 -2.453055858612060547e+00 2.597260713577270508e+00 5.615962743759155273e-01 -8.951480388641357422e-01 9.846067428588867188e-01 2.034913599491119385e-01 -3.435617387294769287e-01 4.626720249652862549e-01 -1.979890346527099609e+00 2.629594206809997559e-01 -1.360073804855346680e+00 -4.373731091618537903e-02 -3.221730589866638184e-01 1.456623077392578125e+00 -1.723519682884216309e+00 -1.417073845863342285e+00 -2.579865753650665283e-01 -2.092301368713378906e+00 2.357735335826873779e-01 -1.608833193778991699e+00 -1.248586535453796387e+00 4.876268208026885986e-01 3.317925930023193359e+00 4.387611448764801025e-01 -2.052392959594726562e+00 -6.874741613864898682e-02 -5.674592852592468262e-01 1.590904831886291504e+00 1.138150691986083984e+00 7.269083857536315918e-01 2.732137203216552734e+00 2.618807077407836914e+00
5.750308036804199219e-01 4.261475056409835815e-02 1.829480528831481934e+00 5.315782427787780762e-01 -3.750811815261840820e-01 -2.968228101730346680e+00 1.723389267921447754e+00 -8.662242293357849121e-01 -3.173561096191406250e-01 2.053720474243164062e+00 -2.189710378646850586e+00 -1.787565588951110840e+00 9.553882479667663574e-01 -4.186201989650726318e-01 7.464251667261123657e-02 -6.434966325759887695e-01 -2.254402875900268555e+00 -1.225539445877075195e+00 2.405784845352172852e+00 -1.266456246376037598e+00 8.180512189865112305e-01 1.617865085601806641e+00 -1.000619053840637207e+00 6.091647148132324219e-01 -1.216827034950256348e+00 -2.071774601936340332e-01 3.128024339675903320e+00 -5.439243316650390625e-01 1.395166277885437012e+00 5.061817169189453125e-01 -2.853223085403442383e-01 -2.362031459808349609e+00 -7.018115520477294922e-01 -1.232410669326782227e+00 -6.216241121292114258e-01 9.304897785186767578e-01 3.417748585343360901e-02 3.281667828559875488e-01 3.250975906848907471e-01 2.440379858016967773e+00 -1.071083664894104004e+00 -1.757907420396804810e-01 7.881184220314025879e-01 -1.862855315208435059e+00 1.768893837928771973e+00 1.734645009040832520e+00 -2.831096887588500977e+00 1.697475790977478027e+00 -1.366229951381683350e-01 -3.167714357376098633e+00 7.590354681015014648e-01 2.449158430099487305e+00 4.862917900085449219e+00 -3.589785993099212646e-01 1.497679710388183594e+00 9.419424533843994141e-01 1.390571594238281250e+00 6.594478487968444824e-01 -1.471089422702789307e-01 -1.456655263900756836e+00 -1.477088809013366699e+00 7.172050476074218750e-01 -9.111555814743041992e-01 1.353014111518859863e+00 -7.209907770156860352e-01 -2.022880792617797852e+00 -7.511485219001770020e-01 -6.782854795455932617e-01 -1.568319916725158691e+00 8.747239112854003906e-01 2.315109670162200928e-01 -9.370813369750976562e-01 1.170103549957275391e+00 6.097802426666021347e-03 2.467687845230102539e+00 -2.589630126953125000e+00 1.029780745506286621e+00 2.245793342590332031e+00 2.063010931015014648e+00 9.512258172035217285e-01 1.493927717208862305e+00 5.201966166496276855e-01 -1.676781654357910156e+00 -1.636743307113647461e+00 -1.669660568237304688e+00 1.067578792572021484e+00 3.929747045040130615e-01 2.811018943786621094e+00 -1.703093647956848145e+00 1.701366305351257324e-01
1.233937501907348633e+00 -7.862424850463867188e-01 -1.406406998634338379e+00 -1.646663308143615723e+00 -1.931684732437133789e+00 -8.339229226112365723e-01 -7.660385370254516602e-01 4.902311414480209351e-02 8.675557374954223633e-01 -4.364557266235351562e-01 1.635868549346923828e+00 -1.833669394254684448e-01 6.260770559310913086e-01 -6.357254385948181152e-01 -7.515981793403625488e-01 -2.631095886230468750e+00 -1.581900417804718018e-01 1.049815177917480469e+00 3.204839468002319336e+00 8.643985390663146973e-01 1.688631065189838409e-02 7.714308500289916992e-01 -1.477218389511108398e+00 -1.786082029342651367e+00 -9.115391969680786133e-01 -8.010668754577636719e-01 -2.059065818786621094e+00 -2.524790525436401367e+00 -2.892249226570129395e-01 1.266745448112487793e+00 -4.097459793090820312e+00 9.655653834342956543e-01 -2.569692850112915039e+00 -8.737126588821411133e-01 2.134631633758544922e+00 7.290369272232055664e-01 -3.095337390899658203e+00 2.913861513137817383e+00 -3.226369321346282959e-01 5.035132765769958496e-01 -2.418358564376831055e+00 2.127619504928588867e+00 2.637901306152343750e+00 4.823715090751647949e-01 5.132736563682556152e-01 2.852414369583129883e+00 -3.900666534900665283e-01 3.475310087203979492e+00 -8.440351486206054688e-01 -1.229190707206726074e+00 8.871126174926757812e-01 2.296956300735473633e+00 -6.389956474304199219e-01 6.440544724464416504e-01 -5.950954556465148926e-01 7.305071353912353516e-01 -2.770757973194122314e-01 4.171316325664520264e-01 -3.790915310382843018e-01 -5.032196640968322754e-01 2.420280456542968750e+00 -1.927893757820129395e+00 5.913650989532470703e-01 -1.370729327201843262e+00 2.322744876146316528e-01 5.059606432914733887e-01 -1.793448686599731445e+00 5.020287036895751953e-01 -1.447511553764343262e+00 -2.697974205017089844e+00 -2.302809238433837891e+00 -1.865671396255493164e+00 -2.561937272548675537e-01 4.166751384735107422e+00 2.730228602886199951e-01 1.726976990699768066e+00 6.134675145149230957e-01 -5.095636248588562012e-01 1.182714775204658508e-01 6.519119441509246826e-02 -3.689686954021453857e-01 -1.032863736152648926e+00 1.804363489151000977e+00 -1.691032290458679199e+00 -1.255280494689941406e+00 -2.101809024810791016e+00 7.789812088012695312e-01 -7.789140343666076660e-01 -2.021259069442749023e-01 9.886805415153503418e-01
-2.418408155441284180e+00 1.637003183364868164e+00 2.265631675720214844e+00 1.765337735414505005e-01 5.444999337196350098e-01 -3.200400352478027344e+00 -1.082846045494079590e+00 1.549223542213439941e+00 -1.552570164203643799e-01 1.602997541427612305e+00 1.031486392021179199e+00 1.753356456756591797e-01 2.169272661209106445e+00 1.963909983634948730e+00 -1.145223498344421387e+00 2.782813906669616699e-01 -1.252419590950012207e+00 5.893698930740356445e-01 1.036003589630126953e+00 9.113236069679260254e-01 1.177526950836181641e+00 -8.617844581604003906e-01 -1.582293152809143066e+00 2.747723817825317383e+00 1.404678344726562500e+00 2.518793106079101562e+00 1.853815317153930664e+00 -9.737777113914489746e-01 -7.326668500900268555e-01 3.785666465759277344e+00 1.501055359840393066e-01 1.650146126747131348e+00 -1.092229604721069336e+00 -1.846750378608703613e+00 -4.740793704986572266e-01 -2.027850627899169922e+00 3.006249070167541504e-01 2.169969320297241211e+00 9.792603850364685059e-01 -9.969213008880615234e-01 5.912427306175231934e-01 2.891662903130054474e-02 -1.540800631046295166e-01 -4.840720891952514648e-01 6.993850469589233398e-01 1.696558594703674316e-01 -7.930400371551513672e-01 -2.932353973388671875e+00 2.014573335647583008e+00 5.301522016525268555e-01 -1.194934129714965820e+00 9.704484939575195312e-01 1.310359597206115723e+00 1.559052467346191406e+00 -2.092525243759155273e+00 -1.525491476058959961e-01 2.582002162933349609e+00 -8.900278806686401367e-01 4.656559601426124573e-02 2.177348613739013672e+00 -8.214637041091918945e-01 1.491403579711914062e+00 -1.485710740089416504e+00 3.850726604461669922e+00 -2.879984676837921143e-01 -3.489540517330169678e-01 -1.344314932823181152e+00 3.350890576839447021e-01 1.865293979644775391e+00 -2.092083215713500977e+00 -5.700728893280029297e-01 -1.285804986953735352e+00 7.296278476715087891e-01 -2.150357961654663086e+00 -1.525144219398498535e+00 -2.165905952453613281e+00 -9.539973735809326172e-01 4.082985818386077881e-01 -2.029061794281005859e+00 -1.044846892356872559e+00 -1.819064974784851074e+00 1.366450786590576172e+00 3.700101282447576523e-03 4.205645024776458740e-01 1.255350351333618164e+00 -5.951366424560546875e-01 -2.829955577850341797e+00 -1.167802691459655762e+00 4.205743670463562012e-01 -1.101462170481681824e-01
8.477551937103271484e-01 1.039929509162902832e+00 -5.411244630813598633e-01 -2.057311534881591797e+00 1.426268100738525391e+00 1.777969956398010254e+00 1.092787161469459534e-01 8.543331027030944824e-01 1.354162096977233887e+00 1.967447042465209961e+00 -1.486663699150085449e+00 6.330341100692749023e-01 3.799300268292427063e-02 -7.869296073913574219e-01 -1.082976698875427246e+00 -1.887642592191696167e-01 8.411803841590881348e-01 5.614620819687843323e-02 9.714403748512268066e-02 1.309331178665161133e+00 -1.045080900192260742e+00 1.484300136566162109e+00 -1.951589941978454590e+00 2.791755199432373047e+00 1.703541636466979980e+00 9.223906993865966797e-01 2.266474485397338867e+00 6.049576401710510254e-01 -1.025054216384887695e+00 1.235708594322204590e+00 -3.695653200149536133e+00 6.768613457679748535e-01 -3.834047317504882812e-01 1.794608712196350098e+00 4.102435708045959473e-02 -5.667749047279357910e-01 3.454212844371795654e-02 -1.690502315759658813e-01 1.797884225845336914e+00 -3.183559417724609375e+00 -2.557564020156860352e+00 6.678829789161682129e-01 2.939274609088897705e-01 2.128088474273681641e+00 -1.320916414260864258e-01 7.912029623985290527e-01 4.158096611499786377e-01 1.954317927360534668e+00 -3.612827301025390625e+00 2.827990353107452393e-01 -2.020766288042068481e-01 3.651164770126342773e-01 2.986086308956146240e-01 3.322000026702880859e+00 2.764452219009399414e+00 3.124364316463470459e-01 -7.118130326271057129e-01 5.672554969787597656e-01 -1.578946709632873535e+00 2.791316032409667969e+00 1.115377902984619141e+00 2.167928457260131836e+00 -1.026074409484863281e+00 -5.757196545600891113e-01 -2.521536588668823242e+00 -4.809188842773437500e-01 -1.240915417671203613e+00 1.808400601148605347e-01 -2.775441408157348633e+00 7.667620182037353516e-01 5.172255039215087891e-01 -1.356961846351623535e+00 7.057425975799560547e-01 -4.394383430480957031e-01 -5.178017616271972656e-01 2.958010673522949219e+00 1.456903457641601562e+00 2.648880243301391602e+00 -5.575872659683227539e-01 6.733959317207336426e-01 2.532141208648681641e+00 5.632412433624267578e-01 -3.046155691146850586e+00 -4.528466761112213135e-01 -1.521822452545166016e+00 2.398988306522369385e-01 6.882717013359069824e-01 -1.054344534873962402e+00 -2.813587665557861328e+00 -1.209954261779785156e+00
-8.276492357254028320e-01 1.932067513465881348e+00 3.222960710525512695e+00 -1.873823404312133789e-01 2.035531759262084961e+00 1.233260035514831543e+00 -3.126703500747680664e+00 -1.933516561985015869e-01 1.384516954421997070e+00 -2.096202373504638672e+00 6.910207867622375488e-01 -1.777389645576477051e+00 -1.403664648532867432e-01 8.484813570976257324e-01 -7.307500243186950684e-01 -2.627239704132080078e+00 7.061852812767028809e-01 -7.232550382614135742e-01 1.426958918571472168e+00 5.369575694203376770e-02 -1.630635380744934082e+00 5.850073695182800293e-01 -5.583043098449707031e-01 2.789864838123321533e-01 1.122805714607238770e+00 2.582197904586791992e+00 -1.176041126251220703e+00 -1.540050864219665527e+00 1.786356687545776367e+00 3.816051483154296875e-01 5.779703855514526367e-01 -2.526299282908439636e-02 2.616394996643066406e+00 7.382825016975402832e-01 3.713607490062713623e-01 8.092279732227325439e-02 1.583157181739807129e+00 8.150673508644104004e-01 -2.226832866668701172e+00 -5.561879277229309082e-01 7.855466008186340332e-01 3.637955337762832642e-02 -1.995428651571273804e-01 1.290766835212707520e+00 7.815089225769042969e-01 -8.028658628463745117e-01 4.826484322547912598e-01 -6.334728598594665527e-01 2.020574092864990234e+00 3.302996635437011719e+00 -1.645866036415100098e-01 3.230946958065032959e-01 -1.235494852066040039e+00 5.477623939514160156e-01 2.566854476928710938e+00 9.886414408683776855e-01 -1.011907607316970825e-01 1.115286469459533691e+00 8.608533143997192383e-01 -1.590917468070983887e+00 -2.648612737655639648e+00 1.410894155502319336e+00 -1.119945883750915527e+00 -1.557755470275878906e-01 -1.119945883750915527e+00 -1.706392318010330200e-01 -5.131540298461914062e-01 6.393849253654479980e-01 -2.677561283111572266e+00 -1.224067211151123047e+00 1.792544484138488770e+00 1.671992182731628418e+00 2.023078734055161476e-03 1.734578728675842285e+00 3.707410812377929688e+00 -5.304475426673889160e-01 2.467730522155761719e+00 -1.953799962997436523e+00 -2.497288942337036133e+00 1.015634536743164062e+00 2.856699824333190918e-01 -3.644488573074340820e+00 -2.234731316566467285e-01 1.494611382484436035e+00 3.040381968021392822e-01 -1.755209922790527344e+00 6.654319167137145996e-01 -4.212677478790283203e+00 1.295797586441040039e+00 1.515540361404418945e+00
1.251989603042602539e+00 -5.418682098388671875e-01 1.006790637969970703e+00 -9.019006490707397461e-01 2.131352424621582031e+00 -2.685381174087524414e+00 -1.406356453895568848e+00 2.665708065032958984e-01 2.498855590820312500e+00 1.755617558956146240e-01 -1.482805252075195312e+00 -2.045046806335449219e+00 -7.853074669837951660e-01 -2.698953866958618164e+00 -1.186399698257446289e+00 3.845839500427246094e-01 8.669738769531250000e-01 -4.428099691867828369e-01 2.951014757156372070e+00 1.769332170486450195e+00 -2.481122970581054688e+00 9.599288105964660645e-01 -9.526827335357666016e-01 7.354075312614440918e-01 1.206758141517639160e+00 1.703089475631713867e+00 4.873798787593841553e-01 6.180480718612670898e-01 1.973631083965301514e-01 -4.649991393089294434e-01 -3.612164556980133057e-01 -5.044017434120178223e-01 -6.617031097412109375e-01 2.013806104660034180e+00 1.386495381593704224e-01 2.157735109329223633e+00 1.114393234252929688e+00 3.809482812881469727e+00 -6.120424717664718628e-03 2.141380548477172852e+00 1.626422166824340820e+00 -2.566216468811035156e+00 -4.260185360908508301e-01 1.842792034149169922e+00 -2.663298606872558594e+00 -8.082213401794433594e-01 8.121974468231201172e-01 2.198187828063964844e+00 1.545666337013244629e+00 -2.312240839004516602e+00 2.309004068374633789e-01 9.084449410438537598e-01 -1.343499541282653809e+00 -1.759741663932800293e+00 -9.874707460403442383e-01 4.377772212028503418e-01 -3.977330327033996582e-01 6.029577255249023438e-01 1.568439364433288574e+00 -2.722788155078887939e-01 6.637307405471801758e-01 -3.225294351577758789e+00 -5.703377127647399902e-01 4.650903046131134033e-01 -1.165439374744892120e-02 -3.650711476802825928e-02 -2.142217159271240234e+00 6.077066063880920410e-01 -1.704053997993469238e+00 -2.707980155944824219e+00 4.437355101108551025e-01 -1.534387230873107910e+00 -8.238993287086486816e-01 -1.344617247581481934e+00 5.105088949203491211e-01 4.893060624599456787e-01 -2.298774242401123047e+00 7.075027376413345337e-02 -5.744666457176208496e-01 -2.163260459899902344e+00 -9.394990801811218262e-01 -1.747874379158020020e+00 1.052747964859008789e+00 1.002321958541870117e+00 2.819355726242065430e+00 3.087329864501953125e+00 1.403181791305541992e+00 1.003873944282531738e+00 5.833856463432312012e-01 -4.368844628334045410e-01
1.222430348396301270e+00 3.923528492450714111e-01 -2.646578662097454071e-02 2.667049407958984375e+00 2.759693145751953125e+00 1.266429066658020020e+00 1.198806524276733398e+00 1.737480640411376953e+00 -6.540784239768981934e-01 7.366592884063720703e-01 -1.326672434806823730e+00 3.104507684707641602e+00 1.108917832374572754e+00 -1.087670087814331055e+00 -1.927242279052734375e+00 -5.861380100250244141e-01 9.855278581380844116e-02 -2.603204250335693359e-01 3.516341745853424072e-01 1.769871592521667480e+00 3.315421342849731445e+00 1.437363386154174805e+00 -1.664745092391967773e+00 -5.234322324395179749e-02 -1.076954960823059082e+00 1.911618113517761230e+00 -4.727810621261596680e-01 -1.280412971973419189e-01 1.870165705680847168e+00 -6.037843227386474609e-01 -2.512805938720703125e+00 -1.796045660972595215e+00 -1.075690984725952148e+00 -1.933939814567565918e+00 4.381938278675079346e-01 -1.474585056304931641e+00 -9.760526418685913086e-01 -2.196495532989501953e+00 -6.882276535034179688e-01 -7.815216183662414551e-01 1.474645972251892090e+00 3.892503082752227783e-01 1.740559816360473633e+00 -2.691536396741867065e-02 -2.418596744537353516e+00 -2.924147367477416992e+00 -6.740949153900146484e-01 -6.898465156555175781e-01 -1.365117907524108887e+00 1.098639607429504395e+00 1.054175943136215210e-01 4.072206914424896240e-01 -2.860513448715209961e+00 -2.213466882705688477e+00 -5.511777997016906738e-01 -1.506301164627075195e+00 -2.297006696462631226e-01 -4.399259388446807861e-01 -1.297623753547668457e+00 1.860206604003906250e+00 9.788416028022766113e-01 1.315586090087890625e+00 -1.358675479888916016e+00 -2.520463764667510986e-01 -7.279227972030639648e-01 9.802523255348205566e-01 1.949064731597900391e+00 -1.830465793609619141e+00 2.267342805862426758e+00 -4.418753832578659058e-02 7.347323000431060791e-02 -1.875589191913604736e-01 -3.050856590270996094e+00 4.114686250686645508e-01 -1.280709385871887207e+00 2.932749092578887939e-01 -4.164176583290100098e-01 -1.310418605804443359e+00 -2.378783464431762695e+00 -2.504529714584350586e+00 7.161639630794525146e-02 -1.943495750427246094e+00 2.808831930160522461e+00 2.060491561889648438e+00 3.356272220611572266e+00 -1.425598740577697754e+00 -3.135113716125488281e-01 2.756071090698242188e+00 1.678224056959152222e-01 2.693292856216430664e+00
-3.379067897796630859e+00 4.192240238189697266e-01 4.874868690967559814e-01 2.407586812973022461e+00 -1.835101962089538574e+00 -3.812988996505737305e-01 2.231258600950241089e-01 1.461923360824584961e+00 -3.747278213500976562e+00 -3.512642860412597656e+00 -1.930746793746948242e+00 -8.189129233360290527e-01 -2.853996038436889648e+00 -8.367983102798461914e-01 9.551551938056945801e-01 9.397217631340026855e-02 -2.246227502822875977e+00 1.735469460487365723e+00 -4.069727063179016113e-01 -5.394690856337547302e-02 -4.947012290358543396e-02 2.527684211730957031e+00 -9.586598277091979980e-01 -8.998227715492248535e-01 -1.801125645637512207e+00 5.908656716346740723e-01 -1.026040196418762207e+00 3.105000495910644531e+00 -1.043078541755676270e+00 5.808854699134826660e-01 -7.681028246879577637e-01 -1.345770955085754395e+00 -7.562206983566284180e-01 7.070030570030212402e-01 -1.534380197525024414e+00 8.982806801795959473e-01 2.518785476684570312e+00 -1.174415111541748047e+00 3.101072549819946289e+00 4.296578094363212585e-02 -1.007182836532592773e+00 1.871605277061462402e+00 -1.281790494918823242e+00 -6.521641612052917480e-01 -3.770304918289184570e+00 1.515711545944213867e+00 1.570692896842956543e+00 7.071799039840698242e-01 1.340097665786743164e+00 8.709881901741027832e-01 -6.084359064698219299e-02 -2.683210611343383789e+00 -7.350015044212341309e-01 9.061768054962158203e-01 1.797970771789550781e+00 2.694072723388671875e+00 1.655039072036743164e+00 -1.033548116683959961e+00 -7.181165814399719238e-01 -1.124169230461120605e+00 1.016941905021667480e+00 -2.950340695679187775e-02 -6.008331775665283203e-01 1.845850706100463867e+00 -7.470006942749023438e-01 5.688230991363525391e-01 -5.211469531059265137e-01 9.147116541862487793e-02 -1.414962768554687500e+00 -1.295255541801452637e+00 -2.373962163925170898e+00 7.843060791492462158e-02 1.804137706756591797e+00 4.853586852550506592e-01 -1.635088205337524414e+00 -6.279268264770507812e-01 2.276809215545654297e+00 1.307853698730468750e+00 -1.024105191230773926e+00 -2.224056959152221680e+00 -7.509528994560241699e-01 -2.257201910018920898e+00 2.224555730819702148e+00 -2.173144072294235229e-01 -2.931352138519287109e+00 -8.502283096313476562e-01 1.659823805093765259e-01 -1.697275876998901367e+00 -9.838531613349914551e-01 3.767724335193634033e-01
-9.620374441146850586e-02 2.666721105575561523e+00 5.484412908554077148e-01 -2.130184412002563477e+00 -4.446111202239990234e+00 8.384339213371276855e-01 7.207208871841430664e-01 4.663766920566558838e-01 1.074845314025878906e+00 -1.534386396408081055e+00 7.932995557785034180e-01 -1.058942198753356934e+00 1.116577267646789551e+00 9.386063218116760254e-01 1.923715323209762573e-01 -4.884472787380218506e-01 -3.038729131221771240e-01 7.544408440589904785e-01 -3.007483005523681641e+00 4.152625799179077148e-01 1.105970978736877441e+00 1.565471291542053223e+00 -1.766867160797119141e+00 -1.195885166525840759e-01 1.627297401428222656e+00 5.092556476593017578e-01 -3.088071048259735107e-01 -2.398185014724731445e+00 7.963827252388000488e-01 3.931810379028320312e+00 1.447898864746093750e+00 -3.096236586570739746e-01 7.043904662132263184e-01 -5.309177190065383911e-02 -7.317424286156892776e-03 -9.114351868629455566e-01 -1.028210878372192383e+00 1.738400936126708984e+00 -1.689876675605773926e+00 -1.470902323722839355e+00 1.174674034118652344e+00 -6.582928299903869629e-01 -2.842930257320404053e-01 -2.109952211380004883e+00 -1.681345999240875244e-01 -6.600075215101242065e-02 -1.438429713249206543e+00 -1.037301301956176758e+00 7.404235601425170898e-01 -1.538159489631652832e+00 6.026692390441894531e-01 2.011775255203247070e+00 8.064636588096618652e-01 1.937547177076339722e-01 3.031695604324340820e+00 -3.158227443695068359e+00 -9.831687211990356445e-01 -2.199913978576660156e+00 1.927631795406341553e-01 2.479819059371948242e+00 -2.513141393661499023e+00 1.828082323074340820e+00 -2.010443210601806641e+00 8.218831568956375122e-02 2.187037229537963867e+00 -2.488612890243530273e+00 3.312560021877288818e-01 2.003053188323974609e+00 -3.512214720249176025e-01 -7.804962396621704102e-01 4.933605343103408813e-02 -1.331542432308197021e-01 -1.046061277389526367e+00 2.828261852264404297e+00 1.230075597763061523e+00 -1.117953419685363770e+00 -1.559609174728393555e+00 1.273103952407836914e+00 -1.379728317260742188e+00 -1.845759510993957520e+00 -1.752995729446411133e+00 1.014836192131042480e+00 9.230260848999023438e-01 2.446131855249404907e-01 4.229899048805236816e-01 3.169580936431884766e+00 -9.444116950035095215e-01 2.314825057983398438e+00 6.959372162818908691e-01 -1.364925742149353027e+00
1.588357090950012207e-01 -1.313215374946594238e+00 -1.226841688156127930e+00 9.662619829177856445e-01 -1.552106440067291260e-01 -9.324312210083007812e-01 2.239155530929565430e+00 -2.044511139392852783e-01 1.823762059211730957e+00 8.671683073043823242e-01 -1.465072512626647949e+00 -1.156744956970214844e+00 3.346769809722900391e-01 4.257756769657135010e-01 6.349226832389831543e-01 -3.037962436676025391e+00 7.448460459709167480e-01 8.575295209884643555e-01 -1.130411982536315918e+00 1.520250678062438965e+00 -2.521996796131134033e-01 1.700765490531921387e+00 -5.863786339759826660e-01 1.742853999137878418e+00 6.632813811302185059e-01 2.448646545410156250e+00 7.613466382026672363e-01 -2.173132896423339844e+00 4.155023097991943359e-01 5.254405140876770020e-01 -9.132169485092163086e-01 -5.225175619125366211e-01 -4.301974177360534668e-01 -2.544186115264892578e+00 7.916796207427978516e-01 -4.100972414016723633e-01 -4.121164679527282715e-01 -2.351083040237426758e+00 2.437153100967407227e+00 -3.212738633155822754e-01 -1.222555637359619141e+00 -1.151769161224365234e+00 2.695614993572235107e-01 -2.771790027618408203e-01 -1.450069904327392578e+00 5.236178636550903320e-01 1.991749763488769531e+00 1.911392807960510254e+00 -4.836887493729591370e-02 -2.696791589260101318e-01 -2.598207473754882812e+00 2.309324741363525391e+00 -6.155516505241394043e-01 -7.180731296539306641e-01 -7.363242506980895996e-01 1.775655865669250488e+00 1.146028399467468262e+00 2.268238514661788940e-01 9.177318811416625977e-01 9.557709097862243652e-01 -1.643043756484985352e+00 -8.671938776969909668e-01 1.636661767959594727e+00 2.429362297058105469e+00 -2.314088582992553711e+00 -4.377943873405456543e-01 4.792973041534423828e+00 -8.915196657180786133e-01 2.586467266082763672e+00 1.177019476890563965e+00 -3.600800335407257080e-01 -5.885370373725891113e-01 -5.660088658332824707e-01 -1.294972658157348633e+00 6.177147030830383301e-01 -1.673151493072509766e+00 -1.071467280387878418e+00 1.092369437217712402e+00 -2.756236553192138672e+00 2.779113650321960449e-01 -8.886424452066421509e-02 -2.497153520584106445e+00 3.155678749084472656e+00 -3.109723091125488281e+00 -1.979433059692382812e+00 -3.421326279640197754e-01 1.343680739402770996e+00 9.171124696731567383e-01 -1.267531633377075195e+00 -1.385721266269683838e-01
1.588426351547241211e+00 2.686600685119628906e+00 1.403931677341461182e-01 2.782461881637573242e+00 3.756556212902069092e-01 -2.158739805221557617e+00 -5.816779732704162598e-01 -1.398970007896423340e+00 -2.506528198719024658e-01 -1.499857306480407715e+00 -3.486239433288574219e+00 1.673445701599121094e-01 -1.554056763648986816e+00 -2.476850748062133789e+00 -1.005183577537536621e+00 1.310296535491943359e+00 7.460911870002746582e-01 -2.645058155059814453e+00 -1.665640115737915039e+00 4.673536121845245361e-01 6.235337853431701660e-01 -1.855665922164916992e+00 1.604362577199935913e-01 -2.291786521673202515e-01 -1.224803090095520020e+00 8.898420929908752441e-01 -2.027081966400146484e+00 7.087399810552597046e-02 3.815137863159179688e+00 1.255308985710144043e+00 1.105652213096618652e+00 1.692925691604614258e+00 -7.356335222721099854e-02 -8.454382419586181641e-01 2.723301410675048828e+00 -4.628257155418395996e-01 2.599023818969726562e+00 -1.012580037117004395e+00 2.404165506362915039e+00 -3.587242841720581055e+00 -1.377192378044128418e+00 4.131042584776878357e-02 -1.395770609378814697e-01 -4.526855945587158203e-01 1.626014411449432373e-01 2.891747355461120605e-01 5.178459286689758301e-01 2.296925544738769531e+00 2.163636833429336548e-01 2.827121973037719727e+00 1.626517415046691895e+00 1.416923403739929199e+00 1.345105886459350586e+00 2.869382500648498535e-01 -4.799679517745971680e-01 -2.975226044654846191e-01 -2.703752279281616211e+00 -1.825669050216674805e+00 2.437120199203491211e+00 1.587079763412475586e+00 1.520440727472305298e-01 1.473935961723327637e+00 -7.538471370935440063e-02 -1.281305670738220215e+00 1.278908371925354004e+00 6.393135190010070801e-01 -1.817997097969055176e+00 -9.008566290140151978e-02 -5.105570554733276367e-01 -4.500526487827301025e-01 2.890975475311279297e+00 4.696304202079772949e-01 2.364033758640289307e-01 6.566364169120788574e-01 -1.525126218795776367e+00 -4.552676677703857422e-01 2.545184850692749023e+00 1.502183556556701660e+00 -9.924972057342529297e-01 -2.485011577606201172e+00 3.058183193206787109e-01 1.429412364959716797e+00 3.657762110233306885e-01 6.255512833595275879e-01 -1.964759677648544312e-01 -2.673251926898956299e-01 1.329418420791625977e+00 1.925514340400695801e+00 -9.655243754386901855e-01 7.287985086441040039e-01
