6.636889576911926270e-01 -7.365566492080688477e-01 -1.939334869384765625e+00 -9.120473861694335938e-01 -1.002731680870056152e+00 -5.091019868850708008e-01 -4.047146439552307129e-01 6.115206480026245117e-01 -7.497949600219726562e-01 -5.855686664581298828e-01 1.184561848640441895e+00 2.666577339172363281e+00 -1.650526642799377441e+00 3.315643072128295898e-01 6.044499278068542480e-01 2.791191451251506805e-02 5.353245139122009277e-01 -4.847552478313446045e-01 -2.445548921823501587e-01 2.532236576080322266e+00 1.592197179794311523e+00 -2.817716598510742188e-01 -1.618772625923156738e+00 -1.098277926445007324e+00 2.424002885818481445e+00 1.202358603477478027e+00 1.380378961563110352e+00 9.240401983261108398e-01 -6.539240479469299316e-02 -2.754775881767272949e-01 -1.201198935508728027e+00 3.627190589904785156e-01 1.125995755195617676e+00 -1.004476428031921387e+00 -6.810565590858459473e-01 -9.374930858612060547e-01 2.679973542690277100e-01 5.521697998046875000e-01 -4.526938199996948242e-01 5.970348119735717773e-01 -2.207624018192291260e-01 3.799381256103515625e-01 1.537137925624847412e-01 -1.529331922531127930e+00 1.220151543617248535e+00 -9.562716484069824219e-01 1.602363586425781250e+00 -1.211856752634048462e-01 -5.563569068908691406e-01 -5.113124251365661621e-01 -3.556483030319213867e+00 -1.105736613273620605e+00 1.476174890995025635e-01 3.796704486012458801e-02 1.890929818153381348e+00 1.190237253904342651e-01 -7.364158034324645996e-01 -1.264414668083190918e+00 1.162339448928833008e-01 1.541605591773986816e+00 1.103870868682861328e+00 -3.651332259178161621e-01 9.240844845771789551e-01 -1.126899942755699158e-01 3.541831076145172119e-01 -6.993504762649536133e-01 7.236741185188293457e-01 -7.711554765701293945e-01 6.966012716293334961e-01 6.049109697341918945e-01 2.907718896865844727e+00 1.488378643989562988e+00 2.406550198793411255e-01 7.858947664499282837e-02 -2.953855693340301514e-01 -3.826069831848144531e+00 4.065458178520202637e-01 -2.185455322265625000e+00 3.134455382823944092e-01 -9.440664052963256836e-01 1.593812942504882812e+00 3.190117359161376953e+00 9.911999106407165527e-01 -6.967133283615112305e-01 1.321671485900878906e+00 1.073486804962158203e+00 6.191673278808593750e-01 2.159976243972778320e+00 4.899056553840637207e-01 1.432577818632125854e-01 -1.832799017429351807e-01 -1.905246973037719727e+00 2.347422361373901367e+00 5.931486934423446655e-02 -1.456034898757934570e+00 -3.621608316898345947e-01 -4.678191840648651123e-01 -1.710341572761535645e-01 4.271456301212310791e-01 2.095897436141967773e+00
