7.714258134365081787e-02
3.635014593601226807e-02
5.693932995200157166e-02
-4.215105995535850525e-02
1.040470525622367859e-01
1.101343780755996704e-01
6.127538159489631653e-02
9.315390139818191528e-03
-1.011857241392135620e-01
1.194238513708114624e-01
1.223959624767303467e-01
1.069671958684921265e-01
3.253276646137237549e-02
4.741965234279632568e-02
1.159915700554847717e-01
9.939788281917572021e-02
-1.482290588319301605e-02
1.203569099307060242e-01
5.580730736255645752e-02
4.776671156287193298e-02
-1.732096634805202484e-02
1.468980759382247925e-01
9.232993423938751221e-02
4.492773115634918213e-02
-2.559157088398933411e-02
1.468243729323148727e-02
1.567916758358478546e-02
1.782996505498886108e-01
1.228943094611167908e-01
-2.398251295089721680e-01
1.744408011436462402e-01
-4.602682311087846756e-03
-7.583618909120559692e-02
-1.734817400574684143e-02
-1.112912669777870178e-01
-1.021257136017084122e-02
-5.796334892511367798e-02
-1.867335736751556396e-01
1.061662882566452026e-01
1.066662953235208988e-03
1.843449771404266357e-01
-1.101462021470069885e-01
5.640902742743492126e-02
3.066854318603873253e-03
-8.504238910973072052e-03
-4.591925442218780518e-02
-1.372133344411849976e-01
6.865628808736801147e-02
-2.145355194807052612e-02
-1.114635169506072998e-01
