8.110324293375015259e-02
4.245083779096603394e-02
4.092256724834442139e-02
-2.840699069201946259e-02
-1.337256655097007751e-02
2.235770411789417267e-02
-7.810221612453460693e-02
2.548160962760448456e-02
4.255727678537368774e-02
-7.571088522672653198e-02
-8.961495757102966309e-02
3.707139566540718079e-02
1.770396903157234192e-02
-2.236898429691791534e-02
-2.472662366926670074e-02
-1.067389734089374542e-02
-2.584408596158027649e-02
3.299353644251823425e-02
1.627226732671260834e-02
9.981840848922729492e-02
-5.424731411039829254e-03
8.079531602561473846e-03
-3.184845298528671265e-02
8.276905864477157593e-02
-4.341619834303855896e-02
-5.545516312122344971e-02
4.059959203004837036e-02
-3.067083097994327545e-02
-2.468007057905197144e-02
6.209666840732097626e-03
-3.255936503410339355e-02
-5.463621392846107483e-02
-1.304331514984369278e-02
-1.152263954281806946e-01
-6.856787949800491333e-03
4.636757075786590576e-02
-3.747858852148056030e-02
2.238011918962001801e-02
-1.982699148356914520e-02
2.277353033423423767e-02
1.857278402894735336e-03
1.455998606979846954e-02
1.361535303294658661e-02
4.761882871389389038e-02
5.905988439917564392e-02
8.421711623668670654e-02
-5.680047720670700073e-02
6.058273464441299438e-02
-2.322594262659549713e-02
1.244104932993650436e-02
-3.811224177479743958e-02
1.603604480624198914e-02
2.548851445317268372e-02
-1.339596975594758987e-02
-7.423168420791625977e-02
1.579770073294639587e-02
3.624424105510115623e-03
6.492197513580322266e-02
-2.647613547742366791e-02
3.046874329447746277e-02
-1.656099595129489899e-02
-3.662972524762153625e-02
2.437718398869037628e-02
-4.543755948543548584e-02
3.907287865877151489e-02
-6.436249613761901855e-02
-1.569308340549468994e-01
-4.061156883835792542e-02
-9.360802359879016876e-03
7.372295111417770386e-02
6.409347057342529297e-02
3.696829080581665039e-02
-2.382655628025531769e-02
2.561443299055099487e-02
-1.537440624088048935e-02
-8.833079785108566284e-02
-6.946370005607604980e-02
-5.929744616150856018e-02
-8.519565686583518982e-03
-1.454243063926696777e-02
3.738294169306755066e-02
3.207448497414588928e-02
-4.941577464342117310e-02
-5.413351580500602722e-02
7.847657799720764160e-02
-1.193016674369573593e-02
-1.697279885411262512e-02
5.380842834711074829e-02
1.203446090221405029e-02
3.661302151158452034e-03
3.765537589788436890e-02
3.691302612423896790e-02
-1.306374520063400269e-01
4.152007866650819778e-03
1.668287627398967743e-02
-7.962200790643692017e-03
3.602762892842292786e-02
3.082035109400749207e-03
-5.566032603383064270e-03
6.602870672941207886e-02
-7.544577587395906448e-03
3.791426867246627808e-02
-1.728722825646400452e-03
5.620763078331947327e-02
5.804684944450855255e-03
-2.531964518129825592e-02
4.416482150554656982e-02
-6.124749034643173218e-02
6.124934181571006775e-03
-7.910823076963424683e-02
-8.534600958228111267e-03
-3.363252431154251099e-02
4.597502201795578003e-02
4.389709793031215668e-03
2.287244424223899841e-02
1.145203858613967896e-01
4.732747748494148254e-02
-7.302294485270977020e-03
-6.354161351919174194e-02
3.476933762431144714e-02
1.211124937981367111e-02
-1.963929384946823120e-01
-1.984948106110095978e-02
-1.047670990228652954e-01
5.755663663148880005e-02
3.429648652672767639e-02
9.820939041674137115e-03
-2.429992146790027618e-02
-6.194556877017021179e-02
1.240434125065803528e-02
1.190966591238975525e-01
-2.737726829946041107e-02
-6.394507735967636108e-02
4.237288236618041992e-02
3.771116957068443298e-02
1.575593650341033936e-02
1.206713169813156128e-01
-5.389635637402534485e-02
1.256803423166275024e-01
-2.715709991753101349e-02
-5.221801344305276871e-03
4.922030866146087646e-02
3.171840310096740723e-02
-7.814345508813858032e-02
-7.658735662698745728e-02
1.015956476330757141e-01
7.451703306287527084e-03
7.326567173004150391e-02
4.120561107993125916e-02
-2.296334877610206604e-02
