1.175363421440124512e+00 -2.131985425949096680e-01 -7.813142240047454834e-02 9.716619849205017090e-01 6.165670752525329590e-01 7.338342666625976562e-01 9.517540335655212402e-01 -1.111956760287284851e-01 -1.008114814758300781e-01 1.142347097396850586e+00 -4.108419269323348999e-02 1.476543188095092773e+00 -6.628563404083251953e-01 6.747049093246459961e-01 2.601043879985809326e-01 9.540655612945556641e-01 -1.120010495185852051e+00 1.328944683074951172e+00 6.294840574264526367e-01 3.316041231155395508e-01 8.885609507560729980e-01 -6.977497339248657227e-01 2.494871318340301514e-01 1.658242344856262207e+00 -2.331335693597793579e-01 5.737165212631225586e-01 -2.713275849819183350e-01 4.315994381904602051e-01 4.996796548366546631e-01 -7.778101563453674316e-01 1.463480442762374878e-01 1.043752431869506836e+00 -1.859740465879440308e-01 -1.144898459315299988e-01 1.103071928024291992e+00 -2.272685617208480835e-01 4.295481443405151367e-01 7.361894249916076660e-01 5.326466560363769531e-01 1.094634056091308594e+00 -1.122321486473083496e-01 2.712799310684204102e-01 5.542098283767700195e-01 1.239896178245544434e+00 4.823688566684722900e-01 -8.249957561492919922e-01 -7.143641710281372070e-01 4.013663828372955322e-01 -9.888558983802795410e-01 2.517649829387664795e-01 3.110691010951995850e-01 -1.392019912600517273e-02 6.943162679672241211e-01 -5.534772276878356934e-01 1.613418579101562500e+00 -4.758245348930358887e-01 1.144953846931457520e+00 8.768171668052673340e-01 -7.995937466621398926e-01 4.109804630279541016e-01 4.840283989906311035e-01 3.331541270017623901e-02 9.245709180831909180e-01 8.623211830854415894e-02 6.992332339286804199e-01 -1.379674226045608521e-01 4.037873148918151855e-01 6.806014776229858398e-01 5.732930079102516174e-02 1.085346460342407227e+00 -1.503652781248092651e-01 -1.239287614822387695e+00 -6.725965738296508789e-01 7.170117497444152832e-01 -1.597123503684997559e+00 1.361465305089950562e-01 9.071554541587829590e-01 2.914717495441436768e-01 2.023741602897644043e-01 6.896794438362121582e-01 6.983297467231750488e-01 9.522308111190795898e-01 -1.414560228586196899e-01 -4.019224941730499268e-01 -1.335525363683700562e-01 9.354700446128845215e-01 9.834003448486328125e-01 -6.681717932224273682e-02 -1.031485795974731445e+00 3.545169532299041748e-01 -1.713160276412963867e-01 -9.523718357086181641e-01 -3.634103536605834961e-01 -6.518874168395996094e-01 -5.863819122314453125e-01 -4.186587929725646973e-01 -5.803482532501220703e-01 -8.587068319320678711e-01 1.323962658643722534e-01 -6.963888406753540039e-01 4.401708245277404785e-01 -1.618083357810974121e+00 -3.161101639270782471e-01 -8.116179704666137695e-01 1.308671236038208008e-01 8.318963050842285156e-01 -1.580207347869873047e+00 -8.844596147537231445e-01 7.983296513557434082e-01 -1.267964601516723633e+00 -7.524508237838745117e-01 -3.423029482364654541e-01 1.040952563285827637e+00 -1.556923747062683105e+00 -1.573119997978210449e+00 8.270659297704696655e-02 2.507811486721038818e-01 -4.777780771255493164e-01 1.001091077923774719e-01 1.342326283454895020e+00 6.743767857551574707e-01 6.835506856441497803e-02 -1.450161814689636230e+00 1.086085081100463867e+00 -6.503317952156066895e-01 3.067610561847686768e-01 -1.165477514266967773e+00 -6.464547514915466309e-01 2.609127759933471680e-01 9.709357023239135742e-01 -4.261088371276855469e-01 -4.351852536201477051e-01 -5.822207927703857422e-01 -8.167352676391601562e-01 8.484220504760742188e-01 2.678906917572021484e-01 3.569820821285247803e-01 6.017770171165466309e-01 -2.938357740640640259e-02 -3.806390762329101562e-01 6.556888222694396973e-01 1.204879023134708405e-02 -1.279356241226196289e+00 -6.946958899497985840e-01 -1.122571587562561035e+00 -7.505782246589660645e-01 2.388113588094711304e-01 -4.626479744911193848e-01 -6.143432855606079102e-01 3.480566740036010742e-01 7.064457982778549194e-02 1.190407760441303253e-02 -8.341958522796630859e-01 8.753253221511840820e-01 -5.896429419517517090e-01 -1.348697066307067871e+00 -6.629384160041809082e-01 -1.788688063621520996e+00 -5.794278979301452637e-01 6.042186543345451355e-02 8.352375030517578125e-02 8.491678833961486816e-01 6.769810318946838379e-01 -1.766716361045837402e+00 -9.507864117622375488e-01 -1.700493931770324707e+00 -5.434892177581787109e-01 1.381514221429824829e-01 3.027572333812713623e-01 1.845777630805969238e-01 5.440027713775634766e-01 -4.582815468311309814e-01 -2.428894042968750000e-01 -8.875278234481811523e-01 1.074744582176208496e+00 4.961871355772018433e-02 2.951367795467376709e-01 -1.921459585428237915e-01 7.286302447319030762e-01 -6.414150595664978027e-01 9.314191341400146484e-01 2.800158560276031494e-01 9.625623822212219238e-01 -1.397595286369323730e+00 -2.937691211700439453e-01 5.487748384475708008e-01 5.227493643760681152e-01 -8.964312076568603516e-01 8.575637340545654297e-01 -8.709897994995117188e-01 2.715047597885131836e-01 -7.336541265249252319e-02 8.121464252471923828e-01 -5.445462465286254883e-01 3.717997372150421143e-01 -1.723053812980651855e+00 1.468352228403091431e-01 1.202988103032112122e-01 -7.781105041503906250e-01 -9.608480930328369141e-01
-7.359049916267395020e-01 1.831655263900756836e+00 7.857292890548706055e-01 7.206471562385559082e-01 1.227052450180053711e+00 1.334792613983154297e+00 4.115430116653442383e-01 1.676038265228271484e+00 1.118117809295654297e+00 -5.940183252096176147e-02 6.874004602432250977e-01 4.760903120040893555e-01 1.769712209701538086e+00 2.565582990646362305e-01 1.197358131408691406e+00 -1.369865179061889648e+00 1.447094559669494629e+00 5.515720322728157043e-02 1.477304100990295410e+00 7.308651804924011230e-01 1.236336946487426758e+00 1.101033329963684082e+00 6.622300148010253906e-01 5.861191153526306152e-01 2.561353445053100586e-01 1.100155711174011230e+00 -1.205181241035461426e+00 -2.495145499706268311e-01 1.686957240104675293e+00 1.814992070198059082e+00 2.997126877307891846e-01 -2.151719331741333008e-01 1.176744580268859863e+00 1.605456024408340454e-01 3.328777849674224854e-01 1.286219835281372070e+00 7.794694900512695312e-01 2.882539033889770508e-01 1.585420221090316772e-01 -1.598814249038696289e+00 -7.087458968162536621e-01 -6.089461445808410645e-01 1.414368987083435059e+00 -1.144072055816650391e+00 1.255337357521057129e+00 -1.073811769485473633e+00 -3.395410180091857910e-01 -1.104333162307739258e+00 -2.124763876199722290e-01 2.271049618721008301e-01 -1.340142369270324707e+00 -1.957893371582031250e-01 -1.444922924041748047e+00 -4.760435223579406738e-01 5.814923048019409180e-01 -1.286086201667785645e+00 7.662690877914428711e-01 -8.216560482978820801e-01 2.795563451945781708e-02 -1.506169795989990234e+00 -2.002758719027042389e-02 1.105240583419799805e+00 -7.844012975692749023e-01 4.374507963657379150e-01 -9.447991847991943359e-01 7.425608634948730469e-01 1.315401554107666016e+00 4.061760604381561279e-01 1.157217264175415039e+00 -5.077199935913085938e-01 -1.026883944869041443e-01 1.316343903541564941e+00 1.372081875801086426e+00 -1.170997858047485352e+00 1.089186072349548340e+00 -3.552817925810813904e-02 -1.255105808377265930e-02 3.752714991569519043e-01 1.819798350334167480e-01 -2.964466512203216553e-01 -1.135127186775207520e+00 -7.177220582962036133e-01 -3.077844977378845215e-01 -7.378691434860229492e-01 -1.235863447189331055e+00 -6.810949444770812988e-01 -1.707637071609497070e+00 -9.253838062286376953e-01 -1.121308684349060059e+00 9.444214105606079102e-01 -6.253805160522460938e-01 -9.329424500465393066e-01 -1.681775927543640137e+00 -5.977120399475097656e-01 -3.280307054519653320e-01 -5.953108072280883789e-01 -1.415093779563903809e+00 -6.960431337356567383e-01 -1.391708135604858398e+00 -1.731268525123596191e+00 -1.028968214988708496e+00 -5.196407437324523926e-01 -9.813935160636901855e-01 -1.626612305641174316e+00 -1.520455241203308105e+00 -9.933610558509826660e-01 -7.478077411651611328e-01 -7.473051548004150391e-01 -1.565137028694152832e+00 -1.302873969078063965e+00 -1.173633098602294922e+00 -8.893988132476806641e-01 -6.033581495285034180e-01 4.833783209323883057e-01 -1.306003212928771973e+00 -1.769255757331848145e+00 8.112837672233581543e-01 -1.140986561775207520e+00 -8.815027475357055664e-01 -7.494611144065856934e-01 3.071342408657073975e-01 -2.902520298957824707e-01 3.867846131324768066e-01 -1.695829331874847412e-01 -6.903439760208129883e-01 -1.719631910324096680e+00 4.156109988689422607e-01 -6.221774816513061523e-01 -9.156343936920166016e-01 -8.972730636596679688e-01 7.030592560768127441e-01 -6.588849425315856934e-01 1.185957193374633789e+00 -6.719850003719329834e-02 -9.801313281059265137e-01 6.019743084907531738e-01 -6.585281491279602051e-01 -5.056859850883483887e-01 5.699703097343444824e-01 1.124448895454406738e+00 8.401584029197692871e-01 -7.779189944267272949e-01 4.921907484531402588e-01 -1.385828375816345215e+00 2.021641731262207031e-01 6.318209767341613770e-01 -2.877023257315158844e-02 9.445026516914367676e-01 5.263739824295043945e-01 1.076811671257019043e+00 5.640149861574172974e-02 4.828559458255767822e-01 8.015323430299758911e-02 -3.721857210621237755e-03 -5.579358339309692383e-01 -1.127744197845458984e+00 -1.774198532104492188e+00 1.354467034339904785e+00 -8.404527902603149414e-01 4.428705275058746338e-01 6.221515536308288574e-01 -2.655577957630157471e-01 -1.663571476936340332e+00 1.104994535446166992e+00 1.220767736434936523e+00 6.226013898849487305e-01 8.287841081619262695e-01 1.302391648292541504e+00 1.541272044181823730e+00 1.045969605445861816e+00 -8.110874891281127930e-01 1.929845929145812988e+00 -1.179521322250366211e+00 7.333174347877502441e-02 -3.096584975719451904e-01 1.203918084502220154e-01 -6.980782747268676758e-02 1.476571410894393921e-01 -1.211210727691650391e+00 1.655395627021789551e+00 -7.647335529327392578e-02 2.662096917629241943e-01 5.161001086235046387e-01 1.104630351066589355e+00 -6.444784402847290039e-01 2.456868886947631836e-01 1.635475039482116699e+00 8.650883436203002930e-01 1.371888399124145508e+00 -1.846179924905300140e-02 2.445176392793655396e-01 7.346278429031372070e-01 9.015640616416931152e-01 2.390694022178649902e-01 4.843475762754678726e-03 1.091270923614501953e+00 6.521657705307006836e-01 1.742005705833435059e+00 2.427372485399246216e-01 -3.451477885246276855e-01
-2.727554440498352051e-01 -1.003969907760620117e+00 8.069335222244262695e-01 -1.023407429456710815e-01 -1.136259317398071289e+00 -5.185322165489196777e-01 -2.748365700244903564e-01 -6.475048661231994629e-01 6.610845327377319336e-01 -2.605008184909820557e-01 2.236668020486831665e-01 -3.219967484474182129e-01 -1.284813165664672852e+00 6.965514272451400757e-02 -2.009662985801696777e-01 1.074894666671752930e-01 -2.735850512981414795e-01 -4.216285943984985352e-01 5.910577774047851562e-01 -1.145516991615295410e+00 -7.804915904998779297e-01 5.020654201507568359e-01 6.238966584205627441e-01 -1.003230139613151550e-01 -5.144534707069396973e-01 1.819580048322677612e-01 4.202203452587127686e-01 5.020734667778015137e-02 -9.393818378448486328e-01 -4.168948233127593994e-01 -3.349518775939941406e-01 9.719511270523071289e-01 2.641090154647827148e-01 -1.411978006362915039e-01 7.547636628150939941e-01 -1.033909440040588379e+00 -6.267918944358825684e-01 6.345408409833908081e-02 -8.157469630241394043e-01 -1.931392103433609009e-01 -2.205855101346969604e-01 1.825926899909973145e-01 -1.237627029418945312e+00 3.337189257144927979e-01 -1.200149774551391602e+00 2.122822403907775879e-01 1.330674171447753906e+00 9.263280034065246582e-01 -3.779449462890625000e-01 -6.085205674171447754e-01 1.143180966377258301e+00 -6.348961591720581055e-01 -2.077354043722152710e-01 4.460856616497039795e-01 -9.342622756958007812e-01 -5.166568160057067871e-01 8.651594072580337524e-02 7.716810107231140137e-01 -5.616977214813232422e-01 8.392398804426193237e-02 -2.983113825321197510e-01 -4.396538734436035156e-01 1.532586216926574707e+00 -3.845798969268798828e-01 -1.352420806884765625e+00 -4.261270761489868164e-01 1.028971970081329346e-01 -7.900835871696472168e-01 -6.178823709487915039e-01 1.916263401508331299e-01 -2.358090579509735107e-01 4.781031906604766846e-01 -7.318539619445800781e-01 2.289126068353652954e-01 -5.428323745727539062e-01 -2.186214923858642578e-01 3.713618516921997070e-01 -9.119889736175537109e-01 -1.020359992980957031e+00 -1.000868007540702820e-01 1.609071135520935059e+00 3.644741773605346680e-01 6.228371337056159973e-02 -1.542626619338989258e-01 -4.407239556312561035e-01 -1.158187091350555420e-01 3.571216464042663574e-01 -4.381083250045776367e-01 1.068647623062133789e+00 -2.223127782344818115e-01 -5.868077874183654785e-01 -1.016515851020812988e+00 1.135350465774536133e+00 6.409346461296081543e-01 -9.600174427032470703e-01 -7.787217497825622559e-01 9.507923126220703125e-01 9.360113739967346191e-01 -1.088389873504638672e+00 1.226720094680786133e+00 6.080523133277893066e-01 -3.417250812053680420e-01 9.249953925609588623e-02 7.381565868854522705e-02 -6.699235439300537109e-01 2.477676570415496826e-01 -9.046821594238281250e-01 2.751475572586059570e-02 -1.185671091079711914e+00 9.929952025413513184e-01 6.049352884292602539e-01 1.065804362297058105e+00 1.372760176658630371e+00 -2.737285494804382324e-01 1.758534550666809082e+00 1.234564065933227539e+00 7.116757631301879883e-01 9.272626638412475586e-01 8.892369866371154785e-01 -7.612460851669311523e-01 -8.275455236434936523e-01 -2.832624614238739014e-01 -1.711360931396484375e+00 -1.088094234466552734e+00 3.449717164039611816e-01 -1.079087406396865845e-01 6.777197122573852539e-01 -1.797323673963546753e-01 -1.551108717918395996e+00 -2.222054153680801392e-01 -1.031982898712158203e+00 -3.771986961364746094e-01 -9.111790060997009277e-01 -2.757472395896911621e-01 -1.349573850631713867e+00 -1.169386744499206543e+00 6.012746095657348633e-01 5.398998260498046875e-01 3.369857668876647949e-01 -9.941122531890869141e-01 -9.695569276809692383e-01 -8.590960502624511719e-01 1.272723674774169922e+00 7.954037785530090332e-01 -1.081133246421813965e+00 -1.396990537643432617e+00 -2.302040606737136841e-01 -6.224528551101684570e-01 -8.386691659688949585e-02 -1.523543000221252441e+00 -1.776293158531188965e+00 -8.412278890609741211e-01 -4.112708568572998047e-02 -1.474533319473266602e+00 -1.492144346237182617e+00 -1.253037601709365845e-01 -1.854287981986999512e-01 -1.708546727895736694e-01 -5.798823833465576172e-01 -8.434820771217346191e-01 7.418261766433715820e-01 1.321490049362182617e+00 1.432198286056518555e+00 1.082881331443786621e+00 6.702824234962463379e-01 5.774927735328674316e-01 1.054368987679481506e-01 8.532052040100097656e-01 9.975983500480651855e-01 4.835960268974304199e-01 1.512713551521301270e+00 -1.655846536159515381e-01 1.075787544250488281e+00 7.060964107513427734e-01 -3.705373732373118401e-03 1.054460048675537109e+00 1.490809082984924316e+00 7.846415638923645020e-01 1.463959932327270508e+00 1.433353185653686523e+00 4.425806701183319092e-01 -8.672170341014862061e-02 1.028186798095703125e+00 4.755933880805969238e-01 2.451707869768142700e-01 5.126326680183410645e-01 3.171547949314117432e-01 1.338675856590270996e+00 -1.048218727111816406e+00 1.252268314361572266e+00 5.456332564353942871e-01 2.655538618564605713e-01 -4.314955472946166992e-01 5.447369217872619629e-01 6.611422300338745117e-01 1.301142692565917969e+00 7.564071416854858398e-01 -5.468586087226867676e-01 1.274132728576660156e-01 1.415734171867370605e+00
1.213544085621833801e-01 8.327662348747253418e-01 1.320736885070800781e+00 -7.860766053199768066e-01 -1.368497133255004883e+00 4.201243445277214050e-02 -2.329876124858856201e-01 -7.291226387023925781e-01 9.497510790824890137e-01 -1.087515711784362793e+00 1.074479222297668457e+00 -6.481885313987731934e-01 -2.688003182411193848e-01 -9.544257521629333496e-01 -6.942546367645263672e-01 1.391000509262084961e+00 1.019832611083984375e+00 6.065242290496826172e-01 5.687434077262878418e-01 -3.127014935016632080e-01 -6.425684690475463867e-01 1.972470045089721680e+00 4.038026034832000732e-01 1.196338415145874023e+00 -4.825985431671142578e-01 1.028115749359130859e+00 1.389518193900585175e-02 2.062079757452011108e-01 -7.891827076673507690e-02 -6.915271282196044922e-01 8.453299403190612793e-01 5.383799076080322266e-01 6.834369301795959473e-01 6.494663357734680176e-01 5.845760703086853027e-01 -4.830317795276641846e-01 4.219852387905120850e-01 1.099260568618774414e+00 -1.052185297012329102e+00 3.512103259563446045e-01 -3.954701423645019531e-01 2.041564136743545532e-01 2.296993881464004517e-01 3.114684224128723145e-01 -9.087177515029907227e-01 5.658744573593139648e-01 -4.928668141365051270e-01 -6.832689046859741211e-01 9.830580949783325195e-01 1.176810741424560547e+00 1.733228206634521484e+00 4.129702150821685791e-01 1.293942332267761230e+00 8.243684172630310059e-01 -9.687609672546386719e-01 9.931082129478454590e-01 6.963062882423400879e-01 1.326565146446228027e+00 -1.095260143280029297e+00 1.343988180160522461e+00 7.677007913589477539e-01 1.795048713684082031e+00 2.807375276461243629e-03 -7.353032231330871582e-01 3.819459676742553711e-01 1.718224883079528809e+00 5.793281197547912598e-01 -4.490571320056915283e-01 3.739732503890991211e-01 3.027016520500183105e-01 -1.131065011024475098e+00 1.369379758834838867e+00 -3.351348936557769775e-01 -1.063000917434692383e+00 4.597411453723907471e-01 7.998623847961425781e-01 -8.867853879928588867e-01 2.798578441143035889e-01 2.846165373921394348e-02 5.481777787208557129e-01 -4.194846153259277344e-01 -4.900946915149688721e-01 1.062447503209114075e-01 1.398812532424926758e+00 9.392917156219482422e-01 6.945353150367736816e-01 -1.181894659996032715e+00 -7.144684791564941406e-01 -3.612535595893859863e-01 -4.949406161904335022e-02 5.461000204086303711e-01 4.119440913200378418e-01 2.724276781082153320e-01 -1.384462475776672363e+00 7.821061015129089355e-01 -5.385599732398986816e-01 1.598238348960876465e+00 9.906338453292846680e-01 1.103610277175903320e+00 1.052360773086547852e+00 4.275476634502410889e-01 -2.569898068904876709e-01 -1.308292984962463379e+00 -3.661053478717803955e-01 1.008796811103820801e+00 -4.744176864624023438e-01 7.196597754955291748e-02 4.235672950744628906e-01 -4.672948122024536133e-01 8.385366797447204590e-01 5.043521523475646973e-01 1.660055071115493774e-01 -6.564374566078186035e-01 3.674305379390716553e-01 7.072811722755432129e-01 9.508590698242187500e-01 -1.474414229393005371e+00 -1.786473691463470459e-01 -4.341104030609130859e-01 -1.428291082382202148e+00 -3.647431433200836182e-01 2.987199127674102783e-01 1.359876394271850586e+00 -7.252032756805419922e-01 5.836284160614013672e-01 1.302302956581115723e+00 -1.458929061889648438e+00 -5.368144512176513672e-01 -8.403972983360290527e-01 3.739873766899108887e-01 -2.354739606380462646e-01 1.511679887771606445e+00 -7.095535397529602051e-01 -9.423061460256576538e-02 -1.018190532922744751e-01 -1.463541507720947266e+00 1.220221519470214844e+00 9.475915133953094482e-02 3.212853670120239258e-01 -1.261752367019653320e+00 -3.083111047744750977e-01 -1.164470195770263672e+00 -1.991553306579589844e-01 7.807494401931762695e-01 1.498450338840484619e-01 -3.160153329372406006e-01 1.152032017707824707e+00 3.948500752449035645e-01 -6.212292909622192383e-01 -1.209733724594116211e+00 -8.818326592445373535e-01 -1.622976958751678467e-01 3.417448699474334717e-01 -1.098594188690185547e+00 2.293906956911087036e-01 1.007947802543640137e+00 2.235566079616546631e-01 -3.959113061428070068e-01 4.771257042884826660e-01 -6.962774991989135742e-01 3.368704020977020264e-02 -1.892918467521667480e+00 -1.637617945671081543e+00 -3.217383027076721191e-01 -4.988788366317749023e-01 7.366101741790771484e-01 -1.049304604530334473e+00 -8.476674556732177734e-01 -4.566754400730133057e-01 -6.427160501480102539e-01 8.463946580886840820e-01 -1.356050670146942139e-01 -1.294281482696533203e+00 -6.128273606300354004e-01 -1.382840573787689209e-01 -2.351524084806442261e-01 -6.533280014991760254e-03 -1.019184112548828125e+00 -1.236053347587585449e+00 -6.216579079627990723e-01 -4.913173615932464600e-01 4.273723959922790527e-01 -1.729585528373718262e+00 -7.472749948501586914e-01 -1.125894069671630859e+00 -1.088264584541320801e+00 9.849818348884582520e-01 -1.334793090820312500e+00 -8.653101921081542969e-01 7.411656379699707031e-01 -4.790841639041900635e-01 -1.355292558670043945e+00 -7.773038148880004883e-01 -2.141403406858444214e-01 -8.559114933013916016e-01 1.468352377414703369e-01 -1.926679313182830811e-01 6.399354338645935059e-02 -1.326460361480712891e+00 1.034001946449279785e+00
-1.874768286943435669e-01 -1.631810963153839111e-01 -1.120769619941711426e+00 -1.569136738777160645e+00 -1.303996983915567398e-02 -1.690496563911437988e+00 -1.408721923828125000e+00 -1.159075856208801270e+00 -1.588597297668457031e+00 -1.008826851844787598e+00 8.831397294998168945e-01 -1.252258539199829102e+00 8.605550527572631836e-01 4.084318578243255615e-01 -1.794565200805664062e+00 4.638777673244476318e-01 -7.386255860328674316e-01 5.121566057205200195e-01 7.652456760406494141e-01 4.898816943168640137e-01 -1.093370795249938965e+00 -1.152307152748107910e+00 -8.636150360107421875e-01 -1.095621824264526367e+00 -1.796115756034851074e+00 -9.666406512260437012e-01 -1.771083950996398926e+00 -9.858001470565795898e-01 -1.424558162689208984e+00 -7.716425061225891113e-01 1.615893840789794922e-01 -1.049605488777160645e+00 -2.731304168701171875e-01 2.284656614065170288e-01 -8.320018649101257324e-01 -2.288440465927124023e-01 -3.641286194324493408e-01 -6.580974459648132324e-01 -9.485985338687896729e-02 -1.192395806312561035e+00 3.381681740283966064e-01 4.145243465900421143e-01 8.272781372070312500e-01 1.177760481834411621e+00 1.283983707427978516e+00 1.008388996124267578e+00 1.065818190574645996e+00 -1.555508226156234741e-01 4.906737506389617920e-01 -3.321894407272338867e-01 5.488933920860290527e-01 1.710647821426391602e+00 -5.630332827568054199e-01 1.325634956359863281e+00 -8.034312129020690918e-01 1.061659693717956543e+00 7.082410454750061035e-01 4.872925877571105957e-01 1.278568029403686523e+00 8.534665107727050781e-01 -4.566302597522735596e-01 2.867250517010688782e-02 -1.023385763168334961e+00 5.675869584083557129e-01 -8.307800889015197754e-01 -4.055115953087806702e-02 -8.812044858932495117e-01 1.475684523582458496e+00 -6.403326392173767090e-01 9.101323485374450684e-01 1.529540538787841797e+00 8.675086498260498047e-01 -4.623701274394989014e-01 6.373816132545471191e-01 -1.714375615119934082e-01 7.797476649284362793e-01 5.902031064033508301e-01 6.640368700027465820e-01 8.576764911413192749e-02 9.754468202590942383e-01 9.315832257270812988e-01 -9.570621252059936523e-01 2.565290629863739014e-01 1.463430762290954590e+00 1.100018262863159180e+00 1.120683923363685608e-01 -3.934060633182525635e-01 3.829092085361480713e-01 -9.332266449928283691e-01 -1.128112077713012695e-01 1.159358546137809753e-01 1.201556086540222168e+00 9.673686623573303223e-01 4.256551265716552734e-01 -1.348700523376464844e+00 9.037824869155883789e-01 4.840931892395019531e-01 5.025075078010559082e-01 7.686718106269836426e-01 4.817321598529815674e-01 5.185794830322265625e-01 -7.265333086252212524e-02 1.094730019569396973e+00 9.025351405143737793e-01 1.236083745956420898e+00 -7.770841568708419800e-02 1.376359909772872925e-01 6.928116083145141602e-01 -9.529913067817687988e-01 1.054514884948730469e+00 -4.582633972167968750e-01 -4.245091676712036133e-01 8.040965795516967773e-01 8.057327866554260254e-01 1.024673506617546082e-01 1.176829814910888672e+00 1.594017148017883301e+00 7.056153416633605957e-01 1.480216026306152344e+00 8.213749527931213379e-01 -1.693027734756469727e+00 -1.498496085405349731e-01 3.225311338901519775e-01 1.007598757743835449e+00 -1.450451016426086426e+00 -6.571350693702697754e-01 -2.863790094852447510e-02 -1.012408018112182617e+00 1.922487020492553711e-01 -9.327850937843322754e-01 4.368637204170227051e-01 -1.188287854194641113e+00 -3.073325753211975098e-01 5.027594044804573059e-02 -1.568521022796630859e+00 -9.310539960861206055e-01 -1.686967849731445312e+00 7.761018723249435425e-02 4.110399186611175537e-01 1.046152234077453613e+00 2.702848054468631744e-02 -3.731848895549774170e-01 -1.638063192367553711e+00 -3.378982841968536377e-01 8.530169725418090820e-01 -9.302898645401000977e-01 -6.900292634963989258e-01 -2.749013900756835938e-01 -9.376593828201293945e-01 6.270916461944580078e-01 2.109402567148208618e-01 -1.356753110885620117e-01 5.160398483276367188e-01 6.507589817047119141e-01 5.754774808883666992e-01 -8.014283776283264160e-01 -2.306890860199928284e-02 -1.042835593223571777e+00 -6.667512655258178711e-01 2.382021397352218628e-01 -4.551769793033599854e-01 3.668403998017311096e-02 8.850851058959960938e-01 -4.238891303539276123e-01 -2.421212941408157349e-01 -3.308719396591186523e-01 -8.430728316307067871e-01 -1.217414736747741699e+00 -4.730872437357902527e-02 3.947894554585218430e-03 -8.824676275253295898e-01 -5.993340536952018738e-02 -1.128832548856735229e-01 -1.730246067047119141e+00 8.603735566139221191e-01 1.467499732971191406e+00 -3.722417950630187988e-01 9.102854728698730469e-01 1.063148140907287598e+00 7.694816589355468750e-01 1.023781299591064453e+00 8.686661720275878906e-01 2.059554755687713623e-01 -4.904533326625823975e-01 1.302167892456054688e+00 1.664339154958724976e-01 7.076244354248046875e-01 -1.304118186235427856e-01 9.685627818107604980e-01 -1.109999775886535645e+00 4.366646409034729004e-01 3.604166209697723389e-01 5.801665410399436951e-02 4.355765283107757568e-01 -9.075253605842590332e-01 -6.430807709693908691e-02 2.286187857389450073e-01 2.311189621686935425e-01 5.995054244995117188e-01 -4.981997907161712646e-01
3.174006640911102295e-01 8.200163245201110840e-01 9.634603559970855713e-02 -1.159274876117706299e-01 1.771241426467895508e+00 5.912420749664306641e-01 1.097854733467102051e+00 -3.549198433756828308e-02 1.300697207450866699e+00 1.282880187034606934e+00 -7.853558659553527832e-02 -1.293810963630676270e+00 -1.611133962869644165e-01 4.882715940475463867e-01 2.250140756368637085e-01 -1.084213405847549438e-01 5.514837503433227539e-01 3.559248149394989014e-01 1.067866943776607513e-02 -1.501463770866394043e+00 1.139025017619132996e-01 -8.682491779327392578e-01 4.684423208236694336e-01 -7.317956089973449707e-01 1.015588879585266113e+00 -4.695583581924438477e-01 1.371907353401184082e+00 1.062523245811462402e+00 1.089958667755126953e+00 1.799868345260620117e+00 -1.177087575197219849e-01 8.853217214345932007e-02 9.704321622848510742e-01 -9.332534670829772949e-01 8.482620120048522949e-01 8.340911865234375000e-01 -6.758026480674743652e-01 -4.734604358673095703e-01 -3.994020447134971619e-02 -3.494143187999725342e-01 1.365622282028198242e+00 4.833281636238098145e-01 7.733272314071655273e-01 1.043454766273498535e+00 -4.059065878391265869e-01 6.565949320793151855e-01 3.746423125267028809e-01 1.285028219223022461e+00 -1.595342457294464111e-01 -5.988507270812988281e-01 7.356358766555786133e-01 -3.302882909774780273e-01 2.631482779979705811e-01 -4.018412530422210693e-02 -1.465525746345520020e+00 4.477791488170623779e-01 1.364794254302978516e+00 -4.564471244812011719e-01 1.022228837013244629e+00 8.418589234352111816e-01 1.476325035095214844e+00 7.786422967910766602e-01 1.204645037651062012e+00 -6.048475503921508789e-01 1.165209174156188965e+00 -4.066790342330932617e-01 -9.235336780548095703e-01 -4.211505055427551270e-01 5.617827773094177246e-01 -1.439509749412536621e+00 6.483209729194641113e-01 3.880981504917144775e-01 -4.443035423755645752e-01 9.441322684288024902e-01 6.626189351081848145e-01 1.055001854896545410e+00 9.799848198890686035e-01 7.409904003143310547e-01 2.136986255645751953e-01 5.879884362220764160e-01 -5.870037078857421875e-01 3.371178805828094482e-01 5.322288870811462402e-01 -1.004354238510131836e+00 -8.519245982170104980e-01 -1.593779563903808594e+00 -1.291883707046508789e+00 -3.746272027492523193e-01 -8.865091204643249512e-01 1.069065451622009277e+00 -3.545953333377838135e-02 -5.444414019584655762e-01 -1.196750998497009277e+00 -8.358232378959655762e-01 -4.015045762062072754e-01 -1.160629987716674805e+00 -6.125586032867431641e-01 3.757871389389038086e-01 -1.129632234573364258e+00 -2.200987339019775391e-01 -9.334851503372192383e-01 -7.954353690147399902e-01 4.825716614723205566e-01 -7.574773430824279785e-01 -2.075609192252159119e-02 1.735125064849853516e+00 -7.972040176391601562e-01 -3.087706863880157471e-01 1.589508771896362305e+00 -1.462351322174072266e+00 -8.155130743980407715e-01 -5.090373754501342773e-01 9.696506261825561523e-01 -9.290336370468139648e-01 -8.788108229637145996e-01 -8.378817439079284668e-01 -6.787258386611938477e-01 -5.287060141563415527e-01 -8.367937207221984863e-01 -4.537421464920043945e-01 -1.857826709747314453e-01 9.992092847824096680e-01 1.232295751571655273e+00 2.465782314538955688e-01 1.158858612179756165e-01 -8.011917769908905029e-02 -2.224567532539367676e-01 1.208600997924804688e+00 -1.500727772712707520e+00 -1.133872866630554199e+00 -1.071178317070007324e+00 -1.237996578216552734e+00 -3.607057631015777588e-01 -3.594959378242492676e-01 1.214305043220520020e+00 8.455592393875122070e-01 -1.181706666946411133e+00 -1.554935455322265625e+00 8.171532154083251953e-01 -7.538020610809326172e-01 8.643363714218139648e-01 -7.371675968170166016e-01 -1.376350760459899902e+00 2.304559350013732910e-01 -4.652541875839233398e-01 -6.635566055774688721e-02 -1.703954815864562988e+00 -7.280400991439819336e-01 -2.022488415241241455e-01 2.687415480613708496e-01 4.876988232135772705e-01 -7.210785746574401855e-01 3.259144127368927002e-01 1.382879853248596191e+00 -1.513230562210083008e+00 6.672679632902145386e-02 -7.434854507446289062e-01 -1.022342085838317871e+00 6.149051785469055176e-01 9.525352716445922852e-01 3.750126361846923828e-01 1.192896366119384766e+00 1.314846038818359375e+00 -5.425717234611511230e-01 -1.614123344421386719e+00 -3.255515694618225098e-01 -2.809169292449951172e-01 -5.530566573143005371e-01 2.362033426761627197e-01 8.806353211402893066e-01 5.512814521789550781e-01 -7.540963292121887207e-01 -3.273906409740447998e-01 9.466008543968200684e-01 6.369306445121765137e-01 4.268147051334381104e-01 -9.996809065341949463e-02 3.015110790729522705e-01 -4.398698210716247559e-01 -1.019859075546264648e+00 5.433191061019897461e-01 9.033160209655761719e-01 -1.080200195312500000e+00 -8.151822686195373535e-01 9.643168449401855469e-01 3.701117336750030518e-01 -9.562516212463378906e-01 -9.112982153892517090e-01 -1.111678719520568848e+00 -3.587805926799774170e-01 -5.097929835319519043e-01 -1.157443523406982422e+00 6.317409873008728027e-01 3.497646152973175049e-01 4.087836146354675293e-01 -3.117756545543670654e-01 9.455093741416931152e-01 -4.008589088916778564e-01 -1.901806592941284180e-01 8.127679228782653809e-01
2.081777155399322510e-01 6.708673238754272461e-01 -1.709089577198028564e-01 -1.147424459457397461e+00 1.478413194417953491e-01 2.552853822708129883e-01 -3.762690424919128418e-01 2.759714797139167786e-02 -8.938210010528564453e-01 1.255041241645812988e+00 8.876517415046691895e-01 1.235409736633300781e+00 7.091466784477233887e-01 1.872140914201736450e-01 6.333270668983459473e-01 -5.279957056045532227e-01 1.281286031007766724e-01 -3.133500739932060242e-02 2.011746913194656372e-01 -7.846433520317077637e-01 -6.441968679428100586e-01 -2.278888374567031860e-01 -4.401436820626258850e-02 -3.274771273136138916e-01 -8.811780810356140137e-01 7.647992372512817383e-01 -1.152105212211608887e+00 -1.177478209137916565e-01 1.943203657865524292e-01 1.001677155494689941e+00 -1.148026958107948303e-01 1.412248015403747559e-01 -1.021758675575256348e+00 -6.643241047859191895e-01 -2.075623273849487305e-01 -1.845649629831314087e-01 1.405522108078002930e+00 -1.108778238296508789e+00 1.095352530479431152e+00 5.301573872566223145e-01 -8.787863850593566895e-01 -6.607060432434082031e-01 6.409989297389984131e-02 4.157072305679321289e-01 -1.239343881607055664e+00 -1.101953834295272827e-01 -4.603835344314575195e-01 -6.020457744598388672e-01 -4.838085770606994629e-01 -1.521887302398681641e+00 9.663062095642089844e-01 -9.616028666496276855e-01 4.955321848392486572e-01 1.253259539604187012e+00 -1.279674530029296875e+00 -5.481124520301818848e-01 -5.335722565650939941e-01 -1.227377772331237793e+00 -1.757444292306900024e-01 -2.157986760139465332e-01 -3.846775293350219727e-01 9.909844994544982910e-01 -1.175084829330444336e+00 -2.635875344276428223e-01 -6.549221277236938477e-01 -9.244236946105957031e-01 -3.056222498416900635e-01 1.718655526638031006e-01 1.045303270220756531e-01 1.108226850628852844e-01 6.350863575935363770e-01 -7.544093728065490723e-01 -1.425959229469299316e+00 -6.734276539646089077e-04 1.691561818122863770e+00 -1.306351065635681152e+00 3.374481499195098877e-01 -1.759824633598327637e+00 -1.160153388977050781e+00 -8.764265775680541992e-01 5.077520012855529785e-01 1.070003628730773926e+00 6.392594575881958008e-01 6.460865139961242676e-01 -8.425271511077880859e-01 -6.039569377899169922e-01 7.379956841468811035e-01 7.646426558494567871e-01 3.843842744827270508e-01 6.257899403572082520e-01 4.261989593505859375e-01 6.469323486089706421e-02 7.418673634529113770e-01 -1.253954887390136719e+00 1.454908728599548340e+00 4.303802549839019775e-01 1.637660898268222809e-02 -2.247470021247863770e-01 -4.140475392341613770e-01 -4.819418787956237793e-01 6.066163778305053711e-01 -7.475705742835998535e-01 1.184762597084045410e+00 -7.253959774971008301e-02 4.474535882472991943e-01 2.749860584735870361e-01 1.535197257995605469e+00 7.298931479454040527e-01 -8.076851367950439453e-01 1.373789161443710327e-01 1.068574070930480957e+00 1.884874254465103149e-01 -7.160135507583618164e-01 1.261887550354003906e+00 1.339966416358947754e+00 1.401394158601760864e-01 1.412223458290100098e+00 1.322359919548034668e+00 1.320022106170654297e+00 -1.224865391850471497e-01 -6.932836771011352539e-01 -5.621783733367919922e-01 -4.838585257530212402e-01 4.662269353866577148e-01 -6.785527467727661133e-01 -3.784606158733367920e-01 -1.012974381446838379e+00 -1.235665082931518555e+00 4.225240349769592285e-01 -3.523275852203369141e-01 5.425114929676055908e-02 2.020233869552612305e-01 -1.242076277732849121e+00 -6.777555942535400391e-01 -1.029029726982116699e+00 -7.961406707763671875e-01 -3.865337073802947998e-01 1.773943752050399780e-02 -1.022322177886962891e+00 1.064225565642118454e-02 -1.519877672195434570e+00 -1.638463139533996582e-01 -5.127701163291931152e-01 6.187421083450317383e-01 -3.951761424541473389e-01 -6.151600480079650879e-01 -1.030196771025657654e-01 -1.567333340644836426e+00 -3.124795258045196533e-01 6.753488183021545410e-01 -9.231084585189819336e-01 1.577659845352172852e+00 -1.484525799751281738e+00 -5.384947657585144043e-01 -6.692154407501220703e-01 2.344979047775268555e-01 -1.226185709238052368e-01 -9.387426376342773438e-01 -7.513102293014526367e-01 -1.173490643501281738e+00 7.012106180191040039e-01 -1.127321124076843262e+00 -1.491955518722534180e+00 1.516482830047607422e-01 1.218254208564758301e+00 -1.376387625932693481e-01 1.177612423896789551e+00 -9.080963134765625000e-01 -2.332518100738525391e-01 1.337314128875732422e+00 6.920846700668334961e-01 -8.199329376220703125e-01 7.139127254486083984e-01 7.592905163764953613e-01 8.089869022369384766e-01 1.058580994606018066e+00 -9.329120516777038574e-01 -1.130523324012756348e+00 8.394877910614013672e-01 1.098447144031524658e-01 7.936503291130065918e-01 5.534791946411132812e-01 1.633253574371337891e+00 6.965906620025634766e-01 1.568918108940124512e+00 4.829356968402862549e-01 -5.453917980194091797e-01 1.747986376285552979e-01 1.196686744689941406e+00 9.087880253791809082e-01 9.691012501716613770e-01 -1.071034744381904602e-01 9.233638644218444824e-01 5.901505947113037109e-01 3.728237450122833252e-01 2.601045370101928711e-01 6.087775826454162598e-01 1.070572614669799805e+00 -3.438841318711638451e-03 1.215716361999511719e+00
1.269604563713073730e+00 -2.879343628883361816e-01 -4.219728112220764160e-01 1.402790546417236328e+00 1.196689367294311523e+00 -1.893608331680297852e+00 -7.049851417541503906e-01 -8.861638307571411133e-01 -9.674314260482788086e-01 7.983612418174743652e-01 2.928670644760131836e-01 4.031991958618164062e-01 -1.036698967218399048e-01 -2.272392958402633667e-01 -7.299231886863708496e-01 1.161209821701049805e+00 -5.701705813407897949e-04 1.122137546539306641e+00 -2.805680036544799805e-02 1.328392863273620605e+00 -1.148330092430114746e+00 1.035540223121643066e+00 8.795648217201232910e-01 8.927372097969055176e-01 -2.255865931510925293e-02 1.228891730308532715e+00 -1.276808738708496094e+00 -3.676535487174987793e-01 -5.074582695960998535e-01 8.060166239738464355e-01 -6.018120050430297852e-01 -6.010878086090087891e-01 5.568792223930358887e-01 -1.404006928205490112e-01 6.860920786857604980e-01 -3.797435387969017029e-02 -7.660788297653198242e-02 -5.313239097595214844e-01 -1.731376945972442627e-01 -1.406483173370361328e+00 5.925727486610412598e-01 1.006801366806030273e+00 9.651287198066711426e-01 1.283967971801757812e+00 -7.489173412322998047e-01 5.060858130455017090e-01 9.813110828399658203e-01 1.628410935401916504e+00 -9.355939626693725586e-01 -1.036093663424253464e-02 8.292875289916992188e-01 4.851295650005340576e-01 -2.401214987039566040e-01 5.839807987213134766e-01 2.914400696754455566e-01 1.158503413200378418e+00 9.033784270286560059e-02 1.789511799812316895e+00 1.439074993133544922e+00 5.178569629788398743e-02 1.541956543922424316e+00 5.527895092964172363e-01 -7.743550837039947510e-02 5.754900574684143066e-01 4.438413307070732117e-03 2.070414721965789795e-01 2.100411206483840942e-01 4.011444747447967529e-02 4.023873480036854744e-04 1.641232728958129883e+00 4.972721934318542480e-01 1.181522607803344727e+00 -2.177769243717193604e-01 1.529074668884277344e+00 1.180589795112609863e+00 6.841003894805908203e-01 1.416225433349609375e+00 1.448637247085571289e+00 -4.085238575935363770e-01 1.431571602821350098e+00 -3.520617783069610596e-01 3.994042798876762390e-02 -5.299596861004829407e-02 4.962022900581359863e-01 -2.102785110473632812e-01 6.998845934867858887e-01 1.222650855779647827e-01 -1.518868505954742432e-01 3.414995968341827393e-01 -5.562393069267272949e-01 -9.295095801353454590e-01 -6.879660487174987793e-01 -8.086674213409423828e-01 5.866892933845520020e-01 5.860781669616699219e-01 -7.304640412330627441e-01 -6.555682420730590820e-01 -1.042846560478210449e+00 5.462354049086570740e-02 -6.903792023658752441e-01 -1.092325210571289062e+00 -6.072959303855895996e-01 1.349879503250122070e-01 -7.439823746681213379e-01 -4.434471726417541504e-01 -4.752402901649475098e-01 -1.761685609817504883e-01 -7.169275283813476562e-01 -1.122738957405090332e+00 -5.827832818031311035e-01 1.031751751899719238e+00 -9.831057190895080566e-01 -7.483051717281341553e-02 -1.898644864559173584e-02 -6.892130374908447266e-01 -7.456111907958984375e-01 -5.378110408782958984e-01 2.946888208389282227e-01 -6.387276649475097656e-01 1.017871260643005371e+00 -1.405037403106689453e+00 -3.419647812843322754e-01 -1.843110442161560059e+00 -1.181750059127807617e+00 -1.320280790328979492e+00 -1.432342171669006348e+00 -1.133407950401306152e+00 -7.640589475631713867e-01 -1.712994098663330078e+00 6.425911784172058105e-01 -7.047950625419616699e-01 -8.966231346130371094e-01 1.607003211975097656e-01 -2.565394341945648193e-01 -1.235568046569824219e+00 2.784799337387084961e-01 -5.356045365333557129e-01 -6.698883175849914551e-01 -9.617193937301635742e-01 -1.316660523414611816e+00 -1.173499941825866699e+00 -8.597919344902038574e-01 -6.399075984954833984e-01 -1.285297513008117676e+00 5.435202121734619141e-01 -1.624066233634948730e+00 -1.351981878280639648e+00 -1.354868054389953613e+00 -5.605338811874389648e-01 -7.997643947601318359e-01 -1.227209210395812988e+00 -8.149291872978210449e-01 -1.519795894622802734e+00 -5.367316007614135742e-01 -5.447717905044555664e-01 -1.795238614082336426e+00 -7.095285654067993164e-01 -1.558187603950500488e+00 -8.264254927635192871e-01 -3.534437119960784912e-01 1.359087228775024414e+00 -2.755108475685119629e-02 1.212839126586914062e+00 1.296550512313842773e+00 2.502834200859069824e-01 -8.804548978805541992e-01 2.611640691757202148e-01 1.057143330574035645e+00 -8.863584995269775391e-01 -2.128775119781494141e-01 9.076460003852844238e-01 1.567622065544128418e+00 -7.285359501838684082e-01 1.393176317214965820e+00 9.644001722335815430e-01 2.033808708190917969e+00 1.266750216484069824e+00 1.397980570793151855e+00 9.891737699508666992e-01 1.747721552848815918e+00 5.588545799255371094e-01 -4.057564772665500641e-03 3.725574016571044922e-01 4.271221458911895752e-01 7.307870984077453613e-01 4.905222952365875244e-01 4.917105138301849365e-01 3.571969866752624512e-01 2.934081554412841797e-01 -2.846124172210693359e-01 1.377625703811645508e+00 -6.797643899917602539e-01 3.148892521858215332e-01 1.252340851351618767e-03 -8.640969991683959961e-01 -9.995380640029907227e-01 1.098716020584106445e+00 2.693828642368316650e-01 9.720763564109802246e-01 9.808120131492614746e-02
-1.394089818000793457e+00 -4.810852110385894775e-01 -5.727053880691528320e-01 1.281172871589660645e+00 -7.601529955863952637e-01 5.531587004661560059e-01 -2.719020545482635498e-01 -1.010133385658264160e+00 7.261011600494384766e-01 5.371994972229003906e-01 1.698432803153991699e+00 -7.415747642517089844e-01 -2.706561088562011719e-01 3.067065775394439697e-01 -1.278592824935913086e+00 1.528685092926025391e+00 -7.475799322128295898e-01 1.178376436233520508e+00 5.644928216934204102e-01 1.412625551223754883e+00 -2.214725464582443237e-01 5.692370533943176270e-01 1.296305418014526367e+00 -4.742553085088729858e-02 -1.145503878593444824e+00 1.404751181602478027e+00 -2.456963062286376953e-01 3.968439996242523193e-01 3.807314336299896240e-01 -7.640109062194824219e-01 3.499687612056732178e-01 1.008153080940246582e+00 -4.176640417426824570e-03 3.627695739269256592e-01 5.053062364459037781e-02 -1.370102763175964355e+00 5.074875950813293457e-01 -2.514530420303344727e-01 1.059766411781311035e+00 -5.550415515899658203e-01 -1.569252014160156250e-01 3.136682212352752686e-01 -1.901037454605102539e+00 -9.905735254287719727e-01 -5.378451347351074219e-01 9.668438434600830078e-01 6.192160248756408691e-01 9.228022694587707520e-01 5.884978175163269043e-01 -7.700288891792297363e-01 -2.630185782909393311e-01 1.220831632614135742e+00 7.204815149307250977e-01 9.604964852333068848e-01 -1.000218868255615234e+00 1.012966036796569824e+00 4.106746315956115723e-01 -1.340453140437602997e-02 1.599531650543212891e+00 8.067485094070434570e-01 2.404732555150985718e-01 -1.486618220806121826e-01 5.689728260040283203e-01 6.539579033851623535e-01 1.093067079782485962e-01 1.886958628892898560e-01 1.736218482255935669e-01 -6.691040992736816406e-01 5.988098978996276855e-01 -1.985553950071334839e-01 -1.110019162297248840e-01 -5.082375407218933105e-01 8.054972290992736816e-01 6.413687467575073242e-01 1.729357481002807617e+00 1.323217630386352539e+00 1.274407744407653809e+00 1.046636343002319336e+00 2.682960629463195801e-01 -5.762200951576232910e-01 -7.622620463371276855e-01 1.129839658737182617e+00 -4.184076488018035889e-01 1.760417699813842773e+00 3.435948491096496582e-01 5.825066566467285156e-01 -1.309992551803588867e+00 6.095330417156219482e-02 2.079337358474731445e+00 1.187109112739562988e+00 1.768408775329589844e+00 4.485807716846466064e-01 -8.770890831947326660e-01 -7.745405435562133789e-01 2.441282570362091064e-01 -4.715437889099121094e-01 1.298539876937866211e+00 -2.233029156923294067e-01 3.273301720619201660e-01 3.908671140670776367e-01 1.138033866882324219e+00 -1.374577730894088745e-01 5.323569774627685547e-01 1.369770288467407227e+00 9.496684074401855469e-01 9.393411874771118164e-01 5.300263762474060059e-01 -9.817429780960083008e-01 2.729217708110809326e-01 -5.309271626174449921e-03 1.425021529197692871e+00 -2.867617830634117126e-02 6.319519877433776855e-01 2.784141600131988525e-01 1.168271660804748535e+00 8.118156194686889648e-01 -2.010040879249572754e-01 1.486109256744384766e+00 8.100486397743225098e-01 -4.334883987903594971e-01 -1.742063641548156738e+00 -1.898353844881057739e-01 1.646467924118041992e+00 1.484170317649841309e+00 -4.530217647552490234e-01 -3.802261948585510254e-01 -8.432013392448425293e-01 -1.436247825622558594e+00 -1.387856125831604004e+00 -1.016553163528442383e+00 -1.944930851459503174e-01 -1.009221673011779785e+00 1.731986105442047119e-01 1.085501432418823242e+00 -1.091705203056335449e+00 6.075423955917358398e-01 -1.163635015487670898e+00 -1.338022112846374512e+00 1.269961953163146973e+00 -5.283804535865783691e-01 -1.232250571250915527e+00 -1.649991393089294434e+00 8.714132010936737061e-02 -6.780773997306823730e-01 -1.322244048118591309e+00 -1.390769958496093750e+00 3.031477928161621094e-01 4.914359152317047119e-01 -9.441658854484558105e-02 -3.014093041419982910e-01 7.747319340705871582e-01 1.642363548278808594e+00 7.337890565395355225e-02 -1.000927448272705078e+00 -1.374588131904602051e+00 1.483716845512390137e+00 1.445969790220260620e-01 -1.028040409088134766e+00 9.019835591316223145e-01 -6.897027492523193359e-01 -6.327241063117980957e-01 -1.257997274398803711e+00 -5.812029242515563965e-01 -1.256992816925048828e+00 -2.081689536571502686e-01 3.549294769763946533e-01 -6.393396854400634766e-01 -1.198167562484741211e+00 -1.459132432937622070e+00 -1.798548460006713867e+00 1.461912751197814941e+00 -5.312912464141845703e-01 -2.083936452865600586e+00 1.555368185043334961e+00 2.077974379062652588e-01 -6.571302413940429688e-01 -1.215959906578063965e+00 -7.212785482406616211e-01 -2.443475462496280670e-02 2.563236951828002930e-01 -7.061926722526550293e-01 -1.014784574508666992e+00 -1.806846737861633301e+00 -3.917631506919860840e-01 1.233878850936889648e+00 -7.853626012802124023e-01 -1.599067330360412598e+00 -8.303056955337524414e-01 1.479162424802780151e-01 -1.067881703376770020e+00 6.178843975067138672e-01 -1.677647829055786133e+00 -1.163018226623535156e+00 -1.823486208915710449e+00 -4.665956497192382812e-01 5.777487158775329590e-01 -1.342352509498596191e+00 -1.133261680603027344e+00 -4.679914563894271851e-03 6.999137401580810547e-01
-1.443990111351013184e+00 -9.057946801185607910e-01 -5.582414865493774414e-01 -1.136109590530395508e+00 -9.298256039619445801e-01 7.530744075775146484e-01 -7.719833254814147949e-01 -1.168992877006530762e+00 -1.125804707407951355e-01 1.099626302719116211e+00 -2.790150791406631470e-02 2.347153574228286743e-01 -9.101507663726806641e-01 -6.456668376922607422e-01 -8.827353119850158691e-01 7.569808959960937500e-01 7.865263223648071289e-01 9.911101460456848145e-01 4.108989238739013672e-01 4.650979042053222656e-01 -1.253559589385986328e+00 6.226727962493896484e-01 5.251280665397644043e-01 -5.413242578506469727e-01 -5.512827038764953613e-01 9.133476614952087402e-01 -4.476333856582641602e-01 1.365436553955078125e+00 -1.349410772323608398e+00 3.853580951690673828e-01 -1.143417239189147949e+00 3.226745724678039551e-01 -5.532160401344299316e-01 -4.529922604560852051e-01 3.930396735668182373e-01 -4.860141277313232422e-01 6.577398180961608887e-01 -3.217114508152008057e-02 2.764739394187927246e-01 -7.825849056243896484e-01 -1.380225896835327148e+00 3.556383550167083740e-01 5.676316618919372559e-01 -6.286590099334716797e-01 -1.331698149442672729e-01 -1.120639666914939880e-01 2.477142028510570526e-02 4.881453141570091248e-02 1.172853469848632812e+00 1.337934136390686035e+00 -9.148725271224975586e-01 1.142236471176147461e+00 2.416709214448928833e-01 2.468967586755752563e-01 -7.305363416671752930e-01 9.462206065654754639e-02 1.474084109067916870e-01 3.029097616672515869e-01 -4.855378866195678711e-01 5.658854842185974121e-01 -8.700270056724548340e-01 -4.355326294898986816e-01 8.959619328379631042e-03 9.021024703979492188e-01 -1.639101803302764893e-01 -1.659612357616424561e-01 -3.421306312084197998e-01 3.249307274818420410e-01 3.925351426005363464e-03 -7.251738309860229492e-01 6.414867639541625977e-01 -3.311260044574737549e-01 3.976691067218780518e-01 -8.436181545257568359e-01 -6.668714880943298340e-01 -3.153258562088012695e-01 6.103523969650268555e-01 -1.048718810081481934e+00 1.136697530746459961e+00 -3.829163014888763428e-01 6.101626902818679810e-02 1.486586451530456543e+00 -3.762663304805755615e-01 -1.862089037895202637e+00 -7.325574755668640137e-02 -4.437528550624847412e-01 -5.089820027351379395e-01 1.539225578308105469e+00 -2.604313790798187256e-01 -4.824155569076538086e-01 -4.607293605804443359e-01 -1.284263372421264648e+00 -8.306806683540344238e-01 2.570734918117523193e-01 -6.335525512695312500e-01 9.057405591011047363e-01 -2.833999991416931152e-01 -3.469604849815368652e-01 -8.566187024116516113e-01 -7.570570800453424454e-03 8.010697960853576660e-01 1.121844410896301270e+00 -5.377097129821777344e-01 -6.841174960136413574e-01 -8.688536286354064941e-02 6.604775786399841309e-01 1.736298203468322754e-02 9.132686853408813477e-01 -8.562351465225219727e-01 1.244584679603576660e+00 7.004235405474901199e-03 1.621802449226379395e-01 6.883818507194519043e-01 4.796449542045593262e-01 3.466827571392059326e-01 8.603236675262451172e-01 -8.737911581993103027e-01 -1.159396290779113770e+00 3.657811582088470459e-01 1.998009979724884033e-01 -9.652206301689147949e-01 -1.115275263786315918e+00 -1.354137301445007324e+00 -1.329700112342834473e+00 2.621437311172485352e-01 7.473270893096923828e-01 4.254357218742370605e-01 -1.811129450798034668e-01 -1.716809868812561035e+00 1.073840782046318054e-01 -4.168370738625526428e-02 -1.505243301391601562e+00 2.773606479167938232e-01 6.174663901329040527e-01 -1.847855150699615479e-01 2.087966054677963257e-01 -3.041792511940002441e-01 -1.395413875579833984e-01 -1.019955128431320190e-01 -3.605605363845825195e-01 -5.810735225677490234e-01 2.798489928245544434e-01 1.659343093633651733e-01 7.385919988155364990e-02 -1.706247627735137939e-01 4.186314046382904053e-01 -9.966676235198974609e-01 3.404153287410736084e-01 -2.014581412076950073e-01 -6.607400178909301758e-01 -1.489057302474975586e+00 -1.109816730022430420e-01 5.271546840667724609e-01 -1.041306972503662109e+00 8.362746834754943848e-01 1.366140365600585938e+00 -1.201700326055288315e-02 -8.655657172203063965e-01 1.059654593467712402e+00 1.456604242324829102e+00 5.638623610138893127e-02 -3.226234018802642822e-02 8.713287711143493652e-01 1.054008245468139648e+00 1.105815291404724121e+00 1.575819849967956543e-01 -3.664257526397705078e-01 -8.824446797370910645e-01 7.053191065788269043e-01 -5.809200406074523926e-01 -1.212723493576049805e+00 1.299519538879394531e-01 4.727478027343750000e-01 -5.257074832916259766e-01 1.197266578674316406e+00 -2.143226563930511475e-01 7.354295849800109863e-01 -2.502511441707611084e-01 -4.094535708427429199e-01 -3.134332597255706787e-02 1.159656643867492676e+00 1.431409955024719238e+00 -9.040123969316482544e-02 1.736271619796752930e+00 3.754855692386627197e-01 8.727425336837768555e-01 3.742773532867431641e-01 8.304266929626464844e-01 -1.036125302314758301e+00 1.554988145828247070e+00 3.613567948341369629e-01 -5.120627284049987793e-01 6.839629411697387695e-01 1.415143609046936035e+00 3.425876498222351074e-01 -2.994979023933410645e-01 7.578302621841430664e-01 -2.911665737628936768e-01 1.821430563926696777e+00 -3.160170838236808777e-02
3.927050530910491943e-01 4.996489584445953369e-01 -8.025309443473815918e-01 -7.840257883071899414e-01 -7.942838072776794434e-01 1.716983556747436523e+00 -8.129234313964843750e-01 2.909307777881622314e-01 6.979355812072753906e-01 -7.592512965202331543e-01 1.335106372833251953e+00 -1.312092423439025879e+00 1.180176615715026855e+00 3.409258127212524414e-01 -1.126947164535522461e+00 1.573997139930725098e-01 1.450631737709045410e+00 4.161444604396820068e-01 -1.731203198432922363e-01 -1.315454691648483276e-01 1.550257802009582520e-01 -8.754730224609375000e-01 5.964617431163787842e-02 1.152989268302917480e+00 -1.238518238067626953e+00 9.620200991630554199e-01 -5.879387259483337402e-02 -6.663261055946350098e-01 -4.821159243583679199e-01 9.996176362037658691e-01 9.819121956825256348e-01 6.196071580052375793e-02 -1.102399945259094238e+00 -4.318451881408691406e-01 -4.270842373371124268e-01 9.964009523391723633e-01 8.855687379837036133e-01 5.555234551429748535e-01 -2.191434651613235474e-01 3.075537681579589844e-01 3.832644522190093994e-01 -3.537481427192687988e-01 -4.781916439533233643e-01 -9.293990731239318848e-01 -8.827041983604431152e-01 -7.302740216255187988e-01 6.133056432008743286e-02 1.437409639358520508e+00 2.078849822282791138e-01 3.884491920471191406e-01 2.678963840007781982e-01 6.246589422225952148e-01 -1.129253983497619629e+00 -2.089973241090774536e-01 -7.516363859176635742e-01 -5.066501498222351074e-01 -8.292450904846191406e-01 6.313088536262512207e-01 1.344282388687133789e+00 -3.424748778343200684e-01 9.517949223518371582e-01 -9.218734502792358398e-01 -1.409108996391296387e+00 1.978774666786193848e-01 -1.384969234466552734e+00 8.399784564971923828e-01 -3.105256259441375732e-01 2.956037037074565887e-02 -6.878399252891540527e-01 5.143087506294250488e-01 -9.730753898620605469e-01 -9.636617302894592285e-01 2.503667175769805908e-01 1.610156297683715820e-01 -9.014310240745544434e-01 -8.754868507385253906e-01 -1.598952412605285645e+00 -1.210318684577941895e+00 -1.595683336257934570e+00 -1.618393421173095703e+00 1.103795647621154785e+00 -9.719080328941345215e-01 -7.388464212417602539e-01 7.777872085571289062e-01 -2.334800958633422852e-01 3.878046572208404541e-01 -6.345305442810058594e-01 8.404948562383651733e-02 -4.549905657768249512e-01 9.552378058433532715e-01 2.862597703933715820e-01 -7.945805042982101440e-02 8.200712800025939941e-01 1.720481157302856445e+00 -3.513868451118469238e-01 9.254432320594787598e-01 -1.254531860351562500e+00 -1.575103551149368286e-01 -4.474969804286956787e-01 -2.348917871713638306e-01 1.128334105014801025e-01 4.468139708042144775e-01 -7.966083884239196777e-01 7.190711498260498047e-01 -4.994481429457664490e-02 3.997775614261627197e-01 -5.303900837898254395e-01 -8.859570026397705078e-01 1.325645111501216888e-02 1.197199940681457520e+00 -1.264985799789428711e+00 -1.070289015769958496e+00 -4.394547343254089355e-01 -3.610778450965881348e-01 -5.081622004508972168e-01 1.987574100494384766e-01 1.477182507514953613e+00 -1.070275545120239258e+00 -8.310450315475463867e-01 -2.475473135709762573e-01 -1.360913872718811035e+00 -1.411697268486022949e-01 1.443881630897521973e+00 1.218969464302062988e+00 1.157261967658996582e+00 -2.098697423934936523e-01 -1.275229454040527344e+00 -6.432914137840270996e-01 7.285404205322265625e-01 -2.868786752223968506e-01 1.146987199783325195e+00 1.727360039949417114e-01 4.180670082569122314e-01 -9.855732321739196777e-02 2.780329883098602295e-01 -1.256147027015686035e+00 2.460812628269195557e-01 4.696401357650756836e-01 -3.776585310697555542e-02 1.919307589530944824e+00 7.304387688636779785e-01 -1.085246443748474121e+00 -9.730468690395355225e-02 1.277726292610168457e+00 -7.490639090538024902e-01 3.270769119262695312e-01 1.336153984069824219e+00 1.729823708534240723e+00 -1.510194063186645508e+00 -3.231219351291656494e-01 -7.442386448383331299e-02 -1.528738975524902344e+00 1.357799768447875977e+00 2.095020562410354614e-01 -2.407883852720260620e-01 -8.514074087142944336e-01 -8.831446170806884766e-01 1.270827651023864746e+00 5.439994931221008301e-01 -2.333644218742847443e-02 -1.257395625114440918e+00 2.990723550319671631e-01 1.121183186769485474e-01 3.213669359683990479e-01 1.600958824157714844e+00 -3.980558812618255615e-01 1.153976678848266602e+00 -3.495938777923583984e-01 9.585589170455932617e-01 1.527938008308410645e+00 -6.653811335563659668e-01 5.403170585632324219e-01 1.798110961914062500e+00 -6.375390887260437012e-01 -6.436877846717834473e-01 1.157077312469482422e+00 -1.544797062873840332e+00 -1.444020718336105347e-01 5.692875385284423828e-01 -1.033562123775482178e-01 6.588449478149414062e-01 2.207934111356735229e-01 9.704194068908691406e-01 -9.225412011146545410e-01 1.397737741470336914e+00 -6.081461310386657715e-01 9.751313328742980957e-01 1.217141985893249512e+00 -6.439640522003173828e-01 -6.371539235115051270e-01 1.192033942788839340e-02 1.054978489875793457e+00 -4.140433669090270996e-01 5.684900283813476562e-01 -1.136263489723205566e+00 -1.635822355747222900e-01 -6.522528827190399170e-02 -8.778097033500671387e-01 -3.707075417041778564e-01 1.162939786911010742e+00
9.742148518562316895e-01 -8.536350727081298828e-01 3.496113419532775879e-01 1.164541840553283691e+00 -4.589047282934188843e-02 1.685468077659606934e+00 7.370635271072387695e-01 3.255644738674163818e-01 1.465944528579711914e+00 5.050595402717590332e-01 5.965000391006469727e-01 -1.333351880311965942e-01 4.591816365718841553e-01 1.147090554237365723e+00 5.989303588867187500e-01 7.946987152099609375e-01 -1.410925239324569702e-01 -5.994973778724670410e-01 3.452249467372894287e-01 1.020137295126914978e-01 1.657498121261596680e+00 -9.342774152755737305e-01 -3.513880968093872070e-01 7.577522397041320801e-01 -1.244433045387268066e+00 7.944241911172866821e-02 1.581823468208312988e+00 1.310208797454833984e+00 2.523302137851715088e-01 -1.139324188232421875e+00 -3.245391547679901123e-01 6.481414437294006348e-01 1.755228787660598755e-01 -5.867052674293518066e-01 9.141339063644409180e-01 -5.474422574043273926e-01 1.361429214477539062e+00 8.382700681686401367e-01 8.059321045875549316e-01 -8.818925172090530396e-02 4.436151385307312012e-01 -8.067741990089416504e-01 1.923456490039825439e-01 -4.345288276672363281e-01 -1.079477548599243164e+00 6.885173320770263672e-01 8.859674334526062012e-01 -5.694827437400817871e-01 1.293171286582946777e+00 1.475242018699645996e+00 4.414816796779632568e-01 6.302396059036254883e-01 4.851805791258811951e-02 1.204558730125427246e+00 -1.224287986755371094e+00 1.678360223770141602e+00 -4.804757237434387207e-01 7.747514545917510986e-02 -5.720274522900581360e-03 4.877926707267761230e-01 -1.397068381309509277e+00 -9.389951229095458984e-01 5.110800862312316895e-01 1.445837318897247314e-01 1.366546273231506348e+00 -1.531450629234313965e+00 -1.311470270156860352e+00 -8.117582201957702637e-01 -5.917877554893493652e-01 -3.499265015125274658e-01 8.252598047256469727e-01 6.243290901184082031e-01 -9.426732063293457031e-01 2.689267098903656006e-01 -8.099727630615234375e-01 -6.325835585594177246e-01 -9.530155658721923828e-01 -8.127845525741577148e-01 5.415934920310974121e-01 1.892700791358947754e+00 -1.612540602684020996e+00 -1.091862797737121582e+00 -7.592949867248535156e-01 1.623004078865051270e-01 -1.894721269607543945e+00 -3.877128064632415771e-01 -3.430165946483612061e-01 -6.307058036327362061e-02 5.534435808658599854e-02 -1.608794808387756348e+00 -3.541390597820281982e-01 -3.366833627223968506e-01 1.271862149238586426e+00 -1.202503085136413574e+00 8.357494324445724487e-02 1.770560294389724731e-01 -1.122865676879882812e+00 -1.741931676864624023e+00 -1.063264250755310059e+00 -2.346390783786773682e-01 -5.852015614509582520e-01 -4.842080175876617432e-01 -4.945976734161376953e-01 4.782063513994216919e-02 -1.450053215026855469e+00 -9.356335401535034180e-01 5.295791476964950562e-02 -2.451408803462982178e-01 -9.721881747245788574e-01 1.715799123048782349e-01 -1.403813064098358154e-01 1.496857553720474243e-01 -7.031403183937072754e-01 -6.485865712165832520e-01 1.190390467643737793e+00 -9.698630571365356445e-01 -9.778447151184082031e-01 -1.240882277488708496e+00 4.217772185802459717e-01 -1.277481555938720703e+00 4.891484975814819336e-01 2.997348606586456299e-01 -1.710148006677627563e-01 -9.990341663360595703e-01 -4.805782139301300049e-01 1.227362871170043945e+00 8.346966654062271118e-02 -1.085618853569030762e+00 -4.013856872916221619e-02 -5.996759533882141113e-01 -1.197596341371536255e-01 5.256128907203674316e-01 -1.477729558944702148e+00 -1.239137649536132812e+00 1.414817571640014648e+00 -3.564696013927459717e-01 1.389781981706619263e-01 -6.136650443077087402e-01 -6.065705418586730957e-01 -2.700944840908050537e-01 6.690477132797241211e-01 -5.456936359405517578e-01 -1.367331147193908691e-01 1.817639917135238647e-01 -1.526472330093383789e+00 -2.393610477447509766e-01 4.697078168392181396e-01 7.086279392242431641e-01 -3.023327887058258057e-01 -2.112422883510589600e-01 -9.532060027122497559e-01 3.680908083915710449e-01 -1.619657315313816071e-02 -1.228089809417724609e+00 -6.184256672859191895e-01 -7.866110801696777344e-01 -8.342945575714111328e-01 8.816899061203002930e-01 -1.145620226860046387e+00 -2.667131125926971436e-01 3.020178079605102539e-01 1.306562423706054688e+00 2.047424614429473877e-01 3.316261470317840576e-01 1.121488928794860840e+00 -8.412041068077087402e-01 -7.976020127534866333e-02 -2.139686495065689087e-01 7.440196871757507324e-01 -5.337789654731750488e-01 -6.463935375213623047e-01 1.509495496749877930e+00 -7.526606321334838867e-01 5.190681219100952148e-01 9.593183398246765137e-01 1.097433209419250488e+00 1.065351963043212891e+00 1.492071866989135742e+00 6.249071359634399414e-01 5.396904945373535156e-01 8.101565241813659668e-01 1.144804596900939941e+00 -4.863452911376953125e-01 4.242053031921386719e-01 7.237388491630554199e-01 1.220950722694396973e+00 1.291468739509582520e+00 1.155574440956115723e+00 1.130302429199218750e+00 -4.684582948684692383e-01 -5.182480812072753906e-01 8.229982256889343262e-01 6.697769761085510254e-01 -9.825343489646911621e-01 3.855087161064147949e-01 7.716858386993408203e-01 -3.143690228462219238e-01 -1.350391983985900879e+00 9.108590483665466309e-01 5.145637989044189453e-01
-1.056284546852111816e+00 -2.598285079002380371e-01 -2.320819795131683350e-01 -1.052231907844543457e+00 -6.229593157768249512e-01 -1.667993307113647461e+00 4.564793407917022705e-01 -1.492475867271423340e+00 -2.977578938007354736e-01 -2.560730278491973877e-01 -1.177268743515014648e+00 -8.658138513565063477e-01 -5.190145373344421387e-01 -9.962186813354492188e-01 -1.075951814651489258e+00 -8.397799730300903320e-01 -1.114522457122802734e+00 -4.910938143730163574e-01 -8.213723897933959961e-01 -3.373129963874816895e-01 1.077107548713684082e+00 4.759929776191711426e-01 -4.404373168945312500e-01 -9.214797019958496094e-01 4.700333252549171448e-02 -9.977081418037414551e-01 -2.208314687013626099e-01 -4.798925518989562988e-01 -1.134377598762512207e+00 -8.523805141448974609e-01 -1.105003356933593750e+00 -1.026464343070983887e+00 4.818606674671173096e-01 1.131040573120117188e+00 -1.287502050399780273e+00 1.759920418262481689e-01 -1.180853724479675293e+00 -1.441090822219848633e+00 -5.463050603866577148e-01 -4.483178555965423584e-01 -1.074773192405700684e+00 -2.933954894542694092e-01 -8.136207461357116699e-01 -7.269890904426574707e-01 1.109178066253662109e+00 6.605058908462524414e-01 5.130357742309570312e-01 -1.617206573486328125e+00 4.752203226089477539e-01 -3.216568529605865479e-01 -2.519405186176300049e-01 6.226267218589782715e-01 -1.248068362474441528e-01 -9.905264973640441895e-01 8.879987001419067383e-01 -7.520838081836700439e-02 4.136435985565185547e-01 -2.160447239875793457e-01 -6.954614520072937012e-01 -7.397577911615371704e-02 1.372790038585662842e-01 -6.977191567420959473e-01 7.411717176437377930e-01 3.228802084922790527e-01 -7.547723650932312012e-01 4.176861941814422607e-01 5.372341871261596680e-01 3.435526490211486816e-01 8.191073536872863770e-01 -1.227406933903694153e-01 1.656731814146041870e-01 -2.734449505805969238e-01 8.006132394075393677e-02 -1.110927104949951172e+00 -1.109863370656967163e-01 6.954093575477600098e-01 3.181176185607910156e-01 7.795236706733703613e-01 -5.979380011558532715e-01 -1.206014752388000488e+00 -1.004791021347045898e+00 -2.964893877506256104e-01 -4.617911875247955322e-01 -1.265661835670471191e+00 -5.611035823822021484e-01 1.081387758255004883e+00 1.442553251981735229e-01 -4.309979081153869629e-01 -8.501856327056884766e-01 1.993743479251861572e-01 -6.419973969459533691e-01 -7.957078814506530762e-01 -1.438456654548645020e+00 -6.963225603103637695e-01 -5.119175314903259277e-01 -1.074297904968261719e+00 -1.469345927238464355e+00 -6.117148399353027344e-01 -3.934653103351593018e-02 -9.638166427612304688e-01 -3.496348857879638672e-01 -1.152300357818603516e+00 -5.091685652732849121e-01 -7.810274362564086914e-01 -7.640628814697265625e-01 -4.400378167629241943e-01 -1.082592248916625977e+00 -1.644635200500488281e-01 1.709662914276123047e+00 -9.127861261367797852e-01 -3.341604471206665039e-01 -9.114583730697631836e-01 -6.882061958312988281e-01 -8.978897929191589355e-01 -5.611287355422973633e-01 -9.066113829612731934e-01 -1.025872230529785156e+00 3.098992072045803070e-02 5.727836489677429199e-01 -8.695459961891174316e-01 1.721214413642883301e+00 1.709595918655395508e+00 8.873975872993469238e-01 4.213578701019287109e-01 5.320329070091247559e-01 1.415302395820617676e+00 5.969566106796264648e-01 1.066523313522338867e+00 8.496346473693847656e-01 8.282120823860168457e-01 -1.303532242774963379e+00 2.039021492004394531e+00 1.237941384315490723e+00 1.272541046142578125e+00 1.635639905929565430e+00 5.553864240646362305e-01 1.465860724449157715e+00 8.332222104072570801e-01 6.988549232482910156e-01 1.138301193714141846e-01 -9.531353116035461426e-01 1.235889315605163574e+00 -4.754540324211120605e-01 1.345007717609405518e-01 1.892971277236938477e+00 8.154501318931579590e-01 4.080986380577087402e-01 -6.716000288724899292e-02 1.177716851234436035e+00 6.719598770141601562e-01 1.156133651733398438e+00 1.450084209442138672e+00 -3.062299489974975586e-01 4.070765078067779541e-01 1.015886068344116211e+00 1.317879557609558105e+00 1.231341600418090820e+00 4.657578468322753906e-01 -3.367218077182769775e-01 -7.639760971069335938e-01 -8.392869830131530762e-01 2.232969850301742554e-01 -5.517391562461853027e-01 2.060711681842803955e-01 7.379061579704284668e-01 4.909230470657348633e-01 1.796018481254577637e-01 1.463981747627258301e+00 4.649435579776763916e-01 -9.751113131642341614e-03 1.692342162132263184e+00 1.067799925804138184e+00 -9.579294919967651367e-02 -7.133904099464416504e-01 5.896126851439476013e-02 -8.304151892662048340e-01 7.714443206787109375e-01 -2.781582251191139221e-02 -4.587737619876861572e-01 3.962325155735015869e-01 1.034332752227783203e+00 7.015354037284851074e-01 1.426550865173339844e+00 1.211332440376281738e+00 -2.880504131317138672e-01 -3.744721710681915283e-01 1.877461433410644531e+00 1.169418215751647949e+00 1.582744956016540527e+00 9.272509813308715820e-01 3.704838454723358154e-01 8.562373518943786621e-01 -9.483114480972290039e-01 7.325436472892761230e-01 5.651754736900329590e-01 -4.409396946430206299e-01 6.197683811187744141e-01 1.039172887802124023e+00 7.748767137527465820e-01 8.320047259330749512e-01
1.676399469375610352e+00 1.180059790611267090e+00 -9.252458214759826660e-01 -1.031708955764770508e+00 7.661828994750976562e-01 1.003901720046997070e+00 -6.018376946449279785e-01 3.584492206573486328e-01 5.327417850494384766e-01 -1.573183774948120117e+00 -3.996341526508331299e-01 -1.218564033508300781e+00 -1.656128019094467163e-01 1.048339486122131348e+00 -2.243181318044662476e-01 1.440796971321105957e+00 1.220064163208007812e+00 -2.143464833498001099e-01 8.657243847846984863e-01 3.354125618934631348e-01 3.130146563053131104e-01 8.137313127517700195e-01 -4.915621504187583923e-02 9.222180247306823730e-01 -3.427132666110992432e-01 5.481707453727722168e-01 -4.632519781589508057e-01 1.252915740013122559e+00 6.408709287643432617e-01 9.391829371452331543e-01 1.646934390068054199e+00 -1.030972123146057129e+00 1.048405289649963379e+00 -8.012843132019042969e-01 4.452179670333862305e-01 1.361601114273071289e+00 1.249322891235351562e+00 -6.373224258422851562e-01 -3.017188310623168945e-01 1.434474587440490723e+00 -1.490225315093994141e+00 4.923553466796875000e-01 -1.448343247175216675e-01 9.628481268882751465e-01 7.238198518753051758e-01 5.264674425125122070e-01 2.446697950363159180e-01 -5.052313804626464844e-01 -1.893969066441059113e-02 8.081902265548706055e-01 1.136026084423065186e-01 1.427328348159790039e+00 5.102704167366027832e-01 4.791349172592163086e-01 1.602777957916259766e+00 2.775013446807861328e-01 5.659531354904174805e-01 6.679037958383560181e-02 -5.918244719505310059e-01 -7.121334969997406006e-02 8.970027565956115723e-01 -1.096789985895156860e-01 -1.167215108871459961e+00 -2.118742316961288452e-01 8.677578568458557129e-01 7.289545536041259766e-01 6.498436927795410156e-01 -6.527636647224426270e-01 -6.518202424049377441e-01 -3.908222913742065430e-01 1.311557292938232422e+00 -8.387363553047180176e-01 5.000000000000000000e-01 7.549369335174560547e-01 5.815761685371398926e-01 5.858533382415771484e-01 -3.512888550758361816e-01 -1.660289525985717773e+00 -1.795390486717224121e+00 3.716220855712890625e-01 9.525547623634338379e-01 5.236670970916748047e-01 -1.138349533081054688e+00 -1.086083427071571350e-01 1.190559625625610352e+00 1.105027914047241211e+00 3.119980171322822571e-02 3.479894995689392090e-01 2.601319849491119385e-01 7.934082746505737305e-01 5.633080601692199707e-01 -6.941355466842651367e-01 7.661696076393127441e-01 1.033184885978698730e+00 1.849052608013153076e-01 -1.616684198379516602e-01 -6.394965052604675293e-01 -9.277964234352111816e-01 5.828406661748886108e-02 -1.531183362007141113e+00 7.762024998664855957e-01 7.962602376937866211e-01 4.947695434093475342e-01 4.517554044723510742e-01 -6.262868046760559082e-01 -1.364773750305175781e+00 4.933927357196807861e-01 2.608698904514312744e-01 9.120170958340167999e-03 9.550788998603820801e-01 7.374263405799865723e-01 -1.424328804016113281e+00 -1.502972006797790527e+00 -7.624958157539367676e-01 -1.720317602157592773e-01 -9.748738408088684082e-01 5.966459512710571289e-01 -3.853029012680053711e-01 1.803559064865112305e-01 -7.842395901679992676e-01 -8.112319707870483398e-01 -1.328294873237609863e+00 5.727870464324951172e-01 -6.585609912872314453e-01 -8.894921541213989258e-01 8.910254836082458496e-01 -7.891209125518798828e-01 -1.401508927345275879e+00 -1.093363016843795776e-01 -3.446128964424133301e-01 1.228735446929931641e+00 5.254795551300048828e-01 -1.633811712265014648e+00 -1.614990234375000000e+00 -3.304261015728116035e-03 1.338147401809692383e+00 -5.102543234825134277e-01 -5.829077363014221191e-01 1.124713540077209473e+00 -4.716849625110626221e-01 1.075292110443115234e+00 1.467038512229919434e+00 2.961453795433044434e-01 -7.569857835769653320e-01 2.083381116390228271e-01 2.997477650642395020e-01 -7.025987505912780762e-01 -1.210102677345275879e+00 1.202773451805114746e+00 1.092368006706237793e+00 -9.940091371536254883e-01 8.428421020507812500e-01 -1.567993283271789551e+00 -2.399382293224334717e-01 1.306920528411865234e+00 3.254942893981933594e-01 5.638193488121032715e-01 -1.179422378540039062e+00 -9.514530301094055176e-01 3.809702023863792419e-02 -5.113182067871093750e-01 8.656585216522216797e-01 -9.438464045524597168e-02 -1.390940427780151367e+00 7.079228162765502930e-01 1.267152726650238037e-01 -1.173090338706970215e+00 -1.121850132942199707e+00 -1.312314271926879883e+00 -6.815752387046813965e-01 -6.089145541191101074e-01 6.510932743549346924e-02 -7.553251981735229492e-01 -1.891541332006454468e-01 -1.623604893684387207e-01 -2.005154639482498169e-01 -1.034583687782287598e+00 -1.674868613481521606e-01 -1.413199663162231445e+00 -1.062546372413635254e+00 -1.075901627540588379e+00 -2.456378936767578125e-02 3.673285245895385742e-01 -6.741349697113037109e-01 7.911432981491088867e-01 -7.538154125213623047e-01 2.887792587280273438e-01 7.792697548866271973e-01 -4.429424703121185303e-01 -1.406824111938476562e+00 8.118886947631835938e-01 4.058437347412109375e-01 4.351579248905181885e-01 -1.634864091873168945e+00 -2.728174626827239990e-01 2.654437124729156494e-01 -2.631662786006927490e-01 -1.478990435600280762e+00 5.977600812911987305e-01 -1.056793570518493652e+00
-6.918466091156005859e-01 -4.783481359481811523e-01 4.176587760448455811e-01 4.463112354278564453e-01 -1.900449991226196289e+00 -3.940998613834381104e-01 -1.377704858779907227e+00 2.644171118736267090e-01 -1.594961166381835938e+00 -1.713418602943420410e+00 -2.443371713161468506e-01 -1.783966720104217529e-01 2.889994084835052490e-01 1.460321694612503052e-01 -6.246094703674316406e-01 -1.116610288619995117e+00 4.947995245456695557e-01 3.553332015872001648e-02 6.866439580917358398e-01 -9.152853488922119141e-02 -6.006057262420654297e-01 6.217327117919921875e-01 2.046291679143905640e-01 -9.144265204668045044e-02 -1.363244295120239258e+00 6.128128170967102051e-01 -2.318239537999033928e-03 -5.428857803344726562e-01 -1.401220202445983887e+00 1.548660635948181152e+00 1.425187587738037109e+00 -4.420746862888336182e-02 1.096430659294128418e+00 8.904877901077270508e-01 7.817704081535339355e-01 2.418839484453201294e-01 -1.686144173145294189e-01 -1.449992656707763672e+00 9.671700596809387207e-01 6.949040889739990234e-01 -1.437879681587219238e+00 -3.175455331802368164e-01 -1.091112136840820312e+00 6.676478777080774307e-03 2.903248965740203857e-01 -1.009657382965087891e+00 3.046823292970657349e-02 4.769302010536193848e-01 6.341286301612854004e-01 7.265906929969787598e-01 -7.084689140319824219e-01 1.478179693222045898e+00 -1.651060938835144043e+00 -3.192331194877624512e-01 -5.616102814674377441e-01 -1.324389934539794922e+00 -5.721288546919822693e-02 -1.093304276466369629e+00 -1.313997745513916016e+00 3.196632489562034607e-02 8.948017358779907227e-01 -6.840023398399353027e-01 -1.423197031021118164e+00 -9.401433467864990234e-01 -7.360306978225708008e-01 -7.966493368148803711e-01 -1.377872467041015625e+00 -5.333056449890136719e-01 -6.094335913658142090e-01 -1.875574141740798950e-01 -4.612245559692382812e-01 9.602084755897521973e-01 1.635798811912536621e+00 1.464365124702453613e+00 -6.834176182746887207e-01 -5.780530571937561035e-01 -1.252905011177062988e+00 -1.607103466987609863e+00 -1.764087080955505371e+00 -1.470206499099731445e+00 9.440033435821533203e-01 6.658966541290283203e-01 7.751506567001342773e-02 9.927731752395629883e-01 1.132037878036499023e+00 2.118539810180664062e-01 7.067958116531372070e-01 1.162155151367187500e+00 1.463127017021179199e+00 4.220239818096160889e-01 1.390075087547302246e+00 4.939138293266296387e-01 9.715539813041687012e-01 5.631391406059265137e-01 8.923856019973754883e-01 -9.057556986808776855e-01 2.532584406435489655e-02 1.132574200630187988e+00 -5.771269202232360840e-01 1.478070378303527832e+00 1.072209954261779785e+00 7.229942083358764648e-01 1.358654618263244629e+00 7.200388312339782715e-01 9.987667798995971680e-01 1.140002965927124023e+00 -2.156721651554107666e-01 8.760886788368225098e-01 4.078267514705657959e-01 6.402215361595153809e-01 6.701641082763671875e-01 1.179838538169860840e+00 -2.110625952482223511e-01 -9.349903464317321777e-02 1.121307134628295898e+00 8.972749710083007812e-01 1.007638931274414062e+00 1.067217707633972168e+00 1.535751700401306152e+00 -8.672474026679992676e-01 -1.720383644104003906e+00 -1.153358340263366699e+00 -9.828935265541076660e-01 -5.799127817153930664e-01 5.414745211601257324e-01 9.655114412307739258e-01 5.778179764747619629e-01 -7.515164017677307129e-01 2.199412286281585693e-01 6.755220144987106323e-02 1.040523529052734375e+00 -2.187681794166564941e-01 -9.426892995834350586e-01 -2.260906845331192017e-01 -1.021116137504577637e+00 -2.050229907035827637e-01 7.893979549407958984e-02 6.941252350807189941e-01 1.230611205101013184e+00 7.106124162673950195e-01 7.637623548507690430e-01 -4.600476324558258057e-01 8.790329098701477051e-01 1.175142168998718262e+00 -1.166750416159629822e-01 -9.262913465499877930e-01 8.918917775154113770e-01 1.134452462196350098e+00 -6.130440235137939453e-01 8.551418036222457886e-02 8.872356414794921875e-01 8.682364225387573242e-02 -3.214591145515441895e-01 4.095235094428062439e-02 -3.086497783660888672e-01 -6.924486756324768066e-01 -1.322541117668151855e+00 -1.833173632621765137e-01 1.350898742675781250e+00 3.358168601989746094e-01 -1.559055447578430176e-01 9.695765376091003418e-01 2.408421784639358521e-01 3.090747073292732239e-02 -4.443112015724182129e-01 -1.028573274612426758e+00 2.276238054037094116e-01 -2.309569120407104492e-01 2.121884524822235107e-01 3.397161960601806641e-01 -5.539139509201049805e-01 -1.312215328216552734e+00 4.418262243270874023e-01 -3.624808788299560547e-01 1.156354427337646484e+00 1.497727990150451660e+00 -5.869351625442504883e-01 1.440016925334930420e-01 1.329265117645263672e+00 6.840992569923400879e-01 -1.026770591735839844e+00 -6.847890466451644897e-02 -4.146879911422729492e-01 -1.169833302497863770e+00 -8.885776996612548828e-01 9.577335119247436523e-01 -1.783474683761596680e+00 -1.301636219024658203e+00 -1.795678853988647461e+00 3.389544785022735596e-01 -5.547925233840942383e-01 -1.405028343200683594e+00 -8.233615756034851074e-02 2.335400581359863281e-01 -5.049008131027221680e-01 -3.181577026844024658e-01 -1.667014360427856445e-01 7.319708168506622314e-02 9.888842105865478516e-01 -2.046699672937393188e-01
-6.020868420600891113e-01 -3.472705557942390442e-02 8.720228672027587891e-01 -3.126349151134490967e-01 -5.245980024337768555e-01 -1.418189167976379395e+00 -7.474424242973327637e-01 5.869518518447875977e-01 -6.483280062675476074e-01 2.350997030735015869e-01 -1.649975895881652832e+00 -8.552727699279785156e-01 4.123290777206420898e-01 -1.224651336669921875e+00 -1.327363729476928711e+00 -8.585444688796997070e-01 -1.119396567344665527e+00 -7.753637433052062988e-01 6.185270547866821289e-01 -1.038252353668212891e+00 -6.704788804054260254e-01 1.892236471176147461e-01 -9.470040798187255859e-01 -1.060806512832641602e+00 -1.186761736869812012e+00 7.114265561103820801e-01 3.726737201213836670e-01 -6.859006285667419434e-01 -4.135148227214813232e-02 -2.918594777584075928e-01 1.798892736434936523e+00 -7.546831369400024414e-01 2.764846980571746826e-01 1.083510741591453552e-01 -7.974303364753723145e-01 -1.146972775459289551e+00 -1.909082770347595215e+00 -9.867295026779174805e-01 -1.214047789573669434e+00 -3.469395339488983154e-01 -4.039837718009948730e-01 4.862454235553741455e-01 -1.207277178764343262e+00 3.577173501253128052e-02 -6.477886438369750977e-01 -1.281771659851074219e+00 1.352575063705444336e+00 8.615344762802124023e-01 9.449363946914672852e-01 1.391866505146026611e-01 1.560540944337844849e-01 -6.095153093338012695e-01 -1.176600456237792969e+00 -1.194485306739807129e+00 -2.844410836696624756e-01 -1.331359982490539551e+00 -2.542014420032501221e-01 -3.893829286098480225e-01 -5.845521092414855957e-01 3.443123400211334229e-01 3.423041999340057373e-01 1.245084762573242188e+00 1.387259840965270996e+00 3.290329277515411377e-01 -6.141400337219238281e-01 5.739591121673583984e-01 9.811285138130187988e-01 -7.505143880844116211e-01 -3.256497681140899658e-01 -2.153357028961181641e+00 -7.276221513748168945e-01 5.010221004486083984e-01 7.342112064361572266e-01 -9.083682894706726074e-01 -6.608092784881591797e-01 7.195351719856262207e-01 -5.227140784263610840e-01 -2.664589583873748779e-01 -2.977882921695709229e-01 -8.314158320426940918e-01 2.096717208623886108e-01 1.043787598609924316e+00 -3.707171976566314697e-02 1.986910343170166016e+00 2.095269680023193359e+00 3.476556241512298584e-01 7.673634290695190430e-01 6.185178756713867188e-01 7.187740504741668701e-02 1.318583190441131592e-01 2.555973827838897705e-01 1.430400252342224121e+00 -6.343794465065002441e-01 -1.273341059684753418e+00 1.293253619223833084e-02 -5.686324238777160645e-01 1.492341399192810059e+00 1.486330389976501465e+00 6.139242649078369141e-01 1.435916066169738770e+00 -3.396338522434234619e-01 -3.171788156032562256e-01 -1.577797085046768188e-01 -2.304315119981765747e-01 1.041293621063232422e+00 4.592143595218658447e-01 6.260449290275573730e-01 -2.006419152021408081e-01 3.567840456962585449e-01 6.373935937881469727e-02 1.239188313484191895e+00 4.665260910987854004e-01 6.800709962844848633e-01 -9.853028655052185059e-01 -2.629568614065647125e-02 -8.741002678871154785e-01 1.511487841606140137e+00 1.436001420021057129e+00 9.488261938095092773e-01 -8.744700811803340912e-03 -2.912187576293945312e-01 -7.838987708091735840e-01 1.986405968666076660e+00 8.943227529525756836e-01 -2.795163691043853760e-01 5.530231595039367676e-01 -1.015177369117736816e+00 2.073964625597000122e-01 1.520129919052124023e+00 -1.607799291610717773e+00 -6.018814444541931152e-01 -5.943461656570434570e-01 2.384444624185562134e-01 6.380512118339538574e-01 -5.923439264297485352e-01 -4.778909087181091309e-01 -5.399487018585205078e-01 -5.387403368949890137e-01 -2.849491834640502930e-01 -1.242335796356201172e+00 -1.986119627952575684e+00 -8.591076731681823730e-02 1.832366287708282471e-01 3.987354040145874023e-01 -5.366340279579162598e-01 1.053077697753906250e+00 -4.385744929313659668e-01 7.291619777679443359e-01 -3.473159074783325195e-01 -6.596484780311584473e-01 1.661072254180908203e+00 -3.586726486682891846e-01 -1.468281388282775879e+00 -7.635579109191894531e-01 -9.312064647674560547e-01 -1.293144941329956055e+00 -4.996987283229827881e-01 -8.997191190719604492e-01 1.700441539287567139e-01 1.014733314514160156e+00 7.652009129524230957e-01 1.128939628601074219e+00 -5.232974290847778320e-01 5.720589160919189453e-01 -1.658468008041381836e+00 1.440866947174072266e+00 -5.136258602142333984e-01 9.039102792739868164e-01 -8.783073425292968750e-01 9.676308035850524902e-01 6.649301946163177490e-02 4.137580096721649170e-01 -2.335119247436523438e-01 6.646919846534729004e-01 1.478636264801025391e+00 8.034955263137817383e-01 5.355460643768310547e-01 1.044505834579467773e+00 1.074616551399230957e+00 -7.354564666748046875e-01 1.534499526023864746e+00 2.190393656492233276e-01 -7.095790505409240723e-01 1.561556816101074219e+00 9.986470341682434082e-01 1.608838915824890137e+00 -5.802896618843078613e-01 -8.820566534996032715e-01 1.007249474525451660e+00 1.354464650154113770e+00 1.321303725242614746e+00 3.804843723773956299e-01 -6.529244184494018555e-01 4.651316702365875244e-01 -9.790579676628112793e-01 -4.511936008930206299e-01 7.014195919036865234e-01 7.004867196083068848e-01 1.356261730194091797e+00 -6.762058734893798828e-01
9.961599111557006836e-02 5.289254188537597656e-01 7.050167024135589600e-02 1.943312734365463257e-01 1.476021289825439453e+00 1.115748286247253418e+00 5.373389720916748047e-01 2.921171784400939941e-01 9.327086806297302246e-01 -6.793485879898071289e-01 -6.142442226409912109e-01 -5.208104252815246582e-01 1.114150285720825195e+00 1.152929663658142090e+00 1.488235950469970703e+00 3.780433833599090576e-01 1.008409857749938965e+00 2.603357434272766113e-01 8.084280788898468018e-02 4.223587810993194580e-01 -9.060469865798950195e-01 -1.322179198265075684e+00 -8.700488209724426270e-01 -4.224603176116943359e-01 -9.134245514869689941e-01 -2.930144667625427246e-01 1.837133243680000305e-02 -8.054832816123962402e-01 1.210755944252014160e+00 1.493403911590576172e-01 3.631935417652130127e-01 6.407137215137481689e-02 -9.650509059429168701e-02 -2.226984500885009766e-01 -1.251687645912170410e+00 -1.061223030090332031e+00 -1.728849709033966064e-01 7.046675086021423340e-01 1.109288215637207031e+00 -1.858370900154113770e+00 1.298420071601867676e+00 -7.999518513679504395e-02 8.874524831771850586e-01 1.495041370391845703e+00 1.155261754989624023e+00 1.655406117439270020e+00 -2.776707708835601807e-01 6.597043275833129883e-01 1.016342714428901672e-01 -3.998313248157501221e-01 1.488360911607742310e-01 4.190250337123870850e-01 -3.861859142780303955e-01 8.844343572854995728e-02 -1.519108712673187256e-01 5.886742472648620605e-01 -3.118988275527954102e-01 -1.370885968208312988e+00 1.185554981231689453e+00 1.022843360900878906e+00 1.403112649917602539e+00 7.543009519577026367e-01 3.338680565357208252e-01 -1.114406824111938477e+00 1.723637104034423828e+00 -8.106378316879272461e-01 -4.997469782829284668e-01 -2.690394222736358643e-01 6.747644543647766113e-01 9.829031825065612793e-01 5.690203905105590820e-01 6.453601717948913574e-01 -2.179915606975555420e-01 1.666059374809265137e+00 1.646596550941467285e+00 1.646632313728332520e+00 8.494825959205627441e-01 1.128681421279907227e+00 1.321675777435302734e-01 -5.930033326148986816e-02 -4.462964460253715515e-02 2.450494915246963501e-01 -8.244273662567138672e-01 -1.266372352838516235e-01 1.245216488838195801e+00 1.027299642562866211e+00 -7.817049026489257812e-01 1.047097325325012207e+00 8.893614262342453003e-02 3.278882801532745361e-01 1.357401132583618164e+00 -9.619724750518798828e-01 3.650222122669219971e-01 -3.376441001892089844e-01 1.143709659576416016e+00 -2.713355720043182373e-01 -2.720837295055389404e-02 -8.090225458145141602e-01 7.328937947750091553e-02 1.893244385719299316e-01 1.449363112449645996e+00 3.885378539562225342e-01 -5.027621984481811523e-01 -8.921517133712768555e-01 5.163333415985107422e-01 -6.112023591995239258e-01 -1.198841094970703125e+00 -2.586228251457214355e-01 -1.124553322792053223e+00 -1.247877836227416992e+00 2.908411324024200439e-01 1.305626481771469116e-01 -8.619678020477294922e-01 5.193727612495422363e-01 -6.758301258087158203e-01 -6.626606732606887817e-02 -3.787773251533508301e-01 -6.504906415939331055e-01 -2.505597174167633057e-01 3.598409593105316162e-01 -1.222806096076965332e+00 -8.186989426612854004e-01 -2.131954431533813477e-01 -1.412954330444335938e-01 -4.103713333606719971e-01 -9.193280935287475586e-01 4.521133005619049072e-01 7.503174543380737305e-01 2.587689757347106934e-01 5.473767593502998352e-02 5.172318816184997559e-01 3.751972317695617676e-01 8.101846575736999512e-01 -9.158697128295898438e-01 -5.994453430175781250e-01 -1.070447415113449097e-01 -6.646695733070373535e-01 4.928782954812049866e-02 6.868739724159240723e-01 1.652802824974060059e+00 1.228031158447265625e+00 -1.134570240974426270e+00 -6.508385539054870605e-01 -2.200316041707992554e-01 -1.189041852951049805e+00 -1.350099086761474609e+00 -4.132108986377716064e-01 -7.489202618598937988e-01 8.969879150390625000e-01 4.102513790130615234e-01 -7.021345943212509155e-02 -5.966771841049194336e-01 -2.900164015591144562e-02 -1.035091996192932129e+00 -4.057664871215820312e-01 -1.720582604408264160e+00 -2.929902374744415283e-01 6.776261925697326660e-01 -9.839683771133422852e-01 -4.418199062347412109e-01 -1.374305933713912964e-01 -1.731583714485168457e+00 -9.989001154899597168e-01 3.287839293479919434e-01 -7.592990994453430176e-01 1.455653011798858643e-01 1.097532361745834351e-01 9.611562639474868774e-02 8.445826768875122070e-01 -3.505553305149078369e-01 -9.016350507736206055e-01 -8.881220221519470215e-01 -4.714111238718032837e-02 -5.745815634727478027e-01 -6.718953847885131836e-01 -1.028975248336791992e-01 -1.384161710739135742e+00 2.264866046607494354e-02 -8.918693065643310547e-01 -4.589082002639770508e-01 -4.381516277790069580e-01 -5.978342294692993164e-01 -9.413680434226989746e-01 -5.417753010988235474e-03 -1.088807582855224609e-01 -7.076295614242553711e-01 -1.389379978179931641e+00 -2.524242103099822998e-01 8.593884110450744629e-01 6.977439522743225098e-01 -1.974066197872161865e-01 8.626587390899658203e-01 4.357641041278839111e-01 5.587513446807861328e-01 3.463796079158782959e-01 2.018030136823654175e-01 3.439502120018005371e-01 6.712321639060974121e-01 -1.188152790069580078e+00 -1.058236360549926758e+00
2.629257738590240479e-01 -5.897324085235595703e-01 -1.356796026229858398e+00 -7.326486706733703613e-01 3.108004331588745117e-01 1.758558988571166992e+00 7.356247305870056152e-01 1.909433007240295410e-01 -1.434049487113952637e+00 -1.130081176757812500e+00 -1.595511078834533691e+00 7.919232845306396484e-01 -1.183440815657377243e-02 -7.858689427375793457e-01 1.042431354522705078e+00 -4.757649898529052734e-01 3.350296616554260254e-02 -1.475773692131042480e+00 -3.244442343711853027e-01 -5.125241354107856750e-02 -1.673483490943908691e+00 -1.116365492343902588e-01 -1.256515383720397949e+00 -7.923433184623718262e-01 1.282618045806884766e+00 -1.171703338623046875e+00 2.819491922855377197e-01 1.149614810943603516e+00 9.748657345771789551e-01 -5.354768037796020508e-01 -4.178699851036071777e-01 -4.484713077545166016e-01 -7.380180954933166504e-01 1.933182589709758759e-02 6.121137738227844238e-01 4.020261168479919434e-01 1.025843977928161621e+00 -9.265992045402526855e-01 -4.649621248245239258e-01 5.389920901507139206e-03 9.504678845405578613e-01 -1.383433580398559570e+00 -7.361682653427124023e-01 -1.104462742805480957e+00 6.915791630744934082e-01 -3.459034562110900879e-01 -2.620299458503723145e-01 -7.829422354698181152e-01 -5.319318175315856934e-01 -6.143287569284439087e-02 1.254778385162353516e+00 8.073866367340087891e-01 -2.968586683273315430e-01 5.540810227394104004e-01 -4.733340814709663391e-02 7.735674381256103516e-01 -1.133485555648803711e+00 4.742478132247924805e-01 6.946811676025390625e-01 -4.923224449157714844e-01 -1.757566809654235840e+00 -3.730823695659637451e-01 -4.282148480415344238e-01 -6.918014287948608398e-01 -9.847252368927001953e-01 5.305294394493103027e-01 2.322613894939422607e-01 1.865666657686233521e-01 -5.921674966812133789e-01 6.900907754898071289e-01 -9.930900335311889648e-01 -2.259500920772552490e-01 -1.171174421906471252e-01 -6.677593588829040527e-01 -5.330830812454223633e-01 -3.425121903419494629e-01 -4.897176846861839294e-02 -1.288713932037353516e+00 4.153680503368377686e-01 2.869673669338226318e-01 -9.715310335159301758e-01 -5.604935288429260254e-01 1.206883668899536133e+00 -1.726298332214355469e-01 -1.850178122520446777e+00 -9.394755363464355469e-01 7.434757351875305176e-01 1.804212294518947601e-02 -9.063195586204528809e-01 -4.799968600273132324e-01 5.283910632133483887e-01 -3.106577396392822266e-01 7.804320454597473145e-01 7.748421430587768555e-01 -4.349271357059478760e-01 9.624946713447570801e-01 7.004637122154235840e-01 7.601293921470642090e-01 -1.130429983139038086e+00 6.525416374206542969e-01 1.006230935454368591e-01 7.597613334655761719e-02 8.033164739608764648e-01 -4.730132520198822021e-01 -9.872055649757385254e-01 -2.873623371124267578e-01 1.533952116966247559e+00 4.570238292217254639e-01 6.843302249908447266e-01 4.654869139194488525e-01 -3.689153492450714111e-01 1.297234058380126953e+00 1.109832644462585449e+00 -4.502279758453369141e-01 2.573499381542205811e-01 -6.605851650238037109e-02 -7.833445817232131958e-02 3.569905757904052734e-01 3.469761088490486145e-02 1.001058459281921387e+00 -1.308744251728057861e-01 -2.791050970554351807e-01 9.998477101325988770e-01 -1.209903508424758911e-01 6.503058671951293945e-01 -2.640879154205322266e-01 -1.444170355796813965e+00 7.997932434082031250e-01 9.230613112449645996e-01 -5.792579650878906250e-01 1.386633038520812988e+00 8.882281780242919922e-01 -1.064446847885847092e-02 8.370937108993530273e-01 -8.455342054367065430e-01 1.732394695281982422e-01 6.931107044219970703e-01 -1.878535747528076172e+00 -6.689413189888000488e-01 -2.342588454484939575e-01 9.410773515701293945e-01 -1.460992693901062012e+00 -9.125517010688781738e-01 1.608814716339111328e+00 3.422913551330566406e-01 4.737592637538909912e-01 -1.035483360290527344e+00 -7.383546829223632812e-01 -5.352827906608581543e-01 3.789777457714080811e-01 -6.146256327629089355e-01 -1.078564167022705078e+00 6.705271005630493164e-01 1.026040554046630859e+00 -1.935058832168579102e-01 -3.695482388138771057e-02 2.254846096038818359e-01 -3.097539246082305908e-01 -7.340872883796691895e-01 4.615094363689422607e-01 -4.086805284023284912e-01 -6.538089513778686523e-01 6.132040619850158691e-01 6.446483731269836426e-01 -1.396603226661682129e+00 1.459589719772338867e+00 6.826321035623550415e-02 1.146135091781616211e+00 1.997504383325576782e-01 -3.654161989688873291e-01 3.611394166946411133e-01 -5.198746919631958008e-01 3.941617906093597412e-01 7.270245552062988281e-01 9.878023713827133179e-02 4.258010983467102051e-01 -1.152726411819458008e+00 2.194074392318725586e+00 -5.118647217750549316e-01 1.272198110818862915e-01 -4.965460002422332764e-01 7.381301522254943848e-01 -1.385478258132934570e+00 1.427213191986083984e+00 -5.510043501853942871e-01 1.397980213165283203e+00 1.354996442794799805e+00 -4.107035398483276367e-01 1.765456050634384155e-01 3.226475045084953308e-02 6.568182706832885742e-01 -2.227366715669631958e-01 1.456566095352172852e+00 9.710376858711242676e-01 -5.223963856697082520e-01 -2.141088843345642090e-01 1.639922976493835449e+00 5.637130886316299438e-02 5.798648297786712646e-02 7.899704575538635254e-01
-1.062022328376770020e+00 8.584703803062438965e-01 -1.316296696662902832e+00 1.932768076658248901e-01 7.049968242645263672e-01 -6.714887022972106934e-01 -7.822954654693603516e-01 -8.314283490180969238e-01 4.670101702213287354e-01 9.671202898025512695e-01 6.679074764251708984e-01 -1.097162485122680664e+00 -6.694218516349792480e-01 -1.091009974479675293e+00 4.398884177207946777e-01 -4.747148454189300537e-01 -7.583023905754089355e-01 6.130301356315612793e-01 -1.111163020133972168e+00 -1.282621920108795166e-01 -7.406072020530700684e-01 -5.373799204826354980e-01 -5.330296754837036133e-01 -4.332355856895446777e-01 -9.074574112892150879e-01 1.051557064056396484e+00 -3.745457530021667480e-01 -4.969190955162048340e-01 -5.388031527400016785e-02 1.822685480117797852e+00 -6.213500499725341797e-01 -4.338431358337402344e-01 9.843965172767639160e-01 -6.893798112869262695e-01 -9.752395153045654297e-01 -3.646110296249389648e-01 1.056019663810729980e+00 1.126375123858451843e-01 -1.529123187065124512e-01 5.203314870595932007e-02 -1.683963060379028320e+00 2.053409218788146973e-01 2.512734234333038330e-01 -1.156622409820556641e+00 -8.057785034179687500e-01 -1.582100838422775269e-01 -4.077556431293487549e-01 1.499833166599273682e-01 -2.843833863735198975e-01 2.220579832792282104e-01 -5.342519879341125488e-01 -1.461856126785278320e+00 -1.722028136253356934e+00 -1.566220760345458984e+00 -1.301842570304870605e+00 -1.994098067283630371e+00 -7.083079814910888672e-01 1.149688482284545898e+00 4.632620513439178467e-01 -1.512393236160278320e+00 -3.078491091728210449e-01 -8.997412323951721191e-01 -1.730824589729309082e+00 -7.415953874588012695e-01 -6.269224882125854492e-01 -2.224897623062133789e+00 -3.023412823677062988e-01 -1.252322554588317871e+00 -6.367017030715942383e-01 -2.935818731784820557e-01 5.892790555953979492e-01 7.553582191467285156e-01 -1.505524277687072754e+00 -8.489851951599121094e-01 -1.168334245681762695e+00 -1.512715339660644531e+00 -5.086256265640258789e-01 1.738730221986770630e-01 -5.852709412574768066e-01 -1.915382385253906250e+00 7.618057727813720703e-01 1.675719141960144043e+00 1.358280658721923828e+00 -1.167550325393676758e+00 7.723744511604309082e-01 1.249877452850341797e+00 1.168430805206298828e+00 1.760150909423828125e+00 -7.678976058959960938e-01 -5.958186089992523193e-02 1.583097815513610840e+00 3.559910655021667480e-01 8.831509351730346680e-01 -3.351039588451385498e-01 -4.578908905386924744e-02 1.167803049087524414e+00 8.952068090438842773e-01 7.711856365203857422e-01 4.973652362823486328e-01 5.516952872276306152e-01 1.677903532981872559e+00 1.758430600166320801e+00 1.005199193954467773e+00 -9.240069985389709473e-01 5.340905189514160156e-01 1.954436182975769043e+00 1.199611067771911621e+00 1.150061607360839844e+00 1.741367936134338379e+00 1.788977086544036865e-01 1.511375308036804199e+00 1.057647585868835449e+00 1.292741775512695312e+00 1.599233597517013550e-01 6.787373423576354980e-01 1.431388735771179199e+00 1.514339923858642578e+00 1.577719449996948242e+00 1.193683505058288574e+00 1.339531779289245605e+00 -8.756398558616638184e-01 1.042481541633605957e+00 -1.241852879524230957e+00 -1.123290181159973145e+00 -1.174480795860290527e+00 1.725918650627136230e+00 4.394323825836181641e-01 -2.321305684745311737e-03 -4.010481238365173340e-01 -1.111127138137817383e+00 -3.398412168025970459e-01 5.231646299362182617e-01 -6.983153820037841797e-01 -1.262346148490905762e+00 -3.219333291053771973e-01 -1.904715746641159058e-01 -7.960984110832214355e-01 -5.198377370834350586e-01 1.062373876571655273e+00 1.852264702320098877e-01 9.047636389732360840e-01 1.283259242773056030e-01 -3.680896759033203125e-01 -7.435743212699890137e-01 6.609826683998107910e-01 -7.864495515823364258e-01 -2.756118029356002808e-02 -3.917595148086547852e-01 -4.769830703735351562e-01 -2.724699974060058594e-01 -9.067867398262023926e-01 -6.059901118278503418e-01 -2.278737127780914307e-01 5.250747799873352051e-01 -9.583596587181091309e-01 3.520761132240295410e-01 -1.030723571777343750e+00 -5.561822652816772461e-01 7.805086374282836914e-01 1.563486009836196899e-01 -8.198762536048889160e-01 1.972077041864395142e-01 2.672134041786193848e-01 1.400553226470947266e+00 -2.677237093448638916e-01 4.735141247510910034e-02 2.093164324760437012e-01 -1.155343055725097656e-01 3.001515269279479980e-01 7.929304838180541992e-01 -6.904469132423400879e-01 -6.318970322608947754e-01 1.488403320312500000e+00 -1.607587814331054688e+00 -4.339397549629211426e-01 -1.256322860717773438e+00 6.290701031684875488e-01 4.661642014980316162e-01 2.904546856880187988e-01 1.195012807846069336e+00 5.444530844688415527e-01 2.058113366365432739e-01 1.555419921875000000e+00 8.818963170051574707e-01 1.545739650726318359e+00 -9.810186624526977539e-01 8.009185791015625000e-01 7.408276200294494629e-01 -7.626554369926452637e-01 -3.753305971622467041e-01 3.461889624595642090e-01 2.226789146661758423e-01 2.195315212011337280e-01 7.681281566619873047e-01 -7.770087718963623047e-01 1.076378583908081055e+00 1.167146444320678711e+00 6.640447378158569336e-01 1.876064538955688477e-01 9.790033698081970215e-01
