-2.940914630889892578e+00 -7.110217809677124023e-01 -2.206064462661743164e+00 -1.178502321243286133e+00 -2.822906970977783203e+00 -3.068228721618652344e+00 7.366264462471008301e-01 -1.428237318992614746e+00 2.809854745864868164e+00 -1.172842159867286682e-01 -3.798162937164306641e+00 -1.712040066719055176e+00 2.431850194931030273e+00 -1.779880523681640625e+00 -4.573310017585754395e-01 2.467090368270874023e+00 2.371946811676025391e+00 -1.237350106239318848e-01 -3.020636320114135742e+00 1.019856855273246765e-01 -1.202369451522827148e+00 -1.883672177791595459e-01 2.062548160552978516e+00 1.586070775985717773e+00 -1.920535922050476074e+00 -1.868319034576416016e+00 2.844665288925170898e+00 -1.749727129936218262e+00 3.087115287780761719e-01 1.985206604003906250e+00 -5.827066421508789062e+00 2.283046394586563110e-02 8.073779940605163574e-01 4.609831333160400391e+00 2.190763473510742188e+00 -1.241135120391845703e+00 2.081252574920654297e+00 -3.591509342193603516e+00 3.540902212262153625e-02 -1.466371774673461914e+00 -3.275572061538696289e+00 3.692039847373962402e-01 4.135020732879638672e+00 8.992290496826171875e-01 2.817241191864013672e+00 2.411779314279556274e-01 -2.819721460342407227e+00 -4.445880413055419922e+00 1.654775291681289673e-01 1.788313150405883789e+00
-2.859283447265625000e+00 1.369719386100769043e+00 -3.875330448150634766e+00 6.321324110031127930e-01 1.681855082511901855e+00 -1.813102126121520996e+00 -4.702043056488037109e+00 -4.866390228271484375e-01 -2.059065103530883789e+00 -1.404880881309509277e+00 -1.932836174964904785e+00 -1.510065317153930664e+00 3.014774799346923828e+00 -2.057551145553588867e+00 -3.076219558715820312e-01 -2.170737266540527344e+00 8.636416196823120117e-01 3.792122602462768555e-01 -1.224656850099563599e-01 -1.454247236251831055e+00 -2.868315696716308594e+00 -1.903257489204406738e+00 -1.177191019058227539e+00 2.982765197753906250e+00 -4.824005126953125000e+00 -5.280526280403137207e-01 2.201003551483154297e+00 -1.200496077537536621e+00 -1.791355729103088379e+00 1.425524830818176270e+00 -2.510716199874877930e+00 2.726204156875610352e+00 2.813695669174194336e+00 1.192834496498107910e+00 2.754075765609741211e+00 1.278413176536560059e+00 -3.358648777008056641e+00 -2.660913228988647461e+00 -2.233798265457153320e+00 4.860540390014648438e+00 5.623785257339477539e-01 -9.570546746253967285e-01 2.116852760314941406e+00 -1.638953328132629395e+00 -5.640709996223449707e-01 -3.012386523187160492e-02 2.273358821868896484e+00 -9.065673351287841797e-01 7.474312186241149902e-01 3.443858385086059570e+00
-3.307527065277099609e+00 -5.428779721260070801e-01 7.871350049972534180e-01 8.833871781826019287e-02 -1.726337194442749023e+00 1.259363412857055664e+00 5.062418580055236816e-01 9.029276967048645020e-01 2.762221097946166992e+00 1.966687083244323730e+00 -4.839388847351074219e+00 -3.858940839767456055e+00 2.393252849578857422e+00 -2.840055227279663086e+00 -3.339296102523803711e+00 -2.118549346923828125e+00 -1.323850274085998535e+00 5.522921308875083923e-02 -1.878618240356445312e+00 8.635501563549041748e-02 -2.145380735397338867e+00 2.373526811599731445e+00 1.588147044181823730e+00 -2.425743341445922852e+00 -9.669113159179687500e-01 3.262658596038818359e+00 -3.736208975315093994e-01 -3.448852777481079102e+00 -3.496642112731933594e+00 2.376634329557418823e-01 1.257922053337097168e+00 -2.284716606140136719e+00 3.011813402175903320e+00 -6.019604802131652832e-01 1.778561592102050781e+00 -2.595087289810180664e+00 -1.013619780540466309e+00 -5.790562033653259277e-01 2.152609229087829590e-01 2.575737237930297852e+00 1.586837053298950195e+00 -1.471543073654174805e+00 1.246684551239013672e+00 -1.590520262718200684e+00 1.451834797859191895e+00 -1.063930034637451172e+00 -4.830210685729980469e+00 3.431081533432006836e+00 4.396005570888519287e-01 1.744084000587463379e+00
1.099905371665954590e+00 -2.874230444431304932e-01 9.116114974021911621e-01 -3.617630720138549805e+00 -2.274019241333007812e+00 8.744250535964965820e-01 -2.862257719039916992e+00 5.506441593170166016e-01 5.354923725128173828e+00 2.869974374771118164e+00 -1.117228046059608459e-01 -3.169536590576171875e-01 1.197127699851989746e+00 -2.989618301391601562e+00 -1.325316786766052246e+00 -3.452371835708618164e+00 -4.022418975830078125e+00 4.236998558044433594e+00 -3.922776699066162109e+00 -1.751854419708251953e+00 3.597104310989379883e+00 -1.655762672424316406e+00 3.638229131698608398e+00 1.966160088777542114e-01 -1.230381250381469727e+00 2.419657230377197266e+00 -2.600839614868164062e+00 -4.696963310241699219e+00 -6.737935543060302734e-01 1.316865682601928711e+00 -1.755847036838531494e-01 2.572871208190917969e+00 1.145404647104442120e-03 1.016547083854675293e+00 4.004650115966796875e+00 -1.782277941703796387e+00 -3.229568481445312500e+00 3.496401384472846985e-02 1.351178884506225586e+00 1.195091009140014648e+00 -6.833905577659606934e-01 -1.783672124147415161e-01 -7.420181632041931152e-01 -1.339170098304748535e+00 -4.164568424224853516e+00 -1.574425339698791504e+00 -3.306484937667846680e+00 -9.497106671333312988e-01 1.843880712985992432e-01 1.348569869995117188e+00
2.429980039596557617e+00 -1.173791766166687012e+00 -4.054971039295196533e-01 2.697675466537475586e+00 -3.389793932437896729e-01 3.146181821823120117e+00 -9.486344456672668457e-01 3.108830928802490234e+00 -1.253372877836227417e-01 -3.069276809692382812e-01 -3.173686981201171875e+00 -1.890643239021301270e+00 4.330398559570312500e+00 -2.306017875671386719e+00 -1.565785527229309082e+00 1.205395817756652832e+00 -2.984878063201904297e+00 -3.360390901565551758e+00 7.429223060607910156e-01 -4.009278774261474609e+00 1.291291594505310059e+00 -2.493443250656127930e+00 2.467141628265380859e+00 -5.385005474090576172e-01 2.644419074058532715e-01 9.812810420989990234e-01 -1.666287422180175781e+00 -7.045868635177612305e-01 1.169175356626510620e-01 3.638038337230682373e-01 -1.039137363433837891e+00 -1.686901748180389404e-01 -3.035083532333374023e+00 4.297183990478515625e+00 2.513499021530151367e+00 1.911549806594848633e+00 -2.987355738878250122e-02 -2.991377830505371094e+00 -3.437381029129028320e+00 -4.347275495529174805e-01 -1.883181333541870117e+00 -4.285124301910400391e+00 3.067651510238647461e+00 -8.332840204238891602e-01 4.395757675170898438e+00 -3.231176853179931641e+00 -1.932148337364196777e-01 -1.675328016281127930e-01 -2.311778217554092407e-01 -2.870135068893432617e+00
-1.973350048065185547e+00 -3.996114492416381836e+00 -2.745084524154663086e+00 8.726454377174377441e-01 2.312280178070068359e+00 -1.377534151077270508e+00 8.314145207405090332e-01 2.940469741821289062e+00 -1.969614028930664062e+00 2.206290006637573242e+00 -1.507255792617797852e+00 -4.818314611911773682e-01 1.122639179229736328e+00 -4.236662864685058594e+00 1.893395543098449707e+00 1.207221865653991699e+00 1.452981352806091309e+00 -3.682863235473632812e+00 -2.200000286102294922e+00 1.602958083152770996e+00 -8.616594076156616211e-01 -6.599100232124328613e-01 5.447210788726806641e+00 -5.624412894248962402e-01 1.540015935897827148e-01 2.759179115295410156e+00 -5.171796679496765137e-01 -2.126213073730468750e+00 -5.850868821144104004e-01 -1.287310242652893066e+00 -1.856360673904418945e+00 -1.661637187004089355e+00 -9.074040055274963379e-01 1.591006278991699219e+00 2.886080503463745117e+00 -7.696170806884765625e-01 -2.865024328231811523e+00 -5.088476181030273438e+00 1.632938683032989502e-01 -2.651265382766723633e+00 -3.455860376358032227e+00 -2.249031782150268555e+00 1.774262905120849609e+00 5.261920094490051270e-01 -4.306903481483459473e-02 1.658089756965637207e+00 -7.833343148231506348e-01 2.411143779754638672e+00 5.006206989288330078e+00 -2.998056888580322266e+00
-8.458196520805358887e-01 1.840927839279174805e+00 -9.904719591140747070e-01 4.812316417694091797e+00 1.080965995788574219e+00 5.098192691802978516e-01 1.204898476600646973e+00 7.023595273494720459e-02 1.672037124633789062e+00 1.546339869499206543e+00 -4.133525371551513672e+00 -1.702954649925231934e+00 -1.014457821846008301e+00 -2.105309486389160156e+00 6.391025781631469727e-01 -8.752632737159729004e-01 -1.198013782501220703e+00 -1.051655173301696777e+00 -1.837351083755493164e+00 -1.351996421813964844e+00 -2.315577268600463867e+00 1.986194849014282227e+00 -1.202696084976196289e+00 1.671045780181884766e+00 -1.120366692543029785e+00 2.419907331466674805e+00 -1.422515034675598145e+00 3.750526309013366699e-01 5.201794147491455078e+00 -1.501754045486450195e+00 -2.227564573287963867e+00 -4.334958076477050781e+00 7.352431416511535645e-01 -1.336568117141723633e+00 1.775010377168655396e-01 -3.825809717178344727e+00 -8.892265558242797852e-01 -4.013954162597656250e+00 -3.172168254852294922e+00 2.865313291549682617e+00 -2.416837364435195923e-01 -1.654681324958801270e+00 3.315664291381835938e+00 -3.134449005126953125e+00 -1.221151471138000488e+00 -4.959398210048675537e-01 -3.210300445556640625e+00 1.138555765151977539e+00 2.964985847473144531e+00 3.096843481063842773e+00
-1.661128759384155273e+00 8.503133654594421387e-01 3.039153575897216797e+00 1.559097528457641602e+00 2.478387355804443359e+00 -1.380443334579467773e+00 -2.161124706268310547e+00 -1.064121007919311523e+00 -1.156127452850341797e+00 1.518668889999389648e+00 -2.606487751007080078e+00 8.249394297599792480e-01 3.241338253021240234e+00 -5.571496009826660156e+00 1.146659851074218750e+00 8.525369763374328613e-01 3.185788989067077637e-01 -9.261077046394348145e-01 -2.537962913513183594e+00 -2.078010559082031250e+00 -2.717736005783081055e+00 3.486640214920043945e+00 -1.013896703720092773e+00 -1.811649084091186523e+00 -4.744461178779602051e-01 -6.637807488441467285e-01 1.983747124671936035e+00 -1.199776530265808105e+00 -1.566163182258605957e+00 3.936389207839965820e+00 -1.197572797536849976e-01 -2.280474424362182617e+00 9.653416872024536133e-01 -2.715853214263916016e+00 1.838044762611389160e+00 1.950934529304504395e+00 -3.939943313598632812e+00 2.307750135660171509e-01 -2.802605032920837402e-01 3.791569709777832031e+00 5.785379409790039062e-01 1.805143058300018311e-01 3.849090576171875000e+00 -8.594428747892379761e-02 3.227482795715332031e+00 -3.815050125122070312e+00 -5.028707981109619141e+00 -4.372027873992919922e+00 -1.690987110137939453e+00 -2.901794195175170898e+00
-1.745202422142028809e+00 1.936284065246582031e+00 3.585242748260498047e+00 -6.170290708541870117e-01 9.461696147918701172e-01 1.014447927474975586e+00 1.989186406135559082e+00 -4.129589200019836426e-01 6.216404438018798828e-01 3.139943361282348633e+00 -2.691638469696044922e+00 1.597920060157775879e+00 6.800241470336914062e-01 -2.070583820343017578e+00 -1.009366154670715332e+00 -5.679158568382263184e-01 8.523252606391906738e-01 1.463628292083740234e+00 -9.067657589912414551e-01 -2.620063066482543945e+00 -2.064268589019775391e+00 -1.190676927566528320e+00 3.361394405364990234e+00 3.066574096679687500e+00 -4.291647911071777344e+00 5.425702929496765137e-01 -7.692948579788208008e-01 5.116658210754394531e-01 -8.959078192710876465e-01 4.166547298431396484e+00 -4.541406154632568359e+00 1.882620573043823242e+00 -2.808693170547485352e+00 1.098112761974334717e-01 1.579589605331420898e+00 -3.632948875427246094e+00 2.026377439498901367e+00 -2.573187828063964844e+00 1.592438936233520508e+00 -6.447066068649291992e-01 -6.142555713653564453e+00 -2.435070991516113281e+00 -1.225662231445312500e+00 8.812961578369140625e-01 -4.640876293182373047e+00 2.534373760223388672e+00 -3.591755390167236328e+00 -2.482185840606689453e+00 3.425272405147552490e-01 3.433555737137794495e-02
7.617412805557250977e-01 2.812251806259155273e+00 -3.220943212509155273e-01 -1.056677222251892090e+00 -1.837684512138366699e+00 -5.104082822799682617e-01 -1.640910029411315918e+00 3.796503305435180664e+00 -2.046764612197875977e+00 2.858771324157714844e+00 -3.129745960235595703e+00 -1.895276427268981934e+00 2.575071096420288086e+00 7.095759510993957520e-01 3.304908752441406250e+00 -2.930491209030151367e+00 -1.600236892700195312e+00 2.995132684707641602e+00 4.731740653514862061e-01 -1.583930701017379761e-01 -1.625469446182250977e+00 -1.084161043167114258e+00 6.129257678985595703e-01 -2.144056558609008789e+00 1.443627953529357910e+00 3.398712873458862305e+00 -6.193129420280456543e-01 -2.997993230819702148e+00 -1.687485694885253906e+00 2.333137989044189453e+00 -1.753204464912414551e+00 -4.442927241325378418e-01 7.266932129859924316e-01 1.999803662300109863e+00 -6.340525150299072266e-01 4.794543087482452393e-01 -2.556596994400024414e+00 -7.116363525390625000e+00 9.885262846946716309e-01 3.421802520751953125e+00 1.481491923332214355e+00 -8.500178456306457520e-01 1.425693750381469727e+00 -3.167221784591674805e+00 -2.387936592102050781e+00 1.000342249870300293e+00 -4.369039535522460938e+00 -9.449545145034790039e-01 -1.426287889480590820e+00 -3.020729780197143555e+00
-2.095477581024169922e-01 -2.295339822769165039e+00 -1.737670302391052246e-01 1.260782927274703979e-01 -3.843579769134521484e+00 -1.655788183212280273e+00 -1.587141752243041992e+00 -4.360813140869140625e+00 -5.409843921661376953e-01 2.778879165649414062e+00 -5.254958629608154297e+00 -6.878667473793029785e-01 1.119344592094421387e+00 -1.590829610824584961e+00 -7.287709712982177734e-01 -2.300548076629638672e+00 1.150145411491394043e+00 -2.490444421768188477e+00 -4.867137908935546875e+00 4.019762575626373291e-01 -2.752423286437988281e+00 -3.165881931781768799e-01 4.519917488098144531e+00 2.862609863281250000e+00 6.554183363914489746e-01 3.347680330276489258e+00 -1.945696026086807251e-01 5.046053528785705566e-01 -3.014056384563446045e-01 2.156557798385620117e+00 -3.700298547744750977e+00 1.132692694664001465e+00 -8.944925665855407715e-01 -9.741719365119934082e-01 -5.405268073081970215e-01 1.850401461124420166e-01 2.173712491989135742e+00 2.542721986770629883e+00 -4.153956413269042969e+00 2.621405124664306641e+00 -5.476428270339965820e-01 -1.591501593589782715e+00 6.054671287536621094e+00 -1.451645612716674805e+00 3.422371149063110352e+00 -1.286793470382690430e+00 -1.621254920959472656e+00 1.083958983421325684e+00 -8.741143345832824707e-01 -2.363727331161499023e+00
-2.580225944519042969e+00 9.935153126716613770e-01 8.604934811592102051e-01 -3.111887872219085693e-01 -1.882656097412109375e+00 -3.032502651214599609e+00 -3.368942499160766602e+00 2.638631105422973633e+00 -4.011624157428741455e-01 4.273236274719238281e+00 -2.879717588424682617e+00 -2.973918914794921875e-01 1.699304580688476562e+00 -1.389233946800231934e+00 -2.047530412673950195e+00 1.390620946884155273e+00 -2.578787565231323242e+00 1.569679021835327148e+00 -2.898445844650268555e+00 -1.258735775947570801e+00 -4.528984069824218750e+00 -3.106844127178192139e-01 9.841778278350830078e-01 4.870923042297363281e+00 -2.897517979145050049e-01 2.185305595397949219e+00 9.229030609130859375e-01 -5.154537677764892578e+00 -3.497317731380462646e-01 1.000284790992736816e+00 9.999053478240966797e-01 -3.193988084793090820e+00 1.723845601081848145e+00 -1.791092276573181152e+00 -2.215822458267211914e+00 3.465357780456542969e+00 -1.806635141372680664e+00 -2.531359434127807617e+00 -2.321622848510742188e+00 3.294747591018676758e+00 7.656577825546264648e-01 -1.018155574798583984e+00 1.994864225387573242e+00 -2.096376895904541016e+00 -2.390046417713165283e-01 1.297623276710510254e+00 -9.958068132400512695e-01 3.899184763431549072e-01 1.668537378311157227e+00 -2.121357440948486328e+00
-1.695470094680786133e+00 -2.248321533203125000e+00 3.081326782703399658e-01 4.172768115997314453e+00 4.499979972839355469e+00 -3.273929357528686523e+00 -2.598381519317626953e+00 -1.677614212036132812e+00 3.303056955337524414e+00 4.792279720306396484e+00 -2.348327636718750000e+00 3.045920133590698242e+00 -2.101986646652221680e+00 -2.336861848831176758e+00 3.156328797340393066e-01 1.866002976894378662e-01 2.721501350402832031e+00 -1.578348398208618164e+00 -2.601099491119384766e+00 1.511364936828613281e+00 -6.485178470611572266e-01 -1.748837947845458984e+00 3.571443557739257812e+00 1.935970306396484375e+00 -1.812379956245422363e+00 4.197582721710205078e+00 5.064445734024047852e-01 -2.188063859939575195e+00 6.583398580551147461e-01 -3.033085346221923828e+00 1.435392051935195923e-01 -7.074134945869445801e-01 -5.814032554626464844e+00 6.332468390464782715e-01 -2.784189939498901367e+00 -9.850699901580810547e-01 -1.286845922470092773e+00 -6.653171181678771973e-01 1.110069632530212402e+00 -1.704486966133117676e+00 -2.686546564102172852e+00 -2.350740432739257812e+00 4.566923975944519043e-01 7.643647193908691406e-01 2.782937884330749512e-01 -5.440993309020996094e-01 -3.465588569641113281e+00 9.314709901809692383e-01 1.902266979217529297e+00 -3.830545902252197266e+00
-1.073732137680053711e+00 -1.913877964019775391e+00 2.027684926986694336e+00 3.218920707702636719e+00 -1.512935876846313477e+00 8.767379522323608398e-01 6.223277449607849121e-01 1.628878831863403320e+00 -3.500729799270629883e+00 1.160496950149536133e+00 -5.315629959106445312e+00 -1.926321387290954590e-01 -1.688673138618469238e+00 -1.513860344886779785e+00 -1.506190538406372070e+00 -8.809723258018493652e-01 6.908067464828491211e-01 3.559581518173217773e+00 -5.305854320526123047e+00 7.964099198579788208e-02 5.416279435157775879e-01 2.790251493453979492e+00 -3.090260982513427734e+00 -1.266366362571716309e+00 -4.811849594116210938e-01 1.010699748992919922e+00 -2.808579206466674805e+00 -3.243059813976287842e-01 -3.181399106979370117e+00 -1.918368220329284668e+00 -1.595120072364807129e+00 2.025975286960601807e-01 5.360304713249206543e-01 7.896487116813659668e-01 4.634037494659423828e+00 -2.482376575469970703e+00 7.996658682823181152e-01 -2.640424728393554688e+00 -7.014717161655426025e-02 2.456984281539916992e+00 -2.172231912612915039e+00 -3.224701881408691406e+00 3.072713375091552734e+00 9.212487936019897461e-01 -6.005225181579589844e-01 3.694513738155364990e-01 -1.376604557037353516e+00 9.265016913414001465e-01 4.878817081451416016e+00 -1.611612677574157715e+00
-3.824446350336074829e-02 -3.532865524291992188e+00 8.394008874893188477e-01 8.990390896797180176e-01 2.151255607604980469e+00 -2.943099260330200195e+00 8.408800959587097168e-01 -1.091930866241455078e+00 -1.547750353813171387e+00 3.122763872146606445e+00 -4.391965866088867188e+00 -7.371193766593933105e-01 6.427901387214660645e-01 2.623382508754730225e-01 9.768145680427551270e-01 -2.498618841171264648e+00 2.701319521293044090e-03 1.671698331832885742e+00 -2.781515359878540039e+00 -3.389147996902465820e+00 7.123407125473022461e-01 -7.676195502281188965e-01 -1.694718599319458008e+00 3.418822050094604492e+00 1.480289548635482788e-01 4.396787643432617188e+00 1.311707258224487305e+00 -1.425630688667297363e+00 -1.292397856712341309e+00 1.061658143997192383e+00 -2.616908550262451172e+00 2.337025254964828491e-01 -7.033685445785522461e-01 1.729555487632751465e+00 1.228000044822692871e+00 -2.933122873306274414e+00 1.400001883506774902e+00 -5.218237400054931641e+00 3.441039562225341797e+00 1.676297664642333984e+00 -3.908205032348632812e+00 -3.176920175552368164e+00 3.250966787338256836e+00 -1.692759275436401367e+00 -3.436635434627532959e-01 -4.333993434906005859e+00 1.118961095809936523e+00 -1.035772562026977539e+00 1.992753505706787109e+00 -3.387881755828857422e+00
8.596718907356262207e-01 5.472893118858337402e-01 1.962802886962890625e+00 -2.120785713195800781e+00 1.361534744501113892e-01 -3.369543552398681641e+00 -2.672398567199707031e+00 1.881176710128784180e+00 2.527275562286376953e+00 4.575862884521484375e+00 -2.903160095214843750e+00 -3.965478658676147461e+00 2.616516500711441040e-02 -8.747871518135070801e-01 -2.714981555938720703e+00 -7.783204913139343262e-01 5.774700045585632324e-01 -1.377740383148193359e+00 1.323777318000793457e+00 -2.153418302536010742e+00 -2.942866802215576172e+00 2.424144983291625977e+00 1.221681714057922363e+00 -4.251216351985931396e-01 2.098591089248657227e+00 1.013416767120361328e+00 1.038907289505004883e+00 -8.839994072914123535e-01 -3.098201453685760498e-01 2.477417707443237305e+00 -2.820200204849243164e+00 2.071584463119506836e+00 -4.540624618530273438e+00 4.393064081668853760e-01 4.913564026355743408e-01 -1.704286456108093262e+00 -5.993428230285644531e-01 6.129343509674072266e-01 -1.308037161827087402e+00 7.409604191780090332e-01 8.615051507949829102e-01 -2.310067176818847656e+00 -3.845900297164916992e+00 4.387604892253875732e-01 4.013279438018798828e+00 1.634203076362609863e+00 -2.983175039291381836e+00 -3.037422180175781250e+00 5.951630473136901855e-01 -1.558981299400329590e+00
4.153131246566772461e-01 1.795505166053771973e+00 2.422342777252197266e+00 2.367706775665283203e+00 -2.842748641967773438e+00 5.753047943115234375e+00 -1.603525161743164062e+00 -1.865141153335571289e+00 4.904447197914123535e-01 8.886593580245971680e-01 -7.524900913238525391e+00 -2.066794395446777344e+00 1.380427837371826172e+00 1.391628831624984741e-01 -3.108698368072509766e+00 -4.607315361499786377e-01 1.251788258552551270e+00 -7.680300474166870117e-01 -5.081399440765380859e+00 -2.918749809265136719e+00 -1.721672058105468750e+00 -9.480623155832290649e-02 -2.562085628509521484e+00 1.829235076904296875e+00 2.043824642896652222e-01 -2.688763141632080078e+00 -2.554916381835937500e+00 -1.150835990905761719e+00 1.257841944694519043e+00 3.231523990631103516e+00 1.267450213432312012e+00 3.309200048446655273e+00 1.968006849288940430e+00 1.968029975891113281e+00 6.826832890510559082e-01 -2.703957796096801758e+00 -1.109922155737876892e-01 -3.080200433731079102e+00 1.507832050323486328e+00 -1.223643183708190918e+00 -2.784084081649780273e+00 -1.694430828094482422e+00 2.199653238058090210e-01 3.708587646484375000e+00 4.616105854511260986e-01 -1.469682931900024414e+00 4.436940252780914307e-01 -1.833008289337158203e+00 4.662399291992187500e-01 -1.346740126609802246e+00
-1.196473717689514160e+00 -1.961245059967041016e+00 7.582995295524597168e-01 1.659282565116882324e+00 -3.800066113471984863e-01 -2.513266324996948242e+00 -4.740605831146240234e+00 1.455192565917968750e+00 3.381578445434570312e+00 -3.723267018795013428e-01 -3.580727815628051758e+00 5.018360614776611328e-01 4.584532260894775391e+00 -1.510241866111755371e+00 -3.050055980682373047e+00 3.154514133930206299e-01 -5.532302379608154297e+00 5.203495502471923828e+00 -2.197283953428268433e-01 1.045611500740051270e+00 2.506728172302246094e+00 2.975922584533691406e+00 2.294668197631835938e+00 3.597551584243774414e+00 -1.618636608123779297e+00 5.250098705291748047e-01 -2.423803806304931641e+00 -2.697365045547485352e+00 8.412632942199707031e-01 -1.538668513298034668e+00 -7.131733894348144531e-01 1.753484725952148438e+00 -1.636627912521362305e+00 -1.378530263900756836e-01 -1.094446331262588501e-01 1.839246988296508789e+00 1.053418636322021484e+00 -5.622279644012451172e-01 2.893051505088806152e-01 -2.047647953033447266e+00 -3.367647409439086914e+00 -2.331684350967407227e+00 1.057902336120605469e+00 -4.464983940124511719e+00 -1.361685752868652344e+00 2.215418577194213867e+00 -1.957854032516479492e+00 -1.685320973396301270e+00 -1.340851902961730957e+00 -2.662995457649230957e-01
-5.470212548971176147e-02 -3.638877868652343750e+00 -1.461423277854919434e+00 -2.645173311233520508e+00 -1.892120361328125000e+00 1.591481566429138184e+00 5.857107043266296387e-01 2.109870433807373047e+00 -1.466983318328857422e+00 -2.159510403871536255e-01 -2.864776134490966797e+00 3.325421094894409180e+00 3.424530506134033203e+00 -7.690446376800537109e-01 2.017194032669067383e+00 -8.072897791862487793e-01 -4.033575356006622314e-01 -2.098765134811401367e+00 1.453115701675415039e+00 -1.089771866798400879e+00 -1.504052281379699707e+00 4.378388404846191406e+00 -2.558388710021972656e-01 -1.316073894500732422e+00 -2.814127683639526367e+00 1.793403029441833496e+00 4.019449949264526367e-01 -3.313569307327270508e+00 -2.176308631896972656e+00 1.889665484428405762e+00 -2.847903490066528320e+00 -1.121013998985290527e+00 1.499958276748657227e+00 -1.078545689582824707e+00 -8.420327901840209961e-01 2.816594362258911133e+00 -6.016723513603210449e-01 -3.223675251007080078e+00 -1.417760103940963745e-01 -7.291207313537597656e-01 -6.487201213836669922e+00 -2.164092302322387695e+00 2.314926624298095703e+00 -3.428921937942504883e+00 2.589584112167358398e+00 1.274065852165222168e+00 -1.857887983322143555e+00 2.432507276535034180e+00 3.341460704803466797e+00 -1.581017225980758667e-01
-2.042606353759765625e+00 -2.975236654281616211e+00 3.384340405464172363e-01 -9.761057496070861816e-01 1.714562296867370605e+00 6.096904754638671875e+00 5.022825598716735840e-01 4.178411364555358887e-01 1.208961248397827148e+00 1.770426034927368164e+00 -3.914530277252197266e+00 -5.031808018684387207e-01 2.279067993164062500e+00 -2.700728178024291992e+00 3.325650990009307861e-01 -1.069017291069030762e+00 1.174182653427124023e+00 -1.419772386550903320e+00 -1.489711999893188477e+00 -2.236553907394409180e+00 -1.296907186508178711e+00 1.387774944305419922e+00 5.133371353149414062e-01 -2.723765850067138672e+00 -1.124363541603088379e+00 5.926540493965148926e-01 -3.427775621414184570e+00 -1.978186607360839844e+00 -3.703792333602905273e+00 -5.419853329658508301e-01 -2.227279186248779297e+00 4.726141929626464844e+00 -3.498091995716094971e-01 -2.836053073406219482e-01 -1.555937647819519043e+00 2.233147382736206055e+00 2.131294965744018555e+00 4.833180904388427734e-01 -2.191685199737548828e+00 1.678941607475280762e+00 -3.259671449661254883e+00 -3.754917144775390625e+00 9.414187669754028320e-01 -2.137187421321868896e-01 5.324402451515197754e-01 -1.670171260833740234e+00 -2.340247154235839844e+00 -1.346998810768127441e+00 2.828921794891357422e+00 1.591985225677490234e+00
-2.175044298171997070e+00 -1.175152540206909180e+00 2.174411863088607788e-01 8.330735564231872559e-01 -1.332666039466857910e+00 1.460599660873413086e+00 2.064616441726684570e+00 -1.223420143127441406e+00 -2.777200222015380859e+00 3.137480020523071289e+00 -5.353521823883056641e+00 8.928681015968322754e-01 1.907081156969070435e-02 -4.589401721954345703e+00 3.277169466018676758e+00 1.104926466941833496e+00 -2.805850028991699219e+00 4.658622443675994873e-01 -6.710214614868164062e-01 -1.471184253692626953e+00 -1.603363156318664551e+00 1.209495782852172852e+00 -2.002905130386352539e+00 3.191498994827270508e+00 -3.431740999221801758e+00 4.200680732727050781e+00 -2.453283786773681641e+00 -8.371602892875671387e-01 -2.031887531280517578e+00 9.142570495605468750e-01 -3.295778989791870117e+00 7.847857475280761719e-01 1.354367256164550781e+00 4.835701465606689453e+00 -2.516194581985473633e-01 2.288162946701049805e+00 6.343659162521362305e-01 -1.660085439682006836e+00 -3.879319667816162109e+00 1.468718767166137695e+00 -6.545670032501220703e-01 1.600799322128295898e+00 -2.422935962677001953e+00 -2.724028825759887695e+00 2.428885698318481445e+00 1.394322216510772705e-01 -8.173496127128601074e-01 -3.297285079956054688e+00 1.762753605842590332e+00 -2.544188499450683594e+00
-3.031116485595703125e+00 1.448588728904724121e+00 -4.810011386871337891e-02 -2.213287353515625000e+00 2.880692958831787109e+00 2.303143501281738281e+00 -1.772951483726501465e+00 2.093260049819946289e+00 9.963867664337158203e-01 3.587468385696411133e+00 -1.782569408416748047e+00 8.238094449043273926e-01 8.035410046577453613e-01 1.043920740485191345e-01 -3.190844774246215820e+00 3.952823400497436523e+00 -1.975992441177368164e+00 -1.202963709831237793e+00 -4.742808818817138672e+00 -2.840638160705566406e+00 -1.828312039375305176e+00 2.413024663925170898e+00 1.436568498611450195e+00 -4.896417260169982910e-01 -2.079247236251831055e+00 2.401619672775268555e+00 -3.036760725080966949e-02 -4.149705410003662109e+00 -7.721277475357055664e-01 3.483223199844360352e+00 8.993668556213378906e-01 -4.429026126861572266e+00 -2.261924982070922852e+00 -9.531295895576477051e-01 -1.788876414299011230e+00 3.482647985219955444e-02 -2.684833765029907227e+00 -3.340450286865234375e+00 4.452567100524902344e+00 -1.073601096868515015e-01 -2.035160541534423828e+00 -1.961739420890808105e+00 7.595847845077514648e-01 2.139324903488159180e+00 1.577737569808959961e+00 7.743007540702819824e-01 -1.960417389869689941e+00 -2.380410909652709961e+00 7.638901472091674805e-03 4.267570972442626953e-01
-2.031445980072021484e+00 -1.012203812599182129e+00 -1.156059622764587402e+00 5.054100155830383301e-01 -2.426097869873046875e+00 1.740260869264602661e-01 -1.745436549186706543e+00 1.216545581817626953e+00 2.534995317459106445e+00 3.317574262619018555e+00 -1.083871960639953613e+00 2.981290578842163086e+00 7.241994142532348633e-01 -1.458215832710266113e+00 -2.729393482208251953e+00 1.666759610176086426e+00 1.310723662376403809e+00 6.299301981925964355e-01 -3.346836805343627930e+00 1.212901830673217773e+00 -5.589790821075439453e+00 9.775767922401428223e-01 -2.620588541030883789e+00 -5.180471420288085938e+00 1.734881639480590820e+00 9.730489850044250488e-01 1.187199831008911133e+00 -1.155838727951049805e+00 -2.416131973266601562e+00 -1.214268326759338379e+00 -2.464663743972778320e+00 3.608145236968994141e+00 -1.360864639282226562e-01 2.485690593719482422e+00 1.751078009605407715e+00 -2.354321241378784180e+00 -5.034592151641845703e+00 -1.275869965553283691e+00 2.516046047210693359e+00 4.422708749771118164e-01 -4.748194694519042969e+00 -8.414112329483032227e-01 3.587653040885925293e-01 9.614945650100708008e-01 2.398793458938598633e+00 1.503919363021850586e-01 -1.905828475952148438e+00 -1.971465349197387695e+00 3.742145299911499023e+00 9.047390818595886230e-01
-2.000157535076141357e-01 -3.548298358917236328e+00 -1.954202651977539062e+00 -7.806016206741333008e-01 1.435408711433410645e+00 -1.369910836219787598e+00 -1.450108528137207031e+00 1.642023205757141113e+00 4.550631046295166016e-01 -1.402801871299743652e+00 -5.398410320281982422e+00 -1.800220847129821777e+00 2.454837083816528320e+00 -3.890357732772827148e+00 1.780641317367553711e+00 -1.910269379615783691e+00 2.619410037994384766e+00 1.472505450248718262e+00 -2.369823932647705078e+00 5.182145237922668457e-01 -2.221051454544067383e+00 3.856441006064414978e-02 -8.627882599830627441e-01 6.886387467384338379e-01 -6.745639443397521973e-01 2.303939342498779297e+00 -1.073474764823913574e+00 -2.598208189010620117e+00 -1.261005043983459473e+00 -7.299773097038269043e-01 -4.519374370574951172e+00 4.878577709197998047e+00 -1.218815326690673828e+00 1.424916237592697144e-01 2.821738004684448242e+00 2.812542915344238281e+00 2.130284070968627930e+00 -3.536354541778564453e+00 -9.993387460708618164e-01 -3.613481283187866211e+00 -3.564963638782501221e-01 3.137606620788574219e+00 2.163124561309814453e+00 -1.591976583003997803e-01 -1.072152018547058105e+00 -2.121226310729980469e+00 -8.942782878875732422e-01 7.903733253479003906e-01 -1.713753154035657644e-04 3.299161195755004883e+00
1.450343489646911621e+00 5.064362287521362305e-01 -5.844076871871948242e-01 2.010230302810668945e+00 6.300823688507080078e-01 9.668127894401550293e-01 -1.896785020828247070e+00 3.518530726432800293e-01 -3.905874729156494141e+00 2.341787815093994141e+00 -4.903000354766845703e+00 -1.682169079780578613e+00 1.290933847427368164e+00 1.142277941107749939e-01 -1.193882107734680176e+00 -1.766149997711181641e+00 -4.137353420257568359e+00 1.700996279716491699e+00 -2.088225185871124268e-01 -1.218051314353942871e-01 -2.162078857421875000e+00 1.894413948059082031e+00 2.112524032592773438e+00 2.212141036987304688e+00 -1.487124711275100708e-01 3.030123710632324219e+00 -1.332372903823852539e+00 -9.361523389816284180e-01 1.802923083305358887e+00 4.278222084045410156e+00 -3.652106523513793945e+00 2.016726970672607422e+00 -3.473037481307983398e+00 -5.083603262901306152e-01 5.913511514663696289e-01 -1.073425173759460449e+00 -1.662500262260437012e+00 -2.023389339447021484e+00 6.638069748878479004e-01 -2.930926084518432617e+00 -5.272222161293029785e-01 1.866755127906799316e+00 3.159864425659179688e+00 -8.304350376129150391e-01 -2.265335559844970703e+00 -1.660408377647399902e+00 -1.676570892333984375e+00 1.107714697718620300e-01 -2.831310987472534180e+00 -2.053130388259887695e+00
-6.309403181076049805e-01 3.859622776508331299e-01 -2.574740409851074219e+00 -2.819727897644042969e+00 -1.570863127708435059e+00 -4.592298984527587891e+00 9.665041565895080566e-01 1.203884005546569824e+00 2.435685157775878906e+00 2.390898764133453369e-01 -3.830166101455688477e+00 3.086050033569335938e+00 3.383415222167968750e+00 -3.611981391906738281e+00 4.145977497100830078e+00 -3.258122920989990234e+00 -2.123198270797729492e+00 3.054261445999145508e+00 -3.185497045516967773e+00 -1.826491951942443848e+00 1.183664798736572266e+00 1.132906675338745117e+00 1.233391284942626953e+00 2.156716346740722656e+00 -1.938685178756713867e+00 1.225141763687133789e+00 1.570218563079833984e+00 -8.638073801994323730e-01 -1.057310342788696289e+00 1.239575505256652832e+00 -1.416903853416442871e+00 -4.613368034362792969e+00 -1.961727142333984375e+00 1.492962837219238281e+00 3.188182115554809570e+00 -2.338366746902465820e+00 1.369670271873474121e+00 -1.416373014450073242e+00 2.396446280181407928e-02 -1.941159367561340332e+00 6.153005957603454590e-01 -1.859188079833984375e-01 5.955431461334228516e-01 -1.914313077926635742e+00 1.077584981918334961e+00 2.598122954368591309e-01 -5.396176576614379883e-01 -1.770043969154357910e+00 7.120181918144226074e-01 -1.938544392585754395e+00
1.401353478431701660e+00 -9.492995142936706543e-01 -3.021678686141967773e+00 1.605397462844848633e+00 -1.517297983169555664e+00 -2.968365192413330078e+00 -2.522892951965332031e+00 -2.134045124053955078e+00 -9.347468614578247070e-01 1.637085914611816406e+00 -2.950428962707519531e+00 -1.447192311286926270e+00 1.114220619201660156e+00 -1.978041172027587891e+00 -3.197345435619354248e-01 -2.038676023483276367e+00 4.806701660156250000e+00 2.799215316772460938e+00 -2.471694648265838623e-01 -3.643292427062988281e+00 -6.697942316532135010e-02 4.073695540428161621e-01 -1.679049015045166016e+00 2.561319112777709961e+00 1.007500886917114258e+00 -5.434870719909667969e-01 6.274262666702270508e-01 -5.492368221282958984e+00 -1.992459893226623535e+00 3.651770353317260742e-01 -4.239795684814453125e+00 -1.104151010513305664e+00 5.442563891410827637e-01 2.972728729248046875e+00 1.906121134757995605e+00 -1.130690097808837891e+00 -4.864657878875732422e+00 -1.282809257507324219e+00 -1.534205526113510132e-01 -4.795126616954803467e-02 -1.574040889739990234e+00 -1.577992439270019531e-01 1.258951425552368164e+00 8.596920371055603027e-01 3.071028925478458405e-02 -1.127971053123474121e+00 4.736048281192779541e-01 1.547557592391967773e+00 4.185748577117919922e+00 3.424869060516357422e+00
2.632252871990203857e-01 2.793735265731811523e+00 -6.289946436882019043e-01 4.474787712097167969e+00 -2.414669282734394073e-02 3.293771147727966309e-01 -2.823464632034301758e+00 2.458160161972045898e+00 -2.051748275756835938e+00 4.322054386138916016e+00 -4.838911533355712891e+00 2.246813774108886719e+00 3.269974887371063232e-01 -2.264610290527343750e+00 -2.088974229991436005e-02 -6.113263607025146484e+00 -1.686778903007507324e+00 1.028342023491859436e-01 3.922450542449951172e-01 -4.054402351379394531e+00 -1.587829351425170898e+00 -1.367756843566894531e+00 -3.310289382934570312e+00 -1.470519751310348511e-01 -1.425190091133117676e+00 2.988946437835693359e+00 1.702754855155944824e+00 -1.747783899307250977e+00 1.658708691596984863e+00 3.025721549987792969e+00 -2.191045522689819336e+00 -1.264296293258666992e+00 -3.047436952590942383e+00 6.872442364692687988e-01 1.877314448356628418e+00 -2.385053157806396484e+00 5.731948018074035645e-01 5.339715480804443359e-01 -8.500216603279113770e-01 -1.532011866569519043e+00 -1.088250279426574707e+00 -2.862509489059448242e+00 1.853430271148681641e+00 9.846513867378234863e-01 -1.700763463973999023e+00 2.202014684677124023e+00 -2.353299379348754883e+00 -9.885534644126892090e-02 1.728718519210815430e+00 8.580259680747985840e-01
-1.918283224105834961e+00 3.677994966506958008e+00 -2.389145940542221069e-01 -2.295635193586349487e-01 -1.341033339500427246e+00 5.082441568374633789e-01 -2.595832586288452148e+00 1.610664725303649902e+00 -1.970337390899658203e+00 4.357505321502685547e+00 -1.250090122222900391e+00 2.630688190460205078e+00 4.036769390106201172e+00 -5.616622447967529297e+00 -2.564231157302856445e+00 -5.924655199050903320e-01 -2.591209411621093750e+00 -7.887536287307739258e-01 -5.420869216322898865e-02 -9.190549254417419434e-01 -4.387724399566650391e+00 -2.323864102363586426e-01 4.790284037590026855e-01 -2.371598243713378906e+00 -1.125339031219482422e+00 -6.167683601379394531e-01 -3.712064743041992188e+00 3.484788179397583008e+00 4.551762938499450684e-01 2.567458391189575195e+00 -3.547113895416259766e+00 -1.326388359069824219e+00 -8.968664705753326416e-02 -3.708601295948028564e-01 1.393221139907836914e+00 3.471293449401855469e+00 2.081021785736083984e+00 -8.515717983245849609e-01 -8.812110424041748047e-01 -1.942769646644592285e+00 -5.026037216186523438e+00 2.406420946121215820e+00 1.477539896965026855e+00 -1.130241513252258301e+00 3.665098190307617188e+00 -1.021446943283081055e+00 -1.012736797332763672e+00 2.212124347686767578e+00 -3.183778226375579834e-01 -1.539247870445251465e+00
3.183961391448974609e+00 -2.838172018527984619e-01 1.102837026119232178e-01 1.126079678535461426e+00 2.270609378814697266e+00 3.225679323077201843e-02 -1.115673303604125977e+00 5.667600631713867188e-01 -2.070300817489624023e+00 5.774622559547424316e-01 -4.760426998138427734e+00 1.676861569285392761e-02 6.360601782798767090e-01 -2.977809429168701172e+00 2.278556108474731445e+00 -1.893448352813720703e+00 -1.547972798347473145e+00 1.720774531364440918e+00 -1.807135939598083496e+00 7.791413068771362305e-01 -2.619019746780395508e+00 3.596447706222534180e+00 4.435614347457885742e-01 -1.004639506340026855e+00 -2.946364164352416992e+00 2.710111618041992188e+00 -7.843919098377227783e-02 -4.686583518981933594e+00 -4.389748096466064453e+00 -5.233871191740036011e-02 -4.311965942382812500e+00 3.207774162292480469e+00 1.429755687713623047e+00 -8.766729831695556641e-01 1.635458827018737793e+00 -1.763640761375427246e+00 -6.260473728179931641e-01 -1.037830948829650879e+00 -3.584317207336425781e+00 -9.915552735328674316e-01 -2.672372758388519287e-01 1.117214918136596680e+00 -1.992115736007690430e+00 5.910560607910156250e+00 -5.565955042839050293e-01 -4.294709682464599609e+00 -2.840228676795959473e-01 -3.106809854507446289e-01 1.072173953056335449e+00 3.866699695587158203e+00
6.645463109016418457e-01 1.849797725677490234e+00 2.452843427658081055e+00 1.311850309371948242e+00 -1.990240812301635742e+00 -3.006445467472076416e-01 1.425467431545257568e-01 -7.059258818626403809e-01 -6.410093903541564941e-01 1.748198866844177246e+00 -1.967001557350158691e+00 -1.827066659927368164e+00 1.830889105796813965e+00 -5.483677864074707031e+00 -2.991240501403808594e+00 1.034746766090393066e+00 1.964973211288452148e+00 1.626617312431335449e+00 -5.240768790245056152e-01 2.376890659332275391e+00 -2.446394681930541992e+00 -5.922499299049377441e-01 4.594636917114257812e+00 3.513859033584594727e+00 7.833046466112136841e-02 3.276828050613403320e+00 7.249358296394348145e-01 -5.021916866302490234e+00 -3.077955007553100586e+00 3.939061641693115234e+00 -2.200057506561279297e+00 2.727196514606475830e-01 -1.276004672050476074e+00 -1.784826755523681641e+00 -1.785507202148437500e+00 -1.521183729171752930e+00 -1.826498508453369141e-01 -3.089713811874389648e+00 -4.361105442047119141e+00 -2.289813280105590820e+00 1.260647058486938477e+00 -8.378787636756896973e-01 2.427825450897216797e+00 -6.684366464614868164e-01 -3.019735097885131836e+00 -9.743585586547851562e-01 -3.616941213607788086e+00 -4.590262174606323242e-01 4.163518846035003662e-01 1.376170992851257324e+00
1.423260450363159180e+00 -2.374774932861328125e+00 -2.973638534545898438e+00 1.876728773117065430e+00 1.464920043945312500e+00 3.561985492706298828e+00 -9.729484915733337402e-01 -3.084469318389892578e+00 2.279854297637939453e+00 4.121955871582031250e+00 -2.119373321533203125e+00 3.326906263828277588e-01 2.661666870117187500e+00 -2.285770654678344727e+00 1.771965503692626953e+00 -3.436253070831298828e+00 -1.261025071144104004e-01 2.711918592453002930e+00 -3.081330776214599609e+00 -6.874795556068420410e-01 -2.064073085784912109e+00 -2.943653345108032227e+00 1.578817367553710938e+00 2.595816373825073242e+00 -2.958625793457031250e+00 -1.736984014511108398e+00 -8.105750679969787598e-01 2.728340387344360352e+00 -4.874402046203613281e+00 1.646271347999572754e+00 -4.242539882659912109e+00 4.493922889232635498e-01 1.370400786399841309e+00 9.039306640625000000e-01 2.344925165176391602e+00 -6.620900630950927734e-01 -3.544505119323730469e+00 -7.015486955642700195e-01 -3.882495164871215820e-01 -1.121234074234962463e-01 1.032924175262451172e+00 -3.400067090988159180e+00 1.915241926908493042e-01 1.771766543388366699e+00 -1.097022056579589844e+00 8.909397125244140625e-01 -3.322960138320922852e+00 -4.184713065624237061e-01 9.567415118217468262e-01 -2.812712907791137695e+00
1.288364082574844360e-01 2.091433525085449219e+00 3.006529808044433594e-01 -2.477514743804931641e+00 -1.093791365623474121e+00 -1.795643806457519531e+00 1.547730416059494019e-01 1.372018814086914062e+00 -8.134254217147827148e-01 4.784983634948730469e+00 -2.421678304672241211e+00 1.391601860523223877e-01 5.219660758972167969e+00 5.139786005020141602e-01 -1.325957417488098145e+00 -1.978109717369079590e+00 -3.181283950805664062e+00 3.844369947910308838e-01 -1.483873367309570312e+00 9.431959688663482666e-02 -8.439962387084960938e+00 -1.404865980148315430e+00 3.395725011825561523e+00 -1.617902398109436035e+00 1.299335479736328125e+00 3.092461585998535156e+00 1.447941660881042480e+00 -3.407202482223510742e+00 3.207033872604370117e-02 7.217887043952941895e-01 6.816893219947814941e-01 2.435834705829620361e-01 1.182790875434875488e+00 1.604841113090515137e+00 3.259855508804321289e-01 -4.477171897888183594e+00 -4.496636867523193359e+00 5.820255875587463379e-01 9.452181458473205566e-01 2.878817915916442871e-01 -2.744084119796752930e+00 5.930781960487365723e-01 -2.857626199722290039e+00 -1.727589011192321777e+00 6.561708450317382812e-01 -7.224388122558593750e-01 -3.544267177581787109e+00 1.188679337501525879e+00 1.130502223968505859e+00 5.399297475814819336e-01
-1.072159171104431152e+00 -4.581315517425537109e+00 2.707992553710937500e+00 2.124896287918090820e+00 4.737935662269592285e-01 -1.187745928764343262e+00 -3.320865392684936523e+00 -1.690854310989379883e+00 3.546972990036010742e+00 2.547630548477172852e+00 -8.011795878410339355e-01 -1.616856098175048828e+00 2.294209718704223633e+00 -3.183524847030639648e+00 -7.353904843330383301e-01 7.443682551383972168e-01 -3.989055633544921875e+00 2.048927783966064453e+00 -1.168343305587768555e+00 7.132557630538940430e-01 -3.093384027481079102e+00 -2.602267503738403320e+00 -3.783216714859008789e+00 -2.709259390830993652e-01 6.821653842926025391e-01 2.329746007919311523e+00 2.862518548965454102e+00 8.690635859966278076e-02 -2.425232172012329102e+00 3.570853233337402344e+00 -2.960864007472991943e-01 2.244298458099365234e+00 -2.816769599914550781e+00 -2.182973861694335938e+00 8.738403916358947754e-01 8.488068580627441406e-01 -2.944280624389648438e+00 -2.716006517410278320e+00 -8.746587634086608887e-01 8.785001635551452637e-01 -7.590707540512084961e-01 -1.581969618797302246e+00 3.021724462509155273e+00 -7.051131129264831543e-01 1.792540669441223145e+00 3.111300230026245117e+00 1.253664046525955200e-01 -1.448699235916137695e+00 -1.546784758567810059e+00 -3.079303026199340820e+00
-1.232485100626945496e-01 -3.399067878723144531e+00 8.073609471321105957e-01 -2.094116210937500000e+00 1.033992409706115723e+00 -6.514472365379333496e-01 -1.180563092231750488e+00 1.504254192113876343e-01 -3.801781654357910156e+00 1.028486132621765137e+00 -8.947577476501464844e-01 -1.268622279167175293e+00 -1.609396696090698242e+00 -2.066149950027465820e+00 -4.491873979568481445e-01 3.069878816604614258e-01 -1.962060213088989258e+00 4.209140241146087646e-01 1.414723396301269531e+00 1.328366756439208984e+00 5.841007232666015625e-01 2.284157752990722656e+00 8.934896588325500488e-01 -5.930566787719726562e-01 1.733660817146301270e+00 3.064771413803100586e+00 -1.272701263427734375e+00 -5.383819341659545898e-01 -7.048979401588439941e-01 2.334971427917480469e+00 -5.203137397766113281e+00 3.878257274627685547e+00 -3.060721874237060547e+00 -1.839277148246765137e+00 4.048075675964355469e+00 1.674371719360351562e+00 -4.004674434661865234e+00 -1.136506319046020508e+00 -5.423296093940734863e-01 2.045775353908538818e-01 -2.988970994949340820e+00 3.397995233535766602e+00 2.730080127716064453e+00 -1.658143758773803711e+00 -1.427103400230407715e+00 -4.324862957000732422e+00 -1.977687239646911621e+00 6.366145610809326172e-01 1.276232600212097168e+00 1.052660465240478516e+00
1.322019100189208984e+00 1.055728316307067871e+00 -1.281733632087707520e+00 5.595003962516784668e-01 2.045421600341796875e+00 -2.631556034088134766e+00 -3.452651262283325195e+00 -3.134585320949554443e-01 3.253821849822998047e+00 2.823625326156616211e+00 -4.702997684478759766e+00 9.067114591598510742e-01 2.846226453781127930e+00 -4.298053264617919922e+00 3.041251659393310547e+00 -5.912750363349914551e-01 -2.946547985076904297e+00 6.498867273330688477e-02 -2.461746692657470703e+00 8.265227675437927246e-01 6.262209415435791016e-01 -9.923385977745056152e-01 1.698880195617675781e+00 5.965342521667480469e-01 -6.773065924644470215e-01 -2.237076520919799805e+00 -6.418904662132263184e-01 3.294838368892669678e-01 -1.161316990852355957e+00 -3.573874950408935547e+00 -1.292815685272216797e+00 -1.339381814002990723e+00 -2.547365427017211914e+00 1.656215548515319824e+00 3.873218595981597900e-01 -1.744764566421508789e+00 2.867575883865356445e+00 -1.701763272285461426e+00 -3.645490884780883789e+00 6.386632919311523438e-01 -6.876856088638305664e-01 -1.607061743736267090e+00 5.551168918609619141e+00 -2.748847007751464844e-01 -1.681371629238128662e-01 -3.017168998718261719e+00 -2.852284193038940430e+00 3.220156431198120117e+00 2.069461107254028320e+00 -6.741484403610229492e-01
1.243368029594421387e+00 -7.313404679298400879e-01 -4.801455438137054443e-01 2.136667966842651367e+00 -2.417963743209838867e+00 -2.546085357666015625e+00 -2.196810483932495117e+00 4.545226097106933594e+00 8.982266783714294434e-01 1.516694903373718262e+00 -4.859380722045898438e+00 3.024355649948120117e+00 1.557291269302368164e+00 -1.561454296112060547e+00 7.894955873489379883e-01 3.112345695495605469e+00 -3.789936065673828125e+00 -5.426669120788574219e-01 -1.694733142852783203e+00 -1.623021245002746582e+00 -6.734805107116699219e+00 9.613182544708251953e-01 -1.243485927581787109e+00 2.059303760528564453e+00 -2.756298542022705078e+00 6.230958551168441772e-02 -1.919578671455383301e+00 1.015319585800170898e+00 -1.208029031753540039e+00 -3.766059875488281250e+00 -2.886466264724731445e+00 1.044723629951477051e+00 3.347813129425048828e+00 1.378111124038696289e+00 2.268125057220458984e+00 -2.028096199035644531e+00 -3.453600704669952393e-01 -6.449521183967590332e-01 8.615415692329406738e-01 -1.166572093963623047e+00 1.821518540382385254e-01 -1.043893814086914062e+00 -8.643250465393066406e-01 1.474490284919738770e+00 2.437254190444946289e+00 -2.984832048416137695e+00 5.733658671379089355e-01 -9.211489930748939514e-03 1.752237677574157715e+00 -2.429436683654785156e+00
-2.280888333916664124e-02 -1.707810282707214355e+00 -9.195229411125183105e-01 -2.061615467071533203e+00 -7.809173464775085449e-01 1.009300827980041504e+00 -3.482822895050048828e+00 6.233420372009277344e+00 1.062523961067199707e+00 1.464386343955993652e+00 -2.593287467956542969e+00 -3.233629465103149414e+00 -8.002598881721496582e-01 -1.769304871559143066e+00 -1.573171764612197876e-01 -7.991255521774291992e-01 2.567618846893310547e+00 7.742363810539245605e-01 -8.819594047963619232e-03 -3.003266811370849609e+00 -1.772380709648132324e+00 -3.023499250411987305e-01 5.627888202667236328e+00 2.944593727588653564e-01 -2.177737712860107422e+00 6.755616068840026855e-01 -1.425716519355773926e+00 -2.425121068954467773e+00 1.435639262199401855e+00 4.901843369007110596e-01 -4.681599140167236328e+00 4.118381977081298828e+00 2.030871152877807617e+00 -3.629256784915924072e-01 2.264594078063964844e+00 -1.805581092834472656e+00 -6.855423450469970703e-01 -1.818086653947830200e-01 2.345487594604492188e+00 -4.853883266448974609e+00 -6.672264933586120605e-01 -9.020417332649230957e-01 -9.509238600730895996e-01 4.921659827232360840e-01 -6.141647323966026306e-02 -1.715103723108768463e-02 -1.092314124107360840e+00 3.890040516853332520e-01 -3.209184885025024414e+00 4.378173351287841797e-01
3.054095506668090820e+00 1.277571916580200195e-01 6.380712240934371948e-02 -1.370853900909423828e+00 1.425210118293762207e+00 -1.797605037689208984e+00 1.715281903743743896e-01 2.007283687591552734e+00 -1.266283243894577026e-01 2.411890268325805664e+00 -1.994935750961303711e+00 8.234017491340637207e-01 3.910808563232421875e+00 -1.040599584579467773e+00 9.875614047050476074e-01 5.224161744117736816e-01 -3.305210590362548828e+00 1.172159090638160706e-01 -2.240990877151489258e+00 -9.553889632225036621e-01 -2.346736192703247070e+00 -4.023825526237487793e-01 1.627951145172119141e+00 4.412790775299072266e+00 5.583383440971374512e-01 -1.268073558807373047e+00 -4.369672298431396484e+00 -3.999166250228881836e+00 -1.149052500724792480e+00 1.028523147106170654e-01 -3.345918655395507812e+00 -9.910292029380798340e-01 1.750023365020751953e-01 1.684259653091430664e+00 -8.546055555343627930e-01 -1.484350681304931641e+00 -9.203411340713500977e-01 -5.836805343627929688e+00 -1.857826590538024902e+00 8.585835695266723633e-01 1.072940826416015625e+00 -1.343327403068542480e+00 2.863790273666381836e+00 4.197192192077636719e+00 2.914994955062866211e-01 -1.981742739677429199e+00 2.514553070068359375e-02 -3.143873453140258789e+00 1.192683219909667969e+00 -3.327188968658447266e+00
-3.470447063446044922e+00 -3.155778884887695312e+00 7.880845069885253906e-01 1.266146898269653320e+00 4.368960484862327576e-02 -6.540146470069885254e-01 -3.908052444458007812e+00 -9.496929645538330078e-01 3.013267517089843750e+00 3.512485325336456299e-01 -5.404635429382324219e+00 -5.662235021591186523e-01 2.440775871276855469e+00 -2.006180584430694580e-01 2.329770475625991821e-01 -1.694488286972045898e+00 3.380392551422119141e+00 2.180438995361328125e+00 -1.652391433715820312e+00 -1.529920816421508789e+00 -4.210801422595977783e-01 -1.630963206291198730e+00 -3.310271263122558594e+00 -8.914728164672851562e-01 2.172553777694702148e+00 2.576508522033691406e+00 1.028246879577636719e+00 -8.884553611278533936e-02 -1.710532188415527344e+00 -5.508574843406677246e-01 1.314503669738769531e+00 3.841281831264495850e-01 -3.308085680007934570e+00 4.046997129917144775e-01 2.696641385555267334e-01 -8.871456384658813477e-01 -8.737015128135681152e-01 -1.306063294410705566e+00 -1.145399332046508789e+00 2.861060857772827148e+00 -1.966804862022399902e+00 -2.628608226776123047e+00 1.854227662086486816e+00 4.717207908630371094e+00 -4.991060495376586914e-01 1.470230579376220703e+00 -3.490289449691772461e+00 -3.007176160812377930e+00 3.640112280845642090e-01 2.309106826782226562e+00
-6.496903896331787109e-01 6.206241607666015625e+00 -1.591628789901733398e+00 -2.280830033123493195e-02 -9.073414206504821777e-01 -1.216995120048522949e+00 3.757237911224365234e+00 8.177398145198822021e-02 4.128149509429931641e+00 3.550198301672935486e-02 -2.391085863113403320e+00 -3.755828857421875000e+00 -8.635553121566772461e-01 1.286049723625183105e+00 7.770012617111206055e-01 2.722144842147827148e+00 5.547459721565246582e-01 -3.243391990661621094e+00 6.440038681030273438e-01 -5.701674461364746094e+00 1.891824245452880859e+00 -7.895728945732116699e-01 -7.052817940711975098e-01 -1.555469751358032227e+00 2.490909576416015625e+00 7.057631611824035645e-01 8.057538270950317383e-01 -3.108262538909912109e+00 1.029507294297218323e-01 -6.216591596603393555e-02 2.132234334945678711e+00 6.745898127555847168e-01 4.617963433265686035e-01 -6.158319115638732910e-01 9.187325835227966309e-01 5.731437802314758301e-01 -2.994545698165893555e+00 -2.248309135437011719e+00 -3.001354455947875977e+00 -1.231777071952819824e+00 7.402589321136474609e-01 8.297281861305236816e-01 1.701009154319763184e+00 -1.182150840759277344e+00 -1.071126341819763184e+00 -5.607249736785888672e+00 -5.244929194450378418e-01 3.148569583892822266e+00 -3.960328817367553711e+00 -9.668189883232116699e-01
1.735753566026687622e-01 3.240831375122070312e+00 -2.801089763641357422e+00 1.168284773826599121e+00 -1.955724120140075684e+00 -6.394327282905578613e-01 9.002968072891235352e-01 3.045777797698974609e+00 -4.439832866191864014e-01 2.183623790740966797e+00 -8.829020261764526367e-01 -4.557983398437500000e+00 -1.629782676696777344e+00 1.721511602401733398e+00 1.619760394096374512e+00 3.834199428558349609e+00 2.555003166198730469e-01 2.333113670349121094e+00 -1.205574631690979004e+00 3.685007095336914062e-01 -5.739770531654357910e-01 -2.059335947036743164e+00 -2.348625421524047852e+00 1.624113321304321289e+00 -1.960158109664916992e+00 1.191149950027465820e+00 2.630201876163482666e-01 2.022081613540649414e+00 -8.498608469963073730e-01 6.843381524085998535e-01 1.954631686210632324e+00 -1.728929042816162109e+00 6.421328783035278320e-01 -2.135571002960205078e+00 -3.116031885147094727e+00 -4.301939964294433594e+00 -2.354989528656005859e+00 2.665539979934692383e+00 -1.099978208541870117e+00 1.677255868911743164e+00 -3.289408206939697266e+00 -1.028712749481201172e+00 -2.633896172046661377e-01 -1.169249176979064941e+00 -3.196589231491088867e+00 -3.612570762634277344e+00 -2.659733057022094727e+00 6.100160121917724609e+00 -1.686208724975585938e+00 -2.084760189056396484e+00
-1.153040409088134766e+00 2.339776754379272461e+00 -2.400811433792114258e+00 -3.681240320205688477e+00 -3.930277585983276367e+00 -2.138756513595581055e+00 7.464255094528198242e-01 3.977500200271606445e-01 1.235949754714965820e+00 6.967248767614364624e-02 3.169818878173828125e+00 7.084022760391235352e-01 1.403394639492034912e-01 8.222222924232482910e-01 -4.126310944557189941e-01 2.397779941558837891e+00 1.039769649505615234e+00 1.263538479804992676e+00 6.971086859703063965e-01 -4.831230640411376953e+00 2.110266685485839844e+00 -4.085147380828857422e-01 -2.507899522781372070e+00 1.661120653152465820e+00 3.961716651916503906e+00 3.284253835678100586e+00 1.584346175193786621e+00 -5.802209377288818359e-01 -2.469642639160156250e+00 -6.196408867835998535e-01 4.758286476135253906e+00 7.128977030515670776e-02 -3.712432682514190674e-01 -2.868882656097412109e+00 -2.689658403396606445e+00 -4.633144855499267578e+00 -2.785192966461181641e+00 -3.022156238555908203e+00 3.514209389686584473e-01 -1.023961544036865234e+00 1.748868703842163086e+00 -1.963881969451904297e+00 -1.777869701385498047e+00 -7.993711531162261963e-02 -1.157014295458793640e-01 -1.102803826332092285e+00 -4.791464284062385559e-02 2.299257516860961914e+00 -2.237215042114257812e+00 -2.448352813720703125e+00
-1.433167338371276855e+00 -3.118194341659545898e-01 -1.927008748054504395e+00 -1.098323702812194824e+00 1.073075175285339355e+00 -2.358464002609252930e+00 5.931881904602050781e+00 1.594449400901794434e+00 4.295105934143066406e+00 -1.263812184333801270e+00 9.337261319160461426e-03 -1.189455151557922363e+00 -7.761470079421997070e-01 -1.313611149787902832e+00 -1.530864834785461426e-01 3.700268268585205078e+00 2.832150697708129883e+00 2.667692899703979492e-01 6.249232292175292969e-01 -1.248730123043060303e-01 -8.417221903800964355e-01 -3.621891975402832031e+00 1.387166380882263184e+00 3.447712361812591553e-01 -2.541559457778930664e+00 -3.587753772735595703e-01 -1.593992352485656738e+00 -8.164411783218383789e-01 2.076142549514770508e+00 -3.190052509307861328e+00 3.492738008499145508e+00 -8.790133893489837646e-02 -5.416953191161155701e-02 -1.763282060623168945e+00 -1.140890240669250488e+00 1.832961916923522949e+00 -1.704087853431701660e+00 6.458266973495483398e-01 -9.382019042968750000e-01 -9.158992767333984375e-01 -1.984885454177856445e+00 -5.589980602264404297e+00 -1.956346392631530762e+00 -2.041498899459838867e+00 -4.813559532165527344e+00 -2.459846019744873047e+00 1.663672924041748047e+00 1.084501028060913086e+00 -2.147274494171142578e+00 4.279993534088134766e+00
-9.265907406806945801e-01 -1.901342630386352539e+00 -4.517532587051391602e-01 -4.180496558547019958e-02 1.989098191261291504e-01 -1.716515779495239258e+00 -3.148704171180725098e-01 -1.696634531021118164e+00 4.298774242401123047e+00 -3.089140653610229492e+00 -2.110666990280151367e+00 4.443110466003417969e+00 -1.498741388320922852e+00 5.091119766235351562e+00 2.735823988914489746e-01 -2.467932462692260742e+00 5.754507541656494141e+00 1.059011220932006836e+00 -2.516096830368041992e+00 -1.603422164916992188e+00 2.047306537628173828e+00 2.670620441436767578e+00 -2.908615112304687500e+00 -3.584293842315673828e+00 5.089454650878906250e-01 -1.319487333297729492e+00 -5.059383869171142578e+00 -3.309835195541381836e-01 4.612108170986175537e-01 5.239794850349426270e-01 -2.464570552110671997e-01 -9.117547422647476196e-02 -6.441840529441833496e-01 -2.094494581222534180e+00 -8.155483603477478027e-01 3.772768974304199219e+00 5.678718090057373047e-01 -2.329259872436523438e+00 1.171220541000366211e+00 -5.393724441528320312e-01 3.961254596710205078e+00 -1.265962123870849609e+00 -1.323396801948547363e+00 -1.046926498413085938e+00 -1.088242530822753906e+00 -1.066285848617553711e+00 1.700331091880798340e+00 1.510366648435592651e-01 -1.768545031547546387e+00 -5.415801525115966797e+00
-2.307358503341674805e+00 2.181470870971679688e+00 3.176840543746948242e+00 1.361292004585266113e+00 1.535735726356506348e+00 -3.734327793121337891e+00 4.447124004364013672e+00 -3.882637977600097656e+00 2.557116985321044922e+00 -4.069900214672088623e-01 1.149878859519958496e+00 -8.688054680824279785e-01 -2.104400873184204102e+00 -2.910974740982055664e+00 2.317325353622436523e+00 -1.283377110958099365e-01 4.630390703678131104e-01 -3.540351688861846924e-01 -1.255876898765563965e+00 -1.728556871414184570e+00 2.345834493637084961e+00 -1.704306125640869141e+00 -1.547137200832366943e-01 -1.748825311660766602e+00 1.890418291091918945e+00 -7.622176408767700195e-02 3.631743490695953369e-01 -9.952551722526550293e-01 3.289749383926391602e+00 -4.045662879943847656e+00 -1.276155710220336914e+00 -1.430799484252929688e+00 -1.422354340553283691e+00 -2.161257028579711914e+00 -3.586696624755859375e+00 1.672848701477050781e+00 -1.758473038673400879e+00 -1.912327170372009277e+00 -1.659420967102050781e+00 1.116943836212158203e+00 -2.557914972305297852e+00 -6.129473913460969925e-03 -5.702525377273559570e-01 -7.228783965110778809e-01 -1.010245084762573242e+00 1.915581583976745605e+00 1.441421031951904297e+00 3.203660011291503906e+00 -6.839012503623962402e-01 -3.632781505584716797e+00
-1.408279061317443848e+00 1.464324235916137695e+00 -2.206306219100952148e+00 -9.151300787925720215e-01 -2.833830118179321289e+00 -3.764347136020660400e-01 -1.299972653388977051e+00 -9.689736962318420410e-01 2.161519050598144531e+00 7.925781607627868652e-02 -2.977635860443115234e+00 -1.173405647277832031e+00 -3.009354352951049805e+00 -1.340257644653320312e+00 -1.021290659904479980e+00 3.573848485946655273e+00 2.804008483886718750e+00 -1.419262409210205078e+00 -1.325580835342407227e+00 -8.504785299301147461e-01 1.479686856269836426e+00 2.163243293762207031e+00 -5.630043148994445801e-01 -2.025752305984497070e+00 1.523883581161499023e+00 4.512288093566894531e+00 1.597797393798828125e+00 -1.255744099617004395e+00 4.190526902675628662e-01 -1.840863466262817383e+00 2.811162173748016357e-01 2.941897630691528320e+00 -2.355006933212280273e+00 -5.108318805694580078e+00 -2.306098222732543945e+00 3.821296393871307373e-01 4.024969041347503662e-01 3.674126863479614258e-01 -7.308997631072998047e+00 1.276571273803710938e+00 2.841761350631713867e+00 -5.507325530052185059e-01 -1.015484571456909180e+00 2.573873043060302734e+00 -4.076985120773315430e-01 -1.936116218566894531e+00 -8.038130402565002441e-01 2.899295806884765625e+00 -2.093106985092163086e+00 -1.069673061370849609e+00
-8.468270897865295410e-01 2.927005529403686523e+00 1.979092121124267578e+00 -5.479122400283813477e-01 3.882438659667968750e+00 1.715467929840087891e+00 4.624011516571044922e+00 1.364001631736755371e+00 -1.489078164100646973e+00 -1.167696237564086914e+00 2.299905717372894287e-01 -7.692463397979736328e-01 2.691130340099334717e-01 -7.144655585289001465e-01 3.890657186508178711e+00 2.135957032442092896e-01 6.550550460815429688e-01 -1.180361628532409668e+00 2.571673870086669922e+00 1.471332669258117676e+00 4.409730911254882812e+00 -3.201349258422851562e+00 -7.462864875793457031e+00 1.962703585624694824e+00 -1.582057714462280273e+00 2.811102628707885742e+00 -2.031569480895996094e+00 1.284472227096557617e+00 1.400089979171752930e+00 -2.927689790725708008e+00 -6.122710648924112320e-03 6.449145078659057617e-02 -1.824549674987792969e+00 -3.881244897842407227e+00 -1.079667329788208008e+00 -5.778185725212097168e-01 -2.879210710525512695e+00 -2.391987085342407227e+00 -2.266702175140380859e+00 -3.196650743484497070e+00 1.843313336372375488e+00 -1.600137948989868164e+00 1.364296197891235352e+00 3.114522695541381836e+00 -3.600095748901367188e+00 -1.351580858230590820e+00 3.270743042230606079e-02 -1.963706463575363159e-01 -5.408552646636962891e+00 -3.045637607574462891e+00
-5.544323921203613281e-01 1.078853249549865723e+00 -5.058563709259033203e+00 1.472843766212463379e+00 4.555381774902343750e+00 -2.668973922729492188e+00 2.103866100311279297e+00 -1.287811994552612305e-01 2.088730096817016602e+00 1.775549054145812988e+00 1.457424998283386230e+00 -2.278784513473510742e+00 -5.181668996810913086e-01 1.515319943428039551e-01 -1.299661397933959961e+00 2.267010927200317383e+00 2.513655900955200195e+00 -1.752039790153503418e+00 -2.947147369384765625e+00 -9.823651909828186035e-01 -1.120071858167648315e-01 1.226131916046142578e+00 -1.677291035652160645e+00 -3.797769546508789062e+00 1.122095942497253418e+00 -2.661430358886718750e+00 2.479034423828125000e+00 -2.042434692382812500e+00 -2.405913591384887695e+00 7.681800723075866699e-01 2.491359233856201172e+00 -1.856725573539733887e+00 -1.762419223785400391e+00 -3.126012682914733887e-01 1.411846518516540527e+00 -6.204332038760185242e-02 -4.360254108905792236e-01 9.217667579650878906e-02 -3.935088396072387695e+00 1.101395130157470703e+00 1.785938858985900879e+00 -3.343192338943481445e+00 1.762965202331542969e+00 -1.330087423324584961e+00 -1.649017930030822754e+00 -2.807436227798461914e+00 -3.193249404430389404e-01 4.215152740478515625e+00 -2.541729211807250977e+00 -3.876904487609863281e+00
-6.604727506637573242e-01 -7.948723435401916504e-01 2.196787834167480469e+00 -1.730101943016052246e+00 -4.837889969348907471e-01 -5.853969573974609375e+00 8.297140598297119141e-01 3.834601163864135742e+00 2.105236530303955078e+00 -4.062532782554626465e-01 3.509085774421691895e-01 -1.460310220718383789e+00 1.313948869705200195e+00 5.179888010025024414e-01 -4.166764736175537109e+00 -5.370241589844226837e-03 1.117759466171264648e+00 1.267215013504028320e+00 -7.942485809326171875e-01 9.195896983146667480e-01 7.351735830307006836e-01 -1.625512123107910156e+00 -1.682785749435424805e+00 -1.972430348396301270e+00 -8.444048762321472168e-01 1.676038146018981934e+00 -1.224691033363342285e+00 2.888742208480834961e+00 9.913808703422546387e-01 1.614167690277099609e+00 -1.009090304374694824e+00 8.808794021606445312e-01 6.197144985198974609e-01 -3.364131927490234375e+00 2.258682727813720703e+00 2.114338397979736328e+00 -3.909292221069335938e+00 6.295203208923339844e+00 -4.448571205139160156e+00 5.809748545289039612e-02 -1.391868710517883301e+00 -1.199759125709533691e+00 -3.484379291534423828e+00 1.518831372261047363e+00 -4.640565395355224609e+00 -2.901663303375244141e+00 1.194439053535461426e+00 2.751510143280029297e+00 -1.702280640602111816e+00 -1.194604516029357910e+00
-1.324705600738525391e+00 2.371877670288085938e+00 -1.945258855819702148e+00 -2.428590297698974609e+00 2.773784160614013672e+00 -2.038174390792846680e+00 1.175206676125526428e-01 5.619775652885437012e-01 2.779362909495830536e-02 -3.631144762039184570e+00 2.970702409744262695e+00 1.572322010993957520e+00 9.925662875175476074e-01 -8.669719696044921875e-01 6.718941330909729004e-01 2.265362501144409180e+00 -3.681428909301757812e+00 1.801357150077819824e+00 -6.052309870719909668e-01 4.247447550296783447e-01 6.842807680368423462e-02 2.960505962371826172e+00 -1.966836571693420410e+00 3.159199237823486328e+00 -2.410943269729614258e+00 8.314340114593505859e-01 -4.407877922058105469e-01 -1.095488429069519043e+00 -9.766351580619812012e-01 1.095591187477111816e+00 -9.510529637336730957e-01 -3.647845268249511719e+00 -6.074590682983398438e+00 -9.447224140167236328e-01 -2.750369548797607422e+00 5.860168337821960449e-01 -2.612679719924926758e+00 -1.200919866561889648e+00 5.944374799728393555e-01 3.144379615783691406e+00 2.300436258316040039e+00 -3.689925670623779297e+00 -6.528943181037902832e-01 -2.413409948348999023e+00 -2.837502717971801758e+00 -2.840414047241210938e-01 3.511275053024291992e+00 4.854552268981933594e+00 -2.193329036235809326e-01 -4.275176048278808594e+00
-4.696312427520751953e+00 -9.060460329055786133e-02 1.615696310997009277e+00 -2.249732971191406250e+00 -2.498333454132080078e+00 -4.907551765441894531e+00 2.755978703498840332e-01 1.366571784019470215e+00 5.194187641143798828e+00 2.261752933263778687e-01 -2.912424802780151367e+00 -9.633073210716247559e-01 -3.594857454299926758e-01 2.892048120498657227e+00 1.957104206085205078e-01 2.769862174987792969e+00 2.075756549835205078e+00 -6.688805669546127319e-02 9.738990664482116699e-01 -3.027755498886108398e+00 1.794055938720703125e+00 1.003076553344726562e+00 -1.480394482612609863e+00 1.887220501899719238e+00 1.501100420951843262e+00 -1.007295679301023483e-02 -5.355713844299316406e+00 -1.020470619201660156e+00 2.374946355819702148e+00 -1.980412125587463379e+00 -9.655171036720275879e-01 4.592923521995544434e-01 7.006053626537322998e-02 2.620892047882080078e+00 -4.041207313537597656e+00 -1.045579075813293457e+00 -2.231925725936889648e+00 9.902072548866271973e-01 -2.741734027862548828e+00 2.106384187936782837e-01 -6.857555508613586426e-01 -1.244636178016662598e+00 -2.581573009490966797e+00 1.646216869354248047e+00 -3.490903854370117188e+00 1.563730120658874512e+00 -1.657790876924991608e-02 4.377218246459960938e+00 -3.471856117248535156e+00 -2.925499342381954193e-02
1.887962460517883301e+00 -4.447095990180969238e-01 1.317048907279968262e+00 1.753830909729003906e+00 2.697874069213867188e+00 -3.409551382064819336e+00 1.873082041740417480e+00 5.369473695755004883e-01 2.419349431991577148e+00 -2.647581577301025391e+00 1.118768811225891113e+00 1.298459470272064209e-01 -3.447932004928588867e+00 2.020361900329589844e+00 3.848066329956054688e+00 1.177498459815979004e+00 2.721634864807128906e+00 -2.529477775096893311e-01 1.296990156173706055e+00 -6.360366344451904297e-01 -8.665752410888671875e-01 -6.819449067115783691e-01 -1.186418175697326660e+00 1.362490177154541016e+00 -3.878894090652465820e+00 1.793105483055114746e+00 1.638715028762817383e+00 -4.368922710418701172e+00 -1.705639958381652832e+00 -3.597400188446044922e+00 -1.720992684364318848e+00 -1.538456916809082031e+00 -2.370045185089111328e+00 -2.035578489303588867e+00 5.599633455276489258e-01 1.843395680189132690e-01 2.180080115795135498e-01 -8.758518695831298828e-01 -1.754161119461059570e+00 4.262930750846862793e-01 1.254347115755081177e-01 4.709254741668701172e+00 -2.578798770904541016e+00 -3.512407779693603516e+00 -2.648710966110229492e+00 -3.920007944107055664e+00 -1.431706994771957397e-01 1.779523849487304688e+00 -3.361580610275268555e+00 -1.324851274490356445e+00
9.972882866859436035e-01 3.407519578933715820e+00 -4.351465225219726562e+00 4.061353802680969238e-01 -3.134806156158447266e-01 -1.120306491851806641e+00 8.695119619369506836e-01 -1.621166348457336426e+00 2.050707191228866577e-01 -5.639066696166992188e+00 -1.460303962230682373e-01 -3.980670869350433350e-01 9.366636872291564941e-01 -1.708616018295288086e+00 1.028133034706115723e+00 1.589004755020141602e+00 2.332686185836791992e+00 -9.786438941955566406e-01 8.238131403923034668e-01 3.373058736324310303e-01 -4.203376173973083496e-01 1.813032388687133789e+00 -2.461118221282958984e+00 2.652496337890625000e+00 -3.918801993131637573e-02 1.118716478347778320e+00 -4.481860637664794922e+00 -1.492902636528015137e-01 -2.706402540206909180e+00 -2.868306875228881836e+00 3.331949114799499512e-01 -4.146977424621582031e+00 3.435606718063354492e+00 1.293659061193466187e-01 -1.163638103753328323e-02 3.845758914947509766e+00 -6.135588645935058594e+00 1.455844879150390625e+00 -1.768108963966369629e+00 -2.126031398773193359e+00 -4.288986697793006897e-02 1.770228892564773560e-01 1.716149210929870605e+00 1.947223782539367676e+00 -5.588593959808349609e+00 -1.372154831886291504e+00 5.004172921180725098e-01 2.670562744140625000e+00 1.063937187194824219e+00 -1.177819848060607910e+00
1.400515675544738770e+00 -8.704815506935119629e-01 -2.607350826263427734e+00 -7.186207175254821777e-01 -4.392867565155029297e+00 -3.604493618011474609e+00 1.016600489616394043e+00 1.071418046951293945e+00 3.269171714782714844e+00 1.784183621406555176e+00 6.436010003089904785e-01 4.110432624816894531e+00 -3.596064329147338867e+00 -1.187675476074218750e+00 1.305116415023803711e+00 3.135093688964843750e+00 2.360678672790527344e+00 1.487692832946777344e+00 -4.297372817993164062e+00 -9.303951263427734375e-01 3.195479869842529297e+00 -2.064850807189941406e+00 2.435880899429321289e+00 -2.274972677230834961e+00 -2.604933738708496094e+00 -1.635960340499877930e+00 -3.065120697021484375e+00 1.535789847373962402e+00 -6.557528495788574219e+00 -2.209141254425048828e+00 2.569414377212524414e+00 2.918852090835571289e+00 3.525197505950927734e-02 -2.068813085556030273e+00 6.826454401016235352e-01 -6.034010648727416992e-01 -2.071696281433105469e+00 1.948613047599792480e+00 -1.449172973632812500e+00 -5.421036481857299805e-01 3.939301669597625732e-01 1.968877315521240234e+00 -4.977794587612152100e-01 1.289795756340026855e+00 -1.070075631141662598e+00 -9.506793618202209473e-01 1.054048180580139160e+00 2.586351633071899414e+00 -3.570254564285278320e+00 -3.001453161239624023e+00
-1.507825732231140137e+00 2.515617847442626953e+00 -2.272267341613769531e+00 2.840672016143798828e+00 4.844888687133789062e+00 -3.356287956237792969e+00 -2.126761436462402344e+00 -6.820878386497497559e-01 3.903599023818969727e+00 -2.455206960439682007e-01 -3.079137802124023438e+00 -4.250388145446777344e+00 -1.642693400382995605e+00 4.294569492340087891e+00 -1.801663160324096680e+00 7.677278518676757812e-01 2.615753889083862305e+00 2.960930585861206055e+00 -1.662686824798583984e+00 2.544656038284301758e+00 -1.039005756378173828e+00 -1.527150869369506836e+00 -1.595264196395874023e+00 -5.794739350676536560e-02 1.508040279150009155e-01 -1.153725862503051758e+00 -2.076610088348388672e+00 -2.267936944961547852e+00 -8.026601672172546387e-01 7.596244812011718750e-01 -1.719926595687866211e-01 -2.861498355865478516e+00 -2.055505514144897461e+00 -3.022745847702026367e+00 -2.209889173507690430e+00 9.925189018249511719e-01 1.091940879821777344e+00 -2.893539428710937500e+00 -1.789778113365173340e+00 1.046115994453430176e+00 -3.526557385921478271e-01 7.046579718589782715e-01 9.349139332771301270e-01 -7.227743268013000488e-01 -2.271704673767089844e+00 -9.358644485473632812e-01 4.083475112915039062e+00 8.127265572547912598e-01 -8.097155094146728516e-01 -5.512551665306091309e-01
-3.161089658737182617e+00 3.682397603988647461e+00 1.725216507911682129e+00 -1.116342306137084961e+00 -1.255535244941711426e+00 -2.937719345092773438e+00 -5.300459861755371094e-01 1.614281237125396729e-01 -2.756390094757080078e+00 -3.819902896881103516e+00 -1.454040527343750000e+00 -3.453214883804321289e+00 1.326963603496551514e-01 -1.822664737701416016e-01 1.033658534288406372e-01 1.538551092147827148e+00 4.202106952667236328e+00 2.781855106353759766e+00 3.032729864120483398e+00 -4.526519775390625000e-01 -5.458613634109497070e-01 -2.922078669071197510e-01 -2.226063728332519531e+00 1.597111344337463379e+00 1.188247874379158020e-01 1.422658681869506836e+00 1.008526682853698730e+00 -1.018291115760803223e+00 -8.129180669784545898e-01 1.833431363105773926e+00 -2.428727388381958008e+00 2.977690100669860840e-01 9.751674532890319824e-01 8.199452757835388184e-01 1.392235994338989258e+00 -1.408411979675292969e+00 -3.702298402786254883e+00 -3.267953693866729736e-01 8.888447880744934082e-01 -3.060372829437255859e+00 4.066919326782226562e+00 -3.010481595993041992e-01 -7.029386162757873535e-01 -2.199938058853149414e+00 -3.921503067016601562e+00 -4.067508220672607422e+00 3.918003320693969727e+00 2.955559968948364258e+00 -2.018528938293457031e+00 -3.601119995117187500e+00
2.749883569777011871e-02 1.216541051864624023e+00 -2.734096050262451172e+00 2.996203601360321045e-01 -1.455693006515502930e+00 -9.710300564765930176e-01 3.169812202453613281e+00 -3.832836151123046875e-01 3.990930914878845215e-01 -2.949186086654663086e+00 8.944638967514038086e-01 6.416337490081787109e-01 4.081564903259277344e+00 -8.319893479347229004e-01 6.438811421394348145e-01 -1.160033941268920898e+00 3.374567747116088867e+00 3.433378934860229492e+00 -3.491918325424194336e+00 -2.148288011550903320e+00 -1.538904428482055664e+00 -8.574809432029724121e-01 -1.995145320892333984e+00 1.262510657310485840e+00 1.830912947654724121e+00 5.365033745765686035e-01 -5.002522468566894531e+00 1.896244525909423828e+00 -1.546756744384765625e+00 -6.850045323371887207e-01 -3.285340070724487305e+00 -2.023797512054443359e+00 -8.710664510726928711e-01 -3.143609523773193359e+00 2.960968017578125000e+00 1.704559803009033203e+00 3.500164508819580078e+00 3.085181474685668945e+00 -4.224398136138916016e+00 1.985150575637817383e+00 4.204048812389373779e-01 -2.584779262542724609e+00 -3.988308191299438477e+00 -1.041227817535400391e+00 -3.199616909027099609e+00 -9.019614011049270630e-02 -4.466692447662353516e+00 3.540171384811401367e+00 -3.731172978878021240e-01 4.300799220800399780e-02
1.951773762702941895e+00 -1.413734853267669678e-01 -2.443711280822753906e+00 -1.097800493240356445e+00 7.697681784629821777e-01 4.425205588340759277e-01 -2.462548255920410156e+00 2.012974917888641357e-01 4.171865582466125488e-01 -9.382132291793823242e-01 3.602506160736083984e+00 -1.307979345321655273e+00 -2.943629026412963867e+00 1.992237925529479980e+00 2.806625843048095703e+00 3.228238821029663086e+00 5.176913738250732422e+00 -2.153498977422714233e-01 -6.812660098075866699e-01 1.429759860038757324e+00 2.645829439163208008e+00 -2.916991233825683594e+00 -1.639115929603576660e+00 8.418959975242614746e-01 -2.895996272563934326e-01 1.407175064086914062e-01 -1.639809846878051758e+00 1.257470726966857910e+00 1.113727092742919922e+00 1.477820396423339844e+00 -4.069870948791503906e+00 -5.355262756347656250e-01 -1.457787036895751953e+00 1.942151069641113281e+00 -6.183654308319091797e+00 2.105557680130004883e+00 -1.015321254730224609e+00 -1.306441664695739746e+00 -4.672258377075195312e+00 -7.454416751861572266e-01 -1.282911419868469238e+00 -1.559710621833801270e+00 -5.513584613800048828e-01 6.312184929847717285e-01 -7.490605711936950684e-01 -5.227552413940429688e+00 -3.145295858383178711e+00 1.969837069511413574e+00 -1.168174505233764648e+00 1.009201884269714355e+00
2.425528764724731445e+00 2.295165657997131348e-01 1.511234283447265625e+00 2.473064184188842773e+00 1.602756261825561523e+00 -1.275597691535949707e+00 2.041657686233520508e+00 -3.225099325180053711e+00 4.078746318817138672e+00 -3.874704122543334961e+00 -9.204100966453552246e-01 5.885789394378662109e-01 -1.346282958984375000e+00 -2.599775314331054688e+00 5.185235738754272461e-01 4.878722190856933594e+00 -6.189604401588439941e-01 -8.007918596267700195e-01 -1.732149481773376465e+00 -2.295576572418212891e+00 -4.153693199157714844e+00 -5.434972286224365234e+00 1.067475080490112305e+00 -1.147642254829406738e+00 2.058329582214355469e-01 -6.644265651702880859e-01 -5.110334873199462891e+00 -1.852455139160156250e+00 -2.481457591056823730e-02 -7.673162221908569336e-02 1.983646512031555176e+00 -1.046739459037780762e+00 -2.233587741851806641e+00 1.634637117385864258e+00 -1.284906744956970215e+00 -1.374564409255981445e+00 2.428391128778457642e-01 2.059942722320556641e+00 -2.563181638717651367e+00 7.376844286918640137e-01 4.357821941375732422e+00 3.280083835124969482e-01 -3.568042516708374023e-01 -2.902747690677642822e-01 -5.302572250366210938e+00 2.435443401336669922e+00 5.382415652275085449e-01 3.213052988052368164e+00 -1.441340208053588867e+00 -7.124254703521728516e-01
-2.620397806167602539e+00 1.226254343986511230e+00 -5.371651172637939453e+00 -9.348604083061218262e-01 2.281656503677368164e+00 -2.770361304283142090e-01 -2.842978477478027344e+00 -1.771643906831741333e-01 4.080517768859863281e+00 -3.079028129577636719e+00 -6.589617114514112473e-03 -1.346255898475646973e+00 2.208577394485473633e+00 1.982989549636840820e+00 2.072256326675415039e+00 1.460124969482421875e+00 7.387197017669677734e-01 -1.038447737693786621e+00 -2.070053815841674805e+00 2.727791547775268555e+00 2.137125968933105469e+00 6.866829991340637207e-01 -3.378920555114746094e+00 -2.298518657684326172e+00 -3.157678127288818359e+00 1.513317108154296875e+00 -9.475165605545043945e-01 -1.384012103080749512e+00 -1.378429889678955078e+00 7.993843555450439453e-01 7.030614018440246582e-01 8.171167969703674316e-01 -4.730523228645324707e-01 -6.176280975341796875e+00 -1.869829595088958740e-01 1.454291939735412598e+00 -3.275358676910400391e+00 1.000331044197082520e+00 -3.977901220321655273e+00 9.109925031661987305e-01 -1.316803216934204102e+00 -8.672488927841186523e-01 -4.484005451202392578e+00 2.283948183059692383e+00 8.031594753265380859e-01 -3.381196558475494385e-01 1.316655397415161133e+00 2.185009479522705078e+00 4.054481685161590576e-01 2.672435283660888672e+00
-1.772915005683898926e+00 3.947234392166137695e+00 1.013816356658935547e+00 -1.615701913833618164e+00 2.434603691101074219e+00 -3.968999385833740234e+00 -6.079810857772827148e-01 -1.994212746620178223e+00 1.161045074462890625e+00 -2.775269985198974609e+00 -9.916732087731361389e-03 -3.696873664855957031e+00 7.492914795875549316e-01 1.321830153465270996e-01 1.582254171371459961e+00 2.069619655609130859e+00 2.153594255447387695e+00 3.344264984130859375e+00 -2.105516910552978516e+00 -1.938703179359436035e+00 2.732537984848022461e+00 -2.201507568359375000e+00 -2.684211015701293945e+00 -2.732037067413330078e+00 1.663267135620117188e+00 5.479835867881774902e-01 6.234397888183593750e-01 4.917161941528320312e+00 8.066353201866149902e-01 1.098327636718750000e+00 7.191995382308959961e-01 -1.792431116104125977e+00 4.141806066036224365e-01 -2.069007903337478638e-01 -3.792175054550170898e-01 -5.623537302017211914e-01 -3.357838630676269531e+00 -1.061978697776794434e+00 -2.325810432434082031e+00 -4.804763793945312500e+00 -2.793125867843627930e+00 -4.099652469158172607e-01 3.054078102111816406e+00 -4.438804626464843750e+00 2.710760593414306641e+00 4.833794534206390381e-01 -3.131944179534912109e+00 1.585917353630065918e+00 -2.225609302520751953e+00 -1.014008373022079468e-01
-1.287505149841308594e+00 1.895287156105041504e+00 5.490863919258117676e-01 3.331983089447021484e+00 -1.488378524780273438e+00 2.273472249507904053e-01 6.178006529808044434e-01 -3.509137153625488281e+00 3.848257064819335938e-01 2.832732915878295898e+00 1.724656939506530762e+00 -1.378330111503601074e+00 -1.034933090209960938e+00 5.025274753570556641e+00 2.271594047546386719e+00 2.637456417083740234e+00 7.461030483245849609e-01 -1.656690835952758789e+00 -1.960410714149475098e+00 -1.459894061088562012e+00 -2.271726608276367188e+00 -7.519128918647766113e-01 -2.466031551361083984e+00 -1.553854942321777344e+00 -4.957016944885253906e+00 1.108878374099731445e+00 -3.807716846466064453e+00 -1.086014270782470703e+00 -3.520466804504394531e+00 5.832676887512207031e-01 -2.760794162750244141e+00 2.613796710968017578e+00 -1.035799503326416016e+00 -3.141017913818359375e+00 -3.391277790069580078e+00 2.155903577804565430e+00 1.981556266546249390e-01 1.876927256584167480e+00 -4.236612319946289062e+00 2.600800693035125732e-01 4.721725881099700928e-01 7.189945578575134277e-01 -7.418587207794189453e-01 -1.024712435901165009e-02 -1.788820981979370117e+00 -5.409871339797973633e-01 1.824134230613708496e+00 3.136907577514648438e+00 -1.046028733253479004e+00 -1.538014411926269531e+00
-2.020896673202514648e+00 4.242979288101196289e-01 3.409614562988281250e-01 -5.677568912506103516e-01 -2.553158998489379883e+00 -3.829876422882080078e+00 4.745694637298583984e+00 1.390143036842346191e+00 5.976402759552001953e-01 -1.055313825607299805e+00 5.796225070953369141e-01 1.765176296234130859e+00 -3.548434495925903320e+00 -8.895112872123718262e-01 -1.869243860244750977e+00 3.179606676101684570e+00 3.779464721679687500e+00 2.542267799377441406e+00 -4.399418354034423828e+00 -6.370071768760681152e-01 -8.812911510467529297e-01 -2.375474452972412109e+00 -1.902439117431640625e+00 3.063295125961303711e+00 1.721461713314056396e-01 2.014122009277343750e+00 -2.838193655014038086e+00 1.713443398475646973e-01 -3.839915618300437927e-02 1.441293478012084961e+00 5.616921782493591309e-01 -1.695918917655944824e+00 -2.508006095886230469e+00 -3.374317407608032227e+00 -1.915487051010131836e+00 2.223780155181884766e+00 1.735189437866210938e+00 -3.488025426864624023e+00 -4.471618652343750000e+00 -4.283451080322265625e+00 8.439214527606964111e-02 2.897056341171264648e-01 -1.022038459777832031e+00 1.075104713439941406e+00 1.779816001653671265e-01 5.655137300491333008e-01 3.860752820968627930e+00 2.113789319992065430e+00 -2.370675563812255859e+00 -5.855922028422355652e-02
-5.526521205902099609e+00 -1.642007708549499512e+00 1.982510924339294434e+00 -9.450958371162414551e-01 -1.005199998617172241e-01 2.308075666427612305e+00 -2.657882690429687500e+00 -2.754355967044830322e-01 1.070649743080139160e+00 1.129123806953430176e+00 3.842832565307617188e+00 -3.358422994613647461e+00 3.282802402973175049e-01 -1.479948014020919800e-01 1.398112416267395020e+00 4.575000762939453125e+00 1.091718077659606934e+00 2.602143526077270508e+00 8.722482323646545410e-01 -2.370455980300903320e+00 4.157598972320556641e+00 -1.532532811164855957e+00 -4.855412006378173828e+00 -6.251634955406188965e-01 -1.994389295578002930e+00 -9.816294908523559570e-01 -2.017110347747802734e+00 3.314340353012084961e+00 -3.968200206756591797e+00 -1.190570116043090820e+00 -5.846658945083618164e-01 -5.406203269958496094e+00 -1.557937622070312500e+00 -1.662739515304565430e+00 -7.127764821052551270e-01 2.575597047805786133e+00 -1.147320628166198730e+00 -1.540370583534240723e+00 -2.739885330200195312e+00 -1.350538253784179688e+00 2.566760063171386719e+00 1.676093041896820068e-01 -6.055698171257972717e-02 1.940224766731262207e+00 -2.634835958480834961e+00 4.548707008361816406e+00 -7.557034492492675781e-01 2.725591897964477539e+00 1.041623473167419434e+00 -2.429578304290771484e+00
-4.349368095397949219e+00 -3.469374418258666992e+00 -2.843034029006958008e+00 2.491917610168457031e+00 2.699726104736328125e+00 -1.440779209136962891e+00 3.250911712646484375e+00 -2.868638932704925537e-01 4.086211621761322021e-01 1.680614948272705078e+00 1.812544107437133789e+00 -8.551865220069885254e-01 -3.601643800735473633e+00 2.760573387145996094e+00 4.519476592540740967e-01 -3.709647655487060547e-01 -3.849551379680633545e-01 8.981571793556213379e-01 -2.099569737911224365e-01 -7.997245788574218750e-01 -1.512276649475097656e+00 -1.131747126579284668e+00 -1.217200517654418945e+00 1.454744935035705566e-01 1.871430754661560059e+00 2.322691202163696289e+00 -7.488625049591064453e-01 3.093900084495544434e-01 -2.856060743331909180e+00 -3.322991371154785156e+00 1.591728091239929199e+00 -1.907101273536682129e-01 6.448221206665039062e-01 -4.455523490905761719e+00 1.921164393424987793e+00 5.240972638130187988e-01 -3.183580398559570312e+00 -2.157729625701904297e+00 -3.420099973678588867e+00 2.046446949243545532e-01 8.297986984252929688e-01 1.893124580383300781e+00 1.777483582496643066e+00 -2.310284137725830078e+00 -3.363699913024902344e+00 1.457083702087402344e+00 -9.474567174911499023e-01 2.628715038299560547e+00 7.857595086097717285e-01 -2.789611101150512695e+00
-2.774574518203735352e+00 -7.585384845733642578e-01 8.445840477943420410e-01 -1.172544717788696289e+00 3.091047763824462891e+00 -4.068927764892578125e-01 -4.001518785953521729e-01 1.308835387229919434e+00 3.427987098693847656e-01 -3.167157173156738281e+00 -3.008746802806854248e-01 6.057619452476501465e-01 -1.819344162940979004e+00 -2.872597277164459229e-01 1.682796001434326172e+00 1.587603211402893066e+00 1.212706327438354492e+00 -1.517003476619720459e-01 1.122717380523681641e+00 3.095108509063720703e+00 -5.549407601356506348e-01 2.362455129623413086e+00 -3.411848068237304688e+00 -1.915579557418823242e+00 -4.394689202308654785e-01 3.711976528167724609e+00 -2.522548913955688477e+00 -6.994932889938354492e-01 1.690672874450683594e+00 -4.105540215969085693e-01 1.038796782493591309e+00 -4.001797676086425781e+00 -2.475591659545898438e+00 -2.836390733718872070e+00 -2.039050817489624023e+00 -5.432025790214538574e-01 -3.478930711746215820e+00 4.309131801128387451e-01 -3.807664871215820312e+00 2.327670812606811523e+00 1.954790472984313965e+00 8.717908859252929688e-01 -1.046929836273193359e+00 1.412756741046905518e-01 2.543074607849121094e+00 -2.012320756912231445e+00 1.821460366249084473e+00 1.029640555381774902e+00 -4.888454437255859375e+00 -3.629194021224975586e+00
-2.566097259521484375e+00 -3.288142204284667969e+00 1.394956111907958984e+00 1.129402399063110352e+00 9.154903292655944824e-01 2.048553943634033203e+00 2.220075130462646484e+00 -2.467305183410644531e+00 2.505147457122802734e+00 -2.433072090148925781e+00 -2.291857957839965820e+00 -2.196952998638153076e-01 -2.226209789514541626e-01 -1.440327048301696777e+00 2.262356758117675781e+00 1.295118212699890137e+00 8.150538802146911621e-02 2.824654102325439453e+00 -1.232833981513977051e+00 1.566650271415710449e+00 -6.148386597633361816e-01 -6.800097942352294922e+00 -1.719189763069152832e+00 -2.201416969299316406e+00 -1.953825235366821289e+00 1.192276358604431152e+00 -6.287543177604675293e-01 -1.629969179630279541e-01 -1.420348644256591797e+00 5.117571353912353516e-01 1.033172011375427246e+00 2.019071727991104126e-01 -3.337235450744628906e+00 -6.726120710372924805e-01 -2.198218703269958496e-01 3.048977851867675781e+00 -2.889258146286010742e+00 6.177637100219726562e+00 -2.805133104324340820e+00 -1.235058546066284180e+00 -1.666246414184570312e+00 -1.363268136978149414e+00 7.798172235488891602e-01 -2.872479677200317383e+00 -9.434797763824462891e-01 -2.453461408615112305e+00 3.034137248992919922e+00 3.719769954681396484e+00 8.035799860954284668e-01 -1.644347667694091797e+00
9.832401275634765625e-01 3.051838159561157227e+00 1.761648178100585938e+00 2.272777557373046875e+00 -1.940011143684387207e+00 -3.823883771896362305e+00 1.355904698371887207e+00 8.452302217483520508e-01 2.784055769443511963e-01 -5.209241390228271484e+00 2.327136099338531494e-01 -2.675325870513916016e+00 3.588956117630004883e+00 4.944215994328260422e-03 1.303843379020690918e+00 -4.953627586364746094e-01 4.500359594821929932e-01 -1.387934565544128418e+00 -6.503742188215255737e-02 2.363732159137725830e-01 -1.932750493288040161e-01 1.821786046028137207e+00 -2.287843942642211914e+00 -5.271989107131958008e-01 2.002637863159179688e+00 -3.596265316009521484e+00 -3.526095628738403320e+00 1.212236523628234863e+00 -2.919491291046142578e+00 1.568253040313720703e-01 -4.634713172912597656e+00 3.454170525074005127e-01 -3.752127170562744141e+00 -3.072025299072265625e+00 -1.657516956329345703e+00 1.511422872543334961e+00 -2.179987430572509766e+00 1.352497100830078125e+00 -3.938812911510467529e-01 5.990374088287353516e-01 -3.885152041912078857e-01 2.740587949752807617e+00 4.712984561920166016e-01 -1.938072204589843750e+00 -2.361659765243530273e+00 1.614850163459777832e+00 -2.948505640029907227e+00 4.654358386993408203e+00 -4.596580862998962402e-01 1.086059212684631348e+00
-1.065064668655395508e+00 2.336380243301391602e+00 -3.617367744445800781e+00 1.702721118927001953e+00 -3.875723361968994141e+00 8.638280630111694336e-01 -1.451935172080993652e-01 9.802258014678955078e-01 4.651677131652832031e+00 -2.897662162780761719e+00 -2.855360746383666992e+00 3.475477695465087891e-01 9.414383023977279663e-02 4.131187438964843750e+00 4.662329673767089844e+00 2.443654537200927734e-01 2.532164096832275391e+00 -9.477612972259521484e-01 6.571095585823059082e-01 1.525192379951477051e+00 1.165969491004943848e+00 -8.363472670316696167e-02 1.659037768840789795e-01 -2.393773794174194336e+00 2.361494600772857666e-01 -1.459749102592468262e+00 -2.056065559387207031e+00 -2.582956790924072266e+00 -1.861504673957824707e+00 -1.671446442604064941e+00 2.327500581741333008e+00 -8.384739756584167480e-01 -3.296400070190429688e+00 -3.501839637756347656e+00 8.375852108001708984e-01 -2.824636936187744141e+00 -6.896900177001953125e+00 1.551741600036621094e+00 -1.896906375885009766e+00 -3.703197464346885681e-02 1.473914027214050293e+00 1.988379061222076416e-01 1.083777785301208496e+00 -3.598821640014648438e+00 -4.652075767517089844e-01 3.609530627727508545e-01 -3.320737779140472412e-01 2.195165395736694336e+00 1.342314600944519043e+00 -1.090037465095520020e+00
-4.100759506225585938e+00 -3.445401430130004883e+00 -9.328943490982055664e-01 7.223633527755737305e-01 5.249554157257080078e+00 -1.055618405342102051e+00 5.199954509735107422e+00 2.166778802871704102e+00 1.530463576316833496e+00 -6.835620999336242676e-01 -1.445139348506927490e-01 7.488766312599182129e-01 -6.638299226760864258e-01 1.692467927932739258e+00 1.745962947607040405e-01 -3.917741298675537109e+00 -3.143141984939575195e+00 1.065926671028137207e+00 -3.001891851425170898e+00 1.231640219688415527e+00 -7.483299970626831055e-01 1.219307780265808105e+00 -3.452944993972778320e+00 1.131516218185424805e+00 -5.165585279464721680e-01 1.193152666091918945e+00 -2.586199283599853516e+00 -3.656333208084106445e+00 -4.318258762359619141e-01 -8.181117177009582520e-01 -3.511949777603149414e-01 -6.753275394439697266e-01 1.259080022573471069e-01 -4.186041831970214844e+00 2.310502052307128906e+00 2.933262825012207031e+00 -9.030866622924804688e-01 1.307466328144073486e-01 -2.404283285140991211e+00 2.433751821517944336e+00 -1.233791470527648926e+00 -2.463696241378784180e+00 -2.307062625885009766e+00 -1.513394117355346680e+00 -2.017109632492065430e+00 5.962185859680175781e-01 9.360358715057373047e-01 3.023450374603271484e+00 -1.721705317497253418e+00 -1.256326675415039062e+00
-3.016153573989868164e+00 4.105080127716064453e+00 -8.672873377799987793e-01 6.196213960647583008e-01 -2.188136577606201172e+00 -1.450152516365051270e+00 8.493385314941406250e-01 -4.024500250816345215e-01 4.331266403198242188e+00 5.529654622077941895e-01 -1.455567479133605957e+00 -2.642305850982666016e+00 -3.805330514907836914e+00 2.698544979095458984e+00 3.110644578933715820e+00 -2.311433553695678711e+00 1.091149091720581055e+00 1.680619359016418457e+00 8.961805105209350586e-01 -4.348783567547798157e-02 3.575057506561279297e+00 -9.134241938591003418e-01 -3.970667362213134766e+00 -1.386106252670288086e+00 7.761594057083129883e-01 2.049801111221313477e+00 1.860333919525146484e+00 -4.704153835773468018e-01 -5.773534774780273438e-01 -1.691776633262634277e+00 -8.026468753814697266e-01 2.122384548187255859e+00 -2.522828988730907440e-02 -2.727424204349517822e-01 -8.044300675392150879e-01 1.401306271553039551e+00 -1.037718057632446289e+00 -2.071874856948852539e+00 -2.030995130538940430e+00 -5.857297897338867188e+00 -1.227960348129272461e+00 2.305627584457397461e+00 -3.793477058410644531e+00 -2.279723405838012695e+00 -3.206602811813354492e+00 -1.760422885417938232e-01 -1.402645930647850037e-02 9.287342429161071777e-01 2.831530809402465820e+00 -2.818714857101440430e+00
-2.483740806579589844e+00 2.111239582300186157e-01 -1.930270075798034668e+00 1.501222014427185059e+00 -1.006032943725585938e+00 -4.674956321716308594e+00 2.577077388763427734e+00 -5.027061462402343750e+00 4.884424209594726562e+00 -3.215510845184326172e+00 1.175184607505798340e+00 -1.490875244140625000e+00 -3.743661642074584961e-01 1.222612857818603516e+00 1.326488517224788666e-02 9.027864933013916016e-01 1.966096520423889160e+00 4.890599846839904785e-01 -3.707499027252197266e+00 2.769129276275634766e-01 -2.097047805786132812e+00 2.375186681747436523e+00 -5.612098217010498047e+00 -1.270894110202789307e-01 -8.749804496765136719e-01 2.587554454803466797e+00 1.615043997764587402e+00 -2.290911436080932617e+00 4.220964014530181885e-01 -1.652421951293945312e+00 3.149216473102569580e-01 -2.076749801635742188e+00 -2.934359312057495117e+00 -6.465318202972412109e-01 2.898222684860229492e+00 3.924109339714050293e-01 -1.628588080406188965e+00 1.790128350257873535e+00 -6.848084926605224609e-01 -3.625415563583374023e-01 -4.968635737895965576e-01 2.605182647705078125e+00 -4.722460746765136719e+00 2.689297199249267578e+00 5.816689133644104004e-01 7.026033401489257812e-01 -1.753253817558288574e+00 3.850293397903442383e+00 -2.211017847061157227e+00 -1.196059346199035645e+00
2.250276565551757812e+00 1.133105874061584473e+00 -3.573103189468383789e+00 3.264369964599609375e-01 1.922475218772888184e+00 -7.500827908515930176e-01 -1.705148518085479736e-01 -3.629676401615142822e-01 -7.898942232131958008e-01 -6.328304290771484375e+00 1.610361456871032715e+00 -1.894823759794235229e-01 -2.858439207077026367e+00 5.310831665992736816e-01 -1.379358291625976562e+00 1.909409523010253906e+00 2.156090974807739258e+00 2.529439687728881836e+00 -1.509471535682678223e+00 -1.583740353584289551e+00 -9.090609550476074219e-01 -2.917240619659423828e+00 -6.318048954010009766e+00 1.107790231704711914e+00 -8.058956861495971680e-01 4.410696983337402344e+00 -2.616510987281799316e-01 1.360364913940429688e+00 -4.737884521484375000e+00 8.752774000167846680e-01 -1.916430294513702393e-01 3.933111667633056641e+00 -4.872161388397216797e+00 6.738825440406799316e-01 2.422297954559326172e+00 -3.789087533950805664e-01 9.293776750564575195e-01 1.375854730606079102e+00 -2.774375200271606445e+00 -1.460825324058532715e+00 1.795947551727294922e+00 -1.012650132179260254e+00 -1.983494400978088379e+00 -1.799001932144165039e+00 9.808205366134643555e-01 6.047493815422058105e-01 -1.499507188796997070e+00 3.637679576873779297e+00 -1.955882072448730469e+00 -1.394630312919616699e+00
1.804540038108825684e+00 1.858047246932983398e+00 -1.010811049491167068e-02 -1.230010867118835449e+00 6.594686508178710938e-01 -4.267929077148437500e+00 -5.160564184188842773e-01 1.383571028709411621e-01 5.738055706024169922e+00 -8.593277931213378906e-01 3.966677188873291016e+00 -9.020126461982727051e-01 3.189226865768432617e+00 -1.463776946067810059e+00 7.193404436111450195e-02 -1.954333931207656860e-01 7.128799557685852051e-01 -2.613125801086425781e+00 -2.726375579833984375e+00 -4.829653263092041016e+00 4.338963508605957031e+00 2.264976978302001953e+00 -9.310969710350036621e-01 -3.684373855590820312e+00 5.575718283653259277e-01 9.406833648681640625e-01 -1.795303940773010254e+00 2.989515066146850586e-01 -1.023508459329605103e-01 9.795132279396057129e-01 -3.187353610992431641e-01 -6.872066855430603027e-01 -2.812008142471313477e+00 1.155796289443969727e+00 1.334142446517944336e+00 -5.825075507164001465e-01 -1.159485578536987305e+00 -8.333628773689270020e-01 -2.468922376632690430e+00 6.276559233665466309e-01 2.226320981979370117e+00 -2.747359275817871094e-01 -3.004574775695800781e+00 -3.455090999603271484e+00 -5.680998802185058594e+00 -3.021247982978820801e-01 2.732903718948364258e+00 1.896381497383117676e+00 -2.560858249664306641e+00 -2.783910751342773438e+00
-2.961584091186523438e+00 2.378969669342041016e+00 -1.333101391792297363e+00 3.011908292770385742e+00 3.519843578338623047e+00 9.691992402076721191e-01 3.071664810180664062e+00 3.651296377182006836e+00 1.283536553382873535e+00 1.561053544282913208e-01 1.967733383178710938e+00 -1.647181510925292969e+00 1.332327961921691895e+00 -1.160767227411270142e-01 -6.673736572265625000e-01 -8.385445475578308105e-01 3.282204627990722656e+00 -3.219104051589965820e+00 -9.969201087951660156e-01 -2.316523075103759766e+00 -2.266464754939079285e-03 1.818486094474792480e+00 -4.059108734130859375e+00 1.241381525993347168e+00 4.862388968467712402e-01 -1.609716653823852539e+00 -3.336700916290283203e+00 5.103597044944763184e-01 -2.425916910171508789e+00 -1.989965200424194336e+00 1.775314688682556152e+00 -2.472152709960937500e-01 -2.747840881347656250e+00 -4.632807731628417969e+00 -7.442446351051330566e-01 4.927432537078857422e+00 -1.976917147636413574e+00 2.474401235580444336e+00 -1.373452186584472656e+00 -9.473465681076049805e-01 1.987876057624816895e+00 -8.461036682128906250e-01 -2.627890348434448242e+00 -5.426743984222412109e+00 -4.591026902198791504e-01 1.400972962379455566e+00 -1.801726698875427246e+00 -5.057207345962524414e-01 -3.301717042922973633e+00 -1.196872591972351074e+00
-2.266669750213623047e+00 -1.672250509262084961e+00 1.507349610328674316e-01 1.736791014671325684e+00 -2.106653928756713867e+00 -2.020598888397216797e+00 1.715991497039794922e+00 -1.948330521583557129e+00 -3.398273229598999023e+00 1.721106618642807007e-01 6.126472353935241699e-02 -1.605101585388183594e+00 9.814213514328002930e-01 3.761704921722412109e+00 5.394126772880554199e-01 2.144393920898437500e+00 2.221743613481521606e-01 -6.901091933250427246e-01 -2.860611975193023682e-01 2.747951269149780273e+00 -1.485112190246582031e+00 2.521922349929809570e+00 -1.292943477630615234e+00 2.116552293300628662e-01 -4.595794379711151123e-01 3.790328025817871094e+00 -2.683235168457031250e+00 2.987145185470581055e+00 -1.094371438026428223e+00 -1.195931792259216309e+00 2.288079261779785156e+00 9.143620729446411133e-01 -5.852311134338378906e+00 4.167232513427734375e-01 2.806298136711120605e-01 -5.552806854248046875e+00 -1.300998091697692871e+00 1.176615595817565918e+00 -5.137622356414794922e+00 -1.421189904212951660e+00 4.177689850330352783e-01 1.895529478788375854e-01 -5.837739109992980957e-01 1.568443775177001953e+00 -4.800466537475585938e+00 -7.963361740112304688e-01 1.709379911422729492e+00 1.957940101623535156e+00 7.676880359649658203e-01 -2.079473733901977539e+00
-2.021957159042358398e+00 7.113771438598632812e+00 -4.738508164882659912e-01 1.467930912971496582e+00 7.210614681243896484e-01 1.917618513107299805e-01 1.608587741851806641e+00 2.161949396133422852e+00 -6.337492465972900391e-01 -2.655139923095703125e+00 -1.575404167175292969e+00 -1.408191442489624023e+00 -3.233811259269714355e-01 -8.449169993400573730e-01 2.400581598281860352e+00 -4.281534850597381592e-01 -6.852314472198486328e-01 1.858026027679443359e+00 4.165322184562683105e-01 -2.804783821105957031e+00 1.689684867858886719e+00 -2.241610288619995117e+00 -4.158872067928314209e-01 -3.034020423889160156e+00 2.865525245666503906e+00 1.990088105201721191e+00 -4.529938697814941406e+00 -1.512503623962402344e+00 3.200232028961181641e+00 2.640994489192962646e-01 -3.277545213699340820e+00 -4.475847780704498291e-01 -4.432833194732666016e+00 1.685019016265869141e+00 -1.553858637809753418e+00 3.442810535430908203e+00 -2.390636354684829712e-01 2.693041324615478516e+00 -4.083145141601562500e+00 1.671621561050415039e+00 9.289599061012268066e-01 -2.213344871997833252e-01 -3.333892107009887695e+00 9.198061823844909668e-01 -3.206338167190551758e+00 1.469685554504394531e+00 -7.858572006225585938e-01 1.538552403450012207e+00 -3.098510980606079102e+00 -4.012486934661865234e+00
