3.167600631713867188e+00 2.780704975128173828e+00 -1.745736360549926758e+00 -2.149142622947692871e-01 2.023524999618530273e+00 -3.209294080734252930e-01 -1.962690949440002441e+00 2.031805038452148438e+00 1.014806747436523438e+00 2.177917957305908203e+00 -2.328585386276245117e+00 -2.882576227188110352e+00 2.103214263916015625e+00 -3.454448461532592773e+00 6.206316947937011719e-01 -3.255669832229614258e+00 1.424383282661437988e+00 -1.645054340362548828e+00 -1.552340745925903320e+00 8.408965468406677246e-01 -6.365411877632141113e-01 -2.009266614913940430e+00 3.066836297512054443e-01 2.093575894832611084e-01 1.094271063804626465e+00 -3.065353631973266602e-01 1.351344704627990723e+00 2.205567598342895508e+00 2.465791225433349609e+00 -1.467180013656616211e+00 1.487691044807434082e+00 -3.115746974945068359e-01 -1.281005024909973145e+00 1.738198876380920410e+00 1.566126704216003418e+00 1.556850194931030273e+00 7.013418078422546387e-01 1.087061986327171326e-01 -6.637800484895706177e-02 -2.488073825836181641e+00 -1.462000608444213867e+00 -4.430266618728637695e-01 2.702196314930915833e-02 -9.409089684486389160e-01 2.881348609924316406e+00 2.698177814483642578e+00 2.600426912307739258e+00 2.297802448272705078e+00 6.005841121077537537e-02 1.405652463436126709e-01 -7.804682850837707520e-01 2.507542371749877930e+00 -9.207108020782470703e-01 5.963957309722900391e-01 1.951663494110107422e+00 1.179771900177001953e+00 1.387570977210998535e+00 5.492191910743713379e-01 1.881213903427124023e+00 -6.752164363861083984e-01 1.466675162315368652e+00 1.038491129875183105e+00 1.170718669891357422e+00 2.578279495239257812e+00 9.100294113159179688e-02 2.096365690231323242e+00 -2.633982658386230469e+00 2.244939327239990234e+00 -3.780395090579986572e-01 3.007852315902709961e+00 1.010585904121398926e+00 -2.678633689880371094e+00 2.814656019210815430e+00 2.280834436416625977e+00 1.519336700439453125e-01 -1.328296542167663574e+00 2.199197530746459961e+00 1.051565170288085938e+00 2.082492351531982422e+00 9.705700874328613281e-01 -1.268508911132812500e+00 3.701131641864776611e-01 1.014331430196762085e-01 -1.783721446990966797e+00 -3.019506931304931641e+00 -2.254571199417114258e+00 -2.734896659851074219e+00 3.432211279869079590e-01 -1.825955629348754883e+00 -2.057034969329833984e+00 -2.208547830581665039e+00 4.423641040921211243e-02 1.614587455987930298e-01 -2.895802259445190430e+00 -7.372832298278808594e-01 -3.278654813766479492e-01 1.303937137126922607e-01 -2.979679822921752930e+00 -2.553718566894531250e+00 -2.814805984497070312e+00 -1.673872470855712891e+00 -2.624919652938842773e+00 -6.923297643661499023e-01 -6.001327037811279297e-01 -1.326827287673950195e+00 -1.563737988471984863e+00 3.272698819637298584e-01 -2.822140455245971680e+00 -5.702645182609558105e-01 9.507509469985961914e-01 -1.306116104125976562e+00 2.079914569854736328e+00 -2.822862863540649414e+00 -6.944035887718200684e-01 -1.534391522407531738e+00 -2.492313146591186523e+00 -3.850451946258544922e+00 -1.947044491767883301e+00 1.333979964256286621e+00 -1.792746663093566895e+00 -1.692914843559265137e+00 -5.370745062828063965e-01 -1.996900439262390137e+00 4.363517761230468750e-01 9.779027104377746582e-01 1.901441574096679688e+00 -3.619055747985839844e-01 -2.721018552780151367e+00 -2.794709205627441406e+00 -1.671324968338012695e+00 -2.342917919158935547e+00 1.553479790687561035e+00 2.666545212268829346e-01 -7.392758727073669434e-01 -2.759604215621948242e+00 9.049846529960632324e-01 -2.322196722030639648e+00 4.978735148906707764e-01 -1.260262280702590942e-01 1.224058628082275391e+00 3.095328330993652344e+00 -7.298372983932495117e-01 1.160131096839904785e+00 4.178515672683715820e-01 -2.821101188659667969e+00 -2.380586862564086914e+00 -1.634389519691467285e+00 7.591248154640197754e-01 -8.739391565322875977e-01 -1.676496744155883789e+00 -1.272190809249877930e-01 4.746036231517791748e-01 6.838740706443786621e-01 4.206320345401763916e-01 -2.448149681091308594e+00 -2.562241554260253906e+00 -1.462213158607482910e+00 -2.013288974761962891e+00 -6.391430497169494629e-01 -1.652634620666503906e+00 6.335412710905075073e-02 3.106970310211181641e+00 -4.567651450634002686e-01 2.541133403778076172e+00 2.332680225372314453e+00 1.358227133750915527e+00 2.713165283203125000e+00 2.861104965209960938e+00 2.527691602706909180e+00 2.847812652587890625e+00 2.179787158966064453e-01 1.463095784187316895e+00 7.571482062339782715e-01 -2.454776048660278320e+00 2.175538301467895508e+00 1.432057321071624756e-01 9.934989213943481445e-01 2.206181287765502930e+00 -1.510638892650604248e-01 1.049597024917602539e+00 7.240214347839355469e-01 -4.665681421756744385e-01 1.679425001144409180e+00 -3.331548452377319336e+00 1.545021772384643555e+00 2.890105962753295898e+00 4.769028425216674805e-01 3.652938604354858398e-01 8.729056715965270996e-01 5.084602236747741699e-01 -4.047774970531463623e-01 6.265179514884948730e-01 -2.383586406707763672e+00 2.163470506668090820e+00 -1.261080145835876465e+00 -7.824777811765670776e-02 3.423850297927856445e+00 -9.262701869010925293e-01 2.066945552825927734e+00 2.366683244705200195e+00
-1.115635395050048828e+00 1.715682625770568848e+00 9.372569322586059570e-01 2.413866043090820312e+00 -2.161487340927124023e-01 5.754500031471252441e-01 -2.105273455381393433e-01 -1.826238393783569336e+00 -2.012335509061813354e-01 1.954266071319580078e+00 1.473778486251831055e+00 2.168965816497802734e+00 -2.855560064315795898e+00 -3.779228031635284424e-01 -1.817988872528076172e+00 -7.973163127899169922e-01 7.909063696861267090e-01 1.894893646240234375e+00 -9.672489762306213379e-01 -2.277473211288452148e+00 -1.531666517257690430e+00 4.187117815017700195e-01 -7.654896378517150879e-02 -9.960124492645263672e-01 1.900534778833389282e-01 -1.958530783653259277e+00 -3.240840742364525795e-03 4.245703220367431641e-01 2.636053562164306641e+00 2.312054157257080078e+00 2.042208433151245117e+00 -3.076542139053344727e+00 1.076673865318298340e+00 -2.779864549636840820e+00 7.431064844131469727e-01 1.412405967712402344e+00 -8.068637251853942871e-01 -2.268036603927612305e+00 6.810463070869445801e-01 -1.193709254264831543e+00 -8.766330480575561523e-01 2.677500724792480469e+00 -3.508229494094848633e+00 2.473617076873779297e+00 -1.266417384147644043e+00 -1.514961957931518555e+00 1.226188540458679199e-01 -1.397297263145446777e+00 -9.848390817642211914e-01 -1.892880916595458984e+00 -9.921752810478210449e-01 4.272156860679388046e-03 2.016231060028076172e+00 -1.236770629882812500e+00 7.848362326622009277e-01 -1.067349076271057129e+00 -8.465625643730163574e-01 1.757377624511718750e+00 2.640302896499633789e+00 -7.889139056205749512e-01 2.704819202423095703e+00 -1.760216057300567627e-01 -2.477766036987304688e+00 2.987228631973266602e+00 -2.043224573135375977e+00 2.489713907241821289e+00 -1.732690930366516113e+00 4.670429527759552002e-01 8.621063232421875000e-01 1.361078500747680664e+00 2.314687967300415039e-01 -2.366462707519531250e+00 2.646934032440185547e+00 -2.568882942199707031e+00 1.508652687072753906e+00 2.031776189804077148e+00 -1.497776389122009277e+00 -2.248711347579956055e+00 -4.703010246157646179e-02 -2.793370723724365234e+00 2.374373674392700195e-01 -3.205226659774780273e-01 1.971985220909118652e+00 -1.145414352416992188e+00 1.338360190391540527e+00 -5.574430823326110840e-01 -5.205774679780006409e-02 -1.717822074890136719e+00 2.653425216674804688e+00 -1.076825618743896484e+00 -8.120500445365905762e-01 -1.650828123092651367e+00 1.642123222351074219e+00 3.286928236484527588e-01 5.568183064460754395e-01 3.158656060695648193e-01 7.437165379524230957e-01 9.575433731079101562e-01 -7.934337258338928223e-01 -2.249267816543579102e+00 -2.975986719131469727e+00 1.753363460302352905e-01 5.969170928001403809e-01 -1.031470179557800293e+00 -2.615594863891601562e+00 -2.769688606262207031e+00 1.727610945701599121e+00 -9.307814240455627441e-01 -3.190394401550292969e+00 7.482183724641799927e-02 1.713999032974243164e+00 -2.535809040069580078e+00 -3.420280218124389648e-01 -2.252578973770141602e+00 -2.079927682876586914e+00 1.523655295372009277e+00 8.572371006011962891e-01 -8.064016103744506836e-01 2.777371704578399658e-01 -1.047094106674194336e+00 2.625139474868774414e+00 1.631632328033447266e+00 -1.072216629981994629e-01 -1.157888770103454590e+00 1.008834362030029297e+00 -2.395582914352416992e+00 -1.715972065925598145e+00 -1.343238830566406250e+00 2.925540924072265625e+00 -2.887738943099975586e+00 2.173413932323455811e-01 4.289981424808502197e-01 3.093597888946533203e+00 -6.622289419174194336e-01 -7.726151943206787109e-01 1.975148171186447144e-01 4.419980943202972412e-02 -3.613281846046447754e-01 2.970146656036376953e+00 3.173106908798217773e+00 -5.411549806594848633e-01 -5.291378498077392578e-01 -5.079733729362487793e-01 2.250617504119873047e+00 1.646642565727233887e+00 -1.373097300529479980e+00 1.454719662666320801e+00 4.491419196128845215e-01 -7.284474968910217285e-01 -7.865262776613235474e-02 8.434990048408508301e-01 5.022597908973693848e-01 2.756956338882446289e+00 7.867583036422729492e-01 1.407720327377319336e+00 -9.830529689788818359e-01 -1.686525046825408936e-01 -3.477675020694732666e-01 -2.663999080657958984e+00 2.160067856311798096e-01 -2.614118337631225586e+00 -3.299299240112304688e+00 -5.596695542335510254e-01 2.870691537857055664e+00 1.583298683166503906e+00 -2.241241484880447388e-01 2.114052534103393555e+00 2.499267578125000000e+00 -1.323890805244445801e+00 2.302067041397094727e+00 -1.507613182067871094e+00 -7.667144536972045898e-01 -2.929947376251220703e+00 -1.557983607053756714e-01 2.796797275543212891e+00 3.630486428737640381e-01 -2.986885309219360352e-01 1.371111035346984863e+00 1.051102519035339355e+00 1.626370191574096680e+00 1.511298775672912598e+00 -2.744088172912597656e+00 2.154656171798706055e+00 -8.579921126365661621e-01 3.598234355449676514e-01 2.736000299453735352e+00 -1.808428406715393066e+00 -1.830280661582946777e+00 3.158148288726806641e+00 -1.360342025756835938e+00 -2.113050699234008789e+00 2.020204305648803711e+00 -1.195005401968955994e-01 -1.679730296134948730e+00 1.727970480918884277e+00 -8.355734348297119141e-01 1.490448117256164551e+00 2.017396450042724609e+00 1.795380562543869019e-01 2.430912971496582031e+00
8.762350678443908691e-01 2.102114200592041016e+00 -3.731261491775512695e-01 2.756264507770538330e-01 -3.104863688349723816e-02 9.278648495674133301e-01 1.694795727729797363e+00 3.341147899627685547e+00 1.245858192443847656e+00 7.820217013359069824e-01 2.117162466049194336e+00 2.537721157073974609e+00 8.263790011405944824e-01 2.713868618011474609e+00 1.116248130798339844e+00 -9.587764739990234375e-01 2.873826026916503906e+00 1.719023108482360840e+00 4.326652884483337402e-01 -9.079084545373916626e-02 1.806026816368103027e+00 1.585195183753967285e+00 1.726422548294067383e+00 2.493014574050903320e+00 -3.039968609809875488e-01 2.355442047119140625e+00 5.836970806121826172e-01 9.147675037384033203e-01 2.389725685119628906e+00 2.422308206558227539e+00 1.250330805778503418e+00 -9.475386738777160645e-01 -4.387314617633819580e-01 2.822466373443603516e+00 3.364697396755218506e-01 3.470039844512939453e+00 2.005029916763305664e+00 2.397149085998535156e+00 1.031730771064758301e+00 2.760200738906860352e+00 -3.173914909362792969e+00 7.313616871833801270e-01 7.179870009422302246e-01 -1.259702324867248535e+00 -1.154308795928955078e+00 -2.031962394714355469e+00 -5.258033797144889832e-02 -2.421022176742553711e+00 6.754446625709533691e-01 -2.156680583953857422e+00 1.037507057189941406e+00 -2.970340251922607422e+00 -1.795984387397766113e+00 -1.967891454696655273e+00 2.386496782302856445e+00 -1.194281935691833496e+00 2.205241680145263672e+00 2.316180467605590820e+00 -1.282420992851257324e+00 4.488383829593658447e-01 -1.902896642684936523e+00 1.350287675857543945e+00 1.764599323272705078e+00 -1.882719159126281738e+00 -1.603433966636657715e+00 3.352302014827728271e-01 -6.322956681251525879e-01 -2.341689348220825195e+00 -8.098370432853698730e-01 2.623430252075195312e+00 -3.116911649703979492e-01 -8.389938473701477051e-01 -4.511825442314147949e-01 -2.072721004486083984e+00 -2.945937871932983398e+00 -2.489874839782714844e+00 2.785450458526611328e+00 -3.108570575714111328e+00 -5.823887586593627930e-01 -1.352289557456970215e+00 2.581806182861328125e-01 -1.080352425575256348e+00 3.041088104248046875e+00 1.240467190742492676e+00 7.102871537208557129e-01 2.880813837051391602e+00 3.345201253890991211e+00 -3.599784851074218750e+00 1.319257616996765137e+00 2.134072303771972656e+00 -1.942656189203262329e-01 -1.347555994987487793e+00 1.420009285211563110e-01 2.386273145675659180e+00 1.814351677894592285e+00 -6.300184130668640137e-02 -2.145727634429931641e+00 -1.282273769378662109e+00 4.380884170532226562e-01 -2.207914441823959351e-01 3.016594886779785156e+00 -2.474529981613159180e+00 -1.683132052421569824e+00 -8.120442032814025879e-01 1.892620205879211426e+00 2.507259130477905273e+00 2.330000162124633789e+00 8.707295060157775879e-01 1.240598797798156738e+00 3.107107162475585938e+00 -1.313252210617065430e+00 1.104140996932983398e+00 4.518402814865112305e-01 -6.696226000785827637e-01 5.827878117561340332e-01 1.814010620117187500e+00 -2.903674602508544922e+00 -2.337538480758666992e+00 1.748978018760681152e+00 -2.360846281051635742e+00 3.572779595851898193e-01 2.071413516998291016e+00 -1.880527615547180176e+00 -2.736605882644653320e+00 1.033483743667602539e+00 -1.216070175170898438e+00 1.752842903137207031e+00 2.308741807937622070e+00 3.069598197937011719e+00 -1.245407223701477051e+00 -1.699201226234436035e+00 -2.220693826675415039e+00 -3.174415349960327148e+00 7.032245397567749023e-01 -1.717318177223205566e+00 1.241697669029235840e+00 -1.360724419355392456e-01 -3.186463937163352966e-02 7.628405839204788208e-02 -4.088996052742004395e-01 2.082962036132812500e+00 2.252618789672851562e+00 -2.106253147125244141e+00 -2.707618951797485352e+00 -8.596836328506469727e-01 -2.019867181777954102e+00 -2.943270206451416016e+00 1.917318344116210938e+00 3.508050143718719482e-01 -9.746163338422775269e-02 -3.232686758041381836e+00 -8.045793175697326660e-01 1.272686243057250977e+00 2.096782445907592773e+00 -9.907367229461669922e-01 -1.925116539001464844e+00 6.874917745590209961e-01 -3.076120093464851379e-02 -7.743585109710693359e-01 -1.902986526489257812e+00 1.784370541572570801e+00 -1.056579314172267914e-02 -1.703443646430969238e+00 -7.837853431701660156e-01 -2.641079902648925781e+00 -6.160494089126586914e-01 2.716860473155975342e-01 -7.925900816917419434e-01 -8.343418836593627930e-01 -2.309283494949340820e+00 -1.388965606689453125e+00 -2.889510393142700195e+00 -1.168835684657096863e-01 -2.537380903959274292e-02 1.052388310432434082e+00 -2.492392539978027344e+00 -2.865729570388793945e+00 -7.274840474128723145e-01 2.962832748889923096e-01 -8.888738155364990234e-01 -5.967003703117370605e-01 2.669375836849212646e-01 -2.450296640396118164e+00 -1.771993994712829590e+00 -3.290063440799713135e-01 -1.371711134910583496e+00 -1.367532730102539062e+00 -1.148718714714050293e+00 2.256902694702148438e+00 -2.542271614074707031e+00 -5.346620678901672363e-01 9.403475522994995117e-01 2.230471849441528320e+00 -1.634521007537841797e+00 -2.952029466629028320e+00 -1.309524178504943848e+00 1.235318541526794434e+00 -2.220442056655883789e+00 -9.074450135231018066e-01 1.302210211753845215e+00
1.739512443542480469e+00 -2.442143440246582031e+00 -1.854204945266246796e-02 1.679959774017333984e+00 -1.038694381713867188e+00 -2.027205944061279297e+00 -7.173492908477783203e-01 8.715053796768188477e-01 -2.729650974273681641e+00 -5.217938423156738281e-01 2.516289710998535156e+00 -7.970227599143981934e-01 -1.990581631660461426e+00 -1.964556932449340820e+00 -1.156551957130432129e+00 4.936169385910034180e-01 1.013949871063232422e+00 2.650722265243530273e-01 1.909429073333740234e+00 -2.484871864318847656e+00 -1.869606137275695801e+00 1.993548035621643066e+00 -8.773928284645080566e-01 1.782788515090942383e+00 -1.433143258094787598e+00 9.808099269866943359e-01 1.247082829475402832e+00 1.639097452163696289e+00 -1.885151624679565430e+00 -1.448385715484619141e+00 1.602002978324890137e-01 -8.374353647232055664e-01 -2.470684289932250977e+00 1.714599728584289551e+00 -6.309311389923095703e-01 -8.185733556747436523e-01 8.686510920524597168e-01 2.278036117553710938e+00 -2.303889036178588867e+00 -1.991059064865112305e+00 -9.867457300424575806e-02 -1.028618931770324707e+00 -8.340581655502319336e-01 2.398736953735351562e+00 -1.696634411811828613e+00 -1.336202621459960938e+00 -2.595013380050659180e+00 -2.409381151199340820e+00 1.812480926513671875e+00 -1.650308847427368164e+00 1.447650432586669922e+00 -2.812202692031860352e+00 -4.022719860076904297e-01 3.328739166259765625e+00 -1.821282982826232910e+00 -1.976779341697692871e+00 -2.288341760635375977e+00 2.505264759063720703e+00 1.088304877281188965e+00 1.330426335334777832e+00 -2.298526614904403687e-01 3.265900909900665283e-02 3.357008993625640869e-01 1.560067057609558105e+00 -3.419187664985656738e-01 -1.634240508079528809e+00 -1.868514418601989746e+00 -4.573034048080444336e-01 -5.171549916267395020e-01 4.715226292610168457e-01 -6.448281407356262207e-01 4.025637805461883545e-01 -4.797639548778533936e-01 -1.545338034629821777e+00 -2.938997030258178711e+00 -4.844495654106140137e-02 -1.967100977897644043e+00 1.705989480018615723e+00 5.881946682929992676e-01 -8.999323248863220215e-01 1.191614747047424316e+00 -9.055852293968200684e-01 2.109502792358398438e+00 -6.361538767814636230e-01 3.746386766433715820e-01 1.748200654983520508e+00 -1.748122215270996094e+00 -1.588094353675842285e+00 -4.113729000091552734e-01 -1.505426645278930664e+00 -3.094675302505493164e+00 2.577849388122558594e+00 1.336637020111083984e+00 -4.044864475727081299e-01 -1.702292203903198242e+00 1.587492346763610840e+00 -1.436547517776489258e+00 -9.699941873550415039e-01 1.799443483352661133e+00 2.364733219146728516e+00 2.236486226320266724e-02 -8.547816276550292969e-01 -2.284424066543579102e+00 8.611154556274414062e-01 -1.138288974761962891e+00 -1.279015302658081055e+00 7.903482317924499512e-01 -2.978121280670166016e+00 3.061483144760131836e+00 -1.365838050842285156e+00 -1.370672583580017090e+00 -2.444731473922729492e+00 1.637184526771306992e-03 1.473238229751586914e+00 -1.609883785247802734e+00 7.902572154998779297e-01 1.461413979530334473e+00 5.688091516494750977e-01 1.153136253356933594e+00 -8.204238414764404297e-01 -1.247367024421691895e+00 -1.823793053627014160e+00 -2.196460962295532227e+00 3.769165575504302979e-01 -8.921061754226684570e-01 -2.469885587692260742e+00 -7.916612625122070312e-01 -2.562106847763061523e+00 -9.413257837295532227e-01 -1.306586146354675293e+00 1.475772261619567871e+00 6.072001457214355469e-01 -3.383646011352539062e-01 2.596443176269531250e+00 7.558576464653015137e-01 -3.175966739654541016e+00 -8.343706727027893066e-01 -2.195283889770507812e+00 1.257446408271789551e+00 -7.092522978782653809e-01 3.169699430465698242e+00 3.456130623817443848e-01 -2.505027532577514648e+00 -2.246825218200683594e+00 -3.007105588912963867e+00 3.280256986618041992e-01 -1.941066265106201172e+00 -2.153483629226684570e+00 -2.230528354644775391e+00 -3.140011310577392578e+00 2.101705551147460938e+00 -1.716424703598022461e+00 2.434173226356506348e-01 1.849771261215209961e+00 -4.316899180412292480e-01 6.960094571113586426e-01 -2.989277601242065430e+00 -1.722994565963745117e+00 1.625308394432067871e+00 2.209346771240234375e+00 1.393498182296752930e+00 1.633395552635192871e+00 1.635730147361755371e+00 2.718889713287353516e+00 -3.597833216190338135e-01 2.336874961853027344e+00 2.439150094985961914e+00 -3.090825676918029785e-01 2.838592290878295898e+00 6.983946561813354492e-01 -9.353516697883605957e-01 2.065052032470703125e+00 3.275034189224243164e+00 3.369413614273071289e+00 9.218414127826690674e-02 2.447359800338745117e+00 2.058603763580322266e+00 -1.290306806564331055e+00 -4.352054893970489502e-01 6.562322378158569336e-01 2.324103116989135742e+00 -1.567524909973144531e+00 2.023532629013061523e+00 2.840639352798461914e+00 3.302557706832885742e+00 1.527299404144287109e+00 1.931600689888000488e+00 3.003945827484130859e+00 6.660302877426147461e-01 2.837688446044921875e+00 2.931663513183593750e+00 6.022398173809051514e-02 -3.245163336396217346e-02 2.720083475112915039e+00 2.685123920440673828e+00 2.039599657058715820e+00 6.267358660697937012e-01 5.242782235145568848e-01 4.031326472759246826e-01 1.535892128944396973e+00
2.682649850845336914e+00 -8.176258802413940430e-01 1.692862391471862793e+00 -1.157652139663696289e+00 -1.340638659894466400e-02 2.460866928100585938e+00 -3.965543806552886963e-01 1.988092660903930664e+00 1.393202185630798340e+00 -1.297229647636413574e+00 8.676498532295227051e-01 -4.819416403770446777e-01 1.512092947959899902e+00 -3.329897820949554443e-01 1.843826413154602051e+00 2.242227554321289062e+00 6.641685962677001953e-01 2.735519409179687500e+00 1.372762084007263184e+00 2.260488271713256836e+00 -4.649142324924468994e-01 2.867190361022949219e+00 2.023494482040405273e+00 1.763374447822570801e+00 1.947731494903564453e+00 5.127753615379333496e-01 1.805166125297546387e+00 -1.538197875022888184e+00 7.339211702346801758e-01 -1.491376638412475586e+00 -2.305353641510009766e+00 -3.582243919372558594e-01 -1.391476541757583618e-01 2.505676507949829102e+00 -2.709182500839233398e+00 2.066718816757202148e+00 2.133704900741577148e+00 1.906916499137878418e+00 1.067187905311584473e+00 -1.388902783393859863e+00 -1.447768568992614746e+00 -1.643367171287536621e+00 -9.233972430229187012e-01 -2.470407247543334961e+00 1.429527282714843750e+00 1.203608632087707520e+00 -6.451731175184249878e-02 -2.301597118377685547e+00 -3.907053768634796143e-01 -1.085553765296936035e+00 -2.543704032897949219e+00 2.355929374694824219e+00 -5.809721946716308594e-01 -2.517223358154296875e+00 1.729665279388427734e+00 8.338181376457214355e-01 -1.675081849098205566e+00 2.054501771926879883e+00 3.199315443634986877e-02 4.949777573347091675e-02 1.595253467559814453e+00 7.747185826301574707e-01 -1.993608951568603516e+00 -2.311851501464843750e+00 -5.272379517555236816e-01 -2.165621995925903320e+00 6.136019825935363770e-01 -2.537831664085388184e-01 -2.059673666954040527e-01 -7.686558365821838379e-01 9.906560182571411133e-01 2.033096551895141602e+00 2.271455079317092896e-01 7.411702871322631836e-01 1.896342158317565918e+00 -1.822418570518493652e-01 5.328710079193115234e-01 -1.653250604867935181e-01 -2.332882165908813477e+00 9.192877411842346191e-01 2.451408147811889648e+00 -2.117497682571411133e+00 8.236125111579895020e-01 -2.387889146804809570e+00 -1.382530450820922852e+00 -2.817113399505615234e+00 6.945597529411315918e-01 -1.077731490135192871e+00 -8.217980861663818359e-01 -4.323612898588180542e-02 -2.911445140838623047e+00 -1.989282250404357910e+00 -6.101000905036926270e-01 -1.439405679702758789e+00 -2.160022020339965820e+00 -7.072573155164718628e-02 -1.393889427185058594e+00 1.321868896484375000e+00 -9.328760504722595215e-01 -1.350592136383056641e+00 -2.875993728637695312e+00 1.726079106330871582e+00 -1.964849829673767090e+00 -2.034716367721557617e+00 -1.922130703926086426e+00 1.154392123222351074e+00 7.275044918060302734e-01 -3.165951728820800781e+00 1.732930302619934082e+00 -2.425999402999877930e+00 -2.901854515075683594e+00 -1.814834713935852051e+00 -1.148476719856262207e+00 -1.765724182128906250e+00 5.632523447275161743e-02 -2.834068775177001953e+00 -9.648679941892623901e-02 2.785730957984924316e-01 -1.004658579826354980e+00 2.294528782367706299e-01 5.949310660362243652e-01 2.511731624603271484e+00 -5.401542782783508301e-01 1.768039464950561523e+00 1.066456198692321777e+00 -2.490378141403198242e+00 -1.313098669052124023e+00 4.485937058925628662e-01 -1.270863533020019531e+00 -9.562619924545288086e-01 -2.919848918914794922e+00 2.672409772872924805e+00 -2.702592611312866211e+00 2.581883192062377930e+00 2.519887924194335938e+00 -4.937006235122680664e-01 -1.548077344894409180e+00 1.358898162841796875e+00 1.565296649932861328e+00 -3.543843328952789307e-01 -1.140745878219604492e+00 2.306244611740112305e+00 -2.164762496948242188e+00 2.197816848754882812e+00 -1.009085297584533691e+00 -5.384865999221801758e-01 -5.547423362731933594e-01 3.951450586318969727e-01 -2.023917913436889648e+00 -1.366166472434997559e+00 6.028288006782531738e-01 2.901838779449462891e+00 -1.604397892951965332e+00 -2.228675842285156250e+00 1.439169526100158691e+00 -1.806677579879760742e+00 -3.789332807064056396e-01 3.029914498329162598e-01 1.995286703109741211e+00 2.229279279708862305e+00 -4.957042634487152100e-01 -2.430531740188598633e+00 6.187304854393005371e-01 -1.474776506423950195e+00 2.234331846237182617e+00 -6.963111758232116699e-01 -1.751537621021270752e-02 -1.153438091278076172e-01 -2.655945539474487305e+00 -2.292003870010375977e+00 -6.424301266670227051e-01 1.836182355880737305e+00 -2.751649856567382812e+00 1.182930707931518555e+00 1.527707338333129883e+00 -2.272594124078750610e-01 -1.412533044815063477e+00 1.666603535413742065e-01 6.636141538619995117e-01 1.135639786720275879e+00 3.111535310745239258e+00 1.031331252306699753e-02 8.033233284950256348e-01 2.095724582672119141e+00 2.588238418102264404e-01 -2.632199764251708984e+00 1.044261693954467773e+00 7.070326209068298340e-01 2.787883579730987549e-01 7.602856755256652832e-01 2.029465198516845703e+00 2.285775184631347656e+00 2.987003803253173828e+00 1.791401147842407227e+00 9.592989087104797363e-01 2.752515077590942383e+00 -1.896121025085449219e+00 1.938179016113281250e+00 4.556897282600402832e-01 4.453933537006378174e-01
-2.254338026046752930e+00 9.128431081771850586e-01 7.692369222640991211e-01 -2.145475387573242188e+00 -2.996557474136352539e+00 -2.132865190505981445e+00 4.728192985057830811e-01 2.519885778427124023e+00 -5.810924768447875977e-01 8.239125609397888184e-01 -3.364426493644714355e-01 -7.092269659042358398e-01 1.457201123237609863e+00 3.003484487533569336e+00 -2.339145392179489136e-01 8.071053028106689453e-01 -2.422054767608642578e+00 -1.804546117782592773e+00 -1.809748291969299316e+00 -1.770962595939636230e+00 2.496938705444335938e-01 1.911936640739440918e+00 -1.339424610137939453e+00 -1.927829623222351074e+00 1.698757290840148926e+00 8.962718248367309570e-01 -2.277815818786621094e+00 -2.733807086944580078e+00 1.441858053207397461e+00 5.181607007980346680e-01 -1.738589406013488770e+00 -9.070990681648254395e-01 -1.187836527824401855e+00 6.152659058570861816e-01 -8.632380366325378418e-01 3.764098882675170898e-01 -1.160218641161918640e-01 3.201745823025703430e-02 5.721989274024963379e-01 9.644287824630737305e-01 3.310022354125976562e-01 5.527699589729309082e-01 2.718372821807861328e+00 1.200219750404357910e+00 -5.682129859924316406e-01 1.350458621978759766e+00 2.143367767333984375e+00 3.104301452636718750e+00 2.847720623016357422e+00 6.612799167633056641e-01 2.840121269226074219e+00 2.083881497383117676e-01 2.743665933609008789e+00 9.892865419387817383e-01 -1.052922964096069336e+00 5.839880704879760742e-01 1.860908985137939453e+00 -8.305978775024414062e-01 2.320230722427368164e+00 2.803194046020507812e+00 1.904149651527404785e+00 1.580437183380126953e+00 2.595295667648315430e+00 3.588158786296844482e-01 -3.565190136432647705e-01 3.885341286659240723e-01 2.897329568862915039e+00 1.424874663352966309e+00 2.719453096389770508e+00 1.678809881210327148e+00 2.455101490020751953e+00 2.359911918640136719e+00 -1.428639173507690430e+00 1.944422841072082520e+00 9.888386130332946777e-01 1.026301383972167969e+00 -3.037405014038085938e-01 2.689150571823120117e+00 7.323313951492309570e-01 1.862205624580383301e+00 -5.549530982971191406e-01 1.593876957893371582e+00 -3.495472431182861328e+00 4.975489675998687744e-01 4.158974811434745789e-02 2.202346086502075195e+00 -1.764432072639465332e+00 4.615833167918026447e-04 -7.821320295333862305e-01 -2.801777839660644531e+00 1.588538050651550293e+00 -1.951171994209289551e+00 4.625881910324096680e-01 2.594645738601684570e+00 1.763867974281311035e+00 -4.548763036727905273e-01 -5.867607593536376953e-01 2.423002243041992188e+00 -1.100787043571472168e+00 6.492118835449218750e-01 9.095232486724853516e-01 -1.773520350456237793e+00 -7.285055518150329590e-01 -5.411909222602844238e-01 1.016693592071533203e+00 -3.003261566162109375e+00 -1.362523674964904785e+00 1.635351181030273438e+00 -7.769594341516494751e-02 -2.273463010787963867e+00 -1.421178132295608521e-01 2.252768278121948242e+00 2.430643558502197266e+00 -1.520824909210205078e+00 -1.151747226715087891e+00 6.142625808715820312e-01 1.180165529251098633e+00 -1.129964470863342285e+00 -2.242467880249023438e+00 -2.330671548843383789e+00 -7.895661145448684692e-02 -2.597135782241821289e+00 2.694783449172973633e+00 -3.239296913146972656e+00 -2.876022577285766602e+00 -3.808621764183044434e-01 -1.743948340415954590e+00 -1.189446330070495605e+00 -2.367324113845825195e+00 -1.863234400749206543e+00 2.523014545440673828e+00 -3.424275293946266174e-02 -9.866294860839843750e-01 -1.917522072792053223e+00 -2.766807079315185547e+00 -2.207146644592285156e+00 -2.610308304429054260e-02 -6.151026487350463867e-01 -9.709663987159729004e-01 -3.323284149169921875e+00 -7.564965169876813889e-03 -2.603133916854858398e+00 1.271476507186889648e+00 -1.078458905220031738e+00 -2.483167886734008789e+00 8.087184280157089233e-02 -1.117971390485763550e-01 -9.745075702667236328e-01 -2.017853975296020508e+00 -1.507814764976501465e+00 -2.426834106445312500e+00 -1.660917043685913086e+00 -1.663014769554138184e+00 9.207537770271301270e-01 5.212697386741638184e-01 -1.629077672958374023e+00 -7.793308496475219727e-01 -3.077811241149902344e+00 4.614825248718261719e-01 5.099657177925109863e-01 1.150233030319213867e+00 2.805311679840087891e+00 -1.998996257781982422e+00 -3.326773405075073242e+00 2.682304859161376953e+00 1.815173923969268799e-01 1.025671243667602539e+00 2.187436819076538086e+00 5.947180092334747314e-02 1.171005845069885254e+00 -1.060783267021179199e+00 1.085466384887695312e+00 -6.821658015251159668e-01 -1.713554710149765015e-01 5.191808342933654785e-01 -1.670769214630126953e+00 -2.243508100509643555e+00 1.046432495117187500e+00 -3.760839104652404785e-01 -1.355713605880737305e+00 1.040120840072631836e+00 8.997748494148254395e-01 2.151523351669311523e+00 -5.112370252609252930e-01 -2.212231159210205078e+00 2.213752985000610352e+00 4.283396005630493164e-01 -1.795676112174987793e+00 3.411519527435302734e-01 4.755017459392547607e-01 3.485757827758789062e+00 2.533113241195678711e+00 -1.578481197357177734e+00 -2.492083787918090820e+00 -2.369581937789916992e+00 2.107750415802001953e+00 2.333439514040946960e-02 1.704678058624267578e+00 -1.483010649681091309e+00 2.319384336471557617e+00
1.575186014175415039e+00 1.862091779708862305e+00 -8.259844779968261719e-01 -5.387927889823913574e-01 9.999539852142333984e-01 -2.005207538604736328e-02 -3.239376068115234375e+00 2.517723739147186279e-01 -1.469361543655395508e+00 1.643950939178466797e+00 -3.526632785797119141e-01 8.041659742593765259e-02 6.167093664407730103e-02 7.367994785308837891e-01 -2.242025136947631836e+00 -1.146291255950927734e+00 -1.215973615646362305e+00 2.119807720184326172e+00 -1.617455482482910156e+00 3.141727685928344727e+00 1.836993813514709473e+00 3.637892305850982666e-01 3.238084793090820312e+00 -2.169023156166076660e-01 3.364469289779663086e+00 -7.567967176437377930e-01 9.010750651359558105e-01 -3.281568288803100586e+00 -3.314308166503906250e+00 2.828213453292846680e+00 1.845022916793823242e+00 1.255790352821350098e+00 3.545870184898376465e-01 4.461360573768615723e-01 -3.077037632465362549e-01 -2.260575294494628906e+00 -4.667401313781738281e-02 -1.417082995176315308e-01 1.804351687431335449e+00 -1.236489772796630859e+00 -2.345360040664672852e+00 -6.493774056434631348e-01 -1.090156078338623047e+00 -1.684758901596069336e+00 9.046061635017395020e-01 -5.058251619338989258e-01 -1.288886785507202148e+00 1.243008255958557129e+00 -1.294051647186279297e+00 -1.635451674461364746e+00 -1.046442270278930664e+00 -1.013172745704650879e+00 -2.096951484680175781e+00 -2.412972927093505859e+00 -2.715772390365600586e+00 -3.214404582977294922e-01 -2.624353647232055664e+00 -7.717613577842712402e-01 -1.279758334159851074e+00 -2.389961957931518555e+00 -2.737906947731971741e-02 -1.115127325057983398e+00 2.544768571853637695e+00 -1.406827092170715332e+00 8.535560965538024902e-01 6.784712672233581543e-01 -2.094574123620986938e-01 -6.117131933569908142e-02 1.820642232894897461e+00 -6.568087935447692871e-01 -3.093579530715942383e+00 -2.910812616348266602e+00 2.297786623239517212e-01 1.577145904302597046e-01 2.220479965209960938e+00 -1.068978071212768555e+00 -1.724809765815734863e+00 -5.076157450675964355e-01 -1.260555624961853027e+00 4.181747436523437500e-01 1.477794289588928223e+00 3.015443086624145508e-01 -1.372392416000366211e+00 -2.390891551971435547e+00 2.818039059638977051e-01 1.861708283424377441e+00 -1.961773991584777832e+00 -1.085661530494689941e+00 1.650080800056457520e+00 -1.239470839500427246e+00 -8.691470623016357422e-01 2.336767196655273438e+00 2.377488613128662109e+00 1.927935481071472168e+00 -1.331085920333862305e+00 -2.930639982223510742e-01 -1.146377205848693848e+00 1.197921037673950195e+00 -1.339534878730773926e+00 5.002267360687255859e-01 -1.303953647613525391e+00 -1.478965401649475098e+00 -1.444596648216247559e+00 7.033157348632812500e-01 -1.541464090347290039e+00 1.035570502281188965e+00 -1.362054109573364258e+00 -3.245234251022338867e+00 -2.151176333427429199e-01 -3.448958396911621094e-01 -4.037701487541198730e-01 2.721400499343872070e+00 -1.802236795425415039e+00 2.219925880432128906e+00 2.101588487625122070e+00 -1.052567362785339355e+00 9.958292543888092041e-02 -8.806337714195251465e-01 -3.114064455032348633e+00 -3.124997019767761230e-01 2.070170640945434570e+00 -1.601691484451293945e+00 2.172003269195556641e+00 2.637613534927368164e+00 2.806000709533691406e+00 2.383311510086059570e+00 1.838910579681396484e+00 2.001298427581787109e+00 1.329081773757934570e+00 -1.903177052736282349e-01 -3.243114352226257324e-01 3.144834280014038086e+00 2.783096075057983398e+00 7.293148636817932129e-01 1.603183507919311523e+00 4.712282121181488037e-01 1.764642238616943359e+00 -1.178693056106567383e+00 4.036980271339416504e-01 2.410018444061279297e+00 -7.107338309288024902e-01 -4.931128621101379395e-01 2.737030029296875000e+00 2.639185637235641479e-02 -1.534882307052612305e+00 2.216003894805908203e+00 -2.462102890014648438e+00 1.484702944755554199e+00 1.055083036422729492e+00 1.924635529518127441e+00 2.223830699920654297e+00 3.497258186340332031e+00 -2.097884416580200195e+00 2.574057817459106445e+00 1.995763540267944336e+00 1.563587486743927002e-01 2.553453445434570312e+00 9.829899072647094727e-01 2.650879621505737305e-01 3.156786203384399414e+00 -1.586828589439392090e+00 1.778560042381286621e+00 9.748085141181945801e-01 -1.214314818382263184e+00 -1.778902649879455566e+00 -1.334519863128662109e+00 1.276475429534912109e+00 2.121795177459716797e+00 -1.381139177829027176e-02 2.860823154449462891e+00 3.138067424297332764e-01 -2.672494173049926758e+00 -2.067411661148071289e+00 -1.869356155395507812e+00 1.143714427947998047e+00 -5.033586621284484863e-01 -2.633501291275024414e+00 -1.365534782409667969e+00 9.364233613014221191e-01 -1.797743797302246094e+00 -3.323594927787780762e-01 1.770605802536010742e+00 -3.205863833427429199e-01 -5.499867796897888184e-01 -1.905044555664062500e+00 -7.359863519668579102e-01 -8.896093368530273438e-01 3.687466382980346680e-01 2.805032491683959961e+00 -1.122448563575744629e+00 1.958124995231628418e+00 -1.468562960624694824e+00 -5.358231663703918457e-01 -1.780247688293457031e+00 2.465924322605133057e-01 -1.562335610389709473e+00 -2.175111770629882812e+00 -1.142689228057861328e+00 -9.076243638992309570e-01 2.952416837215423584e-01
-5.190607160329818726e-02 -1.313869953155517578e-01 2.371064186096191406e+00 2.560581684112548828e+00 2.515036761760711670e-01 1.705572247505187988e+00 1.997615933418273926e+00 2.964727878570556641e+00 2.975844383239746094e+00 3.336702823638916016e+00 -1.206102371215820312e+00 -1.719785213470458984e+00 3.820502460002899170e-01 -2.237664461135864258e+00 -2.204068660736083984e+00 2.299726486206054688e+00 -2.632498502731323242e+00 1.018519282341003418e+00 -5.016651153564453125e-01 -9.977380037307739258e-01 -9.124732017517089844e-01 1.319136768579483032e-01 1.976708292961120605e+00 -3.752588927745819092e-01 2.788678407669067383e+00 4.860568940639495850e-01 3.749404251575469971e-01 -9.054402112960815430e-01 -3.105672597885131836e+00 1.661833047866821289e+00 2.134312391281127930e+00 3.535749018192291260e-01 6.206416711211204529e-02 -2.323317050933837891e+00 8.481494784355163574e-01 1.577659010887145996e+00 2.318019390106201172e+00 2.541835784912109375e+00 -1.531641006469726562e+00 3.093500137329101562e+00 1.690294027328491211e+00 -5.715106129646301270e-01 -3.306246995925903320e-01 -1.271739006042480469e+00 -1.797864079475402832e+00 -2.152922630310058594e+00 -5.689581036567687988e-01 -2.357733011245727539e+00 -1.661902070045471191e+00 -7.717863917350769043e-01 3.335690498352050781e-01 -1.395054817199707031e+00 -2.687387943267822266e+00 1.040551438927650452e-01 -1.399864405393600464e-01 1.154972076416015625e+00 1.772235274314880371e+00 -1.020453810691833496e+00 -2.124194145202636719e+00 -2.859848737716674805e+00 -1.285405516624450684e+00 -2.918183326721191406e+00 -2.952735185623168945e+00 1.615702390670776367e+00 -2.227038860321044922e+00 -2.027300119400024414e+00 -3.059321165084838867e+00 -8.722013831138610840e-01 -2.872950315475463867e+00 -4.809610545635223389e-01 -1.129377722740173340e+00 -8.586705327033996582e-01 -1.866185188293457031e+00 -3.409593403339385986e-01 -2.044352531433105469e+00 2.313702821731567383e+00 -2.669032812118530273e-01 -1.836593151092529297e+00 2.313194513320922852e+00 2.251858234405517578e+00 -2.283556938171386719e+00 -1.540327072143554688e+00 -1.415351986885070801e+00 -1.463069081306457520e+00 -1.101268053054809570e+00 -8.083266019821166992e-01 -1.107176899909973145e+00 -2.326608657836914062e+00 -1.414288580417633057e-01 -2.915106296539306641e+00 3.671427667140960693e-01 -2.861000299453735352e+00 -1.996879935264587402e+00 -2.899263858795166016e+00 -4.993918240070343018e-01 -8.664816021919250488e-01 -2.028534173965454102e+00 1.329577207565307617e+00 -2.110284805297851562e+00 -2.974675655364990234e+00 2.555803298950195312e+00 6.073927283287048340e-01 -9.848746061325073242e-01 -2.272296190261840820e+00 1.359047293663024902e+00 -1.024774074554443359e+00 -1.786271810531616211e+00 3.946936428546905518e-01 -1.470227122306823730e+00 -4.628682434558868408e-01 -1.925246477127075195e+00 -2.707952260971069336e+00 -1.879475355148315430e+00 -2.156935930252075195e+00 1.049285769462585449e+00 -6.329371333122253418e-01 -7.711403965950012207e-01 -2.268982648849487305e+00 -1.825892210006713867e+00 -1.268137812614440918e+00 -1.489682495594024658e-01 3.037362337112426758e+00 1.484370112419128418e+00 -3.908599168062210083e-02 1.152365207672119141e+00 -1.313211679458618164e+00 1.179520606994628906e+00 1.530918359756469727e+00 1.845971226692199707e+00 -2.414869308471679688e+00 -2.101320505142211914e+00 -1.101037979125976562e+00 -5.963503122329711914e-01 -1.302568674087524414e+00 2.619713306427001953e+00 1.903717219829559326e-01 4.047961831092834473e-01 1.276497960090637207e+00 2.406240403652191162e-01 5.330377221107482910e-01 2.032107114791870117e+00 -2.254972934722900391e+00 -2.403186559677124023e+00 -2.706993818283081055e+00 -5.053898692131042480e-01 2.066654920578002930e+00 -7.044851034879684448e-02 -9.141744673252105713e-02 -1.132097482681274414e+00 -5.691890046000480652e-02 5.942622423171997070e-01 -9.833601713180541992e-01 -6.031928062438964844e-01 6.911795139312744141e-01 2.075552463531494141e+00 -2.276513814926147461e+00 -1.676175594329833984e+00 -1.180266022682189941e+00 -1.379660725593566895e+00 -2.382920503616333008e+00 2.868884086608886719e+00 2.809810638427734375e+00 2.015557050704956055e+00 -5.838636308908462524e-02 2.356865406036376953e+00 3.078532695770263672e+00 1.876024484634399414e+00 2.178995609283447266e+00 2.553334236145019531e+00 2.543453216552734375e+00 2.409888029098510742e+00 -3.772875070571899414e-01 3.433023095130920410e-01 2.530524253845214844e+00 1.012768507003784180e+00 2.115644931793212891e+00 -2.327012419700622559e-01 1.659888744354248047e+00 2.691938400268554688e+00 2.630496501922607422e+00 1.710810184478759766e+00 2.550604104995727539e+00 -2.871851682662963867e+00 2.027133464813232422e+00 3.726451694965362549e-01 3.302925825119018555e+00 1.042608618736267090e+00 3.620712995529174805e+00 -1.980071306228637695e+00 1.918624520301818848e+00 2.488368511199951172e+00 2.761885643005371094e+00 3.292732954025268555e+00 1.857194066047668457e+00 3.445440232753753662e-01 2.591802597045898438e+00 2.420156478881835938e+00 1.376278638839721680e+00 5.137001872062683105e-01 2.577843964099884033e-01
-2.745187520980834961e+00 2.582292318344116211e+00 2.375922918319702148e+00 -1.064109921455383301e+00 -2.578231334686279297e+00 -2.739991903305053711e+00 1.298169970512390137e+00 1.980258226394653320e+00 6.570102572441101074e-01 -8.937996029853820801e-01 -1.068049967288970947e-01 -2.554959297180175781e+00 -1.055292248725891113e+00 -1.617472916841506958e-01 8.046925067901611328e-01 -1.212460994720458984e-01 1.696482777595520020e+00 -2.375356912612915039e+00 -1.519825100898742676e+00 6.907618045806884766e-01 -3.057440996170043945e+00 4.117137193679809570e-01 -9.500648379325866699e-01 -1.403459548950195312e+00 -2.999701261520385742e+00 3.188383877277374268e-01 -1.851081490516662598e+00 -1.363633036613464355e+00 -1.968158036470413208e-01 2.298900604248046875e+00 -7.439804673194885254e-01 1.685326099395751953e+00 1.831264495849609375e+00 2.446906089782714844e+00 -1.535566449165344238e+00 -1.542794108390808105e+00 -2.674605250358581543e-01 -9.185062646865844727e-01 3.474539220333099365e-01 -1.274258494377136230e+00 -2.477630615234375000e+00 -1.912615060806274414e+00 -1.833755731582641602e+00 -2.627133369445800781e+00 -2.045491218566894531e+00 -1.720658063888549805e+00 -1.688457846641540527e+00 -2.766715288162231445e+00 -1.630219578742980957e+00 -2.212703943252563477e+00 -1.701705098152160645e+00 -1.901654958724975586e+00 3.393123447895050049e-01 -2.366472244262695312e+00 -2.328444719314575195e+00 -9.686327576637268066e-01 -1.842247962951660156e+00 -9.684434533119201660e-01 -1.180464267730712891e+00 -2.926865100860595703e+00 -2.163888454437255859e+00 -2.831550836563110352e+00 -2.260560989379882812e+00 -2.366393804550170898e+00 -8.440463542938232422e-01 -1.787225008010864258e+00 -6.130080819129943848e-01 -2.872096300125122070e+00 -2.846726179122924805e+00 -2.195424318313598633e+00 -2.549820899963378906e+00 -2.935415506362915039e+00 -2.856631994247436523e+00 -1.854065060615539551e+00 1.508245468139648438e+00 -6.388817429542541504e-01 -2.628505706787109375e+00 -3.653823435306549072e-01 1.341841459274291992e+00 -1.269398689270019531e+00 4.211300313472747803e-01 -1.658070921897888184e+00 -2.749611139297485352e+00 -2.201879978179931641e+00 -1.401217103004455566e+00 1.542446374893188477e+00 9.631662964820861816e-01 -1.775184124708175659e-01 -1.029864311218261719e+00 7.085406184196472168e-01 2.260938167572021484e+00 -7.854411602020263672e-01 2.246555089950561523e+00 6.151889562606811523e-01 2.085045814514160156e+00 -2.006411314010620117e+00 1.806514024734497070e+00 -2.080814123153686523e+00 1.489411473274230957e+00 2.861681222915649414e+00 -9.707887768745422363e-01 -1.011345624923706055e+00 1.793662786483764648e+00 -2.504729747772216797e+00 -4.825098216533660889e-01 -1.202252388000488281e+00 3.043569326400756836e+00 2.700686693191528320e+00 3.006993055343627930e+00 3.612840548157691956e-02 -8.866160362958908081e-02 1.179130196571350098e+00 6.537851691246032715e-01 -1.228924095630645752e-01 1.928758263587951660e+00 1.589419126510620117e+00 2.236875534057617188e+00 1.044645905494689941e+00 -5.426079034805297852e-01 2.232298135757446289e+00 1.672841191291809082e+00 2.087141513824462891e+00 1.449615240097045898e+00 2.304878234863281250e+00 2.760293483734130859e+00 -1.252906084060668945e+00 2.059319972991943359e+00 2.528944909572601318e-01 -7.483341693878173828e-01 1.658748626708984375e+00 5.314448475837707520e-01 3.580418229103088379e-01 1.453395962715148926e+00 -2.746784925460815430e+00 2.529467582702636719e+00 1.865395307540893555e+00 1.621049642562866211e+00 9.496643543243408203e-01 3.344337940216064453e+00 1.231711745262145996e+00 -1.378818035125732422e+00 2.289789438247680664e+00 1.871638059616088867e+00 2.772993326187133789e+00 2.247906446456909180e+00 -1.522202134132385254e+00 -7.773259282112121582e-01 2.025317907333374023e+00 -4.942077994346618652e-01 2.759268283843994141e+00 3.009899854660034180e+00 2.832742452621459961e+00 1.733538627624511719e+00 2.164646148681640625e+00 2.181092262268066406e+00 2.852453708648681641e+00 2.966976642608642578e+00 1.953332424163818359e+00 2.622005701065063477e+00 4.780081212520599365e-01 1.144939303398132324e+00 -2.169504165649414062e+00 -1.449052333831787109e+00 -1.647771298885345459e-01 2.085056066513061523e+00 2.994572818279266357e-01 -2.424880266189575195e+00 -1.471264511346817017e-01 -9.034026861190795898e-01 -8.997465372085571289e-01 -2.614493966102600098e-01 -1.776984453201293945e+00 -1.221480131149291992e+00 2.882627487182617188e+00 -7.340395450592041016e-01 1.934271574020385742e+00 4.136010706424713135e-01 1.623583555221557617e+00 9.823271036148071289e-01 2.871089696884155273e+00 -2.597963809967041016e-01 -5.875018835067749023e-01 -2.004546880722045898e+00 2.838739871978759766e+00 -8.905407786369323730e-01 -4.072650372982025146e-01 6.014578938484191895e-01 2.276700258255004883e+00 6.777322292327880859e-01 -2.073179930448532104e-01 2.605319261550903320e+00 2.117097377777099609e+00 1.410904526710510254e+00 1.037733554840087891e-01 -7.390999197959899902e-01 -2.294241450726985931e-02 -1.733188152313232422e+00 -3.725569546222686768e-01 1.013244152069091797e+00 2.443462371826171875e+00
-2.731013536453247070e+00 7.804802656173706055e-01 -1.027144074440002441e+00 -1.244819641113281250e+00 1.070813417434692383e+00 -2.432626962661743164e+00 -2.707664489746093750e+00 -1.274258732795715332e+00 -2.782815933227539062e+00 -2.036956071853637695e+00 -2.254173755645751953e+00 -1.316529989242553711e+00 -9.875754714012145996e-01 3.866223096847534180e-01 -1.902027726173400879e+00 -2.068736791610717773e+00 -6.128033419372513890e-05 -2.422366619110107422e+00 -1.939649134874343872e-01 1.564701944589614868e-01 -1.018728017807006836e+00 -1.894543528556823730e+00 -1.740865349769592285e+00 -2.434792280197143555e+00 -1.780739784240722656e+00 2.905129790306091309e-01 -1.066204786300659180e+00 -2.526744365692138672e+00 -2.690237998962402344e+00 -8.080002665519714355e-01 1.253228664398193359e+00 -2.687628746032714844e+00 -1.613308072090148926e+00 -2.189782619476318359e+00 -1.039608836174011230e+00 -2.474279642105102539e+00 -2.698061704635620117e+00 -2.040708541870117188e+00 4.889301359653472900e-01 -4.418345093727111816e-01 1.531882643699645996e+00 3.301210880279541016e+00 -2.730894088745117188e+00 -2.425234317779541016e+00 1.386019587516784668e+00 2.587080955505371094e+00 2.490039825439453125e+00 1.307428836822509766e+00 6.640019416809082031e-01 -9.179505109786987305e-01 2.445798158645629883e+00 -9.008703380823135376e-02 1.475265264511108398e+00 9.222685694694519043e-01 -9.508675336837768555e-01 -2.768954277038574219e+00 2.345132350921630859e+00 6.045114398002624512e-01 -5.791295766830444336e-01 -1.313888788223266602e+00 -1.552662611007690430e+00 -1.375442624092102051e+00 -1.371025681495666504e+00 -3.162557631731033325e-02 7.799046635627746582e-01 -2.209743976593017578e+00 -1.773354887962341309e+00 1.368309743702411652e-02 -5.312487483024597168e-01 4.318251609802246094e-01 -2.541230678558349609e+00 -8.888136148452758789e-01 2.450171470642089844e+00 6.251030564308166504e-01 8.002673387527465820e-01 -2.142105102539062500e+00 -1.461228579282760620e-01 9.071316719055175781e-01 -1.237031936645507812e+00 -6.938358545303344727e-01 8.182612657546997070e-01 2.317373991012573242e+00 2.831357955932617188e+00 -8.898645043373107910e-01 -3.224386572837829590e-01 -8.833724260330200195e-01 1.989174365997314453e+00 3.086504936218261719e-01 3.368591308593750000e+00 6.361784040927886963e-02 2.159495353698730469e+00 3.078492283821105957e-01 1.998992323875427246e+00 9.050793051719665527e-01 2.062864542007446289e+00 1.574427366256713867e+00 -4.241901338100433350e-01 -1.458210498094558716e-01 1.062360644340515137e+00 4.858256280422210693e-01 2.723503112792968750e+00 1.305362582206726074e+00 -1.780774593353271484e-01 9.220429658889770508e-01 -6.539432406425476074e-01 2.509195804595947266e+00 9.938061237335205078e-02 2.951282024383544922e+00 -1.449531316757202148e+00 2.658773422241210938e+00 2.252063274383544922e+00 8.782463669776916504e-01 9.611518383026123047e-01 1.229606866836547852e+00 1.905815601348876953e+00 7.740057110786437988e-01 -3.790913522243499756e-01 1.468456506729125977e+00 2.043010294437408447e-01 1.985546499490737915e-01 7.276086211204528809e-01 -9.928051829338073730e-01 2.467245608568191528e-01 -1.233047008514404297e+00 -1.522739604115486145e-02 -1.167581915855407715e+00 -5.451454967260360718e-02 2.339554071426391602e+00 6.748352050781250000e-01 2.820952177047729492e+00 2.530808925628662109e+00 3.065775156021118164e+00 -1.262081384658813477e+00 -2.717381119728088379e-01 1.365993618965148926e+00 2.671267271041870117e+00 1.742246866226196289e+00 8.457103371620178223e-01 8.522691726684570312e-01 3.105945110321044922e+00 2.456095457077026367e+00 2.249325752258300781e+00 -1.558354258537292480e+00 -4.936576187610626221e-01 3.009696006774902344e+00 -2.858297526836395264e-01 -4.653102755546569824e-01 4.892870187759399414e-01 2.435221910476684570e+00 -6.260325908660888672e-01 1.758096218109130859e+00 -4.477206990122795105e-02 3.330829143524169922e+00 1.908627986907958984e+00 7.094014436006546021e-03 1.360309600830078125e+00 -5.266983509063720703e-01 1.789775013923645020e+00 -1.305885076522827148e+00 2.684321165084838867e+00 -4.871245324611663818e-01 -1.380678653717041016e+00 3.092735767364501953e+00 -2.184047222137451172e+00 1.882811665534973145e+00 2.044181376695632935e-01 -9.928974509239196777e-01 -1.560264825820922852e+00 3.871733844280242920e-01 4.261867403984069824e-01 -4.545462131500244141e-01 6.383206248283386230e-01 -1.551971197128295898e+00 -5.697616934776306152e-01 -2.478010654449462891e+00 6.080463528633117676e-01 -1.473301649093627930e+00 -2.886274099349975586e+00 -3.254773560911417007e-03 -1.849375486373901367e+00 -3.405356407165527344e+00 -5.076137185096740723e-02 3.180809319019317627e-01 -2.315019130706787109e+00 6.142436265945434570e-01 -1.053071022033691406e-02 -1.205616950988769531e+00 2.257844209671020508e+00 -1.078143835067749023e+00 2.392121553421020508e+00 -1.763951301574707031e+00 1.173941969871520996e+00 -6.086596846580505371e-01 -7.382909059524536133e-01 -1.996035814285278320e+00 -3.765548467636108398e-01 4.410351216793060303e-01 1.558215618133544922e-01 -2.382289409637451172e+00 -1.718280076980590820e+00
1.310675978660583496e+00 2.341045737266540527e-01 -2.578347444534301758e+00 -1.769697904586791992e+00 1.886838793754577637e+00 1.079811573028564453e+00 8.129037022590637207e-01 4.482313394546508789e-01 -1.473212361335754395e+00 7.026686668395996094e-01 -5.857051610946655273e-01 -9.042066335678100586e-02 6.603335142135620117e-01 -7.107420563697814941e-01 -1.870815873146057129e+00 8.135387301445007324e-01 5.048684030771255493e-02 1.236803293228149414e+00 1.223213821649551392e-01 -3.990876972675323486e-01 3.316538095474243164e+00 -3.315163612365722656e+00 -2.151249170303344727e+00 1.040199995040893555e+00 -2.081708163022994995e-01 -1.368394374847412109e+00 -1.109667778015136719e+00 5.922430157661437988e-01 -4.699235260486602783e-01 3.210120677947998047e+00 1.245411872863769531e+00 2.139571666717529297e+00 -3.751795589923858643e-01 -1.284407258033752441e+00 -1.401628494262695312e+00 -1.666162133216857910e+00 -1.575272083282470703e+00 -1.263647079467773438e+00 2.974296569824218750e+00 1.272683739662170410e+00 3.012707948684692383e+00 2.631236791610717773e+00 1.809060454368591309e+00 1.123995304107666016e+00 3.051819801330566406e+00 1.534857511520385742e+00 3.148457765579223633e+00 3.131068050861358643e-01 2.544628381729125977e+00 3.076724052429199219e+00 3.196662902832031250e+00 8.744273781776428223e-01 2.423968553543090820e+00 2.722512245178222656e+00 8.713391423225402832e-01 2.616502761840820312e+00 2.866709232330322266e+00 1.277694940567016602e+00 2.100870847702026367e+00 2.719521760940551758e+00 1.682197690010070801e+00 2.819786071777343750e-01 2.533567190170288086e+00 3.086766958236694336e+00 1.002185821533203125e+00 3.315774440765380859e+00 4.607641696929931641e-01 1.813927292823791504e+00 2.980511903762817383e+00 2.245472192764282227e+00 3.308124780654907227e+00 1.652276635169982910e+00 -4.396443814039230347e-02 3.009419202804565430e+00 1.288401246070861816e+00 2.351078748703002930e+00 1.543979883193969727e+00 1.725038528442382812e+00 1.254338383674621582e+00 2.701190710067749023e+00 -2.833970308303833008e+00 -3.134583711624145508e+00 1.137800812721252441e+00 -4.742925763130187988e-01 -1.039030671119689941e+00 -1.742349505424499512e+00 -6.865462660789489746e-01 -3.038901090621948242e+00 -1.710747599601745605e+00 -1.087085008621215820e+00 -2.212482988834381104e-01 -3.189128875732421875e+00 -2.259018182754516602e+00 8.743185400962829590e-01 9.969559311866760254e-01 -2.088361978530883789e-02 -2.764983177185058594e+00 2.192520618438720703e+00 -1.867874145507812500e+00 8.704619109630584717e-02 4.719151556491851807e-01 6.392122507095336914e-01 -2.643609046936035156e+00 -2.916752576828002930e+00 -3.173623979091644287e-01 -2.527688026428222656e+00 -8.413411378860473633e-01 -2.583159446716308594e+00 2.152581065893173218e-01 -1.329033255577087402e+00 -1.043209806084632874e-01 -1.108551502227783203e+00 -2.616299152374267578e+00 -2.466308832168579102e+00 -1.663979053497314453e+00 -2.905851975083351135e-02 -2.026007413864135742e+00 2.213991403579711914e+00 -1.884520411491394043e+00 2.916968822479248047e+00 -1.426920890808105469e+00 -6.952049136161804199e-01 -6.160386800765991211e-01 -1.925478696823120117e+00 -1.976967334747314453e+00 -2.908230781555175781e+00 -2.740782022476196289e+00 -6.800446510314941406e-01 -1.536788105964660645e+00 2.319205760955810547e+00 8.298850655555725098e-01 -1.276782870292663574e+00 1.029031634330749512e+00 9.623221755027770996e-01 2.284252405166625977e+00 -1.217223554849624634e-01 2.994099259376525879e-01 1.020479202270507812e+00 1.150804758071899414e-02 -4.464947879314422607e-01 -2.043277263641357422e+00 -2.664246320724487305e+00 -2.683648824691772461e+00 8.891151547431945801e-01 1.770515084266662598e+00 -1.222683668136596680e+00 3.169685369357466698e-03 -2.190274238586425781e+00 -1.304252505302429199e+00 -1.245652318000793457e+00 3.690727949142456055e-01 -6.525038480758666992e-01 -3.813263773918151855e-01 -3.182608366012573242e+00 -2.439673185348510742e+00 1.845387697219848633e+00 1.074860021471977234e-01 2.779204249382019043e-01 -1.760804653167724609e+00 -2.384804010391235352e+00 -2.408309459686279297e+00 1.783442646265029907e-01 2.501250028610229492e+00 2.448612153530120850e-01 -1.821327209472656250e+00 1.150474190711975098e+00 -1.698441743850708008e+00 -2.332700490951538086e+00 7.703389525413513184e-01 9.265264868736267090e-02 -2.840780973434448242e+00 1.738993525505065918e-01 -1.667412519454956055e+00 2.740990817546844482e-01 -1.806843876838684082e+00 5.913615226745605469e-01 -3.023801565170288086e+00 9.236068725585937500e-01 -1.620716810226440430e+00 -5.711832046508789062e-01 -1.436236023902893066e+00 1.000288248062133789e+00 -1.776255726814270020e+00 1.134356558322906494e-01 1.574367880821228027e+00 -1.506031274795532227e+00 3.079663991928100586e+00 9.341479539871215820e-01 -2.919615983963012695e+00 -2.555976867675781250e+00 4.989065825939178467e-01 2.952325105667114258e+00 -3.207469880580902100e-01 1.061052918434143066e+00 -1.878381729125976562e+00 3.401273190975189209e-01 -2.299764156341552734e-01 -1.981573224067687988e+00 5.080754756927490234e-01 -3.003151901066303253e-02
7.175538539886474609e-01 -1.183062195777893066e+00 -8.294056653976440430e-01 2.468575954437255859e+00 -2.986777126789093018e-01 -2.229549407958984375e+00 2.439885854721069336e+00 -1.876814246177673340e+00 1.477015972137451172e+00 3.060153484344482422e+00 3.220186710357666016e+00 2.034457921981811523e+00 2.942954063415527344e+00 7.655267715454101562e-01 2.475263178348541260e-01 1.210895895957946777e+00 2.845613956451416016e-01 -7.482501268386840820e-01 8.438969254493713379e-01 7.966144084930419922e-01 5.902801454067230225e-02 -7.713760137557983398e-01 8.123341202735900879e-01 1.958384871482849121e+00 1.327376127243041992e+00 1.053797960281372070e+00 -7.519660592079162598e-01 2.900238275527954102e+00 -5.454801917076110840e-01 -1.289569735527038574e+00 8.223658800125122070e-01 2.711554050445556641e+00 -2.890077829360961914e-01 -8.898930996656417847e-02 -5.033082962036132812e-01 -7.706040143966674805e-01 -8.340566754341125488e-01 2.734823822975158691e-01 6.437488198280334473e-01 2.104442358016967773e+00 -1.882337033748626709e-01 8.769330978393554688e-01 2.523447036743164062e+00 -6.468454599380493164e-01 -2.777814269065856934e-01 -2.872262954711914062e+00 5.022975802421569824e-02 2.562679290771484375e+00 4.348874688148498535e-01 3.012322187423706055e+00 -1.056213259696960449e+00 1.542373180389404297e+00 2.375216484069824219e+00 -2.699497461318969727e+00 -2.835642576217651367e+00 -2.174239873886108398e+00 -2.518722772598266602e+00 5.297501683235168457e-01 -1.717329859733581543e+00 2.070151090621948242e+00 5.277138352394104004e-01 -2.848245859146118164e+00 5.909906625747680664e-01 -1.874193549156188965e+00 -2.955310940742492676e-01 3.717247247695922852e-01 -2.398616313934326172e+00 -1.344022631645202637e+00 1.017105817794799805e+00 -2.126096963882446289e+00 -1.401982903480529785e+00 -2.701175928115844727e+00 3.931441009044647217e-01 5.714652538299560547e-01 2.140790075063705444e-01 -1.664891839027404785e+00 1.574703574180603027e+00 2.696810483932495117e+00 1.295045495033264160e+00 1.835721731185913086e+00 -2.599877491593360901e-02 2.481069803237915039e+00 1.661149263381958008e+00 9.959535598754882812e-01 2.893112182617187500e+00 9.940488338470458984e-01 2.011123180389404297e+00 -1.610776662826538086e+00 -2.084792852401733398e+00 -1.463234722614288330e-01 -1.340613961219787598e+00 1.244680285453796387e-01 2.082421302795410156e+00 1.972454905509948730e+00 2.143350988626480103e-01 -1.350964307785034180e+00 -2.177241563796997070e+00 1.314422369003295898e+00 -1.704124212265014648e+00 -1.978774666786193848e+00 -5.957055091857910156e-01 7.967559695243835449e-01 1.209221124649047852e+00 5.790411829948425293e-01 -1.183960676193237305e+00 -8.122322708368301392e-02 -2.493566274642944336e+00 6.510088443756103516e-01 1.489084243774414062e+00 2.094713211059570312e+00 -1.894284129142761230e+00 6.519634723663330078e-01 -5.948961973190307617e-01 3.417169570922851562e+00 -4.504262208938598633e-01 1.080043435096740723e+00 1.451957106590270996e+00 2.616496086120605469e-01 1.079442858695983887e+00 -2.375895023345947266e+00 2.647947788238525391e+00 1.275607228279113770e+00 8.632435649633407593e-02 3.158779382705688477e+00 2.992589473724365234e+00 2.018216609954833984e+00 2.529336214065551758e+00 2.523704290390014648e+00 -7.373636364936828613e-01 -5.055920481681823730e-01 -8.414797782897949219e-01 -3.835123777389526367e-01 1.653072476387023926e+00 1.662138938903808594e+00 8.647254109382629395e-01 9.730982780456542969e-01 1.887918591499328613e+00 1.187923908233642578e+00 -2.936750650405883789e+00 -9.631981253623962402e-01 2.658201456069946289e+00 -2.369274377822875977e+00 5.480681061744689941e-01 1.105539202690124512e+00 2.783453941345214844e+00 -2.403075695037841797e+00 1.769303321838378906e+00 1.808685302734375000e+00 1.346575498580932617e+00 1.466303110122680664e+00 1.927473187446594238e+00 1.214416861534118652e+00 1.620713472366333008e-01 2.779135942459106445e+00 2.581829071044921875e+00 -1.160112857818603516e+00 -5.338467359542846680e-01 2.119414329528808594e+00 1.829664230346679688e+00 4.584181010723114014e-01 -2.936692714691162109e+00 -1.887923359870910645e+00 -3.077123641967773438e+00 -3.247323036193847656e+00 -2.591631174087524414e+00 -2.366632699966430664e+00 -5.528879761695861816e-01 -2.446291685104370117e+00 -3.154199600219726562e+00 -2.346151590347290039e+00 -2.011183023452758789e+00 2.140367746353149414e+00 -2.701911687850952148e+00 -9.157668352127075195e-01 -2.005062580108642578e+00 -1.055239677429199219e+00 -9.611964821815490723e-01 -5.795578956604003906e-01 -2.919879436492919922e+00 -1.962627172470092773e+00 -3.355648741126060486e-02 -1.014951109886169434e+00 -8.557798266410827637e-01 -2.234874963760375977e+00 -1.315233826637268066e+00 -1.120021104812622070e+00 -2.998034238815307617e+00 1.563932538032531738e+00 -3.536509752273559570e+00 -3.149430513381958008e+00 -2.872047662734985352e+00 -5.176602602005004883e-01 -2.733426809310913086e+00 1.174102306365966797e+00 -1.630789756774902344e+00 -1.405094504356384277e+00 -3.211611747741699219e+00 -2.221723318099975586e+00 -1.511373281478881836e+00 2.728548049926757812e+00
-1.373760223388671875e+00 -2.082126617431640625e+00 -2.156948328018188477e+00 2.193087577819824219e+00 1.694289922714233398e+00 7.277748584747314453e-01 -1.657938480377197266e+00 9.667596220970153809e-01 1.472146034240722656e+00 7.196188569068908691e-01 1.389039635658264160e+00 -1.378084778785705566e+00 -1.032506585121154785e+00 -8.400718569755554199e-01 -1.159678339958190918e+00 -1.526550412178039551e+00 2.936630249023437500e+00 1.714443325996398926e+00 -7.189455628395080566e-01 -2.054593414068222046e-01 2.094561755657196045e-01 1.390337646007537842e-01 1.916127324104309082e+00 2.977600574493408203e+00 -7.947364449501037598e-01 -1.665174484252929688e+00 -1.317546486854553223e+00 7.061832547187805176e-01 -1.883709073066711426e+00 5.228197574615478516e-01 -2.592280149459838867e+00 -3.389654457569122314e-01 2.714501142501831055e+00 1.685230493545532227e+00 1.530493736267089844e+00 2.217602491378784180e+00 2.938534975051879883e+00 -1.181807160377502441e+00 1.675713062286376953e+00 2.348415374755859375e+00 -1.677222847938537598e+00 -6.956972479820251465e-01 2.788818836212158203e+00 -5.696133375167846680e-01 3.665748536586761475e-01 2.555166721343994141e+00 2.225362777709960938e+00 -1.068638324737548828e+00 -3.118230104446411133e+00 4.643006250262260437e-02 -1.396061658859252930e+00 -1.552136421203613281e+00 1.588566303253173828e+00 6.530518531799316406e-01 -8.763663172721862793e-01 -8.257333636283874512e-01 -2.227168798446655273e+00 2.527394056320190430e+00 2.585889816284179688e+00 -1.109361767768859863e+00 1.792688071727752686e-01 -4.485408589243888855e-02 1.954941868782043457e+00 -2.050270587205886841e-01 1.820247530937194824e+00 1.694752573966979980e+00 4.272886514663696289e-01 -1.968438863754272461e+00 -1.532076299190521240e-01 2.853957891464233398e+00 2.702341794967651367e+00 -1.328409433364868164e+00 -1.364779114723205566e+00 1.042693376541137695e+00 4.209857881069183350e-01 3.252466917037963867e-01 5.908541083335876465e-01 1.645015358924865723e+00 3.052546501159667969e+00 -1.977463364601135254e+00 5.795397758483886719e-01 -2.018942594528198242e+00 2.740369081497192383e+00 -3.500491976737976074e-01 1.685605287551879883e+00 -6.811936497688293457e-01 -4.757167994976043701e-01 2.536285877227783203e+00 -3.048797130584716797e+00 3.230469465255737305e+00 8.437312245368957520e-01 2.803240060806274414e+00 3.246618509292602539e-01 -1.109874606132507324e+00 1.991508603096008301e+00 1.234296798706054688e+00 -8.328857421875000000e-01 2.080430269241333008e+00 2.717735290527343750e+00 -2.330983161926269531e+00 -4.736202210187911987e-02 -3.120935916900634766e+00 2.626314401626586914e+00 2.695339441299438477e+00 2.067195415496826172e+00 2.667163610458374023e+00 1.698037385940551758e+00 -6.663130521774291992e-01 -2.157514840364456177e-01 2.022278547286987305e+00 2.544308423995971680e+00 -1.497941970825195312e+00 9.543095231056213379e-01 -1.139884948730468750e+00 -4.705955982208251953e-01 2.828583955764770508e+00 2.379297256469726562e+00 -2.475535631179809570e+00 3.037830352783203125e+00 -9.550056457519531250e-01 2.047694921493530273e+00 1.122384190559387207e+00 2.999945640563964844e+00 2.108546733856201172e+00 1.412711262702941895e+00 -8.151798844337463379e-01 -1.806056499481201172e+00 -1.461984634399414062e+00 -5.941520929336547852e-01 -2.806951284408569336e+00 -4.731700718402862549e-01 2.269478797912597656e+00 -3.027777910232543945e+00 6.052786707878112793e-01 2.088774144649505615e-01 -4.199669063091278076e-01 -8.791942596435546875e-01 -2.773225784301757812e+00 -2.482260465621948242e+00 -8.326416462659835815e-02 -1.842469215393066406e+00 -1.418972015380859375e+00 -2.753342501819133759e-02 1.856830000877380371e+00 -2.934201955795288086e+00 2.116964817047119141e+00 3.068417310714721680e+00 7.617883682250976562e-01 3.367208480834960938e+00 1.788755297660827637e+00 -2.279238224029541016e+00 -1.528593659400939941e+00 7.218453288078308105e-01 -6.920592188835144043e-01 -2.781693458557128906e+00 7.448564171791076660e-01 1.551693081855773926e+00 -1.016781926155090332e+00 5.777340531349182129e-01 -9.626444578170776367e-01 1.549754500389099121e+00 1.242177113890647888e-01 -9.741660356521606445e-01 -4.894183874130249023e-01 -1.792541146278381348e+00 -2.244275808334350586e+00 -1.808283090591430664e+00 -2.181960582733154297e+00 -2.114717960357666016e+00 -2.343305587768554688e+00 -2.353707075119018555e+00 -3.093111991882324219e+00 -2.823087215423583984e+00 -4.223229289054870605e-01 -1.783757448196411133e+00 1.259856298565864563e-02 -1.217082262039184570e+00 -1.841896176338195801e-01 -2.281417846679687500e+00 -2.473126888275146484e+00 -2.290508031845092773e+00 -1.950031757354736328e+00 -2.647555828094482422e+00 -2.261381864547729492e+00 -1.750507354736328125e+00 1.911959290504455566e+00 -3.192025125026702881e-01 -1.767043620347976685e-01 8.779094219207763672e-01 -2.366470336914062500e+00 -2.795297861099243164e+00 1.433988690376281738e+00 -7.396831512451171875e-01 -1.395129203796386719e+00 -1.065441444516181946e-01 9.787208437919616699e-01 -1.348283767700195312e+00 6.235027909278869629e-01 -1.304685831069946289e+00 -3.016847372055053711e+00
9.881471991539001465e-01 -1.321371197700500488e+00 -2.048432111740112305e+00 1.996124833822250366e-01 1.420259714126586914e+00 -3.254648923873901367e+00 -4.312321245670318604e-01 -1.288047194480895996e+00 6.238618493080139160e-01 -2.338860750198364258e+00 2.276051044464111328e+00 1.706543564796447754e+00 2.276568412780761719e+00 1.704582095146179199e+00 -2.158698320388793945e+00 -2.681339263916015625e+00 -7.226995229721069336e-01 -3.061363220214843750e+00 2.615436792373657227e+00 -1.624903440475463867e+00 -2.752418279647827148e+00 7.305145263671875000e-01 -6.011667251586914062e-01 -2.426624059677124023e+00 -1.589854806661605835e-01 -6.274266242980957031e-01 2.365067005157470703e+00 -4.630693495273590088e-01 -1.261241674423217773e+00 -2.681416034698486328e+00 -7.082665562629699707e-01 -2.832172155380249023e+00 1.024227738380432129e-01 8.838577866554260254e-01 -1.020684957504272461e+00 6.175935268402099609e-01 -1.288998484611511230e+00 -2.754122972488403320e+00 -7.475841641426086426e-01 -9.921115636825561523e-01 -1.251572370529174805e+00 1.900148630142211914e+00 -1.887062549591064453e+00 1.601956933736801147e-01 1.908063739538192749e-01 9.227048158645629883e-01 -1.265717029571533203e+00 4.800343215465545654e-01 -1.213306546211242676e+00 2.235324144363403320e+00 1.506975054740905762e+00 2.330029249191284180e+00 -1.035495847463607788e-01 2.730326652526855469e+00 1.795876026153564453e+00 1.609862804412841797e+00 6.438139081001281738e-01 -2.944808959960937500e+00 -3.741773217916488647e-02 4.408191144466400146e-01 1.629252076148986816e+00 3.255110740661621094e+00 7.335857748985290527e-01 1.509011507034301758e+00 2.874099731445312500e+00 -2.031351327896118164e+00 2.351847648620605469e+00 -2.895046710968017578e+00 3.174154043197631836e+00 5.933457612991333008e-02 -1.104110598564147949e+00 2.637633562088012695e+00 -2.781884670257568359e+00 -1.805997967720031738e+00 1.272120028734207153e-01 1.294812321662902832e+00 4.570790231227874756e-01 -6.829453110694885254e-01 2.571279048919677734e+00 2.499335765838623047e+00 2.633735895156860352e+00 2.206896543502807617e+00 -1.156724095344543457e+00 -7.392383217811584473e-01 2.464007377624511719e+00 -3.253540754318237305e+00 -1.076469421386718750e+00 2.647521972656250000e+00 -9.705483913421630859e-01 2.038472652435302734e+00 -2.037634134292602539e+00 -1.575495958328247070e+00 2.839307785034179688e+00 -1.081182479858398438e+00 -5.066687464714050293e-01 1.855962991714477539e+00 2.430865049362182617e+00 1.277776122093200684e+00 -2.242205858230590820e+00 2.404103279113769531e+00 5.531599521636962891e-01 -2.929672002792358398e-01 7.736769318580627441e-02 1.327227830886840820e+00 -1.188769415020942688e-01 -9.187520742416381836e-01 7.832108736038208008e-01 1.508132338523864746e+00 -5.557975918054580688e-02 2.000280857086181641e+00 -1.732126235961914062e+00 1.607625126838684082e+00 1.251866936683654785e+00 1.058465361595153809e+00 1.630831480026245117e+00 -2.929866552352905273e+00 2.045660972595214844e+00 1.796492457389831543e+00 5.150755047798156738e-01 1.786490082740783691e+00 -4.487993717193603516e-01 -2.835431337356567383e+00 -1.720002412796020508e+00 -4.925160706043243408e-01 1.273917406797409058e-01 -2.089594125747680664e+00 -2.021075010299682617e+00 -3.938469290733337402e-01 5.371931195259094238e-01 2.436808824539184570e+00 -1.148746728897094727e+00 4.957028329372406006e-01 -2.819930791854858398e+00 -9.626977443695068359e-01 -1.957185029983520508e+00 2.675392866134643555e+00 -1.011806249618530273e+00 -2.265605926513671875e+00 1.233694791793823242e+00 -2.904825448989868164e+00 -1.308295607566833496e+00 -1.606813073158264160e+00 -2.243558883666992188e+00 -2.904311180114746094e+00 1.021673679351806641e+00 1.615755081176757812e+00 -7.452012300491333008e-01 -1.649080753326416016e+00 -1.959900259971618652e+00 3.301457762718200684e-01 -1.046179056167602539e+00 -1.973773479461669922e+00 2.160404682159423828e+00 -5.475072860717773438e-01 1.723919630050659180e+00 -1.037312507629394531e+00 -2.229883521795272827e-01 -2.340163707733154297e+00 -7.869285345077514648e-01 7.741083204746246338e-02 3.092993497848510742e+00 -9.212167859077453613e-01 4.446254968643188477e-01 1.551195263862609863e+00 2.749078035354614258e+00 -7.703692317008972168e-01 1.687163591384887695e+00 -1.439089417457580566e+00 -2.017466127872467041e-01 -1.705165863037109375e+00 -2.040152698755264282e-01 2.377606391906738281e+00 -2.535862445831298828e+00 2.847951650619506836e+00 2.239909648895263672e+00 -3.268808126449584961e-01 -1.795512557029724121e+00 -7.211478948593139648e-01 6.387360692024230957e-01 -5.450332760810852051e-01 -8.875668048858642578e-01 1.883301377296447754e+00 -3.914855122566223145e-01 -1.438300132751464844e+00 1.322560787200927734e+00 -7.270000576972961426e-01 9.043914675712585449e-01 1.036276340484619141e+00 -3.538836240768432617e-01 -2.147381752729415894e-01 1.090547800064086914e+00 1.265309095382690430e+00 -2.468466997146606445e+00 1.909276962280273438e+00 1.003469347953796387e+00 5.413144230842590332e-01 -1.231050610542297363e+00 -8.422329425811767578e-01 3.040710985660552979e-01 8.617762923240661621e-01
8.631998300552368164e-01 -2.697935581207275391e+00 1.598013192415237427e-01 -2.077049493789672852e+00 1.136724114418029785e+00 2.614284515380859375e+00 2.080633163452148438e+00 -1.547790527343750000e+00 -6.280953288078308105e-01 1.150745511054992676e+00 -2.785665988922119141e+00 2.502261638641357422e+00 2.417541742324829102e+00 1.839219212532043457e+00 -6.165376901626586914e-01 2.289202451705932617e+00 2.715410947799682617e+00 2.402574300765991211e+00 -1.291354537010192871e+00 -2.879135131835937500e+00 6.541596651077270508e-01 1.855387330055236816e+00 -1.840237021446228027e+00 8.340198546648025513e-02 -1.611765742301940918e+00 -2.069375276565551758e+00 -1.795609235763549805e+00 2.028337478637695312e+00 1.797368407249450684e+00 -1.542133331298828125e+00 1.669530749320983887e+00 -1.303696870803833008e+00 6.829905509948730469e-01 -3.446148931980133057e-01 7.246696949005126953e-01 8.275845050811767578e-01 2.579891681671142578e+00 -1.961112737655639648e+00 1.944828748703002930e+00 -8.357014656066894531e-01 1.149110496044158936e-02 -2.812730789184570312e+00 -1.590307354927062988e+00 2.139240264892578125e+00 -1.265888333320617676e+00 -1.177034020423889160e+00 2.248014926910400391e+00 -1.307898879051208496e+00 2.174298524856567383e+00 7.222234606742858887e-01 -1.487764954566955566e+00 -5.136001110076904297e-01 1.193973422050476074e+00 -2.303205728530883789e+00 -8.287226557731628418e-01 1.583744883537292480e+00 1.012454509735107422e+00 -4.670521020889282227e-01 -9.163526892662048340e-01 1.344211697578430176e+00 -1.887835860252380371e+00 -2.334922552108764648e+00 -2.163277864456176758e+00 -2.891297101974487305e+00 -8.729651570320129395e-01 -1.999963641166687012e+00 -4.779146313667297363e-01 3.132463991641998291e-01 -1.371816992759704590e+00 2.153312444686889648e+00 -3.173988461494445801e-01 1.067861914634704590e+00 -2.503968000411987305e+00 -7.213008999824523926e-01 1.286890864372253418e+00 -1.373332023620605469e+00 -8.899619579315185547e-01 -2.612974405288696289e+00 -2.557280302047729492e+00 -7.569061517715454102e-01 6.044264435768127441e-01 -5.477247759699821472e-02 -5.127183794975280762e-01 -7.201892733573913574e-01 -1.428663134574890137e+00 1.734558463096618652e+00 2.052360057830810547e+00 1.019767761230468750e+00 6.341323852539062500e-01 2.729882478713989258e+00 -2.648027896881103516e+00 2.818228721618652344e+00 -1.001846671104431152e+00 -2.639272451400756836e+00 2.729027867317199707e-01 3.063318729400634766e-01 2.424345731735229492e+00 -1.482232809066772461e-01 -8.882362842559814453e-01 7.682296633720397949e-01 1.955129265785217285e+00 -2.552140712738037109e+00 7.614060044288635254e-01 2.781841039657592773e+00 -2.597182512283325195e+00 -4.265200495719909668e-01 -2.686027526855468750e+00 -2.132187128067016602e+00 -3.308801651000976562e+00 -1.524833202362060547e+00 2.492676258087158203e+00 6.032965779304504395e-01 -2.421206951141357422e+00 -4.910482168197631836e-01 -1.053742766380310059e+00 -9.734006524085998535e-01 1.429794788360595703e+00 1.464085102081298828e+00 5.973730683326721191e-01 -1.073111295700073242e+00 2.265066862106323242e+00 -1.464144945144653320e+00 2.824647903442382812e+00 -1.293757259845733643e-01 8.981369137763977051e-01 -9.700962156057357788e-02 6.475019454956054688e-01 -8.624068498611450195e-01 -1.467847943305969238e+00 -2.446414470672607422e+00 8.271223306655883789e-01 1.841421961784362793e+00 7.240658402442932129e-01 2.452579498291015625e+00 5.698271989822387695e-01 2.175944596529006958e-01 -2.682584524154663086e+00 2.302481889724731445e+00 -1.287711977958679199e+00 1.303093791007995605e+00 -2.431601047515869141e+00 2.561865568161010742e+00 1.957568049430847168e+00 1.069512724876403809e+00 3.342245101928710938e+00 -2.740867376327514648e+00 8.875294923782348633e-01 3.232842683792114258e-01 2.670057058334350586e+00 -2.847618341445922852e+00 -1.095366358757019043e+00 3.681274056434631348e-01 2.819257974624633789e+00 4.292467832565307617e-01 2.972769975662231445e+00 -1.087105035781860352e+00 -4.771258234977722168e-01 2.694261074066162109e+00 -8.054168224334716797e-01 5.986281037330627441e-01 1.384098887443542480e+00 -1.907462596893310547e+00 -7.647772431373596191e-01 -4.465808868408203125e-01 -9.544453024864196777e-02 2.086203098297119141e+00 1.978791236877441406e+00 5.539894700050354004e-01 1.682361602783203125e+00 -4.110324680805206299e-01 1.881485134363174438e-01 -3.663724660873413086e+00 2.338974475860595703e+00 -2.816457509994506836e+00 -2.808697462081909180e+00 7.672825828194618225e-03 3.440870642662048340e-01 6.314231157302856445e-01 -1.062287330627441406e+00 2.895882539451122284e-02 -8.493677973747253418e-01 8.537635207176208496e-01 -2.011374950408935547e+00 1.591330528259277344e+00 6.132575273513793945e-01 8.872264027595520020e-01 5.582217574119567871e-01 -1.365188360214233398e+00 -8.952127099037170410e-01 -2.440209388732910156e+00 -8.257327079772949219e-01 1.812175273895263672e+00 8.367205262184143066e-01 1.681013584136962891e+00 1.550628066062927246e+00 8.555036187171936035e-01 1.893565356731414795e-01 2.781057357788085938e+00 -2.237844228744506836e+00 -8.367735743522644043e-01
1.529929995536804199e+00 -4.155193865299224854e-01 1.708760619163513184e+00 2.260646224021911621e-01 1.176255464553833008e+00 2.012280225753784180e+00 2.079065799713134766e+00 1.334876894950866699e+00 2.963845968246459961e+00 -2.246485710144042969e+00 1.283587068319320679e-01 1.823566198348999023e+00 1.429793000221252441e+00 -6.469027400016784668e-01 1.185502409934997559e+00 8.995537161827087402e-01 1.621165633201599121e+00 -3.632348179817199707e-01 1.732591152191162109e+00 1.750304102897644043e+00 -2.474979162216186523e+00 7.814512848854064941e-01 2.805629730224609375e+00 8.203808665275573730e-01 8.649101257324218750e-01 1.199124813079833984e+00 1.699877381324768066e+00 1.015850663185119629e+00 1.655352950096130371e+00 1.772589921951293945e+00 -2.395123243331909180e+00 8.494620770215988159e-02 -6.245948076248168945e-01 -1.276496201753616333e-01 1.235651969909667969e+00 -1.654784083366394043e+00 4.271329045295715332e-01 1.184010863304138184e+00 -1.364038348197937012e+00 2.335603237152099609e+00 -2.407348632812500000e+00 4.391177594661712646e-01 -1.226476311683654785e+00 -1.119759321212768555e+00 -2.899673700332641602e+00 -2.311946630477905273e+00 -1.956215262413024902e+00 -2.031608581542968750e+00 -2.939503669738769531e+00 1.339790582656860352e+00 2.290173768997192383e+00 9.751200675964355469e-01 -3.020186424255371094e+00 6.210084259510040283e-02 -2.300653219223022461e+00 -1.317661255598068237e-01 -1.101932406425476074e+00 -2.313512325286865234e+00 1.536658406257629395e-01 -3.365123987197875977e+00 -3.242655515670776367e+00 -8.905670046806335449e-01 -1.758352279663085938e+00 -1.041432380676269531e+00 -2.913555383682250977e+00 -1.728476047515869141e+00 -2.274611949920654297e+00 -1.640807986259460449e+00 4.979195892810821533e-01 -8.846696615219116211e-01 -3.679780244827270508e+00 -4.721137881278991699e-01 -3.109608888626098633e+00 7.620586752891540527e-01 -2.263853549957275391e-01 -4.120438694953918457e-01 1.563030362129211426e+00 -2.375500679016113281e+00 -1.890686750411987305e+00 -1.391194820404052734e+00 2.622661828994750977e+00 2.331974506378173828e+00 1.758121609687805176e+00 1.626236480660736561e-03 2.219627618789672852e+00 -1.068680644035339355e+00 1.449373960494995117e+00 6.399590969085693359e-01 1.715327978134155273e+00 1.909622192382812500e+00 1.419181346893310547e+00 2.102119207382202148e+00 2.550227165222167969e+00 1.471380591392517090e+00 1.881277918815612793e+00 1.157334327697753906e+00 2.216453552246093750e-01 2.947762012481689453e+00 4.840083718299865723e-01 1.677791714668273926e+00 2.039828300476074219e+00 1.627406716346740723e+00 1.854242682456970215e+00 1.844422459602355957e+00 1.313481181859970093e-01 1.537524104118347168e+00 2.359591960906982422e+00 -1.680250763893127441e-01 1.472644567489624023e+00 -6.045777797698974609e-01 1.696673989295959473e+00 2.002695083618164062e+00 1.489657640457153320e+00 2.031879127025604248e-02 3.768050074577331543e-01 1.404195904731750488e+00 -6.516841053962707520e-01 -2.217553406953811646e-01 1.348920822143554688e+00 2.486717700958251953e+00 -2.845002412796020508e+00 -2.029110908508300781e+00 -2.352090597152709961e+00 -2.434332847595214844e+00 -1.579833507537841797e+00 -2.642251014709472656e+00 -9.368923306465148926e-01 1.940306067466735840e+00 -3.871228933334350586e+00 -1.004175305366516113e+00 -1.558885574340820312e+00 -5.503703355789184570e-01 4.716074168682098389e-01 -3.254496574401855469e+00 -1.394454836845397949e+00 2.301472052931785583e-02 -1.780216246843338013e-01 3.190553188323974609e-01 -3.213418245315551758e+00 -4.579019546508789062e-01 -2.601439237594604492e+00 -3.190231561660766602e+00 3.953659236431121826e-01 -1.074445128440856934e+00 -1.618866205215454102e+00 -1.914507389068603516e+00 -2.534192323684692383e+00 -6.851040720939636230e-01 -1.301181316375732422e+00 -1.350955605506896973e+00 -1.856137037277221680e+00 -3.889807224273681641e+00 -2.221095114946365356e-01 -9.247473478317260742e-01 2.179899454116821289e+00 -1.472048163414001465e+00 -4.133434891700744629e-01 -3.353083848953247070e+00 -9.213679432868957520e-01 -2.476727247238159180e+00 4.148987531661987305e-01 9.126801788806915283e-02 2.522883415222167969e+00 2.355644226074218750e+00 2.433222293853759766e+00 -8.988030552864074707e-01 -1.593715548515319824e+00 -4.784874022006988525e-01 1.947890520095825195e+00 1.804639399051666260e-01 2.536026000976562500e+00 -5.351864099502563477e-01 1.606392383575439453e+00 2.965027093887329102e-01 1.566897273063659668e+00 2.947199046611785889e-01 5.255911946296691895e-01 2.395674943923950195e+00 -2.635761499404907227e+00 1.753803372383117676e+00 2.158752202987670898e+00 3.857798874378204346e-01 -1.416582107543945312e+00 2.195998668670654297e+00 1.790214061737060547e+00 1.537492513656616211e+00 1.711656093597412109e+00 2.521098852157592773e+00 6.482281684875488281e-01 -2.575007677078247070e+00 6.704398989677429199e-01 3.906644284725189209e-01 1.353265762329101562e+00 1.610050797462463379e+00 1.250304579734802246e+00 5.413294434547424316e-01 2.019600629806518555e+00 -4.725959300994873047e-01 -1.688308954238891602e+00 -1.900570988655090332e+00
1.338112473487854004e+00 1.178552031517028809e+00 9.042834043502807617e-01 2.015973329544067383e+00 1.766508460044860840e+00 3.842731416225433350e-01 -1.315705776214599609e+00 -3.329133987426757812e+00 1.050547122955322266e+00 -9.353954195976257324e-01 -3.774290680885314941e-01 -2.010052919387817383e+00 -7.347313165664672852e-01 -2.226669192314147949e-01 -5.472394227981567383e-01 -6.714144945144653320e-01 -1.896423339843750000e+00 1.292676806449890137e+00 -1.086145281791687012e+00 -1.717499494552612305e+00 -2.971562147140502930e+00 -7.200135588645935059e-01 -1.990907669067382812e+00 3.309492349624633789e+00 1.968994975090026855e+00 -8.834060430526733398e-01 -2.833726882934570312e+00 -2.994866132736206055e+00 -2.476117372512817383e+00 5.898991227149963379e-01 -1.555920004844665527e+00 -6.675002574920654297e-01 -2.958616241812705994e-02 -1.992115736007690430e+00 -6.565156579017639160e-01 9.091682434082031250e-01 9.363543987274169922e-01 8.774204254150390625e-01 7.939758300781250000e-01 -1.514591217041015625e+00 -4.686408638954162598e-01 2.239724636077880859e+00 -1.159127354621887207e+00 8.832988739013671875e-01 3.140615463256835938e+00 -1.442561864852905273e+00 -1.238135576248168945e+00 -1.621290326118469238e+00 1.959496974945068359e+00 5.983630418777465820e-01 1.021501779556274414e+00 -9.648891687393188477e-01 -9.883500635623931885e-02 -1.571125984191894531e+00 -1.132008790969848633e+00 1.412496209144592285e+00 5.002920031547546387e-01 2.890593290328979492e+00 6.039466857910156250e-01 2.838191032409667969e+00 2.321613311767578125e+00 -1.985684931278228760e-01 1.514174222946166992e+00 1.370214700698852539e+00 1.511264324188232422e+00 9.273277521133422852e-01 -3.102958202362060547e+00 2.158347368240356445e+00 1.999271273612976074e+00 -2.929279804229736328e+00 -4.627538621425628662e-01 3.382167816162109375e+00 -1.860744476318359375e+00 1.128645181655883789e+00 3.239502429962158203e+00 3.763556778430938721e-01 -1.551163196563720703e+00 -3.215715289115905762e-01 7.945506572723388672e-01 -1.426862776279449463e-01 2.470632314682006836e+00 -4.871378839015960693e-01 2.339332818984985352e+00 -2.477934807538986206e-01 6.447573304176330566e-01 -4.992093890905380249e-02 2.986755847930908203e+00 2.298488378524780273e+00 3.724698305130004883e+00 6.574599146842956543e-01 2.531263589859008789e+00 1.876627326011657715e+00 -1.143935322761535645e+00 -8.409032821655273438e-01 9.931883811950683594e-01 -1.043868541717529297e+00 7.049697041511535645e-01 1.555567383766174316e+00 2.563685894012451172e+00 2.002774000167846680e+00 9.900005459785461426e-01 2.552351951599121094e-01 2.150640010833740234e+00 2.184606313705444336e+00 2.695324182510375977e+00 1.475641846656799316e+00 2.054066658020019531e+00 1.748804748058319092e-01 -2.059229612350463867e+00 1.512058138847351074e+00 -3.027601003646850586e+00 1.432921886444091797e+00 5.166569948196411133e-01 2.750668287277221680e+00 2.794550180435180664e+00 -1.607995152473449707e+00 2.920256137847900391e+00 1.505900740623474121e+00 -8.715268373489379883e-01 -7.973238825798034668e-01 -2.721108198165893555e+00 -1.031097769737243652e+00 -4.223916530609130859e-01 7.556507587432861328e-01 7.334139943122863770e-01 -4.628255367279052734e-01 -3.422771930694580078e+00 1.111151218414306641e+00 -2.455827474594116211e+00 -2.235102891921997070e+00 -5.398935079574584961e-01 -2.594764947891235352e+00 -6.044503450393676758e-01 -8.305664062500000000e-01 -2.542970657348632812e+00 -3.053078413009643555e+00 3.068567752838134766e+00 3.488504886627197266e-01 4.604054987430572510e-01 -9.004374742507934570e-01 2.602747976779937744e-01 -1.268110275268554688e+00 -1.397301912307739258e+00 -1.920653462409973145e+00 -9.700801372528076172e-01 1.065254569053649902e+00 2.580205202102661133e+00 -1.389857530593872070e+00 -4.223781824111938477e-02 -2.730163574218750000e+00 -9.515032768249511719e-01 -6.347522139549255371e-01 7.639372348785400391e-02 2.759409904479980469e+00 9.381147623062133789e-01 -2.085864782333374023e+00 5.095153450965881348e-01 1.284305214881896973e+00 7.395803332328796387e-01 -1.025607228279113770e+00 -1.509615659713745117e+00 -1.011389017105102539e+00 -2.294555664062500000e+00 -2.556164264678955078e+00 1.213228181004524231e-01 -2.070275306701660156e+00 -1.767210721969604492e+00 -6.062080264091491699e-01 -2.686881303787231445e+00 -2.611206054687500000e+00 -1.815622329711914062e+00 -1.716912984848022461e+00 -1.322456747293472290e-01 -1.275930285453796387e+00 -8.284713625907897949e-01 -1.016698479652404785e+00 -3.453856408596038818e-01 -2.249618530273437500e+00 2.310516834259033203e+00 9.256933331489562988e-01 -1.471981287002563477e+00 -1.228996038436889648e+00 3.003548979759216309e-01 5.405806303024291992e-01 2.491942405700683594e+00 3.270453810691833496e-01 -1.414848089218139648e+00 2.144418001174926758e+00 -1.435914754867553711e+00 -3.801323771476745605e-01 -5.451382696628570557e-02 -2.576740264892578125e+00 -1.825457096099853516e+00 1.116020083427429199e+00 -2.087974071502685547e+00 2.563992500305175781e+00 -1.290555834770202637e+00 1.439588069915771484e+00 1.859338283538818359e+00 2.712738513946533203e+00
-1.218641877174377441e+00 -6.665193438529968262e-01 -3.089096784591674805e+00 1.108800888061523438e+00 1.899325847625732422e+00 2.446622699499130249e-01 -4.342697262763977051e-01 -2.424273490905761719e+00 -6.853734254837036133e-01 -4.174241125583648682e-01 -9.131966233253479004e-01 1.407908558845520020e+00 -1.374476313591003418e+00 -5.389395728707313538e-02 -3.232719143852591515e-03 2.122383594512939453e+00 -1.264249205589294434e+00 -2.515718460083007812e+00 -5.058943629264831543e-01 1.075209140777587891e+00 -4.475014805793762207e-01 -1.230766296386718750e+00 1.511380672454833984e-01 2.315363883972167969e-01 4.756926596164703369e-01 -2.089951753616333008e+00 1.968309283256530762e+00 -2.697423219680786133e+00 3.296070814132690430e+00 -1.898693203926086426e+00 -2.593607187271118164e+00 1.297302722930908203e+00 -3.187160015106201172e+00 7.890279293060302734e-01 2.671287357807159424e-01 -2.015874862670898438e+00 -1.353554368019104004e+00 8.216189742088317871e-01 1.935909032821655273e+00 1.133761286735534668e+00 7.499032616615295410e-01 1.987781643867492676e+00 -1.602682828903198242e+00 -2.701074361801147461e+00 -3.118585109710693359e+00 1.393847942352294922e+00 -9.172523617744445801e-01 9.468877911567687988e-01 -3.754414618015289307e-01 -1.553438782691955566e+00 -2.625233530998229980e-01 -2.844551563262939453e+00 -1.544103384017944336e+00 -7.720241546630859375e-01 1.791870832443237305e+00 -1.735640287399291992e+00 1.722230911254882812e+00 -1.277481436729431152e+00 8.584123253822326660e-01 1.276599049568176270e+00 -2.607947587966918945e+00 5.843403339385986328e-01 1.667545914649963379e+00 -2.585624217987060547e+00 2.266568660736083984e+00 -6.485496759414672852e-01 2.121086597442626953e+00 3.212333917617797852e+00 -1.347038507461547852e+00 -1.915664672851562500e+00 6.438747048377990723e-01 2.746343374252319336e+00 6.704370975494384766e-01 1.830787658691406250e+00 4.135340452194213867e-01 -5.316144824028015137e-01 -1.013377010822296143e-01 2.071020603179931641e+00 2.410347223281860352e+00 -1.750851035118103027e+00 -9.893029928207397461e-01 2.522041082382202148e+00 1.181872725486755371e+00 2.392953634262084961e+00 -9.705272503197193146e-03 2.234730720520019531e+00 -1.642499566078186035e+00 -1.812234044075012207e+00 1.902160286903381348e+00 1.575632452964782715e+00 1.858252406120300293e+00 2.124649733304977417e-01 9.071825146675109863e-01 -1.801126480102539062e+00 2.560710668563842773e+00 -1.645614624023437500e+00 2.212242126464843750e+00 -5.344436168670654297e-01 -2.794887065887451172e+00 -2.354140043258666992e+00 1.803592324256896973e+00 -6.375622749328613281e-01 2.380047798156738281e+00 2.623536288738250732e-01 -1.244281381368637085e-01 2.044743061065673828e+00 3.040422677993774414e+00 -3.794984221458435059e-01 -4.217081889510154724e-02 -3.322557210922241211e+00 2.076757431030273438e+00 -7.238946557044982910e-01 2.377128124237060547e+00 -1.368701815605163574e+00 3.255395591259002686e-01 2.663741827011108398e+00 2.720345020294189453e+00 -3.313361108303070068e-01 1.110980987548828125e+00 1.755659878253936768e-01 -1.092554405331611633e-01 1.804142713546752930e+00 8.747924566268920898e-01 2.359002113342285156e+00 6.293089389801025391e-01 -2.041207075119018555e+00 2.909077644348144531e+00 1.184890151023864746e+00 -6.443352103233337402e-01 2.662725210189819336e+00 -1.215536236763000488e+00 6.255348771810531616e-02 1.711081743240356445e+00 2.516826868057250977e+00 -1.888795018196105957e+00 -3.027628064155578613e-01 5.136038661003112793e-01 4.025992751121520996e-01 1.603870272636413574e+00 9.724483639001846313e-02 1.000410079956054688e+00 -1.863146543502807617e+00 -1.620916485786437988e+00 2.401106834411621094e+00 2.007536172866821289e+00 2.095869064331054688e+00 -1.545893669128417969e+00 -1.021101474761962891e+00 1.476040720939636230e+00 -2.738802909851074219e+00 -1.692284703254699707e+00 1.770548105239868164e+00 -2.229685783386230469e+00 1.482773303985595703e+00 2.756883621215820312e+00 -3.553124666213989258e-01 -1.166915297508239746e+00 5.816908478736877441e-01 9.713553637266159058e-02 6.963634490966796875e-01 -1.614030599594116211e-01 2.516797065734863281e+00 -9.901468157768249512e-01 1.855452537536621094e+00 -1.543413698673248291e-01 -1.072284102439880371e+00 -1.570793509483337402e+00 -8.652109503746032715e-01 -8.026061654090881348e-01 3.306333065032958984e+00 -2.489064693450927734e+00 -1.955570697784423828e+00 3.183991909027099609e-01 -1.272462844848632812e+00 7.401975989341735840e-01 -1.599429696798324585e-01 -6.078029274940490723e-01 -1.902807116508483887e+00 -1.882048726081848145e+00 -2.169160842895507812e+00 -2.092797309160232544e-01 -2.471518039703369141e+00 -1.359504938125610352e+00 -2.180426120758056641e+00 -8.448961377143859863e-01 -2.134014368057250977e+00 -1.487379670143127441e+00 -3.353424549102783203e+00 -1.860960125923156738e+00 9.716858267784118652e-01 7.964483499526977539e-01 -1.750809669494628906e+00 5.632285475730895996e-01 2.177563667297363281e+00 1.448648810386657715e+00 1.386502504348754883e+00 -2.716421842575073242e+00 1.661592364311218262e+00 -2.657360076904296875e+00 -7.137605547904968262e-02
2.179358720779418945e+00 3.579618930816650391e-01 -3.763835132122039795e-01 -2.616108894348144531e+00 -1.948695063591003418e+00 -7.561892271041870117e-01 -2.528043031692504883e+00 -1.235379695892333984e+00 -9.100896120071411133e-01 -4.620171785354614258e-01 3.905500173568725586e-01 7.456469535827636719e-02 -2.282788753509521484e+00 -1.490642309188842773e+00 -3.345323503017425537e-01 -4.330043792724609375e-01 1.838727295398712158e-01 -2.855477094650268555e+00 -2.249395847320556641e+00 1.347369849681854248e-01 -3.641288757324218750e+00 -2.195746898651123047e+00 -2.518591642379760742e+00 -1.093332529067993164e+00 5.510386228561401367e-01 1.830242753028869629e+00 6.270028948783874512e-01 -2.121311664581298828e+00 -1.705066680908203125e+00 -2.732702970504760742e+00 -1.970392346382141113e+00 4.013888537883758545e-02 -1.089843273162841797e+00 -3.161388158798217773e+00 2.752364158630371094e+00 -2.703160762786865234e+00 -3.543184697628021240e-01 8.812691569328308105e-01 8.971654176712036133e-01 -2.741648197174072266e+00 -9.658333659172058105e-01 -2.222365140914916992e+00 -2.210728406906127930e+00 -5.515936017036437988e-01 -2.383572161197662354e-01 2.408925056457519531e+00 -1.398214697837829590e+00 -1.002891063690185547e+00 1.721324205398559570e+00 -2.222894191741943359e+00 6.605769991874694824e-01 7.138404250144958496e-01 2.299458265304565430e+00 2.769279956817626953e+00 2.433064222335815430e+00 8.348631858825683594e-01 5.203529447317123413e-02 2.974803686141967773e+00 2.922384500503540039e+00 1.072075963020324707e+00 1.090991139411926270e+00 -2.821214437484741211e+00 2.396216630935668945e+00 1.688116192817687988e+00 8.291825652122497559e-01 2.568338394165039062e+00 2.407378673553466797e+00 3.122475624084472656e+00 -2.911154270172119141e+00 2.124573707580566406e+00 -3.112372875213623047e+00 2.508466243743896484e+00 -8.670499920845031738e-02 3.299214243888854980e-01 4.248147904872894287e-01 1.280374169349670410e+00 1.144136905670166016e+00 8.897912502288818359e-02 2.549512386322021484e+00 1.948852062225341797e+00 5.378887653350830078e-01 2.276742219924926758e+00 -8.414659500122070312e-01 -6.625641584396362305e-01 2.617100715637207031e+00 3.322795391082763672e+00 2.048181056976318359e+00 -1.677296161651611328e-01 3.718452062457799911e-03 4.947097301483154297e-01 3.525408506393432617e+00 -6.146859526634216309e-01 1.678259134292602539e+00 -2.682559490203857422e-01 1.327249169349670410e+00 -1.874780535697937012e+00 4.678018987178802490e-01 6.426855921745300293e-02 1.368223071098327637e+00 2.937091290950775146e-01 1.507420063018798828e+00 2.371690750122070312e+00 2.840773344039916992e+00 -1.780267953872680664e-01 2.827541112899780273e+00 2.637733936309814453e+00 -2.210331678390502930e+00 9.152201414108276367e-01 1.277946382761001587e-01 6.606206893920898438e-01 1.242211982607841492e-01 3.170126914978027344e+00 2.091707289218902588e-01 3.270997405052185059e-01 -4.420570731163024902e-01 8.091769814491271973e-01 -1.894393801689147949e+00 1.378277063369750977e+00 2.373093605041503906e+00 1.069846510887145996e+00 -2.007018804550170898e+00 -6.335769295692443848e-01 2.694445252418518066e-01 -1.800602912902832031e+00 -9.553078413009643555e-01 -2.046984434127807617e+00 -7.810901999473571777e-01 -1.206319212913513184e+00 3.544162809848785400e-01 -1.686957240104675293e+00 -1.584426641464233398e+00 -3.243004560470581055e+00 -2.778782844543457031e+00 2.333487987518310547e+00 1.451422333717346191e+00 -3.110026836395263672e+00 -2.082502126693725586e+00 -4.315974116325378418e-01 -4.229373335838317871e-01 -1.085564136505126953e+00 -2.308410108089447021e-01 5.753000378608703613e-01 -1.159048199653625488e+00 -1.740559816360473633e+00 -3.430485129356384277e-01 -1.011065721511840820e+00 6.640252470970153809e-01 3.862314224243164062e-01 -5.768471360206604004e-01 -8.030301332473754883e-01 -3.014937877655029297e+00 -1.320722103118896484e+00 -2.320374488830566406e+00 -2.045987606048583984e+00 -1.864313960075378418e+00 -9.829903841018676758e-01 -1.846596896648406982e-01 -2.749014139175415039e+00 -2.440127372741699219e+00 5.957368761301040649e-02 -1.485833764076232910e+00 1.841916799545288086e+00 6.681709289550781250e-01 -1.695427000522613525e-01 1.461592793464660645e+00 -4.413429498672485352e-01 2.805004119873046875e+00 1.506289243698120117e-01 2.356561422348022461e-01 1.393258452415466309e+00 2.965151071548461914e+00 2.947151958942413330e-01 -1.694541573524475098e-01 2.021766901016235352e-01 -2.424103021621704102e-01 1.093757390975952148e+00 1.374816536903381348e+00 3.447087287902832031e+00 2.796699762344360352e+00 -7.724761962890625000e-01 1.657438129186630249e-01 2.141510248184204102e+00 2.369678258895874023e+00 1.239376306533813477e+00 -1.774860769510269165e-01 -2.906948804855346680e+00 -1.820225834846496582e+00 -1.829918026924133301e-01 -2.458066225051879883e+00 8.597515821456909180e-01 -2.583654880523681641e+00 1.415522813796997070e+00 1.250976204872131348e+00 -1.762722373008728027e+00 2.444300889968872070e+00 -9.168865680694580078e-01 -1.333152353763580322e-01 -5.216317176818847656e-01 8.663431406021118164e-01 2.198806285858154297e+00
