3.589626073837280273e+00 7.221648842096328735e-02 -2.466383278369903564e-01 6.396155357360839844e-01 2.630494236946105957e-01 -2.978454113006591797e+00 -3.162688493728637695e+00 -1.940752744674682617e+00 -3.105328977108001709e-01 -1.025171637535095215e+00 -5.349994897842407227e-01 -2.892431974411010742e+00 -2.438482522964477539e+00 -2.055964708328247070e+00 -1.649365425109863281e+00 -2.013191461563110352e+00 9.732190370559692383e-01 3.748605549335479736e-01 6.268635272979736328e+00 -1.711995124816894531e+00 6.748240590095520020e-01 -1.269740164279937744e-01 -6.000807881355285645e-01 7.929038405418395996e-01 -1.377944350242614746e+00 2.954373657703399658e-01 -1.818827867507934570e+00 -6.019335746765136719e+00 -3.601923465728759766e+00 -3.935107886791229248e-01 -9.024158716201782227e-01 3.538902103900909424e-01 5.897939682006835938e+00 -5.997759819030761719e+00 1.791582226753234863e+00 1.388155966997146606e-01 5.245251655578613281e-01 2.291860431432723999e-01 4.208494126796722412e-01 1.794015765190124512e+00 -1.394839048385620117e+00 5.755205154418945312e+00 4.291016578674316406e+00 4.639113426208496094e+00 -7.876265048980712891e-01 2.145086526870727539e+00 7.020161151885986328e+00 5.455810546875000000e+00 1.121992826461791992e+00 9.079034924507141113e-01 9.680463373661041260e-02 5.545918464660644531e+00 9.623035192489624023e-01 5.866315364837646484e+00 -2.356237888336181641e+00 1.632590532302856445e+00 -5.020447373390197754e-01 -3.038741350173950195e-01 1.905018925666809082e+00 1.197447657585144043e+00 2.288856953382492065e-01 -3.496873974800109863e-01 5.643106698989868164e-01 2.255864381790161133e+00 -2.164399623870849609e+00 -1.228676557540893555e+00 -3.205071389675140381e-01 2.598149180412292480e-01 4.536723792552947998e-01 -2.888734817504882812e+00 1.276290297508239746e+00 -8.626725673675537109e-01 4.544375419616699219e+00 3.358150243759155273e+00 6.424540519714355469e+00 3.394714355468750000e+00 6.244432553648948669e-02 -1.395439743995666504e+00 1.492648124694824219e+00 7.376703023910522461e-01 -1.013535857200622559e+00 9.227970242500305176e-01 -1.151251435279846191e+00 1.002198576927185059e+00 -1.256183862686157227e+00 -3.897128582000732422e+00 -5.586587905883789062e+00 -7.223480343818664551e-01 -7.005001544952392578e+00 2.408217430114746094e+00 -5.516860008239746094e+00 2.173697352409362793e-01 -8.147954940795898438e-01 -2.110054492950439453e-01 3.760932683944702148e+00 -1.027579069137573242e+00 -3.040820121765136719e+00 3.838994204998016357e-01 -4.509796202182769775e-01 -2.433020830154418945e+00 -2.903592586517333984e+00 1.281498551368713379e+00 -3.102202117443084717e-01 1.688813805580139160e+00 -1.222402215003967285e+00 -1.057194590568542480e+00 -1.905143260955810547e-01 -7.414906024932861328e-01 -1.923503041267395020e+00 -9.176458120346069336e-01 -4.544831216335296631e-01 1.158683419227600098e+00 -5.508359074592590332e-01 4.649611562490463257e-02 -6.335614681243896484e+00 5.854088068008422852e-01 -2.014829158782958984e+00 -1.540683031082153320e+00 -1.989900112152099609e+00 -7.125830173492431641e+00 1.665044903755187988e+00 -8.439260721206665039e-01 -9.425989389419555664e-01 2.935573339462280273e+00 1.625722646713256836e+00 2.211951732635498047e+00 3.801533877849578857e-01 -6.012908220291137695e-01 5.763561725616455078e-01 4.226940631866455078e+00 -7.083733677864074707e-01 6.693413257598876953e+00 -8.212061524391174316e-01 9.922116994857788086e-01 7.301920413970947266e+00 5.836826324462890625e+00 -5.039224028587341309e-01 6.392076015472412109e-01 5.456008434295654297e+00 4.273397028446197510e-01 4.514387130737304688e+00 7.336104869842529297e+00 4.175657749176025391e+00 -5.277060031890869141e+00 6.795119762420654297e+00 7.547906637191772461e-01 5.578070163726806641e+00 1.068981647491455078e+00 -5.251765847206115723e-01 8.982030153274536133e-01 1.210101604461669922e+00 5.580310344696044922e+00 1.082178592681884766e+00 1.685964822769165039e+00 1.667650818824768066e+00 2.160599946975708008e+00 5.502348899841308594e+00 9.863644242286682129e-01 1.642843365669250488e+00 9.535852670669555664e-01 -3.652305603027343750e-01 -2.090545892715454102e+00 2.037042081356048584e-01 3.602235317230224609e-01 -2.632570981979370117e+00 -1.283252477645874023e+00 -1.993937849998474121e+00 -6.389888763427734375e+00 -6.433783531188964844e+00 -1.992687821388244629e+00 -5.248873233795166016e-01 8.741515278816223145e-01 -7.551202297210693359e+00 -5.491899847984313965e-01 -1.921736001968383789e+00 1.313504576683044434e+00 4.186262488365173340e-01 5.139934420585632324e-01 2.309187948703765869e-01 -7.368355751037597656e+00 -6.235627651214599609e+00 -7.156088829040527344e+00 -3.736809790134429932e-01 4.843968749046325684e-01 -3.393074989318847656e+00 -1.690563321113586426e+00 -6.574057936668395996e-01 -6.996792316436767578e+00 -1.795619487762451172e+00 -4.020144641399383545e-01 -1.128206849098205566e+00 -1.809867143630981445e+00 -1.062451153993606567e-01 -2.342588424682617188e+00 -5.002654790878295898e-01 -1.976429820060729980e+00 1.284362673759460449e-01 2.169301271438598633e+00 -3.590905070304870605e-01 -3.012552976608276367e+00
-4.301739215850830078e+00 -3.372882604598999023e+00 4.781727865338325500e-02 -6.031838417053222656e+00 -7.382365703582763672e+00 -6.026914119720458984e+00 -1.674276471138000488e+00 -3.053127765655517578e+00 -4.150400638580322266e+00 -2.098850756883621216e-01 -6.986268997192382812e+00 -1.822497963905334473e+00 -3.098744392395019531e+00 -1.828423976898193359e+00 -1.944036006927490234e+00 -4.113861083984375000e+00 -1.547998309135437012e+00 -7.120647430419921875e+00 -5.399882197380065918e-01 -5.390461683273315430e-01 -7.343154430389404297e+00 -1.076156497001647949e+00 -2.421772718429565430e+00 -6.184100627899169922e+00 -6.652217864990234375e+00 -3.638171195983886719e+00 -2.260350704193115234e+00 -7.195179462432861328e+00 -2.040162086486816406e+00 -2.744313478469848633e+00 -6.420111656188964844e-01 -1.620556116104125977e-01 -6.337331771850585938e+00 -4.604563713073730469e-01 -4.238849580287933350e-01 -1.535454750061035156e+00 -5.438787341117858887e-01 -1.946241021156311035e+00 -8.510882854461669922e-01 -6.844839572906494141e+00 4.434301853179931641e+00 1.292163580656051636e-01 8.084760904312133789e-01 6.952438354492187500e+00 1.414462566375732422e+00 5.171681046485900879e-01 1.456435680389404297e+00 1.341324806213378906e+00 6.209462285041809082e-01 7.639234542846679688e+00 5.568608760833740234e+00 -1.316719532012939453e+00 -7.895706892013549805e-01 -1.012078523635864258e+00 4.760340690612792969e+00 8.418987393379211426e-01 7.899162173271179199e-01 2.340432643890380859e+00 2.157720327377319336e+00 5.949955582618713379e-01 1.169266819953918457e+00 4.952326774597167969e+00 3.598502159118652344e+00 6.445013999938964844e+00 1.599549055099487305e+00 6.334215998649597168e-01 4.595850110054016113e-01 1.630651354789733887e+00 6.701787114143371582e-01 1.149071931838989258e+00 6.623649120330810547e+00 -2.659895122051239014e-01 6.142646789550781250e+00 5.051786422729492188e+00 7.176664829254150391e+00 -1.016494870185852051e+00 1.325004100799560547e+00 3.170566558837890625e-01 4.205532073974609375e+00 5.057047843933105469e+00 -6.206498146057128906e-01 -5.444601535797119141e+00 5.868412852287292480e-01 -1.356613039970397949e+00 -8.621292710304260254e-01 -6.918111801147460938e+00 -1.975184798240661621e+00 -2.843142151832580566e-01 -2.628271840512752533e-02 -2.781508207321166992e+00 -3.759601116180419922e+00 -1.337814033031463623e-01 -1.389545440673828125e+00 -6.026290416717529297e+00 -4.846745491027832031e+00 -1.623881340026855469e+00 -2.058176517486572266e+00 1.313773274421691895e+00 5.917583703994750977e-01 -1.140990018844604492e+00 7.973210215568542480e-01 -6.418027400970458984e+00 1.687555313110351562e+00 -8.333443999290466309e-01 -8.479360938072204590e-01 1.380794763565063477e+00 -7.232433795928955078e+00 -1.377326846122741699e+00 -6.706639766693115234e+00 -1.855024933815002441e+00 -1.488983511924743652e+00 -2.342609405517578125e+00 -2.048307180404663086e+00 -3.585379123687744141e+00 -1.990351557731628418e+00 -1.881282091140747070e+00 -4.815721988677978516e+00 -1.917578279972076416e-01 -3.815283775329589844e+00 -7.298871874809265137e-02 -1.594416379928588867e+00 -7.120136618614196777e-01 8.164045214653015137e-01 3.857776403427124023e+00 -3.089271187782287598e-01 5.230309486389160156e+00 6.788982748985290527e-01 -1.513614416122436523e+00 2.182336747646331787e-01 6.845063686370849609e+00 1.379624485969543457e+00 2.684368193149566650e-02 6.465920805931091309e-01 2.461711645126342773e+00 8.897017836570739746e-01 3.152385354042053223e-01 7.227752685546875000e+00 8.535240590572357178e-02 1.705170512199401855e+00 2.055118978023529053e-01 -1.784727454185485840e+00 -1.540373414754867554e-01 -2.131865501403808594e+00 6.468912363052368164e-01 6.300709724426269531e+00 5.444473266601562500e+00 -1.552195429801940918e+00 -3.917731344699859619e-01 -2.265502512454986572e-01 8.593435287475585938e-01 -1.107212066650390625e+00 9.336503744125366211e-01 9.489235281944274902e-01 -1.529574036598205566e+00 -5.217140913009643555e-01 2.947707414627075195e+00 -2.884523153305053711e+00 -1.836640000343322754e+00 1.369920969009399414e+00 1.437743544578552246e+00 1.677220940589904785e+00 7.098332405090332031e+00 5.485231876373291016e+00 4.895298480987548828e+00 1.778807282447814941e+00 1.515727400779724121e+00 6.506672859191894531e+00 4.676745891571044922e+00 -1.485677361488342285e-01 -8.629695177078247070e-01 5.304344892501831055e-01 2.614392757415771484e+00 2.545839250087738037e-01 1.274883031845092773e+00 5.629232525825500488e-01 7.108375430107116699e-02 4.051052927970886230e-01 2.785894393920898438e+00 -7.352391481399536133e-01 7.094684243202209473e-01 8.498158454895019531e-01 1.695026397705078125e+00 3.005367279052734375e+00 1.064626812934875488e+00 2.086374044418334961e+00 6.324675083160400391e+00 5.650212168693542480e-01 -1.118345141410827637e+00 4.745084941387176514e-01 6.736763954162597656e+00 7.810478806495666504e-01 -7.395706176757812500e-01 7.424280166625976562e+00 5.899409294128417969e+00 -1.589538156986236572e-01 -4.295383691787719727e-01 4.052261710166931152e-01 -2.908859960734844208e-02 6.721226572990417480e-01 1.231237411499023438e+00
4.826542854309082031e+00 3.602441549301147461e+00 -1.220616936683654785e+00 1.706522852182388306e-01 5.301240682601928711e-01 1.603665798902511597e-01 -1.297000050544738770e+00 6.090797185897827148e-01 4.187475442886352539e-01 -1.963024616241455078e+00 7.048150539398193359e+00 1.124483495950698853e-01 -5.999146103858947754e-01 -1.600053787231445312e+00 -1.189939856529235840e+00 -6.598857879638671875e+00 2.488964796066284180e+00 5.395112514495849609e+00 -9.291642159223556519e-02 6.940569281578063965e-01 4.560039043426513672e-01 -1.070149779319763184e+00 5.343099310994148254e-02 -1.928013205528259277e+00 -2.494431734085083008e+00 1.957058668136596680e+00 2.545366525650024414e+00 -1.210178494453430176e+00 3.770873069763183594e+00 1.869971990585327148e+00 2.141124248504638672e+00 2.796092629432678223e-01 1.673520565032958984e+00 1.024225473403930664e+00 -1.668587327003479004e-01 3.484341621398925781e+00 6.214562058448791504e-01 6.986445426940917969e+00 1.655372619628906250e+00 2.163489580154418945e+00 5.615383386611938477e-02 3.284587621688842773e+00 1.869396924972534180e+00 1.243075728416442871e+00 1.215377375483512878e-01 1.326406359672546387e+00 -2.041325271129608154e-01 -6.637810230255126953e+00 2.644606828689575195e-01 -2.027256011962890625e+00 3.331198692321777344e-01 -1.544068098068237305e+00 -6.868176460266113281e+00 -4.215327799320220947e-01 -4.409938156604766846e-01 1.750434517860412598e+00 3.884145319461822510e-01 -1.657459735870361328e+00 1.441197752952575684e+00 -1.424515604972839355e+00 3.275562763214111328e+00 5.408490300178527832e-01 4.664331912994384766e+00 -1.012698054313659668e+00 -2.113666832447052002e-01 2.287198305130004883e-01 -3.510621190071105957e-01 -3.754804849624633789e+00 5.157378315925598145e-01 -5.430467724800109863e-01 1.710387468338012695e+00 -1.162948757410049438e-01 4.377106189727783203e+00 5.972392559051513672e-01 4.193970561027526855e-02 -1.332519531250000000e+00 -2.005140542984008789e+00 -4.677221477031707764e-01 -1.534852981567382812e+00 -6.421291351318359375e+00 -6.526987552642822266e+00 -5.313580036163330078e-01 1.664268821477890015e-01 9.742339849472045898e-01 7.204548716545104980e-01 -9.860681891441345215e-01 -7.879797220230102539e-01 -5.382675647735595703e+00 6.220457077026367188e+00 6.278733611106872559e-01 -3.967692255973815918e-01 -1.207751870155334473e+00 3.723545312881469727e+00 6.223738193511962891e+00 5.338640689849853516e+00 2.065227478742599487e-01 6.889716982841491699e-01 3.135862588882446289e+00 -2.292154550552368164e+00 -6.628289073705673218e-02 -1.493678450584411621e+00 -2.853749990463256836e+00 7.433364391326904297e-01 -4.455045163631439209e-01 1.715066134929656982e-01 1.618377089500427246e+00 -2.604072093963623047e+00 -7.182323932647705078e-01 2.285066843032836914e+00 7.657632231712341309e-01 1.311099529266357422e+00 -1.525835275650024414e+00 -2.702298462390899658e-01 -8.133767843246459961e-01 -6.416834354400634766e+00 -4.528879165649414062e+00 -3.506179749965667725e-01 -5.912521839141845703e+00 -1.074074506759643555e+00 1.874940752983093262e+00 -3.963313579559326172e+00 -1.960376620292663574e+00 -7.804012775421142578e+00 -1.292281985282897949e+00 -1.261497139930725098e+00 -1.552284121513366699e+00 -6.922105312347412109e+00 -1.705021381378173828e+00 -8.639604568481445312e+00 -3.554280042648315430e+00 -7.039223670959472656e+00 -1.550437808036804199e-01 -1.629119157791137695e+00 -5.708194255828857422e+00 -5.398894786834716797e+00 -7.181454658508300781e+00 -3.853477239608764648e+00 -5.281184673309326172e+00 -1.824731707572937012e+00 -2.609876871109008789e+00 1.087415695190429688e+00 -1.987577676773071289e+00 -3.180985450744628906e+00 -1.548442482948303223e+00 -2.146735906600952148e+00 -1.973680377006530762e+00 -6.735078334808349609e+00 -1.348728418350219727e+00 -4.585202693939208984e+00 -2.369236230850219727e+00 -2.837011337280273438e+00 -7.745077610015869141e-01 -5.795322418212890625e+00 -6.510141849517822266e+00 -6.300868391990661621e-01 6.319271922111511230e-01 -2.915212213993072510e-01 -2.111472606658935547e+00 -2.226271629333496094e+00 -2.731762409210205078e+00 5.717781543731689453e+00 -2.580772936344146729e-01 3.361925840377807617e+00 4.175091266632080078e+00 -4.055356681346893311e-01 6.360244274139404297e+00 6.201002597808837891e+00 3.221599340438842773e+00 -1.029041767120361328e+00 4.296825885772705078e+00 5.671860218048095703e+00 5.003115177154541016e+00 6.061975479125976562e+00 5.972016453742980957e-01 1.567525625228881836e+00 5.015918254852294922e+00 -4.950305223464965820e-01 -8.057862520217895508e-01 1.512644648551940918e+00 -7.325902581214904785e-01 2.638669729232788086e+00 -7.581680417060852051e-01 5.005148410797119141e+00 7.057683467864990234e+00 9.158149957656860352e-01 -3.522618412971496582e-01 6.344640731811523438e+00 3.836795687675476074e-01 4.265979766845703125e+00 6.160667896270751953e+00 6.899657845497131348e-01 6.283777713775634766e+00 1.897773504257202148e+00 -1.016084790229797363e+00 -7.412266135215759277e-01 6.061742782592773438e+00 4.601793289184570312e+00 6.111244201660156250e+00 -2.803256809711456299e-01 3.712429046630859375e+00
2.354877710342407227e+00 6.165913581848144531e+00 7.034417152404785156e+00 7.030938625335693359e+00 7.427605628967285156e+00 7.045094370841979980e-01 4.965345859527587891e+00 1.309188246726989746e+00 1.150669977068901062e-01 4.970410346984863281e+00 4.875274181365966797e+00 1.341666817665100098e+00 7.518101692199707031e+00 6.472051620483398438e+00 5.822505474090576172e+00 4.191651821136474609e+00 4.358741760253906250e+00 1.358912825584411621e+00 3.960584402084350586e+00 7.297044277191162109e+00 2.142656087875366211e+00 6.444680213928222656e+00 1.902542352676391602e+00 7.329696655273437500e+00 -2.793133854866027832e-01 1.310462713241577148e+00 1.446827173233032227e+00 6.259461641311645508e-01 5.774000167846679688e+00 2.638915777206420898e+00 3.383134841918945312e+00 6.044494628906250000e+00 6.975966453552246094e+00 2.824624300003051758e+00 1.951205849647521973e+00 2.521142482757568359e+00 7.839694499969482422e+00 1.184048652648925781e+00 6.594253063201904297e+00 4.302362442016601562e+00 2.050017595291137695e+00 1.774592757225036621e+00 4.021952450275421143e-01 -1.620232939720153809e+00 -1.028221726417541504e+00 6.830267906188964844e+00 5.938239097595214844e+00 -7.160688042640686035e-01 -5.984892845153808594e-01 1.290043830871582031e+00 6.224376201629638672e+00 -8.726481199264526367e-01 5.320128202438354492e-01 2.110246181488037109e+00 3.765204846858978271e-01 2.577215433120727539e-01 2.235852241516113281e+00 4.173590183258056641e+00 1.460775971412658691e+00 2.249894142150878906e+00 7.086495876312255859e+00 8.494310379028320312e-01 -8.949822187423706055e-02 -1.915707468986511230e+00 1.276814103126525879e+00 5.250086784362792969e-01 7.258961677551269531e+00 -6.763342618942260742e-01 2.572509288787841797e+00 -3.490014672279357910e-01 7.101603746414184570e-01 9.025064706802368164e-01 1.819889694452285767e-01 6.553215503692626953e+00 5.454819202423095703e-01 -1.571310162544250488e+00 -4.813412427902221680e-01 6.318967938423156738e-01 5.663308501243591309e-01 6.628534317016601562e+00 -5.019181370735168457e-01 -9.085602313280105591e-02 -7.864155292510986328e+00 -7.224809169769287109e+00 -2.835191011428833008e+00 -7.395593643188476562e+00 -3.734516203403472900e-01 -3.073317289352416992e+00 -4.102559089660644531e+00 -2.450133085250854492e+00 -2.340227127075195312e+00 -1.899160027503967285e+00 -1.295926570892333984e+00 -2.998687744140625000e+00 -4.727471351623535156e+00 -3.139921903610229492e+00 -9.002885818481445312e-01 -2.876504898071289062e+00 -7.126191139221191406e+00 -5.833458423614501953e+00 -2.420976161956787109e+00 -6.706509113311767578e+00 -1.538138747215270996e+00 -2.679448127746582031e+00 -2.436915636062622070e+00 -3.443182468414306641e+00 -1.293384909629821777e+00 -2.797129392623901367e+00 -5.443983078002929688e-01 5.118303745985031128e-02 -3.316148519515991211e+00 -1.073785543441772461e+00 -7.678299903869628906e+00 -2.728135347366333008e+00 -7.301706075668334961e-01 -1.042747139930725098e+00 7.878173589706420898e-01 -4.905669689178466797e-01 -7.777035236358642578e-01 -7.287311553955078125e-01 1.336041688919067383e+00 -2.073802232742309570e+00 -1.762140870094299316e+00 -3.021358847618103027e-01 -7.797353267669677734e+00 6.073508262634277344e-01 -2.027431964874267578e+00 -7.582176923751831055e-01 7.326857447624206543e-01 -1.946500301361083984e+00 -4.687235653400421143e-01 2.365202903747558594e-01 -2.962355613708496094e+00 -1.364691257476806641e+00 -3.009352922439575195e+00 6.370235681533813477e-01 1.525168418884277344e+00 -2.354784250259399414e+00 -1.650333046913146973e+00 2.160574197769165039e+00 -5.998781204223632812e+00 2.033600062131881714e-01 -1.431959152221679688e+00 -1.594065785408020020e+00 -4.507637396454811096e-02 -5.542553663253784180e-01 4.369511306285858154e-01 -3.134099245071411133e+00 -5.249730348587036133e-01 3.337044715881347656e-01 7.164533138275146484e-01 -6.215066432952880859e+00 -1.907028555870056152e-01 -4.024698138236999512e-01 -1.649101823568344116e-02 1.619793772697448730e-01 -2.551323890686035156e+00 -2.040593385696411133e+00 -3.568715333938598633e+00 1.193722337484359741e-01 1.153145074844360352e+00 -2.012676954269409180e+00 9.455334544181823730e-01 -7.130099773406982422e+00 -2.821965813636779785e-01 -8.419370055198669434e-01 -1.178421854972839355e+00 4.452633261680603027e-01 -4.795596897602081299e-01 -2.857505559921264648e+00 -2.789095878601074219e+00 3.700292110443115234e-01 1.119381546974182129e+00 -3.777017891407012939e-01 -1.879615522921085358e-02 -2.380289584398269653e-01 -1.821290850639343262e+00 -7.575344562530517578e+00 -1.615835309028625488e+00 -1.494169950485229492e+00 -6.201861500740051270e-01 -8.503607511520385742e-01 -1.062116622924804688e+00 -5.507841706275939941e-01 -6.524560451507568359e+00 2.115076780319213867e-01 -1.023019075393676758e+00 -1.018655419349670410e+00 -2.683682680130004883e+00 1.389666795730590820e+00 -1.546543717384338379e+00 -1.311038017272949219e+00 -5.783051013946533203e+00 -1.020608782768249512e+00 -9.265920519828796387e-01 -1.433976173400878906e+00 -2.556030273437500000e+00 -5.428052902221679688e+00 -1.583506107330322266e+00 -6.226657867431640625e+00
8.702513575553894043e-01 -6.099956989288330078e+00 7.553324699401855469e-01 1.653402566909790039e+00 -4.996129870414733887e-01 7.594811916351318359e-01 1.402239322662353516e+00 6.530147075653076172e+00 3.521397590637207031e+00 6.609868526458740234e+00 3.739082813262939453e-01 2.332421541213989258e+00 1.809248208999633789e+00 6.101582527160644531e+00 -2.855124473571777344e+00 1.600104928016662598e+00 -5.061490535736083984e+00 1.225156426429748535e+00 9.558070898056030273e-01 6.544012427330017090e-01 1.603712797164916992e+00 -2.205322742462158203e+00 3.415522277355194092e-01 -2.114264667034149170e-01 -3.531796932220458984e-01 1.440999507904052734e+00 -5.348459482192993164e-01 -7.554750442504882812e-01 3.221793174743652344e-01 2.009623050689697266e+00 -1.259173452854156494e-01 1.521221250295639038e-01 -1.162420392036437988e+00 1.274884641170501709e-01 6.867126941680908203e+00 -3.480919599533081055e+00 -6.089766323566436768e-02 2.815659344196319580e-01 1.160440921783447266e+00 4.864256381988525391e+00 -2.672939777374267578e+00 -1.992922306060791016e+00 4.542962074279785156e+00 -4.144737124443054199e-01 -7.333748817443847656e+00 -6.737630367279052734e-01 1.022251769900321960e-01 3.355735540390014648e-01 1.369116067886352539e+00 -9.135471582412719727e-01 -9.923426508903503418e-01 -3.793868720531463623e-01 5.838831424713134766e+00 -3.823514282703399658e-01 -1.141561940312385559e-01 -1.281002759933471680e+00 -6.668492555618286133e-01 1.055078148841857910e+00 6.360867619514465332e-01 -1.603187561035156250e+00 -5.479674339294433594e-01 1.677632570266723633e+00 5.880272865295410156e+00 -5.186915397644042969e-01 1.260684013366699219e+00 -8.431839346885681152e-01 1.873352766036987305e+00 -5.480384230613708496e-01 -3.904961049556732178e-01 -1.114491701126098633e+00 1.974181532859802246e+00 5.945095419883728027e-01 -1.829847991466522217e-01 6.687223434448242188e+00 2.356826305389404297e+00 7.687895298004150391e-01 1.227412372827529907e-01 3.541165292263031006e-01 1.456198453903198242e+00 2.769573405385017395e-02 -4.225971400737762451e-01 7.176519632339477539e-01 6.766586780548095703e+00 6.107065200805664062e+00 -5.873748064041137695e-01 -2.501578927040100098e-01 -3.337766528129577637e-01 -1.133227348327636719e-01 -3.774921178817749023e+00 1.270318776369094849e-01 8.080207705497741699e-01 7.339248657226562500e-01 -6.241024971008300781e+00 5.257114887237548828e+00 -7.972850799560546875e-01 -6.111575603485107422e+00 1.264830827713012695e+00 -6.156203746795654297e+00 -7.341730594635009766e-01 -1.085579842329025269e-01 6.586763858795166016e+00 -4.813027977943420410e-01 6.571247100830078125e+00 -9.752393960952758789e-01 5.296767234802246094e+00 -7.167489081621170044e-02 2.151613712310791016e+00 2.386691123247146606e-01 -3.051590025424957275e-01 1.317924737930297852e+00 3.106147050857543945e-01 -2.372777163982391357e-01 1.892827033996582031e+00 -3.537971258163452148e+00 2.550665289163589478e-02 1.256474971771240234e+00 3.782584071159362793e-01 6.402157545089721680e-01 -5.092279240489006042e-02 -8.589128255844116211e-01 -2.718970775604248047e-01 -4.207508563995361328e+00 1.299337625503540039e+00 -2.136455625295639038e-01 -2.069121360778808594e+00 -2.766503810882568359e+00 -7.649121761322021484e+00 -6.835811734199523926e-01 -1.537059664726257324e+00 -3.015597164630889893e-01 -6.010782718658447266e+00 -6.064264297485351562e+00 -5.443871617317199707e-01 -7.254376411437988281e-01 -1.755511403083801270e+00 -1.447942137718200684e+00 -1.735380411148071289e+00 -2.894634962081909180e+00 -7.797185182571411133e-01 -1.519499421119689941e+00 -6.646305561065673828e+00 -3.927133798599243164e+00 -6.163686275482177734e+00 -4.807625770568847656e+00 -8.660302162170410156e-01 -6.326931953430175781e+00 -1.061668515205383301e+00 -1.746176958084106445e+00 -1.054287791252136230e+00 -8.104589462280273438e+00 -4.175481319427490234e+00 1.238126516342163086e+00 -2.564945697784423828e+00 -1.322757005691528320e+00 -6.197132110595703125e+00 -7.513112068176269531e+00 -1.572108983993530273e+00 -2.413314342498779297e+00 1.859741449356079102e+00 -1.407726526260375977e+00 1.681513428688049316e+00 -1.248125672340393066e+00 4.266914427280426025e-01 9.268437623977661133e-01 7.093614935874938965e-01 -1.093000024557113647e-01 2.936321496963500977e+00 -9.661208838224411011e-02 2.415025532245635986e-01 -7.486267089843750000e-01 5.494152069091796875e+00 8.620597720146179199e-01 1.293553829193115234e+00 6.839285373687744141e+00 -1.935737371444702148e+00 2.299663066864013672e+00 2.680397748947143555e+00 1.257496476173400879e+00 4.251291602849960327e-02 6.714886426925659180e-02 -3.295172750949859619e-01 2.776873409748077393e-01 1.529756933450698853e-01 6.264114856719970703e+00 -8.549052476882934570e-01 -1.023933649063110352e+00 -1.592202901840209961e+00 1.700087666511535645e+00 7.245497703552246094e+00 1.088876008987426758e+00 -1.273752808570861816e+00 5.547222495079040527e-01 5.577051162719726562e+00 1.678776621818542480e+00 1.686037421226501465e+00 -1.453198671340942383e+00 -3.601872920989990234e+00 1.611926406621932983e-01 2.330643892288208008e+00 -3.082784414291381836e-01
6.821732997894287109e+00 9.567715525627136230e-01 2.246506959199905396e-01 4.641744196414947510e-01 1.071972489356994629e+00 -9.920032620429992676e-01 9.016891121864318848e-01 -3.567526042461395264e-01 -1.319326996803283691e+00 6.032840728759765625e+00 2.118376970291137695e+00 6.289279460906982422e+00 -1.256929278373718262e+00 1.291170716285705566e+00 -9.768332839012145996e-01 -1.178104281425476074e+00 5.157377123832702637e-01 1.299193799495697021e-01 1.991113901138305664e+00 -6.209066510200500488e-01 -2.290513038635253906e+00 2.621376514434814453e+00 7.046800613403320312e+00 -9.391061663627624512e-01 -6.262831687927246094e-01 5.950587749481201172e+00 6.446926116943359375e+00 5.329093337059020996e-01 5.968009233474731445e-01 5.904549956321716309e-01 8.585364222526550293e-01 -4.403781592845916748e-01 4.907524108886718750e+00 1.293880820274353027e+00 -9.946224093437194824e-01 9.343963265419006348e-01 -2.502257823944091797e-01 9.250709414482116699e-01 -8.156434893608093262e-01 -1.607214450836181641e+00 -2.590379714965820312e+00 3.614884316921234131e-01 -8.094367980957031250e+00 -1.871719479560852051e+00 -2.038346767425537109e+00 -1.323501706123352051e+00 3.689223229885101318e-01 -1.474855780601501465e+00 -7.161581516265869141e+00 1.843293905258178711e-01 -4.608531475067138672e+00 -7.324182033538818359e+00 -3.248738765716552734e+00 -1.863913059234619141e+00 -3.198326528072357178e-01 -3.368537127971649170e-01 -1.181991815567016602e+00 -7.088715076446533203e+00 -1.748826265335083008e+00 -2.098831653594970703e+00 -5.725816249847412109e+00 -2.311591148376464844e+00 -4.099409580230712891e-01 -1.892651081085205078e+00 -6.968575000762939453e+00 -7.276797771453857422e+00 -1.760787487030029297e+00 -1.481769442558288574e+00 -3.198143720626831055e+00 -2.764724016189575195e+00 -1.311604380607604980e+00 -2.471158981323242188e+00 -7.167320728302001953e+00 -1.910973548889160156e+00 -2.419183015823364258e+00 -3.231857776641845703e+00 -2.678107500076293945e+00 -6.220169067382812500e-01 5.604036450386047363e-01 -3.354959487915039062e-01 -7.156465649604797363e-01 2.476994752883911133e+00 -1.122251868247985840e+00 -1.576249003410339355e-01 -2.155549526214599609e+00 6.424208641052246094e+00 7.601774930953979492e-01 6.555829644203186035e-01 6.339037895202636719e+00 2.492647171020507812e+00 6.698227882385253906e+00 5.750865936279296875e-01 2.224509716033935547e-01 -7.801669239997863770e-01 1.159040570259094238e+00 1.848502039909362793e+00 4.899431228637695312e+00 1.095267653465270996e+00 -4.812589287757873535e-01 -1.312775909900665283e-01 6.040209770202636719e+00 -1.585933685302734375e+00 5.306247234344482422e+00 2.607091426849365234e+00 1.546100735664367676e+00 5.699134349822998047e+00 1.408368498086929321e-01 -2.640480995178222656e+00 -1.648159623146057129e+00 4.697150707244873047e+00 5.746335983276367188e-01 5.622682571411132812e-01 2.826871350407600403e-02 -1.214303851127624512e+00 2.882924318313598633e+00 5.531898498535156250e+00 1.581091523170471191e+00 6.078892707824707031e+00 -6.801029443740844727e-01 -8.855636119842529297e-01 5.099092483520507812e+00 1.848988831043243408e-01 4.961952686309814453e+00 -3.114592134952545166e-01 -2.833370268344879150e-01 7.260365962982177734e+00 -1.041897654533386230e+00 -2.198724895715713501e-01 -7.244310975074768066e-01 4.444899037480354309e-02 1.690537095069885254e+00 5.585187673568725586e-01 2.494245767593383789e+00 9.737875461578369141e-01 -4.562674164772033691e-01 -8.665321469306945801e-01 1.726826094090938568e-02 -1.911120265722274780e-01 4.093497276306152344e+00 1.408924102783203125e+00 1.578850865364074707e+00 -5.048903822898864746e-01 -1.621470004320144653e-01 9.459544420242309570e-01 3.367904901504516602e+00 6.532791614532470703e+00 6.200041770935058594e+00 1.500826597213745117e+00 -1.326820105314254761e-01 1.207249537110328674e-01 -4.072827398777008057e-01 3.192858219146728516e+00 4.132995605468750000e+00 9.602482914924621582e-01 6.288536071777343750e+00 1.948688626289367676e+00 6.692439556121826172e+00 -1.960950613021850586e+00 4.722737312316894531e+00 -1.094242691993713379e+00 -1.283458709716796875e+00 -6.609818339347839355e-01 -7.783426284790039062e+00 3.449724912643432617e+00 5.620921850204467773e-01 1.760039776563644409e-01 -8.029635548591613770e-01 -1.101930737495422363e+00 -5.983148574829101562e+00 -3.606692850589752197e-01 9.516295790672302246e-02 -2.222063064575195312e+00 -1.183784365653991699e+00 9.839794039726257324e-02 -9.475272297859191895e-01 -3.482893705368041992e+00 -6.465483665466308594e+00 -5.374779105186462402e-01 -4.201399326324462891e+00 -7.184300422668457031e-01 5.323146581649780273e-01 -3.915158987045288086e+00 -3.223262131214141846e-01 -1.221059560775756836e+00 -3.465891122817993164e+00 -1.701144218444824219e+00 -1.032448172569274902e+00 -1.415566205978393555e-01 2.407894134521484375e+00 -7.123515129089355469e+00 -5.155042648315429688e+00 -1.169751405715942383e+00 -9.990473985671997070e-01 -6.059762239456176758e-01 -7.122105121612548828e+00 -1.814233183860778809e+00 -1.815619587898254395e+00 -2.338999271392822266e+00 6.608237624168395996e-01 -1.101894021034240723e+00
-1.073574542999267578e+00 -2.252460829913616180e-02 -2.811367273330688477e+00 1.122425079345703125e+00 -7.667807340621948242e-01 4.283197224140167236e-02 5.540552139282226562e+00 -6.092872142791748047e+00 -1.392080545425415039e+00 3.101261258125305176e-01 -1.333853125572204590e+00 -6.228504180908203125e-01 1.473019719123840332e+00 1.327452898025512695e+00 4.557724893093109131e-01 -1.408431887626647949e+00 1.963490396738052368e-01 -8.201217651367187500e-01 4.060184061527252197e-01 2.100978791713714600e-01 1.031313061714172363e+00 9.713999629020690918e-01 -4.893259525299072266e+00 1.575638890266418457e+00 -1.985118985176086426e+00 5.793432712554931641e+00 7.946354746818542480e-01 4.794699549674987793e-01 7.302246093750000000e-01 -3.625052452087402344e+00 -5.900975704193115234e+00 -1.031058073043823242e+00 -1.500237822532653809e+00 -3.229910135269165039e-01 3.427872359752655029e-01 -6.162916183471679688e+00 -2.465148687362670898e+00 1.361036300659179688e+00 -1.664070971310138702e-02 7.606806755065917969e-01 -9.521535634994506836e-01 -6.795952320098876953e+00 -1.201971173286437988e+00 -1.286911010742187500e+00 -9.019501209259033203e-01 -4.747210741043090820e-01 -3.715015888214111328e+00 2.403719127178192139e-01 -2.230109453201293945e+00 4.747237265110015869e-01 -6.147255420684814453e+00 -4.712796211242675781e-01 -1.110676050186157227e+00 8.145952224731445312e-01 -1.330045938491821289e+00 -3.426250219345092773e+00 -3.052156448364257812e+00 -1.976196289062500000e+00 7.840670943260192871e-01 1.277015566825866699e+00 -2.603928804397583008e+00 -1.091387271881103516e+00 -2.802265167236328125e+00 4.641336798667907715e-01 4.949796497821807861e-01 -2.551511287689208984e+00 -7.427006959915161133e-02 -2.213820695877075195e+00 6.455850601196289062e-02 -2.005237102508544922e+00 -1.110364437103271484e+00 4.483757913112640381e-01 3.212783813476562500e+00 1.402249574661254883e+00 -6.195765018463134766e+00 -6.510382652282714844e+00 -1.336498022079467773e+00 -3.452055931091308594e+00 -7.362170219421386719e+00 -4.208072423934936523e-01 7.346652984619140625e+00 3.075788974761962891e+00 7.213420391082763672e+00 6.588812470436096191e-01 7.257006645202636719e+00 -1.630540251731872559e+00 1.428276181221008301e+00 7.245723724365234375e+00 1.684273362159729004e+00 1.124083399772644043e+00 1.776433348655700684e+00 1.128790378570556641e+00 1.944475293159484863e+00 6.419973850250244141e+00 5.871527671813964844e+00 2.238294839859008789e+00 7.137304306030273438e+00 6.058440208435058594e+00 6.178778171539306641e+00 1.560321450233459473e+00 1.739070892333984375e+00 1.955929756164550781e+00 7.597573280334472656e+00 5.851681232452392578e+00 1.293727159500122070e+00 8.137009143829345703e-01 1.601536273956298828e-01 5.442614555358886719e+00 1.436615824699401855e+00 7.352207183837890625e+00 -1.632239222526550293e-01 2.876860141754150391e+00 6.205711364746093750e-01 6.415561676025390625e+00 -9.399716742336750031e-03 6.147523880004882812e+00 6.622661590576171875e+00 1.841513514518737793e+00 1.618467807769775391e+00 4.023877620697021484e+00 -9.571774005889892578e-01 2.434590458869934082e-01 -2.669585227966308594e+00 -5.573092937469482422e+00 -4.026201367378234863e-01 2.326860427856445312e-01 1.064324736595153809e+00 -1.931379437446594238e+00 -1.022490620613098145e+00 -3.743040561676025391e-01 1.993392467498779297e+00 -5.210900783538818359e+00 -1.791402846574783325e-01 1.246129155158996582e+00 1.469875693321228027e+00 -2.673184499144554138e-02 -9.993928670883178711e-01 -1.212135910987854004e+00 1.262812972068786621e+00 -3.616611719131469727e+00 -1.346147298812866211e+00 -9.848167896270751953e-01 -9.244724512100219727e-01 -1.078013420104980469e+00 -4.203441739082336426e-01 5.671939849853515625e-01 4.024382114410400391e+00 -6.133129119873046875e+00 -5.063526153564453125e+00 5.778850913047790527e-01 -1.006205320358276367e+00 -4.392161965370178223e-01 1.537986516952514648e+00 7.023870348930358887e-01 -4.709334373474121094e-01 -5.710064411163330078e+00 -3.860385715961456299e-02 2.337862849235534668e-01 -1.361700773239135742e+00 1.830309391021728516e+00 -1.230423808097839355e+00 -3.151057362556457520e-01 -5.409777760505676270e-01 2.189111471176147461e+00 6.267151236534118652e-01 -7.803344130516052246e-01 5.878430008888244629e-01 -3.082843780517578125e+00 -6.430255413055419922e+00 -1.125551819801330566e+00 -1.622903347015380859e+00 -2.260845184326171875e+00 3.719467401504516602e+00 -6.806888580322265625e+00 -6.315655112266540527e-01 1.826314210891723633e+00 4.018617868423461914e-01 -1.423978209495544434e+00 5.836511135101318359e+00 -6.630730032920837402e-01 3.833170533180236816e-01 1.101285338401794434e+00 5.277330279350280762e-01 -1.079968333244323730e+00 9.273595809936523438e-01 -6.304332733154296875e+00 -5.821496486663818359e+00 -1.618871688842773438e+00 -1.071421384811401367e+00 7.346763134002685547e+00 -1.053610444068908691e+00 -3.210400417447090149e-02 -1.673570990562438965e+00 1.308099627494812012e+00 -9.209719300270080566e-01 -8.612352609634399414e-01 -1.239306449890136719e+00 3.588292896747589111e-01 -1.270648717880249023e+00 -5.055361986160278320e-01
-2.180443145334720612e-03 -1.456343531608581543e-01 -1.266490697860717773e+00 -6.263229250907897949e-01 -3.794565200805664062e-01 -2.364448070526123047e+00 -1.575840592384338379e+00 -8.528500795364379883e-01 -7.131219863891601562e+00 -3.059714317321777344e+00 -3.453083918429911137e-04 -6.289859302341938019e-03 -4.363766610622406006e-01 -2.759036540985107422e+00 -1.609267115592956543e+00 -4.245219230651855469e-01 -5.839241743087768555e-01 -5.772765636444091797e+00 -3.046311616897583008e+00 -7.029554843902587891e+00 6.969420313835144043e-01 -2.070036172866821289e+00 2.055372595787048340e-01 -4.445085227489471436e-01 -2.496130943298339844e+00 -1.570646643638610840e+00 -1.066177248954772949e+00 -3.000255823135375977e+00 3.373962342739105225e-01 -1.909551024436950684e+00 5.987504720687866211e-01 -7.151483535766601562e+00 -6.951951980590820312e-02 -4.823659420013427734e+00 -7.902891159057617188e+00 -3.809441030025482178e-01 -3.128404729068279266e-03 -5.592238426208496094e+00 2.339184880256652832e-01 -1.262825727462768555e-01 2.366012334823608398e+00 3.283735036849975586e+00 4.940216064453125000e+00 5.562096595764160156e+00 2.548040449619293213e-01 3.118189573287963867e-01 6.125580072402954102e-01 1.599945783615112305e+00 2.987486600875854492e+00 3.005679130554199219e+00 7.178722381591796875e+00 3.067152500152587891e-01 1.058715939521789551e+00 7.485262393951416016e+00 5.935342788696289062e+00 -6.306335926055908203e-01 -4.217483997344970703e-01 9.220816493034362793e-01 1.913567304611206055e+00 6.083718776702880859e+00 -3.350001871585845947e-01 -4.000049531459808350e-01 5.503464221954345703e+00 -8.113854527473449707e-01 2.679287672042846680e+00 -3.363187015056610107e-01 1.923973083496093750e+00 8.332638740539550781e-01 4.423665523529052734e+00 2.424836456775665283e-01 2.623631000518798828e+00 9.907667040824890137e-01 -2.195103466510772705e-01 1.107891321182250977e+00 -2.833997011184692383e-01 1.633496403694152832e+00 -9.348469972610473633e-01 1.439045220613479614e-01 4.535251617431640625e+00 5.612905502319335938e+00 -9.539597630500793457e-01 2.530227422714233398e+00 2.789975702762603760e-01 2.114833593368530273e+00 6.416027545928955078e+00 1.358166217803955078e+00 5.962943553924560547e+00 -1.793882250785827637e+00 1.196621730923652649e-01 -7.584074139595031738e-01 -6.134606897830963135e-02 4.215500354766845703e-01 7.934616804122924805e-01 1.111998796463012695e+00 -5.252694129943847656e+00 -4.716852605342864990e-01 7.089844226837158203e+00 6.416664272546768188e-02 5.896185636520385742e-01 -7.464707374572753906e+00 -4.006865918636322021e-01 1.070908665657043457e+00 1.739954113960266113e+00 5.777197360992431641e+00 -3.700733900070190430e+00 4.551489353179931641e+00 6.795037388801574707e-01 9.762368798255920410e-01 1.688821673393249512e+00 1.279348582029342651e-01 7.271714210510253906e+00 7.796201705932617188e-01 3.098087608814239502e-01 1.128074169158935547e+00 1.400766730308532715e+00 2.520044803619384766e+00 1.175640344619750977e+00 1.034239053726196289e+00 -1.168519973754882812e+00 7.340608835220336914e-01 5.859052538871765137e-01 -3.053171157836914062e+00 -7.215465903282165527e-01 -5.778720378875732422e+00 8.170113563537597656e-01 -6.528312206268310547e+00 -1.260114550590515137e+00 -1.715717911720275879e+00 2.272614836692810059e-01 6.102080821990966797e+00 1.083535313606262207e+00 -9.435397982597351074e-01 -4.529150485992431641e+00 -3.852558732032775879e-01 -2.993273973464965820e+00 -3.476397991180419922e+00 -2.700154542922973633e+00 7.091128230094909668e-01 -7.719764709472656250e-01 -1.067773222923278809e+00 4.831589758396148682e-01 1.154054403305053711e+00 -1.503004133701324463e-01 5.675168037414550781e-01 -9.309661984443664551e-01 2.218391001224517822e-01 5.579584836959838867e-02 9.208210110664367676e-01 -5.362005829811096191e-01 4.671646952629089355e-01 -3.158241808414459229e-01 -6.105425834655761719e+00 -2.530481338500976562e+00 1.727776765823364258e+00 -1.453181147575378418e+00 -6.868070125579833984e+00 -2.705981731414794922e+00 -1.197104215621948242e+00 2.314441800117492676e-01 -4.664071559906005859e+00 2.589495420455932617e+00 4.995942115783691406e-01 -1.910467743873596191e-01 -1.572091728448867798e-01 -2.221288204193115234e+00 -2.425115585327148438e+00 -2.405157089233398438e-01 -8.819363713264465332e-01 -1.772743016481399536e-01 -7.689967155456542969e-01 6.617721557617187500e+00 2.399510860443115234e+00 6.554111242294311523e-01 -1.441630005836486816e+00 -2.894601583480834961e+00 -2.399779796600341797e+00 3.190955877304077148e+00 1.128590345382690430e+00 -4.227471947669982910e-01 -1.838932156562805176e+00 3.833610713481903076e-01 2.565369307994842529e-01 1.397985935211181641e+00 -2.686997354030609131e-01 -5.983394011855125427e-02 1.380204409360885620e-01 4.149065613746643066e-01 1.993778705596923828e+00 4.041684150695800781e+00 1.309748589992523193e-01 -8.697162270545959473e-01 1.120753645896911621e+00 -1.359369158744812012e+00 -5.447709560394287109e+00 -2.730129003524780273e+00 1.191988825798034668e+00 5.958969116210937500e+00 -1.880166053771972656e+00 -1.848220109939575195e+00 -3.373821973800659180e+00
-1.186150074005126953e+00 -3.136797845363616943e-01 -1.751765131950378418e+00 -8.373896777629852295e-02 9.551537036895751953e-01 -9.154584407806396484e-01 -3.191238164901733398e+00 -6.704355478286743164e-01 -4.565684497356414795e-01 -3.170064687728881836e-01 1.648007154464721680e+00 -1.088040471076965332e+00 -6.967740058898925781e-01 -1.112107038497924805e-01 -6.477712392807006836e-01 -7.191986441612243652e-01 -1.755226135253906250e+00 6.317844867706298828e+00 -2.928479194641113281e+00 -6.028472185134887695e-01 -7.560346603393554688e+00 -1.471018433570861816e+00 -1.274062991142272949e+00 -3.359404563903808594e+00 -6.811407566070556641e+00 -2.699579238891601562e+00 -1.547734737396240234e+00 -1.335688710212707520e+00 -1.088783144950866699e+00 1.544435977935791016e+00 -2.611982345581054688e+00 -1.816822409629821777e+00 2.166599512100219727e+00 2.534510008990764618e-02 -2.682898759841918945e+00 1.786909699440002441e-01 -8.071282386779785156e+00 -2.288577795028686523e+00 -6.012661933898925781e+00 -7.402639985084533691e-01 3.471884131431579590e-01 4.443271160125732422e+00 -2.518327236175537109e-01 1.523120403289794922e+00 7.618607580661773682e-02 3.448654413223266602e+00 1.106498718261718750e+00 7.495818734169006348e-01 7.591382026672363281e+00 2.591076850891113281e+00 -1.363316774368286133e-01 5.996754765510559082e-01 4.322743892669677734e+00 -1.391527175903320312e+00 6.096648693084716797e+00 5.473941802978515625e+00 3.455012440681457520e-01 -1.608263701200485229e-01 7.070240020751953125e+00 1.520734548568725586e+00 5.022848129272460938e+00 2.003559350967407227e+00 3.735486507415771484e+00 3.266385793685913086e+00 5.895725727081298828e+00 4.875457286834716797e+00 6.604439020156860352e-01 -1.771336197853088379e+00 -1.739525675773620605e+00 -3.014605641365051270e-01 -1.514344930648803711e+00 6.771756172180175781e+00 1.094332695007324219e+00 -1.567975878715515137e-01 -3.646396696567535400e-01 -1.692099452018737793e+00 -1.494751095771789551e+00 2.423362970352172852e+00 5.191755771636962891e+00 7.009869217872619629e-01 2.659173727035522461e+00 5.751366138458251953e+00 2.674542069435119629e-01 -6.696184277534484863e-01 1.824897289276123047e+00 3.635350167751312256e-01 7.229179859161376953e+00 -4.282509684562683105e-01 8.039152622222900391e-02 1.865006685256958008e+00 6.242116689682006836e-01 6.819534301757812500e+00 6.009163379669189453e+00 4.693393707275390625e+00 4.779269695281982422e-01 -3.527431488037109375e+00 7.315084338188171387e-01 3.140913963317871094e+00 9.615903496742248535e-01 -1.229789704084396362e-01 -1.093829393386840820e+00 -3.735040426254272461e-01 1.092076539993286133e+00 -6.989540100097656250e+00 6.720841884613037109e+00 4.750298976898193359e+00 6.030003070831298828e+00 4.149150848388671875e-01 1.503512501716613770e+00 1.016548201441764832e-01 -4.052351415157318115e-01 -2.625197172164916992e-01 1.887356787919998169e-01 -7.359319925308227539e-01 -8.065235018730163574e-01 -2.129760265350341797e+00 1.414133787155151367e+00 5.147203922271728516e+00 -3.887676298618316650e-01 4.078994989395141602e-01 1.268472790718078613e+00 -1.772720098495483398e+00 2.923881292343139648e+00 1.372169516980648041e-02 6.763548851013183594e+00 5.456752777099609375e-01 -1.161493420600891113e+00 9.142363443970680237e-03 5.870221257209777832e-01 -2.349205464124679565e-01 9.047555923461914062e-01 -9.780939668416976929e-02 1.757821291685104370e-01 6.963364481925964355e-01 6.793258339166641235e-02 -2.065143108367919922e+00 -7.292875647544860840e-01 -3.904631137847900391e-01 6.062762811779975891e-02 1.353824436664581299e-01 8.326588869094848633e-01 -1.041014026850461960e-02 -2.097455501556396484e+00 1.182068347930908203e+00 5.674159526824951172e+00 -1.093756556510925293e+00 9.258086681365966797e-01 -4.548298120498657227e-01 1.894688963890075684e+00 6.868428707122802734e+00 1.857382535934448242e+00 4.571955204010009766e-01 6.549039483070373535e-01 4.382950305938720703e+00 -1.105202674865722656e+00 6.141000270843505859e+00 -1.091638922691345215e+00 -2.829995453357696533e-01 -9.475387334823608398e-01 7.082823753356933594e+00 -7.415314197540283203e+00 -3.730313777923583984e+00 -1.175316214561462402e+00 -4.114961624145507812e+00 -6.038320064544677734e+00 -2.808130741119384766e+00 -8.382369875907897949e-01 6.557645648717880249e-02 -1.770432233810424805e+00 -4.226062297821044922e-01 -2.163108348846435547e+00 -1.366313576698303223e+00 -1.715251445770263672e+00 -1.198064208030700684e+00 -2.554646730422973633e+00 -1.611990332603454590e+00 -6.609152793884277344e+00 -3.220059871673583984e+00 -4.951132774353027344e+00 -7.284592628479003906e+00 -3.392231464385986328e+00 -1.598333120346069336e-01 -8.120522499084472656e+00 -2.152041673660278320e+00 2.415809631347656250e-01 -1.939441084861755371e+00 -1.380765914916992188e+00 -1.212484955787658691e+00 -6.122413873672485352e-01 -6.544173240661621094e+00 -2.400538682937622070e+00 -3.957407712936401367e+00 5.604293942451477051e-01 -2.410301685333251953e+00 -6.631330490112304688e+00 -1.264283806085586548e-01 -1.269509911537170410e+00 -3.335795164108276367e+00 -7.755584716796875000e+00 5.763041377067565918e-01
2.705495834350585938e+00 -2.463388681411743164e+00 -1.476339578628540039e+00 -2.367117166519165039e+00 4.124053955078125000e+00 -6.536386609077453613e-01 5.053826570510864258e-01 -7.779211401939392090e-01 -1.578542590141296387e+00 -5.572004318237304688e+00 -2.600969076156616211e+00 -5.481169700622558594e+00 -1.395931601524353027e+00 5.573520660400390625e+00 7.832999527454376221e-02 8.553450107574462891e-01 -4.516393184661865234e+00 -3.326294720172882080e-01 4.431535720825195312e+00 3.189708292484283447e-01 -1.498511582612991333e-01 -5.933055400848388672e+00 1.854293465614318848e+00 -9.242911636829376221e-02 -2.010837316513061523e+00 4.622343063354492188e+00 -5.001964047551155090e-03 7.937601208686828613e-01 3.443901062011718750e+00 2.694446325302124023e+00 -8.904759287834167480e-01 -2.718450129032135010e-01 6.044746041297912598e-01 -5.260732769966125488e-01 -2.790774703025817871e-01 -1.427946090698242188e+00 2.415880262851715088e-01 9.119799733161926270e-01 -5.937032699584960938e-01 -4.266123473644256592e-01 -3.060717582702636719e-01 -1.720664620399475098e+00 -1.029669880867004395e+00 -7.698433399200439453e-01 -4.127692222595214844e+00 -5.118048667907714844e+00 -1.474022865295410156e+00 -1.781113147735595703e+00 -3.013360500335693359e-01 -7.275177955627441406e+00 6.070471405982971191e-01 -3.960609912872314453e+00 -8.811253905296325684e-01 -7.545172691345214844e+00 -1.931020617485046387e+00 -3.246691465377807617e+00 -7.796991825103759766e+00 4.841738641262054443e-01 -2.293936014175415039e+00 -1.718932747840881348e+00 -6.860812306404113770e-01 -1.572727560997009277e+00 -2.168254852294921875e+00 -1.587801337242126465e+00 -1.593147635459899902e+00 -9.319869279861450195e-01 -4.087594032287597656e+00 -1.808255672454833984e+00 -2.128278017044067383e+00 -2.709065914154052734e+00 -6.183834552764892578e+00 -6.631762504577636719e+00 -7.493844032287597656e+00 -2.734897136688232422e+00 -6.395191550254821777e-01 -1.834851622581481934e+00 -4.716974258422851562e+00 -7.861392498016357422e+00 -2.503252267837524414e+00 -1.173966765403747559e+00 -1.430310249328613281e+00 -1.498769760131835938e+00 -1.351924419403076172e+00 -6.215338706970214844e+00 -7.657892704010009766e-01 -1.236475586891174316e+00 -1.230370521545410156e+00 -2.599250972270965576e-01 -1.527156829833984375e+00 -5.716394901275634766e+00 1.623199701309204102e+00 -5.124903678894042969e+00 -7.439432740211486816e-01 3.321518003940582275e-01 -2.732396125793457031e+00 -2.339484930038452148e+00 1.392992615699768066e+00 -5.338026046752929688e+00 -1.237266063690185547e+00 -8.787016272544860840e-01 -1.076078176498413086e+00 -1.106879234313964844e+00 -5.580569267272949219e+00 -2.860166549682617188e+00 -5.512533783912658691e-01 -1.568543791770935059e+00 -1.913130640983581543e+00 -8.235415220260620117e-01 -2.091986656188964844e+00 -2.127098083496093750e+00 -7.754694938659667969e+00 -6.412785053253173828e+00 -1.710922241210937500e+00 -5.730901360511779785e-01 -6.885559558868408203e+00 -6.625793129205703735e-02 -1.985542893409729004e+00 -6.578519344329833984e+00 -1.782502889633178711e+00 -6.136262893676757812e+00 6.251121044158935547e+00 4.248056411743164062e-01 6.266415119171142578e+00 6.033761501312255859e+00 1.038298487663269043e+00 -5.580084919929504395e-01 -5.030285716056823730e-01 5.957864284515380859e+00 6.850428104400634766e+00 6.199963569641113281e+00 7.072674751281738281e+00 6.145912170410156250e+00 1.287654995918273926e+00 6.256837844848632812e+00 -6.240682005882263184e-01 5.387605428695678711e-01 1.632241487503051758e+00 -1.686145663261413574e-01 2.344009399414062500e+00 1.354772210121154785e+00 6.708483219146728516e+00 2.010166168212890625e+00 -4.141759574413299561e-01 6.384694576263427734e+00 2.079094052314758301e-01 9.677772521972656250e-01 4.147134780883789062e+00 -4.057128429412841797e-01 1.034127116203308105e+00 5.427977085113525391e+00 2.539443671703338623e-01 6.038301467895507812e+00 -8.908427357673645020e-01 1.873479723930358887e+00 5.174906730651855469e+00 6.500415802001953125e-01 3.940010070800781250e+00 6.967484474182128906e+00 2.743927478790283203e+00 2.467542886734008789e+00 2.293971538543701172e+00 -3.741504549980163574e-01 6.748676776885986328e+00 6.845592021942138672e+00 6.081434249877929688e+00 6.393375396728515625e-01 -4.892067313194274902e-01 7.056896209716796875e+00 6.333581209182739258e-01 3.095408916473388672e+00 -2.132268697023391724e-01 6.073048591613769531e+00 6.611562728881835938e+00 6.283767223358154297e+00 4.854070663452148438e+00 9.849570989608764648e-01 1.773931741714477539e+00 1.304941415786743164e+00 7.496806144714355469e+00 -4.841095209121704102e-01 4.190944671630859375e+00 6.088123798370361328e+00 -1.936651170253753662e-01 5.798503160476684570e-01 5.476139783859252930e-01 1.802138328552246094e+00 9.819639921188354492e-01 2.314435243606567383e+00 6.637836933135986328e+00 3.151046335697174072e-01 -7.595463395118713379e-01 -5.176087021827697754e-01 1.295778155326843262e+00 1.086472630500793457e+00 -2.223501205444335938e-01 2.077279806137084961e+00 1.410136342048645020e+00 9.166885018348693848e-01 1.049202084541320801e+00 1.665627956390380859e+00
