-1.728151702880859375e+01 -1.479302692413330078e+01 -4.169706344604492188e+00 2.315496253967285156e+01 -1.374030208587646484e+01 -1.575631260871887207e+00 -5.151526927947998047e+00 -1.825468838214874268e-01 5.363313674926757812e+00 -1.342622995376586914e+00
-1.311164855957031250e+00 -2.797808647155761719e+01 1.131328678131103516e+01 1.591798973083496094e+01 -1.280899906158447266e+01 8.339007377624511719e+00 -4.435933589935302734e+00 -1.861531019210815430e+00 -4.452162742614746094e+00 -8.113094329833984375e+00
1.020537948608398438e+01 -1.803021430969238281e+01 -1.328508257865905762e+00 2.088341140747070312e+01 2.987735033035278320e+00 -1.099509048461914062e+01 -4.560173511505126953e+00 -1.484047603607177734e+01 3.281270265579223633e+00 5.837340354919433594e+00
7.558173179626464844e+00 -1.745757102966308594e+01 -1.631273508071899414e+00 1.890453338623046875e+01 -4.443804740905761719e+00 1.195974946022033691e+00 -1.159654617309570312e+01 3.728830099105834961e+00 -1.703881072998046875e+01 6.971681594848632812e+00
-8.042469024658203125e+00 -1.876980400085449219e+01 4.879062175750732422e+00 1.674086952209472656e+01 -1.438942718505859375e+01 4.658439159393310547e+00 2.543663740158081055e+00 1.459930229187011719e+01 -1.037925720214843750e+01 1.059944057464599609e+01
3.323540925979614258e+00 -1.921927070617675781e+01 8.459798812866210938e+00 6.889546871185302734e+00 6.075545310974121094e+00 1.806426811218261719e+01 -8.589878082275390625e+00 -2.527980327606201172e+00 -1.065551853179931641e+01 -4.478065013885498047e+00
-3.155028581619262695e+00 -1.973328208923339844e+01 1.176893138885498047e+01 1.447569751739501953e+01 -7.656138420104980469e+00 -1.567663478851318359e+01 6.602754592895507812e+00 -1.216569232940673828e+01 1.046996402740478516e+01 6.770246028900146484e+00
-9.943428993225097656e+00 -4.599033355712890625e+00 1.648194313049316406e+01 1.299387931823730469e+01 3.875738143920898438e+00 -1.182249546051025391e+01 3.836303472518920898e+00 -1.860265731811523438e+01 -1.039077854156494141e+01 -2.851316261291503906e+01
-1.431199264526367188e+01 -2.353223419189453125e+01 -2.541998386383056641e+00 1.366030120849609375e+01 -1.187701797485351562e+01 1.531699848175048828e+01 -3.893604040145874023e+00 -8.252226829528808594e+00 -1.230172443389892578e+01 1.004034996032714844e+01
-1.089908790588378906e+01 -9.273295998573303223e-01 -8.922187805175781250e+00 2.374755859375000000e+01 -1.267875671386718750e+00 4.816912651062011719e+00 1.527764225006103516e+01 -2.608533620834350586e+00 -2.582406044006347656e+01 -9.230378150939941406e+00
-7.920425891876220703e+00 -4.322726726531982422e+00 -6.634588241577148438e+00 1.378236770629882812e+01 1.178783416748046875e+01 6.007517814636230469e+00 -4.414802074432373047e+00 5.043553709983825684e-01 -3.395385360717773438e+01 5.577752590179443359e+00
-1.906509399414062500e+01 -2.366916084289550781e+01 8.537725806236267090e-01 2.113866996765136719e+01 -5.332350254058837891e+00 -1.547316265106201172e+01 -9.330888748168945312e+00 -4.955757141113281250e+00 -3.897762060165405273e+00 -2.413558959960937500e+00
-1.848058509826660156e+01 -1.136266613006591797e+01 1.652723121643066406e+01 1.608043098449707031e+01 4.460350990295410156e+00 1.585229587554931641e+01 -1.778567886352539062e+01 1.697050809860229492e+00 -5.828205585479736328e+00 -5.497619152069091797e+00
-1.424689006805419922e+01 -1.051330471038818359e+01 -7.367150187492370605e-01 1.544208145141601562e+01 4.683380603790283203e+00 3.037066459655761719e+00 -8.085234642028808594e+00 -9.150257110595703125e+00 -2.821418190002441406e+01 -8.883793830871582031e+00
-6.527411460876464844e+00 -2.115150833129882812e+01 1.953111839294433594e+01 8.250496864318847656e+00 4.163319110870361328e+00 9.102140069007873535e-01 -5.993796825408935547e+00 -4.964154720306396484e+00 -1.500175285339355469e+01 -1.273986148834228516e+01
-1.142850303649902344e+01 -4.879329204559326172e+00 8.036950111389160156e+00 1.921185302734375000e+01 -5.435354709625244141e-01 1.127723312377929688e+01 -1.760786437988281250e+01 -2.823266029357910156e+01 -7.847285747528076172e+00 3.598302841186523438e+00
-9.937162399291992188e+00 -7.543617248535156250e+00 5.132896900177001953e+00 3.094680786132812500e+01 1.848223209381103516e-01 -1.425879836082458496e+00 -6.933471560478210449e-01 -9.838205337524414062e+00 -1.548725891113281250e+01 5.253961563110351562e+00
5.446822643280029297e+00 -1.208468914031982422e+01 3.188777923583984375e+00 1.951230812072753906e+01 -7.477561831474304199e-01 1.766100883483886719e+00 -1.144546222686767578e+01 -3.787226104736328125e+01 -2.741414308547973633e+00 1.364088177680969238e+00
4.572062015533447266e+00 -1.002291202545166016e+01 3.019221544265747070e+00 6.247532844543457031e+00 1.734893035888671875e+01 1.632906341552734375e+01 -1.098404407501220703e+01 -7.544404983520507812e+00 -7.693007946014404297e+00 -8.336590766906738281e+00
-6.258794784545898438e+00 -1.467362022399902344e+01 -1.700098156929016113e+00 1.202485656738281250e+01 -1.380362391471862793e+00 1.624377441406250000e+01 1.612225651741027832e+00 -1.502958869934082031e+01 7.344713687896728516e+00 2.029825687408447266e+00
-4.494744300842285156e+00 -1.311232280731201172e+01 1.119547176361083984e+01 1.174147224426269531e+01 -2.701539099216461182e-01 4.603705406188964844e+00 1.012192535400390625e+01 -1.804087066650390625e+01 -2.780318832397460938e+01 -2.034515142440795898e+00
3.952576160430908203e+00 3.448437213897705078e+00 -8.262664675712585449e-01 1.741147613525390625e+01 1.429289531707763672e+01 1.068907451629638672e+01 -1.205457687377929688e+01 -2.399974822998046875e+01 -1.308199787139892578e+01 -4.694688796997070312e+00
-9.230244636535644531e+00 -2.921446228027343750e+01 1.941469192504882812e+01 1.025584030151367188e+01 -3.462163209915161133e+00 3.058139324188232422e+00 5.408460617065429688e+00 -2.896882534027099609e+00 -1.021860122680664062e+01 7.677131175994873047e+00
1.408561348915100098e+00 -8.780818581581115723e-01 -5.543487548828125000e+00 1.784752273559570312e+01 1.662034094333648682e-01 2.047163200378417969e+01 -2.669616222381591797e+00 -1.233341789245605469e+01 -2.047114944458007812e+01 -1.281335449218750000e+01
6.765293121337890625e+00 -2.126003265380859375e+01 -4.313519954681396484e+00 1.354127120971679688e+01 1.369506263732910156e+01 7.731975555419921875e+00 -8.108721733093261719e+00 4.484898090362548828e+00 -1.918343353271484375e+01 -1.508075428009033203e+01
-1.106350994110107422e+01 -1.654543304443359375e+01 -1.557725429534912109e+01 1.494830226898193359e+01 1.750745010375976562e+01 2.935823798179626465e-01 8.333168029785156250e+00 -1.256623172760009766e+01 -4.508424401283264160e-01 1.034044933319091797e+01
7.207905054092407227e-01 -1.881469917297363281e+01 -9.502558708190917969e+00 3.360933685302734375e+01 4.916603088378906250e+00 -3.804372549057006836e+00 -1.422924613952636719e+01 -5.146402359008789062e+00 -1.075971484184265137e+00 -2.235968351364135742e+00
-6.001973748207092285e-01 -1.739291954040527344e+01 2.226956367492675781e+00 1.851538085937500000e+01 -1.627808952331542969e+01 -2.933109045028686523e+00 -6.813594818115234375e+00 -2.060255813598632812e+01 -2.885531902313232422e+00 -1.352146816253662109e+01
2.027621269226074219e+00 -6.845361709594726562e+00 1.251497459411621094e+01 2.172972106933593750e+01 4.405266761779785156e+00 -6.595233440399169922e+00 -3.176963567733764648e+00 -1.363175964355468750e+01 -1.665736389160156250e+01 -1.396692085266113281e+01
5.983507156372070312e+00 -2.188808631896972656e+01 2.223607635498046875e+01 3.688483238220214844e+00 1.198349189758300781e+01 -4.901775836944580078e+00 -1.721181869506835938e+01 -1.088276672363281250e+01 -8.425212860107421875e+00 2.326637059450149536e-01
-8.304598808288574219e+00 -3.183772277832031250e+01 -5.655199050903320312e+00 1.196102976799011230e+00 2.150587081909179688e+01 -2.193417549133300781e+00 -6.499405384063720703e+00 -6.550358772277832031e+00 -3.348502635955810547e+00 6.034082889556884766e+00
1.663718605041503906e+01 -1.111622714996337891e+01 6.890429496765136719e+00 2.189201736450195312e+01 -3.682880640029907227e+00 -1.546762657165527344e+01 -1.138475418090820312e+01 -1.987322998046875000e+01 -9.768148422241210938e+00 -7.533812046051025391e+00
-1.493463420867919922e+01 -8.639990091323852539e-01 -8.301159858703613281e+00 1.740801429748535156e+01 3.309157133102416992e+00 -1.198386001586914062e+01 -4.663774371147155762e-01 -1.219975566864013672e+01 -7.481455802917480469e+00 -9.452963829040527344e+00
1.880097770690917969e+01 -9.421468734741210938e+00 1.170765876770019531e+00 7.733030319213867188e+00 8.403708457946777344e+00 4.494461536407470703e+00 -1.146055316925048828e+01 -1.324514484405517578e+01 -1.663763236999511719e+01 -1.607694053649902344e+01
-1.096205902099609375e+01 -2.597999191284179688e+01 1.016351795196533203e+01 7.874678611755371094e+00 9.188341140747070312e+00 -5.384353160858154297e+00 -8.355068206787109375e+00 -1.567038440704345703e+01 3.518313169479370117e+00 -1.232282876968383789e+00
3.766453981399536133e+00 -2.124529838562011719e+01 6.150224685668945312e+00 7.516419410705566406e+00 -6.870585918426513672e+00 -9.631064414978027344e+00 -9.411463737487792969e+00 -1.254824447631835938e+01 -1.886671066284179688e+01 -8.358218193054199219e+00
1.616036605834960938e+01 -2.647470855712890625e+01 -3.812007427215576172e+00 2.271901321411132812e+01 1.387807846069335938e+00 -9.962403774261474609e-01 -2.646376371383666992e+00 3.717778921127319336e-01 -3.388512372970581055e+00 -6.501645565032958984e+00
4.538938999176025391e-01 -1.777580642700195312e+01 -4.206495761871337891e+00 1.336593627929687500e+01 7.958276271820068359e+00 6.220052719116210938e+00 4.076329708099365234e+00 -2.612486267089843750e+01 1.515172958374023438e+00 -1.770407104492187500e+01
-1.933826446533203125e+01 -1.639293098449707031e+01 -1.201799583435058594e+01 1.761554718017578125e+01 1.972332763671875000e+01 2.488159418106079102e+00 -1.448914289474487305e+00 -1.788298964500427246e+00 -9.093903541564941406e+00 -4.697709560394287109e+00
-1.122007846832275391e+01 -2.721546936035156250e+01 -7.506689548492431641e+00 2.392273902893066406e+01 -4.905228614807128906e+00 5.474656105041503906e+00 -1.000482654571533203e+01 -1.533089160919189453e+00 4.106001853942871094e+00 -3.174550056457519531e+00
1.143481063842773438e+01 3.025789976119995117e+00 3.847543001174926758e+00 1.721037483215332031e+01 -7.909817218780517578e+00 -2.150379371643066406e+01 -8.900932312011718750e+00 -2.884968996047973633e+00 6.925767898559570312e+00 -1.346924972534179688e+01
9.537464141845703125e+00 2.388240432739257812e+01 -1.058454227447509766e+01 7.283498764038085938e+00 -3.424930810928344727e+00 -1.833740806579589844e+01 -6.677446365356445312e+00 -7.064007759094238281e+00 -9.766625404357910156e+00 -1.950127410888671875e+01
7.276932716369628906e+00 1.736872673034667969e+01 -6.535944938659667969e+00 6.971358776092529297e+00 -1.591414070129394531e+01 -9.171185493469238281e+00 -1.581697845458984375e+01 -2.496364831924438477e+00 4.080130577087402344e+00 -2.433591651916503906e+01
7.761863231658935547e+00 1.188179016113281250e+01 -1.530123329162597656e+01 5.075039863586425781e+00 7.808575034141540527e-01 -2.029249382019042969e+01 -2.126312065124511719e+01 1.019705104827880859e+01 9.957798957824707031e+00 -5.451961994171142578e+00
-4.424286842346191406e+00 1.297870540618896484e+01 -1.045496749877929688e+01 -1.393474388122558594e+01 1.013893413543701172e+01 -2.270400047302246094e+01 -8.862470626831054688e+00 1.525924682617187500e+01 9.747271537780761719e+00 -6.569705009460449219e+00
2.313032388687133789e+00 -2.669150590896606445e+00 -3.426332473754882812e+00 2.626305961608886719e+01 1.820767283439636230e+00 -1.868549156188964844e+01 -1.449424266815185547e+01 -4.561688423156738281e+00 4.022530078887939453e+00 -2.223399353027343750e+01
1.251831150054931641e+01 7.228003501892089844e+00 -7.465566635131835938e+00 4.326397418975830078e+00 1.350199508666992188e+01 -4.229128837585449219e+00 -1.129038238525390625e+01 -1.580617666244506836e+00 1.281230545043945312e+01 -1.835070419311523438e+01
1.500258541107177734e+01 -7.278256893157958984e+00 1.720112800598144531e+00 -6.706918239593505859e+00 2.529804944992065430e+00 -3.458972930908203125e+01 -1.074437236785888672e+01 5.342098236083984375e+00 4.695062637329101562e+00 -1.354007816314697266e+01
1.900395965576171875e+01 1.087725639343261719e+01 -1.137960672378540039e+00 9.281467437744140625e+00 1.506806659698486328e+01 -1.578069686889648438e+01 -1.428678321838378906e+01 -8.573801994323730469e+00 9.332154393196105957e-01 -8.280656814575195312e+00
-4.809489548206329346e-01 2.377265739440917969e+01 -8.183093070983886719e+00 -3.363388776779174805e+00 1.632972359657287598e+00 -2.121237182617187500e+01 2.264190316200256348e-01 -7.689890384674072266e+00 1.504728698730468750e+01 -1.817826843261718750e+01
4.310327053070068359e+00 -5.676949501037597656e+00 -1.160647392272949219e+01 3.720166683197021484e-01 -8.727968215942382812e+00 -1.403899383544921875e+01 -1.909572792053222656e+01 1.081637573242187500e+01 3.119511365890502930e+00 -2.387443161010742188e+01
5.870226383209228516e+00 -4.453444778919219971e-01 7.901996135711669922e+00 -1.964262843132019043e+00 7.066159248352050781e+00 4.247809052467346191e-01 -2.760913085937500000e+01 3.548866510391235352e+00 1.101556777954101562e+01 -8.413996696472167969e+00
-1.481627655029296875e+01 2.197335624694824219e+01 -6.262503623962402344e+00 -4.147860050201416016e+00 4.574307441711425781e+00 -2.477031707763671875e+01 -4.601807117462158203e+00 3.462788343429565430e+00 5.879129409790039062e+00 -2.053964424133300781e+01
6.325332164764404297e+00 -4.495897293090820312e+00 7.893359065055847168e-01 -1.812097191810607910e+00 2.742839753627777100e-01 -1.343738269805908203e+01 -1.102579021453857422e+01 2.717932462692260742e+00 1.370918941497802734e+01 -3.767761230468750000e+01
-4.006367683410644531e+00 2.641755819320678711e+00 -1.531828689575195312e+01 5.891231060028076172e+00 -7.192501544952392578e+00 -2.743970680236816406e+01 -1.893806934356689453e+00 -1.576152682304382324e+00 5.301739215850830078e+00 -6.363690376281738281e+00
-8.443888664245605469e+00 6.162921905517578125e+00 1.622097015380859375e+01 5.060626983642578125e+00 2.078943967819213867e+00 -1.550168418884277344e+01 -1.679849433898925781e+01 1.187103748321533203e+01 -1.178972721099853516e+01 -3.108530044555664062e+01
2.005944490432739258e+00 1.403539180755615234e+01 -1.098802375793457031e+01 5.833736896514892578e+00 -1.969150161743164062e+01 -1.829280853271484375e+01 1.251176261901855469e+01 1.065354061126708984e+01 3.876993417739868164e+00 -1.077952766418457031e+01
4.992979526519775391e+00 9.793922424316406250e+00 6.380048751831054688e+00 1.321900749206542969e+01 -1.478896737098693848e-01 -1.115535259246826172e+01 -1.691581010818481445e-01 -8.974606513977050781e+00 1.154017734527587891e+01 -1.917525863647460938e+01
-4.237357139587402344e+00 1.590523481369018555e+00 4.073659420013427734e+00 1.041079425811767578e+01 -8.800728797912597656e+00 -1.454855060577392578e+01 -7.654850006103515625e+00 1.071718573570251465e+00 2.171184539794921875e+01 -3.113614559173583984e+00
2.121897315979003906e+01 8.172295570373535156e+00 1.338810443878173828e+00 -4.427295327186584473e-01 -4.547128200531005859e+00 2.188980817794799805e+00 -2.287154436111450195e+00 1.100324916839599609e+01 -8.910346984863281250e+00 -1.533503055572509766e+01
2.947297096252441406e+00 4.966380596160888672e+00 -1.100951480865478516e+01 1.706982421875000000e+01 -8.423369407653808594e+00 -1.760870170593261719e+01 -3.012755012512207031e+01 1.052159595489501953e+01 -1.132728695869445801e+00 -5.244296550750732422e+00
7.220141291618347168e-01 1.956402063369750977e+00 3.441161155700683594e+00 -3.363366842269897461e+00 -1.106490135192871094e+01 -4.863231658935546875e+00 -2.037182807922363281e+01 2.258530998229980469e+01 8.000390052795410156e+00 -2.054406356811523438e+01
-8.155728340148925781e+00 -8.097280502319335938e+00 1.605150032043457031e+01 3.764570057392120361e-01 -3.854705572128295898e+00 -2.174107742309570312e+01 -1.534926986694335938e+01 1.304737186431884766e+01 4.761841773986816406e+00 -1.822694969177246094e+01
2.149308013916015625e+01 1.318001556396484375e+01 -2.992427587509155273e+00 1.018939399719238281e+01 -1.679902267456054688e+01 -8.736061096191406250e+00 -1.325216484069824219e+01 4.962886810302734375e+00 -5.958343505859375000e+00 -1.387338542938232422e+01
-2.414953470230102539e+00 1.568038654327392578e+01 -1.022209262847900391e+01 -6.646105766296386719e+00 1.258644771575927734e+01 -9.170502662658691406e+00 -1.732012176513671875e+01 -9.622312545776367188e+00 1.312638568878173828e+01 -1.954658889770507812e+01
1.256323242187500000e+01 1.557861137390136719e+01 -4.451599121093750000e+00 -1.066776156425476074e+00 -1.581227481365203857e-01 -3.268729400634765625e+01 -3.699498653411865234e+00 -5.164885997772216797e+00 2.310392618179321289e+00 -2.449263572692871094e+00
-1.489181280136108398e+00 -3.465763807296752930e+00 -1.880563926696777344e+01 1.214857387542724609e+01 4.297214373946189880e-02 -6.671587944030761719e+00 -2.648416709899902344e+01 1.256764316558837891e+01 1.585719490051269531e+01 -8.304594993591308594e+00
2.072690391540527344e+01 5.528460025787353516e+00 9.783271789550781250e+00 -1.297351169586181641e+01 -6.508410453796386719e+00 -9.523889541625976562e+00 -1.442643070220947266e+01 8.498908042907714844e+00 -8.289467811584472656e+00 -1.989032363891601562e+01
-1.114831161499023438e+01 5.490595340728759766e+00 -3.920905113220214844e+00 1.258460807800292969e+01 1.185336971282958984e+01 -1.437155342102050781e+01 3.936726331710815430e+00 1.105697345733642578e+01 6.574304580688476562e+00 -2.238159179687500000e+01
9.396520256996154785e-01 1.959357643127441406e+01 7.775603294372558594e+00 -1.398775196075439453e+01 -8.111740112304687500e+00 -2.043078613281250000e+01 -1.188159465789794922e+01 8.394176483154296875e+00 3.916322469711303711e+00 -2.417965698242187500e+01
5.933524608612060547e+00 -3.307001829147338867e+00 -5.494827270507812500e+00 2.359531402587890625e+01 2.910966157913208008e+00 -1.243715476989746094e+01 -9.085204124450683594e+00 4.767693519592285156e+00 1.101882457733154297e+01 -9.826107978820800781e+00
1.738096237182617188e+00 4.147181510925292969e+00 1.620507478713989258e+00 5.688678741455078125e+00 4.141848564147949219e+00 -2.696397590637207031e+01 -9.336163520812988281e+00 1.985209274291992188e+01 -8.993145942687988281e+00 -2.074394226074218750e+01
-4.079492688179016113e-01 1.761633515357971191e+00 -3.217733621597290039e+00 3.233034372329711914e+00 -1.349884414672851562e+01 -1.316278553009033203e+01 -5.506491661071777344e+00 -7.204028367996215820e-01 1.153818488121032715e+00 -3.043538665771484375e+01
-2.183480262756347656e+00 4.032958984375000000e+00 -4.916331768035888672e+00 -5.990605831146240234e+00 -1.281627464294433594e+01 -1.717447471618652344e+01 -8.014476776123046875e+00 3.151306390762329102e+00 2.423970413208007812e+01 -1.764720344543457031e+01
6.883995056152343750e+00 -6.623720377683639526e-02 -2.176806449890136719e+01 1.072818183898925781e+01 8.480236530303955078e-01 -2.236201095581054688e+01 -5.926177501678466797e-01 -2.388290166854858398e+00 6.673255443572998047e+00 -1.857650375366210938e+01
5.156765460968017578e+00 2.177520179748535156e+01 -4.906991958618164062e+00 4.913334369659423828e+00 1.518163084983825684e+00 7.695018768310546875e+00 -9.136116981506347656e+00 1.125122451782226562e+01 -5.653598308563232422e+00 -2.446985435485839844e+01
7.888741970062255859e+00 8.205442428588867188e+00 -1.423196601867675781e+01 4.706151008605957031e+00 -1.202771568298339844e+01 -1.858193397521972656e+01 3.806632280349731445e+00 1.600374221801757812e+01 1.636411094665527344e+01 -8.473438262939453125e+00
9.267291069030761719e+00 -5.454882144927978516e+00 -1.417087364196777344e+01 7.351038932800292969e+00 5.828521251678466797e+00 -1.882417488098144531e+01 -5.864707469940185547e+00 1.123353672027587891e+01 3.558250427246093750e+00 -5.100001811981201172e+00
1.778302937746047974e-01 1.390243816375732422e+01 -8.423668861389160156e+00 6.221392631530761719e+00 -6.542622566223144531e+00 -3.517444610595703125e+01 -2.540808439254760742e+00 1.443363475799560547e+01 3.402922391891479492e+00 -4.754846572875976562e+00
-6.031352996826171875e+00 1.334373116493225098e+00 -2.574408531188964844e+00 1.845427131652832031e+01 1.649442553520202637e+00 -1.509423923492431641e+01 -1.714304542541503906e+01 1.380205726623535156e+01 -1.728391408920288086e+00 -2.196463966369628906e+01
-7.231848239898681641e+00 -4.008337974548339844e+00 -3.589416027069091797e+00 -1.928766822814941406e+01 -7.353388071060180664e-01 3.423205852508544922e+00 1.753022575378417969e+01 1.606929016113281250e+01 5.512641429901123047e+00 4.015657424926757812e+00
9.566651344299316406e+00 -3.067525863647460938e+01 -5.815361976623535156e+00 -1.129830837249755859e+01 -6.492127418518066406e+00 1.181960201263427734e+01 1.356676959991455078e+01 -8.937620162963867188e+00 1.218919563293457031e+01 -1.542372226715087891e+01
-6.759580612182617188e+00 -1.465425968170166016e+01 -3.102412223815917969e+00 -2.089693641662597656e+01 3.692918062210083008e+00 -7.139024257659912109e+00 1.096030330657958984e+01 5.551076412200927734e+00 6.268137931823730469e+00 -2.476137351989746094e+01
-6.170640945434570312e+00 -8.893880844116210938e+00 7.182116031646728516e+00 -1.161283016204833984e+01 -6.365571975708007812e+00 1.537494182586669922e+01 1.291290569305419922e+01 1.278593444824218750e+01 -1.367731189727783203e+01 -1.575505638122558594e+01
-4.287269115447998047e+00 -1.521713161468505859e+01 -4.369478225708007812e+00 -1.209193897247314453e+01 -6.788894176483154297e+00 -6.617395877838134766e+00 1.331099414825439453e+01 1.953153038024902344e+01 9.846719741821289062e+00 -1.313809394836425781e+01
-2.343259048461914062e+01 -1.114251804351806641e+01 1.465594768524169922e+01 -1.218512058258056641e+01 8.011766433715820312e+00 -3.444369792938232422e+00 4.848661899566650391e+00 1.951230317354202271e-01 9.063610076904296875e+00 -2.499878501892089844e+01
-8.045188903808593750e+00 -5.985280036926269531e+00 -3.040713310241699219e+00 -2.938171386718750000e+01 2.760807991027832031e+00 4.206641197204589844e+00 5.000132083892822266e+00 -1.072019481658935547e+01 1.883505630493164062e+01 -1.039756965637207031e+01
2.586920499801635742e+00 -1.571464633941650391e+01 7.539941310882568359e+00 -1.990901184082031250e+01 -6.525511264801025391e+00 1.841940641403198242e+00 9.519797325134277344e+00 -1.113014602661132812e+01 1.978198814392089844e+01 -2.162046813964843750e+01
-3.445250749588012695e+00 -2.958820343017578125e+00 5.055270195007324219e-01 -6.188678741455078125e+00 1.327070522308349609e+01 -9.125886559486389160e-01 1.890151214599609375e+01 1.287851810455322266e+01 -6.032586097717285156e+00 -2.849960708618164062e+01
-1.678740692138671875e+01 -1.140773105621337891e+01 -3.181478023529052734e+00 -2.920808792114257812e+01 1.085543823242187500e+01 4.823762416839599609e+00 4.948930263519287109e+00 3.137402772903442383e+00 -5.544022083282470703e+00 -1.828245735168457031e+01
-2.133195638656616211e+00 -2.042284584045410156e+01 1.168004608154296875e+01 -1.644895172119140625e+01 1.929319739341735840e+00 -9.236577987670898438e+00 1.154761028289794922e+01 3.383667707443237305e+00 1.586673069000244141e+01 -3.020327091217041016e+00
-1.283191299438476562e+01 1.122287034988403320e+00 8.949092864990234375e+00 -7.375926017761230469e+00 1.369483661651611328e+01 1.133781337738037109e+01 3.220188140869140625e+00 -5.715878963470458984e+00 2.139114952087402344e+01 -9.284655570983886719e+00
3.066889524459838867e+00 -4.599100112915039062e+00 -7.891912460327148438e+00 -3.391714477539062500e+01 1.587502002716064453e+00 -5.491380691528320312e+00 2.413660240173339844e+01 8.466819763183593750e+00 5.948079109191894531e+00 1.693829059600830078e+00
9.502327442169189453e-01 -1.385909652709960938e+01 5.017523288726806641e+00 -1.253996562957763672e+01 1.388996601104736328e+00 1.082788467407226562e+01 8.993682265281677246e-01 1.513266277313232422e+01 5.367205142974853516e+00 -6.123771667480468750e+00
4.545546531677246094e+00 -6.843959331512451172e+00 3.403183698654174805e+00 -2.339263153076171875e+01 -7.782837867736816406e+00 -2.461383104324340820e+00 -2.677728176116943359e+00 1.668820190429687500e+01 1.141950511932373047e+01 -2.087095451354980469e+01
-1.758836555480957031e+01 -1.830737686157226562e+01 -1.312539196014404297e+01 -4.714089393615722656e+00 -8.993668556213378906e+00 1.074627113342285156e+01 1.470428586006164551e+00 5.024839401245117188e+00 1.734076309204101562e+01 -9.177261352539062500e+00
-5.433134078979492188e+00 -1.441611480712890625e+01 -2.014675903320312500e+01 -1.322693729400634766e+01 1.677694320678710938e+01 -3.495088219642639160e-01 7.776706695556640625e+00 -6.411442279815673828e+00 1.698818325996398926e+00 -8.402894973754882812e+00
7.679935455322265625e+00 -1.726925659179687500e+01 1.430449604988098145e+00 -2.352177238464355469e+01 1.939820647239685059e+00 8.636546134948730469e+00 1.028524780273437500e+01 5.273815631866455078e+00 -4.919534683227539062e+00 -1.811598205566406250e+01
-2.034303092956542969e+01 -1.372036695480346680e+00 9.946696281433105469e+00 -1.239898395538330078e+01 -1.606542778015136719e+01 8.798636436462402344e+00 1.605708694458007812e+01 2.427252054214477539e+00 7.806356430053710938e+00 -9.307474136352539062e+00
-2.311360740661621094e+01 5.509059429168701172e+00 -6.413820743560791016e+00 -9.600769996643066406e+00 6.265301704406738281e+00 6.834529399871826172e+00 1.237567138671875000e+01 -5.872024536132812500e+00 1.725371170043945312e+01 -4.798996448516845703e+00
1.447376489639282227e+00 -1.050846195220947266e+01 4.864216804504394531e+00 -8.175997734069824219e+00 -1.252158832550048828e+01 -1.318911790847778320e+00 2.355957984924316406e+00 1.830183410644531250e+01 1.232844734191894531e+01 -9.615976333618164062e+00
-4.939511775970458984e+00 -1.267421531677246094e+01 2.320647478103637695e+00 -1.518622016906738281e+01 2.960809135437011719e+01 -6.447338581085205078e+00 6.236210346221923828e+00 6.100162982940673828e+00 4.978282928466796875e+00 -1.119332122802734375e+01
-7.757475852966308594e+00 -9.817497253417968750e+00 -1.211470890045166016e+01 -9.943326950073242188e+00 1.742988228797912598e+00 5.190882682800292969e+00 1.325468444824218750e+01 6.870498657226562500e+00 -1.333150672912597656e+01 4.375426292419433594e+00
-2.047084045410156250e+01 -2.263639259338378906e+01 9.991299629211425781e+00 -1.770837211608886719e+01 8.249845504760742188e+00 3.250712394714355469e+00 1.022311878204345703e+01 -2.415169715881347656e+00 -6.043268680572509766e+00 -2.541819572448730469e+00
-1.694477844238281250e+01 -9.587381362915039062e+00 -1.854416656494140625e+01 -2.278769874572753906e+01 -6.067533493041992188e+00 1.157471561431884766e+01 1.687972187995910645e+00 1.016204738616943359e+01 1.324251747131347656e+01 -1.617415046691894531e+01
3.322030782699584961e+00 -1.277847766876220703e+01 -4.973927497863769531e+00 -2.843440246582031250e+01 1.206479740142822266e+01 6.492924690246582031e+00 6.969713211059570312e+00 2.580010175704956055e+00 -7.886837959289550781e+00 -5.384273529052734375e+00
-1.117406749725341797e+01 -1.651028633117675781e+00 2.710884809494018555e+00 -4.896529912948608398e-01 -1.096228313446044922e+01 -1.175187206268310547e+01 2.069665718078613281e+01 -2.669221878051757812e+00 -3.155636310577392578e+00 -1.879416847229003906e+01
9.603361487388610840e-01 -4.343358039855957031e+00 8.681537628173828125e+00 -1.662035369873046875e+01 -8.128993034362792969e+00 9.160372734069824219e+00 1.893245887756347656e+01 -1.280052757263183594e+01 1.652540969848632812e+01 -6.085868358612060547e+00
9.661787152290344238e-01 -1.593358516693115234e+01 1.682502865791320801e+00 -1.248775291442871094e+01 8.244683265686035156e+00 9.900079727172851562e+00 1.943430519104003906e+01 -8.153872489929199219e+00 -3.377051353454589844e+00 -1.590592384338378906e+01
-1.558629894256591797e+01 -1.304331207275390625e+01 -8.435185432434082031e+00 6.258656382560729980e-01 1.368224859237670898e+00 9.082578659057617188e+00 1.666445350646972656e+01 1.362073707580566406e+01 7.988791942596435547e+00 -1.201968288421630859e+01
-1.327305507659912109e+01 1.211633872985839844e+01 -1.287906360626220703e+01 -1.640069198608398438e+01 8.153360366821289062e+00 2.403822660446166992e+00 1.827212715148925781e+01 -1.663227319717407227e+00 3.546705245971679688e+00 -1.614857482910156250e+01
-1.363765716552734375e+01 -2.854642677307128906e+01 4.340856552124023438e+00 -1.730604553222656250e+01 1.140459918975830078e+01 4.135242938995361328e+00 1.271731185913085938e+01 6.735306978225708008e-01 -6.253211021423339844e+00 -6.732425689697265625e+00
-1.340870738029479980e+00 -1.453508281707763672e+01 -1.508936023712158203e+01 -3.255609512329101562e+01 6.513520240783691406e+00 1.794857501983642578e+00 2.510309457778930664e+00 -8.282566070556640625e-01 1.869681358337402344e+00 -5.166187286376953125e+00
-9.415869712829589844e+00 -1.243719673156738281e+01 -9.802215576171875000e+00 -9.161338806152343750e+00 -1.208627605438232422e+01 -1.739964246749877930e+00 2.228292846679687500e+01 -8.389747619628906250e+00 1.756724929809570312e+01 -7.113664150238037109e+00
-1.318129825592041016e+01 -1.862241554260253906e+01 -1.377412319183349609e+01 -1.119540023803710938e+01 -4.853738307952880859e+00 -1.542557621002197266e+01 1.334158420562744141e+01 2.115905952453613281e+01 -2.363507032394409180e+00 -2.198853969573974609e+00
-2.108416080474853516e+00 -7.727058887481689453e+00 -1.608848762512207031e+01 -2.898305654525756836e+00 9.017521858215332031e+00 -1.119270920753479004e-01 2.145336341857910156e+01 -4.246788024902343750e+00 1.457030200958251953e+01 -1.805973815917968750e+01
3.206893205642700195e+00 -1.316751956939697266e+01 8.262037038803100586e-01 -5.666093826293945312e+00 8.990694999694824219e+00 -4.419147014617919922e+00 2.171039390563964844e+01 -1.160531425476074219e+01 -9.931731224060058594e+00 -2.284601020812988281e+01
-1.050505733489990234e+01 -6.987466812133789062e+00 -1.698860406875610352e+00 -1.023312568664550781e+01 -1.677655029296875000e+01 1.205844402313232422e+01 2.450242996215820312e+01 1.401929283142089844e+01 -1.954924583435058594e+01 -1.171598625183105469e+01
-5.008899211883544922e+00 -6.976301670074462891e+00 -5.998924732208251953e+00 -2.515544319152832031e+01 1.172384548187255859e+01 1.708771896362304688e+01 9.029617309570312500e+00 -6.843411445617675781e+00 1.247435927391052246e+00 -5.661248207092285156e+00
-1.081642055511474609e+01 8.180337548255920410e-01 4.071360111236572266e+00 -1.916944503784179688e+01 -8.953322410583496094e+00 1.091189479827880859e+01 1.800599479675292969e+01 -4.292911529541015625e+00 -7.695362091064453125e+00 -2.181102561950683594e+01
1.337578105926513672e+01 2.872098922729492188e+00 -2.018937110900878906e+01 -2.406675720214843750e+01 -1.066001129150390625e+01 -1.235074901580810547e+01 -1.364460468292236328e+01 2.376441478729248047e+00 6.688010096549987793e-01 1.418576145172119141e+01
-2.467053413391113281e+00 6.397802829742431641e+00 -1.612931442260742188e+01 1.193261623382568359e+00 -1.573295497894287109e+01 1.618499279022216797e+00 3.116417407989501953e+00 -2.673741722106933594e+01 4.690079689025878906e+00 1.934927558898925781e+01
1.193941974639892578e+01 -7.661486625671386719e+00 -2.663006210327148438e+01 -1.128375530242919922e+01 -1.452056789398193359e+01 1.568337726593017578e+01 -6.690502166748046875e+00 1.950559377670288086e+00 1.659179687500000000e+01 -3.876040697097778320e+00
1.289416313171386719e+01 -9.522015571594238281e+00 -1.242728614807128906e+01 4.611748695373535156e+00 -8.650541305541992188e+00 -4.601708889007568359e+00 -1.612792205810546875e+01 9.026669502258300781e+00 -2.181542634963989258e+00 1.624598693847656250e+01
4.159862041473388672e+00 8.566002845764160156e+00 -1.455187892913818359e+01 -9.660065650939941406e+00 -2.517204093933105469e+01 1.520004463195800781e+01 -6.828222274780273438e+00 9.577955245971679688e+00 6.834351062774658203e+00 -7.851436614990234375e+00
1.474009704589843750e+01 1.874305152893066406e+01 -6.812334537506103516e+00 -1.342808818817138672e+01 -2.085492134094238281e+01 7.012127399444580078e+00 -1.547247982025146484e+01 -9.535923004150390625e+00 4.523869037628173828e+00 2.778895378112792969e+00
5.588432312011718750e+00 -8.999437332153320312e+00 -1.508019638061523438e+01 1.450649023056030273e+00 -1.694147491455078125e+01 8.230602264404296875e+00 -1.149717521667480469e+01 -2.134943962097167969e+01 1.446189117431640625e+01 5.184965133666992188e+00
-6.058813571929931641e+00 2.488818168640136719e+00 -1.836778640747070312e+01 -1.348700523376464844e+00 4.485531806945800781e+00 1.127520203590393066e-01 6.502483487129211426e-01 -1.335447692871093750e+01 2.203926277160644531e+01 1.589333343505859375e+01
3.234563827514648438e+00 2.983349561691284180e+00 -3.788583374023437500e+01 -1.196220016479492188e+01 7.823581695556640625e-01 4.698788166046142578e+00 -1.308842468261718750e+01 -5.437441349029541016e+00 8.679499030113220215e-01 1.322133731842041016e+01
6.256004810333251953e+00 5.476549148559570312e+00 -4.874152183532714844e+00 5.204155921936035156e+00 -3.156691169738769531e+01 3.481461405754089355e-01 8.361204147338867188e+00 6.966148018836975098e-01 4.180363714694976807e-01 1.469986152648925781e+01
6.755074501037597656e+00 -6.632815599441528320e-01 -7.326333999633789062e+00 -6.163028717041015625e+00 -2.398075103759765625e+01 -1.490587425231933594e+01 9.230064392089843750e+00 -1.903405189514160156e+01 1.258061122894287109e+01 1.932822608947753906e+01
-1.238044357299804688e+01 -1.350577354431152344e+00 -8.119647026062011719e+00 -3.614825248718261719e+00 -1.732229614257812500e+01 5.534863948822021484e+00 -1.029093456268310547e+01 -9.469023346900939941e-01 2.598589134216308594e+01 8.230597496032714844e+00
8.462875366210937500e+00 -5.139007568359375000e-01 -2.464321327209472656e+01 -2.255177021026611328e+00 -1.865080261230468750e+01 1.111065101623535156e+01 -1.860225677490234375e+00 1.769437789916992188e+00 -1.943454933166503906e+01 4.454715728759765625e+00
4.032987594604492188e+00 -1.386476802825927734e+01 -2.369676208496093750e+01 -1.953077316284179688e+01 4.146508574485778809e-01 -8.285828590393066406e+00 -2.497900247573852539e+00 -4.888774394989013672e+00 -9.756568670272827148e-01 2.495058059692382812e+01
3.973472356796264648e+00 -3.783923625946044922e+00 -6.055100917816162109e+00 -1.141787910461425781e+01 -1.111334323883056641e+00 4.361953258514404297e+00 -2.410317039489746094e+01 -1.251199483871459961e+00 1.116947269439697266e+01 1.118374538421630859e+01
1.220997524261474609e+01 -6.529797077178955078e+00 -3.101119613647460938e+01 -4.862056255340576172e+00 -2.641542434692382812e+00 9.782256126403808594e+00 -1.147557067871093750e+01 -5.202743530273437500e+00 1.939977407455444336e+00 -1.974468350410461426e+00
1.495820236206054688e+01 -1.985241651535034180e+00 -1.788175964355468750e+01 -6.850842475891113281e+00 -1.660693049430847168e+00 -1.013883590698242188e+01 4.847428798675537109e+00 -1.835045623779296875e+01 9.744937896728515625e+00 2.004105186462402344e+01
1.203408241271972656e+01 5.924140930175781250e+00 -1.094553232192993164e+00 -6.998502731323242188e+00 -2.899236869812011719e+01 6.631703853607177734e+00 -1.251441860198974609e+01 -9.337631225585937500e+00 1.140634417533874512e+00 1.592723560333251953e+01
9.375598907470703125e+00 2.045448303222656250e+00 -2.116446304321289062e+01 4.163340568542480469e+00 -9.337651252746582031e+00 -9.449995994567871094e+00 6.511829853057861328e+00 -9.787564277648925781e+00 -7.667250156402587891e+00 4.460719227790832520e-01
1.300614356994628906e+01 -1.135804057121276855e+00 -1.262152957916259766e+01 -1.631165313720703125e+01 -9.747287750244140625e+00 1.394496059417724609e+01 -1.281979179382324219e+01 -1.034253501892089844e+01 -1.291972541809082031e+01 5.167932987213134766e+00
-2.796150684356689453e+00 -2.510180950164794922e+00 -1.774529838562011719e+01 6.820071697235107422e+00 -8.628458023071289062e+00 2.326152229309082031e+01 -1.439979553222656250e+01 2.187806129455566406e+00 -7.432518482208251953e+00 1.041696739196777344e+01
1.088524699211120605e+00 3.464259147644042969e+00 -3.248699903488159180e+00 -2.743992805480957031e+01 -1.265319633483886719e+01 8.797712326049804688e+00 -1.247794246673583984e+01 -2.454351234436035156e+01 3.526585817337036133e+00 -3.516608238220214844e+00
2.634923696517944336e+00 1.523659610748291016e+01 -1.479803180694580078e+01 -1.111251926422119141e+01 -2.316363143920898438e+01 1.159819889068603516e+01 -3.186718940734863281e+00 -7.168850898742675781e-01 -1.104985141754150391e+01 1.941788864135742188e+01
2.724657580256462097e-02 -9.073098182678222656e+00 -2.738909530639648438e+01 -5.629483699798583984e+00 -1.686419105529785156e+01 2.291392236948013306e-01 -9.437753677368164062e+00 1.152228450775146484e+01 -1.950882339477539062e+01 1.388249397277832031e+01
9.114985466003417969e+00 -1.796214675903320312e+01 -1.238598155975341797e+01 -1.341374111175537109e+01 -1.275271987915039062e+01 9.238865852355957031e+00 -5.343952655792236328e+00 -8.799706459045410156e+00 -1.291462326049804688e+01 2.051386451721191406e+01
1.016532611846923828e+01 6.542831420898437500e+00 -2.110648345947265625e+01 1.217600345611572266e+00 -2.355702209472656250e+01 -6.176628589630126953e+00 -2.392136096954345703e+00 -3.999140262603759766e+00 1.131824970245361328e+01 3.219682872295379639e-01
1.094684696197509766e+01 -5.764750957489013672e+00 -1.963527870178222656e+01 -1.270331192016601562e+01 -1.062645149230957031e+01 6.981686115264892578e+00 -5.954596996307373047e+00 -1.446847724914550781e+01 1.378503704071044922e+01 -9.738467335700988770e-01
-5.322771072387695312e+00 6.262971401214599609e+00 -7.596396923065185547e+00 -1.624726104736328125e+01 -3.025181007385253906e+01 -2.539351463317871094e+00 -1.864408302307128906e+01 -1.035765361785888672e+01 1.056810474395751953e+01 6.243841648101806641e+00
-2.786392688751220703e+00 -7.217270731925964355e-01 -2.148777770996093750e+01 -7.482494831085205078e+00 -9.450889587402343750e+00 -1.134053766727447510e-01 -4.492698192596435547e+00 1.511539363861083984e+01 9.005477905273437500e+00 2.145648956298828125e+01
8.206836700439453125e+00 -1.045447826385498047e+01 -2.458567857742309570e+00 -1.401698207855224609e+01 -5.497226715087890625e+00 8.536508679389953613e-01 -5.513253211975097656e+00 4.245643615722656250e+00 1.126076316833496094e+01 2.180473136901855469e+01
2.046877288818359375e+01 2.605844497680664062e+00 -1.003531742095947266e+01 -1.520786762237548828e+00 -6.663806915283203125e+00 6.081373691558837891e+00 -1.960835456848144531e+01 -8.658208847045898438e+00 -6.560136795043945312e+00 1.826210737228393555e+00
1.059799385070800781e+01 1.160924434661865234e+01 -8.317402839660644531e+00 -2.460528373718261719e+01 -1.129279518127441406e+01 7.685143947601318359e+00 7.133761882781982422e+00 -5.423122406005859375e+00 2.962954044342041016e+00 1.097149181365966797e+01
-1.379255580902099609e+01 7.513926029205322266e+00 -1.848352050781250000e+01 -9.823222160339355469e+00 -1.888219451904296875e+01 1.457856845855712891e+01 -8.704579353332519531e+00 -5.178309440612792969e+00 5.523249149322509766e+00 1.541885662078857422e+01
2.641253709793090820e+00 3.835331439971923828e+00 -4.093987655639648438e+01 6.835856914520263672e+00 -3.914519071578979492e+00 8.771026611328125000e+00 -6.663772583007812500e+00 -1.174203872680664062e+01 -1.409847831726074219e+01 8.224278450012207031e+00
-5.119838714599609375e+00 -8.613442420959472656e+00 -1.698409843444824219e+01 -3.612542390823364258e+00 -2.904258537292480469e+01 1.512053680419921875e+01 4.209100246429443359e+00 -5.910929679870605469e+00 1.252770996093750000e+01 9.745203971862792969e+00
2.140050888061523438e+01 1.789788603782653809e+00 -6.471565723419189453e+00 -3.467920780181884766e+00 -2.559755897521972656e+01 1.761625671386718750e+01 -1.676684856414794922e+00 -1.346062278747558594e+01 -1.694105625152587891e+00 1.670301437377929688e+00
4.897814750671386719e+00 1.278495883941650391e+01 -1.060117626190185547e+01 -2.164487838745117188e+01 -1.054336833953857422e+01 3.770063638687133789e+00 -4.429499149322509766e+00 -1.431092739105224609e+01 1.146512627601623535e+00 1.187058544158935547e+01
1.880919933319091797e+00 9.564738273620605469e+00 -1.833215904235839844e+01 -2.234128475189208984e+00 2.197206497192382812e+00 2.012796211242675781e+01 -1.780871963500976562e+01 -1.726700901985168457e+00 -4.196301937103271484e+00 1.506484031677246094e+00
1.365261745452880859e+01 1.245558929443359375e+01 -1.620363235473632812e+01 2.460959911346435547e+00 -2.772925949096679688e+01 -4.561291694641113281e+00 -5.540816307067871094e+00 1.673112511634826660e+00 4.428638458251953125e+00 5.727743625640869141e+00
-2.368016481399536133e+00 4.203026294708251953e+00 -2.346525764465332031e+01 -1.081925153732299805e+00 -1.533720493316650391e+01 -8.460126876831054688e+00 -1.616064643859863281e+01 -7.558336853981018066e-01 1.487694644927978516e+01 5.673447608947753906e+00
-1.168448925018310547e+01 -4.633941650390625000e+00 2.653378009796142578e+00 -2.422576332092285156e+01 1.621809768676757812e+01 -1.375132083892822266e+01 -4.541565418243408203e+00 -8.290228843688964844e+00 -1.315620064735412598e+00 1.581134891510009766e+01
-3.784737348556518555e+00 -1.276983261108398438e+01 1.749447441101074219e+01 -1.594134998321533203e+01 2.841220140457153320e+00 -1.264942836761474609e+01 -5.366568088531494141e+00 -6.997733592987060547e+00 -1.821070671081542969e+01 1.765229988098144531e+01
-1.077860355377197266e+01 -4.288053989410400391e+00 8.500870704650878906e+00 -1.594008159637451172e+01 2.193885326385498047e+00 4.188674926757812500e+00 -8.098576545715332031e+00 4.645487308502197266e+00 -2.035294151306152344e+01 1.962564086914062500e+01
3.044094324111938477e+00 -1.455551981925964355e+00 1.594230461120605469e+01 -1.850836753845214844e+01 7.534154415130615234e+00 6.599928379058837891e+00 -1.403661727905273438e+01 -8.737092018127441406e+00 -2.266383743286132812e+01 -6.382460594177246094e-01
-9.003564834594726562e+00 2.379304122924804688e+01 -7.903632164001464844e+00 -2.363753557205200195e+00 1.137428188323974609e+01 -1.861715698242187500e+01 2.495637893676757812e+00 -2.230198478698730469e+01 -1.812237548828125000e+01 -4.035128116607666016e+00
-1.253308200836181641e+01 8.660308837890625000e+00 1.761364555358886719e+01 -1.320307254791259766e+01 3.404227018356323242e+00 -2.097853660583496094e+00 -1.673475456237792969e+01 1.188727664947509766e+01 -1.226003170013427734e+01 4.222534179687500000e+00
-2.906054735183715820e+00 1.060539722442626953e+01 1.232227420806884766e+01 -2.299017715454101562e+01 -5.237058162689208984e+00 -2.461938667297363281e+01 7.618628978729248047e+00 5.399848461151123047e+00 -1.416154193878173828e+01 6.537299633026123047e+00
-2.557729370892047882e-02 -6.000607490539550781e+00 1.367436790466308594e+01 -7.682013988494873047e+00 2.191242218017578125e+00 -2.819689941406250000e+01 -3.442041635513305664e+00 -9.057997703552246094e+00 -1.107680892944335938e+01 1.330713367462158203e+01
-1.826759338378906250e+01 1.741084098815917969e+01 3.259202718734741211e+00 -2.591525840759277344e+01 3.100633144378662109e+00 -4.732625558972358704e-03 -1.067017078399658203e+01 9.723981857299804688e+00 -1.069790267944335938e+01 3.827710866928100586e+00
-4.539227962493896484e+00 2.183217430114746094e+01 -5.267509818077087402e-01 1.179397296905517578e+01 5.062317848205566406e+00 -1.576957130432128906e+01 3.932361602783203125e+00 -8.214179992675781250e+00 -3.242657089233398438e+01 7.355075359344482422e+00
-1.247005081176757812e+01 2.989611864089965820e+00 1.475371456146240234e+01 -2.077144861221313477e+00 -8.404234886169433594e+00 -4.771557807922363281e+00 -5.544074058532714844e+00 -1.050642681121826172e+01 -2.944126510620117188e+01 1.672108650207519531e+01
-3.949336111545562744e-01 5.980000972747802734e+00 4.249900817871093750e+00 -2.170958518981933594e+01 -5.531168460845947266e+00 -2.359923362731933594e+00 -2.615215492248535156e+01 1.864865869283676147e-01 -2.270962715148925781e+01 1.433956527709960938e+01
-8.861650466918945312e+00 1.400107669830322266e+01 3.660216569900512695e+00 -2.341884422302246094e+01 5.193274021148681641e+00 -1.712920379638671875e+01 3.058918952941894531e+00 -4.809391975402832031e+00 5.133598327636718750e+00 1.634533119201660156e+01
-1.474201297760009766e+01 1.183880519866943359e+01 1.150309276580810547e+01 -8.077386856079101562e+00 -8.759150505065917969e+00 5.640336513519287109e+00 2.382355451583862305e+00 -3.284962177276611328e+00 -2.544792938232421875e+01 1.687658500671386719e+01
-1.935983061790466309e+00 1.831237030029296875e+01 -4.662631511688232422e+00 -1.743616867065429688e+01 1.544763946533203125e+01 -1.505565643310546875e+01 -5.639289319515228271e-02 7.703796863555908203e+00 -1.717941474914550781e+01 5.745454311370849609e+00
-5.409095764160156250e+00 1.305414295196533203e+01 6.107307434082031250e+00 -6.372174739837646484e+00 1.367447566986083984e+01 -9.234682083129882812e+00 -9.164652824401855469e+00 -1.200138473510742188e+01 -2.941679000854492188e+01 -1.267259240150451660e+00
-2.555175781250000000e+00 1.091909313201904297e+01 5.741613864898681641e+00 -5.269129753112792969e+00 3.728819847106933594e+00 -7.641031265258789062e+00 -1.597964286804199219e+01 8.166394233703613281e+00 -2.883078956604003906e+01 6.267891407012939453e+00
-7.356964588165283203e+00 2.276241779327392578e+00 1.195302456617355347e-01 -2.559123039245605469e+01 -2.320068597793579102e+00 -1.563097572326660156e+01 -1.797984504699707031e+01 6.197238445281982422e+00 -5.837578296661376953e+00 7.343432426452636719e+00
-1.600445508956909180e+00 9.545287132263183594e+00 1.914705276489257812e+01 -1.244295978546142578e+01 -8.768046379089355469e+00 -1.055087327957153320e+00 3.246708154678344727e+00 9.269401550292968750e+00 -1.350569152832031250e+01 4.836125373840332031e+00
-4.057754039764404297e+00 1.010153388977050781e+01 7.296085834503173828e+00 4.687666416168212891e+00 -2.207112550735473633e+00 -2.085085868835449219e+01 -9.475199699401855469e+00 -4.130606651306152344e+00 -4.858190536499023438e+00 2.714784431457519531e+01
-1.307002925872802734e+01 9.945547103881835938e+00 1.457409191131591797e+01 4.080414772033691406e+00 -5.694773197174072266e+00 -1.820978927612304688e+01 1.143999862670898438e+01 -4.689040184020996094e+00 -2.011776351928710938e+01 4.990133285522460938e+00
-2.675107240676879883e+00 7.209594249725341797e+00 2.735638236999511719e+01 -8.586643218994140625e+00 6.802772521972656250e+00 1.826927065849304199e+00 -3.537172079086303711e+00 -1.481157302856445312e+01 -1.829818153381347656e+01 -4.917046070098876953e+00
3.002852916717529297e+00 1.483774304389953613e+00 2.592133760452270508e+00 -2.939204406738281250e+01 1.089453601837158203e+01 -1.312485694885253906e+01 1.232076549530029297e+01 -4.286982119083404541e-01 -2.318549919128417969e+01 1.933389282226562500e+01
-1.481589889526367188e+01 8.999510765075683594e+00 3.895481348037719727e+00 -1.027733993530273438e+01 2.233885192871093750e+01 -4.859619617462158203e+00 -2.240338325500488281e-01 -1.428541564941406250e+01 -8.285497665405273438e+00 1.100598049163818359e+01
-2.499060821533203125e+01 -8.437759399414062500e+00 1.373307418823242188e+01 -4.514184951782226562e+00 1.941733479499816895e+00 -2.340523529052734375e+01 -8.649149894714355469e+00 7.677734851837158203e+00 -1.381965065002441406e+01 -6.816325187683105469e+00
-2.024938201904296875e+01 1.489601135253906250e+01 -1.104835605621337891e+01 -5.325703620910644531e+00 1.124465179443359375e+01 -1.055620574951171875e+01 4.694970130920410156e+00 -2.511193275451660156e+00 -1.080930995941162109e+01 2.002593612670898438e+01
2.522981643676757812e+00 -4.529932022094726562e+00 1.268748760223388672e+01 -6.591523647308349609e+00 4.288733959197998047e+00 -1.719425964355468750e+01 -2.310420227050781250e+01 -1.970274329185485840e+00 -5.101591110229492188e+00 1.494975566864013672e+01
-2.110236549377441406e+01 7.789119720458984375e+00 9.086996078491210938e+00 -3.435558557510375977e+00 -9.135147094726562500e+00 -2.802239358425140381e-01 -1.340637683868408203e+01 -4.755074977874755859e+00 -2.411421203613281250e+01 7.311323642730712891e+00
-1.419284701347351074e+00 2.052898597717285156e+01 1.330978775024414062e+01 -1.466511631011962891e+01 2.281173169612884521e-01 -3.000459671020507812e+01 -9.667529106140136719e+00 -9.833223342895507812e+00 -3.680116176605224609e+00 7.789126873016357422e+00
-1.882749366760253906e+01 -9.388497352600097656e+00 2.150702857971191406e+01 -7.768353462219238281e+00 5.268935680389404297e+00 -1.495688819885253906e+01 7.948917388916015625e+00 2.886027336120605469e+00 -2.405512619018554688e+01 4.312638282775878906e+00
-3.356001377105712891e+00 3.498425245285034180e+00 6.204243183135986328e+00 -1.025707530975341797e+01 1.859522438049316406e+01 -9.299167633056640625e+00 -7.395324707031250000e+00 -7.534013271331787109e+00 -9.633532524108886719e+00 2.136900520324707031e+01
-1.253388023376464844e+01 8.891407966613769531e+00 1.178671169281005859e+01 -8.584389686584472656e-01 1.147686958312988281e+01 -1.447562980651855469e+01 -2.450947380065917969e+01 5.374556541442871094e+00 -2.226705551147460938e+01 5.672727108001708984e+00
-1.431634044647216797e+01 5.182682991027832031e+00 1.676611065864562988e+00 -5.199240207672119141e+00 1.502297115325927734e+01 -1.738137817382812500e+01 4.209164142608642578e+00 7.927134513854980469e+00 -6.271456718444824219e+00 1.411166667938232422e+01
-6.297966957092285156e+00 1.814333534240722656e+01 2.612025260925292969e+00 -2.234992408752441406e+01 -4.623805046081542969e+00 -4.048253059387207031e+00 6.820497989654541016e+00 2.349766254425048828e+00 -2.102533721923828125e+01 -8.302687644958496094e+00
-2.728932380676269531e+01 -2.157730102539062500e+00 9.405241012573242188e+00 -1.615727806091308594e+01 1.114039039611816406e+01 -9.860057830810546875e+00 -1.720283627510070801e+00 3.658980131149291992e+00 -7.023756027221679688e+00 2.091665744781494141e+00
-1.658304786682128906e+01 1.082682514190673828e+01 2.333614921569824219e+01 -1.139526557922363281e+01 6.443654060363769531e+00 1.055993288755416870e-01 -4.442853927612304688e+00 -1.061768627166748047e+01 3.886990308761596680e+00 8.014796257019042969e+00
2.918863534927368164e+00 1.420462131500244141e+01 4.958425998687744141e+00 -2.648425674438476562e+01 -1.514270544052124023e+00 -8.535057067871093750e+00 4.086441993713378906e+00 -1.209143829345703125e+01 -1.570179462432861328e+01 1.374586677551269531e+01
-6.726267814636230469e+00 9.062693595886230469e+00 -6.432390213012695312e+00 2.228918790817260742e+00 1.953984260559082031e+00 -3.341514587402343750e+00 -4.940642356872558594e+00 8.451591491699218750e+00 -3.250261306762695312e+01 1.006830692291259766e+01
-1.733657455444335938e+01 1.179685115814208984e+00 5.098352432250976562e-01 -3.339237689971923828e+00 5.076603889465332031e+00 -1.675618171691894531e+01 2.458958864212036133e+00 -1.427908992767333984e+01 -7.606993675231933594e+00 2.680441474914550781e+01
-3.223923873901367188e+01 5.858097553253173828e+00 4.531934738159179688e+00 -1.557712674140930176e+00 5.237313747406005859e+00 -3.417404651641845703e+00 -2.007751226425170898e+00 9.398162841796875000e+00 -8.256876945495605469e+00 1.241659045219421387e+00
