4.548305511474609375e+00 -6.816027760505676270e-01 -9.417729079723358154e-02 1.802371144294738770e+00 7.845268845558166504e-01 2.372624397277832031e+00 -4.324403703212738037e-01 4.294215679168701172e+00 5.736633300781250000e+00 6.162351608276367188e+00 3.306861877441406250e+00 6.138838768005371094e+00 1.310589075088500977e+00 5.785128593444824219e+00 6.807779312133789062e+00 2.639856338500976562e-01 -6.988901495933532715e-01 5.926994323730468750e+00 -7.808485627174377441e-01 1.402870774269104004e+00 6.438442230224609375e+00 5.417705774307250977e-01 2.486480474472045898e-01 6.074367523193359375e+00 3.988727331161499023e+00 6.487464308738708496e-01 1.300274848937988281e+00 8.877091407775878906e-01 -3.217779695987701416e-01 3.596132993698120117e+00 6.111777782440185547e+00 1.547518134117126465e+00 5.064465045928955078e+00 9.443780183792114258e-01 5.610839366912841797e+00 -6.496340036392211914e-01 -6.344891190528869629e-01 1.576193571090698242e+00 9.671164304018020630e-02 -3.824875652790069580e-01 -7.233221530914306641e-01 5.172343254089355469e+00 -1.271224617958068848e+00 -7.343383312225341797e+00 -1.396512627601623535e+00 -7.628612518310546875e-01 -2.719444274902343750e+00 4.870751380920410156e+00 -1.300437927246093750e+00 8.350580334663391113e-01 -1.262509703636169434e+00 5.987398147583007812e+00 4.982033729553222656e+00 -1.679746508598327637e+00 1.383587718009948730e+00 -1.208842277526855469e+00 -2.651966214179992676e-01 -4.892211914062500000e+00 6.959602832794189453e-01 -1.149488449096679688e+00 -3.450926303863525391e+00 1.235005483031272888e-01 -9.147199988365173340e-02 -1.212715983390808105e+00 -4.067466735839843750e+00 -3.409946262836456299e-01 8.575068116188049316e-01 1.249840974807739258e+00 -6.493866443634033203e+00 -1.234871268272399902e+00 1.170965313911437988e+00 -2.365970611572265625e+00 -1.334589481353759766e+00 -7.948471903800964355e-01 -5.659469962120056152e-01 -6.897577047348022461e-01 -3.072009682655334473e-01 -1.318687081336975098e+00 1.311204880475997925e-01 6.603487767279148102e-03 -3.611504137516021729e-01 4.561608791351318359e+00 -3.074920475482940674e-01 -2.046145051717758179e-01 -6.024360060691833496e-01 -2.827701270580291748e-01 -1.555018663406372070e+00 -4.480099201202392578e+00 -3.058428764343261719e+00 -2.794277667999267578e-01 -1.294002413749694824e+00 -1.840652465820312500e+00 -5.371905326843261719e+00 5.633181333541870117e-01 -8.203969597816467285e-01 1.383028388023376465e+00 -3.048537969589233398e-01 6.262111663818359375e+00 3.265149295330047607e-01 -5.969353318214416504e-01 -4.105534553527832031e+00 2.018484622240066528e-01 1.443421602249145508e+00 -1.425374984741210938e+00 -1.630029559135437012e+00 -2.182653903961181641e+00 -1.370174765586853027e+00 5.151989459991455078e+00 -8.368896842002868652e-01 1.370849847793579102e+00 1.997157931327819824e-02 -1.475167512893676758e+00 -2.151766270399093628e-01 -9.778507947921752930e-01 -6.168561458587646484e+00 5.667076110839843750e-01 8.817315101623535156e-02 -1.833685040473937988e-01 -2.220431804656982422e+00 -8.857253789901733398e-01 -3.984523937106132507e-02 1.699280381202697754e+00 -4.422785341739654541e-01 8.065166473388671875e-01 1.117988944053649902e+00 6.425167560577392578e+00 9.203818440437316895e-01 6.600062370300292969e+00 4.279218018054962158e-01 2.925089120864868164e+00 1.056938052177429199e+00 7.053383827209472656e+00 5.180225372314453125e+00 4.898691773414611816e-01 5.106186389923095703e+00 2.105115413665771484e+00 -3.248250961303710938e+00 7.427681684494018555e-01 4.812659263610839844e+00 2.016837358474731445e+00 4.823313653469085693e-01 3.278927564620971680e+00 6.370841264724731445e-01 -4.642429053783416748e-01 6.748228073120117188e+00 5.541819572448730469e+00 5.947445631027221680e-01 2.302155494689941406e+00 -6.202314496040344238e-01 5.059533596038818359e+00 7.532913088798522949e-01 3.575665235519409180e+00 -9.739155769348144531e-01 5.355968475341796875e-01 5.614674568176269531e+00 1.183600068092346191e+00 6.029136180877685547e-01 -1.012250408530235291e-01 1.093965649604797363e+00 3.322830796241760254e-01 -6.179468154907226562e+00 -7.070686817169189453e-01 -6.800135970115661621e-02 -5.880834579467773438e+00 -1.084933161735534668e+00 -3.695412635803222656e+00 -2.650226831436157227e+00 -1.040948510169982910e+00 -5.434071063995361328e+00 -1.279522061347961426e+00 1.073879361152648926e+00 -3.526389598846435547e+00 -7.186724185943603516e+00 -7.207128047943115234e+00 -7.540724754333496094e+00 -2.643371522426605225e-01 -1.352827906608581543e+00 -7.153586387634277344e+00 -2.264050245285034180e+00 -6.298155307769775391e+00 -1.929025888442993164e+00 -5.260061264038085938e+00 -3.671010017395019531e+00 3.540855348110198975e-01 -7.647221684455871582e-01 -4.907626628875732422e+00 -6.923106193542480469e+00 -2.031548976898193359e+00 -3.419260025024414062e+00 -6.413556098937988281e+00 -1.111236572265625000e+00 -4.128497600555419922e+00 -5.937067270278930664e-01 -1.759564280509948730e+00 -1.477653503417968750e+00 -1.078587055206298828e+00 -2.379151821136474609e+00 -7.030869960784912109e+00 -5.664640426635742188e+00 -3.653908729553222656e+00
-1.756235003471374512e+00 -8.130939483642578125e+00 -6.547382831573486328e+00 -2.221958398818969727e+00 -1.543489456176757812e+00 -2.459009587764739990e-01 -4.426147937774658203e+00 -5.122477531433105469e+00 -6.828029155731201172e+00 -7.803378582000732422e+00 -1.613209724426269531e+00 -3.257900476455688477e+00 -8.116024971008300781e+00 -2.482120752334594727e+00 -7.321314334869384766e+00 -2.286487340927124023e+00 -2.607795238494873047e+00 -6.837107181549072266e+00 -2.098446846008300781e+00 -2.690506696701049805e+00 -1.453136503696441650e-01 -7.696704387664794922e+00 -2.217864036560058594e+00 -1.627422928810119629e+00 -6.838502883911132812e+00 -4.202075958251953125e+00 -8.084261894226074219e+00 -4.707731723785400391e+00 -1.154248952865600586e+00 -1.208655953407287598e+00 -2.140211582183837891e+00 -2.915232419967651367e+00 -1.886942386627197266e+00 -2.295702457427978516e+00 -2.136048555374145508e+00 -7.595978260040283203e+00 -6.334538936614990234e+00 -4.897747516632080078e+00 -1.246784925460815430e+00 -3.997932434082031250e+00 4.350248813629150391e+00 4.932276725769042969e+00 5.906497478485107422e+00 1.336782932281494141e+00 3.539827885106205940e-03 -3.168002665042877197e-01 1.363517642021179199e+00 6.077258110046386719e+00 5.791378021240234375e+00 6.910095810890197754e-01 1.769086360931396484e+00 1.117690205574035645e+00 1.668337702751159668e+00 9.384381175041198730e-01 1.609512209892272949e+00 -1.463594913482666016e+00 5.966401100158691406e+00 6.112648963928222656e+00 5.748472690582275391e+00 2.200140476226806641e+00 6.010715484619140625e+00 4.329252839088439941e-01 -7.912886142730712891e-01 1.825243473052978516e+00 -8.615040779113769531e-01 2.637153863906860352e+00 9.787826538085937500e-01 5.642558097839355469e+00 6.158001422882080078e+00 3.548269569873809814e-01 6.216161727905273438e+00 1.162700653076171875e+00 6.172713279724121094e+00 6.392131805419921875e+00 -1.247529625892639160e+00 -1.867748200893402100e-01 6.712469458580017090e-01 7.173943519592285156e-01 4.467473030090332031e+00 1.538700222969055176e+00 -1.866648942232131958e-01 -2.008965253829956055e+00 2.342914640903472900e-01 -1.659764289855957031e+00 -3.218858242034912109e+00 -1.963950157165527344e+00 -6.728121042251586914e-01 -1.333217144012451172e+00 -6.117148399353027344e+00 -7.007753849029541016e+00 -3.104975223541259766e+00 -1.439002871513366699e+00 -4.085077762603759766e+00 -3.491349935531616211e+00 -6.321179866790771484e-01 1.721448302268981934e+00 -2.130760192871093750e+00 -1.436108231544494629e+00 -1.864588737487792969e+00 -1.714058279991149902e+00 -8.201098442077636719e-01 -7.007068634033203125e+00 -5.806121230125427246e-01 -2.073068141937255859e+00 2.128872394561767578e+00 -4.155673027038574219e+00 -2.534621000289916992e+00 -2.686342954635620117e+00 -7.282894134521484375e+00 -4.286865234375000000e+00 -3.050503015518188477e+00 -2.235759496688842773e+00 -2.768959760665893555e+00 -2.893115997314453125e+00 -3.268176078796386719e+00 -1.230037212371826172e+00 -8.033338546752929688e+00 -7.001533031463623047e+00 8.716929554939270020e-01 -2.893275737762451172e+00 -8.812199831008911133e-01 3.104390621185302734e+00 -1.632388949394226074e+00 -1.103788018226623535e+00 6.437238693237304688e+00 -4.752539992332458496e-01 -5.133149027824401855e-01 4.332270145416259766e+00 6.671019077301025391e+00 4.411719799041748047e+00 1.880952864885330200e-01 -1.749843358993530273e-01 1.688511610031127930e+00 1.132312417030334473e+00 -1.179728984832763672e+00 2.514721393585205078e+00 9.965035319328308105e-01 6.679449558258056641e+00 4.175590991973876953e+00 -4.032863080501556396e-01 2.658055543899536133e+00 6.598320603370666504e-02 6.471587657928466797e+00 -2.109795361757278442e-01 -6.409578323364257812e-01 6.330371856689453125e+00 1.230508089065551758e+00 6.045885086059570312e-01 1.792127609252929688e+00 2.823242664337158203e+00 -4.283669292926788330e-01 5.383531093597412109e+00 -1.559682846069335938e+00 2.257226556539535522e-01 6.772001739591360092e-03 6.278089284896850586e-01 2.063495397567749023e+00 2.981754243373870850e-01 1.911202907562255859e+00 1.522612094879150391e+00 -5.783059000968933105e-01 2.191242277622222900e-01 6.529069423675537109e+00 2.657831430435180664e+00 2.257526397705078125e+00 2.673656940460205078e+00 -1.922859549522399902e+00 1.856296181678771973e+00 8.200206756591796875e-01 1.455970257520675659e-01 4.181330204010009766e+00 1.441535472869873047e+00 6.283382415771484375e+00 -1.716299176216125488e+00 6.175894737243652344e-01 2.056920289993286133e+00 6.056445598602294922e+00 1.551793932914733887e+00 4.912954330444335938e+00 4.993299484252929688e+00 2.008376359939575195e+00 5.975339412689208984e-01 3.585423946380615234e+00 3.134934306144714355e-01 4.533082008361816406e+00 6.109059810638427734e+00 2.307889223098754883e+00 6.302579402923583984e+00 5.703292846679687500e+00 3.663053750991821289e+00 8.644478321075439453e-01 8.068699240684509277e-01 1.666940569877624512e+00 4.456698596477508545e-01 5.990876674652099609e+00 -1.063800573348999023e+00 1.895727217197418213e-01 2.249696254730224609e+00 -9.225988984107971191e-01 -5.534787178039550781e-01
-7.158858776092529297e+00 2.842645943164825439e-01 -2.391268253326416016e+00 6.290169358253479004e-01 -1.369914054870605469e+00 -2.146715879440307617e+00 1.724751293659210205e-01 4.016977250576019287e-01 2.414411544799804688e+00 2.243412256240844727e+00 -1.666315078735351562e+00 7.444007396697998047e-01 6.917700171470642090e-02 9.774918854236602783e-02 -1.162212371826171875e+00 -1.960246086120605469e+00 1.567459344863891602e+00 2.752726793289184570e+00 -3.103446722030639648e+00 3.458739817142486572e-01 -9.749822020530700684e-01 -3.022889792919158936e-01 -3.363107144832611084e-01 -4.594067096710205078e+00 -1.213910877704620361e-01 1.496365547180175781e+00 -3.571266531944274902e-01 -2.835110127925872803e-01 6.377475261688232422e-01 5.785888195037841797e+00 5.462758541107177734e-01 -5.443139553070068359e+00 -1.131513118743896484e+00 -2.154199361801147461e+00 -1.114041209220886230e+00 -8.104060590267181396e-02 1.556851416826248169e-01 -3.105261921882629395e-01 -6.603091716766357422e+00 -3.479790210723876953e+00 2.187673091888427734e+00 9.122540354728698730e-01 7.252663373947143555e-01 2.367285966873168945e+00 6.676997661590576172e+00 1.200579524040222168e+00 -3.543527424335479736e-01 6.039445400238037109e+00 6.622798919677734375e+00 2.224180221557617188e+00 3.348698139190673828e+00 5.380035877227783203e+00 -1.787450164556503296e-01 3.199753046035766602e+00 2.625938415527343750e+00 1.202907085418701172e+00 1.139971971511840820e+00 6.103578567504882812e+00 1.763800621032714844e+00 6.500726938247680664e-01 1.791595339775085449e+00 7.177880287170410156e+00 6.471526622772216797e+00 -1.353884339332580566e+00 4.431743621826171875e-01 -3.060322046279907227e+00 7.592757701873779297e+00 7.202455520629882812e+00 1.049557805061340332e+00 7.295351028442382812e+00 -4.254875183105468750e-01 5.897830963134765625e+00 1.728781461715698242e-01 4.092697620391845703e+00 5.299078822135925293e-01 4.576132297515869141e+00 6.588665843009948730e-01 2.267150640487670898e+00 7.608352661132812500e+00 5.002182006835937500e+00 -5.148578643798828125e+00 6.077629327774047852e-01 -6.826988458633422852e-01 -6.036967754364013672e+00 1.060058712959289551e+00 1.213218212127685547e+00 -7.655555605888366699e-01 -9.607025235891342163e-02 -8.670142292976379395e-01 -9.291102886199951172e-01 -1.606588959693908691e+00 -9.751052260398864746e-01 1.153116673231124878e-02 1.984915375709533691e+00 -1.542367339134216309e+00 -3.450274467468261719e+00 7.939710021018981934e-01 -1.380494236946105957e+00 -4.647043228149414062e+00 3.714331388473510742e-01 1.108239769935607910e+00 -1.335567831993103027e+00 -1.386927962303161621e+00 -6.111236214637756348e-01 -1.274556994438171387e+00 -1.549064815044403076e-01 -6.461599349975585938e+00 1.332457810640335083e-01 -6.486726999282836914e-01 3.030624151229858398e+00 -6.852301597595214844e+00 -1.312095969915390015e-01 -1.128501296043395996e+00 -3.843032419681549072e-01 -3.658565878868103027e-01 -5.369104743003845215e-01 -1.137197732925415039e+00 -3.959531486034393311e-01 -5.658570766448974609e+00 2.601823806762695312e+00 2.087933197617530823e-02 -5.773512363433837891e+00 -2.711853981018066406e-01 -2.663731336593627930e+00 4.322324395179748535e-01 2.343109846115112305e+00 -7.275495529174804688e-01 -2.045214891433715820e+00 -1.241134047508239746e+00 5.724397182464599609e+00 -5.212490558624267578e+00 1.755163073539733887e-01 -5.829808712005615234e+00 2.577314972877502441e-01 -1.319880783557891846e-01 8.916118741035461426e-02 1.657697856426239014e-01 -8.053079843521118164e-01 -1.276999592781066895e+00 -2.187630176544189453e+00 5.775206089019775391e+00 1.614735960960388184e+00 2.184391319751739502e-01 4.282349646091461182e-01 -1.641729235649108887e+00 2.222092896699905396e-01 -2.287868499755859375e+00 -5.753078460693359375e+00 -1.000449657440185547e-01 -9.300128221511840820e-01 1.809262275695800781e+00 -2.608511745929718018e-01 -5.555289745330810547e+00 2.354063987731933594e+00 1.514671802520751953e+00 6.200255751609802246e-01 -1.698968172073364258e+00 -5.041394233703613281e+00 -2.251439809799194336e+00 -9.447180032730102539e-01 -2.242648363113403320e+00 -4.617994427680969238e-01 -6.235584259033203125e+00 -3.831045866012573242e+00 4.723591506481170654e-01 -1.746824502944946289e+00 2.711582660675048828e+00 -2.007035911083221436e-01 -6.466029882431030273e-01 -2.890041172504425049e-01 1.249608039855957031e+00 1.269320487976074219e+00 5.472367286682128906e+00 5.239455699920654297e-01 -1.186988279223442078e-01 2.063758134841918945e+00 -4.104408264160156250e+00 9.509557485580444336e-02 -4.263274669647216797e-01 -1.454410314559936523e+00 -1.403063684701919556e-01 -4.079250097274780273e-01 8.365706801414489746e-01 -3.822756409645080566e-01 5.405474662780761719e+00 2.714453935623168945e+00 3.396380186080932617e+00 1.616755723953247070e+00 -4.221377849578857422e+00 -1.515817940235137939e-01 -3.796059787273406982e-01 6.916151642799377441e-01 -2.104850769042968750e+00 -7.277309894561767578e-01 -6.693333148956298828e+00 -4.179996848106384277e-01 6.397845745086669922e-01 -2.632089614868164062e+00 -7.418859004974365234e-01 -5.548348903656005859e+00
1.869067735970020294e-02 -6.499155759811401367e-01 6.047943115234375000e+00 3.080822229385375977e+00 -5.214244499802589417e-02 4.829321384429931641e+00 2.294250249862670898e+00 -9.393532276153564453e-01 3.450165271759033203e+00 5.638417005538940430e-01 3.063760042190551758e+00 3.989649713039398193e-01 1.282347083091735840e+00 5.478468894958496094e+00 4.432237446308135986e-01 1.199934959411621094e+00 6.001634597778320312e+00 -4.266634941101074219e+00 -2.761887788772583008e+00 1.841833353042602539e+00 2.410365045070648193e-01 2.543209075927734375e+00 2.689574718475341797e+00 5.025665760040283203e+00 -2.609449028968811035e-01 1.132503628730773926e+00 6.048830509185791016e+00 5.508975505828857422e+00 2.394320964813232422e+00 1.959603309631347656e+00 -6.373163700103759766e+00 4.717782020568847656e+00 1.048322677612304688e+00 -5.836050510406494141e+00 5.805702686309814453e+00 -1.024542599916458130e-01 -1.268567562103271484e+00 -2.534520030021667480e-01 4.913680553436279297e+00 2.391312360763549805e+00 1.196887731552124023e+00 -1.205665230751037598e+00 -1.274467587471008301e+00 -1.197433352470397949e+00 2.015798807144165039e+00 -3.004786252975463867e+00 -1.507858753204345703e+00 -5.701428890228271484e+00 4.111027240753173828e+00 4.429263114929199219e+00 1.081393599510192871e+00 -1.090066432952880859e+00 -3.021311163902282715e-01 9.543317556381225586e-01 -9.280312657356262207e-01 -1.705949753522872925e-01 6.159448623657226562e+00 5.208738803863525391e+00 1.482634663581848145e+00 1.673038005828857422e-01 6.233868598937988281e-01 -1.080567479133605957e+00 -1.102901101112365723e+00 -2.316602272912859917e-03 7.999373674392700195e-01 5.998576283454895020e-01 2.476736068725585938e+00 -9.406945109367370605e-01 7.394678592681884766e-01 1.786880016326904297e+00 8.598696589469909668e-01 -1.026649117469787598e+00 -2.385517597198486328e+00 -9.062621742486953735e-02 4.891260862350463867e-01 -6.335846900939941406e+00 -5.843651294708251953e-01 -1.215792417526245117e+00 1.998528480529785156e+00 1.452038884162902832e+00 3.639039039611816406e+00 -1.986049175262451172e+00 -1.343176484107971191e+00 -5.688547611236572266e+00 8.585870265960693359e-01 -1.153001785278320312e+00 4.326384067535400391e-01 2.339860200881958008e+00 -4.794414520263671875e+00 -8.971568942070007324e-01 3.126343786716461182e-01 -6.460668087005615234e+00 -3.523200154304504395e-01 -5.615948200225830078e+00 -5.875811576843261719e+00 -6.108797073364257812e+00 -4.772179126739501953e+00 -7.966679930686950684e-01 1.152037158608436584e-01 -5.993632078170776367e-01 -1.197366237640380859e+00 -2.356040757149457932e-03 -1.220966935157775879e+00 -9.325672388076782227e-01 -1.399278521537780762e+00 -7.030918598175048828e+00 6.472209692001342773e-01 9.791095256805419922e-01 8.214439153671264648e-01 -2.722408056259155273e+00 -1.248263239860534668e+00 -1.777851700782775879e+00 -2.562494277954101562e+00 -6.058822870254516602e-01 1.140055894851684570e+00 -2.806285619735717773e-01 1.204396247863769531e+00 -2.863173246383666992e+00 -4.976393654942512512e-02 -6.165217399597167969e+00 -1.025696158409118652e+00 2.009711861610412598e-01 7.180775403976440430e-01 1.103247404098510742e+00 -1.333946704864501953e+00 3.855865001678466797e-01 1.716565608978271484e+00 3.162828385829925537e-01 4.479484558105468750e+00 -6.269863843917846680e-01 4.027628421783447266e+00 4.038274586200714111e-01 -5.243089675903320312e+00 -2.833152413368225098e-01 1.120657920837402344e+00 2.427249401807785034e-01 4.506065845489501953e+00 3.619743585586547852e+00 1.915866017341613770e+00 5.409929901361465454e-02 5.653464794158935547e-01 5.843912124633789062e+00 6.329358100891113281e+00 6.729483127593994141e+00 7.224729657173156738e-01 -1.782339334487915039e+00 1.849579930305480957e+00 1.218911767005920410e+00 -4.968855679035186768e-01 2.416019916534423828e+00 3.436909198760986328e+00 5.263001918792724609e+00 -8.360175490379333496e-01 -3.075184524059295654e-01 6.050492763519287109e+00 -4.048056125640869141e+00 -4.976188182830810547e+00 1.259100437164306641e+00 6.921733379364013672e+00 3.744409322738647461e+00 -3.404364347457885742e+00 -6.123357266187667847e-02 -3.669906616210937500e+00 5.196327567100524902e-01 -1.127573013305664062e+00 -9.763482809066772461e-01 -3.804336309432983398e+00 -5.833872318267822266e+00 -2.851912021636962891e+00 -7.207470893859863281e+00 -4.765316963195800781e+00 -1.164003014564514160e+00 -2.291187047958374023e+00 2.650077939033508301e-01 1.344361901283264160e+00 -6.354264736175537109e+00 -1.484551548957824707e+00 -8.813490271568298340e-01 -8.219926953315734863e-01 -7.619860768318176270e-01 -4.369123876094818115e-01 -4.361269474029541016e+00 6.857361793518066406e-01 -4.241828322410583496e-01 -6.323709011077880859e+00 -7.331729531288146973e-01 -3.845870792865753174e-01 7.089089751243591309e-01 -3.132620573043823242e+00 -2.672574520111083984e+00 5.917192935943603516e+00 -1.925679087638854980e+00 4.065394699573516846e-01 -1.281565785408020020e+00 -1.937978118658065796e-01 -3.394436836242675781e+00 5.739514827728271484e-01 -1.478081941604614258e+00 5.004969611763954163e-02 2.383128851652145386e-01
1.582563638687133789e+00 -5.941799163818359375e+00 1.416796147823333740e-01 -7.805570363998413086e-01 -4.984496116638183594e+00 -5.928496122360229492e-01 2.234943628311157227e+00 1.377686738967895508e+00 1.431063175201416016e+00 1.452306956052780151e-01 -4.183464646339416504e-01 -5.048628807067871094e+00 4.438638210296630859e+00 -2.740726922638714314e-04 2.683989405632019043e-01 2.166756540536880493e-01 -5.108780384063720703e+00 -1.187547683715820312e+00 -3.592564344406127930e+00 -6.873642921447753906e+00 -4.913568973541259766e+00 -1.618311643600463867e+00 -2.750042676925659180e-01 -2.268368721008300781e+00 -1.348613854497671127e-02 9.367702007293701172e-01 -2.501685142517089844e+00 -2.563216686248779297e+00 -6.414760947227478027e-01 -7.027675509452819824e-01 -8.991785347461700439e-02 5.462445616722106934e-01 6.679566502571105957e-01 -1.663234114646911621e+00 8.891152739524841309e-01 -4.658011198043823242e-01 -1.626194119453430176e+00 -1.329517364501953125e+00 -1.664108872413635254e+00 -2.492801666259765625e+00 -5.047768592834472656e+00 3.855000734329223633e-01 -1.033281683921813965e+00 -5.248489379882812500e-01 -5.224223136901855469e-01 -1.909183382987976074e+00 -8.798090815544128418e-01 -1.196546077728271484e+00 -2.270138025283813477e+00 -6.626921176910400391e+00 -5.389062404632568359e+00 -1.428115248680114746e+00 -7.222383499145507812e+00 8.610219955444335938e-01 -6.674823760986328125e+00 -7.239409446716308594e+00 3.325278759002685547e-01 -1.422594189643859863e+00 -1.974599003791809082e+00 -2.174613475799560547e+00 -6.928203582763671875e+00 -3.808396339416503906e+00 -1.640678286552429199e+00 -1.762891530990600586e+00 -6.281719207763671875e+00 -7.436772346496582031e+00 -2.720579504966735840e-01 -2.707750201225280762e-01 -2.484194636344909668e-01 -1.580125808715820312e+00 -4.272861957550048828e+00 -6.584727287292480469e+00 -4.666652202606201172e+00 -1.812510013580322266e+00 -5.072851181030273438e+00 -2.356145620346069336e+00 -4.992789745330810547e+00 -5.921164512634277344e+00 -2.479596614837646484e+00 -7.622896194458007812e+00 1.156276106834411621e+00 3.342099785804748535e-01 9.799016118049621582e-01 2.748883008956909180e+00 4.083918094635009766e+00 1.425573825836181641e+00 7.219034671783447266e+00 -2.304488718509674072e-01 1.613231182098388672e+00 2.842056453227996826e-01 2.710489511489868164e+00 1.451457500457763672e+00 -1.359197378158569336e+00 5.046845912933349609e+00 1.789742350578308105e+00 2.853957176208496094e+00 -2.975942194461822510e-01 5.982196331024169922e+00 1.541917204856872559e+00 3.697483301162719727e+00 2.071688652038574219e+00 8.517491221427917480e-01 6.272354125976562500e+00 -4.664991199970245361e-01 2.388616800308227539e+00 1.163871609605848789e-03 6.169474601745605469e+00 6.707297325134277344e+00 1.916793942451477051e+00 1.496171832084655762e+00 -6.038453578948974609e-01 6.989651203155517578e+00 -5.953773856163024902e-01 7.107416629791259766e+00 4.191605448722839355e-01 1.633345127105712891e+00 1.571225047111511230e+00 4.786051273345947266e+00 4.493032395839691162e-01 6.487803936004638672e+00 -1.801154017448425293e+00 -2.761897087097167969e+00 1.258999705314636230e+00 -8.658306598663330078e-01 6.150581836700439453e-01 -4.868386745452880859e+00 7.199742794036865234e-01 5.109638690948486328e+00 -1.871369123458862305e+00 1.113497257232666016e+00 -1.335493803024291992e+00 -2.991101741790771484e+00 -6.683758646249771118e-02 -9.503915309906005859e-01 5.314750671386718750e+00 5.279965400695800781e-01 -7.954661846160888672e-01 -1.239713057875633240e-01 -3.874394595623016357e-01 -2.672915935516357422e+00 2.414266169071197510e-01 -2.009413838386535645e-01 1.308796763420104980e+00 -4.767105102539062500e+00 -1.921842992305755615e-01 -2.565130949020385742e+00 -6.216095924377441406e+00 1.236507177352905273e+00 -1.556003212928771973e+00 -6.131155014038085938e+00 -1.577184319496154785e+00 -1.318613141775131226e-01 -7.367289066314697266e-01 4.082037508487701416e-01 1.138221859931945801e+00 -1.626047849655151367e+00 -2.322776317596435547e+00 -5.682782530784606934e-01 6.107416152954101562e-01 3.188936114311218262e-01 8.882615566253662109e-01 5.840840339660644531e+00 1.313706398010253906e+00 6.134872436523437500e+00 7.340607643127441406e+00 7.256113529205322266e+00 5.235104084014892578e+00 1.070674061775207520e+00 6.115493297576904297e+00 -6.871902942657470703e-01 2.382078647613525391e+00 6.554403305053710938e+00 3.007725954055786133e+00 6.059008240699768066e-01 6.660588741302490234e+00 6.669239044189453125e+00 8.894371986389160156e-01 3.123556971549987793e-01 1.347203969955444336e+00 6.602063179016113281e-01 7.972748875617980957e-01 5.335568189620971680e-01 1.710533380508422852e+00 1.755833148956298828e+00 4.460891708731651306e-02 4.807425737380981445e-01 6.918536186218261719e+00 2.265648096799850464e-01 6.296955347061157227e-01 4.943647086620330811e-01 8.784025311470031738e-01 5.035779953002929688e+00 1.636510938405990601e-01 5.152171611785888672e+00 1.031886577606201172e+00 1.994748473167419434e+00 -4.230362772941589355e-01 -9.099225997924804688e-01 2.119957685470581055e+00 6.116633415222167969e+00
-4.002462141215801239e-03 -3.755103647708892822e-01 2.703200340270996094e+00 -1.515778660774230957e+00 -8.861215114593505859e-01 6.192697525024414062e+00 6.800007343292236328e+00 5.353823661804199219e+00 -1.675745606422424316e+00 4.759935379028320312e+00 4.205073356628417969e+00 3.467496037483215332e-01 -2.343325763940811157e-01 -9.663581848144531250e-02 1.309371441602706909e-01 -1.624653100967407227e+00 3.914399862289428711e+00 1.926070213317871094e+00 1.043874502182006836e+00 6.158231258392333984e+00 -7.431211471557617188e-01 -2.247908592224121094e+00 1.049645431339740753e-02 4.019089341163635254e-01 5.683410644531250000e+00 -8.420125842094421387e-01 1.418341517448425293e+00 8.305308818817138672e-01 5.099613189697265625e+00 6.510526537895202637e-01 1.389867365360260010e-01 3.744920730590820312e+00 2.013573884963989258e+00 1.542407631874084473e+00 5.379828810691833496e-01 -1.614732265472412109e+00 1.842856645584106445e+00 8.591924905776977539e-01 7.466809749603271484e-01 1.171721458435058594e+00 5.258139610290527344e+00 1.211048483848571777e+00 3.996336162090301514e-01 5.842484831809997559e-01 -1.351598836481571198e-02 -7.685422897338867188e-01 5.772130966186523438e+00 1.403776764869689941e+00 1.814341545104980469e-01 8.078488707542419434e-02 5.376489639282226562e+00 8.079046010971069336e-01 1.883145451545715332e+00 1.650638461112976074e+00 5.302501678466796875e+00 3.760027170181274414e+00 4.368541240692138672e+00 1.435167063027620316e-02 2.935890913009643555e+00 5.953484535217285156e+00 3.010629653930664062e+00 -1.466008305549621582e+00 2.752209663391113281e+00 -2.786832451820373535e-01 -5.819092988967895508e-01 2.197892218828201294e-01 6.283666133880615234e+00 4.572388648986816406e+00 5.766722202301025391e+00 9.187051653861999512e-01 1.509613275527954102e+00 -8.611741662025451660e-02 -7.963221669197082520e-01 4.557481765747070312e+00 2.336325883865356445e+00 -1.150349736213684082e+00 6.424781322479248047e+00 6.608568668365478516e+00 6.023548126220703125e+00 1.758892536163330078e+00 5.004491329193115234e+00 5.465265274047851562e+00 6.908112764358520508e-02 -4.475942850112915039e-01 8.042810857295989990e-02 5.306346416473388672e+00 -2.309886366128921509e-01 4.643734931945800781e+00 4.306768476963043213e-01 2.127398103475570679e-01 -9.623505473136901855e-01 4.052374362945556641e+00 1.508355975151062012e+00 6.464418888092041016e+00 1.707697629928588867e+00 6.258521556854248047e+00 -1.382221102714538574e+00 2.530756592750549316e-01 5.783553600311279297e+00 -1.959827065467834473e+00 1.170223712921142578e+00 1.411415338516235352e+00 4.881322383880615234e-01 -5.909826755523681641e-01 1.080218315124511719e+00 4.019102454185485840e-01 2.225295066833496094e+00 7.759725451469421387e-01 1.225043654441833496e+00 1.680856943130493164e+00 1.370943665504455566e+00 3.975925683975219727e+00 -3.769415616989135742e-02 2.398385286331176758e+00 5.806684494018554688e+00 5.644463062286376953e+00 2.355231046676635742e+00 -1.437501788139343262e+00 2.200030803680419922e+00 5.985441684722900391e+00 -3.574549436569213867e+00 -7.372385025024414062e+00 -7.916837215423583984e+00 -2.077096939086914062e+00 -2.565566778182983398e+00 -3.647563695907592773e+00 -7.490218639373779297e+00 -2.523304700851440430e+00 -1.175211310386657715e+00 -3.456585407257080078e+00 -3.381559848785400391e+00 -6.277763366699218750e+00 -1.748917102813720703e+00 -2.914247035980224609e+00 -1.957822442054748535e+00 -6.667230606079101562e+00 -3.885640859603881836e+00 -2.237402915954589844e+00 -4.922433376312255859e+00 -1.505071282386779785e+00 -7.659706592559814453e+00 -7.899813652038574219e+00 -8.294101715087890625e+00 -1.590699076652526855e+00 -3.212908506393432617e+00 -7.578580856323242188e+00 -1.154775142669677734e+00 -7.336572170257568359e+00 -8.660079956054687500e+00 -1.820994257926940918e+00 -6.352551460266113281e+00 -1.238880753517150879e+00 -8.738814353942871094e+00 -7.540877342224121094e+00 -2.540007114410400391e+00 -1.761802434921264648e+00 -1.965211272239685059e+00 -1.292969822883605957e+00 -7.258074283599853516e+00 -2.388733148574829102e+00 -2.551321744918823242e+00 -9.765914082527160645e-01 -1.166636466979980469e+00 -1.064918279647827148e+00 -3.144153594970703125e+00 -1.105557680130004883e+00 -5.362338542938232422e+00 -5.390531063079833984e+00 1.504901647567749023e-01 -1.455723166465759277e+00 -2.046079874038696289e+00 -1.596712321043014526e-01 -1.286221861839294434e+00 -1.882829666137695312e+00 -1.693920373916625977e+00 -1.202377557754516602e+00 -1.865167140960693359e+00 -2.978917360305786133e+00 -1.097519636154174805e+00 -1.743872165679931641e+00 -4.990540504455566406e+00 5.642018914222717285e-01 7.501038908958435059e-01 -2.412148714065551758e+00 -2.015073299407958984e+00 -3.032973051071166992e+00 1.240796089172363281e+00 -3.397399187088012695e+00 -7.942264676094055176e-01 1.427094697952270508e+00 -2.618608951568603516e+00 -1.540947437286376953e+00 -2.819460153579711914e+00 5.086007595062255859e+00 1.898641288280487061e-01 -1.912504076957702637e+00 -2.783346891403198242e+00 8.290808200836181641e-01 -1.813351869583129883e+00 -1.214211106300354004e+00
7.598668336868286133e-01 3.814207613468170166e-01 1.202495545148849487e-01 1.558888435363769531e+00 -2.178218960762023926e-01 1.627157092094421387e+00 2.800534009933471680e+00 5.425483703613281250e+00 1.881639480590820312e+00 1.656048655509948730e+00 -4.454519748687744141e-01 5.133563518524169922e+00 6.434616088867187500e+00 6.180334091186523438e+00 -8.595457673072814941e-01 1.087228775024414062e+00 1.331159949302673340e+00 8.589244484901428223e-01 1.742141246795654297e-01 6.025097846984863281e+00 4.404878616333007812e+00 4.331670284271240234e+00 7.234616756439208984e+00 4.252696990966796875e+00 -1.773188829421997070e+00 -5.192898511886596680e-01 -1.061584949493408203e-01 4.658884525299072266e+00 1.091963529586791992e+00 6.753474712371826172e+00 5.679322242736816406e+00 1.921681880950927734e+00 6.361866950988769531e+00 6.140278816223144531e+00 -2.022736787796020508e+00 1.704324722290039062e+00 5.655966281890869141e+00 7.054553031921386719e-01 5.421181678771972656e+00 1.040700793266296387e+00 -3.962313234806060791e-01 -4.065253257751464844e+00 -5.348861694335937500e+00 -9.105715751647949219e-01 -4.981870651245117188e+00 -4.691142082214355469e+00 -5.731041431427001953e+00 -5.743162631988525391e+00 -1.470223069190979004e+00 6.356807891279459000e-03 4.349180698394775391e+00 -6.298679828643798828e+00 -3.201563060283660889e-01 -2.092185020446777344e+00 -1.282364964485168457e+00 -1.706887364387512207e+00 -2.278693914413452148e+00 -5.627948284149169922e+00 -4.188590645790100098e-01 -9.856334924697875977e-01 -1.384706258773803711e+00 2.113684453070163727e-02 1.946936734020709991e-02 -6.594583988189697266e+00 -1.178173780441284180e+00 -8.230970501899719238e-01 -5.763702869415283203e+00 -1.223491191864013672e+00 -1.262603998184204102e+00 4.328182637691497803e-01 -2.030586719512939453e+00 2.710238099098205566e-01 -5.313588976860046387e-01 5.704683303833007812e+00 -6.140084266662597656e+00 -6.235596179962158203e+00 -1.088640987873077393e-01 -2.576103448867797852e+00 -5.842429772019386292e-02 -7.419348239898681641e+00 -1.100362062454223633e+00 -4.730445384979248047e+00 -5.235755443572998047e+00 -1.417539268732070923e-01 -1.493406414985656738e+00 -8.470205664634704590e-01 -4.538215637207031250e+00 -7.531849145889282227e-01 -1.271194577217102051e+00 -5.233423709869384766e+00 -6.588474750518798828e+00 -6.670098781585693359e+00 -7.053326964378356934e-01 -5.857303142547607422e+00 8.859288692474365234e-01 -6.604533195495605469e-01 -8.533532023429870605e-01 4.666593670845031738e-01 -1.168680787086486816e+00 -1.916143447160720825e-01 -2.013767480850219727e+00 -5.905194282531738281e+00 -6.496690750122070312e+00 -6.342414855957031250e+00 -1.597888588905334473e+00 -1.451083064079284668e+00 -1.994186878204345703e+00 -4.641169548034667969e+00 1.357420563697814941e+00 6.029555201530456543e-01 -7.263635993003845215e-01 6.021108627319335938e-01 3.094361066818237305e+00 9.853551983833312988e-01 -1.016213417053222656e+00 -1.842182517051696777e+00 -5.054867267608642578e+00 -1.465704083442687988e+00 -2.131055355072021484e+00 -4.403856396675109863e-01 -5.214169502258300781e+00 1.227808356285095215e+00 -1.817057490348815918e+00 -2.918457746505737305e+00 -5.426917552947998047e+00 -3.697708249092102051e-01 -7.335507869720458984e+00 -1.009580969810485840e+00 -1.457454800605773926e+00 -5.961618900299072266e+00 -6.801857352256774902e-01 9.652365744113922119e-02 -2.099141359329223633e+00 -4.085478782653808594e+00 -3.893150329589843750e+00 -5.464268326759338379e-01 -1.245691776275634766e+00 -7.593067288398742676e-01 -2.084319353103637695e+00 -2.543072938919067383e+00 -2.762143850326538086e+00 -1.204386055469512939e-01 -4.122855365276336670e-01 -1.801007628440856934e+00 -9.895488619804382324e-01 6.977460980415344238e-01 -5.165110230445861816e-01 4.837508797645568848e-01 -4.250277578830718994e-01 8.555247187614440918e-01 1.261669635772705078e+00 -1.977037549018859863e+00 -2.962584018707275391e+00 -3.151158571243286133e+00 -2.482838869094848633e+00 -2.110111713409423828e+00 -2.294802904129028320e+00 -7.336729526519775391e+00 2.535574436187744141e-01 -3.896626472473144531e+00 5.036584734916687012e-01 7.216044902801513672e+00 3.413447618484497070e+00 9.656563401222229004e-01 7.546543598175048828e+00 1.326607316732406616e-01 3.326480150222778320e+00 6.978296279907226562e+00 -8.671020865440368652e-01 4.258600234985351562e+00 3.607155799865722656e+00 7.123406887054443359e+00 1.904697418212890625e+00 1.735676169395446777e+00 5.982895851135253906e+00 4.020533084869384766e+00 -1.569287031888961792e-01 7.613323926925659180e-01 2.894639372825622559e-01 -5.286595225334167480e-01 3.708441257476806641e+00 7.471979618072509766e+00 3.414498805999755859e+00 6.144806861877441406e+00 1.104954242706298828e+00 4.157434463500976562e+00 6.594875335693359375e+00 5.551564693450927734e+00 4.700063228607177734e+00 2.792166471481323242e+00 4.962853431701660156e+00 -1.289005875587463379e+00 3.124464750289916992e+00 2.247542142868041992e+00 6.830389022827148438e+00 2.844629049301147461e+00 5.235404968261718750e+00 6.641662597656250000e+00 5.905208587646484375e+00 1.590633630752563477e+00
-1.408262610435485840e+00 -1.127165913581848145e+00 -1.005922198295593262e+00 1.565733909606933594e+00 -3.598927974700927734e+00 -2.290283918380737305e+00 -8.552259206771850586e-01 9.063978195190429688e-01 -1.636137008666992188e+00 -2.065243959426879883e+00 -6.231001853942871094e+00 -9.058216214179992676e-01 4.924693405628204346e-01 -5.944116592407226562e+00 4.934870243072509766e+00 -1.801434636116027832e+00 1.002635240554809570e+00 -8.907487392425537109e-01 -2.047179698944091797e+00 3.464637279510498047e+00 -4.221935868263244629e-01 -1.145925283432006836e+00 3.120846748352050781e-01 5.665502548217773438e+00 -1.698142141103744507e-01 -1.653703331947326660e+00 -6.538852453231811523e-01 1.234111547470092773e+00 -4.874125480651855469e+00 -9.927418231964111328e-01 -7.426575422286987305e-01 -4.648169994354248047e+00 -5.773775577545166016e+00 9.432983398437500000e-02 -5.998392105102539062e+00 -3.239132463932037354e-01 -6.369835853576660156e+00 9.929150342941284180e-01 6.782750487327575684e-01 7.001987695693969727e-01 -4.981121718883514404e-01 -3.318894386291503906e+00 -5.573896408081054688e+00 -3.713037371635437012e-01 -4.179744720458984375e-01 -1.529786705970764160e+00 -5.502659082412719727e-01 -1.178568303585052490e-01 2.806963205337524414e+00 -7.039446830749511719e+00 1.674413681030273438e-01 6.836532354354858398e-01 -5.521159172058105469e-01 -7.032691478729248047e+00 -5.271749973297119141e+00 -1.486804366111755371e+00 -1.034836888313293457e+00 -1.205600723624229431e-01 -2.567410945892333984e+00 1.089954137802124023e+00 1.837744355201721191e+00 -1.867625713348388672e+00 -2.062429428100585938e+00 -6.729873180389404297e+00 -1.021029233932495117e+00 -5.473762512207031250e+00 -2.012517213821411133e+00 -1.769413471221923828e+00 -1.046244263648986816e+00 -6.690577507019042969e+00 -3.171805441379547119e-01 -1.120151042938232422e+00 -2.248414754867553711e-01 -5.716485977172851562e+00 -1.176081418991088867e+00 -7.910008430480957031e-01 8.106234669685363770e-01 -8.239472508430480957e-01 9.081270098686218262e-01 1.388433814048767090e+00 4.314249992370605469e+00 4.205189347267150879e-01 3.306429624557495117e+00 -4.545148909091949463e-01 -3.761548280715942383e+00 -1.289715021848678589e-01 6.165261745452880859e+00 2.155940771102905273e+00 -3.252739310264587402e-01 7.527102828025817871e-01 5.471295714378356934e-01 3.768532037734985352e+00 3.198404788970947266e+00 -2.160258442163467407e-01 2.375221729278564453e+00 3.011241674423217773e+00 1.766780734062194824e+00 1.336930871009826660e+00 1.556796550750732422e+00 5.306901454925537109e+00 4.573388576507568359e+00 -1.246805429458618164e+00 7.794035971164703369e-02 1.922823488712310791e-01 1.963715672492980957e+00 1.401331424713134766e+00 1.408453583717346191e+00 8.131911754608154297e-01 1.955434083938598633e+00 6.052672863006591797e+00 -9.984692186117172241e-02 -5.979948520660400391e+00 5.927848339080810547e+00 6.500041484832763672e+00 2.288495898246765137e-01 7.322099685668945312e+00 7.511917591094970703e+00 5.130245089530944824e-01 4.579434871673583984e+00 8.014923930168151855e-01 -1.191964745521545410e+00 2.523720741271972656e+00 4.250205039978027344e+00 2.115977048873901367e+00 5.296874046325683594e+00 1.312186121940612793e+00 -8.373063802719116211e-01 -3.551684617996215820e-01 -5.204740762710571289e-01 5.555403709411621094e+00 -8.345974087715148926e-01 5.024337768554687500e-01 4.101888537406921387e-01 -5.847948789596557617e-01 -5.737069845199584961e-01 -6.869174957275390625e+00 3.244828879833221436e-01 2.443678855895996094e+00 4.431772828102111816e-01 -9.132325053215026855e-01 1.116306304931640625e+00 6.076320409774780273e-01 -1.656614899635314941e+00 1.273065447807312012e+00 -2.656610608100891113e-01 1.070956707000732422e+00 -8.463969826698303223e-02 6.662106037139892578e+00 -6.174984574317932129e-01 2.664991855621337891e+00 5.260034799575805664e-01 6.740863800048828125e+00 2.964846789836883545e-01 6.095736026763916016e+00 1.562744230031967163e-01 5.119692802429199219e+00 2.113620996475219727e+00 1.801245361566543579e-01 2.842515468597412109e+00 4.728744506835937500e+00 -1.570865213871002197e-01 -9.907821416854858398e-01 1.054242402315139771e-01 1.272154331207275391e+00 -1.194864869117736816e+00 3.143529891967773438e+00 2.544023692607879639e-01 4.122156620025634766e+00 -5.371676921844482422e+00 -8.361558914184570312e-01 3.743836656212806702e-02 1.140873074531555176e+00 -6.956292986869812012e-01 -8.569572865962982178e-02 -3.695122301578521729e-01 -4.775617122650146484e+00 -4.298969805240631104e-01 -2.732554674148559570e+00 9.356734752655029297e-01 -1.181445717811584473e+00 2.786411643028259277e-01 -3.998788833618164062e+00 -1.024862527847290039e+00 -1.180990576744079590e+00 5.101767778396606445e-01 -2.972585558891296387e-01 1.244740009307861328e+00 1.563062429428100586e+00 -2.959517955780029297e+00 4.392147541046142578e+00 -3.571800947189331055e+00 -6.044040203094482422e+00 -4.600091934204101562e+00 -1.552205085754394531e+00 -3.510132431983947754e-01 1.006472349166870117e+00 -1.057346940040588379e+00 5.706964731216430664e-01 5.608707427978515625e+00 -3.021115064620971680e+00
-2.399763822555541992e+00 1.730037480592727661e-01 2.482095211744308472e-01 -3.394178390502929688e+00 -3.603717327117919922e+00 -1.624322056770324707e+00 -2.052738428115844727e+00 -7.749162912368774414e-01 -1.957857012748718262e-01 -4.881836175918579102e-01 -5.496917247772216797e+00 3.526102066040039062e+00 -1.887563586235046387e+00 5.523322105407714844e+00 -1.887236237525939941e+00 -1.802593946456909180e+00 -1.101495862007141113e+00 1.170774936676025391e+00 -1.056853055953979492e+00 5.389045476913452148e-01 -3.074294328689575195e+00 -2.441602200269699097e-01 -8.837284445762634277e-01 -5.925369262695312500e+00 -8.460116386413574219e-01 -6.547141075134277344e+00 1.355207413434982300e-01 -5.285840511322021484e+00 -5.997642040252685547e+00 -5.995890140533447266e+00 -1.391654491424560547e+00 3.154119729995727539e+00 -1.023245811462402344e+00 -1.244776129722595215e+00 -1.956023454666137695e+00 -2.877705574035644531e+00 8.854745030403137207e-01 -6.610812664031982422e+00 -1.228563189506530762e-01 -4.791619479656219482e-01 -3.312857151031494141e+00 -6.705322861671447754e-01 4.326949119567871094e+00 -6.512919664382934570e-01 -6.850374698638916016e+00 5.892091989517211914e-01 -1.046856760978698730e+00 -6.015516757965087891e+00 5.662145614624023438e-01 5.729636549949645996e-01 4.319575428962707520e-01 7.142048478126525879e-01 -2.611733913421630859e+00 1.515828222036361694e-01 4.322279930114746094e+00 1.004068493843078613e+00 -2.357761144638061523e+00 4.870174825191497803e-01 3.894065856933593750e+00 2.525148868560791016e+00 -4.560166597366333008e-01 -2.489372014999389648e+00 -6.064277291297912598e-01 -1.291183471679687500e+00 -2.569225788116455078e+00 -8.915638923645019531e-01 1.193037033081054688e+00 -6.365443229675292969e+00 -4.903820753097534180e-01 -1.044086933135986328e+00 -6.501896858215332031e+00 -5.100039839744567871e-01 1.795749068260192871e-01 6.110334992408752441e-01 -7.368292808532714844e-01 -4.780699253082275391e+00 -1.923097133636474609e+00 5.954003930091857910e-01 1.008464336395263672e+00 4.141872823238372803e-01 1.910617351531982422e+00 3.585303068161010742e+00 5.436227321624755859e+00 3.400139331817626953e+00 6.532656192779541016e+00 2.091847419738769531e+00 7.889440655708312988e-01 7.618573665618896484e+00 -3.243536353111267090e-01 9.110456109046936035e-01 -1.318132162094116211e+00 6.236593723297119141e+00 5.878493309020996094e+00 6.240181922912597656e+00 5.515653133392333984e+00 6.368678092956542969e+00 5.683795452117919922e+00 1.846685171127319336e+00 7.462787628173828125e+00 4.019201278686523438e+00 1.630980134010314941e+00 -3.394260406494140625e-01 7.017529010772705078e+00 2.457327127456665039e+00 2.052860260009765625e+00 -9.324086308479309082e-01 1.706962227821350098e+00 3.738961368799209595e-02 6.094167828559875488e-01 2.311559200286865234e+00 6.961901187896728516e-01 5.259918689727783203e+00 3.815330266952514648e+00 1.737253904342651367e+00 1.223448872566223145e+00 -1.588558703660964966e-01 3.416354179382324219e+00 1.421299695968627930e+00 2.025527715682983398e+00 2.362019300460815430e+00 1.518634676933288574e+00 2.932083845138549805e+00 7.120744585990905762e-01 4.750630259513854980e-01 6.048873424530029297e+00 4.844599664211273193e-01 -5.929616689682006836e-01 3.311788797378540039e+00 1.253329396247863770e+00 -5.565889477729797363e-01 -4.235507845878601074e-01 -5.503052845597267151e-02 2.126497745513916016e+00 -1.304617285728454590e+00 6.949367523193359375e+00 4.179462194442749023e-01 1.358071923255920410e+00 -5.158820748329162598e-02 -5.736050128936767578e+00 2.339839696884155273e+00 2.011279582977294922e+00 2.509329080581665039e+00 1.105161070823669434e+00 5.671739578247070312e+00 5.039149895310401917e-02 2.682096242904663086e+00 3.040878772735595703e+00 2.541024923324584961e+00 7.223480701446533203e+00 1.551040410995483398e+00 7.037710189819335938e+00 8.125448822975158691e-01 -3.510578870773315430e-01 -2.100603282451629639e-01 3.755947649478912354e-01 5.847656726837158203e+00 1.489853113889694214e-01 6.435813903808593750e+00 5.234097838401794434e-01 1.360674977302551270e+00 -9.366014599800109863e-01 -6.562105178833007812e+00 -6.182079315185546875e-01 5.769919138401746750e-03 1.603477478027343750e+00 -5.566778659820556641e+00 3.140835464000701904e-01 -2.433513104915618896e-01 -4.048926830291748047e+00 -1.868175745010375977e+00 -6.987007617950439453e+00 -5.861535668373107910e-01 1.730458736419677734e-01 -6.712941646575927734e+00 4.566862583160400391e-01 -9.942013621330261230e-01 -5.460150241851806641e+00 4.060832783579826355e-02 -5.884047508239746094e+00 -5.270011901855468750e+00 5.206876993179321289e-01 -4.564908444881439209e-01 -6.634738445281982422e+00 -5.063811302185058594e+00 -4.927212238311767578e+00 3.890657722949981689e-01 -2.259529113769531250e+00 -5.593662738800048828e+00 2.886125802993774414e+00 -3.848605155944824219e+00 -2.419210672378540039e+00 -2.049520969390869141e+00 -4.633490562438964844e+00 -2.747104406356811523e+00 -1.025850892066955566e+00 -3.274625062942504883e+00 -3.792104244232177734e+00 -1.127509355545043945e+00 -1.602292299270629883e+00 1.636873036623001099e-01
2.251484155654907227e+00 6.350057601928710938e+00 2.840257883071899414e+00 5.739551067352294922e+00 -6.052250787615776062e-02 6.917639255523681641e+00 2.006432771682739258e+00 5.741207599639892578e+00 2.310879230499267578e+00 1.326968073844909668e-01 -6.552342772483825684e-01 1.246069788932800293e+00 2.294816017150878906e+00 5.897915363311767578e+00 7.201207637786865234e+00 1.756289362907409668e+00 2.657848119735717773e+00 2.378666877746582031e+00 4.189723014831542969e+00 7.027110576629638672e+00 3.453874826431274414e+00 5.799147486686706543e-01 2.224489688873291016e+00 6.603863239288330078e-01 1.913100242614746094e+00 5.732920646667480469e+00 5.184807181358337402e-01 -6.218761920928955078e+00 6.259894371032714844e+00 8.419983983039855957e-01 6.142123699188232422e+00 6.464806079864501953e+00 -9.857223629951477051e-01 -5.584702491760253906e-01 9.691330194473266602e-01 1.335163593292236328e+00 8.830523490905761719e-01 -1.667401567101478577e-02 2.820274114608764648e+00 3.661582767963409424e-01 1.268851280212402344e+00 -2.627728700637817383e+00 -9.038214683532714844e-01 -1.584380507469177246e+00 -2.012531757354736328e+00 -3.159724712371826172e+00 -6.408300399780273438e-01 5.799647569656372070e-01 -6.620940208435058594e+00 -2.875855684280395508e+00 -7.288999557495117188e+00 -1.448044061660766602e+00 -5.140180110931396484e+00 -2.000450849533081055e+00 8.862864375114440918e-01 -1.268345475196838379e+00 -6.019697189331054688e+00 5.265391469001770020e-01 -1.511752486228942871e+00 -2.328242063522338867e+00 6.856194138526916504e-01 -3.328676819801330566e-01 -1.533064365386962891e+00 -2.512602567672729492e+00 -5.506678104400634766e+00 -3.972489595413208008e+00 -1.371559739112854004e+00 -3.355355560779571533e-01 -5.961465239524841309e-01 3.074461519718170166e-01 -1.447978854179382324e+00 4.831112325191497803e-01 -3.435129165649414062e+00 -8.095560073852539062e-01 -1.401796460151672363e+00 -3.806101083755493164e-01 -5.525362491607666016e+00 2.003727912902832031e+00 -3.277614831924438477e+00 5.196936130523681641e-01 -3.005893230438232422e+00 -1.379565000534057617e+00 -1.586974143981933594e+00 -7.717695832252502441e-01 -7.128093242645263672e+00 -3.409172296524047852e+00 -2.742349147796630859e+00 -3.324722290039062500e+00 -5.815553069114685059e-01 -9.066777825355529785e-01 -5.890936374664306641e+00 7.905077338218688965e-01 -1.153745889663696289e+00 -5.232740640640258789e-01 -1.549966096878051758e+00 -6.434926986694335938e+00 -7.686235904693603516e+00 -7.228276252746582031e+00 -8.364363014698028564e-02 -1.903489112854003906e+00 -1.027091860771179199e+00 -7.465332031250000000e+00 -1.620712757110595703e+00 -1.442659974098205566e+00 -7.322782993316650391e+00 -2.651000261306762695e+00 5.754393339157104492e-01 -5.613120079040527344e+00 -5.182083129882812500e+00 -2.299209594726562500e+00 -5.149478435516357422e+00 -1.225834965705871582e+00 -7.095948219299316406e+00 -8.842361569404602051e-01 -3.897227287292480469e+00 -6.914070606231689453e+00 7.243592143058776855e-01 -3.994306921958923340e-01 -2.112167835235595703e+00 -1.062445282936096191e+00 8.790104091167449951e-02 -9.670517444610595703e-01 1.211187124252319336e+00 4.456473141908645630e-02 -6.206883192062377930e-01 7.667546272277832031e-01 2.616997957229614258e-01 -1.185812726616859436e-01 6.121484041213989258e-01 5.594298362731933594e+00 -6.253069400787353516e+00 5.556540489196777344e-01 6.799841523170471191e-01 5.085391044616699219e+00 4.372554779052734375e+00 2.424799919128417969e+00 6.928193569183349609e-01 7.089085578918457031e+00 -2.164700269699096680e+00 2.883431911468505859e-01 1.095627307891845703e+00 -1.466624736785888672e+00 1.889205336570739746e+00 6.354118585586547852e-01 9.975601434707641602e-01 5.774992704391479492e-01 6.937468051910400391e+00 6.215164184570312500e+00 1.692772060632705688e-01 5.423761844635009766e+00 3.400621891021728516e+00 1.926054358482360840e+00 4.594558775424957275e-01 5.928115844726562500e+00 4.489964962005615234e+00 5.319017887115478516e+00 1.747817397117614746e+00 9.094218015670776367e-01 1.428470492362976074e+00 -7.954011559486389160e-01 1.150827482342720032e-01 -7.364306449890136719e-01 7.449885010719299316e-01 5.949212074279785156e+00 -4.626840949058532715e-01 8.385495543479919434e-01 2.591724693775177002e-01 1.544830322265625000e+00 9.021173715591430664e-01 -4.801562726497650146e-01 5.202463150024414062e+00 -1.619256973266601562e+00 4.543532848358154297e+00 -2.512487173080444336e+00 4.207125902175903320e-01 -3.355342149734497070e-01 -1.187507271766662598e+00 5.124385952949523926e-01 -4.494940280914306641e+00 -2.671642601490020752e-01 -6.393973350524902344e+00 8.432174324989318848e-01 3.053466416895389557e-02 2.471740484237670898e+00 4.897245407104492188e+00 -1.004539608955383301e+00 9.207792878150939941e-01 3.108781576156616211e-01 2.010154247283935547e+00 5.188673496246337891e+00 8.497519046068191528e-02 -2.340651601552963257e-01 8.834004402160644531e-01 -1.137858033180236816e+00 -2.559221267700195312e+00 -6.181145310401916504e-01 5.914554119110107422e+00 -8.197988271713256836e-01 2.022795200347900391e+00 9.024457335472106934e-01
