-1.019156265258789062e+01 -1.059170341491699219e+01 6.521589279174804688e+00 1.912999153137207031e+01 2.375897598266601562e+01 -2.842983484268188477e+00 2.415131568908691406e+01 -2.667563819885253906e+01 7.667512416839599609e+00 -3.144340515136718750e+00 -2.246716880798339844e+01 1.028244113922119141e+01 1.150566864013671875e+01 -1.862888717651367188e+01 -6.998928546905517578e+00 -2.291153144836425781e+01 2.022362470626831055e+00 2.306942367553710938e+01 8.191218376159667969e+00 6.366494178771972656e+00 1.264654922485351562e+01 -6.541301727294921875e+00 2.140848922729492188e+01 -8.386224746704101562e+00 -2.861865997314453125e+01 1.305075645446777344e+01 4.463268280029296875e+00 2.176155567169189453e+00 -7.559370994567871094e+00 -1.129881191253662109e+01 -1.144458770751953125e+01 -1.711153268814086914e+00 9.118538498878479004e-01 1.076440620422363281e+01 1.133799648284912109e+01 -1.521442317962646484e+01 3.133263349533081055e+00 1.086288356781005859e+01 1.351822018623352051e+00 1.036709117889404297e+01 4.049527645111083984e+00 -1.016546535491943359e+01 1.635250091552734375e+01 -5.414752960205078125e+00 -1.450979518890380859e+01 6.246787548065185547e+00 -1.970026588439941406e+01 -4.032754898071289062e+00 -1.841073608398437500e+01 -6.676293373107910156e+00
