-2.009388923645019531e+00 -1.119514584541320801e+00 -3.021321296691894531e+00 -1.066854357719421387e+00 3.135814189910888672e+00 -1.948054790496826172e+00 8.214819908142089844e+00 -5.585189163684844971e-02 2.263658046722412109e+00 -2.585410512983798981e-02 -1.939434766769409180e+00 -9.265870451927185059e-01 1.100770905613899231e-01 4.179947376251220703e+00 1.767239212989807129e+00 2.665370702743530273e+00 -1.703133225440979004e+00 -3.020430326461791992e+00 -5.126554965972900391e-01 1.913475513458251953e+00 8.455656170845031738e-01 2.765933036804199219e+00 6.552705287933349609e+00 -4.588073730468750000e+00 9.989400207996368408e-02 3.838200569152832031e+00 3.661042213439941406e+00 -2.606075286865234375e+01 -2.191239595413208008e-01 3.516397476196289062e-01 1.716265320777893066e+00 7.089626789093017578e-01 2.333119010925292969e+01 -1.843371963500976562e+01 7.531176209449768066e-01 -2.498234063386917114e-01 4.811894595623016357e-01 1.315658092498779297e+01 1.158929252624511719e+01 -6.216498374938964844e+00 2.928257226943969727e+00 -3.119937324523925781e+01 3.929619193077087402e-01 -3.089354276657104492e+00 -1.986238288879394531e+01 -7.238487243652343750e+00 -2.151551008224487305e+00 1.126146167516708374e-01 1.369575619697570801e+00 -2.210235834121704102e+00
2.142713546752929688e+00 5.631522536277770996e-01 1.504377079010009766e+01 -7.404643297195434570e-01 -1.277245521545410156e+00 -3.395204544067382812e-01 -2.843820190429687500e+01 9.264945387840270996e-01 -3.192482233047485352e+00 7.797335386276245117e-01 2.048668563365936279e-01 -3.844751358032226562e+00 1.342108130455017090e+00 7.360479235649108887e-01 -4.378450870513916016e+00 -3.346186876296997070e+00 -1.618290662765502930e+00 -2.983083343505859375e+01 9.519708752632141113e-01 2.010376214981079102e+00 -2.391347885131835938e-01 -3.769125938415527344e+00 -1.592004776000976562e+01 1.980368852615356445e+00 2.973546504974365234e+00 -2.705930709838867188e+00 -3.061162471771240234e+00 9.053811073303222656e+00 2.038294219970703125e+01 2.206226587295532227e+00 2.228865385055541992e+00 -1.413597106933593750e+00 4.639822006225585938e+00 -3.864082336425781250e+00 2.474108524620532990e-02 -2.581481361389160156e+01 5.204715132713317871e-01 1.384167766571044922e+01 2.139432716369628906e+01 1.161499691009521484e+01 -1.645052671432495117e+00 -5.228189468383789062e+00 -2.871949374675750732e-01 -7.528077960014343262e-01 6.965962409973144531e+00 -3.336847782135009766e+00 -1.533463299274444580e-01 -3.479300737380981445e-01 -2.658208310604095459e-01 3.305192947387695312e+00
-1.416281580924987793e+00 -1.794798076152801514e-01 -2.555178260803222656e+01 -2.327659368515014648e+00 -1.199948310852050781e+00 1.454423308372497559e+00 -3.427034616470336914e+00 1.357566475868225098e+00 -1.195052146911621094e+00 -2.666111707687377930e+00 -1.437173008918762207e+00 1.860017657279968262e+00 -3.797011673450469971e-01 1.111964702606201172e+00 -7.808679103851318359e+00 -3.456389188766479492e+00 2.733955860137939453e+00 1.801822280883789062e+01 6.948447704315185547e+00 1.203641295433044434e+00 1.382375001907348633e+00 4.747363090515136719e+00 -1.846914768218994141e+00 -2.173852682113647461e+00 1.365957736968994141e+00 7.440924644470214844e-01 -2.135347604751586914e+00 1.144475555419921875e+01 -7.132801413536071777e-01 -1.113564372062683105e+00 1.873695492744445801e+00 2.297297239303588867e+00 -2.673811912536621094e+01 1.785651016235351562e+01 -2.921223938465118408e-01 -1.510065364837646484e+01 1.141983389854431152e+00 -1.470469284057617188e+01 1.182329845428466797e+01 1.769148063659667969e+01 -2.320143222808837891e+00 -5.361218929290771484e+00 -5.472513437271118164e-01 -1.688387431204319000e-02 -2.201476860046386719e+01 -7.559621810913085938e+00 8.706856727600097656e+00 1.683663278818130493e-01 9.317033290863037109e-01 1.810355663299560547e+00
