1.616275429725646973e+00 2.667327821254730225e-01 1.934558391571044922e+00 1.757649230957031250e+01 -1.494679450988769531e+00 -2.979578673839569092e-01 -2.362626641988754272e-01 -7.070491313934326172e-01 -5.131124496459960938e+00 3.403053522109985352e+00 1.879913139343261719e+01 9.051879644393920898e-01 -1.576969623565673828e+00 -1.227661895751953125e+01 2.868006706237792969e+01 -1.752211189270019531e+01 -2.776223123073577881e-01 -9.530707359313964844e+00 -1.010261631011962891e+01 -2.436234474182128906e+00 -2.696192026138305664e+00 -2.189261198043823242e+00 1.041969299316406250e+00 3.275672149658203125e+01 -6.587790250778198242e-01 -1.491879820823669434e+00 -1.278439331054687500e+01 1.304867458343505859e+01 -1.184177994728088379e-01 -6.694837093353271484e+00 -6.896061420440673828e+00 -4.324629974365234375e+01 1.126852869987487793e+00 1.204940414428710938e+01 1.324177551269531250e+01 2.483322525024414062e+01 -1.329429435729980469e+01 -2.945987462997436523e+00 -2.342165184020996094e+01 -1.445613002777099609e+01 5.241498351097106934e-01 3.259133529663085938e+01 -5.616130828857421875e-01 2.195335388183593750e+00 2.704907035827636719e+01 1.786910414695739746e+00 -1.662933921813964844e+01 4.621526598930358887e-01 -1.758522391319274902e+00 7.839180827140808105e-01
5.122743844985961914e-01 -1.808453321456909180e+00 3.349119186401367188e+00 -1.762269973754882812e+01 1.710664987564086914e+00 -1.047161698341369629e+00 -9.999218583106994629e-01 -2.573301792144775391e-01 2.126434135437011719e+01 2.960700035095214844e+00 -1.025482863187789917e-01 -2.410645246505737305e+00 4.204140007495880127e-01 6.614272594451904297e+00 1.217086029052734375e+01 1.393206214904785156e+01 -2.323547124862670898e+00 -1.783124351501464844e+01 -5.833822250366210938e+00 4.238584518432617188e+00 -2.603473186492919922e+00 -2.435992658138275146e-01 6.644086837768554688e-01 -1.223558330535888672e+01 2.593930363655090332e-01 5.133237838745117188e+00 7.963828563690185547e+00 -4.231528091430664062e+01 2.004669427871704102e+00 -1.119398021697998047e+01 -2.615555226802825928e-01 -1.117182826995849609e+01 1.012023925781250000e+01 -2.975374603271484375e+01 1.544833087921142578e+01 4.714673042297363281e+00 -3.479231357574462891e+00 3.469448089599609375e+01 1.367945766448974609e+01 -1.164595317840576172e+01 5.327031612396240234e-01 -5.256691932678222656e+00 1.310407876968383789e+00 2.266195416450500488e-02 -2.390049695968627930e+00 -5.019029974937438965e-01 -2.312903976440429688e+01 -1.823802113533020020e+00 6.824223399162292480e-01 -1.623860597610473633e+00
3.707142472267150879e-01 1.824094951152801514e-01 2.093347311019897461e+00 -9.370564460754394531e+00 1.230007767677307129e+00 -5.560792088508605957e-01 -1.291650533676147461e+00 1.099921226501464844e+00 -2.724557495117187500e+01 -1.381935775279998779e-01 -1.807858198881149292e-01 -1.808202266693115234e+00 2.335177183151245117e+00 1.183537840843200684e+00 -6.581990242004394531e+00 -2.019625473022460938e+01 -3.360266685485839844e-01 -6.888230323791503906e+00 6.885986328125000000e+00 6.371618270874023438e+00 -1.122617840766906738e+00 -8.345884680747985840e-01 -2.080994129180908203e+00 1.002137374877929688e+01 1.901662707328796387e+00 -3.960580825805664062e-01 -2.723138236999511719e+01 8.713585853576660156e+00 9.103710651397705078e-01 -1.282233810424804688e+01 3.722162723541259766e+00 -1.530918598175048828e+01 -1.361921310424804688e+00 5.265817165374755859e+00 6.168104648590087891e+00 -3.498311614990234375e+01 -1.346193027496337891e+01 6.180423736572265625e+00 2.684579658508300781e+01 1.741235923767089844e+01 -1.023589611053466797e+00 -1.521623229980468750e+01 1.252705693244934082e+00 1.599943637847900391e-01 1.350155830383300781e+01 -2.420992136001586914e+00 -7.834549903869628906e+00 6.061368584632873535e-01 -1.557521969079971313e-01 1.357362270355224609e+00
1.607660353183746338e-01 2.496487140655517578e+00 2.846673965454101562e+00 2.448926925659179688e+01 -4.726020693778991699e-01 -1.981030941009521484e+00 -4.900796115398406982e-01 8.342509269714355469e-01 -1.557752990722656250e+01 -1.356945633888244629e+00 -1.614982366561889648e+00 -2.598645687103271484e+00 1.452096939086914062e+00 -1.228584408760070801e+00 -1.022772789001464844e+00 -1.588362789154052734e+01 -5.882668495178222656e-01 -1.490793704986572266e+01 -1.807119846343994141e+00 -1.730683445930480957e+00 1.853826642036437988e+00 -3.970292329788208008e+00 -1.357378244400024414e+00 7.895281791687011719e+00 1.602145433425903320e-01 -7.805156707763671875e+00 1.693542289733886719e+01 -6.245676994323730469e+00 5.726761341094970703e+00 2.871513175964355469e+01 3.486624240875244141e+00 5.709511280059814453e+00 2.397801399230957031e+00 -2.233290100097656250e+01 -2.230278968811035156e+01 -1.785422134399414062e+01 1.792185592651367188e+01 2.951075077056884766e+00 9.082015037536621094e+00 4.602932453155517578e+00 9.851929545402526855e-01 1.577377796173095703e+01 -1.231094002723693848e+00 -1.834150910377502441e+00 2.368227577209472656e+01 9.034568667411804199e-01 -1.903473854064941406e+01 -4.923695325851440430e-01 1.809645071625709534e-02 -7.755578309297561646e-02
