-1.217851400375366211e+00 2.956447601318359375e-01 5.519098043441772461e-01 8.141100883483886719e+00 -2.437815070152282715e-01 -1.226456761360168457e+00 -1.863793373107910156e+00 -1.131926536560058594e+01 -5.930322170257568359e+00 -6.208746433258056641e-01 6.882389783859252930e-01 4.799618124961853027e-01 1.659470558166503906e+00 8.242672920227050781e+00 -1.342210054397583008e+00 6.805311679840087891e+00 1.422136688232421875e+01 2.099938154220581055e+00 4.370483398437500000e+00 5.149335861206054688e-01 -1.204013228416442871e+00 9.418560981750488281e+00 -1.643310785293579102e+00 3.089522838592529297e+00 7.439424037933349609e+00 9.163500785827636719e+00 -1.854368805885314941e+00 1.253250598907470703e+00 -7.732163071632385254e-01 -8.784561753273010254e-01 -3.964601516723632812e+00 2.305841922760009766e+00 -1.111640334129333496e+00 -4.638721644878387451e-01 -1.406613707542419434e+00 -1.376509964466094971e-01 3.541507720947265625e+00 -8.850870132446289062e-01 -3.938947439193725586e+00 3.464185297489166260e-01 -7.015563845634460449e-01 4.339495599269866943e-01 3.622941255569458008e+00 7.571418762207031250e+00 1.307547837495803833e-01 9.066751599311828613e-01 1.219448804855346680e+00 -1.118612170219421387e+00 -1.709607839584350586e+00 1.585352063179016113e+00 -1.108309268951416016e+00 5.483873367309570312e+00 1.395128059387207031e+01 1.249872875213623047e+01 -1.034236550331115723e+00 -1.122892284393310547e+01 1.331745982170104980e-01 -1.186290740966796875e+01 9.150305747985839844e+00 8.959468603134155273e-01 -1.145570039749145508e+00 1.162984967231750488e+00 1.312498927116394043e+00 1.160626530647277832e+00 1.001236629486083984e+01 -1.568161725997924805e+00 5.289775729179382324e-01 7.529330730438232422e+00 1.293418288230895996e+00 7.274393558502197266e+00 -9.784938812255859375e+00 8.994248390197753906e+00 -3.327341377735137939e-01 4.252051830291748047e+00 -2.328654229640960693e-01 -8.046198636293411255e-02 -1.837406992912292480e+00 6.482470780611038208e-02 5.048945426940917969e+00 -1.141641959547996521e-01 7.787806034088134766e+00 2.527881145477294922e+00 -5.063166618347167969e-01 1.877305656671524048e-01 -1.308825206756591797e+01 2.953983068466186523e+00 9.887470006942749023e-01 1.293094992637634277e+00 5.768318772315979004e-01 -7.653639912605285645e-01 -4.038512110710144043e-01 -1.000394701957702637e+00 -3.217687129974365234e+00 4.988563060760498047e+00 -7.255896925926208496e-01 3.269295990467071533e-01 -6.017814278602600098e-01 -3.132117539644241333e-02 1.052921414375305176e+00 -6.013176918029785156e+00 -7.475578784942626953e+00 -3.929173231124877930e+00 -3.086812496185302734e+00 -1.048880696296691895e+00 -3.986419200897216797e+00 9.547122716903686523e-01 4.912017285823822021e-01 3.771282434463500977e-01 3.580648899078369141e+00 2.078920841217041016e+00 1.484564065933227539e+00 3.944883346557617188e-01 -6.454457044601440430e-01 2.233962535858154297e+00 -1.413552951812744141e+01 -1.380370259284973145e-01 4.417829036712646484e+00 -1.616081428527832031e+01 -1.662248522043228149e-01 -8.470002174377441406e+00 -3.940027654170989990e-01 8.500195145606994629e-01 4.711012840270996094e-01 1.260661005973815918e+00 5.152426362037658691e-01 6.805497169494628906e+00 -5.541101932525634766e+00 -3.434021174907684326e-01 5.539490580558776855e-01 5.435162782669067383e-01 2.594735860824584961e+00 -2.027608633041381836e+00 4.036674201488494873e-01 -4.689419269561767578e+00 9.794639348983764648e-01 -1.935746192932128906e+01 8.399404287338256836e-01 1.323034882545471191e+00 7.141583442687988281e+00 9.169942736625671387e-01 -1.136006450653076172e+01 -5.936049938201904297e+00 8.443742752075195312e+00 -1.328289794921875000e+01 3.392221033573150635e-01 -1.789925575256347656e+01 -4.802761971950531006e-01 -6.472702503204345703e+00 3.435711860656738281e-01 -1.301519155502319336e+00 8.666151762008666992e-01 5.520018935203552246e-01 -2.115444421768188477e+00 2.618069350719451904e-01 1.084090352058410645e+00 3.571379184722900391e-01 -7.235546112060546875e+00 1.005786991119384766e+01 1.489342212677001953e+00 -5.000748038291931152e-01 -1.254995346069335938e+00 4.774557054042816162e-01 -4.549660980701446533e-01 1.607958555221557617e+00 -1.395438790321350098e+00 -9.514326095581054688e+00 5.307291984558105469e+00 9.849526286125183105e-01 -1.076598092913627625e-01 -9.660344719886779785e-01 1.842063665390014648e-02 -3.184044361114501953e-01 -3.990426540374755859e+00 -1.661743402481079102e+00 9.760287404060363770e-01 6.545785427093505859e+00 6.634666323661804199e-01 -1.210837483406066895e+00 1.236267924308776855e+00 4.929041862487792969e-01 3.311862349510192871e-01 7.246234416961669922e+00 8.360755920410156250e+00 -1.368933081626892090e+00 -2.745888829231262207e-01 -6.735005378723144531e-01 -1.245496463775634766e+01 -2.587969398498535156e+01 2.686602592468261719e+00 3.733611702919006348e-01 1.481961905956268311e-01 7.142719030380249023e-01 -7.587327957153320312e+00 -4.525137543678283691e-01 6.211745738983154297e-01 -5.702530145645141602e-01 -3.826040327548980713e-01 -9.096339225769042969e+00 1.029961585998535156e+01 -7.001854777336120605e-01
5.177558064460754395e-01 1.092810630798339844e+00 6.410987973213195801e-01 1.875540018081665039e+00 -1.870541125535964966e-01 5.014094114303588867e-01 6.108022928237915039e-01 8.017412185668945312e+00 1.489572238922119141e+01 1.579290479421615601e-01 -8.567080497741699219e-01 -1.752262115478515625e-01 -2.015066146850585938e+00 -7.727819442749023438e+00 2.478197962045669556e-01 8.383737564086914062e+00 -4.846029281616210938e+00 -1.802496671676635742e+00 7.774727344512939453e+00 1.467399597167968750e+00 1.619751453399658203e-01 2.416247844696044922e+00 1.404354858398437500e+01 -1.747548103332519531e+00 -3.057126283645629883e+00 -1.142915439605712891e+01 -1.286161243915557861e-01 8.867639303207397461e-01 -5.103044509887695312e-01 6.507633924484252930e-01 -9.843641281127929688e+00 -3.528902530670166016e+00 9.766052961349487305e-01 -5.719958543777465820e-01 -9.420471787452697754e-01 -4.758884385228157043e-02 -1.942030429840087891e+00 -1.281615346670150757e-01 -3.558398008346557617e+00 -1.054060101509094238e+00 -7.930781841278076172e-01 -8.159428834915161133e-01 1.739660739898681641e+00 1.044455718994140625e+01 -8.489946722984313965e-01 -1.483469605445861816e-01 1.115524530410766602e+00 1.177245974540710449e+00 -1.341237425804138184e+00 -7.067742347717285156e-01 7.757496833801269531e-01 1.130308246612548828e+01 -5.487247467041015625e+00 -1.780750656127929688e+01 1.508386135101318359e+00 2.318093776702880859e+00 6.684042930603027344e+00 6.590315818786621094e+00 3.555288076400756836e+00 3.800771832466125488e-01 7.250627279281616211e-01 4.671250343322753906e+00 -8.056172370910644531e+00 3.788276389241218567e-02 -8.401479721069335938e+00 -7.801790833473205566e-01 -2.579116225242614746e-01 2.628355622291564941e-01 -6.515533328056335449e-01 -9.823365211486816406e+00 6.823000907897949219e+00 9.272039413452148438e+00 -2.903677523136138916e-01 8.188735008239746094e+00 -3.908609151840209961e-01 -1.277333498001098633e+00 -5.611737817525863647e-02 6.952044963836669922e-01 -2.377275466918945312e+00 -4.231226444244384766e-01 -1.448633003234863281e+01 -9.472240805625915527e-01 -3.310447335243225098e-01 3.885428905487060547e-01 -1.220692157745361328e+01 6.617971897125244141e+00 -4.154683351516723633e-01 1.109094023704528809e+00 -7.862405180931091309e-01 2.667200863361358643e-01 6.465290188789367676e-01 -1.786771416664123535e+00 -2.317753982543945312e+01 2.737935066223144531e+00 -3.993310332298278809e-01 6.455007940530776978e-02 -7.771489620208740234e-01 -1.469673037528991699e+00 2.979014813899993896e-01 6.879314899444580078e+00 -7.978804111480712891e+00 1.659676361083984375e+01 1.074496078491210938e+01 -2.273084670305252075e-01 -1.173535633087158203e+01 8.470522880554199219e+00 -1.807509511709213257e-01 5.594757556915283203e+00 8.942358493804931641e-01 -2.805243968963623047e+00 -1.930015325546264648e+00 -4.042108952999114990e-01 3.990808129310607910e-01 8.931887626647949219e+00 -2.346835851669311523e+00 -7.100800275802612305e-01 2.995907545089721680e+00 4.960237979888916016e+00 -6.269956231117248535e-01 -5.713108062744140625e+00 6.000566482543945312e+00 1.083716750144958496e+00 -7.536426186561584473e-01 1.445593237876892090e+00 -2.668718993663787842e-01 2.757898569107055664e+00 -7.116683483123779297e+00 7.456903904676437378e-02 4.733649268746376038e-02 1.248719245195388794e-01 -3.530450820922851562e+00 7.864985942840576172e+00 -5.813913941383361816e-01 -1.288984656333923340e+00 -9.615046977996826172e-01 -7.094027996063232422e+00 3.756041228771209717e-01 1.408675432205200195e+00 -9.731259346008300781e+00 -6.792496442794799805e-01 -1.241980171203613281e+01 -2.283769989013671875e+01 9.084195137023925781e+00 1.386238193511962891e+01 -1.928135871887207031e+00 2.646646499633789062e-01 3.915282964706420898e+00 -1.639735794067382812e+01 1.190176606178283691e-01 -2.481901347637176514e-01 -1.874555498361587524e-01 -9.897741079330444336e-01 9.001850485801696777e-01 8.708555698394775391e-01 1.042755961418151855e+00 -2.396622449159622192e-01 -9.123032569885253906e+00 -1.337951755523681641e+01 6.836116313934326172e-02 1.184894084930419922e+00 5.680853724479675293e-01 7.675768733024597168e-01 6.412106752395629883e-02 1.599812984466552734e+00 -7.041528701782226562e+00 4.489056468009948730e-01 4.472337245941162109e+00 8.260290026664733887e-01 -3.556681871414184570e+00 2.623406946659088135e-01 -7.381136994808912277e-03 -2.308576181530952454e-02 3.062987804412841797e+00 6.914565563201904297e-01 5.489665865898132324e-01 8.810280799865722656e+00 -9.230152130126953125e+00 -6.144403457641601562e+00 1.941984295845031738e+00 -2.631483376026153564e-01 5.745022892951965332e-01 -9.791118621826171875e+00 1.861465334892272949e+00 -1.289898395538330078e+00 -4.064851999282836914e-01 1.602629065513610840e+00 -2.294453382492065430e+00 4.043330669403076172e+00 2.494469881057739258e+00 9.550237655639648438e-01 1.059908390045166016e+00 -1.260933399200439453e+00 8.131160736083984375e+00 5.302760601043701172e-01 -1.455864012241363525e-01 -8.948316574096679688e-01 -6.891841292381286621e-01 -6.435124278068542480e-01 -4.090910911560058594e+00 1.111912608146667480e+00
3.642720878124237061e-01 5.376613140106201172e-01 -1.727742254734039307e-01 8.599741935729980469e+00 -9.157080054283142090e-01 -8.347442746162414551e-01 -1.774399876594543457e+00 5.649599075317382812e+00 2.713564395904541016e+00 3.595972955226898193e-01 -1.284114867448806763e-01 6.857960224151611328e-01 2.490614652633666992e+00 -7.275611877441406250e+00 1.225826025009155273e+00 -7.790321350097656250e+00 -1.883631467819213867e+00 6.702610254287719727e-01 -9.908420562744140625e+00 1.012230634689331055e+00 -3.766653835773468018e-01 -1.801385688781738281e+01 1.469784832000732422e+01 -6.560099601745605469e+00 5.809852600097656250e+00 4.046798706054687500e+00 -3.897594213485717773e-01 -1.571958810091018677e-01 2.411917150020599365e-01 -3.280444145202636719e-01 -5.588740825653076172e+00 1.466584205627441406e+00 -1.208744883537292480e+00 -6.692975759506225586e-01 -1.671338081359863281e+00 4.616269469261169434e-02 -4.963931083679199219e+00 2.856619358062744141e-01 -4.701181948184967041e-01 1.692642718553543091e-01 1.244062423706054688e+00 3.757879436016082764e-01 -9.202790856361389160e-01 -1.112628650665283203e+01 1.162365794181823730e+00 4.641570523381233215e-02 2.922488152980804443e-01 -6.862515211105346680e-01 -1.172305345535278320e+00 -5.679383873939514160e-01 -8.333408236503601074e-01 -8.845905065536499023e-01 1.321417999267578125e+01 1.611106276512145996e+00 -7.093890011310577393e-02 -1.963958501815795898e+00 9.585649490356445312e+00 8.207015991210937500e+00 1.119930076599121094e+01 1.375529319047927856e-01 6.847320795059204102e-01 -2.835209369659423828e+00 6.272516727447509766e+00 -1.207361459732055664e+00 -1.642676162719726562e+01 1.030421704053878784e-01 8.104606270790100098e-01 5.956754207611083984e+00 -1.821429252624511719e+00 7.611584663391113281e+00 -6.660097122192382812e+00 1.005501365661621094e+01 1.183911561965942383e+00 1.668538331985473633e+00 3.344661295413970947e-01 -2.586406767368316650e-01 -2.418966591358184814e-01 1.227249950170516968e-01 -5.753005504608154297e+00 8.763886094093322754e-01 9.380109786987304688e+00 6.497260570526123047e+00 9.766381978988647461e-01 -1.320945262908935547e+00 6.749837875366210938e+00 -8.724091053009033203e-01 -3.858051300048828125e-01 8.679169416427612305e-01 8.013276457786560059e-01 1.303414940834045410e+00 -1.218757271766662598e+00 1.283818244934082031e+00 5.329920291900634766e+00 1.192872428894042969e+01 -3.260382451117038727e-03 -1.632744073867797852e-01 -6.800354719161987305e-01 3.545778095722198486e-01 -2.082150459289550781e+00 -1.251273918151855469e+01 -4.739163815975189209e-01 -2.890607357025146484e+00 -7.338640093803405762e-01 5.345523357391357422e-01 -9.958180427551269531e+00 1.131096553802490234e+01 -1.683120429515838623e-01 -2.143705940246582031e+01 -4.535543441772460938e+00 8.899564743041992188e-01 5.372143983840942383e-01 -6.792895197868347168e-01 -1.305687069892883301e+00 -9.063665390014648438e+00 1.808178520202636719e+01 5.666741132736206055e-01 -5.440304756164550781e+00 5.531921386718750000e+00 7.451908588409423828e-01 1.767617797851562500e+01 -6.922344565391540527e-01 1.084563210606575012e-01 3.771854639053344727e-01 6.332363486289978027e-01 5.278360843658447266e-01 -4.578270435333251953e+00 -3.947915554046630859e+00 1.189622044563293457e+00 1.298699676990509033e-01 -1.623593926429748535e+00 -2.043785095214843750e+00 -5.457046031951904297e+00 1.305466294288635254e+00 -6.002135753631591797e+00 7.719550132751464844e-01 9.587977528572082520e-01 4.576487243175506592e-01 -2.194543600082397461e+00 -1.417177486419677734e+01 -6.051236987113952637e-01 1.121590256690979004e+00 -3.262288570404052734e+00 3.677399396896362305e+00 -3.999346971511840820e+00 1.237503170967102051e+00 -3.362419009208679199e-01 4.246926307678222656e+00 -9.849817276000976562e+00 -3.118784427642822266e-01 -1.290098667144775391e+00 4.393390119075775146e-01 -6.617153286933898926e-01 -8.310528844594955444e-02 -1.032239079475402832e+00 -1.375066757202148438e+00 -4.809319078922271729e-01 5.401222705841064453e+00 1.873756408691406250e+00 -1.164470863342285156e+01 -1.334124654531478882e-01 1.578322649002075195e+00 3.806996047496795654e-01 -1.277842760086059570e+00 1.358451366424560547e+00 -1.720734238624572754e+00 4.465126991271972656e+00 -1.786384284496307373e-01 1.655179560184478760e-01 4.469841957092285156e+00 8.433713316917419434e-01 9.251236915588378906e-02 3.851308345794677734e+00 -9.577427864074707031e+00 5.293311923742294312e-02 8.733227252960205078e-01 4.745276451110839844e+00 2.353038311004638672e+00 8.077257156372070312e+00 3.748949170112609863e-01 -6.101056933403015137e-01 -1.425767898559570312e+00 8.751693725585937500e+00 1.011559677124023438e+01 -2.788482047617435455e-02 3.384393081068992615e-02 -8.112815767526626587e-02 -6.871958255767822266e+00 -5.150216102600097656e+00 9.006553649902343750e+00 7.110535502433776855e-01 -7.026745676994323730e-01 -6.153717637062072754e-01 -1.758132696151733398e+00 -2.448723465204238892e-01 -1.087255716323852539e+00 1.345821285247802734e+01 9.390017390251159668e-01 1.313831901550292969e+01 -1.529422092437744141e+01 3.195138275623321533e-01
-7.040787935256958008e-01 6.355485916137695312e-01 1.112889170646667480e+00 -9.884750366210937500e+00 -2.242741733789443970e-01 -7.306885123252868652e-01 2.898849733173847198e-02 5.635760307312011719e+00 7.440450191497802734e+00 -1.064117550849914551e+00 6.020994186401367188e-01 -1.456470936536788940e-01 -1.795057177543640137e+00 3.085610628128051758e+00 -2.695688605308532715e-01 -5.544338703155517578e+00 -4.855676174163818359e+00 5.382748842239379883e-01 -1.925168228149414062e+01 9.870535731315612793e-01 7.647553831338882446e-02 3.073455333709716797e+00 -6.551244735717773438e+00 -1.148554086685180664e+00 -1.539088439941406250e+01 -9.605582237243652344e+00 -4.438373148441314697e-01 3.816451877355575562e-02 -1.315554738044738770e+00 -6.814693212509155273e-01 -2.403243303298950195e+00 -1.411415386199951172e+01 -1.974896155297756195e-02 -1.761147007346153259e-02 -7.934011518955230713e-02 -1.230393171310424805e+00 6.969464778900146484e+00 -1.795885920524597168e+00 1.613711714744567871e+00 3.332548737525939941e-01 -9.326908588409423828e-01 -7.440554499626159668e-01 -2.971215963363647461e+00 4.074339389801025391e+00 -7.349271327257156372e-03 8.787295818328857422e-01 -8.381613492965698242e-01 -9.177000522613525391e-01 -8.336789906024932861e-02 7.610853910446166992e-01 5.894094705581665039e-01 -1.677565574645996094e-01 1.255419921875000000e+01 2.585544824600219727e+00 -1.857224583625793457e+00 -1.953137993812561035e+00 1.063910102844238281e+01 -1.641830825805664062e+01 -7.194124221801757812e+00 -1.204141497611999512e+00 1.825923442840576172e+00 2.025781393051147461e+00 5.290791511535644531e+00 8.340827375650405884e-02 -1.871883201599121094e+01 4.192845821380615234e-01 -9.553433656692504883e-01 1.479036450386047363e+00 8.106391876935958862e-02 -7.147484302520751953e+00 -2.321216583251953125e+00 -4.299696683883666992e-01 -1.246560335159301758e+00 1.467341327667236328e+01 6.358123421669006348e-01 7.646503448486328125e-01 2.792901694774627686e-01 -4.023295640945434570e-01 -5.355489253997802734e+00 -9.737147688865661621e-01 -1.110233306884765625e+01 2.540923357009887695e+00 3.054639399051666260e-01 -3.958311378955841064e-01 -6.631551265716552734e+00 8.823040962219238281e+00 9.530538320541381836e-01 -1.273890137672424316e+00 2.028086595237255096e-02 -6.513082385063171387e-01 -4.787302613258361816e-01 2.698378324508666992e+00 8.084490776062011719e+00 6.284192085266113281e+00 -1.823156177997589111e-01 1.311146140098571777e+00 2.230301618576049805e+00 -8.945792317390441895e-01 -5.919479131698608398e-01 4.999680817127227783e-01 -1.062871170043945312e+01 7.356137037277221680e-01 6.774963378906250000e+00 8.040406703948974609e-01 -9.032223701477050781e+00 -6.979865550994873047e+00 -2.387457713484764099e-02 -7.133101463317871094e+00 -4.156565189361572266e+00 -3.538977146148681641e+00 1.980871677398681641e+00 -1.419776082038879395e+00 -1.680264994502067566e-02 5.065429210662841797e+00 2.416030317544937134e-01 -3.381652235984802246e-01 1.125271034240722656e+01 3.320985317230224609e+00 5.532246083021163940e-02 9.425191879272460938e+00 -1.803717803955078125e+01 -3.147337138652801514e-01 3.002903163433074951e-01 -1.205733656883239746e+00 -5.228888392448425293e-01 -1.489940166473388672e+01 1.043957901000976562e+01 -1.551025956869125366e-01 -5.040342211723327637e-01 4.517314434051513672e-01 1.073761343955993652e+00 6.698464393615722656e+00 1.029093265533447266e+00 1.060755729675292969e+01 1.370336890220642090e+00 -3.702888250350952148e+00 4.999998956918716431e-02 -5.724317952990531921e-02 2.318473100662231445e+00 1.512811660766601562e+00 1.027819824218750000e+01 1.173525619506835938e+01 -3.092086076736450195e+00 -5.621943473815917969e+00 1.344245433807373047e+00 -4.277969360351562500e+00 2.554186344146728516e+00 -1.065841555595397949e+00 -1.318734765052795410e+00 -4.397402331233024597e-02 -2.143740653991699219e-01 6.266875565052032471e-02 4.918251931667327881e-01 5.194657444953918457e-01 1.251694262027740479e-01 9.057903885841369629e-01 -1.913133811950683594e+01 3.833748579025268555e+00 4.226039409637451172e+00 1.455682963132858276e-01 6.743901371955871582e-01 7.001383304595947266e-01 2.194139480590820312e+00 3.268310427665710449e-01 4.039225101470947266e+00 -1.367959022521972656e+00 -1.558259487152099609e+00 1.379313588142395020e+00 -7.691499590873718262e-01 6.850520968437194824e-01 -4.645586609840393066e-01 -5.036379337310791016e+00 1.078733921051025391e+01 -7.528941035270690918e-01 -4.073802828788757324e-01 -2.831167697906494141e+00 8.034425735473632812e+00 -3.235282659530639648e+00 -2.466208696365356445e+00 -3.032680749893188477e-01 7.359027862548828125e-01 -5.720981597900390625e+00 1.018656444549560547e+01 4.791792333126068115e-01 -7.519612908363342285e-01 -1.010731905698776245e-01 8.035550117492675781e+00 2.683201074600219727e+00 -5.892626643180847168e-01 -7.338466048240661621e-01 -1.296306967735290527e+00 -1.561914384365081787e-01 -3.225586414337158203e-01 8.419728279113769531e-01 -1.030721142888069153e-01 3.054653882980346680e+00 1.334564447402954102e+00 8.584424972534179688e+00 1.245070648193359375e+01 2.746730744838714600e-01
-4.933086633682250977e-01 1.091081619262695312e+00 2.438839435577392578e+00 -7.126414775848388672e-01 -3.318573832511901855e-01 -3.633714616298675537e-01 2.701895236968994141e-01 1.189561486244201660e+00 1.073744964599609375e+01 1.403305888175964355e+00 -3.035329747945070267e-03 -7.809378206729888916e-02 9.361957907676696777e-01 5.297081470489501953e+00 7.748358845710754395e-01 3.876122236251831055e+00 -1.435655498504638672e+01 -6.399215459823608398e-01 1.144760417938232422e+01 -7.120380997657775879e-01 -1.913739442825317383e+00 9.436800003051757812e+00 6.264725208282470703e+00 -5.141185760498046875e+00 -1.186418724060058594e+01 7.878466844558715820e-01 -3.257331550121307373e-01 -4.060015082359313965e-01 6.011561751365661621e-01 1.544351816177368164e+00 -5.065494060516357422e+00 -3.922912120819091797e+00 -1.019132137298583984e+00 2.350864857435226440e-01 -4.059352278709411621e-01 -1.060260057449340820e+00 4.119916439056396484e+00 2.778184175491333008e+00 -4.637463092803955078e+00 3.143769800662994385e-01 3.264089822769165039e-01 -5.527039989829063416e-02 9.990097999572753906e+00 -1.535458469390869141e+01 -2.449139952659606934e-01 -4.463143050670623779e-01 -7.275762557983398438e-01 5.994864702224731445e-01 7.391081452369689941e-01 -4.614969789981842041e-01 7.699277400970458984e-01 2.663697719573974609e+00 -9.463639259338378906e+00 -1.194943904876708984e+01 -2.413080781698226929e-01 6.999272823333740234e+00 -2.075684928894042969e+01 4.433765634894371033e-02 -3.692942857742309570e-01 9.462465643882751465e-01 -2.449009269475936890e-01 -8.352766990661621094e+00 -9.179710745811462402e-01 4.480828046798706055e-01 -2.568114519119262695e+00 3.200877904891967773e-01 -4.771498441696166992e-01 4.133211135864257812e+00 -1.564368486404418945e+00 1.796535110473632812e+01 -8.697403669357299805e-01 -4.616537094116210938e+00 -8.955021500587463379e-01 -2.539933919906616211e+00 -4.343758225440979004e-01 9.684486389160156250e-01 7.551473975181579590e-01 -1.671659946441650391e+00 -1.280123043060302734e+01 3.751845061779022217e-01 1.132392120361328125e+01 -1.616336464881896973e+00 -4.000262022018432617e-01 -8.541746139526367188e-01 1.024295806884765625e+00 9.484359741210937500e+00 2.368388921022415161e-01 6.634140014648437500e-01 2.023576349020004272e-01 2.546049356460571289e-01 5.105264186859130859e-01 7.591971755027770996e-01 4.664429664611816406e+00 1.052329037338495255e-02 1.284906148910522461e+00 2.963959053158760071e-02 5.695337653160095215e-01 3.589385151863098145e-01 4.259059429168701172e-01 -8.356598854064941406e+00 3.576384544372558594e+00 -1.502288532257080078e+01 -1.154726886749267578e+01 -1.197932004928588867e+00 -9.231437444686889648e-01 -6.490601062774658203e+00 1.310728430747985840e+00 1.891941261291503906e+01 -1.011383628845214844e+01 8.442559242248535156e+00 5.704316496849060059e-01 8.806054592132568359e-01 8.827129006385803223e-02 4.699810028076171875e+00 -2.438609361648559570e+00 -8.429054617881774902e-01 8.059726715087890625e+00 1.127622032165527344e+01 4.147315621376037598e-01 -5.989419937133789062e+00 -5.150201797485351562e+00 2.182111144065856934e-01 1.358888149261474609e-01 -4.380854666233062744e-01 2.047405958175659180e+00 1.522993183135986328e+01 -6.938572883605957031e+00 3.763929307460784912e-01 -8.625916838645935059e-01 -7.399099469184875488e-01 1.509053587913513184e+00 -4.432354927062988281e+00 6.863622069358825684e-01 -2.882103919982910156e+00 -6.083055734634399414e-01 -1.152593040466308594e+01 -6.846340298652648926e-01 6.825923919677734375e-01 6.844107627868652344e+00 5.683397874236106873e-02 -1.391201019287109375e+01 5.827595710754394531e+00 -1.275462436676025391e+01 -1.406715202331542969e+01 -6.690685749053955078e-01 5.496536254882812500e+00 6.112985610961914062e+00 -6.810016632080078125e+00 -1.580127716064453125e+00 -6.583145260810852051e-01 -4.164185822010040283e-01 -1.080587729811668396e-01 -8.024061471223831177e-02 -7.480295300483703613e-01 6.651088595390319824e-01 9.039668440818786621e-01 -1.560628223419189453e+01 6.817154884338378906e+00 -8.704511642456054688e+00 -4.340762197971343994e-01 -5.783491134643554688e-01 -2.376459240913391113e-01 -6.235412955284118652e-01 1.211377739906311035e+00 1.615547537803649902e+00 1.586103820800781250e+01 1.943405747413635254e+00 6.731513142585754395e-01 -9.176553726196289062e+00 8.963817358016967773e-01 1.186316013336181641e-01 1.703062891960144043e+00 -4.305469036102294922e+00 -5.155025720596313477e-01 5.735676288604736328e-01 7.359246730804443359e+00 2.283717393875122070e+00 -6.703574657440185547e+00 -2.247988224029541016e+00 9.368127584457397461e-01 -5.685234069824218750e-02 8.673021316528320312e+00 -1.091708469390869141e+01 4.800337553024291992e-01 1.383766770362854004e+00 1.404466014355421066e-02 2.366986989974975586e+00 1.335194873809814453e+01 -3.712856292724609375e+00 6.866875886917114258e-01 2.413704097270965576e-01 -1.027709007263183594e+00 -4.208897590637207031e+00 1.045260578393936157e-02 7.829811573028564453e-01 1.681902122497558594e+01 -1.400566548109054565e-01 6.733513355255126953e+00 7.044298171997070312e+00 -2.580418288707733154e-01
7.829872965812683105e-01 9.803029298782348633e-01 -9.904379844665527344e-01 -1.888520419597625732e-01 -5.745760202407836914e-01 1.295701742172241211e+00 -7.256820201873779297e-01 4.885004043579101562e+00 -1.244598484039306641e+01 -3.496390819549560547e+00 7.741148471832275391e-01 1.209811568260192871e+00 -1.868745803833007812e+00 1.190000820159912109e+01 -3.762817382812500000e-01 1.514728069305419922e+01 6.614006042480468750e+00 -7.100083231925964355e-01 -1.542644381523132324e+00 5.996267795562744141e-01 7.486087679862976074e-01 -5.907659530639648438e+00 8.797452926635742188e+00 -2.770867109298706055e+00 2.840957164764404297e+00 9.628364562988281250e+00 -9.253718852996826172e-01 -4.744549095630645752e-02 6.395728588104248047e-01 -4.142374992370605469e-01 7.759531021118164062e+00 2.690740585327148438e+01 -7.414114475250244141e-01 3.246487379074096680e-01 -3.020156323909759521e-01 -4.821202456951141357e-01 8.573010563850402832e-01 -2.296550989151000977e+00 -5.691061727702617645e-03 2.052165269851684570e+00 -1.166070550680160522e-01 1.204087361693382263e-01 -9.660499572753906250e+00 3.796499252319335938e+00 -1.740988492965698242e+00 -6.613935232162475586e-01 1.919141411781311035e+00 9.594781398773193359e-01 3.225248456001281738e-01 -5.679932832717895508e-01 1.121215701103210449e+00 -1.527369213104248047e+01 -1.191731262207031250e+01 -6.042467117309570312e+00 -5.244178771972656250e-01 -1.355639934539794922e+01 6.751728057861328125e-01 -3.142420291900634766e+00 -1.359717178344726562e+01 -3.026977479457855225e-01 -2.792454063892364502e-01 -7.926787137985229492e-01 2.688411951065063477e+00 6.970023512840270996e-01 -1.084774017333984375e+01 -1.238202214241027832e+00 -1.313599646091461182e-01 -7.363074779510498047e+00 1.562975883483886719e+00 -1.524334669113159180e+00 -2.762203931808471680e+00 1.417643904685974121e+00 -1.531698554754257202e-01 -1.430775737762451172e+01 9.327803850173950195e-01 1.396266698837280273e+00 -2.249608516693115234e+00 7.417798042297363281e-01 1.252825641632080078e+01 -1.453547328710556030e-01 -6.270046234130859375e+00 6.142106056213378906e+00 -7.636020183563232422e-01 -6.348196864128112793e-01 6.948681831359863281e+00 6.889366626739501953e+00 -3.378239274024963379e-01 6.799297034740447998e-02 -9.614658951759338379e-01 -4.480408132076263428e-01 -8.566923141479492188e-01 -1.568590551614761353e-01 -1.166737174987792969e+01 5.387002468109130859e+00 -1.311329841613769531e+00 2.553818747401237488e-02 -7.052748799324035645e-01 -2.927668690681457520e-01 1.079233527183532715e+00 6.542045116424560547e+00 5.789467811584472656e+00 -2.767437458038330078e+00 4.997431755065917969e+00 9.392410516738891602e-01 -7.999325752258300781e+00 -3.621368169784545898e+00 -7.502017021179199219e-01 7.111594200134277344e+00 3.613496541976928711e+00 1.580294370651245117e+00 -9.309921264648437500e-01 -6.304543018341064453e-01 -1.395297516137361526e-02 -9.739832282066345215e-01 1.011038684844970703e+01 -2.823716998100280762e-01 5.520724773406982422e+00 1.679588127136230469e+01 5.002682209014892578e-01 1.563037204742431641e+01 8.257643699645996094e+00 -1.252327799797058105e+00 5.391178131103515625e-01 9.290410280227661133e-01 -7.881567478179931641e-01 -6.507356762886047363e-01 1.982166886329650879e+00 -2.062261998653411865e-01 -1.399966031312942505e-01 -5.221897959709167480e-01 1.097834348678588867e+00 5.924664735794067383e-01 -1.094187855720520020e+00 -2.489190101623535156e+00 -1.737389862537384033e-01 -1.279630470275878906e+01 7.733911871910095215e-01 3.641799390316009521e-01 2.000391769409179688e+01 6.483828425407409668e-01 2.162423133850097656e+00 -9.387319684028625488e-01 1.342389392852783203e+01 -1.069396686553955078e+01 -1.206299066543579102e+00 1.355443763732910156e+01 5.077282786369323730e-01 -1.355779170989990234e+01 -6.254075169563293457e-01 -7.258850932121276855e-01 -2.789992690086364746e-01 -6.164266467094421387e-01 -5.560035109519958496e-01 1.439496040344238281e+00 3.052783012390136719e-01 6.810839176177978516e-01 5.209026336669921875e+00 3.095535755157470703e+00 5.984992504119873047e+00 -1.115330219268798828e+00 -2.582872100174427032e-02 -7.236434221267700195e-01 -1.082630395889282227e+00 -2.157839238643646240e-01 1.119820952415466309e+00 1.325211048126220703e+01 -1.164577364921569824e+00 -1.249177753925323486e-01 -6.920330047607421875e+00 -4.318685233592987061e-01 -6.068442463874816895e-01 -4.744609355926513672e+00 7.172655105590820312e+00 3.139731884002685547e-01 4.480943083763122559e-01 -1.566569232940673828e+01 -1.137550950050354004e+00 3.395264387130737305e+00 8.517985343933105469e-01 5.587590336799621582e-01 1.279415845870971680e+00 2.520666599273681641e+00 -3.828415274620056152e-01 1.000364124774932861e-01 -3.506002426147460938e-01 4.924310743808746338e-02 7.157146453857421875e+00 4.238968372344970703e+00 7.516978263854980469e+00 5.195420980453491211e-01 2.732039391994476318e-01 -2.718663513660430908e-01 -7.783170223236083984e+00 -4.782688915729522705e-01 -9.397009611129760742e-01 -9.003856658935546875e+00 7.633597850799560547e-01 1.275980710983276367e+00 7.198810577392578125e+00 -4.166220724582672119e-01
8.125570416450500488e-01 -6.844952106475830078e-01 2.789547920227050781e+00 1.240372562408447266e+01 9.859678745269775391e-01 2.364943325519561768e-01 -8.214459419250488281e-01 -4.654590606689453125e+00 -3.455113887786865234e+00 1.571173191070556641e+00 -1.599015235900878906e+00 1.774414330720901489e-01 3.363279104232788086e-01 -8.268334388732910156e+00 2.562145233154296875e+00 -8.914825439453125000e+00 3.892902731895446777e-01 1.096005916595458984e+00 8.444984436035156250e+00 4.643844962120056152e-01 7.312939763069152832e-01 8.607028961181640625e+00 4.982177257537841797e+00 3.916143178939819336e+00 1.000650024414062500e+01 1.603944206237792969e+01 2.901221513748168945e-01 -1.144992828369140625e+00 -4.597104787826538086e-01 6.062233820557594299e-02 6.748510360717773438e+00 2.375280708074569702e-01 2.708613276481628418e-01 -1.983264565467834473e+00 8.629283308982849121e-01 -1.664227247238159180e-01 1.104479312896728516e+01 -1.261100769042968750e-01 6.504586219787597656e+00 1.209222555160522461e+00 4.878258705139160156e-01 3.581398632377386093e-03 -8.312047719955444336e-01 -6.510577678680419922e+00 8.668144047260284424e-02 1.754052042961120605e+00 1.968386322259902954e-01 -8.515040874481201172e-01 -7.801613211631774902e-01 -2.682926058769226074e-01 -9.547202587127685547e-01 -1.286044883728027344e+01 -5.678921222686767578e+00 -6.266298770904541016e+00 -1.654943704605102539e+00 9.736533164978027344e+00 -1.085962200164794922e+01 1.727792620658874512e+00 1.861514472961425781e+01 -4.571375250816345215e-01 -1.686431407928466797e+00 2.329145193099975586e+00 -2.056540870666503906e+01 1.430493444204330444e-01 -4.190112590789794922e+00 3.905744254589080811e-01 -5.951122045516967773e-01 -5.817439079284667969e+00 1.511235535144805908e-01 -1.603322601318359375e+01 -4.356348037719726562e+00 -1.060334444046020508e+00 1.437372446060180664e+00 7.812766075134277344e+00 -3.383635878562927246e-01 -1.404659271240234375e+00 1.543061971664428711e+00 1.413464695215225220e-01 -1.230486392974853516e+00 -4.028372764587402344e-01 8.568639755249023438e+00 7.164446830749511719e+00 7.405065894126892090e-01 1.182460546493530273e+00 -5.188141822814941406e+00 7.435060977935791016e+00 -4.075599610805511475e-01 -1.615400165319442749e-01 1.852950900793075562e-01 -9.659513235092163086e-01 -1.042509436607360840e+00 -9.710965305566787720e-02 7.051429271697998047e+00 1.024932098388671875e+01 -2.951571643352508545e-01 1.419854909181594849e-01 4.067859351634979248e-01 -6.379739642143249512e-01 1.025201439857482910e+00 -8.389789581298828125e+00 -5.747339248657226562e+00 1.420327377319335938e+01 -5.938141345977783203e+00 6.894276291131973267e-02 1.742218589782714844e+01 -1.224827384948730469e+01 6.029456853866577148e-01 6.131168842315673828e+00 4.139291286468505859e+00 -9.488365173339843750e+00 1.981307506561279297e+00 -3.283508718013763428e-01 6.359906792640686035e-01 -1.674955844879150391e+00 1.308420848846435547e+01 -1.339479207992553711e+00 -8.232692718505859375e+00 -1.118373680114746094e+01 1.904006153345108032e-01 6.658869743347167969e+00 -2.846205711364746094e+00 7.658581137657165527e-01 6.695615649223327637e-01 7.808300256729125977e-01 -5.636033415794372559e-01 -1.501806831359863281e+01 3.215474367141723633e+00 -4.244921803474426270e-01 -4.482235014438629150e-01 -1.508457660675048828e+00 1.843375802040100098e+00 -2.621299266815185547e+00 -3.113694787025451660e-01 -8.013193130493164062e+00 1.147259593009948730e+00 -1.061095952987670898e+00 2.368114143610000610e-01 -8.263316154479980469e-01 -1.461290001869201660e+00 -1.197156786918640137e+00 -1.012917423248291016e+01 -7.309273242950439453e+00 3.606864452362060547e+00 2.350886464118957520e-01 2.389488369226455688e-01 1.521593809127807617e+00 5.405616283416748047e+00 9.860379695892333984e-01 3.073136210441589355e-01 -6.168493628501892090e-01 -2.291983366012573242e-01 3.900649845600128174e-01 4.489193111658096313e-02 -1.590337157249450684e+00 -1.225968956947326660e+00 -4.216120839118957520e-01 7.861812710762023926e-01 -4.087239265441894531e+00 -2.110713243484497070e+00 -5.704780817031860352e-01 7.342998683452606201e-02 -1.576009392738342285e-01 -4.286074340343475342e-01 -4.127264916896820068e-01 2.165757894515991211e+00 -6.622870922088623047e+00 -7.914115428924560547e+00 3.849625885486602783e-01 -1.579279422760009766e+01 -8.053105473518371582e-01 -4.182939827442169189e-01 -3.107741594314575195e+00 1.246564984321594238e+00 2.456980943679809570e-01 3.421449959278106689e-01 -4.909439563751220703e+00 7.217846393585205078e+00 -7.361617565155029297e+00 -1.187342643737792969e+00 1.298763871192932129e+00 -8.655700087547302246e-01 -1.231681823730468750e+01 4.749739646911621094e+00 8.920358121395111084e-02 6.245040297508239746e-01 1.604509115219116211e+00 1.027387619018554688e+01 4.865318775177001953e+00 4.922463893890380859e+00 -1.477157473564147949e+00 1.248308181762695312e+00 1.567399978637695312e+00 4.179399013519287109e+00 -5.168029665946960449e-02 3.321981132030487061e-01 -9.823615074157714844e+00 -5.528520941734313965e-01 4.614521861076354980e-01 1.501952743530273438e+01 -4.654050171375274658e-01
1.041032299399375916e-01 6.408785581588745117e-01 1.713855147361755371e+00 1.614487075805664062e+01 -2.858401536941528320e-01 4.008586108684539795e-01 1.230394721031188965e+00 -1.154231548309326172e+01 3.510961294174194336e+00 -9.798660874366760254e-01 -2.171289771795272827e-01 7.571712732315063477e-01 6.457936167716979980e-01 -9.820652961730957031e+00 -1.265081763267517090e+00 6.995300769805908203e+00 -6.068605899810791016e+00 -5.660393834114074707e-01 -1.327240318059921265e-01 7.716642022132873535e-01 -3.365118801593780518e-01 1.025654315948486328e+01 -7.809914588928222656e+00 -3.521210908889770508e+00 -5.967694759368896484e+00 -6.802435398101806641e+00 -5.467152595520019531e-01 1.020475104451179504e-01 -5.067945718765258789e-01 -2.204560488462448120e-01 -1.032781219482421875e+01 -4.331726551055908203e+00 -2.827042639255523682e-01 -2.861849665641784668e-01 -3.931496758013963699e-03 4.268413484096527100e-01 -2.658239841461181641e+00 1.193844079971313477e+00 2.327817678451538086e+00 -6.825874447822570801e-01 -6.748896837234497070e-01 3.464956879615783691e-01 1.064470958709716797e+01 -9.384167671203613281e+00 9.256178140640258789e-01 -2.230488359928131104e-01 -3.103472888469696045e-01 1.119128823280334473e+00 1.162129878997802734e+00 6.582669019699096680e-01 9.323948621749877930e-01 -1.168362140655517578e+01 -2.813966035842895508e+00 -7.422334671020507812e+00 -2.058944553136825562e-01 2.632846117019653320e+00 1.350849533081054688e+01 -5.496247291564941406e+00 1.800483703613281250e+00 3.142109215259552002e-01 1.552825331687927246e+00 1.146195888519287109e+00 -1.360936522483825684e+00 -1.725530982017517090e+00 1.845751571655273438e+01 9.696830809116363525e-02 2.734081745147705078e-01 -7.065361738204956055e-01 5.177472233772277832e-01 1.193310832977294922e+01 -8.159476280212402344e+00 2.245119571685791016e+00 -6.556180715560913086e-01 -6.598669052124023438e+00 1.782348036766052246e+00 -1.272074937820434570e+00 -5.903234481811523438e-01 -2.334804460406303406e-02 5.859608173370361328e+00 3.215650320053100586e-01 -2.840818464756011963e-01 4.234136581420898438e+00 6.509830951690673828e-01 -1.369390368461608887e+00 4.937267005443572998e-01 -1.556970119476318359e+00 3.912760019302368164e-01 9.347001910209655762e-01 -3.426390290260314941e-01 -1.629632413387298584e-01 -6.395625472068786621e-01 -5.951742529869079590e-01 -2.585496664047241211e+00 -4.798399448394775391e+00 -3.440716117620468140e-02 1.573728919029235840e+00 -4.392363429069519043e-01 9.019905924797058105e-01 -3.405031561851501465e-01 4.133529663085937500e+00 9.016331672668457031e+00 2.069072723388671875e+00 3.119140386581420898e+00 -6.216167211532592773e-01 1.036913299560546875e+01 -7.096609115600585938e+00 -1.386189222335815430e+00 4.455847740173339844e+00 -1.731137657165527344e+01 -9.352956771850585938e+00 5.918623208999633789e-01 1.768513768911361694e-01 1.105741262435913086e+00 -6.300796031951904297e+00 -7.751460552215576172e+00 -1.721171855926513672e+00 9.369183540344238281e+00 -1.182794094085693359e+01 -1.175562381744384766e+00 5.137210369110107422e+00 5.202763080596923828e+00 -1.105172038078308105e+00 4.102057814598083496e-01 9.870809912681579590e-01 -2.805279791355133057e-01 -6.275031089782714844e+00 7.865201950073242188e+00 5.819151997566223145e-01 5.389411449432373047e-01 3.568897843360900879e-01 1.319955706596374512e+00 -7.636735916137695312e+00 -6.000577807426452637e-01 6.362943649291992188e+00 -2.040141105651855469e+00 8.723172187805175781e+00 8.312952518463134766e-02 2.932694256305694580e-01 4.305776119232177734e+00 7.354308962821960449e-01 1.739223098754882812e+01 -7.799535751342773438e+00 -7.345202445983886719e+00 1.362093639373779297e+01 8.858652114868164062e-01 -1.035347461700439453e+01 5.352482795715332031e+00 -6.355778694152832031e+00 2.283529758453369141e+00 7.504395842552185059e-01 -3.572955429553985596e-01 4.062204062938690186e-01 7.251472473144531250e-01 6.363213062286376953e-01 2.427963912487030029e-01 4.867792129516601562e-01 -1.598395034670829773e-02 -5.963558673858642578e+00 6.211290955543518066e-01 -3.286902606487274170e-01 -5.115861892700195312e-01 -3.146955370903015137e-01 -1.136452436447143555e+00 -1.243136405944824219e+00 -3.567641019821166992e+00 -3.878232955932617188e+00 -2.801091432571411133e+00 -1.003103017807006836e+00 7.385295391082763672e+00 -1.575952172279357910e-01 -2.178584486246109009e-01 -9.862691879272460938e+00 -1.876766586303710938e+01 -1.528170824050903320e+00 2.605954706668853760e-01 -2.303967475891113281e+01 -1.264743709564208984e+01 1.329638671875000000e+01 1.747710347175598145e+00 -1.032162547111511230e+00 8.395026326179504395e-01 4.790917396545410156e+00 8.140361785888671875e+00 9.814382344484329224e-02 1.050694361329078674e-01 -3.642756342887878418e-01 6.396040916442871094e+00 9.021464347839355469e+00 -2.126577377319335938e+00 1.422547936439514160e+00 -6.825350224971771240e-02 1.073482751846313477e+00 -1.950657665729522705e-01 -3.378865420818328857e-01 2.271393239498138428e-01 1.299411773681640625e+00 1.854448951780796051e-02 -5.036126971244812012e-01 -3.247480869293212891e+00 2.586344480514526367e-01
7.821148037910461426e-01 -1.039187192916870117e+00 -1.077321767807006836e+00 -6.193670272827148438e+00 -6.192570179700851440e-02 -4.482932686805725098e-01 -2.226760149002075195e+00 7.150763988494873047e+00 -1.627640724182128906e+01 1.529266476631164551e+00 4.391632974147796631e-01 9.376313686370849609e-01 -1.910507977008819580e-01 -1.465831875801086426e+00 -1.484154462814331055e+00 -2.164849281311035156e+00 -1.721424484252929688e+01 -2.636938989162445068e-01 -2.654376745223999023e+00 3.916717469692230225e-01 -8.778802156448364258e-01 1.620283126831054688e+01 -6.504251360893249512e-01 7.776513099670410156e-01 -2.624125242233276367e+00 1.149691104888916016e+01 -3.479202091693878174e-01 3.064002096652984619e-01 -3.454648554325103760e-01 1.523593515157699585e-01 5.282006263732910156e+00 -4.897519111633300781e+00 -1.151885509490966797e+00 -7.893257737159729004e-01 -1.298536419868469238e+00 -1.425938963890075684e+00 4.736612319946289062e+00 -3.729919195175170898e-01 2.547459602355957031e-01 2.266195416450500488e-01 -8.959339261054992676e-01 -2.559079527854919434e-01 1.044429969787597656e+01 1.377455234527587891e+01 1.569501876831054688e+00 2.818516083061695099e-02 -1.332311153411865234e+00 -1.515300035476684570e+00 -7.863424420356750488e-01 5.318553447723388672e-01 -1.559887409210205078e+00 3.693876028060913086e+00 -8.957088470458984375e+00 -1.632148170471191406e+01 -1.735038518905639648e+00 -7.668853759765625000e+00 -4.585745811462402344e+00 9.022373199462890625e+00 -5.410043716430664062e+00 7.681997418403625488e-01 -5.236034393310546875e-01 1.122985076904296875e+01 -3.111116588115692139e-01 -5.147523880004882812e-01 3.750403165817260742e+00 -8.163623213768005371e-01 1.441905379295349121e+00 2.320988327264785767e-01 -1.645036101341247559e+00 2.295162200927734375e+00 1.557457208633422852e+00 1.272191905975341797e+01 3.285978138446807861e-01 2.334093666076660156e+01 5.597378611564636230e-01 4.587017595767974854e-01 5.552051663398742676e-01 4.720006585121154785e-01 4.946765899658203125e+00 7.878216505050659180e-01 3.466653347015380859e+00 -1.475215244293212891e+01 -9.524471312761306763e-02 7.080808877944946289e-01 -3.168923377990722656e+00 5.950989723205566406e-01 2.422969341278076172e-01 1.880823969841003418e+00 1.079895734786987305e+00 1.080965548753738403e-01 1.076159834861755371e+00 -1.234777331352233887e+00 -5.637852668762207031e+00 -1.162582015991210938e+01 -6.514765024185180664e-01 1.454817414283752441e+00 5.780307650566101074e-01 1.503329396247863770e+00 1.638255000114440918e+00 -7.813557147979736328e+00 5.903038978576660156e+00 -5.716696977615356445e-01 4.525559902191162109e+00 4.026415646076202393e-01 4.953859746456146240e-01 -9.791473388671875000e+00 -3.339179754257202148e-01 -1.611298942565917969e+01 7.158506870269775391e+00 -1.010871887207031250e+01 1.678938865661621094e+00 9.372988343238830566e-01 -2.668060958385467529e-01 -3.602399349212646484e+00 1.811984777450561523e+00 -2.241750434041023254e-02 5.378976821899414062e+00 8.995460867881774902e-01 -3.175484016537666321e-02 4.678288936614990234e+00 6.737385272979736328e+00 1.515894085168838501e-01 1.097301840782165527e-01 -6.070994138717651367e-01 -9.302176237106323242e-01 6.516623020172119141e+00 -4.685683727264404297e+00 2.820491492748260498e-01 8.587285280227661133e-01 -1.101251959800720215e+00 2.073548585176467896e-01 4.439572334289550781e+00 -5.444979071617126465e-01 -5.451094150543212891e+00 8.089704066514968872e-02 6.265097141265869141e+00 9.365944266319274902e-01 3.320078551769256592e-01 3.006598949432373047e+00 1.104879617691040039e+00 1.637006521224975586e+00 1.820974731445312500e+01 1.235028076171875000e+01 2.385615587234497070e+00 1.551570147275924683e-01 -1.261264228820800781e+01 -5.045298576354980469e+00 2.276579290628433228e-01 -1.572707056999206543e+00 -1.298861026763916016e+00 9.211311936378479004e-01 -1.313293874263763428e-01 4.111465513706207275e-01 1.051824331283569336e+00 1.584362685680389404e-01 -3.553055226802825928e-01 5.858850479125976562e+00 -3.565353155136108398e+00 -8.229099273681640625e+00 -8.470958471298217773e-01 4.221212118864059448e-02 4.511499404907226562e-01 8.028147220611572266e-01 9.449441432952880859e-01 -4.492426395416259766e+00 3.968642473220825195e+00 1.926634758710861206e-01 -5.671338438987731934e-01 -2.765600085258483887e-01 -4.033048152923583984e-01 1.381203293800354004e+00 6.670652389526367188e+00 5.425399303436279297e+00 -1.374310731887817383e+00 6.153537333011627197e-02 3.465565204620361328e+00 2.723029613494873047e+00 1.095206642150878906e+01 -1.692012995481491089e-01 -2.505480945110321045e-01 3.607400953769683838e-01 1.621774482727050781e+01 -6.020589828491210938e+00 -3.644076883792877197e-01 5.132209658622741699e-01 -5.688428878784179688e-01 3.879146575927734375e+00 6.471911907196044922e+00 -1.664206695556640625e+01 3.647624254226684570e-01 5.051701888442039490e-02 1.953662633895874023e-01 -8.251884460449218750e+00 7.924790978431701660e-01 -6.279951333999633789e-01 -1.217556190490722656e+01 -1.578667461872100830e-01 6.954319953918457031e+00 -4.537743568420410156e+00 -5.743268728256225586e-01
-1.323813676834106445e+00 -3.622450232505798340e-01 -1.749214649200439453e+00 -1.304138278961181641e+01 7.615966200828552246e-01 -1.440880298614501953e+00 8.942078948020935059e-01 -7.059851646423339844e+00 -4.173988342285156250e+00 1.205696105957031250e+00 -4.012350738048553467e-02 7.446909546852111816e-01 -1.095233368687331676e-03 2.476477432250976562e+01 6.319937855005264282e-02 -9.393421173095703125e+00 3.005983829498291016e+00 -3.687810897827148438e-01 1.746021270751953125e+01 -1.323109149932861328e+00 6.423491835594177246e-01 -3.805716514587402344e+00 -1.559331321716308594e+01 -1.359246134757995605e+00 -4.061525344848632812e+00 -5.543900489807128906e+00 1.538192510604858398e+00 -4.296371638774871826e-01 1.969634890556335449e-01 -1.114075899124145508e+00 1.511206388473510742e+00 3.896582841873168945e+00 -5.677477121353149414e-01 -1.058604836463928223e+00 1.201024174690246582e+00 4.639369547367095947e-01 5.218992710113525391e+00 8.061148226261138916e-02 2.575971841812133789e+00 -1.241689682006835938e+00 -1.416463870555162430e-02 8.290919661521911621e-01 -7.849051952362060547e+00 -9.110960960388183594e+00 8.068925738334655762e-01 -5.148878693580627441e-01 -5.560212731361389160e-01 -1.234772950410842896e-01 -2.638392150402069092e-01 -8.594937920570373535e-01 -9.917674660682678223e-01 -3.861496686935424805e+00 1.852433942258358002e-02 -5.240510940551757812e+00 -8.907566070556640625e-01 -1.148862648010253906e+01 5.183375835418701172e+00 1.067352581024169922e+01 -2.147308826446533203e+00 -4.859254881739616394e-02 -2.929850518703460693e-01 -1.417936134338378906e+01 1.187089443206787109e+01 -7.389649748802185059e-01 2.940844185650348663e-02 -2.181785404682159424e-01 1.581298828125000000e+00 -2.747026205062866211e+00 -2.006972312927246094e+00 2.355515718460083008e+00 -5.024509906768798828e+00 1.310632038116455078e+01 7.277005314826965332e-01 5.190032005310058594e+00 -1.166781759820878506e-03 -1.078951954841613770e+00 9.335217475891113281e-01 1.469091296195983887e+00 3.517964839935302734e+00 -5.036334991455078125e-01 1.178336238861083984e+01 4.853221774101257324e-02 -4.209642708301544189e-01 3.327455520629882812e-01 6.095610260963439941e-01 1.141258811950683594e+01 6.924596428871154785e-01 1.735195636749267578e+00 1.416903436183929443e-01 -1.681918203830718994e-01 1.526501178741455078e+00 -2.487556219100952148e+00 -8.354131698608398438e+00 1.236299753189086914e+00 6.868181228637695312e-01 1.384694874286651611e-01 4.345912039279937744e-01 1.219433069229125977e+00 1.127388477325439453e+00 3.288952112197875977e+00 -1.266607093811035156e+01 -6.018563270568847656e+00 -6.087183952331542969e+00 1.633120417594909668e+00 1.596659421920776367e+00 -7.702165126800537109e+00 -6.234048604965209961e-01 4.395374298095703125e+00 3.562083005905151367e+00 1.046930551528930664e+00 2.158436737954616547e-02 -2.505387067794799805e-01 7.262500524520874023e-01 8.743590116500854492e-01 -3.058379411697387695e+00 6.257790923118591309e-01 5.566597938537597656e+00 7.682885527610778809e-01 -6.877958774566650391e-01 -6.757889270782470703e+00 -1.396837139129638672e+01 8.120508790016174316e-01 1.477800011634826660e-01 2.800321578979492188e-01 1.104235649108886719e+00 -1.473124122619628906e+01 7.034108638763427734e+00 -1.046715736389160156e+00 2.956777215003967285e-01 3.412665426731109619e-01 -1.501695036888122559e+00 3.316696166992187500e+00 -3.439282774925231934e-01 -3.700052499771118164e+00 -1.058485150337219238e+00 9.485665321350097656e+00 5.338833332061767578e-01 1.887203603982925415e-01 -8.398925781250000000e+00 -6.479261815547943115e-02 3.537240743637084961e+00 -9.141404151916503906e+00 -1.931651115417480469e+00 3.543195962905883789e+00 1.053489327430725098e+00 9.108576774597167969e+00 3.203817129135131836e+00 -3.389943599700927734e+00 4.189105629920959473e-01 1.637054443359375000e+00 -1.737755239009857178e-01 -6.366759538650512695e-01 -8.766950964927673340e-01 1.473643302917480469e+00 7.420632839202880859e-01 4.371898472309112549e-01 1.468424320220947266e+01 -4.451246261596679688e+00 -4.628469944000244141e+00 -1.828425675630569458e-01 5.239829421043395996e-01 8.014163374900817871e-01 -2.015158981084823608e-01 -1.025552079081535339e-01 -6.501770615577697754e-01 -1.644350051879882812e+01 -3.854050159454345703e+00 8.282291144132614136e-02 1.346696472167968750e+01 8.493987917900085449e-01 -1.061302661895751953e+00 -4.117728233337402344e+00 -5.003260612487792969e+00 -2.892582714557647705e-01 1.494966596364974976e-01 2.031504821777343750e+01 -7.428645610809326172e+00 -1.365271663665771484e+01 -7.927599549293518066e-02 -6.348285079002380371e-01 6.475507747381925583e-03 8.932626724243164062e+00 -1.138364225625991821e-01 -8.678175806999206543e-01 -2.761574089527130127e-01 1.051173359155654907e-01 5.229067325592041016e+00 8.084576606750488281e+00 1.116022300720214844e+01 -6.673697233200073242e-01 -1.814440965652465820e+00 7.514038085937500000e-01 -9.482598304748535156e+00 4.437915980815887451e-01 8.723842501640319824e-01 -1.255828499794006348e+00 5.116522312164306641e-01 5.617205142974853516e+00 2.522685766220092773e+00 2.846788465976715088e-01
4.741452336311340332e-01 1.501998901367187500e+00 -3.701917886734008789e+00 -1.387605190277099609e+01 1.159324288368225098e+00 3.555179536342620850e-01 5.512143298983573914e-02 -9.402468681335449219e+00 1.754390239715576172e+00 1.786661446094512939e-01 6.278935670852661133e-01 -6.093260645866394043e-01 1.061411261558532715e+00 -3.306215763092041016e+00 -7.971054315567016602e-01 -1.594814109802246094e+01 1.135326004028320312e+01 -1.588094085454940796e-01 -1.922555208206176758e+00 -1.102296233177185059e+00 -1.638993501663208008e+00 2.864126920700073242e+00 -9.145907402038574219e+00 -3.883307456970214844e+00 -1.039379239082336426e+00 -1.104680347442626953e+01 1.230994224548339844e+00 1.276532888412475586e+00 1.719161868095397949e+00 9.160147905349731445e-01 1.681945800781250000e+01 -2.791645288467407227e+00 2.748498022556304932e-01 -7.184106111526489258e-01 -1.562650680541992188e+00 6.431030035018920898e-01 3.787476301193237305e+00 8.234931230545043945e-01 9.445986151695251465e-01 8.034237623214721680e-01 6.058599948883056641e-01 8.850602507591247559e-01 -4.991454124450683594e+00 -9.389239311218261719e+00 5.069627165794372559e-01 -1.765636652708053589e-01 1.113274693489074707e+00 6.186569482088088989e-02 4.587292671203613281e-01 4.202386830002069473e-03 1.498326420783996582e+00 -1.165676116943359375e+01 4.605164051055908203e+00 1.184864711761474609e+01 9.049952626228332520e-01 1.253071880340576172e+01 2.935254812240600586e+00 1.469803452491760254e+00 1.167397308349609375e+01 4.245809912681579590e-01 -7.707681059837341309e-01 6.037895679473876953e+00 8.291449546813964844e+00 -2.172039151191711426e-01 1.271610260009765625e+01 1.746447756886482239e-02 -5.541647225618362427e-02 -1.928830528259277344e+01 -9.750528931617736816e-01 6.520496368408203125e+00 8.001863479614257812e+00 3.286904990673065186e-01 8.402711749076843262e-01 -7.000578880310058594e+00 -1.287163197994232178e-01 1.833133220672607422e+00 -4.127370119094848633e-01 -2.058321237564086914e+00 -6.543808579444885254e-01 7.002124190330505371e-01 -1.780711746215820312e+01 -5.164956092834472656e+00 5.720178484916687012e-01 -3.975215256214141846e-01 -8.928757667541503906e+00 5.138273715972900391e+00 -9.445143938064575195e-01 5.342304334044456482e-02 -1.007370114326477051e+00 7.118536233901977539e-01 1.352858543395996094e+00 9.687774181365966797e-01 -9.990193367004394531e+00 1.174094963073730469e+01 5.323084592819213867e-01 -2.263453245162963867e+00 3.902584910392761230e-01 -2.644948661327362061e-01 -1.669474959373474121e+00 -6.887816429138183594e+00 -6.381091594696044922e+00 4.742920875549316406e+00 3.725753068923950195e+00 7.047550678253173828e-01 -1.291739940643310547e+01 -6.770736694335937500e+00 2.168971598148345947e-01 5.103456497192382812e+00 7.382943630218505859e+00 -1.034114646911621094e+01 -1.071444749832153320e+00 5.074033737182617188e-01 8.497669696807861328e-01 4.840219497680664062e+00 3.529657840728759766e+00 3.355989754199981689e-01 -1.021071910858154297e+01 -7.226128578186035156e+00 1.669523835182189941e+00 -2.312120914459228516e+00 1.310085487365722656e+01 -1.173781007528305054e-01 -9.908713102340698242e-01 3.341758847236633301e-01 -8.589194416999816895e-01 1.500203704833984375e+01 8.154739379882812500e+00 -2.579915821552276611e-01 -4.982725679874420166e-01 -5.358592867851257324e-01 1.844344258308410645e+00 -1.844469666481018066e+00 -3.479266911745071411e-02 5.528233528137207031e+00 -4.264274835586547852e-01 3.409142255783081055e+00 -4.203534126281738281e-01 -1.132011532783508301e+00 -4.891753673553466797e+00 -6.894308328628540039e-01 2.044565677642822266e+00 9.831898689270019531e+00 8.378735542297363281e+00 -1.226435184478759766e+01 1.109624028205871582e+00 -1.272492289543151855e+00 -6.847801685333251953e+00 -1.023490428924560547e+01 1.049312949180603027e+00 6.081030964851379395e-01 -9.073567986488342285e-01 1.096207499504089355e+00 8.555936813354492188e-01 -7.139517664909362793e-01 -8.543040752410888672e-01 -3.689428418874740601e-02 -1.247681021690368652e+00 -2.835650205612182617e+00 -7.758278369903564453e+00 -2.283308282494544983e-02 8.659404516220092773e-01 8.862957954406738281e-01 8.374200463294982910e-01 7.201706767082214355e-01 5.015421390533447266e+00 -5.020247936248779297e+00 -1.587860226631164551e+00 2.718678116798400879e-01 -5.048407077789306641e+00 9.102981090545654297e-01 -2.296773046255111694e-01 1.301348304748535156e+01 -2.585059165954589844e+00 -3.376190084964036942e-03 -8.604386448860168457e-01 -1.014244747161865234e+01 -1.285666227340698242e+00 -1.113689136505126953e+01 9.941125512123107910e-01 7.318647503852844238e-01 -6.952341794967651367e-01 -8.432241678237915039e-01 -8.433360099792480469e+00 4.205124378204345703e-01 -9.065253138542175293e-01 -7.155728936195373535e-01 2.152827024459838867e+00 3.483321517705917358e-03 -7.753666877746582031e+00 1.273386597633361816e+00 -9.098713397979736328e-01 -1.182963967323303223e+00 -2.709997415542602539e+00 6.503423452377319336e-01 2.020502537488937378e-01 5.202778339385986328e+00 8.517050743103027344e-01 -6.785945415496826172e+00 -1.116702079772949219e+01 7.120670676231384277e-01
-2.054466754198074341e-01 -7.134208828210830688e-02 1.023409962654113770e+00 3.045671463012695312e+00 4.200173914432525635e-01 -1.061436653137207031e+00 3.997341096401214600e-01 1.318927669525146484e+01 -6.719378471374511719e+00 -2.965573787689208984e+00 5.191836357116699219e-01 5.514191985130310059e-01 1.730475068092346191e+00 -3.583160638809204102e+00 -7.507694363594055176e-01 -1.161866378784179688e+01 1.686075806617736816e+00 -1.686170935630798340e+00 3.469468116760253906e+00 -6.666256189346313477e-01 -1.206590175628662109e+00 -2.350993156433105469e+00 -1.122097396850585938e+01 -3.215943098068237305e+00 -6.891146659851074219e+00 3.617167472839355469e-01 -1.314134240150451660e+00 4.597226977348327637e-01 -3.190800845623016357e-01 5.492581725120544434e-01 3.254911899566650391e-01 2.320002174377441406e+01 -1.443704724311828613e+00 6.859212517738342285e-01 -7.637652158737182617e-01 1.954463958740234375e+00 -2.505341529846191406e+00 3.288090825080871582e-01 1.757399737834930420e-01 -5.330490469932556152e-01 6.569470167160034180e-01 2.392057925462722778e-01 6.214865207672119141e+00 -1.031929779052734375e+01 -1.145742177963256836e+00 -1.128484964370727539e+00 1.002106666564941406e+00 6.889279484748840332e-01 4.611219167709350586e-01 1.690661668777465820e+00 6.551470756530761719e-01 8.979393959045410156e+00 -5.736773490905761719e+00 7.635441780090332031e+00 3.514404296875000000e-01 -2.235003232955932617e+00 9.096488952636718750e+00 -1.378200888633728027e+00 -3.330054998397827148e+00 8.610332012176513672e-01 6.681310534477233887e-01 -1.188181400299072266e+01 -8.002761840820312500e+00 1.055484652519226074e+00 -1.020408391952514648e+00 -1.692263603210449219e+00 8.869277238845825195e-01 -9.715075492858886719e+00 -1.114361166954040527e+00 -1.392129707336425781e+01 1.817800712585449219e+01 1.425643825531005859e+01 1.257472299039363861e-02 -7.824546813964843750e+00 7.299033999443054199e-01 -3.939945101737976074e-01 -1.903410911560058594e+00 -3.285650610923767090e-01 -1.035087013244628906e+01 -1.079200625419616699e+00 2.820856571197509766e+00 -1.052975416183471680e+00 4.596494138240814209e-01 1.953623443841934204e-01 -4.396582126617431641e+00 -3.098772525787353516e+00 -2.111304178833961487e-02 1.534580945968627930e+00 -5.637994036078453064e-02 -8.910025358200073242e-01 5.911564230918884277e-01 -3.326211273670196533e-01 1.099411392211914062e+01 2.550512075424194336e+00 4.165634512901306152e-01 2.120804935693740845e-01 -3.283674716949462891e-01 1.181874051690101624e-01 -7.552465796470642090e-01 -1.054869079589843750e+01 -4.520219802856445312e+00 5.052810668945312500e+00 -1.018213558197021484e+01 -2.666298747062683105e-01 5.227967739105224609e+00 7.266438007354736328e+00 -5.425640940666198730e-01 -2.978750228881835938e+00 4.954570770263671875e+00 1.011688613891601562e+01 2.578231692314147949e-01 -1.201756119728088379e+00 -1.273798942565917969e+00 -6.460968494415283203e+00 -7.547373771667480469e+00 -1.287705898284912109e+00 4.791321754455566406e+00 1.309604454040527344e+01 -2.066568434238433838e-01 2.201194524765014648e+00 9.199501991271972656e+00 1.304885506629943848e+00 -7.603381276130676270e-01 -2.667688429355621338e-01 2.104422092437744141e+00 8.513965606689453125e+00 9.425929069519042969e+00 2.580640651285648346e-02 6.025042012333869934e-02 -1.672845929861068726e-01 -7.505453228950500488e-01 -3.903043985366821289e+00 1.392669882625341415e-02 1.089244174957275391e+01 -7.509472370147705078e-01 -8.915560722351074219e+00 2.013310432434082031e+00 -1.427388787269592285e+00 -2.437746375799179077e-01 5.125141143798828125e-01 6.734475493431091309e-01 8.154481887817382812e+00 5.576210021972656250e+00 7.131042480468750000e+00 -4.464473128318786621e-01 3.496223926544189453e+00 5.918662071228027344e+00 1.566782951354980469e+01 -2.929917275905609131e-01 -2.705355584621429443e-01 -1.148012995719909668e+00 1.935655117034912109e+00 1.074245423078536987e-01 -1.125041723251342773e+00 6.959715485572814941e-01 -7.625321149826049805e-01 -8.527829170227050781e+00 -7.770152091979980469e+00 -4.077604413032531738e-01 -8.339051604270935059e-01 1.137481093406677246e+00 -1.876311004161834717e-01 -1.719834357500076294e-01 3.589521646499633789e-01 -3.446780920028686523e+00 -2.689469575881958008e+00 -5.705583095550537109e-01 -6.148987412452697754e-01 1.659708023071289062e+00 6.148365736007690430e-01 9.226109087467193604e-02 5.196115970611572266e+00 -1.247742652893066406e+01 -2.563678264617919922e+00 -5.954275727272033691e-01 7.636034488677978516e+00 -8.101483345031738281e+00 1.342667293548583984e+01 -2.723866701126098633e-01 2.998094856739044189e-01 7.914197444915771484e-01 -1.003092861175537109e+01 -2.391439914703369141e+00 2.612128853797912598e-01 4.179816544055938721e-01 -1.149738550186157227e+00 6.294025421142578125e+00 -7.405267238616943359e+00 -1.330461025238037109e+01 -5.748660564422607422e-01 9.116587638854980469e-01 -6.413741707801818848e-01 7.493791580200195312e+00 7.306760549545288086e-01 -1.187495812773704529e-01 -1.209583759307861328e+01 -7.086347043514251709e-02 -6.088953018188476562e-01 1.447442245483398438e+01 -1.258387118577957153e-01
1.791733860969543457e+00 1.030570626258850098e+00 4.228750765323638916e-01 -1.441201210021972656e+01 8.570649027824401855e-01 1.265981674194335938e+00 1.156055450439453125e+00 1.453312397003173828e+00 -1.160370826721191406e+01 -6.872750520706176758e-01 6.766304373741149902e-01 -1.106785178184509277e+00 5.344764590263366699e-01 -1.472734546661376953e+01 -1.898429632186889648e+00 1.091349220275878906e+01 -9.699006080627441406e-01 1.998044610023498535e+00 4.211028099060058594e+00 1.308770179748535156e-01 -5.062255263328552246e-01 -5.969727516174316406e+00 -7.337631702423095703e+00 -1.595174551010131836e+00 -1.283341121673583984e+01 -9.087881088256835938e+00 5.567259788513183594e-01 -5.349832177162170410e-01 -1.103503108024597168e+00 8.302187919616699219e-01 1.013530921936035156e+01 1.208507895469665527e+00 8.590853810310363770e-01 6.667674183845520020e-01 -7.174334526062011719e-01 -6.554385274648666382e-02 1.623526930809020996e+00 1.043016910552978516e+00 4.206436157226562500e+00 -1.734364509582519531e+00 1.689760386943817139e-01 -3.040844202041625977e-01 3.147490978240966797e+00 7.461976051330566406e+00 -2.894715666770935059e-01 -3.770890235900878906e-01 -2.664817571640014648e-01 7.259984612464904785e-01 1.027989506721496582e+00 6.775152087211608887e-01 -1.021709322929382324e+00 2.221228122711181641e+00 1.638067245483398438e+01 -7.775450229644775391e+00 -8.605013489723205566e-01 3.265041112899780273e+00 -1.079954814910888672e+01 2.431257724761962891e+00 1.477252578735351562e+01 1.251558780670166016e+00 3.395660817623138428e-01 2.730111122131347656e+00 -3.483979701995849609e-01 -1.405032873153686523e-01 1.107650756835937500e+00 1.281104087829589844e-01 2.830208539962768555e-01 8.804665565490722656e+00 3.196439445018768311e-01 -1.467510414123535156e+01 -4.967890739440917969e+00 -4.351496100425720215e-01 -5.606741309165954590e-01 -1.747567415237426758e+00 1.190259337425231934e+00 3.295956254005432129e-01 7.111343145370483398e-01 -6.013699769973754883e-01 4.146211624145507812e+00 -4.773335754871368408e-01 -8.018222808837890625e+00 -7.409031867980957031e+00 2.843763232231140137e-01 -2.676725685596466064e-01 7.622123241424560547e+00 -1.859398841857910156e+01 -3.383525088429450989e-02 5.865556001663208008e-01 -1.554847061634063721e-01 -2.703513503074645996e-01 -9.649294614791870117e-02 -1.054624915122985840e-01 -1.709701156616210938e+01 -3.942430973052978516e+00 -9.947250783443450928e-02 -3.999572396278381348e-01 1.275017023086547852e+00 -1.985081732273101807e-01 -1.911684274673461914e+00 -1.940934777259826660e+00 1.435686588287353516e+00 -7.132554531097412109e+00 2.265646457672119141e+00 4.824832081794738770e-01 1.139100837707519531e+01 -2.454419374465942383e+00 1.253671765327453613e+00 -2.423003196716308594e+00 6.399538516998291016e+00 3.978780508041381836e+00 5.401688814163208008e-01 -1.011006832122802734e+00 3.170279413461685181e-02 5.645988941192626953e+00 6.976061344146728516e+00 -1.781607270240783691e+00 -9.109466552734375000e+00 -7.460741519927978516e+00 -7.364762425422668457e-01 -2.191340827941894531e+01 2.142784118652343750e+00 -6.633428856730461121e-03 6.309527158737182617e-01 1.662210226058959961e+00 -2.730593681335449219e-01 -4.764190196990966797e+00 9.906572341918945312e+00 1.476061344146728516e-01 -8.981391191482543945e-01 -1.347502112388610840e+00 -1.404358744621276855e+00 -1.002261829376220703e+01 1.583709567785263062e-01 -4.243774414062500000e+00 -2.123965024948120117e+00 -1.083088970184326172e+01 -1.206000089645385742e+00 1.409653663635253906e+00 -5.619524121284484863e-01 -2.227613687515258789e+00 4.679385185241699219e+00 4.605320453643798828e+00 6.323034286499023438e+00 3.980768680572509766e+00 4.373228847980499268e-01 1.281131458282470703e+01 1.435470581054687500e+01 1.032645130157470703e+01 2.257003068923950195e+00 -1.950606852769851685e-01 4.823160171508789062e-02 1.067655920982360840e+00 7.017613649368286133e-01 4.163253307342529297e-01 -1.826024502515792847e-01 8.019942045211791992e-02 -7.891976833343505859e-01 1.818372535705566406e+01 1.396421313285827637e+00 1.067172884941101074e-01 -3.380431234836578369e-01 -2.501772046089172363e-01 -6.048655509948730469e-01 -1.842942953109741211e+00 -5.733119964599609375e+00 1.354666042327880859e+01 -6.477945804595947266e+00 1.188041046261787415e-01 5.007797718048095703e+00 9.723576903343200684e-01 7.223128676414489746e-01 -8.060982704162597656e+00 -1.446812599897384644e-01 -1.469353884458541870e-01 1.701306551694869995e-01 -1.338439464569091797e+00 -3.861685842275619507e-02 -1.911214828491210938e+00 -2.197951525449752808e-01 5.558994412422180176e-01 1.421291381120681763e-01 -1.013678932189941406e+01 -3.516107797622680664e-02 -2.424697279930114746e-01 1.186036467552185059e+00 -3.433208465576171875e-01 2.100493609905242920e-01 -7.550045967102050781e+00 2.680517673492431641e+00 1.964210867881774902e+00 5.950396060943603516e-01 -8.718775510787963867e-01 -8.706025123596191406e+00 -4.688978791236877441e-01 -3.082178533077239990e-01 7.636308670043945312e+00 -2.833454310894012451e-01 1.048977851867675781e+01 1.082713127136230469e+00 -1.360360383987426758e-01
1.746309161186218262e+00 1.725879311561584473e-01 -1.864311337471008301e+00 -6.449662446975708008e-01 -1.397865414619445801e+00 1.479623794555664062e+00 -6.738933324813842773e-01 5.022909641265869141e+00 1.178493785858154297e+01 1.408961713314056396e-01 6.933606415987014771e-02 -6.273356080055236816e-01 2.543812692165374756e-01 -9.703621268272399902e-01 -6.288980692625045776e-02 -1.441174983978271484e+00 6.151863574981689453e+00 -1.285210013389587402e+00 1.121013545989990234e+01 9.453598260879516602e-01 -4.330135881900787354e-01 7.293976306915283203e+00 1.521079540252685547e+01 -1.062932014465332031e+00 1.155936336517333984e+01 -3.428804636001586914e+00 8.567584156990051270e-01 8.815704286098480225e-02 8.825419545173645020e-01 1.182622194290161133e+00 4.973341941833496094e+00 -1.969036459922790527e+00 2.932310998439788818e-01 -6.927043199539184570e-01 2.044100046157836914e+00 1.927377134561538696e-01 -4.602705001831054688e+00 -1.684679239988327026e-01 -5.558605194091796875e-01 1.735007047653198242e+00 -3.562946617603302002e-01 4.873086214065551758e-01 -3.076891660690307617e+00 4.229516029357910156e+00 -5.501856803894042969e-01 -4.688391387462615967e-01 -3.115665316581726074e-01 -2.601841986179351807e-01 -6.521782279014587402e-01 5.354732871055603027e-01 4.066514968872070312e-01 -4.915377616882324219e+00 -1.505016040802001953e+01 1.593891906738281250e+01 -4.531859755516052246e-01 -5.508521080017089844e+00 -1.589081478118896484e+01 -8.670799255371093750e+00 2.564324378967285156e+00 -4.760727882385253906e-01 3.168051242828369141e-01 4.472808837890625000e+00 5.538668155670166016e+00 4.562954604625701904e-01 -6.073372364044189453e+00 -3.372897803783416748e-01 1.667988449335098267e-01 7.183773040771484375e+00 1.065401196479797363e+00 5.108730792999267578e+00 5.638076782226562500e+00 5.070924758911132812e+00 -6.256619691848754883e-01 3.210631608963012695e-01 8.352762460708618164e-01 4.762212336063385010e-01 -7.476211339235305786e-02 3.759748041629791260e-01 1.935540199279785156e+01 1.739587664604187012e+00 -1.340533065795898438e+01 -1.677829933166503906e+01 1.444131493568420410e+00 -6.985445618629455566e-01 1.552900600433349609e+01 -1.310551834106445312e+01 -1.010208129882812500e+00 -2.243388175964355469e+00 1.357141375541687012e+00 1.982290484011173248e-02 -7.795025110244750977e-01 -5.517174005508422852e-01 1.310766601562500000e+01 7.173625469207763672e+00 -1.254304170608520508e+00 5.113762617111206055e-01 -1.704879283905029297e+00 -6.095315217971801758e-01 -7.015278935432434082e-01 6.100909709930419922e-01 -1.016837835311889648e+00 7.147724628448486328e+00 3.981719493865966797e+00 6.421727538108825684e-01 1.017482376098632812e+01 1.546440029144287109e+01 4.914685487747192383e-01 7.635340690612792969e-01 9.015405654907226562e+00 1.114328098297119141e+01 2.508829116821289062e+00 1.719837069511413574e+00 -1.553177118301391602e+00 5.511160373687744141e+00 -4.543455123901367188e+00 5.033137798309326172e-01 1.433691978454589844e+01 -1.663157224655151367e+00 -9.555968642234802246e-01 2.621577024459838867e+00 -1.144285583496093750e+01 -1.149600893259048462e-01 -1.890368938446044922e+00 -4.890404343605041504e-01 -1.621894717216491699e+00 -4.414505004882812500e+00 7.044270038604736328e+00 -4.975424110889434814e-01 -8.096936345100402832e-02 -1.481468081474304199e+00 -2.244344234466552734e+00 6.577584743499755859e-01 -8.183046579360961914e-01 -3.599470615386962891e+00 3.693467676639556885e-01 2.224453687667846680e+00 -6.348243951797485352e-01 -4.120200276374816895e-01 -4.163504600524902344e+00 -3.638204634189605713e-01 -8.369069099426269531e+00 5.168637752532958984e+00 -7.356436729431152344e+00 9.071650505065917969e+00 2.440001517534255981e-01 -6.592338085174560547e+00 -4.126482009887695312e+00 -2.336919069290161133e+00 -1.615966796875000000e+00 1.693012595176696777e+00 -1.195342019200325012e-01 2.743668258190155029e-01 -1.594380378723144531e+00 -4.776958003640174866e-02 -1.688893079757690430e+00 -7.086822390556335449e-01 5.416948795318603516e+00 3.986312866210937500e+00 -1.400154113769531250e+00 -9.726433157920837402e-01 4.456514120101928711e-02 1.118141651153564453e+00 -9.645029902458190918e-01 -2.774849301204085350e-03 5.225233435630798340e-01 -1.212868881225585938e+01 2.922919273376464844e+00 -1.139796450734138489e-01 7.121494293212890625e+00 4.908912777900695801e-01 5.266466140747070312e-01 -2.884516239166259766e+00 -1.041100311279296875e+01 -9.037803411483764648e-01 -7.696021795272827148e-01 -2.489144563674926758e+00 4.149559974670410156e+00 -8.834262847900390625e+00 2.277215123176574707e-01 -2.233662456274032593e-01 -1.308759212493896484e+00 -3.838131427764892578e+00 -5.522779941558837891e+00 1.259219169616699219e+00 -2.065588533878326416e-02 -1.518496274948120117e+00 3.943180739879608154e-01 9.936026573181152344e+00 -1.121084308624267578e+01 6.759668886661529541e-02 -9.299365282058715820e-01 -4.100450277328491211e-01 -7.564145565032958984e+00 -5.152252912521362305e-01 -2.044359892606735229e-01 -4.157982349395751953e+00 -1.042755484580993652e+00 1.968305706977844238e+00 2.896470785140991211e+00 5.211162567138671875e-01
