-2.520289719104766846e-01
6.317938804626464844e+00
-2.939637899398803711e-01
6.341967582702636719e+00
3.508979082107543945e-01
-5.174001455307006836e-01
-1.379379034042358398e-01
-5.603826045989990234e-01
-1.567521572113037109e+00
4.441570937633514404e-01
-7.966848611831665039e-01
-5.917823910713195801e-01
5.480934381484985352e-01
3.631478175520896912e-02
8.641950488090515137e-01
-1.676753312349319458e-01
-1.204820349812507629e-01
-1.414960026741027832e+00
8.450434543192386627e-03
2.101281881332397461e+00
-6.895090579986572266e+00
-3.459252119064331055e-01
-1.204465150833129883e+00
-4.602304995059967041e-01
-3.868070244789123535e-01
-6.792224049568176270e-01
-7.117711544036865234e+00
1.453888118267059326e-01
7.449607253074645996e-01
-9.002623707056045532e-02
-5.354105830192565918e-01
-2.480713427066802979e-01
6.055938243865966797e+00
4.626242518424987793e-01
-1.535400986671447754e+00
-2.434654533863067627e-01
1.989885449409484863e+00
-2.060485631227493286e-01
3.064829826354980469e+00
1.866963654756546021e-01
-3.911086916923522949e-01
-7.516562342643737793e-01
-5.021032333374023438e+00
-5.203095674514770508e-01
-1.072109639644622803e-01
-7.529022693634033203e-01
-9.632390141487121582e-01
-6.390637755393981934e-01
5.589924812316894531e+00
5.024345397949218750e+00
