4.802331030368804932e-01 -6.163986921310424805e-01 -3.287782430648803711e+00 1.848012685775756836e+00 -1.969376206398010254e+00 8.352488875389099121e-01 1.617586493492126465e+00 -9.887547492980957031e-01 -3.739887952804565430e+00 -4.026932239532470703e+00 2.912042140960693359e-01 8.928082585334777832e-01 1.488893628120422363e+00 -2.693799734115600586e+00 6.131237149238586426e-01 2.839025497436523438e+00 1.431444048881530762e+00 -1.952829480171203613e+00 3.986857414245605469e+00 -2.155420303344726562e+00 -2.577325999736785889e-01 -5.352803468704223633e-01 3.223363161087036133e-01 -3.141344785690307617e+00 -3.248788356781005859e+00 4.285137176513671875e+00 4.391953945159912109e+00 7.934142351150512695e-01 -2.590772151947021484e+00 6.265323162078857422e-01 -2.997480630874633789e+00 8.402239680290222168e-01 1.240996241569519043e+00 -1.700565934181213379e+00 -1.452155470848083496e+00 2.795650005340576172e+00 -8.125343918800354004e-01 3.461698770523071289e+00 -1.347295641899108887e+00
-4.079369068145751953e+00 4.220545768737792969e+00 -1.637114882469177246e+00 -2.678044319152832031e+00 -2.784429073333740234e+00 3.161720275878906250e+00 3.096884489059448242e+00 8.124186396598815918e-01 -6.214148998260498047e-01 2.594621181488037109e+00 -1.105785846710205078e+00 -1.528992891311645508e+00 3.369634628295898438e+00 -7.507155835628509521e-02 1.161237597465515137e+00 2.197605848312377930e+00 3.044912099838256836e+00 3.211238145828247070e+00 -1.866208553314208984e+00 -2.117417573928833008e+00 -1.047512531280517578e+00 -7.159755229949951172e-01 4.832320213317871094e+00 -2.493297100067138672e+00 -1.152546286582946777e+00 -3.410540521144866943e-01 2.294015884399414062e+00 2.402225255966186523e+00 -4.894984662532806396e-01 -1.722066283226013184e+00 1.559985995292663574e+00 3.277185678482055664e+00 1.412645101547241211e+00 7.507349252700805664e-01 3.016806602478027344e+00 -3.181056261062622070e+00 -1.044073104858398438e+00 7.198388576507568359e-01 6.618694067001342773e-01
-2.905737400054931641e+00 7.083629965782165527e-01 2.820048809051513672e+00 3.897240400314331055e+00 2.663273334503173828e+00 2.359393358230590820e+00 3.193324327468872070e+00 -8.156535029411315918e-01 -1.913627147674560547e+00 -3.389158964157104492e+00 -2.264441728591918945e+00 -6.351997852325439453e-01 -1.001735448837280273e+00 -3.758224964141845703e+00 1.675269380211830139e-02 5.264071822166442871e-01 -7.067095041275024414e-01 -9.295122623443603516e-01 -9.986144304275512695e-01 -2.027487516403198242e+00 -1.037008762359619141e+00 3.318864822387695312e+00 4.973554015159606934e-01 -9.481334686279296875e-01 -7.322211861610412598e-01 -1.402769088745117188e+00 2.432691812515258789e+00 -1.594315528869628906e+00 2.894080877304077148e+00 -3.048522233963012695e+00 -3.959525227546691895e-01 3.180695295333862305e+00 -1.342460155487060547e+00 2.082484006881713867e+00 -1.266528725624084473e+00 -3.491253614425659180e+00 2.787932395935058594e+00 4.492419242858886719e+00 3.480523586273193359e+00
-1.240149587392807007e-01 -3.150186061859130859e+00 9.437972903251647949e-01 1.670330166816711426e-01 -1.667530089616775513e-01 1.805186033248901367e+00 -2.255733489990234375e+00 -3.618140459060668945e+00 -1.675949215888977051e+00 9.996977448463439941e-02 -3.509338200092315674e-01 2.170924186706542969e+00 1.507801055908203125e+00 9.575708508491516113e-01 2.947786092758178711e+00 2.252399772405624390e-01 -4.676784992218017578e+00 -1.711745142936706543e+00 3.924994945526123047e+00 -5.837804079055786133e-01 -8.476007580757141113e-01 4.120232760906219482e-01 2.154324531555175781e+00 -4.093419075012207031e+00 -2.927612066268920898e+00 4.215474605560302734e+00 4.299968481063842773e-01 3.233446359634399414e+00 1.236214995384216309e+00 2.668239831924438477e+00 1.121573448181152344e+00 1.335073947906494141e+00 -9.993910789489746094e-01 2.244538068771362305e+00 1.366572499275207520e+00 2.280183315277099609e+00 1.144719958305358887e+00 1.289795279502868652e+00 3.273062035441398621e-02
3.957161664962768555e+00 1.266249418258666992e-01 2.070199012756347656e+00 -4.027657210826873779e-01 -1.180676341056823730e+00 -1.358881779015064240e-02 -3.990800678730010986e-01 -2.260257244110107422e+00 -2.023012340068817139e-01 3.507043719291687012e-01 5.839449763298034668e-01 -8.612496852874755859e-01 1.530797958374023438e+00 2.654675722122192383e+00 2.457489728927612305e+00 1.573252439498901367e+00 1.738460659980773926e+00 6.732059121131896973e-01 2.914664268493652344e+00 -5.884701013565063477e-01 2.407852888107299805e+00 -7.729451656341552734e-01 4.078764915466308594e+00 9.928514361381530762e-01 7.169266939163208008e-01 8.841753602027893066e-01 2.383995354175567627e-01 -3.075367450714111328e+00 -3.740299463272094727e+00 -2.024051189422607422e+00 -4.571001052856445312e+00 6.422853469848632812e-01 -2.137082368135452271e-01 -3.924238204956054688e+00 -1.721974730491638184e+00 2.990465879440307617e+00 2.364463806152343750e+00 1.758154273033142090e+00 2.729096174240112305e+00
1.467394471168518066e+00 -3.586353302001953125e+00 5.015738606452941895e-01 5.015342235565185547e-01 3.287470817565917969e+00 -3.076022148132324219e+00 2.434323787689208984e+00 -3.949120759963989258e+00 -1.792265921831130981e-01 2.248045355081558228e-01 2.146542549133300781e+00 -1.343403309583663940e-01 4.092134952545166016e+00 -1.340517520904541016e+00 2.448575258255004883e+00 -4.526037693023681641e+00 -1.454797267913818359e+00 -6.652793288230895996e-01 6.795424222946166992e-01 3.798816680908203125e+00 1.091146230697631836e+00 -2.328204959630966187e-01 2.669595241546630859e+00 -7.219401001930236816e-01 -2.487249135971069336e+00 4.905511438846588135e-01 -1.155809879302978516e+00 1.308033704757690430e+00 -6.251930594444274902e-01 6.956588625907897949e-01 1.002848267555236816e+00 5.476118326187133789e-01 -2.298260211944580078e+00 1.588954567909240723e+00 2.158605575561523438e+00 1.679905414581298828e+00 -2.642308712005615234e+00 2.783260822296142578e+00 3.792679309844970703e+00
3.442137956619262695e+00 3.184879541397094727e+00 -2.561605930328369141e+00 -1.989617824554443359e+00 3.442040383815765381e-01 -1.548410177230834961e+00 -3.496063470840454102e+00 -2.393096923828125000e+00 -2.576414644718170166e-01 5.742270350456237793e-01 -2.351918458938598633e+00 -4.539671421051025391e+00 -3.850458145141601562e+00 -7.593761682510375977e-01 2.428724527359008789e+00 4.353983879089355469e+00 8.070690929889678955e-02 -1.159336328506469727e+00 1.446272850036621094e+00 -2.068610340356826782e-01 5.793275237083435059e-01 2.004461050033569336e+00 1.585643291473388672e+00 -3.612161159515380859e+00 4.133820056915283203e+00 7.484304904937744141e-01 -1.738710165023803711e+00 2.170791149139404297e+00 3.459887742996215820e+00 2.970435023307800293e-01 -2.580239772796630859e+00 -9.202839136123657227e-01 -2.965302228927612305e+00 4.728399813175201416e-01 -3.371366739273071289e+00 -6.323208212852478027e-01 -3.387182354927062988e-01 -2.193648576736450195e+00 -1.122202396392822266e+00
1.631689667701721191e+00 1.755754351615905762e+00 -3.224880218505859375e+00 -8.644273132085800171e-02 -2.170923233032226562e+00 -1.146643161773681641e-01 1.717906713485717773e+00 2.750468492507934570e+00 -2.408276319503784180e+00 2.703375339508056641e+00 1.259635567665100098e+00 -1.465151906013488770e+00 -2.624974727630615234e+00 -1.227870583534240723e+00 -9.747608900070190430e-01 -2.281351804733276367e+00 1.625633955001831055e+00 -2.027463465929031372e-01 3.715528726577758789e+00 2.246401071548461914e+00 3.678541660308837891e+00 -1.447778344154357910e+00 -1.630205035209655762e+00 9.373197704553604126e-02 -3.360565900802612305e+00 -3.135917663574218750e+00 -3.037449121475219727e-01 -2.775293886661529541e-01 2.617913246154785156e+00 -1.197657346725463867e+00 3.008141517639160156e+00 3.351960897445678711e+00 -2.695250034332275391e+00 -7.066089510917663574e-01 2.536845922470092773e+00 3.670286238193511963e-01 4.720688331872224808e-03 -2.013237476348876953e+00 -4.149460315704345703e+00
-8.337029218673706055e-01 4.764723479747772217e-01 -4.494334757328033447e-01 6.335093975067138672e-01 3.691178321838378906e+00 -5.183365345001220703e-01 -1.478551626205444336e+00 1.776357412338256836e+00 -2.876144170761108398e+00 -3.191728293895721436e-01 1.993458986282348633e+00 2.114592552185058594e+00 1.895009167492389679e-02 -4.891912937164306641e-01 -4.869790077209472656e+00 3.126183509826660156e+00 2.488030672073364258e+00 -2.563351392745971680e+00 -2.862542390823364258e+00 -3.427318334579467773e+00 3.951892375946044922e+00 -2.988923788070678711e+00 -3.688050508499145508e-01 7.847598195075988770e-01 3.961220502853393555e+00 5.442670583724975586e-01 -1.781006813049316406e+00 -2.662532329559326172e+00 1.244871616363525391e+00 -2.010207176208496094e+00 -2.634862661361694336e+00 1.243329286575317383e+00 7.980149388313293457e-01 8.912155628204345703e-01 3.465421199798583984e-01 -2.358472198247909546e-01 8.685008287429809570e-01 1.541538983583450317e-01 -5.994029641151428223e-01
-9.253165125846862793e-02 3.025829076766967773e+00 -3.775293111801147461e+00 -3.976613521575927734e+00 5.129082679748535156e+00 2.343888044357299805e+00 -7.901471257209777832e-01 2.368817329406738281e+00 3.774133682250976562e+00 2.258028507232666016e+00 1.125579476356506348e+00 -4.747254371643066406e+00 -3.623200058937072754e-01 -6.287899613380432129e-01 4.857277572154998779e-01 -1.719857901334762573e-01 -2.467610120773315430e+00 3.922613620758056641e+00 -3.986535072326660156e-01 -1.343130588531494141e+00 -1.750510454177856445e+00 1.424328088760375977e+00 4.154495894908905029e-01 7.748621702194213867e-01 -1.469097018241882324e+00 4.939920902252197266e-01 -1.841010004281997681e-01 -9.680060744285583496e-01 -5.065476298332214355e-01 2.946660041809082031e+00 -1.394115209579467773e+00 -4.045084714889526367e-01 -2.855440974235534668e-01 6.014302372932434082e-01 4.229266941547393799e-01 -8.582147955894470215e-01 -1.223140001296997070e+00 3.809258699417114258e+00 -6.933880448341369629e-01
1.864598155021667480e+00 -1.194753527641296387e+00 -3.897891342639923096e-01 -3.390726566314697266e+00 2.355780363082885742e+00 -2.377958536148071289e+00 -1.729656159877777100e-01 1.733143210411071777e+00 1.798495948314666748e-01 -1.617167830467224121e+00 4.126057624816894531e+00 1.428156346082687378e-02 4.849719405174255371e-01 3.767245292663574219e+00 1.915863275527954102e+00 -2.880465269088745117e+00 -1.282274961471557617e+00 3.346601963043212891e+00 -2.415012419223785400e-01 1.370356440544128418e+00 -2.002328038215637207e-01 3.794292688369750977e+00 -2.507915258407592773e+00 -3.403818368911743164e+00 4.923188686370849609e-01 -2.248888492584228516e+00 4.022934436798095703e+00 4.783707618713378906e+00 -6.500869393348693848e-01 -3.095359086990356445e+00 -1.393313765525817871e+00 -4.513669610023498535e-01 2.250899791717529297e+00 -1.211172699928283691e+00 1.916187047958374023e+00 -7.909144759178161621e-01 2.406105548143386841e-01 -2.290027379989624023e+00 2.768016755580902100e-01
-3.844450473785400391e+00 -3.501852989196777344e+00 3.841610670089721680e+00 -3.578979671001434326e-01 2.407727956771850586e+00 3.601889371871948242e+00 1.464730650186538696e-01 1.785259395837783813e-01 3.458005189895629883e+00 2.910205602645874023e+00 1.008836865425109863e+00 1.216782808303833008e+00 -1.355081915855407715e+00 1.750649809837341309e+00 -1.133435726165771484e+00 1.183610677719116211e+00 2.085321664810180664e+00 3.499274015426635742e+00 -2.031531572341918945e+00 3.476640284061431885e-01 1.961471676826477051e+00 -1.551258802413940430e+00 -1.809536337852478027e+00 -2.160365104675292969e+00 -8.835290074348449707e-01 -1.808877110481262207e+00 -3.524694442749023438e+00 5.679824948310852051e-01 -1.967943310737609863e+00 -6.670877933502197266e-01 -2.693093299865722656e+00 -2.593778967857360840e-01 3.760601043701171875e+00 -4.710533618927001953e-01 2.800095319747924805e+00 -2.538242638111114502e-01 -1.936180114746093750e+00 -4.156183898448944092e-01 2.696210145950317383e-01
1.711959481239318848e+00 -9.882025122642517090e-01 -4.497517108917236328e+00 -3.954410076141357422e+00 3.945455253124237061e-01 1.211435556411743164e+00 -2.240280628204345703e+00 -2.375474125146865845e-01 3.768815755844116211e+00 -3.792562723159790039e+00 3.036018610000610352e+00 -3.305139303207397461e+00 -1.074046015739440918e+00 -3.148540019989013672e+00 -1.701832294464111328e+00 1.614387035369873047e+00 2.740781068801879883e+00 1.935092091560363770e+00 -2.197564125061035156e+00 7.324588894844055176e-01 2.697226524353027344e+00 5.828548669815063477e-01 9.015786051750183105e-01 3.303110599517822266e+00 1.131132394075393677e-01 -1.091593146324157715e+00 1.515289843082427979e-01 -4.359332621097564697e-01 3.493209362030029297e+00 1.013229012489318848e+00 -1.133763551712036133e+00 1.765870928764343262e+00 -3.644990205764770508e+00 -1.373216509819030762e+00 -8.405072093009948730e-01 -2.487745523452758789e+00 -3.070352315902709961e+00 2.661187052726745605e-01 8.007304072380065918e-01
-2.727236986160278320e+00 1.689369529485702515e-01 7.857230901718139648e-01 7.318084836006164551e-01 -9.323199987411499023e-01 -3.510606050491333008e+00 2.107023715972900391e+00 -2.268735647201538086e+00 -3.515125989913940430e+00 -7.778885364532470703e-01 1.743969678878784180e+00 8.425428867340087891e-01 -1.270616769790649414e+00 3.363169193267822266e+00 -3.245168924331665039e+00 -8.020581603050231934e-01 3.212882518768310547e+00 4.535835385322570801e-01 -1.945400118827819824e+00 2.664214134216308594e+00 -3.054803371429443359e+00 3.714073896408081055e+00 3.971933841705322266e+00 3.195249319076538086e+00 -3.447922468185424805e+00 -1.217435479164123535e+00 -2.256052494049072266e+00 -2.360615015029907227e+00 -8.252844810485839844e-01 2.219984054565429688e+00 3.409515321254730225e-01 2.077747106552124023e+00 -5.790555477142333984e-01 -2.529373168945312500e-01 3.581501960754394531e+00 1.631427645683288574e+00 -9.944111108779907227e-01 4.774959981441497803e-01 2.730593681335449219e+00
-4.101823329925537109e+00 3.764764547348022461e+00 1.531600594520568848e+00 -7.145527005195617676e-02 -2.123081207275390625e+00 -3.619336485862731934e-01 -3.750391960144042969e+00 -1.499959707260131836e+00 4.056966304779052734e+00 -5.762584879994392395e-02 -2.525289297103881836e+00 7.810181379318237305e-01 -2.904129624366760254e-01 4.596843123435974121e-01 -1.165759921073913574e+00 7.259224653244018555e-01 -1.044893026351928711e+00 -4.133007526397705078e+00 2.649116218090057373e-01 1.488118171691894531e-01 -1.185908317565917969e+00 -1.041904687881469727e+00 -1.544739603996276855e+00 3.596259355545043945e-01 -2.693383097648620605e-01 3.248814105987548828e+00 3.555447578430175781e+00 -2.731097459793090820e+00 -3.733128070831298828e+00 -2.287024497985839844e+00 3.996880769729614258e+00 -2.581761837005615234e+00 -2.863876581192016602e+00 2.306957960128784180e+00 -2.038152217864990234e+00 1.012622117996215820e+00 -9.989254474639892578e-01 -2.979732513427734375e+00 9.970864653587341309e-01
1.521885752677917480e+00 3.472193002700805664e+00 -1.451300144195556641e+00 -3.190311789512634277e-02 7.902157902717590332e-01 -2.380129814147949219e+00 3.160558700561523438e+00 -1.735241413116455078e+00 -1.140876114368438721e-01 -2.608506381511688232e-01 -8.897011727094650269e-02 2.672063708305358887e-01 3.300933122634887695e+00 -2.098322391510009766e+00 2.730104923248291016e-01 3.142888307571411133e+00 2.361006736755371094e+00 -1.279869914054870605e+00 -1.401138544082641602e+00 4.043211936950683594e+00 2.574208498001098633e+00 -3.328395605087280273e+00 -1.921171069145202637e+00 -1.319229841232299805e+00 8.572586178779602051e-01 2.062795400619506836e+00 -1.487229824066162109e+00 -2.044502735137939453e+00 -2.881846427917480469e-01 -3.129453659057617188e+00 -2.415282487869262695e+00 -3.212543725967407227e+00 4.759261608123779297e+00 1.694123864173889160e+00 -8.984399437904357910e-01 -7.030181288719177246e-01 1.666599392890930176e+00 6.582549214363098145e-01 -3.533423662185668945e+00
6.474221348762512207e-01 -3.443599343299865723e-01 -3.184879779815673828e+00 1.877375692129135132e-01 3.733722120523452759e-02 1.300843477249145508e+00 -2.256855070590972900e-01 2.771511077880859375e+00 4.125996589660644531e+00 -6.350361704826354980e-01 -2.288844108581542969e+00 5.294387936592102051e-01 2.818948924541473389e-01 9.577600955963134766e-01 -2.811821699142456055e+00 8.550858497619628906e-01 1.300142645835876465e+00 -2.257696390151977539e+00 3.776310443878173828e+00 -1.098580598831176758e+00 -1.167791843414306641e+00 4.051241397857666016e+00 -2.603971481323242188e+00 -1.836309432983398438e+00 1.196524128317832947e-01 2.329344987869262695e+00 -1.330202519893646240e-01 2.245461702346801758e+00 -1.786486983299255371e+00 1.466158270835876465e+00 -4.312516212463378906e+00 -9.051975011825561523e-01 3.330549225211143494e-02 1.151396274566650391e+00 1.875030755996704102e+00 3.966350078582763672e+00 4.011330127716064453e+00 -2.575583934783935547e+00 3.961500406265258789e+00
-1.359840989112854004e+00 -2.523883342742919922e+00 -3.089954257011413574e-01 -6.995907425880432129e-01 -2.012724876403808594e+00 -1.827293515205383301e+00 -8.271311521530151367e-01 -1.191949725151062012e+00 -2.127636671066284180e+00 3.950827121734619141e+00 -2.515520334243774414e+00 2.669636964797973633e+00 -2.318967580795288086e+00 5.519856810569763184e-01 1.136329293251037598e+00 2.799087047576904297e+00 3.970696330070495605e-01 -2.276202477514743805e-02 3.726918697357177734e+00 -3.482351064682006836e+00 2.994629383087158203e+00 -4.018321514129638672e+00 -7.019393444061279297e-01 5.074558258056640625e-01 -7.620202302932739258e-01 -4.085346698760986328e+00 -3.295873999595642090e-01 -2.611480236053466797e+00 -1.717170357704162598e+00 -2.747987806797027588e-01 5.467647314071655273e-01 3.623696088790893555e+00 -6.936877369880676270e-01 -1.701872467994689941e+00 -1.316675543785095215e+00 2.343612194061279297e+00 -3.950869560241699219e+00 1.077313125133514404e-01 3.690703213214874268e-01
2.741128921508789062e+00 7.869074344635009766e-01 4.613002300262451172e+00 2.049177408218383789e+00 -3.545655012130737305e-01 -1.145743131637573242e+00 9.872819185256958008e-01 -7.100623100996017456e-02 1.002669692039489746e+00 1.026415705680847168e+00 1.514633059501647949e+00 -4.180609226226806641e+00 1.580438017845153809e+00 1.908266067504882812e+00 1.207553505897521973e+00 -1.246357440948486328e+00 5.858762860298156738e-01 -3.448886632919311523e+00 -2.442630529403686523e+00 -1.521633148193359375e+00 -3.448528766632080078e+00 1.814120769500732422e+00 1.942789793014526367e+00 2.432846069335937500e+00 4.697799682617187500e+00 -2.744929194450378418e-01 1.160136699676513672e+00 -1.319707512855529785e+00 -4.371701717376708984e+00 8.511590212583541870e-02 4.992398917675018311e-01 -3.308986425399780273e+00 2.029992789030075073e-01 1.780764162540435791e-01 2.292288303375244141e+00 -1.322108745574951172e+00 -2.544231176376342773e+00 3.287488937377929688e+00 9.559455513954162598e-01
-1.209410190582275391e+00 5.836308598518371582e-01 3.952581405639648438e+00 1.244056582450866699e+00 1.141422629356384277e+00 -2.203109025955200195e+00 -3.160386562347412109e+00 -1.460417389869689941e+00 2.779688596725463867e+00 -4.230293273925781250e+00 -3.482537746429443359e+00 1.540868043899536133e+00 -3.968115329742431641e+00 -1.565870344638824463e-01 -3.064206242561340332e-01 -6.054940819740295410e-01 -9.970512986183166504e-01 -3.638438701629638672e+00 -3.343949556350708008e+00 -8.919764161109924316e-01 -1.951600909233093262e-01 -5.721995234489440918e-01 8.835418820381164551e-01 -1.288109302520751953e+00 4.935628890991210938e+00 -2.349585294723510742e+00 -1.161417603492736816e+00 3.464226126670837402e-01 -1.130659103393554688e+00 -3.569595098495483398e+00 3.935033798217773438e+00 -2.325554132461547852e+00 -2.195024013519287109e+00 -8.858138322830200195e-01 2.505107641220092773e+00 5.420650839805603027e-01 1.424089908599853516e+00 1.486633896827697754e+00 1.580292582511901855e+00
-8.315118551254272461e-01 1.916967034339904785e-01 3.962282657623291016e+00 4.827969074249267578e-01 1.276698589324951172e+00 -1.877302229404449463e-01 2.320687919855117798e-01 4.370063304901123047e+00 -7.595006227493286133e-01 7.580031156539916992e-01 -1.396442890167236328e+00 -1.141612768173217773e+00 -1.387965917587280273e+00 -3.024475336074829102e+00 1.517735362052917480e+00 -3.130353212356567383e+00 1.933487415313720703e+00 1.103473663330078125e+00 3.119194030761718750e+00 -3.287802457809448242e+00 -2.183863878250122070e+00 2.778925657272338867e+00 4.714700698852539062e+00 -1.720104217529296875e+00 1.098967909812927246e+00 2.115442514419555664e+00 -1.166198134422302246e+00 -3.014096260070800781e+00 1.581544041633605957e+00 2.049238234758377075e-01 -3.704685211181640625e+00 -5.035752654075622559e-01 -1.244137048721313477e+00 2.495178937911987305e+00 -9.521173238754272461e-01 6.604177951812744141e-01 1.124256178736686707e-01 -1.303698658943176270e+00 -3.319639921188354492e+00
2.917041778564453125e+00 3.729393243789672852e+00 -3.300531148910522461e+00 1.329685688018798828e+00 -2.188051223754882812e+00 -1.833992600440979004e+00 -3.112604618072509766e+00 2.919108390808105469e+00 1.284682631492614746e+00 -3.779211759567260742e+00 3.401439189910888672e-01 3.406911611557006836e+00 -2.615960597991943359e+00 1.289586782455444336e+00 -7.233881950378417969e-01 -2.983272314071655273e+00 -3.203510761260986328e+00 2.432916641235351562e+00 -2.655986309051513672e+00 1.285059809684753418e+00 -1.930069327354431152e+00 -2.471777439117431641e+00 -1.636946350336074829e-01 8.517949581146240234e-01 -8.924264311790466309e-01 1.253198742866516113e+00 -1.253657042980194092e-01 2.211229085922241211e+00 -1.935738921165466309e-01 2.083591222763061523e+00 1.563328504562377930e+00 1.393094778060913086e+00 2.487395048141479492e+00 3.919695377349853516e+00 -2.908764839172363281e+00 1.274460077285766602e+00 3.147491216659545898e+00 -5.467686057090759277e-01 -2.601815700531005859e+00
7.819759249687194824e-01 -1.759543657302856445e+00 4.691101551055908203e+00 -6.487034559249877930e-01 -3.680335044860839844e+00 -3.695435285568237305e+00 -7.603732347488403320e-01 2.029321670532226562e+00 -3.182896375656127930e+00 -7.659198045730590820e-01 1.718404054641723633e+00 -3.071975708007812500e+00 -2.135365962982177734e+00 -2.456187248229980469e+00 2.915558576583862305e+00 2.279656410217285156e+00 2.117209196090698242e+00 1.350383281707763672e+00 -1.974874258041381836e+00 6.687531620264053345e-02 2.299887180328369141e+00 3.329912424087524414e-01 -1.401115506887435913e-01 -9.497473239898681641e-01 -2.920204401016235352e+00 2.650730311870574951e-01 2.067645311355590820e+00 -1.612040042877197266e+00 3.587184429168701172e+00 9.169821143150329590e-01 -6.109299659729003906e-01 2.836292982101440430e+00 -4.915687069296836853e-02 2.086786508560180664e+00 -3.544394731521606445e+00 -3.577304601669311523e+00 2.399765253067016602e+00 -9.698158502578735352e-01 3.689801931381225586e+00
-4.581891596317291260e-01 3.606726169586181641e+00 5.363505333662033081e-02 2.253560423851013184e-01 2.999421358108520508e+00 -7.283170819282531738e-01 -3.098078966140747070e+00 -3.039923906326293945e+00 -4.235678195953369141e+00 -5.074256062507629395e-01 5.921093225479125977e-01 3.629108667373657227e+00 8.228365778923034668e-01 -8.690143823623657227e-01 3.059821844100952148e+00 1.813006520271301270e+00 8.571657538414001465e-01 -6.433016657829284668e-01 1.518752336502075195e+00 -4.003317356109619141e+00 5.997823476791381836e-01 -2.760458469390869141e+00 -3.164521217346191406e+00 3.751642704010009766e+00 -2.935061454772949219e+00 2.764023542404174805e-01 -3.169596493244171143e-01 2.294037044048309326e-01 9.311951994895935059e-01 1.574131995439529419e-01 3.377124071121215820e+00 -3.157445430755615234e+00 -1.676197201013565063e-01 -1.381746381521224976e-01 3.242501497268676758e+00 1.538430213928222656e+00 -5.548816919326782227e-01 -1.531721830368041992e+00 -3.474015712738037109e+00
-3.096365213394165039e+00 3.001950502395629883e+00 -6.458751857280731201e-02 -1.217138409614562988e+00 -3.578843832015991211e+00 2.884542465209960938e+00 -1.887954473495483398e+00 1.162248570472002029e-02 2.106899261474609375e+00 -4.437908649444580078e+00 2.510100364685058594e+00 -1.499299049377441406e+00 -3.605261564254760742e+00 1.878274917602539062e+00 -9.287376999855041504e-01 -7.824186086654663086e-01 3.502236366271972656e+00 -2.242810249328613281e+00 3.235635280609130859e+00 -3.708784282207489014e-01 1.866061449050903320e+00 3.676797389984130859e+00 -2.890043973922729492e+00 -2.159115314483642578e+00 -9.446744918823242188e-01 -2.501969575881958008e+00 -6.053637862205505371e-01 -3.334750413894653320e+00 1.954884409904479980e+00 3.471394538879394531e+00 -2.065652132034301758e+00 -3.085755109786987305e+00 1.158049225807189941e+00 2.810243844985961914e+00 6.421449780464172363e-01 -3.852000236511230469e-01 -8.587312102317810059e-01 6.680946946144104004e-01 -2.687817096710205078e+00
-3.692183256149291992e+00 -2.838427782058715820e+00 3.450607657432556152e-01 -2.839004993438720703e+00 2.953478813171386719e+00 -1.447133421897888184e+00 4.189639985561370850e-01 3.831689596176147461e+00 8.018169403076171875e-01 1.241920590400695801e+00 5.078230500221252441e-01 -1.064164340496063232e-01 -4.806696176528930664e-01 -7.303305268287658691e-01 1.537588596343994141e+00 3.134515047073364258e+00 -4.778324365615844727e-01 1.051677912473678589e-01 -1.022479683160781860e-01 -3.396849870681762695e+00 -1.698020815849304199e+00 1.190708279609680176e+00 1.520121395587921143e-01 1.058843851089477539e+00 9.983916878700256348e-01 4.055019855499267578e+00 -3.444027900695800781e+00 -1.652271509170532227e+00 -1.746214777231216431e-01 1.732735514640808105e+00 -3.181598901748657227e+00 1.245414376258850098e+00 1.995541214942932129e+00 1.079542756080627441e+00 2.019213676452636719e+00 3.762893676757812500e+00 -1.549604654312133789e+00 3.175292968750000000e+00 2.424824476242065430e+00
-2.484379768371582031e+00 8.155891299247741699e-01 -2.729058980941772461e+00 1.348831504583358765e-02 9.026428461074829102e-01 4.096357345581054688e+00 -3.232401981949806213e-02 3.588513374328613281e+00 -7.757992148399353027e-01 -3.223786592483520508e+00 4.734626114368438721e-01 2.799898386001586914e+00 -1.239803910255432129e+00 -4.048316955566406250e+00 6.294107437133789062e-01 4.451019167900085449e-01 2.775923728942871094e+00 2.538578033447265625e+00 2.531809091567993164e+00 3.001760721206665039e+00 2.357797324657440186e-01 -1.636541724205017090e+00 3.984642982482910156e+00 -1.633241772651672363e+00 -2.130527496337890625e+00 -2.040689289569854736e-01 9.616371989250183105e-01 4.662435650825500488e-01 -7.803269028663635254e-01 -2.915861606597900391e+00 -4.408210813999176025e-01 -3.208827733993530273e+00 -7.556092739105224609e-01 -8.778305649757385254e-01 -3.882878303527832031e+00 -3.455476999282836914e+00 1.320560097694396973e+00 -3.375663280487060547e+00 1.569139957427978516e+00
-2.068809986114501953e+00 2.238960981369018555e+00 4.081500530242919922e+00 -3.924787342548370361e-01 -1.556272149085998535e+00 2.982643127441406250e+00 -1.215333700180053711e+00 -2.266615390777587891e+00 -1.697928190231323242e+00 2.697612762451171875e+00 -5.773940682411193848e-01 -2.898149006068706512e-02 4.072063922882080078e+00 -1.807198405265808105e+00 -1.722571849822998047e-01 -2.362652063369750977e+00 -4.375433921813964844e+00 4.098407745361328125e+00 3.373485565185546875e+00 4.583267569541931152e-01 4.990376830101013184e-01 3.091727972030639648e+00 -1.624123334884643555e+00 6.704726815223693848e-02 9.243031144142150879e-01 -1.116599440574645996e+00 4.209564328193664551e-01 2.977271080017089844e+00 1.910627484321594238e+00 1.315291225910186768e-01 1.172135844826698303e-01 -8.746004700660705566e-01 -5.491690635681152344e-01 1.790606260299682617e+00 -5.880697965621948242e-01 3.117130994796752930e-01 -3.369091510772705078e+00 -7.612172365188598633e-01 2.817131042480468750e+00
2.862099170684814453e+00 2.772395312786102295e-02 6.500446200370788574e-01 -3.390698194503784180e+00 2.788909077644348145e-01 1.520714402198791504e+00 4.094223678112030029e-01 -2.952074527740478516e+00 1.831978708505630493e-01 2.702589750289916992e+00 -2.578611612319946289e+00 1.013140439987182617e+00 -2.940907955169677734e+00 1.761534810066223145e-01 -3.017910242080688477e+00 4.127259731292724609e+00 -3.528254851698875427e-02 -3.235877513885498047e+00 -1.351503729820251465e+00 -3.684911489486694336e+00 -2.049762248992919922e+00 -8.189709782600402832e-01 3.428880453109741211e+00 1.926997542381286621e+00 -1.864757061004638672e+00 -1.604898095130920410e+00 4.586487770080566406e+00 3.950953006744384766e+00 -1.398230314254760742e+00 -2.939342737197875977e+00 2.611602544784545898e+00 3.122459650039672852e+00 4.194923862814903259e-02 2.350191920995712280e-01 1.792685508728027344e+00 1.555949687957763672e+00 -8.830962181091308594e-01 3.044379949569702148e+00 -2.285871505737304688e+00
1.113915324211120605e+00 -1.656155347824096680e+00 1.604935526847839355e+00 1.295847058296203613e+00 -2.687150001525878906e+00 -1.637582063674926758e+00 -4.347901940345764160e-01 6.545440554618835449e-01 3.290800333023071289e+00 -3.733403980731964111e-01 -1.217272281646728516e+00 -5.560610890388488770e-01 -3.879579305648803711e+00 -2.303507089614868164e+00 -2.354602336883544922e+00 -3.074068069458007812e+00 -9.441058635711669922e-01 1.615423083305358887e+00 5.581374168395996094e-01 -2.223049402236938477e+00 1.107256889343261719e+00 3.175839424133300781e+00 -1.515390276908874512e+00 2.905765056610107422e+00 -1.083155751228332520e+00 2.848072290420532227e+00 5.001943588256835938e+00 -3.027467489242553711e+00 5.073860883712768555e-01 4.367200851440429688e+00 3.325452089309692383e+00 -1.857444524765014648e+00 -5.377439856529235840e-01 -3.694486379623413086e+00 4.672057032585144043e-01 -6.610368490219116211e-01 3.248246610164642334e-01 4.304713726043701172e+00 -3.017703771591186523e+00
-1.460208058357238770e+00 8.616485595703125000e-01 3.052097797393798828e+00 -3.502950906753540039e+00 -8.700128197669982910e-01 3.940679311752319336e+00 -2.341777801513671875e+00 2.845798015594482422e+00 -3.619330883026123047e+00 5.690468847751617432e-02 -7.276320457458496094e-01 -1.809960484504699707e+00 -9.271714091300964355e-01 -1.207716941833496094e+00 5.842776894569396973e-01 -1.752741336822509766e+00 1.925600051879882812e+00 -3.942035436630249023e+00 3.324352264404296875e+00 1.588139295578002930e+00 1.625811576843261719e+00 -4.214426994323730469e+00 -1.887818574905395508e+00 2.748381853103637695e+00 5.173674821853637695e-01 1.104425638914108276e-01 -1.812597274780273438e+00 5.095144748687744141e+00 -1.766565322875976562e+00 7.552059292793273926e-01 3.631642818450927734e+00 5.612940192222595215e-01 -1.124488234519958496e+00 -3.899483203887939453e+00 9.432969689369201660e-01 3.088496923446655273e+00 1.059463262557983398e+00 -2.754953205585479736e-01 9.984179139137268066e-01
2.172246456146240234e+00 -2.967106580734252930e+00 9.335027933120727539e-01 -1.210043907165527344e+00 -1.420823097229003906e+00 -1.261333703994750977e+00 4.517509460449218750e+00 -1.428889632225036621e+00 1.129965901374816895e+00 -1.361395120620727539e+00 -1.709200978279113770e+00 1.865183711051940918e+00 -9.575220346450805664e-01 -2.931229591369628906e+00 -3.277396202087402344e+00 6.252382993698120117e-01 1.560419201850891113e-01 -1.326578497886657715e+00 1.239852190017700195e+00 -4.001898765563964844e+00 3.970179557800292969e+00 1.496841192245483398e+00 4.030737400054931641e+00 -1.145153790712356567e-01 -1.789854884147644043e+00 1.443525195121765137e+00 -8.408422470092773438e-01 2.100514411926269531e+00 -3.604423284530639648e+00 -6.065756678581237793e-01 1.985496044158935547e+00 -2.074645996093750000e+00 -1.720174670219421387e+00 -4.492371678352355957e-01 2.329183340072631836e+00 -3.697541713714599609e+00 4.213667392730712891e+00 -2.843102931976318359e+00 -1.387968540191650391e+00
-1.553978323936462402e+00 -3.310772895812988281e+00 1.069714784622192383e+00 -6.896376013755798340e-01 3.889798223972320557e-01 -1.633215397596359253e-01 -1.633328914642333984e+00 1.752090454101562500e+00 -2.935308456420898438e+00 -9.561257362365722656e-01 -2.899958848953247070e+00 -4.545908927917480469e+00 1.998300909996032715e+00 -2.317093372344970703e+00 1.563135981559753418e+00 -7.037986814975738525e-02 5.276566743850708008e-01 2.029250115156173706e-01 -1.262281537055969238e+00 -1.228387951850891113e+00 -2.053333520889282227e+00 6.609998941421508789e-01 2.556735754013061523e+00 -2.558775901794433594e+00 -3.715607821941375732e-01 3.757032632827758789e+00 -1.461073398590087891e+00 8.899691700935363770e-01 -7.593151926994323730e-02 1.574281573295593262e+00 1.655290275812149048e-01 2.871623992919921875e+00 -1.118808865547180176e+00 1.747771024703979492e+00 4.466428160667419434e-01 3.841869354248046875e+00 4.174777507781982422e+00 -4.627345502376556396e-01 1.837009549140930176e+00
6.718277931213378906e-01 2.550521194934844971e-01 3.923738002777099609e+00 -2.269444465637207031e+00 -6.682234406471252441e-01 -2.841153442859649658e-01 2.195507287979125977e+00 1.844449520111083984e+00 3.168034553527832031e+00 -3.768145561218261719e+00 -1.604995012283325195e+00 2.173456668853759766e+00 1.463533520698547363e+00 2.216961860656738281e+00 2.918304204940795898e+00 2.838531255722045898e+00 -9.669774770736694336e-01 -1.990334749221801758e+00 1.877853751182556152e+00 7.002127766609191895e-01 -2.142138004302978516e+00 -1.564805626869201660e+00 -1.843418002128601074e+00 -3.511238098144531250e+00 6.439463496208190918e-01 2.359504938125610352e+00 -2.821384668350219727e+00 -2.646062523126602173e-02 -1.956034660339355469e+00 -2.068427801132202148e+00 7.625826448202133179e-02 3.511382102966308594e+00 -1.919466495513916016e+00 -2.256472349166870117e+00 9.160405397415161133e-01 -3.169777393341064453e+00 -4.214168548583984375e+00 1.599641919136047363e+00 9.772593379020690918e-01
-2.498009204864501953e+00 1.498629450798034668e+00 -2.930788278579711914e+00 -2.297995805740356445e+00 4.548895835876464844e+00 1.067667245864868164e+00 1.695371866226196289e+00 -7.348135709762573242e-01 7.528920769691467285e-01 2.251441478729248047e-01 -3.535933256149291992e+00 1.051753401756286621e+00 1.169887036085128784e-01 1.284067630767822266e+00 2.967541933059692383e+00 -3.653889179229736328e+00 2.330903768539428711e+00 3.043266296386718750e+00 1.508183002471923828e+00 1.496997356414794922e+00 4.541309773921966553e-01 -2.066719055175781250e+00 3.984121322631835938e+00 -7.865714281797409058e-02 4.568754732608795166e-01 -2.507366180419921875e+00 -5.144969820976257324e-01 -8.864279389381408691e-01 -3.814526081085205078e+00 2.671405315399169922e+00 -5.869952440261840820e-01 3.395652174949645996e-01 -3.844951152801513672e+00 3.627888560295104980e-01 -2.975347042083740234e+00 -3.455370187759399414e+00 -2.985060214996337891e+00 -1.385993719100952148e+00 -1.674135565757751465e+00
-2.863037586212158203e+00 1.902670025825500488e+00 1.473295211791992188e+00 3.405794799327850342e-01 -3.210311532020568848e-01 4.845387339591979980e-01 -6.824843287467956543e-01 2.253130912780761719e+00 7.570682764053344727e-01 -3.317361593246459961e+00 3.559049844741821289e+00 3.175463438034057617e+00 -8.120858669281005859e-01 1.969078183174133301e-01 2.570216178894042969e+00 -2.156781435012817383e+00 -3.682912826538085938e+00 -2.267887353897094727e+00 -3.754092693328857422e+00 1.494558811187744141e+00 1.254755854606628418e+00 1.111674830317497253e-01 4.869857430458068848e-01 -2.425187349319458008e+00 2.095065861940383911e-01 3.076240234076976776e-02 3.379514694213867188e+00 -1.521644830703735352e+00 1.387175321578979492e+00 1.150995373725891113e+00 -1.445849537849426270e+00 9.440787434577941895e-01 -3.378507614135742188e+00 1.678809404373168945e+00 3.936940431594848633e+00 3.703453779220581055e+00 -4.071361064910888672e+00 1.974919885396957397e-01 -2.225345671176910400e-01
-4.417581856250762939e-01 -3.214512586593627930e+00 6.407064199447631836e-01 -3.421643733978271484e+00 -1.856765270233154297e+00 -2.926954746246337891e+00 -1.399026036262512207e+00 -1.627096891403198242e+00 -1.764163136482238770e+00 -3.199013233184814453e+00 -2.969538569450378418e-01 -4.710301160812377930e-01 4.505372524261474609e+00 3.976732730865478516e+00 -1.745080113410949707e+00 3.560073375701904297e+00 8.236456513404846191e-01 -2.482270002365112305e+00 -7.699866890907287598e-01 3.652133464813232422e+00 -1.975215822458267212e-01 -3.906685709953308105e-01 2.288132667541503906e+00 2.847917556762695312e+00 4.472803115844726562e+00 7.182803004980087280e-03 3.901266455650329590e-01 -1.935433745384216309e+00 3.795651674270629883e+00 1.668795466423034668e+00 3.084342002868652344e+00 1.931319475173950195e+00 5.028573274612426758e-01 -2.209588289260864258e-01 -2.305653572082519531e+00 2.312639802694320679e-01 -1.825586915016174316e+00 -2.979156255722045898e+00 -1.591973900794982910e+00
-3.372159481048583984e+00 -2.107100009918212891e+00 -3.473716676235198975e-01 2.484500646591186523e+00 3.994440317153930664e+00 -1.544476628303527832e+00 4.066457271575927734e+00 -2.411934375762939453e+00 3.013317823410034180e+00 1.578210294246673584e-01 4.226004123687744141e+00 -6.772587895393371582e-01 -3.157284259796142578e+00 3.477771997451782227e+00 2.164249897003173828e+00 -1.963452577590942383e+00 1.555814146995544434e+00 3.277122974395751953e-01 -1.479960918426513672e+00 1.338433027267456055e+00 -1.082243323326110840e+00 -9.805567264556884766e-01 4.061283588409423828e+00 -7.311763763427734375e-01 -1.876091957092285156e-01 1.391947984695434570e+00 -2.290621250867843628e-01 1.650549769401550293e+00 1.584991931915283203e+00 -7.373040318489074707e-01 -5.823994278907775879e-01 7.198023796081542969e-01 -1.376726150512695312e+00 -3.839962959289550781e+00 -4.450926780700683594e+00 2.632533788681030273e+00 4.341346740722656250e+00 6.972799543291330338e-03 1.666367530822753906e+00
4.684571623802185059e-01 6.430047154426574707e-01 3.705659806728363037e-01 1.937852740287780762e+00 -1.989319801330566406e+00 3.688888072967529297e+00 3.638559579849243164e+00 -4.028933048248291016e-01 -1.662159085273742676e+00 2.896424531936645508e-01 -7.182964086532592773e-01 1.381168603897094727e+00 -2.777347803115844727e+00 -1.630529612302780151e-01 -1.641613483428955078e+00 -3.538380146026611328e+00 -4.437614440917968750e+00 4.586091637611389160e-01 -1.072077751159667969e+00 -5.168955326080322266e-01 -2.688279747962951660e-01 -2.057233601808547974e-01 8.035487532615661621e-01 -2.147837132215499878e-01 -2.882053554058074951e-01 2.707502365112304688e+00 -2.811332702636718750e+00 2.591387271881103516e+00 3.664995431900024414e+00 -3.483561277389526367e+00 -2.414237260818481445e+00 3.941098690032958984e+00 4.279669284820556641e+00 1.560283899307250977e+00 1.805173993110656738e+00 7.128452062606811523e-01 -4.095931053161621094e+00 6.996794939041137695e-01 9.642879366874694824e-01
4.143218517303466797e+00 -1.730619311332702637e+00 -2.753110885620117188e+00 -1.689508318901062012e+00 -1.368383526802062988e+00 6.273933053016662598e-01 2.288113355636596680e+00 1.335619211196899414e+00 3.078305721282958984e+00 2.912363290786743164e+00 -3.775809764862060547e+00 -5.205795168876647949e-01 1.307367324829101562e+00 -1.354799985885620117e+00 2.817360401153564453e+00 -1.783573865890502930e+00 3.326543569564819336e+00 -3.477571725845336914e+00 -2.750555515289306641e+00 -5.284855961799621582e-01 -3.576542377471923828e+00 -3.954715490341186523e+00 -2.234658718109130859e+00 -1.363960742950439453e+00 -3.001961946487426758e+00 -4.005773365497589111e-01 -2.867059230804443359e+00 9.973865151405334473e-01 2.331324100494384766e+00 3.437232732772827148e+00 1.050300478935241699e+00 -4.021276950836181641e+00 1.273625135421752930e+00 -1.982425093650817871e+00 -1.572992920875549316e+00 -1.368016283959150314e-02 8.004986047744750977e-01 2.099783182144165039e+00 9.368621557950973511e-02
-1.488064825534820557e-01 -1.111275553703308105e+00 -3.933269023895263672e+00 -8.265072703361511230e-01 1.982998400926589966e-01 -2.632725834846496582e-01 -4.394529759883880615e-01 -3.083315849304199219e+00 -1.704628944396972656e+00 3.275710344314575195e-01 -1.910216093063354492e+00 -4.723434448242187500e+00 -1.720564126968383789e+00 1.092664003372192383e+00 1.736543886363506317e-02 1.636234402656555176e+00 -4.032101631164550781e+00 5.953707695007324219e-01 -1.091212034225463867e+00 -1.621414422988891602e-01 -1.993768334388732910e+00 3.968994617462158203e+00 4.225690364837646484e+00 -3.145008802413940430e+00 -2.916787624359130859e+00 3.061699628829956055e+00 -1.427015781402587891e+00 -1.087030768394470215e-01 -3.924719333648681641e+00 3.333853244781494141e+00 3.084102869033813477e+00 -9.489285349845886230e-01 3.751648426055908203e+00 6.431473493576049805e-01 -7.566362023353576660e-01 -1.328267216682434082e+00 -1.074231147766113281e+00 -3.019181728363037109e+00 -2.712117195129394531e+00
6.552850008010864258e-01 1.112551808357238770e+00 -6.498552560806274414e-01 -1.849778771400451660e+00 -9.330174326896667480e-01 -1.039382219314575195e+00 -4.999265372753143311e-01 5.747738108038902283e-02 -1.218191266059875488e+00 7.879007458686828613e-01 1.033720016479492188e+00 -8.059694431722164154e-03 2.432099103927612305e+00 -3.085869550704956055e+00 -4.176821231842041016e+00 7.732641696929931641e-01 -7.523677349090576172e-01 3.291235566139221191e-01 -3.954383850097656250e+00 -3.546716272830963135e-01 1.143362164497375488e+00 3.114856004714965820e+00 -1.201111003756523132e-01 4.020561695098876953e+00 -1.440791726112365723e+00 4.357797145843505859e+00 -2.792572736740112305e+00 -3.008996963500976562e+00 -1.494633436203002930e+00 -3.703248977661132812e+00 -4.659687280654907227e-01 -9.768495559692382812e-01 -6.599005460739135742e-01 -4.136419668793678284e-02 -1.561241507530212402e+00 -7.621874213218688965e-01 3.924718618392944336e+00 -1.326207637786865234e+00 3.837740421295166016e+00
-1.243004679679870605e+00 2.373285055160522461e+00 1.446986079216003418e+00 2.947728157043457031e+00 -1.671823740005493164e+00 9.011102318763732910e-01 -1.278785228729248047e+00 -8.458944559097290039e-01 -4.334547519683837891e+00 1.006294608116149902e+00 -8.776717185974121094e-01 2.026049375534057617e+00 1.416680812835693359e+00 3.126852750778198242e+00 8.037967085838317871e-01 -6.242048740386962891e-01 3.049165248870849609e+00 3.051968989893794060e-03 8.062008023262023926e-01 -4.302845299243927002e-01 -2.037150382995605469e+00 4.297210693359375000e+00 4.612020216882228851e-03 -2.031341791152954102e+00 1.357326209545135498e-01 2.364109277725219727e+00 -2.095383644104003906e+00 5.504323840141296387e-01 3.914900779724121094e+00 2.206269264221191406e+00 -3.170694112777709961e+00 -2.703062295913696289e-01 -2.774354219436645508e+00 -3.334908723831176758e+00 -1.097337841987609863e+00 -4.035089969635009766e+00 3.278098821640014648e+00 1.532358050346374512e+00 1.832291841506958008e+00
-1.718038558959960938e+00 1.840761899948120117e+00 -3.303149223327636719e+00 -2.404941082000732422e+00 -3.106618300080299377e-02 -2.521397829055786133e+00 -3.119503974914550781e+00 3.268564939498901367e+00 -1.218492984771728516e+00 -8.587087392807006836e-01 2.479633092880249023e+00 2.209589242935180664e+00 3.843608140945434570e+00 -4.126984596252441406e+00 8.620263934135437012e-01 3.178257226943969727e+00 -1.381873726844787598e+00 -3.226297378540039062e+00 -4.077263832092285156e+00 7.018922567367553711e-01 6.432185769081115723e-01 3.342303752899169922e+00 3.410337686538696289e+00 2.860852241516113281e+00 3.268862664699554443e-01 -4.203810691833496094e+00 -4.981433451175689697e-01 2.004268765449523926e-01 6.797443032264709473e-01 9.374994635581970215e-01 -8.674069046974182129e-01 -2.634213447570800781e+00 -3.261631965637207031e+00 -1.597601890563964844e+00 2.357138872146606445e+00 7.468211054801940918e-01 -1.021790385246276855e+00 -5.777397751808166504e-01 2.850723564624786377e-01
3.900105357170104980e-01 -4.650647342205047607e-01 -3.294642269611358643e-01 2.310863256454467773e+00 -6.336486339569091797e-01 1.715163946151733398e+00 -5.317268371582031250e-01 -2.735513687133789062e+00 3.257171630859375000e+00 -1.584935903549194336e+00 6.082617640495300293e-01 -4.060729026794433594e+00 -3.196039497852325439e-01 3.512004315853118896e-01 1.514781713485717773e-01 3.072286128997802734e+00 4.961768984794616699e-01 -2.494964122772216797e+00 -5.212616175413131714e-02 -1.921617388725280762e+00 -1.732535004615783691e+00 -7.155541181564331055e-01 -3.200323343276977539e+00 4.161875724792480469e+00 -1.259943485260009766e+00 -4.533968925476074219e+00 -2.013514041900634766e+00 4.684387207031250000e+00 3.478334903717041016e+00 3.506259202957153320e+00 -2.717479705810546875e+00 2.417773485183715820e+00 -4.741998016834259033e-01 4.121951103210449219e+00 8.264706134796142578e-01 -1.724381804466247559e+00 -3.736927807331085205e-01 1.013225555419921875e+00 3.055105686187744141e+00
-7.246474623680114746e-01 3.545076847076416016e+00 2.248910069465637207e-01 -3.928706169128417969e+00 1.480050563812255859e+00 -3.726166009902954102e+00 2.338663339614868164e+00 -7.565623521804809570e-02 1.821064472198486328e+00 1.281452775001525879e+00 -2.720669507980346680e+00 2.338578939437866211e+00 1.541320532560348511e-01 -3.668095469474792480e-01 -1.405803442001342773e+00 -1.241715669631958008e+00 2.552207708358764648e+00 -3.539883613586425781e+00 -8.796088695526123047e-01 -1.619936943054199219e+00 -2.942849159240722656e+00 2.589661598205566406e+00 6.396236270666122437e-02 1.464522719383239746e+00 1.152909040451049805e+00 7.620625495910644531e-01 -3.383993148803710938e+00 -1.068215519189834595e-01 4.058310985565185547e+00 3.022169589996337891e+00 4.577722549438476562e-01 -1.899572163820266724e-01 1.070370197296142578e+00 -3.236992835998535156e+00 -9.153351187705993652e-01 2.233553409576416016e+00 3.959149122238159180e+00 -1.067271471023559570e+00 -6.011844277381896973e-01
1.494419336318969727e+00 7.164830565452575684e-01 -2.552381038665771484e+00 3.491659879684448242e+00 -7.664223313331604004e-01 3.842071771621704102e+00 4.132718741893768311e-01 -2.137137651443481445e+00 1.451617181301116943e-01 2.864145994186401367e+00 4.552295207977294922e+00 -5.000516176223754883e-01 1.998996853828430176e+00 2.235715150833129883e+00 -8.544871211051940918e-01 2.969138622283935547e+00 -1.791662693023681641e+00 -2.516258656978607178e-01 -3.892802715301513672e+00 -9.095293879508972168e-01 5.862210392951965332e-01 2.894587755203247070e+00 -3.362037658691406250e+00 -1.877206206321716309e+00 4.987807571887969971e-02 1.653453469276428223e+00 1.252059578895568848e+00 -2.346626520156860352e+00 -3.529246807098388672e+00 3.973052978515625000e+00 3.045406103134155273e+00 -7.042694687843322754e-01 -2.259202003479003906e+00 1.915032982826232910e+00 -1.059870362281799316e+00 -2.965184450149536133e+00 -1.434727072715759277e+00 -1.326151728630065918e+00 1.622458338737487793e+00
4.399025142192840576e-01 6.710349917411804199e-01 3.518545150756835938e+00 4.891990125179290771e-02 -7.675168514251708984e-01 -3.278153240680694580e-01 -3.864239752292633057e-01 1.609484791755676270e+00 2.696150302886962891e+00 3.837879419326782227e+00 -5.680549144744873047e-01 1.376236915588378906e+00 -9.415280222892761230e-01 7.139756083488464355e-01 1.126049831509590149e-01 4.250599861145019531e+00 -2.805346727371215820e+00 -1.025793433189392090e+00 -4.881850481033325195e-01 7.584266066551208496e-01 2.177019566297531128e-01 2.390076637268066406e+00 -1.914262652397155762e+00 -1.085405826568603516e+00 -2.392896652221679688e+00 -3.661386966705322266e+00 1.760149240493774414e+00 -5.956629514694213867e-01 2.656987123191356659e-02 -3.392045021057128906e+00 -4.096576213836669922e+00 7.835434079170227051e-01 3.631608247756958008e+00 -3.434935092926025391e+00 1.584754467010498047e+00 -1.726514577865600586e+00 1.853635072708129883e+00 -2.312031507492065430e+00 1.512409299612045288e-01
-1.347531080245971680e+00 2.030872106552124023e+00 3.723228216171264648e+00 -1.143592596054077148e+00 -2.503741741180419922e+00 -1.198715686798095703e+00 -1.351246118545532227e+00 -2.596502304077148438e+00 3.994720935821533203e+00 1.553331851959228516e+00 1.076064586639404297e+00 1.653383493423461914e+00 4.443173408508300781e-01 -3.163769006729125977e+00 -3.619887590408325195e+00 2.334552288055419922e+00 -7.564581036567687988e-01 -1.246922612190246582e+00 3.838953256607055664e+00 -6.521889567375183105e-01 3.216004371643066406e-01 -5.043302178382873535e-01 -2.133281469345092773e+00 -2.616168022155761719e+00 -1.945461392402648926e+00 -2.654214859008789062e+00 -6.027566790580749512e-01 1.320713400840759277e+00 -3.968634128570556641e+00 3.063807725906372070e+00 -1.995111554861068726e-01 1.278081417083740234e+00 -3.149720191955566406e+00 -9.113557934761047363e-01 -4.643148422241210938e+00 4.923145174980163574e-01 4.268402099609375000e+00 1.956122636795043945e+00 7.408270239830017090e-01
-8.624873757362365723e-01 -1.313421726226806641e+00 -3.816179752349853516e+00 -3.197444677352905273e+00 4.670460820198059082e-01 -3.410948514938354492e+00 -4.119019985198974609e+00 3.298095941543579102e+00 -3.314056873321533203e+00 -6.444448232650756836e-02 8.974726796150207520e-01 -1.476265907287597656e+00 3.239696025848388672e+00 4.920027554035186768e-01 -2.952517986297607422e+00 -2.777303218841552734e+00 3.729256391525268555e-01 -2.388843774795532227e+00 2.546396970748901367e+00 -1.519890308380126953e+00 2.352872192859649658e-01 1.569450616836547852e+00 -2.808882594108581543e-01 -2.359350442886352539e+00 -6.421146988868713379e-01 -2.158429861068725586e+00 -4.497679769992828369e-01 3.580922126770019531e+00 3.762300491333007812e+00 -1.905407190322875977e+00 3.098551750183105469e+00 -1.878113150596618652e+00 -2.623304426670074463e-01 -1.611575484275817871e+00 2.025702953338623047e+00 3.234847784042358398e+00 2.006654262542724609e+00 3.078108072280883789e+00 4.919739365577697754e-01
-1.792044401168823242e+00 -3.322278976440429688e+00 -6.454904675483703613e-01 -4.434083998203277588e-01 -2.647950887680053711e+00 -2.332654714584350586e+00 -1.022455215454101562e+00 3.499041795730590820e+00 -3.090960502624511719e+00 -2.400367259979248047e+00 1.988198280334472656e+00 -4.312052726745605469e-01 -1.080233454704284668e+00 -1.496622562408447266e+00 3.930450081825256348e-01 1.765405774116516113e+00 2.513292431831359863e-01 4.333711624145507812e+00 -1.731903195381164551e+00 -2.592811822891235352e+00 -2.534793138504028320e+00 -3.650151968002319336e+00 -3.770680427551269531e-01 -1.962034851312637329e-01 -2.169643878936767578e+00 3.538864850997924805e+00 -1.196697711944580078e+00 8.824945092201232910e-01 -2.155835330486297607e-01 -1.680105924606323242e-02 4.043759822845458984e+00 -2.239053249359130859e-01 2.444129228591918945e+00 1.185166835784912109e+00 2.112282037734985352e+00 -3.267285585403442383e+00 2.788624763488769531e-01 -3.055452108383178711e+00 -1.967710852622985840e+00
-8.300353884696960449e-01 1.008415222167968750e+00 -3.095912218093872070e+00 7.117673158645629883e-01 1.142901256680488586e-01 -4.101532459259033203e+00 -1.403592109680175781e+00 -2.154929161071777344e+00 3.778252363204956055e+00 6.452993750572204590e-01 1.847402453422546387e+00 1.144319772720336914e+00 -2.184946775436401367e+00 -2.716443538665771484e+00 -6.784373428672552109e-03 -2.027066946029663086e+00 -8.199608325958251953e-01 2.989897966384887695e+00 2.038769245147705078e+00 -1.445593833923339844e+00 4.144181251525878906e+00 2.810527563095092773e+00 -1.659979939460754395e+00 2.742849349975585938e+00 -2.730338335037231445e+00 3.847482442855834961e+00 -8.896113634109497070e-01 3.838975191116333008e+00 -6.334919333457946777e-01 5.811243653297424316e-01 -9.168053269386291504e-01 -1.752360701560974121e+00 2.887772023677825928e-01 -1.201581880450248718e-01 2.161033391952514648e+00 3.889453887939453125e+00 -3.255378246307373047e+00 -2.353118419647216797e+00 -1.088050007820129395e+00
4.097802162170410156e+00 -2.933035373687744141e+00 1.570022463798522949e+00 3.052063703536987305e+00 2.694359540939331055e+00 -2.417192935943603516e+00 2.612964808940887451e-01 1.457321196794509888e-01 3.842892885208129883e+00 3.212284445762634277e-01 1.738695621490478516e+00 3.406505823135375977e+00 -8.066933155059814453e-01 -2.593285560607910156e+00 -3.227883875370025635e-01 -2.894819259643554688e+00 7.975006103515625000e-02 -1.290036439895629883e+00 -2.985300779342651367e+00 -3.467950105667114258e+00 -7.994975149631500244e-02 -4.971922039985656738e-01 1.364700913429260254e+00 -3.919091463088989258e+00 -1.867650032043457031e+00 -2.895141601562500000e+00 -1.434555292129516602e+00 1.201271772384643555e+00 3.362831115722656250e+00 1.013367533683776855e+00 -2.596625089645385742e-01 -3.127703368663787842e-01 -1.714364886283874512e+00 -7.640489935874938965e-01 -8.033998608589172363e-01 2.232025146484375000e+00 3.876912295818328857e-01 -3.081814289093017578e+00 -3.380887508392333984e+00
-2.290479898452758789e+00 -2.026053190231323242e+00 -2.252367138862609863e-01 1.568734526634216309e+00 -2.777536869049072266e+00 2.270754575729370117e+00 -2.704575061798095703e+00 8.404338359832763672e-02 3.862056255340576172e+00 3.468138217926025391e+00 4.295190811157226562e+00 2.139029502868652344e+00 -2.562907695770263672e+00 -2.145917892456054688e+00 -2.041914224624633789e+00 -1.519494414329528809e+00 2.432978391647338867e+00 -1.958178281784057617e+00 -1.244968414306640625e+00 -3.735352277755737305e+00 -7.590609788894653320e-01 -3.798277378082275391e+00 4.073104381561279297e+00 2.480775415897369385e-01 7.017276883125305176e-01 1.729579329490661621e+00 3.531810283660888672e+00 4.181468188762664795e-01 3.050972223281860352e+00 8.464130759239196777e-01 -3.695785045623779297e+00 -1.308659195899963379e+00 6.293595302850008011e-03 1.362371724098920822e-02 1.162912845611572266e+00 -1.216109395027160645e+00 -6.185592152178287506e-03 -2.178221702575683594e+00 1.320164322853088379e+00
-3.157512426376342773e+00 -2.222273826599121094e+00 -4.889697730541229248e-01 3.209890604019165039e+00 4.763041496276855469e+00 -2.631548166275024414e+00 3.994912385940551758e+00 2.351310014724731445e+00 1.663352400064468384e-01 -5.720839500427246094e-01 6.342772394418716431e-02 -7.341614961624145508e-01 -2.898213863372802734e+00 -2.371734142303466797e+00 3.284675776958465576e-01 6.910480856895446777e-01 2.245983600616455078e+00 -1.588580012321472168e+00 9.154690504074096680e-01 3.173649609088897705e-01 -3.036920785903930664e+00 3.660420894622802734e+00 3.258477151393890381e-01 -4.319163560867309570e-01 2.061996698379516602e+00 -4.085403680801391602e-02 1.543715119361877441e+00 1.025810599327087402e+00 -4.963791668415069580e-01 1.307631582021713257e-01 4.106582164764404297e+00 2.679507732391357422e+00 1.169972419738769531e+00 -2.315664291381835938e-01 -4.418299198150634766e+00 3.576717078685760498e-01 1.326616048812866211e+00 2.451893687248229980e-01 3.333165645599365234e+00
4.328154087066650391e+00 -8.709424138069152832e-01 2.626349329948425293e-01 2.340884447097778320e+00 -5.250551104545593262e-01 2.708439588546752930e+00 7.917084097862243652e-01 4.258587360382080078e+00 -2.415280580520629883e+00 6.669138073921203613e-01 -8.257730603218078613e-01 -4.873094081878662109e+00 -1.594268530607223511e-01 4.105332374572753906e+00 -1.809231340885162354e-01 -2.605198621749877930e-01 1.889238715171813965e+00 -3.041264057159423828e+00 2.168630123138427734e+00 4.624885320663452148e-01 -5.582332015037536621e-01 3.313998699188232422e+00 -7.774897217750549316e-01 2.378514766693115234e+00 -1.505283415317535400e-01 1.396722435951232910e+00 -2.457724571228027344e+00 5.962705612182617188e-01 -7.778861522674560547e-01 9.797961711883544922e-01 3.420003652572631836e-01 -1.351977705955505371e+00 4.413850784301757812e+00 -2.395656108856201172e+00 -1.184910297393798828e+00 -1.430251002311706543e+00 -3.845532417297363281e+00 -1.566617250442504883e+00 -4.219118654727935791e-01
-6.250453591346740723e-01 1.561799407005310059e+00 -3.596189022064208984e+00 9.501878619194030762e-01 -1.643738985061645508e+00 -3.363712072372436523e+00 2.435929536819458008e+00 1.260846138000488281e+00 6.229142546653747559e-01 -8.286173939704895020e-01 6.399887800216674805e-02 -2.855272769927978516e+00 -7.256057858467102051e-01 2.436985254287719727e+00 2.416164636611938477e+00 1.941781789064407349e-01 -3.487797737121582031e+00 -2.356971800327301025e-01 1.805213689804077148e+00 -4.416653633117675781e+00 3.410221815109252930e+00 -1.992883443832397461e+00 1.037649989128112793e+00 2.241079062223434448e-01 3.424380540847778320e+00 9.375204443931579590e-01 -2.904432415962219238e-01 -1.447295904159545898e+00 1.063956618309020996e+00 -3.277538299560546875e+00 3.049834489822387695e+00 -1.957495808601379395e+00 -2.691242218017578125e+00 3.736831903457641602e+00 -1.947445273399353027e-01 -3.783898115158081055e+00 3.419458866119384766e+00 1.390640377998352051e+00 -1.809431791305541992e+00
3.102357625961303711e+00 3.220076799392700195e+00 -4.055460929870605469e+00 3.500016033649444580e-01 -3.226354360580444336e+00 3.256075382232666016e-01 -5.918772146105766296e-02 4.148047924041748047e+00 1.285850405693054199e+00 3.319193601608276367e+00 -2.939560651779174805e+00 1.211044549942016602e+00 -2.449272394180297852e+00 -1.073617815971374512e+00 2.038533926010131836e+00 -3.149582624435424805e+00 8.500726222991943359e-01 5.966443419456481934e-01 -2.254586219787597656e+00 8.290045894682407379e-03 3.028072416782379150e-01 7.449941635131835938e-01 -3.740024328231811523e+00 -1.087653756141662598e+00 4.437120258808135986e-01 2.646927118301391602e+00 -2.402947664260864258e+00 6.137247681617736816e-01 -1.252525150775909424e-01 6.047849655151367188e-01 -1.303198486566543579e-01 9.126497507095336914e-01 1.841754794120788574e+00 -2.952300310134887695e+00 3.075223684310913086e+00 -5.858373641967773438e-01 1.997045576572418213e-01 2.692510604858398438e+00 4.223388195037841797e+00
9.424350261688232422e-01 -3.569878816604614258e+00 3.125027120113372803e-01 -2.650782823562622070e+00 -1.315541744232177734e+00 2.714436352252960205e-01 -2.389984130859375000e+00 3.002056837081909180e+00 -1.468855023384094238e+00 6.920726299285888672e-01 -5.526180267333984375e-01 3.486888885498046875e+00 -4.111392021179199219e+00 2.354365587234497070e+00 -3.425283908843994141e+00 -7.733115553855895996e-01 4.289319515228271484e-01 3.609058856964111328e+00 1.238053679466247559e+00 3.413540601730346680e+00 -2.267470121383666992e+00 7.713937759399414062e-01 -2.935941696166992188e+00 -8.158818483352661133e-01 2.927423715591430664e-01 5.286861956119537354e-02 9.442037940025329590e-01 -3.366033136844635010e-01 -1.358038783073425293e+00 6.495752930641174316e-01 1.018266797065734863e+00 -1.635129302740097046e-01 1.712277978658676147e-01 4.164966583251953125e+00 -3.649002790451049805e+00 6.087810993194580078e-01 3.965172052383422852e+00 3.263722658157348633e+00 -1.753147691488265991e-01
-1.563571810722351074e+00 -2.966318130493164062e+00 -1.687128283083438873e-02 3.456276655197143555e+00 3.050913512706756592e-01 1.791322827339172363e+00 -5.505680441856384277e-01 1.387444257736206055e+00 -4.143649041652679443e-01 -4.013000011444091797e+00 -1.187841176986694336e+00 2.872061491012573242e+00 -1.107036948204040527e+00 4.716566562652587891e+00 6.071029901504516602e-01 1.939155220985412598e+00 -4.750288277864456177e-02 3.742505073547363281e+00 -3.296076774597167969e+00 -1.261692762374877930e+00 -4.060636088252067566e-02 -6.769152879714965820e-01 -3.343731880187988281e+00 2.856698751449584961e+00 4.827768206596374512e-01 4.538659751415252686e-02 3.030940532684326172e+00 -2.631879329681396484e+00 5.152124762535095215e-01 1.369351148605346680e+00 5.516464114189147949e-01 2.581388950347900391e-01 1.275062680244445801e+00 -3.677910804748535156e+00 -3.749463319778442383e+00 3.298191785812377930e+00 1.108490586280822754e+00 9.054447412490844727e-01 4.203347265720367432e-01
-1.234141111373901367e+00 -3.170134067535400391e+00 -6.697694063186645508e-01 -1.422033458948135376e-01 4.443501949310302734e+00 -4.154968261718750000e+00 -3.704717159271240234e+00 -2.758613586425781250e+00 -1.113908067345619202e-01 -2.116146564483642578e+00 1.561012715101242065e-01 -2.362692594528198242e+00 -2.361958503723144531e+00 -8.979682326316833496e-01 2.131176888942718506e-01 1.446011960506439209e-01 1.806019783020019531e+00 -5.107623934745788574e-01 1.588710546493530273e-01 2.884050369262695312e+00 4.278488636016845703e+00 -5.304495096206665039e-01 -2.857295036315917969e+00 -2.943434715270996094e+00 1.239105701446533203e+00 2.126981973648071289e+00 1.795084834098815918e+00 -1.955421328544616699e+00 -8.197383880615234375e-01 -9.790005087852478027e-01 -1.388861089944839478e-01 2.777508497238159180e-01 5.434855222702026367e-01 -5.355215072631835938e-01 3.370850801467895508e+00 -3.245478153228759766e+00 -2.799257636070251465e-01 -1.017763018608093262e+00 1.309651374816894531e+00
-2.915819644927978516e+00 -1.437814354896545410e+00 -3.618170738220214844e+00 3.810420036315917969e+00 6.726089715957641602e-01 -9.679434299468994141e-01 2.567142546176910400e-01 -1.434272289276123047e+00 -9.149249643087387085e-02 2.858269214630126953e-01 -3.057153463363647461e+00 2.457906007766723633e+00 3.966051578521728516e+00 -3.510555267333984375e+00 3.285782814025878906e+00 1.311425209045410156e+00 2.876509666442871094e+00 -6.634917855262756348e-01 -9.618372470140457153e-02 1.841619968414306641e+00 -3.221320390701293945e+00 2.932200908660888672e+00 -1.358882665634155273e+00 1.524752080440521240e-01 -1.076908826828002930e+00 -3.758030235767364502e-01 4.806990146636962891e+00 -1.987110018730163574e+00 -1.699642688035964966e-01 4.158011376857757568e-01 -1.023258209228515625e+00 -2.945153117179870605e-01 -4.097121953964233398e-01 3.221758842468261719e+00 -8.899121284484863281e-01 1.232972979545593262e+00 -2.819384336471557617e+00 9.403512477874755859e-01 2.144350111484527588e-01
1.980652213096618652e+00 3.670296907424926758e+00 -1.011571764945983887e+00 -2.911388874053955078e-01 7.981567382812500000e-01 5.688907504081726074e-01 1.914341330528259277e+00 3.538817882537841797e+00 -4.175144672393798828e+00 1.822373032569885254e+00 4.087873920798301697e-02 8.017381429672241211e-01 1.422998309135437012e+00 3.204147577285766602e+00 -3.782685756683349609e+00 3.816926956176757812e+00 -3.487801790237426758e+00 2.175958395004272461e+00 4.837292432785034180e-01 -8.247333168983459473e-01 -1.096885442733764648e+00 1.069597244262695312e+00 -1.390681743621826172e+00 -8.148090243339538574e-01 4.388072967529296875e+00 -2.788849115371704102e+00 3.501339673995971680e+00 -1.829011201858520508e+00 5.099949240684509277e-01 3.029297590255737305e+00 -1.598436385393142700e-01 -2.556931734085083008e+00 -3.650270223617553711e+00 -3.440755605697631836e+00 1.128440618515014648e+00 7.864744663238525391e-01 -9.654533863067626953e-01 -7.682480812072753906e-01 -3.628202676773071289e-01
-2.541884422302246094e+00 1.363040924072265625e+00 -1.963452458381652832e+00 -3.519241809844970703e+00 -3.042696237564086914e+00 2.402272224426269531e-01 4.392995357513427734e+00 -4.446302354335784912e-01 -1.857383549213409424e-01 -5.133976340293884277e-01 2.264430522918701172e+00 1.184261083602905273e+00 -1.662143349647521973e+00 -9.081781506538391113e-01 -3.832330107688903809e-01 -2.960049152374267578e+00 2.685441732406616211e+00 -2.068881988525390625e+00 -2.997821569442749023e+00 1.249236702919006348e+00 4.108747959136962891e+00 2.206037998199462891e+00 -2.142352581024169922e+00 -3.828803777694702148e+00 3.804594039916992188e+00 -2.122877597808837891e+00 -2.648979425430297852e+00 -1.273984670639038086e+00 -4.260379314422607422e+00 1.431076526641845703e+00 -1.355239868164062500e+00 8.142464607954025269e-02 3.724799394607543945e+00 -8.049344271421432495e-02 1.663467526435852051e+00 6.014727950096130371e-01 -1.017714262008666992e+00 -2.215725183486938477e+00 -4.842334687709808350e-01
2.133796691894531250e+00 8.019297719001770020e-01 -1.601057291030883789e+00 -3.897476911544799805e+00 1.070158600807189941e+00 2.079168707132339478e-01 3.011345624923706055e+00 -1.255310654640197754e+00 -1.003956079483032227e+00 -4.077436029911041260e-01 2.947746992111206055e+00 1.769248604774475098e+00 -6.955195963382720947e-02 3.496897697448730469e+00 5.761622786521911621e-01 1.286299109458923340e+00 -3.255475282669067383e+00 -5.873345136642456055e-01 3.263943195343017578e+00 3.210208177566528320e+00 -3.949394464492797852e+00 -2.983788013458251953e+00 -4.177122414112091064e-01 -1.964786797761917114e-01 1.256097793579101562e+00 3.448438644409179688e+00 -2.938514709472656250e+00 -4.622826278209686279e-01 3.514756917953491211e+00 -1.301970601081848145e+00 -2.272977590560913086e+00 3.456080675125122070e+00 -1.649332344532012939e-01 1.048419117927551270e+00 9.338782429695129395e-01 -2.808836460113525391e+00 3.735721588134765625e+00 -6.181357502937316895e-01 2.072084903717041016e+00
-1.299458593130111694e-01 -3.933609008789062500e+00 -7.393489480018615723e-01 -4.464158713817596436e-01 -3.163578748703002930e+00 8.524008393287658691e-01 3.067704439163208008e+00 -4.992844164371490479e-01 1.334008455276489258e+00 1.889091730117797852e+00 -1.697798728942871094e+00 -3.596841573715209961e+00 1.648316025733947754e+00 -2.859807610511779785e-01 9.945307374000549316e-01 -2.765413522720336914e+00 -1.001886010169982910e+00 2.438100337982177734e+00 -1.190296635031700134e-01 4.064851284027099609e+00 5.211475491523742676e-01 -2.505836963653564453e+00 -1.191522479057312012e+00 -3.771156668663024902e-01 4.627286911010742188e+00 -2.046224117279052734e+00 3.110106468200683594e+00 -2.972849845886230469e+00 -8.912566304206848145e-01 -2.061496257781982422e+00 -1.763029456138610840e+00 -9.704435467720031738e-01 -1.332733035087585449e+00 2.176157236099243164e+00 1.795233607292175293e+00 1.703238725662231445e+00 -5.673612952232360840e-01 6.823382973670959473e-01 -3.306380510330200195e+00
-1.389518827199935913e-01 -6.214801073074340820e-01 -9.281519651412963867e-01 1.467116624116897583e-01 -2.892269194126129150e-01 -1.204104572534561157e-01 -7.613050192594528198e-02 7.257075309753417969e-01 -2.802222251892089844e+00 -2.732789278030395508e+00 -1.551765084266662598e+00 -4.469570636749267578e+00 -1.746876597404479980e+00 -3.416333794593811035e-01 8.749096393585205078e-01 -3.477408409118652344e+00 3.775071382522583008e+00 -1.670252799987792969e+00 -2.431537628173828125e+00 -2.509751081466674805e+00 -3.066405296325683594e+00 -4.375669360160827637e-01 2.596653103828430176e-01 -1.116256594657897949e+00 -1.178054928779602051e+00 -3.418783426284790039e+00 4.377540588378906250e+00 4.362965106964111328e+00 -2.342484295368194580e-01 -1.507845282554626465e+00 -3.750677824020385742e+00 -3.882910490036010742e+00 -1.248087048530578613e+00 2.370018959045410156e+00 -3.807379722595214844e+00 4.086817741394042969e+00 -1.622272610664367676e+00 -4.548180997371673584e-01 8.894439339637756348e-01
-1.169446349143981934e+00 -2.687445580959320068e-01 1.566239297389984131e-01 -2.906184494495391846e-01 -3.068342208862304688e+00 -2.417726039886474609e+00 -5.285328030586242676e-01 -6.830978989601135254e-01 7.676886320114135742e-01 -8.594743609428405762e-01 -3.895301580429077148e+00 7.387784868478775024e-02 3.299059629440307617e+00 -3.410248458385467529e-01 -9.826593399047851562e-01 2.854206323623657227e+00 -1.252111315727233887e+00 3.545702457427978516e+00 1.678696036338806152e+00 -2.272100448608398438e+00 6.448333263397216797e-01 -3.664448738098144531e+00 3.455930233001708984e+00 3.277203440666198730e-01 8.238800764083862305e-01 -1.010921120643615723e+00 2.434442281723022461e+00 -1.266753524541854858e-01 2.302000522613525391e+00 3.554275989532470703e+00 -2.304527997970581055e+00 -3.498549699783325195e+00 2.728110074996948242e+00 -2.345471858978271484e+00 -1.161027669906616211e+00 5.166108161211013794e-02 -5.015559121966362000e-02 -1.962189316749572754e+00 4.101638793945312500e+00
-4.078643321990966797e+00 -4.300243854522705078e-01 2.959115743637084961e+00 7.926136255264282227e-01 -1.180032730102539062e+00 -6.886683702468872070e-01 -1.888865590095520020e+00 2.489137411117553711e+00 5.801654234528541565e-02 1.339227795600891113e+00 -2.221987247467041016e+00 -7.277053594589233398e-01 5.093918800354003906e+00 2.519769906997680664e+00 -1.016022086143493652e+00 1.278671249747276306e-02 3.083479881286621094e+00 4.159561097621917725e-01 -3.945988893508911133e+00 -1.831393718719482422e+00 -4.923080205917358398e-01 -5.536696314811706543e-01 -9.648109674453735352e-01 1.080497026443481445e+00 -2.828577518463134766e+00 1.337967872619628906e+00 -3.238534927368164062e+00 1.776190280914306641e+00 -8.767276406288146973e-01 -9.489754438400268555e-01 9.118868112564086914e-01 3.945937633514404297e+00 3.929789364337921143e-01 1.262499332427978516e+00 2.118719339370727539e+00 -2.915866136550903320e+00 -8.695662021636962891e-01 1.409008622169494629e+00 -2.379838705062866211e+00
2.907484769821166992e+00 -1.517971515655517578e+00 -1.068759560585021973e+00 -3.461346626281738281e-01 -2.400866508483886719e+00 -1.383398294448852539e+00 2.843517065048217773e+00 -4.355053007602691650e-01 4.885509610176086426e-01 4.015100955963134766e+00 4.112010955810546875e+00 -5.322743058204650879e-01 -3.790546953678131104e-01 1.660766720771789551e+00 -4.307468891143798828e+00 1.517023205757141113e+00 5.915768817067146301e-02 2.697846889495849609e+00 6.946631669998168945e-01 -3.207983732223510742e+00 6.047243475914001465e-01 -1.066801786422729492e+00 1.232881307601928711e+00 -8.413379788398742676e-01 1.115572676062583923e-01 1.607836037874221802e-01 -2.662490904331207275e-01 -7.614848017692565918e-01 -1.740711033344268799e-01 -3.899649143218994141e+00 3.804160356521606445e-01 -3.544876813888549805e+00 -2.973336696624755859e+00 3.924408674240112305e+00 -6.350185871124267578e-01 4.632537841796875000e+00 -3.269197225570678711e+00 -3.687832653522491455e-01 -7.421561479568481445e-01
-5.040234327316284180e-01 -1.611164808273315430e+00 1.860963821411132812e+00 -3.839543581008911133e+00 4.630697727203369141e+00 -8.454088568687438965e-01 3.621885538101196289e+00 -1.767510533332824707e+00 -1.736036419868469238e+00 -2.584867000579833984e+00 6.616427898406982422e-01 2.979533076286315918e-01 3.222104072570800781e+00 3.323833942413330078e-01 -4.082733631134033203e+00 -2.053534030914306641e+00 -2.016618490219116211e+00 -1.997102975845336914e+00 4.952205717563629150e-01 -2.756860017776489258e+00 1.132451415061950684e+00 -2.838432550430297852e+00 -2.135798454284667969e+00 -1.180390954017639160e+00 1.185677409172058105e+00 -1.706452012062072754e+00 3.357469558715820312e+00 2.183231353759765625e+00 9.876626729965209961e-01 3.914278984069824219e+00 3.830508589744567871e-01 -1.276236534118652344e+00 -3.547137677669525146e-01 5.909478664398193359e-01 -1.525169014930725098e+00 -1.106300234794616699e+00 6.720088720321655273e-01 1.146105170249938965e+00 2.573735475540161133e+00
-2.854295492172241211e+00 -1.182212233543395996e+00 -2.628869295120239258e+00 3.065318822860717773e+00 -5.859103798866271973e-01 3.832410097122192383e+00 1.012738943099975586e+00 -3.055870294570922852e+00 1.260888814926147461e+00 -3.001723527908325195e+00 1.343736171722412109e+00 1.013988375663757324e+00 -1.799445629119873047e+00 1.275513648986816406e+00 -4.387905120849609375e+00 3.595103740692138672e+00 1.880135893821716309e+00 6.839687824249267578e-01 -1.975123405456542969e+00 3.588464975357055664e+00 -2.583644866943359375e+00 -2.534504890441894531e+00 3.610067844390869141e+00 -2.798489570617675781e+00 -2.568705558776855469e+00 2.633753299713134766e+00 9.637250900268554688e-01 1.806829273700714111e-01 2.707391738891601562e+00 -9.895626455545425415e-03 -6.220402717590332031e-01 -3.841702938079833984e+00 2.661106109619140625e+00 -3.422231435775756836e+00 2.108633041381835938e+00 3.401718139648437500e+00 -1.050894141197204590e+00 2.540675878524780273e+00 -1.481006622314453125e+00
2.895195960998535156e+00 -1.134010314941406250e+00 -2.613597631454467773e+00 3.144412517547607422e+00 -2.563803911209106445e+00 -3.581977844238281250e+00 1.206395402550697327e-01 -1.076836109161376953e+00 -3.047200202941894531e+00 -2.647925376892089844e+00 -4.025166511535644531e+00 -1.422298513352870941e-02 1.428436875343322754e+00 1.818376541137695312e+00 4.091532528400421143e-01 -2.132261276245117188e+00 3.826386451721191406e+00 -1.665194272994995117e+00 -2.636935710906982422e+00 -3.425952434539794922e+00 7.100922614336013794e-02 -2.020374387502670288e-01 -1.006202995777130127e-01 4.235040843486785889e-01 1.475861370563507080e-01 -1.409069867804646492e-03 1.535542964935302734e+00 -2.029639959335327148e+00 -3.544843435287475586e+00 -1.372166156768798828e+00 -3.303550004959106445e+00 2.979593276977539062e+00 -2.076941251754760742e+00 1.232203722000122070e+00 2.158322811126708984e+00 1.174771115183830261e-01 2.459935426712036133e+00 -3.031230926513671875e+00 -1.829709485173225403e-02
6.063719391822814941e-01 -8.690560460090637207e-01 -2.920860052108764648e+00 -2.805203676223754883e+00 -1.675840735435485840e+00 -2.733471989631652832e-01 -3.862281560897827148e+00 -2.998727321624755859e+00 5.096490979194641113e-01 -9.816327691078186035e-01 3.626248598098754883e+00 3.312278509140014648e+00 -1.039870977401733398e+00 2.415382385253906250e+00 4.018365859985351562e+00 -5.510836243629455566e-01 1.770263791084289551e+00 -4.648644924163818359e-01 -2.732263326644897461e+00 -1.224238872528076172e+00 2.373848199844360352e+00 -3.196992278099060059e-01 3.076703548431396484e+00 -2.352280855178833008e+00 -1.817733168601989746e+00 -3.446974515914916992e+00 -2.365635156631469727e+00 -2.080349445343017578e+00 -3.338747501373291016e+00 -9.337174296379089355e-01 1.655817747116088867e+00 8.894347548484802246e-01 3.583300590515136719e+00 1.967330098152160645e+00 1.118682861328125000e+00 -2.827729225158691406e+00 3.747369050979614258e-01 3.476163625717163086e+00 2.328146696090698242e+00
-1.226070642471313477e+00 1.627137660980224609e+00 2.725531101226806641e+00 3.232683897018432617e+00 9.761907458305358887e-01 2.637227177619934082e-01 1.799060702323913574e+00 3.039106845855712891e+00 -1.226759791374206543e+00 8.905704021453857422e-01 -1.110195517539978027e+00 5.636097192764282227e-01 -4.006271362304687500e+00 -1.499557852745056152e+00 3.534239053726196289e+00 4.269141852855682373e-01 -1.594755172729492188e+00 -1.580715894699096680e+00 -3.326957225799560547e-01 1.152681231498718262e+00 1.016486644744873047e+00 3.124748468399047852e+00 -3.094043970108032227e+00 1.215486407279968262e+00 1.244650602340698242e+00 2.066558122634887695e+00 -3.603347539901733398e-01 -1.833057761192321777e+00 -1.363164424896240234e+00 -1.995297908782958984e+00 1.783904075622558594e+00 -4.918179035186767578e+00 -2.471114635467529297e+00 3.074070453643798828e+00 3.032390594482421875e+00 1.435279846191406250e+00 2.193626880645751953e+00 4.614344239234924316e-02 5.231423974037170410e-01
2.146230190992355347e-01 1.309737086296081543e+00 1.045252442359924316e+00 1.231241747736930847e-01 2.678115367889404297e-01 1.949038982391357422e+00 -7.111509442329406738e-01 -2.117571592330932617e+00 -1.305606007575988770e+00 3.548460483551025391e+00 5.711026787757873535e-01 -1.138442993164062500e+00 1.208215594291687012e+00 -1.217239737510681152e+00 7.310841679573059082e-01 2.151132345199584961e+00 -6.499435752630233765e-02 -2.170911312103271484e+00 -2.158758193254470825e-01 3.771432399749755859e+00 2.998128414154052734e+00 -2.559743225574493408e-01 4.609401226043701172e+00 -4.063253402709960938e+00 9.007177948951721191e-01 -1.947768688201904297e+00 -1.889170527458190918e+00 2.632973790168762207e-01 -2.092317342758178711e+00 3.600575208663940430e+00 4.238503456115722656e+00 -4.297382831573486328e+00 2.606030702590942383e+00 3.183212280273437500e+00 1.671102643013000488e-01 2.245446681976318359e+00 2.031656026840209961e+00 -7.394868731498718262e-01 2.459344148635864258e+00
1.999380469322204590e+00 4.067639350891113281e+00 -1.410906076431274414e+00 3.862477064132690430e+00 -4.005606174468994141e-01 -3.712836265563964844e+00 -2.418968915939331055e+00 -3.800373077392578125e+00 8.067614436149597168e-01 -1.577528119087219238e+00 -7.150084972381591797e-01 -3.556157112121582031e+00 1.082604050636291504e+00 -4.310917556285858154e-01 1.445537090301513672e+00 6.407060027122497559e-01 -2.628348827362060547e+00 1.226310849189758301e+00 2.475932836532592773e+00 -5.222897529602050781e-01 8.770323395729064941e-01 -2.915882110595703125e+00 2.534138858318328857e-01 -1.535444706678390503e-01 -2.008264511823654175e-01 2.987878024578094482e-01 -2.927447557449340820e-01 1.421454548835754395e+00 -2.128026962280273438e+00 6.089373826980590820e-01 1.098981738090515137e+00 1.384514451026916504e+00 4.411309242248535156e+00 -2.722237586975097656e+00 -1.373838424682617188e+00 -6.435155868530273438e-01 5.671777725219726562e-01 -2.274394273757934570e+00 4.113067626953125000e+00
1.198799014091491699e-01 -2.629444837570190430e+00 -3.142080307006835938e+00 3.471511602401733398e+00 9.884710311889648438e-01 1.999974966049194336e+00 -8.407363295555114746e-01 2.852356672286987305e+00 5.188819766044616699e-01 -3.796358108520507812e-01 -1.291724920272827148e+00 -4.506132125854492188e+00 4.387052536010742188e+00 -1.892815828323364258e+00 1.893813848495483398e+00 5.275996923446655273e-01 -3.352847814559936523e+00 3.135698080062866211e+00 -2.930162668228149414e+00 2.816103696823120117e+00 1.628464221954345703e+00 -3.227747678756713867e+00 4.579322338104248047e-01 -2.987450361251831055e-01 -1.578597068786621094e+00 -2.712200641632080078e+00 2.488640844821929932e-01 -1.352853894233703613e+00 2.787131309509277344e+00 2.182634323835372925e-01 1.570654749870300293e+00 -1.241344332695007324e+00 -8.054710626602172852e-01 1.960552036762237549e-01 1.103241205215454102e+00 4.281601428985595703e+00 1.549853920936584473e+00 4.396068096160888672e+00 1.476007103919982910e+00
-2.694401741027832031e+00 3.389657497406005859e+00 3.806678533554077148e+00 -1.887599706649780273e+00 -2.199228763580322266e+00 -9.512410163879394531e-01 3.978869915008544922e+00 -2.394406348466873169e-01 -8.401077389717102051e-01 2.501103878021240234e+00 9.571895599365234375e-01 -8.464369773864746094e-01 -6.719621419906616211e-01 -2.972195386886596680e+00 -1.706506729125976562e+00 1.883966803550720215e+00 -8.483217358589172363e-01 -2.046511888504028320e+00 1.337273836135864258e+00 4.011763095855712891e+00 8.320029377937316895e-01 -3.394787311553955078e+00 -8.728203177452087402e-01 3.078826189041137695e+00 1.168666958808898926e+00 2.336275577545166016e+00 2.444607496261596680e+00 3.073049068450927734e+00 2.507125854492187500e+00 -1.168813109397888184e+00 -6.549594998359680176e-01 1.766951084136962891e+00 2.458969831466674805e+00 1.580108046531677246e+00 -1.376442313194274902e+00 1.599255442619323730e+00 -3.313029050827026367e+00 -1.623263955116271973e+00 -1.918171525001525879e+00
1.650244951248168945e+00 -3.042840659618377686e-01 -2.617805957794189453e+00 3.841148376464843750e+00 1.134605646133422852e+00 1.767532944679260254e+00 4.357064664363861084e-01 3.208463907241821289e+00 3.595260620117187500e+00 -1.609390258789062500e+00 -1.377949714660644531e+00 1.127377867698669434e+00 -5.339462161064147949e-01 2.982392072677612305e+00 -2.370371520519256592e-01 2.546909809112548828e+00 -4.267092227935791016e+00 -1.768472790718078613e-01 1.802699685096740723e+00 2.221992731094360352e+00 3.774878740310668945e+00 3.395372629165649414e+00 2.315919399261474609e+00 3.417370319366455078e+00 -3.739403009414672852e+00 5.191464424133300781e-01 4.971668720245361328e-01 4.426576137542724609e+00 8.658790588378906250e-01 -2.104979038238525391e+00 2.424075752496719360e-01 -5.910766124725341797e-01 -1.313184857368469238e+00 1.994663119316101074e+00 -7.228574156761169434e-01 1.716144196689128876e-02 -2.619273662567138672e+00 -1.184072494506835938e-01 -6.545047461986541748e-02
3.813862562179565430e+00 -3.988690137863159180e+00 6.007385253906250000e-02 -1.422713041305541992e+00 1.855462431907653809e+00 2.847495794296264648e+00 -4.211102008819580078e+00 -4.148832798004150391e+00 7.054579257965087891e-01 9.043629169464111328e-01 -3.838313102722167969e+00 2.088437557220458984e+00 -4.773950576782226562e-01 -8.009710907936096191e-01 1.822397828102111816e+00 -7.639116048812866211e-02 2.293981313705444336e+00 3.485520601272583008e+00 2.025939941406250000e+00 -1.733170747756958008e+00 1.693471908569335938e+00 9.114618301391601562e-01 -2.951605796813964844e+00 1.667388916015625000e+00 1.996167302131652832e+00 1.542964935302734375e+00 5.570196509361267090e-01 4.238021969795227051e-01 3.149446249008178711e+00 -9.480265378952026367e-01 2.676186323165893555e+00 1.324895322322845459e-01 -9.799958467483520508e-01 -2.832288503646850586e+00 2.270103216171264648e+00 -1.202383562922477722e-01 4.394943118095397949e-01 -7.565391659736633301e-01 2.324162006378173828e+00
1.030737280845642090e+00 4.226502418518066406e+00 8.268965482711791992e-01 -7.737703323364257812e-01 -1.165637254714965820e+00 -6.144173070788383484e-02 1.285771012306213379e+00 3.362053632736206055e+00 -3.054362237453460693e-01 -9.887570142745971680e-02 -2.156502939760684967e-02 -3.924978077411651611e-01 1.632907152175903320e+00 3.096868515014648438e+00 1.297037839889526367e+00 -2.653016805648803711e+00 2.723302543163299561e-01 -3.069311678409576416e-01 2.000871181488037109e+00 -3.936655759811401367e+00 6.077628135681152344e-01 -3.628126382827758789e-01 1.608943223953247070e+00 -3.365232706069946289e+00 -3.854186773300170898e+00 2.812202692031860352e+00 3.491161823272705078e+00 -3.702014446258544922e+00 3.481343507766723633e+00 -3.178182125091552734e+00 2.635250806808471680e+00 -9.753077477216720581e-02 5.326406955718994141e-01 -1.758648991584777832e+00 -1.411225557327270508e+00 -1.235247015953063965e+00 -3.619177818298339844e+00 8.887576460838317871e-01 2.348251342773437500e+00
1.629479527473449707e+00 -7.768737077713012695e-01 4.002142429351806641e+00 2.962111532688140869e-01 -3.301080226898193359e+00 1.714753508567810059e+00 3.563537597656250000e-01 -3.167007207870483398e+00 -2.423695802688598633e+00 -2.516530275344848633e+00 -7.083215713500976562e-01 1.862510800361633301e+00 -2.844250202178955078e-01 -9.487410634756088257e-02 2.896863222122192383e-01 -2.678478956222534180e-01 -1.030967831611633301e+00 3.116705179214477539e+00 -2.787617743015289307e-01 1.353174209594726562e+00 1.503796339035034180e+00 1.309502482414245605e+00 1.982463598251342773e-01 3.538662672042846680e+00 3.823020696640014648e+00 -6.977382302284240723e-01 -3.439574480056762695e+00 4.654367923736572266e+00 -4.138509273529052734e+00 -1.798089504241943359e+00 -2.971324205398559570e+00 1.389222979545593262e+00 -7.218155860900878906e-01 -3.369013071060180664e+00 -3.362045764923095703e+00 9.524030685424804688e-01 -5.237544775009155273e-01 -4.654097855091094971e-01 -1.774174332618713379e+00
1.517994880676269531e+00 -6.872500181198120117e-01 -1.346815466880798340e+00 9.505921602249145508e-01 1.516065746545791626e-01 3.262747049331665039e+00 -2.638664245605468750e+00 2.677026033401489258e+00 6.974359154701232910e-01 -1.845912814140319824e+00 -1.827804207801818848e+00 -2.699687480926513672e+00 -1.360711932182312012e+00 -3.403705120086669922e+00 -1.058406829833984375e+00 -3.665710687637329102e-01 -4.009395599365234375e+00 -2.435302019119262695e+00 3.065876960754394531e+00 2.429320096969604492e+00 -1.050880193710327148e+00 -4.239973723888397217e-01 1.661169886589050293e+00 3.506120920181274414e+00 -2.161157369613647461e+00 -3.675397634506225586e+00 4.490647614002227783e-01 -2.926462173461914062e+00 -3.725002527236938477e+00 -1.810675024986267090e+00 2.704429626464843750e+00 3.617687940597534180e+00 -1.682590246200561523e+00 -2.029223680496215820e+00 1.052510142326354980e-01 -1.286173462867736816e+00 3.896505355834960938e+00 -3.454650163650512695e+00 -9.762646555900573730e-01
-4.365067481994628906e+00 -1.777977794408798218e-01 -2.737532615661621094e+00 2.576089620590209961e+00 1.967057824134826660e+00 -1.115942001342773438e+00 2.219558238983154297e+00 -8.592982590198516846e-02 6.057355925440788269e-02 1.397843956947326660e+00 1.886603116989135742e+00 -1.135392308235168457e+00 -2.681695461273193359e+00 -7.954711914062500000e-01 9.994971752166748047e-01 -2.629651546478271484e+00 -1.601462125778198242e+00 1.639491319656372070e+00 1.951497554779052734e+00 5.877865552902221680e-01 -3.079408407211303711e+00 -3.696673870086669922e+00 -4.372982978820800781e-01 2.787999629974365234e+00 4.691559791564941406e+00 7.490929961204528809e-01 -1.111089825630187988e+00 2.866932153701782227e+00 -2.302858829498291016e+00 3.745927572250366211e+00 -4.023607730865478516e+00 -1.900987386703491211e+00 -8.606454730033874512e-01 -9.873343706130981445e-01 1.555104255676269531e+00 -1.512640237808227539e+00 6.494467854499816895e-01 -1.803195476531982422e-01 -3.666678428649902344e+00
4.279900550842285156e+00 1.294792294502258301e+00 -5.257724523544311523e-01 3.343411684036254883e+00 -2.799499779939651489e-02 3.032593429088592529e-01 9.630097076296806335e-03 -1.716697454452514648e+00 -3.576233386993408203e+00 -1.830540299415588379e+00 -2.189006805419921875e+00 2.720605373382568359e+00 -9.301148056983947754e-01 -3.962798595428466797e+00 -4.260477066040039062e+00 7.165881991386413574e-02 2.764415979385375977e+00 2.632717847824096680e+00 -1.567637562751770020e+00 -4.657527804374694824e-01 -2.133815765380859375e+00 -3.152391195297241211e+00 -3.830624818801879883e-01 -2.594869136810302734e+00 4.915434718132019043e-01 -2.743257761001586914e+00 -1.182433843612670898e+00 -7.494954764842987061e-02 -6.853622198104858398e-01 -1.893940091133117676e+00 1.160305142402648926e+00 3.704529285430908203e+00 -2.980015039443969727e+00 1.770071029663085938e+00 2.887538909912109375e+00 -4.143626689910888672e-01 -2.645640134811401367e+00 9.810871481895446777e-01 3.626466989517211914e+00
1.939548701047897339e-01 4.559927463531494141e+00 -1.836562871932983398e+00 1.199302300810813904e-01 -1.912491619586944580e-01 3.787271976470947266e+00 4.815701842308044434e-01 -3.881645441055297852e+00 2.831588685512542725e-01 -4.020267486572265625e+00 -2.665812015533447266e+00 -7.503115534782409668e-01 3.902021169662475586e+00 -1.998529672622680664e+00 -2.242488622665405273e+00 -9.172163009643554688e-01 1.087317109107971191e+00 -7.205927371978759766e-02 -9.989105165004730225e-02 3.594999611377716064e-01 -1.408909261226654053e-01 2.023245096206665039e+00 3.163667619228363037e-01 7.871367037296295166e-02 1.908571481704711914e+00 -3.938529491424560547e-01 -3.248128652572631836e+00 -4.642882049083709717e-01 3.855690658092498779e-01 2.088727056980133057e-01 1.188460111618041992e+00 -3.869394659996032715e-01 3.226150274276733398e-01 -2.695353984832763672e+00 4.001580178737640381e-01 4.199379444122314453e+00 1.903860688209533691e+00 6.276149749755859375e-01 -3.128892660140991211e+00
1.123606562614440918e+00 2.524572849273681641e+00 -1.346190333366394043e+00 -2.226976394653320312e+00 1.244199275970458984e+00 -2.916378021240234375e+00 -2.839003801345825195e+00 -3.940244913101196289e+00 -1.364885568618774414e+00 3.412508726119995117e+00 1.552646636962890625e+00 3.420271575450897217e-01 -3.582460165023803711e+00 8.304921388626098633e-01 1.019066795706748962e-01 -1.593260526657104492e+00 -3.093097925186157227e+00 -2.800426483154296875e-01 -4.026378095149993896e-01 -2.533542156219482422e+00 -8.528884649276733398e-01 1.035881757736206055e+00 -5.880141854286193848e-01 3.776670932769775391e+00 2.556900262832641602e+00 4.156061708927154541e-01 2.803686618804931641e+00 1.858875751495361328e+00 1.137911558151245117e+00 -1.872256278991699219e+00 9.652719497680664062e-01 -3.568861722946166992e+00 3.580091714859008789e+00 1.056823253631591797e+00 -1.345206618309020996e+00 -3.145602643489837646e-01 -1.858277559280395508e+00 3.055965900421142578e+00 3.313219785690307617e+00
2.328331232070922852e+00 1.974818706512451172e-01 5.239218473434448242e-01 3.130432844161987305e+00 3.401937723159790039e+00 3.562832832336425781e+00 -2.568813323974609375e+00 3.870953023433685303e-01 -5.994254350662231445e-01 1.477668762207031250e+00 -9.444424510002136230e-01 2.061160802841186523e+00 3.869577646255493164e-01 2.649441003799438477e+00 -2.656155824661254883e+00 -5.091990828514099121e-01 3.317939043045043945e+00 -2.326528310775756836e+00 1.556103944778442383e+00 -3.814059495925903320e+00 -2.453468799591064453e+00 1.040444821119308472e-01 -2.045522451400756836e+00 -2.961674451828002930e+00 2.529354810714721680e+00 -2.878760814666748047e+00 -3.158159971237182617e+00 3.051439225673675537e-01 9.015911221504211426e-01 -8.075360655784606934e-01 3.260481595993041992e+00 1.591400265693664551e+00 2.332696437835693359e+00 2.836105585098266602e+00 -3.398424625396728516e+00 2.803957700729370117e+00 -2.003806114196777344e+00 -1.619678974151611328e+00 -3.371072053909301758e+00
-9.685878753662109375e-01 -3.833638191223144531e+00 -1.708807349205017090e+00 -3.787951946258544922e+00 -2.692168951034545898e+00 5.103716850280761719e-01 2.517274618148803711e+00 4.393034875392913818e-01 1.919280290603637695e-01 -2.573363542556762695e+00 -1.037807226181030273e+00 2.678700685501098633e+00 5.218684077262878418e-01 1.864947915077209473e+00 1.956735253334045410e+00 8.045992255210876465e-01 8.376157879829406738e-01 -2.096269577741622925e-01 2.687126100063323975e-01 -3.385519742965698242e+00 7.484477758407592773e-02 -1.654504418373107910e+00 -2.013824224472045898e+00 4.429905891418457031e+00 4.535121321678161621e-01 -2.353784069418907166e-02 -1.968582272529602051e+00 1.788935303688049316e+00 -2.245652198791503906e+00 -5.314977169036865234e-01 3.574231863021850586e+00 -3.689858913421630859e+00 -2.228932455182075500e-02 4.571785628795623779e-01 1.648957133293151855e+00 -2.962242841720581055e+00 -2.085140943527221680e+00 4.041499137878417969e+00 4.089901447296142578e+00
2.559927225112915039e+00 -5.753628015518188477e-01 2.671383142471313477e+00 -1.067768931388854980e+00 3.789891600608825684e-01 -2.196213960647583008e+00 4.100888729095458984e+00 1.530194401741027832e+00 1.995519876480102539e+00 -1.431899309158325195e+00 3.556322574615478516e+00 -2.518728494644165039e+00 -1.687575697898864746e+00 -2.540862560272216797e+00 7.829605937004089355e-01 2.180676937103271484e+00 1.807982444763183594e+00 3.041697025299072266e+00 4.001688480377197266e+00 -1.643276929855346680e+00 -3.306402444839477539e+00 -4.690986573696136475e-01 -3.463878154754638672e+00 4.881673753261566162e-01 -3.043941557407379150e-01 -3.551689147949218750e+00 -2.831364870071411133e+00 -2.584875106811523438e+00 1.097043871879577637e+00 -6.510184407234191895e-01 2.438598155975341797e+00 5.704798698425292969e-01 1.760744094848632812e+00 -9.954145550727844238e-01 -2.666090488433837891e+00 1.037029743194580078e+00 2.180034220218658447e-01 1.579321980476379395e+00 6.543911695480346680e-01
6.857022643089294434e-02 2.664774656295776367e+00 -3.194579601287841797e+00 2.696694135665893555e+00 9.443236887454986572e-02 -2.138183832168579102e+00 -3.636563777923583984e+00 -6.204882264137268066e-01 1.095673918724060059e+00 2.881985187530517578e+00 2.148505449295043945e+00 -1.754704415798187256e-01 1.937864661216735840e+00 4.464815139770507812e+00 -1.785562992095947266e+00 -3.112274408340454102e-01 1.396013617515563965e+00 -2.142491638660430908e-01 2.846414148807525635e-01 1.412028908729553223e+00 -1.062083840370178223e+00 2.059707194566726685e-01 -2.759414196014404297e+00 -1.678515791893005371e+00 -6.521462202072143555e-01 -5.883178114891052246e-01 1.671206235885620117e+00 4.540947914123535156e+00 8.716133236885070801e-01 -3.753410339355468750e+00 -7.526643872261047363e-01 4.702214598655700684e-01 -3.279310703277587891e+00 -1.144847154617309570e+00 -4.923467040061950684e-01 -2.448774576187133789e+00 -2.010915875434875488e-01 3.562859058380126953e+00 -1.715579271316528320e+00
3.270964145660400391e+00 3.400048494338989258e+00 6.895785331726074219e-01 -2.629151821136474609e+00 4.476465284824371338e-01 2.170417308807373047e+00 -1.413625836372375488e+00 -1.341920256614685059e+00 -3.503226757049560547e+00 1.422948837280273438e+00 4.414481163024902344e+00 -1.384334087371826172e+00 6.908003240823745728e-02 1.707553714513778687e-01 8.369198441505432129e-02 -1.740930080413818359e+00 1.030284881591796875e+00 -3.084373235702514648e+00 6.973999738693237305e-01 9.289199113845825195e-01 -2.129496097564697266e+00 -3.428400516510009766e+00 5.415133833885192871e-01 1.303883433341979980e+00 -3.232716083526611328e+00 -1.493161082267761230e+00 4.283848285675048828e+00 -1.360376358032226562e+00 -3.377063751220703125e+00 1.073117136955261230e+00 -4.206886768341064453e+00 2.962162733078002930e+00 6.935255527496337891e-01 3.301757097244262695e+00 3.887387216091156006e-01 5.133137106895446777e-01 3.363034009933471680e+00 -3.610905027016997337e-03 -1.904059886932373047e+00
4.931253492832183838e-01 -2.802792787551879883e+00 -5.480592846870422363e-01 3.298952102661132812e+00 -5.320615321397781372e-02 1.823045730590820312e+00 1.094035863876342773e+00 1.310167670249938965e+00 -3.145323753356933594e+00 3.319217681884765625e+00 -7.945532798767089844e-01 2.183614492416381836e+00 -9.436183571815490723e-01 -2.467155933380126953e+00 -1.567029476165771484e+00 -2.705994129180908203e+00 -3.795050382614135742e+00 -3.685302257537841797e+00 3.450114011764526367e+00 1.094638586044311523e+00 1.253707051277160645e+00 7.404272556304931641e-01 -2.673347294330596924e-02 2.678833484649658203e+00 4.154403805732727051e-01 -1.812325954437255859e+00 -3.053594827651977539e-01 -2.967076301574707031e+00 2.680728733539581299e-01 3.552740097045898438e+00 -1.011595487594604492e+00 -7.632976174354553223e-01 4.244382858276367188e+00 1.265575438737869263e-01 1.121899485588073730e+00 -4.085446357727050781e+00 1.567855626344680786e-01 7.676790356636047363e-01 3.893350124359130859e+00
-8.791370391845703125e-01 -5.766372680664062500e-01 4.272845268249511719e+00 -1.752888441085815430e+00 2.021315097808837891e+00 1.296724557876586914e+00 -1.225809693336486816e+00 -4.110433578491210938e+00 -7.299737539142370224e-03 -5.350520014762878418e-01 -5.060767531394958496e-01 -2.802392721176147461e+00 3.012677669525146484e+00 5.829848647117614746e-01 -6.622647494077682495e-02 3.478372335433959961e+00 -1.294304966926574707e+00 4.134778499603271484e+00 3.185884475708007812e+00 -1.399551630020141602e+00 -2.309677362442016602e+00 2.637341260910034180e+00 1.068986132740974426e-01 2.419044017791748047e+00 -2.924208879470825195e+00 -3.979459762573242188e+00 -2.228140383958816528e-01 -2.181477069854736328e+00 -3.099893331527709961e-01 -1.557570338249206543e+00 1.510660290718078613e+00 -2.100185394287109375e+00 3.588474988937377930e+00 -1.703259944915771484e+00 1.846545457839965820e+00 -4.509128630161285400e-01 1.715992838144302368e-01 -3.024748712778091431e-02 -3.259963989257812500e+00
-5.079490542411804199e-01 -2.528516054153442383e+00 -1.285563945770263672e+00 -1.867578387260437012e+00 -1.681768894195556641e+00 3.555110692977905273e+00 3.612241983413696289e+00 -3.869610786437988281e+00 -2.912793874740600586e+00 2.300108522176742554e-01 -2.548182487487792969e+00 -7.496646046638488770e-01 -3.398438930511474609e+00 -1.070900782942771912e-01 3.708963155746459961e+00 3.997152447700500488e-01 -2.383092164993286133e+00 -2.987307310104370117e+00 -3.708693981170654297e+00 -1.704623103141784668e+00 2.712973594665527344e+00 2.786843061447143555e+00 -3.343634605407714844e+00 -1.343472361564636230e+00 -2.002290964126586914e+00 2.900961935520172119e-01 1.662263393402099609e+00 1.197610124945640564e-01 1.732332706451416016e+00 -2.133588552474975586e+00 -5.180671215057373047e-01 3.686547517776489258e+00 -2.886373996734619141e-01 -1.117653369903564453e+00 -6.776973605155944824e-01 -1.658701896667480469e+00 3.671045064926147461e+00 -3.467720508575439453e+00 -2.470885515213012695e+00
-2.325634241104125977e+00 -3.974637985229492188e+00 -5.375947952270507812e-01 2.208150386810302734e+00 -2.876678228378295898e+00 -3.126527965068817139e-01 -2.063509225845336914e-01 -6.885497570037841797e-01 8.845609426498413086e-01 2.892575263977050781e+00 3.090255975723266602e+00 9.055738449096679688e-01 4.445227622985839844e+00 -3.029445886611938477e+00 1.741676092147827148e+00 -1.410928010940551758e+00 -8.861001133918762207e-01 -5.549677014350891113e-01 6.983751803636550903e-02 -4.131368398666381836e-01 -5.334512591361999512e-01 4.541856288909912109e+00 7.022837996482849121e-01 2.583152770996093750e+00 2.332687854766845703e+00 -4.797827303409576416e-01 -2.437135457992553711e+00 -7.487109899520874023e-01 -2.457207888364791870e-01 -3.719769716262817383e+00 1.434761881828308105e+00 2.843162715435028076e-01 4.159207642078399658e-02 2.632442474365234375e+00 -3.675115346908569336e+00 -1.654221653938293457e+00 2.095726490020751953e+00 4.595883786678314209e-01 -3.149715662002563477e+00
3.020950317382812500e+00 1.643900752067565918e+00 9.020317792892456055e-01 -4.052543938159942627e-01 3.022659122943878174e-01 1.207546830177307129e+00 2.356749057769775391e+00 -1.098330855369567871e+00 1.381867647171020508e+00 2.762414216995239258e+00 -4.061904907226562500e+00 2.524160623550415039e+00 -3.418770551681518555e+00 3.292777299880981445e+00 2.968367338180541992e+00 1.628914356231689453e+00 -7.199800014495849609e-01 2.005583286285400391e+00 -1.651125073432922363e+00 5.731096863746643066e-01 -1.304666638374328613e+00 -3.016535282135009766e+00 -1.304184913635253906e+00 3.061206579208374023e+00 -2.420312166213989258e+00 1.274073403328657150e-02 2.370615117251873016e-02 4.494724571704864502e-01 9.339635968208312988e-01 5.606151819229125977e-01 -8.027453720569610596e-02 -5.050376415252685547e+00 -2.873391151428222656e+00 3.493826150894165039e+00 8.281772732734680176e-01 -1.655130386352539062e-01 2.748525142669677734e+00 -3.233825206756591797e+00 7.760547995567321777e-01
-3.742200374603271484e+00 3.455217182636260986e-01 -9.125844836235046387e-01 -1.171632885932922363e+00 4.499968051910400391e+00 3.203090280294418335e-02 1.076197624206542969e+00 6.561362147331237793e-01 2.980689331889152527e-02 -2.458340883255004883e+00 -3.706876039505004883e+00 -1.164838671684265137e+00 -5.008253455162048340e-01 7.711856961250305176e-01 -2.729997873306274414e+00 -3.494827747344970703e+00 4.468462988734245300e-02 -3.284327268600463867e+00 -6.580301523208618164e-01 -8.464475274085998535e-01 5.069044113159179688e+00 -5.247265100479125977e-02 -1.190614581108093262e+00 3.208696126937866211e+00 -3.004172801971435547e+00 1.887924909591674805e+00 3.457405567169189453e-01 -1.568936586380004883e+00 -1.083098053932189941e+00 1.641809463500976562e+00 1.534773856401443481e-01 2.163551330566406250e+00 2.300989866256713867e+00 -8.231088519096374512e-02 -1.095430254936218262e+00 -2.384270578622817993e-01 -2.091628789901733398e+00 2.609140872955322266e+00 -6.439063549041748047e-01
2.088430404663085938e+00 5.445020198822021484e-01 3.633861303329467773e+00 -2.097151041030883789e+00 1.725280404090881348e+00 -3.289520502090454102e+00 -2.488780260086059570e+00 2.614952921867370605e-01 -1.361136317253112793e+00 2.275525331497192383e+00 -1.365569949150085449e+00 2.251893043518066406e+00 -5.413753390312194824e-01 -1.024955272674560547e+00 3.618673563003540039e+00 5.260308384895324707e-01 -8.785464614629745483e-02 1.051000714302062988e+00 -1.212533593177795410e+00 3.006690025329589844e+00 4.961606487631797791e-02 8.780413866043090820e-02 7.162262797355651855e-01 1.243515849113464355e+00 -1.478279709815979004e+00 -1.945843577384948730e+00 -5.592890381813049316e-01 2.634303092956542969e+00 4.321522116661071777e-01 3.923324108123779297e+00 -3.511086463928222656e+00 3.411237895488739014e-01 -2.841671183705329895e-02 -1.872180581092834473e+00 -2.590738058090209961e+00 -1.003460049629211426e+00 -3.043178617954254150e-01 5.209538459777832031e+00 -3.656657934188842773e+00
