-7.990809530019760132e-02 -9.384762048721313477e-01 6.326543092727661133e-01 -1.947859525680541992e+00 1.704356819391250610e-01 -1.994231492280960083e-01 -2.878244400024414062e+00 8.296639323234558105e-01 -2.031583786010742188e+00 4.093573689460754395e-01 4.274927824735641479e-02 1.480764031410217285e+00 -1.481512665748596191e+00 2.724261283874511719e-01 -2.856955528259277344e-01 -3.502232432365417480e-01 -3.755970239639282227e+00 -9.463492035865783691e-01 -7.629344463348388672e-01 -1.181346297264099121e+00 -4.410162866115570068e-01 9.500814676284790039e-01 6.312240362167358398e-01 -1.150632202625274658e-01 -1.558820009231567383e+00 2.765671014785766602e+00 -6.999340653419494629e-01 -6.031802296638488770e-01 5.641700625419616699e-01 -1.471956372261047363e-01 7.227122783660888672e-01 -4.436176121234893799e-01 -1.666597723960876465e+00 -9.420837759971618652e-01 -1.212884426116943359e+00 -3.044692993164062500e+00 2.202161073684692383e+00 -1.277176022529602051e+00 1.493706256151199341e-01 2.097207784652709961e+00 -8.044960498809814453e-01 -1.211843967437744141e+00 1.024896651506423950e-01 1.594764232635498047e+00 6.713726520538330078e-01 -1.970670185983181000e-03 -8.528989553451538086e-01 -1.006152629852294922e+00 3.974788784980773926e-01 -8.724402189254760742e-01 -8.010100722312927246e-01 -8.280433416366577148e-01 -2.237036705017089844e+00 -2.750705003738403320e+00 -2.025493621826171875e+00 -5.385422706604003906e-01 -1.568778395652770996e+00 5.296797752380371094e-01 -1.940590858459472656e+00 9.563229084014892578e-01 -4.437322914600372314e-02 2.794023752212524414e+00 3.378891572356224060e-02 -9.737516939640045166e-02 6.887786984443664551e-01 -6.187205314636230469e-01 5.033662915229797363e-02 -1.545825362205505371e+00 -9.363157749176025391e-01 2.494989633560180664e-01 -1.902073919773101807e-01 3.145186975598335266e-02 -1.920619755983352661e-01 1.978417038917541504e+00 7.800956368446350098e-01 1.863557934761047363e+00 1.000123620033264160e+00 -8.388904929161071777e-01 5.824390053749084473e-01 9.749432802200317383e-01 1.107221245765686035e+00 -1.230778813362121582e+00 -2.700444936752319336e+00 9.688275456428527832e-01 -6.740385293960571289e-01 -5.217119306325912476e-02 5.795441269874572754e-01 -2.323474921286106110e-02 5.685051679611206055e-01 1.393322646617889404e-01 1.300886273384094238e+00 9.611887931823730469e-01 -1.628819108009338379e-01 -4.980819672346115112e-02 -5.774267315864562988e-01 1.948526859283447266e+00 1.616835713386535645e+00 1.626199603080749512e+00 2.386273384094238281e+00 -4.806780815124511719e-01 1.095549464225769043e+00 -1.776965737342834473e+00 1.210779070854187012e+00 1.175073623657226562e+00 1.162757515907287598e+00 -4.184361934661865234e+00 -7.417411804199218750e-01 -8.369968533515930176e-01 -3.021974563598632812e-01 -2.788410663604736328e+00 5.502673983573913574e-01 -2.229969054460525513e-01 7.237311005592346191e-01 1.846797913312911987e-01 1.142979145050048828e+00 -4.680295288562774658e-01 1.403569243848323822e-02 2.546724319458007812e+00 9.867972731590270996e-01 1.572828888893127441e+00 -4.444378912448883057e-01 -1.472149133682250977e+00 1.195586681365966797e+00 -1.778733491897583008e+00 -9.373579025268554688e-01 7.884448170661926270e-01 -1.609516859054565430e+00 3.047108650207519531e-01 -1.270020604133605957e-01 -1.108656048774719238e+00 3.585354983806610107e-01 2.017912864685058594e+00 -6.285524368286132812e-01 3.996365666389465332e-01 7.211545109748840332e-01 1.717632710933685303e-01 1.092927932739257812e+00 1.047019839286804199e+00 1.635369300842285156e+00 1.647773265838623047e+00 9.226524233818054199e-01 6.807225227355957031e+00 1.057184815406799316e+00 -2.150042533874511719e+00 5.670317411422729492e-01 -7.164159417152404785e-02 -2.284450531005859375e+00 -2.578821480274200439e-01 -2.157794952392578125e+00 -1.505289554595947266e+00 1.491703391075134277e+00 -1.248072266578674316e+00 1.159006714820861816e+00 1.574150681495666504e+00 7.048131227493286133e-01 1.491592049598693848e+00 -5.449928641319274902e-01 -3.034245669841766357e-01 -5.402963757514953613e-01 -1.178339362144470215e+00 -8.846115469932556152e-01 -2.407121211290359497e-01 1.699790120124816895e+00 -2.067096382379531860e-01 -6.069747805595397949e-01 2.119865179061889648e+00 -2.004290670156478882e-01 -1.259560465812683105e+00 -1.243179082870483398e+00 -1.207688570022583008e+00 2.037165880203247070e+00 1.000859737396240234e+00 3.728633165359497070e+00 -1.091900706291198730e+00 -2.426441162824630737e-01 -1.512021780014038086e+00 8.855470418930053711e-01 2.485330402851104736e-01 -1.980955600738525391e+00 -2.458456903696060181e-01 1.305897951126098633e+00 2.380918741226196289e+00 -1.887518525123596191e+00 1.090069770812988281e+00 1.030869603157043457e+00 1.823971867561340332e-01 2.162147521972656250e+00 4.240828037261962891e+00 -2.037505149841308594e+00 -3.762067854404449463e-01 -7.138962149620056152e-01 4.710044264793395996e-01 -1.342539310455322266e+00 9.801936745643615723e-01 -8.572074770927429199e-01 -1.261737465858459473e+00 1.791214108467102051e+00 7.339360713958740234e-01 6.312831491231918335e-02 -8.400461673736572266e-01
-2.181876420974731445e+00 -9.998710751533508301e-01 1.003005385398864746e+00 2.169044494628906250e+00 -9.136673212051391602e-01 -2.064040184020996094e+00 -1.131915569305419922e+00 -1.810561537742614746e+00 -6.221551299095153809e-01 8.970261216163635254e-01 -1.124931931495666504e+00 2.277072668075561523e+00 3.106281995773315430e+00 9.291861951351165771e-02 -6.597052216529846191e-01 1.270819306373596191e+00 1.389855891466140747e-01 2.051893949508666992e+00 -8.884325623512268066e-01 1.938202857971191406e+00 -6.195641160011291504e-01 4.318442940711975098e-01 -1.165151596069335938e+00 1.112393736839294434e+00 -7.949563860893249512e-01 -4.309075772762298584e-01 -5.307615280151367188e+00 1.941610097885131836e+00 -1.651425957679748535e-01 -1.770393133163452148e+00 -2.542214870452880859e+00 -1.970163702964782715e+00 -3.195911645889282227e+00 -3.329636752605438232e-01 -3.599556446075439453e+00 -5.746754407882690430e-01 -4.216299057006835938e-01 -6.001409292221069336e-01 -1.348244667053222656e+00 -3.293061852455139160e-01 -1.383958607912063599e-01 -4.153591990470886230e-01 2.226882457733154297e+00 -8.929036557674407959e-02 2.195568561553955078e+00 8.910449743270874023e-01 1.555832028388977051e+00 -1.065400719642639160e+00 -1.070674777030944824e+00 1.161459326744079590e+00 -2.555119037628173828e+00 -4.166220128536224365e-02 5.240254402160644531e+00 4.770642220973968506e-01 -2.621764838695526123e-01 -1.406324505805969238e+00 1.500991821289062500e+00 4.575080797076225281e-02 1.044332146644592285e+00 7.033817768096923828e-01 8.503626585006713867e-01 2.344153076410293579e-01 1.028280735015869141e+00 -6.084869503974914551e-01 6.243848204612731934e-01 -7.787808030843734741e-02 7.804679274559020996e-01 6.584904789924621582e-01 -2.546441256999969482e-01 2.433000564575195312e+00 -5.061839818954467773e-01 1.900069952011108398e+00 5.595956444740295410e-01 1.197340935468673706e-01 4.964507520198822021e-01 -2.695542275905609131e-01 -1.039509654045104980e+00 1.147021353244781494e-01 -1.892767786979675293e+00 7.350623607635498047e-01 1.230531811714172363e+00 3.181410789489746094e+00 -3.466442227363586426e-01 -2.719660103321075439e-01 -2.239342927932739258e+00 1.675247430801391602e+00 3.235007047653198242e+00 5.047291755676269531e+00 1.290509849786758423e-01 -5.119756460189819336e-01 -8.170730471611022949e-01 -9.541291594505310059e-01 -1.561307460069656372e-01 7.328070402145385742e-01 2.812343537807464600e-01 2.359164714813232422e+00 -6.926703453063964844e-01 2.386761426925659180e+00 1.027750894427299500e-01 -1.028345346450805664e+00 1.113600850105285645e+00 -1.995660781860351562e+00 3.005187511444091797e-01 -1.262421727180480957e+00 1.058362126350402832e-01 -1.136887550354003906e+00 -3.370227515697479248e-01 -2.169455528259277344e+00 -1.268515229225158691e+00 -9.991722106933593750e-01 5.867014527320861816e-01 1.505256891250610352e-01 -1.504274964332580566e+00 -9.671702980995178223e-01 -1.481169581413269043e+00 -2.708612382411956787e-01 -1.296798139810562134e-01 -8.965871930122375488e-01 5.185357928276062012e-01 -2.074392288923263550e-01 -5.925462841987609863e-01 6.714624166488647461e-01 2.646613121032714844e+00 1.578007817268371582e+00 1.675428271293640137e+00 -1.029480338096618652e+00 -2.176511526107788086e+00 3.054806888103485107e-01 2.079478740692138672e+00 1.649630427360534668e+00 3.393538475036621094e+00 -1.781619787216186523e+00 2.804761171340942383e+00 2.353215217590332031e-01 7.341280579566955566e-01 -2.055211782455444336e+00 4.965677559375762939e-01 9.503987431526184082e-01 -6.250534653663635254e-01 1.491635203361511230e+00 -1.312174350023269653e-01 -1.205173656344413757e-01 -8.550620079040527344e-01 -1.581117272377014160e+00 2.264486789703369141e+00 -2.334205150604248047e+00 -2.693467438220977783e-01 3.704712390899658203e-01 1.326908349990844727e+00 -3.182282924652099609e+00 7.854084372520446777e-01 5.715281367301940918e-01 -1.643766522407531738e+00 2.574743330478668213e-01 9.188283681869506836e-01 1.659247159957885742e+00 -1.501411676406860352e+00 2.452712655067443848e-01 -7.910524606704711914e-01 -9.320250153541564941e-02 -2.691176235675811768e-01 -1.138228058815002441e+00 -1.266628265380859375e+00 1.902420222759246826e-01 -1.345143675804138184e+00 -1.283019781112670898e+00 2.154051303863525391e+00 6.306547522544860840e-01 3.819047808647155762e-01 -1.086477756500244141e+00 9.794107675552368164e-01 -7.718718647956848145e-01 -1.798584103584289551e+00 -2.081998586654663086e+00 6.774744987487792969e-01 -1.846817374229431152e+00 -2.090262025594711304e-01 2.360024929046630859e+00 8.678230643272399902e-01 -1.238425016403198242e+00 -1.480441540479660034e-01 1.618442296981811523e+00 3.085002660751342773e+00 -1.202596783638000488e+00 -6.465035676956176758e-01 5.116224288940429688e-01 -2.754497289657592773e+00 -9.761045455932617188e+00 -2.984301000833511353e-02 1.117359757423400879e+00 6.823095083236694336e-01 1.168449163436889648e+00 1.987177431583404541e-01 4.619311690330505371e-01 8.102394342422485352e-01 1.296265363693237305e+00 7.909904718399047852e-01 -4.522329270839691162e-01 -4.038666561245918274e-02 -9.486973285675048828e-01
