4.906985163688659668e-02
4.583462327718734741e-02
8.754137158393859863e-02
7.642046362161636353e-02
5.294410884380340576e-02
3.992016240954399109e-02
-3.955612331628799438e-02
-1.503922510892152786e-02
-3.102592378854751587e-02
2.872689254581928253e-02
-7.670587301254272461e-02
-3.015778586268424988e-02
-3.558824956417083740e-02
-3.979992493987083435e-02
4.026243463158607483e-02
-5.388610064983367920e-02
5.223630741238594055e-02
-2.718772739171981812e-02
-1.558056846261024475e-02
4.401455074548721313e-02
7.904271595180034637e-03
-5.607119947671890259e-02
-6.516198068857192993e-02
2.598692476749420166e-02
3.020521625876426697e-02
-2.256330475211143494e-02
-1.727970130741596222e-02
-3.344602882862091064e-02
-6.837831437587738037e-02
1.116212271153926849e-02
3.549971058964729309e-02
-1.192100252956151962e-02
1.178093533962965012e-02
-3.184276446700096130e-02
-1.571877673268318176e-02
9.245645254850387573e-03
5.188556015491485596e-02
5.352599080651998520e-03
1.212077131640398875e-05
-6.941535044461488724e-03
-3.978377580642700195e-02
1.572815515100955963e-02
2.756576612591743469e-02
1.603666879236698151e-02
-2.425498515367507935e-02
5.077106505632400513e-02
-1.363662723451852798e-02
2.709707058966159821e-02
-2.251264080405235291e-02
-9.471117518842220306e-03
6.143256556242704391e-03
5.729686468839645386e-02
-1.508294139057397842e-03
-4.125853534787893295e-03
-2.378249540925025940e-02
-2.072404325008392334e-02
4.368677362799644470e-02
-2.846974693238735199e-02
-3.505559265613555908e-02
5.072526261210441589e-02
-3.389510558918118477e-03
5.873583257198333740e-02
5.843269452452659607e-02
-8.145578205585479736e-03
-3.551324456930160522e-02
3.372944146394729614e-02
4.234594479203224182e-02
-4.305305331945419312e-02
9.773653931915760040e-03
-2.206120453774929047e-02
7.258614897727966309e-02
-7.672265917062759399e-02
1.086990721523761749e-02
7.101905066519975662e-04
3.501385077834129333e-02
5.534878373146057129e-02
1.844332367181777954e-02
7.099409401416778564e-02
4.280617833137512207e-02
-4.790337756276130676e-03
-9.409882128238677979e-03
3.944329172372817993e-02
1.825504750013351440e-02
2.850793860852718353e-02
-2.970701828598976135e-02
-6.242630071938037872e-03
2.219953760504722595e-02
2.638798579573631287e-02
2.682446129620075226e-02
-4.648067429661750793e-02
-2.775891870260238647e-02
5.709108710289001465e-02
3.920301422476768494e-02
4.022622853517532349e-02
-7.798600941896438599e-03
-2.917513065040111542e-02
-6.151761859655380249e-03
-2.642183378338813782e-02
1.157066319137811661e-02
-8.148122578859329224e-03
2.187860198318958282e-02
-8.355633914470672607e-02
-7.976724952459335327e-02
1.321984222158789635e-03
4.599883779883384705e-02
1.778815314173698425e-02
6.615297868847846985e-03
1.366314757615327835e-02
4.007774591445922852e-02
-2.993883937597274780e-02
-3.930420801043510437e-02
-4.330746456980705261e-02
2.160432189702987671e-02
-2.720883488655090332e-02
5.219749733805656433e-02
-1.896659261547029018e-03
-1.580351963639259338e-02
1.174281444400548935e-02
1.245871372520923615e-02
-9.184196591377258301e-03
-2.388337068259716034e-02
-5.308757722377777100e-02
6.598065048456192017e-02
6.035153940320014954e-02
-5.584064405411481857e-03
4.546424001455307007e-02
7.614474743604660034e-02
-3.240875666961073875e-03
-1.738360710442066193e-02
2.910217083990573883e-02
-9.388748556375503540e-03
-3.458569571375846863e-02
9.464005380868911743e-02
-1.725604757666587830e-02
-3.546790406107902527e-02
4.217005521059036255e-02
-2.926827582996338606e-04
2.777716703712940216e-02
-4.426739178597927094e-03
-1.458632666617631912e-02
-9.448330849409103394e-03
3.158351406455039978e-02
-3.069819137454032898e-02
5.840353667736053467e-02
2.749817818403244019e-02
2.540973946452140808e-02
-1.127389725297689438e-02
8.930779062211513519e-03
-1.758848689496517181e-02
-4.062148742377758026e-03
5.948355421423912048e-02
3.839217126369476318e-02
6.020940840244293213e-02
-2.160665392875671387e-02
5.824221298098564148e-02
3.107825666666030884e-02
1.203045947477221489e-03
-2.620767243206501007e-02
7.187729328870773315e-02
1.407539937645196915e-03
2.507039159536361694e-02
-1.933783851563930511e-02
4.917075484991073608e-02
2.172400802373886108e-02
-2.041079662740230560e-02
1.201569288969039917e-02
-2.291351184248924255e-02
4.014150053262710571e-02
9.963452816009521484e-02
-2.217407897114753723e-02
-2.527837082743644714e-02
-9.356329217553138733e-03
-3.764214366674423218e-02
-4.436898976564407349e-02
9.782087802886962891e-02
-9.408546611666679382e-03
1.046057604253292084e-02
1.159622520208358765e-02
-3.655325993895530701e-02
-3.396634384989738464e-02
4.556092619895935059e-02
-6.883533298969268799e-02
-2.866024896502494812e-02
2.911997027695178986e-02
-3.094261046499013901e-04
4.727833345532417297e-02
1.294045057147741318e-02
3.692665777634829283e-04
-2.247846312820911407e-02
-2.793522924184799194e-02
2.059164457023143768e-02
3.512052819132804871e-03
4.278249293565750122e-02
7.564662396907806396e-02
4.854141920804977417e-02
-7.500895857810974121e-02
-4.772534593939781189e-02
-3.814185038208961487e-02
1.669995486736297607e-02
-4.509217664599418640e-02
5.903439968824386597e-02
-4.929937887936830521e-03
5.702425912022590637e-02
-1.429054886102676392e-02
-5.944877490401268005e-02
-2.439887076616287231e-02
1.554109342396259308e-02
3.555388748645782471e-02
-7.517296820878982544e-02
-1.959813199937343597e-02
1.509467605501413345e-02
9.656380861997604370e-03
-2.948007732629776001e-02
3.936491161584854126e-02
-7.877715397626161575e-04
4.709277302026748657e-02
-1.588666997849941254e-02
5.523963365703821182e-03
7.763388752937316895e-02
1.884221099317073822e-02
-4.651772603392601013e-02
5.741065740585327148e-02
-1.613732986152172089e-02
4.665721952915191650e-02
-3.634637221693992615e-02
6.890347227454185486e-03
3.457904607057571411e-02
7.966973632574081421e-02
1.397640909999608994e-02
-7.965055294334888458e-03
6.025688722729682922e-02
4.452433437108993530e-02
-8.103908598423004150e-02
-2.885648049414157867e-02
2.035659179091453552e-02
1.339639071375131607e-02
-7.411240786314010620e-02
1.014095731079578400e-02
-3.994167316704988480e-03
3.639741986989974976e-02
-3.259101882576942444e-02
-1.607227697968482971e-02
-1.894747279584407806e-02
-3.912270814180374146e-02
7.384362071752548218e-02
1.794768124818801880e-02
6.164135411381721497e-02
-4.928440228104591370e-02
-7.743529975414276123e-02
3.283728845417499542e-03
-2.703227102756500244e-02
-1.680520363152027130e-02
-3.480575606226921082e-02
-2.903332002460956573e-03
4.176286607980728149e-02
-4.520670510828495026e-03
2.151569165289402008e-02
6.104298308491706848e-02
1.422209106385707855e-02
2.244601398706436157e-02
2.052159979939460754e-02
-6.697137840092182159e-03
5.714316852390766144e-03
-4.257988650351762772e-03
-4.346831142902374268e-02
-2.052435837686061859e-02
2.977968193590641022e-03
5.631883628666400909e-03
2.831799723207950592e-02
-1.876658573746681213e-02
-1.380237843841314316e-02
6.356869637966156006e-02
6.719080358743667603e-02
-4.147627949714660645e-02
3.550414368510246277e-02
-2.960242517292499542e-02
1.744821667671203613e-02
-1.219592150300741196e-02
-6.887290161103010178e-03
3.223545476794242859e-02
-8.551354520022869110e-03
-3.124600835144519806e-02
-5.524758622050285339e-02
4.764532297849655151e-02
-2.344445139169692993e-02
5.868520960211753845e-02
4.501593858003616333e-02
-1.672790572047233582e-02
1.988500170409679413e-02
1.889637485146522522e-02
3.301239805296063423e-03
-1.443616300821304321e-02
3.289069235324859619e-02
-2.650895342230796814e-02
3.187784180045127869e-02
-1.487844064831733704e-02
1.263282354921102524e-02
-1.480819750577211380e-02
2.377315238118171692e-02
5.618662759661674500e-02
