-1.055165672302246094e+01
-9.198418617248535156e+00
-2.828315734863281250e+00
8.644304275512695312e+00
-1.357426357269287109e+01
-1.392768859863281250e+01
-1.540525722503662109e+01
-1.065176677703857422e+01
6.001386046409606934e-01
-1.497864055633544922e+01
3.790164232254028320e+00
-1.590612316131591797e+01
-2.569373607635498047e+00
-3.612668752670288086e+00
-6.061297416687011719e+00
2.005147457122802734e+00
-2.619551897048950195e+00
-6.719958305358886719e+00
-1.128816223144531250e+01
-3.025034666061401367e+00
-5.025973796844482422e+00
-7.271383404731750488e-01
4.258524894714355469e+00
-1.428246498107910156e+01
-3.774457216262817383e+00
9.184278488159179688e+00
-5.446228504180908203e+00
7.236779928207397461e-01
6.450115680694580078e+00
-2.426277399063110352e+00
-7.617285251617431641e+00
-2.024239063262939453e+00
-3.048234701156616211e+00
-9.739326477050781250e+00
-1.423759579658508301e+00
-2.934356927871704102e+00
-1.046750545501708984e+01
-1.413489627838134766e+01
-1.595301628112792969e+00
-6.870040893554687500e+00
-1.063628482818603516e+01
3.194126129150390625e+00
-6.076305389404296875e+00
-7.463341712951660156e+00
-5.893896102905273438e+00
-3.435392379760742188e+00
-3.350924968719482422e+00
9.809402823448181152e-01
-4.901049137115478516e+00
-1.930557847023010254e+00
-1.206969833374023438e+01
5.669377803802490234e+00
-1.675965881347656250e+01
-2.318982034921646118e-01
-4.775483608245849609e+00
-4.396660804748535156e+00
-5.763450622558593750e+00
-2.916522741317749023e+00
-2.223881483078002930e+00
-8.534217834472656250e+00
-6.318582534790039062e+00
-1.269142627716064453e+01
-8.275609970092773438e+00
-3.821118116378784180e+00
-1.180318737030029297e+01
-8.452366828918457031e+00
-9.117255210876464844e+00
-8.040071725845336914e-01
-1.602325588464736938e-02
4.200674057006835938e+00
-5.976186752319335938e+00
-7.588244438171386719e+00
-1.484818267822265625e+01
-1.188902950286865234e+01
-1.601136398315429688e+01
-5.681223869323730469e+00
-7.252400875091552734e+00
3.178931474685668945e+00
-9.337126731872558594e+00
-6.816761970520019531e+00
-1.599962115287780762e+00
-1.816683578491210938e+01
-1.445506191253662109e+01
3.256375312805175781e+00
-3.675720691680908203e+00
3.952137708663940430e+00
3.107752084732055664e+00
-4.806458473205566406e+00
-2.917785346508026123e-01
-7.550347805023193359e+00
-1.011783027648925781e+01
-6.252818107604980469e+00
-1.190926361083984375e+01
-9.533788681030273438e+00
-5.846221923828125000e+00
8.465135574340820312e+00
-4.175096035003662109e+00
-1.155889701843261719e+01
-1.575485944747924805e+00
-3.954467773437500000e+00
7.371434211730957031e+00
-2.949341058731079102e+00
2.980066061019897461e+00
-6.869974613189697266e+00
-9.851586818695068359e-01
3.220536559820175171e-02
-1.048382377624511719e+01
-7.170251846313476562e+00
4.858950614929199219e+00
-8.284975290298461914e-01
-1.675919055938720703e+00
-1.353382110595703125e+00
3.384031295776367188e+00
1.706259250640869141e+00
-2.043660879135131836e+00
-1.547906303405761719e+01
4.866909682750701904e-01
-2.169047737121582031e+01
-5.609658956527709961e-01
-6.851905345916748047e+00
-1.371268939971923828e+01
-8.089587688446044922e-01
-1.683586311340332031e+01
-1.185855197906494141e+01
-9.831813812255859375e+00
4.485395431518554688e+00
-7.095705986022949219e+00
1.900065541267395020e+00
-1.071697115898132324e+00
-3.699136257171630859e+00
-4.865741252899169922e+00
-5.899091720581054688e+00
-2.432644605636596680e+00
-8.735480308532714844e+00
1.032059669494628906e+01
-6.529023170471191406e+00
5.740250110626220703e+00
-9.307910919189453125e+00
-3.513745307922363281e+00
-7.870339393615722656e+00
-5.546708106994628906e+00
-1.765050125122070312e+01
6.093110084533691406e+00
5.749955177307128906e+00
-3.348437786102294922e+00
-4.041863441467285156e+00
-1.576675033569335938e+01
8.101704120635986328e-01
2.064649164676666260e-01
2.469303607940673828e+00
3.451717495918273926e-01
-3.351743936538696289e+00
-8.799497604370117188e+00
-4.269708156585693359e+00
-9.530305862426757812e+00
-3.686162233352661133e+00
1.729529738426208496e+00
-4.000967025756835938e+00
-4.660823822021484375e+00
-4.577578067779541016e+00
-9.927103996276855469e+00
-5.708902359008789062e+00
-6.144176483154296875e+00
-7.342281818389892578e+00
-9.825622558593750000e+00
-3.300859928131103516e+00
-6.549242138862609863e-02
-3.082212448120117188e+00
-8.794767379760742188e+00
-5.409187793731689453e+00
-1.748287677764892578e+00
-1.118226909637451172e+01
-3.613557577133178711e+00
-1.088943672180175781e+01
-5.243954181671142578e+00
-1.829994678497314453e+00
-7.264721870422363281e+00
-2.166115760803222656e+00
-1.373600769042968750e+01
-3.229042291641235352e+00
6.081679463386535645e-01
-9.413993835449218750e+00
-5.701720237731933594e+00
-1.535520172119140625e+01
-6.275554656982421875e+00
-1.381939506530761719e+01
2.418079614639282227e+00
-4.776152610778808594e+00
8.188283443450927734e-01
-8.594019889831542969e+00
5.397713661193847656e+00
-1.719203758239746094e+01
-7.111459732055664062e+00
5.221997737884521484e+00
-5.735521912574768066e-01
-1.801774787902832031e+01
-9.382840156555175781e+00
-5.839064717292785645e-01
5.298204421997070312e-01
-3.296367645263671875e+00
-2.018182516098022461e+00
5.302361965179443359e+00
-8.180040359497070312e+00
-9.571779251098632812e+00
-5.130383968353271484e+00
-3.158441781997680664e+00
3.047785520553588867e+00
1.144269347190856934e+00
-2.999765634536743164e+00
-9.592134475708007812e+00
-2.484177350997924805e+00
-5.221899986267089844e+00
-1.271805167198181152e+00
-1.363131999969482422e+01
-7.361061573028564453e-01
-1.756566047668457031e+01
2.652308046817779541e-01
-3.084570169448852539e+00
-7.012448787689208984e+00
-2.050655937194824219e+01
-9.394339323043823242e-01
8.496850013732910156e+00
7.710493087768554688e+00
-1.663466453552246094e+01
-3.936197280883789062e+00
-4.561716556549072266e+00
-6.604700565338134766e+00
-4.351800918579101562e+00
-1.249624490737915039e+00
-2.928060531616210938e+00
-3.956989765167236328e+00
-9.722606658935546875e+00
-2.896314382553100586e+00
1.611020863056182861e-01
-1.388927364349365234e+01
-3.509423255920410156e+00
-1.719994425773620605e+00
-4.921625137329101562e+00
-9.728220939636230469e+00
-1.297831630706787109e+01
-1.085410976409912109e+01
-1.263510036468505859e+01
-4.002810478210449219e+00
4.023970365524291992e-01
-7.561905860900878906e+00
1.248377799987792969e+00
-2.563412427902221680e+00
-1.001007175445556641e+01
4.090056419372558594e+00
-8.192681312561035156e+00
-4.643641471862792969e+00
4.086094856262207031e+00
-1.261651325225830078e+01
-4.436756610870361328e+00
-3.626807451248168945e+00
-2.767691135406494141e+00
6.074692249298095703e+00
-1.024495697021484375e+01
-6.143537044525146484e+00
-1.320344066619873047e+01
1.606171131134033203e+00
-1.088990211486816406e+01
-1.742860555648803711e+00
6.688676357269287109e+00
-2.639282608032226562e+01
-9.122582674026489258e-01
2.294911861419677734e+00
3.167541265487670898e+00
-8.908175468444824219e+00
-2.532134771347045898e+00
-6.087182998657226562e+00
-4.070683419704437256e-01
-7.784351825714111328e+00
1.417457699775695801e+00
2.898023366928100586e+00
4.121989727020263672e+00
1.363737940788269043e+00
-5.520359992980957031e+00
-8.796092987060546875e+00
-1.968176007270812988e+00
-1.412614440917968750e+01
-2.048594713211059570e+00
7.454068064689636230e-01
-6.905386924743652344e+00
9.059255599975585938e+00
-1.029392433166503906e+01
-6.552437782287597656e+00
-6.669403076171875000e+00
-1.200415325164794922e+01
4.426031112670898438e+00
-4.540008544921875000e+00
-1.549548625946044922e+01
-4.253543376922607422e+00
-6.315267562866210938e+00
7.505381584167480469e+00
-4.989990234375000000e+00
-1.323337936401367188e+01
-1.105370521545410156e+01
5.913693428039550781e+00
-2.202265501022338867e+00
