-1.007748469710350037e-01
1.661686785519123077e-02
1.516003720462322235e-02
4.575041308999061584e-02
-3.349409252405166626e-02
1.891197450459003448e-02
4.367205500602722168e-02
-6.596647948026657104e-02
2.880604937672615051e-02
-4.045639187097549438e-03
6.960672140121459961e-02
-1.624033972620964050e-02
3.459104150533676147e-02
-2.699661254882812500e-02
1.281279325485229492e-01
2.772586792707443237e-02
4.878563340753316879e-03
-3.818780183792114258e-02
-7.657127827405929565e-02
2.787528187036514282e-02
-3.909971565008163452e-02
-6.754580885171890259e-02
1.209037937223911285e-02
7.498273998498916626e-02
-4.420337080955505371e-02
-3.416396677494049072e-02
3.771798312664031982e-02
6.327790766954421997e-02
-1.489911507815122604e-02
1.150572448968887329e-01
-4.935608431696891785e-02
-4.814649745821952820e-02
7.143833488225936890e-02
-5.110167711973190308e-02
1.578770764172077179e-02
1.837673969566822052e-02
-5.385566875338554382e-02
2.478763274848461151e-02
-1.267162803560495377e-02
-2.272653020918369293e-02
-8.122674375772476196e-02
4.710827395319938660e-02
-4.913913458585739136e-02
2.833729237318038940e-02
8.308956772089004517e-02
5.219426937401294708e-03
3.604705631732940674e-02
-1.606378890573978424e-02
4.808212444186210632e-02
2.246649563312530518e-02
1.057837158441543579e-02
-4.196066409349441528e-02
1.346009504050016403e-02
-1.159901823848485947e-02
2.921736799180507660e-02
-5.984644219279289246e-02
-3.859467059373855591e-02
1.019658148288726807e-02
2.793337404727935791e-02
3.473309054970741272e-02
7.229283452033996582e-02
4.834121838212013245e-02
2.476842515170574188e-02
2.427238039672374725e-02
2.734894631430506706e-03
1.313124503940343857e-02
4.793277382850646973e-02
8.963400498032569885e-03
9.792058914899826050e-02
2.737370692193508148e-02
-2.297035790979862213e-02
-4.359902441501617432e-02
-2.375003136694431305e-02
-2.143598347902297974e-02
-7.443593349307775497e-03
-9.423872455954551697e-03
-7.272312417626380920e-03
-2.502643037587404251e-03
1.268231868743896484e-02
-2.319312840700149536e-02
1.390972267836332321e-02
-5.310203507542610168e-02
3.333777561783790588e-02
-1.560798962600529194e-03
5.300478637218475342e-02
-2.542531117796897888e-02
6.595154106616973877e-02
-1.324973702430725098e-01
-2.179932966828346252e-02
6.923294812440872192e-02
3.443432971835136414e-02
-1.273493021726608276e-01
-4.829024523496627808e-02
4.790270701050758362e-03
-4.762960597872734070e-03
-8.643229492008686066e-03
-4.079653695225715637e-02
5.116821848787367344e-04
-3.526426851749420166e-02
-1.127754617482423782e-02
-5.591965466737747192e-02
-1.587840169668197632e-02
3.286667168140411377e-03
-6.438285112380981445e-02
5.256763845682144165e-02
-2.206262759864330292e-02
-5.719064921140670776e-02
1.144926901906728745e-02
4.108597710728645325e-02
5.352063477039337158e-02
-3.975899145007133484e-02
-2.522306516766548157e-03
1.212360151112079620e-02
3.030537441372871399e-02
-6.142621859908103943e-02
-5.327434092760086060e-02
6.483791396021842957e-03
-8.743995800614356995e-03
-2.015055716037750244e-02
2.719404175877571106e-02
-3.463711217045783997e-02
3.534320741891860962e-02
2.970817126333713531e-02
5.063204094767570496e-02
3.291298821568489075e-02
3.227904066443443298e-02
-5.986836273223161697e-03
-3.661182150244712830e-02
3.383740037679672241e-02
-2.513477019965648651e-02
1.075365915894508362e-01
1.668812520802021027e-02
2.265792526304721832e-02
2.830400504171848297e-02
-5.277556180953979492e-02
6.613956298679113388e-03
-2.720054984092712402e-02
-6.001514941453933716e-02
-1.460191793739795685e-02
-5.898246541619300842e-02
-6.609891355037689209e-02
7.160858809947967529e-02
1.725122099742293358e-03
-3.274616226553916931e-02
-1.355720404535531998e-02
7.294736802577972412e-03
-5.778723862022161484e-03
-2.757580019533634186e-02
-2.745602093636989594e-02
2.670648880302906036e-02
-5.521884933114051819e-02
-1.378201320767402649e-02
-3.088652621954679489e-03
8.881236612796783447e-02
-3.576796129345893860e-02
-1.672631129622459412e-02
-2.893919311463832855e-02
-5.235891323536634445e-03
1.360390568152070045e-03
4.567187279462814331e-03
-3.577915206551551819e-02
-3.797498345375061035e-02
4.760333895683288574e-02
3.366681933403015137e-02
5.526029039174318314e-03
-9.146654047071933746e-04
3.958445042371749878e-02
2.828456927090883255e-04
5.772456899285316467e-02
2.290031872689723969e-02
-6.815757136791944504e-03
4.497645422816276550e-02
7.980170845985412598e-02
-2.736035501584410667e-03
4.597101360559463501e-02
-3.795108571648597717e-02
-1.328143291175365448e-02
-1.840093918144702911e-02
4.514626786112785339e-02
3.708833083510398865e-02
-4.545940086245536804e-02
1.839104481041431427e-02
-1.635558344423770905e-02
9.642105549573898315e-03
6.585276685655117035e-03
7.339373230934143066e-03
1.558902300894260406e-02
1.104061957448720932e-02
7.212828099727630615e-02
2.435766346752643585e-02
-8.222217112779617310e-02
4.625466652214527130e-03
-1.814645528793334961e-02
5.238223820924758911e-02
-2.645829319953918457e-02
-1.135137025266885757e-02
-9.961586445569992065e-02
6.522401422262191772e-02
-9.454936720430850983e-03
-5.623673088848590851e-03
-2.334790490567684174e-02
-1.077686063945293427e-02
6.375036202371120453e-03
-4.413486644625663757e-02
2.594586228951811790e-03
6.261929869651794434e-02
-1.286228299140930176e-01
1.234786119312047958e-03
-8.183456026017665863e-03
-7.897087489254772663e-04
-5.866929143667221069e-02
-3.283816576004028320e-02
4.503034800291061401e-02
-7.058882713317871094e-02
7.266674935817718506e-02
-1.726252399384975433e-02
-2.389395050704479218e-02
1.818970590829849243e-02
7.767886668443679810e-02
-1.067693810909986496e-02
6.463351100683212280e-02
9.010044857859611511e-03
1.288545690476894379e-02
2.126942947506904602e-02
7.452940940856933594e-02
