-4.936831295490264893e-01 6.398596763610839844e+00 1.827372670173645020e+00 -5.736663818359375000e+00 -1.547661781311035156e+00 -1.047385501861572266e+01 -1.341616749763488770e+00 -7.736319065093994141e+00 2.399359464645385742e+00 5.002074837684631348e-01 -7.907675579190254211e-03 -2.677301883697509766e+00 1.850769042968750000e+00 3.105189323425292969e+00 -3.010152816772460938e+00 -1.627304196357727051e+00 1.030008196830749512e+00 6.673780083656311035e-01 6.304178237915039062e+00 -1.722350716590881348e+00 -1.765743255615234375e+00 -3.019732713699340820e+00 1.460682511329650879e+00 -3.033177137374877930e+00 5.813087821006774902e-01 -5.908265590667724609e+00 7.861296534538269043e-01 -1.884935617446899414e+00 -5.832950115203857422e+00 5.939762592315673828e+00
-7.051295042037963867e-01 1.161534070968627930e+00 3.604521274566650391e+00 -2.308239459991455078e+00 -3.428093671798706055e+00 -2.006667852401733398e+00 1.576840043067932129e+00 -1.059106230735778809e+00 5.831015706062316895e-01 -8.151306152343750000e+00 3.495646715164184570e+00 -7.324544906616210938e+00 -2.688213109970092773e+00 -4.694715738296508789e-01 -6.940650463104248047e+00 2.313400745391845703e+00 2.202841341495513916e-01 4.994490623474121094e+00 4.781663417816162109e+00 -3.048803210258483887e-01 4.527515411376953125e+00 -3.928765356540679932e-01 -6.750757694244384766e+00 -7.669500827789306641e+00 5.745028972625732422e+00 -3.445986509323120117e+00 1.626657009124755859e+00 1.464369297027587891e+00 -4.821156501770019531e+00 -3.210602760314941406e+00
2.374884366989135742e+00 -2.067423015832901001e-01 5.704919815063476562e+00 -7.801684737205505371e-01 -3.940002992749214172e-02 2.324204444885253906e+00 -9.094765186309814453e-01 -1.178954029083251953e+01 -2.806467413902282715e-01 -1.241399884223937988e+00 -1.109434962272644043e+00 1.183558583259582520e+00 -7.880995273590087891e-01 4.852575778961181641e+00 -1.126665949821472168e+00 -7.945549488067626953e+00 5.444767475128173828e+00 -5.582003593444824219e+00 -1.628974080085754395e-01 1.758646726608276367e+00 -2.556651353836059570e+00 -6.530408382415771484e+00 -6.829710960388183594e+00 1.102805733680725098e+00 -6.670310974121093750e+00 1.866392731666564941e+00 9.693226814270019531e+00 2.669469118118286133e+00 -4.489109516143798828e+00 2.175693035125732422e+00
1.096569180488586426e+00 6.079375267028808594e+00 1.079765796661376953e+00 2.422322511672973633e+00 1.304864406585693359e+00 -4.093957424163818359e+00 7.051029682159423828e+00 -4.645780086517333984e+00 1.365149766206741333e-01 -3.771553277969360352e+00 4.084608078002929688e+00 -4.539525032043457031e+00 -3.396559059619903564e-01 -1.918043613433837891e+00 1.826736092567443848e+00 -5.016940236091613770e-01 -5.865419864654541016e+00 9.697314500808715820e-01 -3.022084236145019531e+00 -2.816967964172363281e+00 3.163619518280029297e+00 -3.701942920684814453e+00 -6.457744598388671875e+00 -5.129266262054443359e+00 -3.096502304077148438e+00 -4.069870948791503906e+00 7.850734710693359375e+00 2.158409833908081055e+00 -4.416301250457763672e+00 1.097563266754150391e+00
-5.631126403808593750e+00 -4.335677146911621094e+00 1.861978918313980103e-01 -1.107529926300048828e+01 8.207540512084960938e+00 -3.873924255371093750e+00 2.085526227951049805e+00 -2.676304340362548828e+00 -9.381020069122314453e-01 -1.503867149353027344e+00 -1.869467087090015411e-02 -1.197977185249328613e+00 5.156409740447998047e+00 3.196066379547119141e+00 3.509775102138519287e-01 1.356590747833251953e+00 2.116128683090209961e+00 2.699447274208068848e-01 9.134309887886047363e-01 -5.653851032257080078e+00 4.951692104339599609e+00 -4.642553806304931641e+00 -5.796523690223693848e-01 -7.291036248207092285e-01 9.212820231914520264e-02 -5.133768558502197266e+00 8.009141921997070312e+00 -2.095665693283081055e+00 -8.669720649719238281e+00 -5.640752315521240234e-01
3.678455352783203125e+00 1.277688264846801758e+00 -2.686563968658447266e+00 -1.984609723091125488e+00 3.482696294784545898e+00 -1.227291202545166016e+01 -1.691473722457885742e+00 -3.252231776714324951e-01 -8.169887542724609375e+00 4.484665870666503906e+00 4.085098743438720703e+00 -1.074072480201721191e+00 1.134977221488952637e+00 1.872473359107971191e+00 2.331055887043476105e-02 -2.041339874267578125e+00 3.253433227539062500e+00 -3.100334405899047852e+00 -2.019035816192626953e+00 -5.009170055389404297e+00 1.537287592887878418e+00 -2.059338331222534180e+00 -7.463920593261718750e+00 -3.096820116043090820e+00 5.429712533950805664e-01 -5.141177654266357422e+00 7.888883113861083984e+00 -1.338416337966918945e-01 3.821525573730468750e-01 -2.135138511657714844e+00
-5.565103530883789062e+00 2.399073600769042969e+00 4.037710189819335938e+00 -6.340461730957031250e+00 1.034194111824035645e+00 -7.075634002685546875e+00 2.194217443466186523e+00 -6.116343975067138672e+00 3.128285884857177734e+00 2.569610834121704102e+00 -1.784743309020996094e+00 -5.686676502227783203e-01 2.720584154129028320e+00 -5.637648582458496094e+00 -4.360208034515380859e+00 -5.920935153961181641e+00 3.383620500564575195e+00 3.048794269561767578e+00 4.415176391601562500e+00 -1.064243793487548828e+00 2.030214071273803711e+00 -8.624057769775390625e+00 -2.565748929977416992e+00 7.273810505867004395e-01 3.748682141304016113e-01 -2.465745925903320312e+00 2.599771261215209961e+00 2.481279969215393066e-01 1.923665642738342285e+00 -5.625782489776611328e+00
3.376532316207885742e+00 -4.200220584869384766e+00 -1.798726439476013184e+00 -2.142339229583740234e+00 -1.697065591812133789e+00 -1.208140134811401367e+00 7.768188476562500000e+00 -2.841459751129150391e+00 -5.629760742187500000e+00 3.135014057159423828e+00 3.313398361206054688e+00 -3.470006942749023438e+00 -1.921619057655334473e+00 2.451602220535278320e+00 -4.396353721618652344e+00 -7.351921558380126953e+00 -9.781026840209960938e-01 4.320093631744384766e+00 9.787713050842285156e+00 -2.227985620498657227e+00 -3.584468364715576172e+00 -3.104987144470214844e-01 -4.139500141143798828e+00 1.521880984306335449e+00 2.812964618206024170e-01 -7.892534255981445312e+00 2.547989130020141602e+00 1.702504515647888184e+00 -5.524479389190673828e+00 -8.867208957672119141e-01
4.582949638366699219e+00 5.078742027282714844e+00 2.165713787078857422e+00 -8.141875267028808594e+00 2.540653228759765625e+00 -3.863437414169311523e+00 -1.263072609901428223e+00 -1.978001713752746582e+00 -1.977709412574768066e+00 1.584456086158752441e+00 -2.154348134994506836e+00 -2.383149862289428711e+00 -9.128587245941162109e-01 1.326620101928710938e+00 5.188572406768798828e+00 -3.782310962677001953e+00 1.963057160377502441e+00 1.369602441787719727e+00 -2.543241739273071289e+00 4.787415504455566406e+00 7.669552803039550781e+00 -3.643500566482543945e+00 -6.561958312988281250e+00 -3.384581089019775391e+00 -4.169094562530517578e+00 -7.606533050537109375e+00 -1.235606193542480469e+00 2.629180431365966797e+00 -5.011204719543457031e+00 -1.372817277908325195e+00
9.245608001947402954e-02 4.666936874389648438e+00 -4.308269023895263672e+00 -7.819963455200195312e+00 5.537961483001708984e+00 3.335612773895263672e+00 -9.970074892044067383e-01 -5.938839912414550781e+00 1.676916360855102539e+00 -6.247275829315185547e+00 7.504190921783447266e+00 -3.193790912628173828e+00 6.125373363494873047e+00 7.939822971820831299e-02 -4.908537387847900391e+00 -9.579282999038696289e-01 3.783840179443359375e+00 -1.899009943008422852e+00 4.025115013122558594e+00 -3.669994115829467773e+00 3.979196310043334961e+00 -4.053169727325439453e+00 -3.775207996368408203e+00 -2.917077779769897461e+00 -3.299207925796508789e+00 -2.590649127960205078e+00 6.745786666870117188e-01 -3.894026041030883789e+00 -1.149052381515502930e+00 -5.548843383789062500e+00
-2.345784425735473633e+00 -8.667671680450439453e-02 1.749931335449218750e+00 -4.016707897186279297e+00 4.639295578002929688e+00 3.077652931213378906e+00 -3.715330123901367188e+00 -3.340456962585449219e+00 -6.558926105499267578e+00 2.731411695480346680e+00 5.887319445610046387e-01 4.148019790649414062e+00 4.776373386383056641e+00 1.018022418022155762e+00 -6.605494976043701172e+00 -7.124903202056884766e-01 -2.901969850063323975e-01 5.066267967224121094e+00 -8.391010165214538574e-01 -1.803073048591613770e+00 3.951059818267822266e+00 -7.010901451110839844e+00 -2.992486953735351562e+00 -6.492997407913208008e-01 -3.653261899948120117e+00 -4.487568855285644531e+00 7.397766590118408203e+00 -4.068207442760467529e-01 -9.476971626281738281e+00 1.453190803527832031e+00
-1.207730174064636230e+00 4.002648353576660156e+00 -2.384916782379150391e+00 -1.010458564758300781e+01 1.063560098409652710e-01 -7.357283592224121094e+00 -3.757076740264892578e+00 -2.490289688110351562e+00 3.699258327484130859e+00 7.646866142749786377e-02 2.511577844619750977e+00 4.287824153900146484e+00 2.629708051681518555e+00 1.835767149925231934e+00 -4.375785827636718750e+00 6.316094875335693359e+00 2.452305555343627930e+00 2.774863719940185547e+00 -7.814870476722717285e-01 -4.563294410705566406e+00 -4.228893280029296875e+00 -3.241173744201660156e+00 -6.795630455017089844e-01 3.756439089775085449e-01 -4.279632568359375000e+00 -3.758839368820190430e+00 -1.089278459548950195e-01 6.061811923980712891e+00 -3.778274774551391602e+00 -1.545750021934509277e+00
1.890509486198425293e+00 1.339757561683654785e+00 1.407262444496154785e+00 -5.212736129760742188e+00 9.796421974897384644e-03 -5.750792503356933594e+00 -8.285931348800659180e-01 -6.035828590393066406e+00 -3.100879907608032227e+00 2.162842512130737305e+00 3.915586233139038086e+00 -1.097698569297790527e+00 7.164075851440429688e+00 -9.695387840270996094e+00 -1.091678977012634277e+00 8.152497410774230957e-01 3.679799556732177734e+00 -6.988871097564697266e-01 -2.772944746538996696e-03 -1.561647653579711914e+00 -2.580807447433471680e+00 7.299243211746215820e-01 -2.060597658157348633e+00 -6.093963623046875000e+00 1.047691464424133301e+00 -3.289345502853393555e+00 4.932993888854980469e+00 1.560159683227539062e+00 1.304288625717163086e+00 -1.036886978149414062e+01
2.970887899398803711e+00 6.297623157501220703e+00 6.420619964599609375e+00 -3.545369863510131836e+00 -3.164669275283813477e+00 6.014902591705322266e-01 -3.356193780899047852e+00 -6.004254817962646484e+00 -5.464007377624511719e+00 4.724243640899658203e+00 4.473785877227783203e+00 -6.177401542663574219e-01 5.288995742797851562e+00 -2.830412626266479492e+00 -4.617114543914794922e+00 1.113099217414855957e+00 8.323751449584960938e+00 4.278670310974121094e+00 1.260488927364349365e-01 -6.842030525207519531e+00 -2.622043371200561523e+00 -6.067359447479248047e+00 -8.952824592590332031e+00 2.170006990432739258e+00 -2.472778081893920898e+00 5.363518595695495605e-01 -4.984464645385742188e+00 -2.647006511688232422e+00 -6.230345726013183594e+00 1.826874852180480957e+00
-3.969500303268432617e+00 -2.691106498241424561e-01 3.750462770462036133e+00 7.925380766391754150e-02 6.450877666473388672e+00 -1.578036069869995117e+00 1.244764924049377441e+00 -8.697369575500488281e+00 -2.360546141862869263e-01 2.211725711822509766e+00 -7.323538064956665039e-01 1.894318342208862305e+00 2.351757287979125977e+00 -6.899785995483398438e+00 1.002312421798706055e+00 -3.501690864562988281e+00 4.388472557067871094e+00 -4.890242516994476318e-01 6.042583465576171875e+00 4.917950630187988281e-01 -5.446676254272460938e+00 -3.993551969528198242e+00 -2.334019422531127930e+00 -4.166408538818359375e+00 -5.151646137237548828e+00 -5.448855400085449219e+00 2.964936971664428711e+00 4.816747665405273438e+00 -8.902638435363769531e+00 8.268917798995971680e-01
-3.452594518661499023e+00 8.772827148437500000e+00 -3.090750694274902344e+00 -3.806411266326904297e+00 2.190661430358886719e+00 -5.406879425048828125e+00 2.150056064128875732e-01 -5.161888599395751953e+00 -6.259925842285156250e+00 3.662719964981079102e+00 5.036927223205566406e+00 4.076344147324562073e-02 1.414511084556579590e+00 2.688624382019042969e+00 -1.436387538909912109e+00 -1.580486297607421875e+00 -3.286098241806030273e+00 -3.929098546504974365e-01 4.118404388427734375e+00 -1.502615571022033691e+00 2.083739280700683594e+00 -3.171026229858398438e+00 -7.052673816680908203e+00 -6.553568840026855469e+00 4.109504818916320801e-01 5.573376655578613281e+00 3.963796794414520264e-01 -3.428188085556030273e+00 -4.338797569274902344e+00 -2.709300756454467773e+00
-1.032030507922172546e-01 1.554440021514892578e+00 2.338255643844604492e+00 1.291161894798278809e+00 -7.023347377777099609e+00 -3.756475925445556641e+00 -3.593524992465972900e-01 -6.237693786621093750e+00 -2.822267770767211914e+00 9.771103858947753906e-01 5.143433809280395508e-01 6.456786155700683594e+00 4.698881804943084717e-01 -4.631699562072753906e+00 2.162067174911499023e+00 -2.773118972778320312e+00 8.406577706336975098e-01 -3.794280290603637695e+00 9.741053581237792969e+00 1.359172582626342773e+00 4.548565387725830078e+00 -6.590822219848632812e+00 -6.932620525360107422e+00 4.356792926788330078e+00 9.765073060989379883e-01 -3.082606077194213867e+00 -2.072069168090820312e+00 3.393755912780761719e+00 -3.299565315246582031e+00 -7.642691135406494141e+00
-6.040408015251159668e-01 7.378594279289245605e-01 -2.944713830947875977e+00 -2.990678787231445312e+00 1.024171352386474609e+01 -1.429937720298767090e+00 -2.079529047012329102e+00 8.679211735725402832e-01 -1.117791175842285156e+00 -1.387157797813415527e+00 1.447942495346069336e+00 -2.684792757034301758e+00 -7.575236558914184570e-01 4.240724146366119385e-01 -5.323127269744873047e+00 -7.717376232147216797e+00 1.847850918769836426e+00 -4.879380702972412109e+00 -1.309441447257995605e+00 -8.393787145614624023e-01 3.823185443878173828e+00 -4.171197414398193359e+00 -3.645461559295654297e+00 -5.430061340332031250e+00 3.930791854858398438e+00 -4.652538299560546875e-01 2.422936439514160156e+00 9.095403671264648438e+00 -7.596006870269775391e+00 -4.251221120357513428e-01
-6.642166614532470703e+00 3.622092247009277344e+00 -1.024377226829528809e+00 -4.424991607666015625e+00 -1.964483499526977539e+00 -2.085640907287597656e+00 -3.002718210220336914e+00 -4.789066791534423828e+00 -4.489570617675781250e+00 1.282473087310791016e+00 1.773248195648193359e+00 3.922845363616943359e+00 2.157382249832153320e+00 1.356905221939086914e+00 -1.587813973426818848e+00 3.311840772628784180e+00 -2.597064256668090820e+00 -1.931287407875061035e+00 7.008337974548339844e+00 3.405453205108642578e+00 4.587729454040527344e+00 -1.702395915985107422e+00 -6.466432571411132812e+00 -6.476599693298339844e+00 -1.311911463737487793e+00 -8.904809355735778809e-01 1.244001626968383789e+00 2.403086662292480469e+00 -9.279672622680664062e+00 1.897397398948669434e+00
-2.361932277679443359e+00 8.653700828552246094e+00 -2.207330942153930664e+00 -2.665502309799194336e+00 7.854455947875976562e+00 -4.350440979003906250e+00 -3.407044887542724609e+00 -6.424073696136474609e+00 -6.475742340087890625e+00 -5.485624790191650391e+00 1.075618624687194824e+00 7.489282488822937012e-01 1.445614218711853027e+00 -3.893316984176635742e+00 -4.044676780700683594e+00 2.695144414901733398e+00 1.618222117424011230e+00 2.450418233871459961e+00 1.788926243782043457e+00 2.988984107971191406e+00 -9.550524353981018066e-01 1.816863536834716797e+00 2.407238245010375977e+00 -3.719746351242065430e+00 -8.882205009460449219e+00 -7.399868488311767578e+00 -2.053078174591064453e+00 4.601893901824951172e+00 -8.875605463981628418e-01 1.340641736984252930e+00
1.505110144615173340e+00 7.432116985321044922e+00 1.638234615325927734e+00 -2.807787179946899414e+00 7.416728496551513672e+00 -2.761877298355102539e+00 -5.003368854522705078e-01 -5.917667865753173828e+00 -5.229150295257568359e+00 9.028607368469238281e+00 -2.479407191276550293e-01 -1.265749216079711914e+00 -4.280668258666992188e+00 2.563122034072875977e+00 1.534984856843948364e-01 -7.153354883193969727e-01 1.673132896423339844e+00 -2.291130065917968750e+00 4.138173103332519531e+00 -4.645822048187255859e+00 -3.191603422164916992e+00 -6.005867004394531250e+00 -5.407247543334960938e+00 -2.060889899730682373e-01 -2.222526371479034424e-01 -5.946881294250488281e+00 8.354359865188598633e-01 2.131401598453521729e-01 -7.423103332519531250e+00 -3.657279253005981445e+00
1.127056181430816650e-01 -2.350621521472930908e-01 -9.047882258892059326e-02 1.728283166885375977e+00 5.972892045974731445e-01 -4.284946441650390625e+00 4.737693309783935547e+00 -3.471282243728637695e+00 3.379694223403930664e+00 3.613582849502563477e+00 2.967543601989746094e-01 -6.434686183929443359e-01 3.591117620468139648e+00 -2.474698126316070557e-01 -7.760443210601806641e+00 -1.258579492568969727e+00 -3.125218868255615234e+00 3.945488929748535156e+00 7.278562068939208984e+00 -6.650325775146484375e+00 1.633873462677001953e+00 2.504012584686279297e+00 -6.242272377014160156e+00 -9.397473335266113281e+00 -3.406120777130126953e+00 -1.907395482063293457e+00 7.290935516357421875e-01 2.353834867477416992e+00 -8.898531913757324219e+00 -1.594002485275268555e+00
9.130458831787109375e-01 4.517582416534423828e+00 2.342777967453002930e+00 -6.482467055320739746e-01 -1.529139637947082520e+00 -9.157427549362182617e-01 -7.553570270538330078e+00 -8.244846463203430176e-01 4.415960788726806641e+00 -4.137616634368896484e+00 5.570191383361816406e+00 2.103278875350952148e+00 2.851936817169189453e+00 -2.964237332344055176e-01 -5.424915790557861328e+00 -4.868111610412597656e+00 -3.361224174499511719e+00 -4.168126583099365234e+00 2.551857233047485352e+00 5.297850131988525391e+00 8.782271742820739746e-01 -8.814066886901855469e+00 -8.026115417480468750e+00 -8.366799354553222656e-02 3.392521381378173828e+00 -6.619463920593261719e+00 3.446371555328369141e+00 2.930409908294677734e-01 -5.564980506896972656e+00 9.378520250320434570e-01
1.635880470275878906e+00 1.579546332359313965e+00 -3.668192028999328613e-01 -3.752269029617309570e+00 3.068983316421508789e+00 -3.813811540603637695e+00 2.367434501647949219e+00 -8.718194007873535156e+00 -4.262888908386230469e+00 -3.799568414688110352e+00 -3.793805092573165894e-02 -1.138378262519836426e+00 2.566732406616210938e+00 3.131964206695556641e+00 -8.577190399169921875e+00 8.664752244949340820e-01 1.206834435462951660e+00 -5.298547267913818359e+00 2.650144815444946289e+00 5.591551661491394043e-01 2.348941087722778320e+00 -6.951699256896972656e+00 -7.164910435676574707e-01 -4.261257648468017578e+00 -4.236134529113769531e+00 7.418197989463806152e-01 3.543271303176879883e+00 3.179518938064575195e+00 5.148953914642333984e+00 -4.782458782196044922e+00
-8.059597969055175781e+00 2.644167423248291016e+00 6.291998177766799927e-02 -4.912143707275390625e+00 8.456336975097656250e+00 -2.212917804718017578e+00 6.281662940979003906e+00 -4.774723052978515625e+00 -6.435166001319885254e-01 -3.225525379180908203e+00 3.593703985214233398e+00 6.066569685935974121e-01 1.889220952987670898e+00 -1.772316575050354004e+00 -8.839635848999023438e-01 -3.574856996536254883e+00 3.584643840789794922e+00 3.726190567016601562e+00 3.642345964908599854e-01 -9.793968200683593750e+00 -2.347098588943481445e+00 -1.277303934097290039e+00 -5.527510643005371094e+00 -7.715472579002380371e-01 2.689842700958251953e+00 -5.926352977752685547e+00 -4.790721416473388672e+00 8.635578155517578125e+00 -4.349632740020751953e+00 -2.245735079050064087e-01
-1.123800873756408691e+00 2.683569431304931641e+00 3.737158298492431641e+00 -2.455865144729614258e+00 4.750586509704589844e+00 -4.136916160583496094e+00 2.724691629409790039e+00 -2.078039169311523438e+00 1.620840430259704590e+00 -3.199645280838012695e+00 7.641122817993164062e+00 7.905225753784179688e+00 -3.359781026840209961e+00 1.423683404922485352e+00 -4.217523574829101562e+00 -2.766233980655670166e-01 2.713317871093750000e+00 -7.479204654693603516e+00 6.423304080963134766e+00 -5.101091384887695312e+00 8.840597867965698242e-01 -5.380236148834228516e+00 1.190487265586853027e+00 -7.974997997283935547e+00 -1.836186289787292480e+00 -7.107513904571533203e+00 -2.090474367141723633e+00 1.297258973121643066e+00 -3.486444234848022461e+00 -6.173602104187011719e+00
-3.525680780410766602e+00 6.042609214782714844e+00 -4.316701591014862061e-01 -1.514955520629882812e+00 1.432572007179260254e+00 2.651077508926391602e+00 -4.099657535552978516e+00 -6.714094161987304688e+00 -4.616453170776367188e+00 -7.293676853179931641e+00 4.812836647033691406e+00 -6.099288463592529297e+00 1.719067335128784180e+00 2.579949140548706055e+00 2.955670654773712158e-01 8.406414389610290527e-01 2.467253923416137695e+00 -2.445803582668304443e-01 4.034711837768554688e+00 -4.111959934234619141e+00 -5.416312694549560547e+00 3.401877164840698242e+00 -6.276581287384033203e+00 -3.103103637695312500e+00 7.004260063171386719e+00 -7.883592605590820312e+00 5.318589210510253906e+00 2.062961339950561523e+00 -1.987142562866210938e+00 -3.113244771957397461e+00
-2.213351011276245117e+00 2.030503749847412109e+00 -1.444004774093627930e+00 -9.999923706054687500e+00 -3.271933555603027344e+00 -8.960164189338684082e-01 6.740146636962890625e+00 -7.822059631347656250e+00 -2.675386905670166016e+00 3.704594373703002930e+00 3.636967182159423828e+00 5.795354247093200684e-01 2.584830284118652344e+00 6.699673652648925781e+00 -6.558332443237304688e+00 -5.439985275268554688e+00 2.147832155227661133e+00 7.193525433540344238e-01 -7.172258496284484863e-01 -2.430964231491088867e+00 5.285200476646423340e-01 1.710078954696655273e+00 1.354591250419616699e+00 -4.142860412597656250e+00 5.374588370323181152e-01 -6.815756797790527344e+00 3.124301910400390625e+00 2.174908399581909180e+00 -1.292778968811035156e+00 -6.176663398742675781e+00
-1.184425473213195801e+00 5.284223079681396484e+00 3.538044929504394531e+00 -2.382529497146606445e+00 -4.544900059700012207e-01 3.316726684570312500e+00 5.613051414489746094e+00 1.734194345772266388e-02 -1.764704227447509766e+00 3.986110448837280273e+00 1.339659810066223145e+00 -4.292008876800537109e-01 -5.921283364295959473e-01 -3.587863922119140625e+00 -5.597481250762939453e+00 2.543088912963867188e+00 5.964801788330078125e+00 -2.939914226531982422e+00 -2.063154458999633789e+00 -6.041238784790039062e+00 -9.753768444061279297e-01 -2.370775222778320312e+00 -1.463313484191894531e+01 -4.530307769775390625e+00 -6.795843124389648438e+00 2.671632468700408936e-01 4.364837646484375000e+00 1.811473965644836426e+00 -2.382828474044799805e+00 -6.079987049102783203e+00
-2.850010633468627930e+00 1.987407803535461426e+00 6.699339151382446289e-01 -8.470133781433105469e+00 -1.806596517562866211e+00 -4.940550804138183594e+00 -1.833814144134521484e+00 -1.983917593955993652e+00 2.636301279067993164e+00 4.706750392913818359e+00 5.089598178863525391e+00 -3.124336719512939453e+00 8.537004470825195312e+00 -1.150766134262084961e+00 -3.930554151535034180e+00 2.493632137775421143e-01 -3.269512653350830078e+00 -1.522448658943176270e+00 3.288320302963256836e+00 5.106052398681640625e+00 2.633490562438964844e+00 -7.148076057434082031e+00 -8.217468261718750000e+00 2.823393344879150391e+00 -2.781971454620361328e+00 -4.358535289764404297e+00 -9.983507394790649414e-01 5.712472438812255859e+00 -2.333192110061645508e+00 -6.515984058380126953e+00
-3.510231494903564453e+00 -7.555645108222961426e-01 -2.414828062057495117e+00 -2.936339139938354492e+00 6.182318687438964844e+00 -9.967740774154663086e-01 1.225687026977539062e+00 -6.620881080627441406e+00 4.678139209747314453e+00 -3.810916543006896973e-01 5.762368440628051758e-01 -2.116047143936157227e-01 -4.035746097564697266e+00 -3.827047049999237061e-01 -1.031559371948242188e+01 -3.245211601257324219e+00 8.503519058227539062e+00 -1.769197225570678711e+00 3.539138317108154297e+00 7.287394046783447266e+00 -9.895037412643432617e-01 -3.866569280624389648e+00 -6.511926174163818359e+00 -4.210419178009033203e+00 -5.216156005859375000e+00 -1.495865464210510254e+00 1.362843155860900879e+00 4.922664165496826172e+00 -3.471654891967773438e+00 5.307896614074707031e+00
-1.254654049873352051e+00 8.205470442771911621e-01 5.205234527587890625e+00 -7.326952219009399414e-01 3.108756542205810547e+00 -3.037032127380371094e+00 5.640838146209716797e+00 -6.827060222625732422e+00 9.004944935441017151e-03 -3.137533903121948242e+00 4.796748638153076172e+00 -3.190525770187377930e-01 3.119281291961669922e+00 8.483563065528869629e-01 -7.164687156677246094e+00 2.948488235473632812e+00 -4.117832660675048828e+00 1.176345825195312500e+00 4.862513542175292969e+00 1.959984540939331055e+00 -1.038033738732337952e-01 -2.179916620254516602e+00 -3.971805572509765625e+00 4.209091961383819580e-01 -2.207227468490600586e+00 -6.949201107025146484e+00 3.805552959442138672e+00 -1.015449428558349609e+01 -5.961277961730957031e+00 -3.993870496749877930e+00
6.852519512176513672e-01 1.981732606887817383e+00 -6.086988449096679688e-01 -1.081059932708740234e+00 2.095996618270874023e+00 -4.165799021720886230e-01 -1.549337387084960938e+00 -5.689123153686523438e+00 -4.165490627288818359e+00 -2.213808298110961914e+00 7.888296246528625488e-01 3.951613426208496094e+00 5.733035564422607422e+00 -5.479624748229980469e+00 -2.319935083389282227e+00 -4.216858863830566406e+00 -2.130928993225097656e+00 3.400926828384399414e+00 1.087213754653930664e-01 -1.380340099334716797e+00 1.554964110255241394e-02 1.734429836273193359e+00 -5.023943185806274414e-01 -8.882736206054687500e+00 3.899636268615722656e+00 -2.938569486141204834e-01 4.185305118560791016e+00 6.713910579681396484e+00 -1.042032337188720703e+01 -5.885860443115234375e+00
7.010334134101867676e-01 9.410375595092773438e+00 1.550692558288574219e+00 -1.288538217544555664e+00 -1.321779489517211914e+00 2.127912282943725586e+00 -7.600395679473876953e-01 -7.977055549621582031e+00 -1.431661963462829590e+00 -8.916097283363342285e-01 1.598380088806152344e+00 -2.890596866607666016e+00 1.680989503860473633e+00 2.161069631576538086e+00 -4.873893737792968750e+00 -8.409487724304199219e+00 3.866960763931274414e+00 7.439838886260986328e+00 -4.183926582336425781e+00 -2.432358503341674805e+00 -1.635112166404724121e+00 -6.000194072723388672e+00 -6.600486755371093750e+00 1.007876157760620117e+00 -1.619865179061889648e+00 2.077797651290893555e+00 4.836261272430419922e+00 4.757297039031982422e+00 -4.636828899383544922e+00 -5.874341964721679688e+00
-5.814547538757324219e+00 5.920296669006347656e+00 -4.164954185485839844e+00 -4.367156028747558594e-01 -3.030229568481445312e+00 -4.992113113403320312e+00 9.910106658935546875e-01 -5.817878723144531250e+00 -1.715485930442810059e+00 -3.538710594177246094e+00 3.786375761032104492e+00 6.963011264801025391e+00 3.348004817962646484e+00 3.161156892776489258e+00 1.250835895538330078e+00 -7.923055291175842285e-01 1.936944246292114258e+00 3.162432670593261719e+00 -5.364851951599121094e+00 1.958804130554199219e-01 3.384010314941406250e+00 -5.453247547149658203e+00 -2.340006828308105469e+00 2.360149383544921875e+00 -2.773495435714721680e+00 -6.872878074645996094e+00 2.875485897064208984e+00 -4.751673638820648193e-01 -8.202637672424316406e+00 -3.193881034851074219e+00
3.744740724563598633e+00 1.730078160762786865e-01 5.718675613403320312e+00 -1.256571388244628906e+01 2.024517804384231567e-01 -1.421448469161987305e+00 2.442707300186157227e+00 -2.807534694671630859e+00 -4.726913928985595703e+00 -3.531962931156158447e-01 3.191003322601318359e+00 -4.275373458862304688e+00 6.602416992187500000e+00 1.612178921699523926e+00 -6.266073703765869141e+00 -5.021940231323242188e+00 3.521175146102905273e+00 -4.055074214935302734e+00 1.347967028617858887e+00 1.698690295219421387e+00 -2.519622325897216797e+00 -5.163746476173400879e-01 -1.612095683813095093e-01 -1.860583305358886719e+00 -4.651013851165771484e+00 2.410074949264526367e+00 6.627490520477294922e-01 2.712024927139282227e+00 -9.573945045471191406e+00 -2.803698062896728516e+00
-3.300315141677856445e-01 3.582691252231597900e-01 -1.372551321983337402e+00 -4.324623107910156250e+00 -7.811307907104492188e-01 -1.333956050872802734e+01 5.726449966430664062e+00 -3.653199911117553711e+00 -1.410767078399658203e+00 -2.134990453720092773e+00 6.498986721038818359e+00 1.849663615226745605e+00 -2.857537865638732910e-01 -2.560086965560913086e+00 -1.875705838203430176e+00 -5.032212734222412109e+00 1.309498310089111328e+00 2.303420066833496094e+00 -9.179779291152954102e-01 4.451955318450927734e+00 2.125760793685913086e+00 -5.380121231079101562e+00 -7.324942588806152344e+00 -5.446525216102600098e-01 8.589010834693908691e-01 4.169363081455230713e-01 3.024701595306396484e+00 1.783343791961669922e+00 -8.091332435607910156e+00 -1.028341054916381836e+00
-8.223056197166442871e-01 3.110075891017913818e-01 3.572056293487548828e+00 3.960541725158691406e+00 3.077376365661621094e+00 -3.205898761749267578e+00 -4.115271568298339844e+00 -9.286906242370605469e+00 -1.593978047370910645e+00 1.645916461944580078e+00 1.028419780731201172e+01 -2.152694940567016602e+00 1.067047268152236938e-01 -1.375811696052551270e+00 -1.223536491394042969e+01 4.148861467838287354e-01 3.451984405517578125e+00 3.218049287796020508e+00 -6.381351351737976074e-01 -4.348793983459472656e+00 2.524010419845581055e+00 -1.768102169036865234e+00 -1.507691860198974609e+00 -3.968743562698364258e+00 2.382270097732543945e+00 -3.144115686416625977e+00 6.868872642517089844e-01 2.079442262649536133e+00 -5.165352821350097656e+00 -5.571349143981933594e+00
6.176172494888305664e-01 2.772036552429199219e+00 1.207769513130187988e+00 -2.114937067031860352e+00 2.652308437973260880e-03 -3.019232034683227539e+00 -2.045200824737548828e+00 -4.517036914825439453e+00 -6.334815979003906250e+00 2.680331707000732422e+00 6.902463436126708984e+00 -2.391166448593139648e+00 -3.048716783523559570e+00 8.925884962081909180e-02 1.702837944030761719e+00 4.913568019866943359e+00 2.078086853027343750e+00 4.962467670440673828e+00 3.569209814071655273e+00 2.174583673477172852e+00 -1.677586883306503296e-02 -9.543497085571289062e+00 -2.753568410873413086e+00 -7.371501445770263672e+00 -3.136762857437133789e+00 -7.073363304138183594e+00 1.277325034141540527e+00 7.686636447906494141e+00 -5.308987617492675781e+00 -7.790968894958496094e+00
2.051120758056640625e+00 1.706488728523254395e+00 -1.092625737190246582e+00 -6.017695426940917969e+00 -3.042139053344726562e+00 1.352500319480895996e+00 -3.039113759994506836e+00 -4.443682193756103516e+00 1.825283527374267578e+00 -5.689380645751953125e+00 2.179410696029663086e+00 2.729053258895874023e+00 2.762307405471801758e+00 -3.229622364044189453e+00 -6.835778236389160156e+00 3.712790250778198242e+00 1.823656797409057617e+00 4.997507572174072266e+00 6.256852149963378906e+00 3.238633573055267334e-01 -2.296896934509277344e+00 -2.336957454681396484e+00 -9.320306777954101562e+00 -4.416049957275390625e+00 -6.096009254455566406e+00 -6.698403835296630859e+00 4.788763999938964844e+00 3.191407203674316406e+00 3.742308855056762695e+00 -2.614882290363311768e-01
-8.223677635192871094e+00 3.529300212860107422e+00 2.379817247390747070e+00 -9.669212102890014648e-01 1.263110637664794922e+00 -4.411681175231933594e+00 -1.190081357955932617e+00 -4.641162872314453125e+00 3.068275213241577148e+00 -4.104520380496978760e-01 4.067385673522949219e+00 -1.012017011642456055e+00 6.672052383422851562e+00 6.394194126129150391e+00 2.844155728816986084e-01 -4.461444377899169922e+00 3.288996219635009766e-01 -5.229985713958740234e+00 2.053493976593017578e+00 9.312834739685058594e-01 -2.864531993865966797e+00 3.112004280090332031e+00 -6.879861354827880859e+00 -6.341486454010009766e+00 -5.461161613464355469e+00 -4.590332031250000000e+00 -5.386530756950378418e-01 4.729671001434326172e+00 -1.108368754386901855e+00 -1.296872973442077637e+00
-4.099082469940185547e+00 1.047988772392272949e+00 -3.658128023147583008e+00 -4.689578533172607422e+00 1.363736391067504883e+00 -3.544015407562255859e+00 6.524117469787597656e+00 -2.794832944869995117e+00 -1.116676449775695801e+00 1.586141109466552734e+00 1.949529409408569336e+00 -6.441075205802917480e-01 -2.773152112960815430e+00 -5.918699264526367188e+00 -6.410910606384277344e+00 3.254787683486938477e+00 -2.405882596969604492e+00 -9.802109003067016602e-01 4.797759056091308594e+00 1.121263980865478516e+00 3.503921270370483398e+00 -2.726334095001220703e+00 -1.635897517204284668e+00 1.921676754951477051e+00 -2.877004384994506836e+00 -9.984383583068847656e+00 2.771328449249267578e+00 6.688104152679443359e+00 -4.284369468688964844e+00 1.379543900489807129e+00
2.776303052902221680e+00 9.083817481994628906e+00 -1.767255902290344238e+00 -3.886706590652465820e+00 9.767405986785888672e-01 -4.993132591247558594e+00 -4.855217933654785156e-01 -4.606158733367919922e+00 -8.252618789672851562e+00 -6.193080902099609375e+00 -4.690795242786407471e-01 4.264509677886962891e+00 3.143553256988525391e+00 -5.664045810699462891e+00 -3.915994644165039062e+00 1.219840764999389648e+00 5.511280059814453125e+00 -3.151093721389770508e+00 8.357896804809570312e+00 2.803999423980712891e+00 1.937677502632141113e+00 -3.035063028335571289e+00 -1.370258092880249023e+00 -4.797202587127685547e+00 1.433074116706848145e+00 5.227254629135131836e-01 3.345654010772705078e-01 -2.392884492874145508e+00 -4.845761299133300781e+00 -3.759737730026245117e+00
-1.443203568458557129e+00 -2.131229788064956665e-01 -6.962976455688476562e-01 -1.552783250808715820e-01 -6.832146644592285156e-01 -4.011497020721435547e+00 4.459201358258724213e-03 -8.904071807861328125e+00 -2.205179929733276367e+00 7.334262371063232422e+00 1.860525369644165039e+00 4.153929233551025391e+00 2.559494972229003906e+00 -4.431776046752929688e+00 -1.155699968338012695e+00 1.337896227836608887e+00 2.834764480590820312e+00 -1.860818505287170410e+00 1.828751802444458008e+00 6.773368835449218750e+00 -7.620923519134521484e+00 8.949987292289733887e-01 -8.846134185791015625e+00 -5.736668109893798828e+00 4.682889938354492188e+00 -5.563435554504394531e+00 4.911762714385986328e+00 1.269790887832641602e+00 -5.581319808959960938e+00 -3.700023174285888672e+00
-2.966466665267944336e+00 -1.663154125213623047e+00 3.158736944198608398e+00 -7.779948711395263672e+00 3.902652502059936523e+00 8.590447157621383667e-02 -2.307967424392700195e+00 -3.403720378875732422e+00 3.357654333114624023e+00 3.620148658752441406e+00 8.235175132751464844e+00 -2.474662065505981445e-01 5.962380886077880859e+00 -2.857285976409912109e+00 2.293292760848999023e+00 -9.407271742820739746e-01 -1.095644116401672363e+00 -4.012139320373535156e+00 -5.768111228942871094e+00 -1.520775675773620605e+00 -1.586662292480468750e+00 1.424879193305969238e+00 -1.183918666839599609e+01 5.746045589447021484e+00 -3.497248411178588867e+00 -5.584397792816162109e+00 7.816498279571533203e+00 1.893670201301574707e+00 -4.270656108856201172e+00 -3.512377977371215820e+00
3.880264282226562500e+00 6.046832561492919922e+00 -5.870993733406066895e-01 -8.571352005004882812e+00 5.726850628852844238e-01 5.137193202972412109e-01 2.664971590042114258e+00 -2.146203994750976562e+00 1.511967658996582031e+00 8.520438075065612793e-01 -2.009411811828613281e+00 3.113912820816040039e+00 -2.853181600570678711e+00 4.663529992103576660e-02 -9.551656723022460938e+00 2.062002420425415039e+00 2.685294628143310547e+00 -2.792877912521362305e+00 -2.237724214792251587e-01 -7.911909580230712891e+00 7.186551094055175781e-01 8.622924089431762695e-01 -5.235628604888916016e+00 -2.101186990737915039e+00 -2.618513345718383789e+00 -5.864709854125976562e+00 4.361057758331298828e+00 7.885670661926269531e+00 -5.238535881042480469e+00 -9.565312266349792480e-01
1.438055157661437988e+00 -4.980438232421875000e+00 5.915393352508544922e+00 -2.234884500503540039e+00 6.917050480842590332e-02 -1.014374718070030212e-01 6.747698307037353516e+00 -3.262766361236572266e+00 -7.550954222679138184e-01 -6.197135925292968750e+00 -1.535046815872192383e+00 1.931026220321655273e+00 6.071763515472412109e+00 4.740484237670898438e+00 2.718477725982666016e+00 -3.086833953857421875e+00 6.200340986251831055e-01 -9.782183170318603516e-01 4.418598651885986328e+00 -1.957242846488952637e+00 -7.334545135498046875e+00 -6.135134696960449219e+00 -3.976311445236206055e+00 -5.788946151733398438e-01 1.114469408988952637e+00 -7.395022869110107422e+00 -9.680035710334777832e-01 5.821648120880126953e+00 -8.158078193664550781e+00 -1.960329771041870117e+00
-2.523003339767456055e+00 3.916741609573364258e-01 1.033381581306457520e+00 -4.843804836273193359e+00 -3.583319425582885742e+00 -4.775486469268798828e+00 3.070175170898437500e+00 -1.008224964141845703e+01 -1.833856225013732910e+00 -4.102732181549072266e+00 5.068460464477539062e+00 4.581141471862792969e+00 2.053972005844116211e+00 -4.996760368347167969e+00 2.932143211364746094e+00 -2.415867805480957031e+00 4.323664665222167969e+00 -8.882185816764831543e-02 2.568168342113494873e-01 -4.534031391143798828e+00 5.051239967346191406e+00 3.121147632598876953e+00 -3.996381044387817383e+00 -4.382931232452392578e+00 -3.129156589508056641e+00 -4.739991128444671631e-01 2.777839638292789459e-02 -5.089651942253112793e-01 -6.509199142456054688e+00 1.444853425025939941e+00
1.907074451446533203e+00 5.199995040893554688e+00 2.145089864730834961e+00 -5.710634231567382812e+00 6.071479797363281250e+00 -1.369772911071777344e+00 3.915611267089843750e+00 -4.332162380218505859e+00 -7.726656913757324219e+00 2.005463600158691406e+00 6.308508396148681641e+00 6.378139853477478027e-01 -2.520628452301025391e+00 -2.247213840484619141e+00 -4.646716117858886719e+00 -4.328225135803222656e+00 -2.178227663040161133e+00 -4.284249305725097656e+00 -3.641167402267456055e+00 6.300664424896240234e+00 1.081903815269470215e+00 1.877554297447204590e+00 -6.309933185577392578e+00 -3.673938274383544922e+00 1.668530821800231934e+00 -9.893184661865234375e+00 2.079493999481201172e+00 -2.753800392150878906e+00 -1.554062869399785995e-02 2.386783361434936523e+00
-3.662580966949462891e+00 1.096419906616210938e+01 2.009455204010009766e+00 6.813840866088867188e-01 -8.860411643981933594e-01 -4.002847194671630859e+00 -7.756850123405456543e-01 -2.685226917266845703e+00 2.398602008819580078e+00 3.116375803947448730e-01 6.906447887420654297e+00 -2.196036338806152344e+00 -1.035490036010742188e+00 -7.410804748535156250e+00 -1.982450008392333984e+00 -8.464131504297256470e-02 1.241841316223144531e+00 -4.133402347564697266e+00 5.314252376556396484e+00 -1.970063924789428711e+00 4.193848133087158203e+00 -2.281652927398681641e+00 1.205279231071472168e+00 -2.945042252540588379e-01 -6.177228450775146484e+00 -2.772629022598266602e+00 2.836601495742797852e+00 -3.181096315383911133e+00 -6.410570144653320312e+00 -6.559712409973144531e+00
4.150858879089355469e+00 2.244514465332031250e+00 5.292338371276855469e+00 -3.666949748992919922e+00 -1.863911151885986328e+00 -5.787771940231323242e-01 -2.344517230987548828e+00 -9.688480377197265625e+00 -3.794133424758911133e+00 -1.534133195877075195e+00 -2.954622745513916016e+00 2.062975645065307617e+00 -3.027823686599731445e+00 -5.490143299102783203e-01 7.211973667144775391e-01 -4.529675483703613281e+00 4.271909236907958984e+00 2.841648101806640625e+00 8.188182830810546875e+00 -3.680386543273925781e+00 3.143632650375366211e+00 -2.697834491729736328e+00 -4.772035777568817139e-01 -6.621848106384277344e+00 -5.649629235267639160e-01 -6.863362312316894531e+00 4.984900474548339844e+00 2.033413171768188477e+00 -2.196300029754638672e+00 -1.906168103218078613e+00
1.657885074615478516e+00 8.678930282592773438e+00 -4.394301891326904297e+00 -3.523325443267822266e+00 1.419980883598327637e+00 -5.886820316314697266e+00 -5.205240249633789062e+00 -4.759413242340087891e+00 -2.954413890838623047e-01 -4.241047382354736328e+00 4.067873954772949219e+00 3.110531091690063477e+00 4.420677721500396729e-01 1.240982294082641602e+00 -3.338190793991088867e+00 -9.690079689025878906e+00 -1.568315863609313965e+00 1.293973445892333984e+00 1.599209547042846680e+00 1.450925350189208984e+00 6.699230670928955078e+00 3.238738536834716797e+00 -2.077577590942382812e+00 -4.371634960174560547e+00 -5.737458229064941406e+00 -3.875600576400756836e+00 2.320021152496337891e+00 4.760719537734985352e-01 7.385573983192443848e-01 -3.595843911170959473e-01
-8.227030754089355469e+00 8.284806609153747559e-01 8.022551536560058594e+00 5.091714382171630859e+00 3.180184841156005859e+00 -2.751208305358886719e+00 1.400542408227920532e-01 -2.051741361618041992e+00 -5.758149623870849609e+00 1.174746751785278320e+00 8.848612904548645020e-01 -1.233430743217468262e+00 3.561777830123901367e+00 -3.654110670089721680e+00 -7.003460407257080078e+00 -1.829262375831604004e+00 -2.806671857833862305e+00 1.927453428506851196e-01 4.233780130743980408e-02 -2.965457439422607422e+00 9.596427917480468750e+00 -2.853275060653686523e+00 -2.450857877731323242e+00 -1.850556373596191406e+00 -4.504729747772216797e+00 -3.530634641647338867e+00 1.651094675064086914e+00 4.301518917083740234e+00 -5.243459701538085938e+00 -1.785779953002929688e+00
5.495446205139160156e+00 3.264846801757812500e+00 -6.157351493835449219e+00 -3.084997892379760742e+00 2.932412385940551758e+00 -1.372794032096862793e+00 2.433473110198974609e+00 -4.950064659118652344e+00 -1.975105285644531250e+00 1.936042785644531250e+00 -1.216603994369506836e+00 2.401004552841186523e+00 7.082057476043701172e+00 2.418282181024551392e-01 3.659903764724731445e+00 -5.091697216033935547e+00 3.821928977966308594e+00 2.703052759170532227e+00 4.497914791107177734e+00 1.882264852523803711e+00 4.062620401382446289e-01 -7.263926029205322266e+00 -6.507297515869140625e+00 -6.834185123443603516e+00 -1.852011561393737793e+00 -6.065392017364501953e+00 1.181346252560615540e-01 -2.460819244384765625e+00 -4.417544841766357422e+00 -4.644785881042480469e+00
-3.821410894393920898e+00 3.500046014785766602e+00 4.041820526123046875e+00 -4.254016876220703125e+00 -7.997434735298156738e-01 -7.048244953155517578e+00 -1.194632411003112793e+00 -8.063728362321853638e-02 3.443990468978881836e+00 -3.784763813018798828e-01 6.104527711868286133e-01 -9.681475758552551270e-01 -1.338775157928466797e-01 3.161607742309570312e+00 -5.731240749359130859e+00 1.184367299079895020e+00 3.208267927169799805e+00 -1.722409725189208984e+00 -2.038451910018920898e+00 -1.628383159637451172e+00 -4.932159483432769775e-01 -5.984275341033935547e+00 -6.358216285705566406e+00 -7.751651287078857422e+00 1.141867733001708984e+01 -2.519300699234008789e+00 3.753666877746582031e+00 2.160751819610595703e+00 -2.788003206253051758e+00 -6.466451168060302734e+00
-2.355556964874267578e+00 6.625849723815917969e+00 7.183592319488525391e-01 -5.824997901916503906e+00 -4.235457420349121094e+00 -2.942207098007202148e+00 1.032529830932617188e+01 -5.193635940551757812e+00 -6.747663497924804688e+00 1.796595007181167603e-01 2.490271568298339844e+00 -4.416107654571533203e+00 8.220717430114746094e+00 -1.398986101150512695e+00 -4.125909507274627686e-01 8.346093446016311646e-02 -1.732973456382751465e+00 -1.237678408622741699e+00 3.938601493835449219e+00 -1.544712424278259277e+00 -3.256668090820312500e+00 -3.780984163284301758e+00 2.141699790954589844e+00 -1.052293872833251953e+01 -1.352866649627685547e+00 -9.954890608787536621e-01 4.161777794361114502e-01 1.930900812149047852e+00 -1.640653610229492188e+00 5.839061260223388672e+00
5.894835293292999268e-02 5.252083301544189453e+00 4.679839134216308594e+00 9.741392731666564941e-01 -7.050791978836059570e-01 -5.707798957824707031e+00 7.077401280403137207e-01 -3.408141374588012695e+00 -4.252623081207275391e+00 -2.261168003082275391e+00 5.835833072662353516e+00 2.692437171936035156e+00 2.190185546875000000e+00 -4.829790592193603516e+00 -8.916839957237243652e-02 2.414204329252243042e-01 -6.040691375732421875e+00 -2.591336011886596680e+00 -6.942796111106872559e-01 -6.188588619232177734e+00 8.415672779083251953e-01 -4.983117580413818359e+00 -6.557867050170898438e+00 -7.778153896331787109e+00 -6.578304171562194824e-01 -5.850581169128417969e+00 6.038199424743652344e+00 6.143490314483642578e+00 2.723222017288208008e+00 1.687982201576232910e+00
-2.595503330230712891e+00 -5.404017567634582520e-01 -3.907639265060424805e+00 -6.748398303985595703e+00 1.780613139271736145e-02 -1.326336264610290527e+00 2.121229171752929688e+00 -2.269663333892822266e+00 -4.907232761383056641e+00 -3.035869598388671875e+00 1.657403826713562012e+00 1.300426483154296875e+00 4.193376541137695312e+00 5.341133594512939453e+00 -6.499361991882324219e+00 4.279411792755126953e+00 8.933251380920410156e+00 -6.375421047210693359e+00 -1.875081181526184082e+00 -4.492590904235839844e+00 1.173811674118041992e+00 -1.292082071304321289e+00 -6.559956550598144531e+00 -6.294500827789306641e-01 -1.967020750045776367e+00 -4.560906410217285156e+00 8.788703918457031250e+00 -5.250304937362670898e-01 -1.072016358375549316e+00 -1.654726713895797729e-01
2.756435573101043701e-01 8.801223754882812500e+00 3.712571144104003906e+00 1.523935437202453613e+00 3.037671446800231934e-01 5.955212712287902832e-01 2.231957912445068359e+00 1.312443912029266357e-01 -4.688221931457519531e+00 -1.034637212753295898e+00 1.316138148307800293e+00 -5.428555011749267578e+00 -2.723110616207122803e-01 -2.676504611968994141e+00 -4.282007694244384766e+00 -3.927220344543457031e+00 7.593024730682373047e+00 -4.879365444183349609e+00 -1.920689463615417480e+00 -9.003844261169433594e-01 -1.260235190391540527e+00 1.520256519317626953e+00 -1.291863203048706055e+00 -1.615464806556701660e+00 7.715398669242858887e-01 -1.154153442382812500e+01 1.356574654579162598e+00 4.495682716369628906e+00 -8.123080253601074219e+00 -1.319545745849609375e+00
1.596020221710205078e+00 2.054567813873291016e+00 -1.024218845367431641e+01 -1.705846667289733887e+00 -3.130016624927520752e-01 3.657162904739379883e+00 2.475950241088867188e+00 -5.373307704925537109e+00 -9.236112833023071289e-01 1.282153487205505371e+00 9.372249603271484375e+00 -3.022054433822631836e+00 2.564579963684082031e+00 -3.266044616699218750e+00 1.650303304195404053e-01 -1.911426544189453125e+00 1.319070011377334595e-01 -3.852457523345947266e+00 3.610965967178344727e+00 -1.416227221488952637e+00 2.448124438524246216e-01 -4.837172508239746094e+00 -6.225268363952636719e+00 -4.593453884124755859e+00 3.868404865264892578e+00 -8.657099723815917969e+00 2.635608196258544922e+00 1.119454741477966309e+00 -2.706203937530517578e+00 3.651427268981933594e+00
9.399838447570800781e-01 -5.033139228820800781e+00 -7.997022867202758789e-01 -5.786148071289062500e+00 1.660212874412536621e+00 -1.082458734512329102e+00 -2.105242013931274414e+00 3.626179933547973633e+00 -6.309037685394287109e+00 -1.023817348480224609e+01 4.014225482940673828e+00 -4.196331024169921875e+00 -5.126091957092285156e+00 9.620480537414550781e-01 6.737472414970397949e-01 -4.905826568603515625e+00 5.972651004791259766e+00 5.521075248718261719e+00 -3.171725273132324219e+00 2.780196666717529297e+00 3.315227270126342773e+00 -8.448376655578613281e-01 5.856194019317626953e+00 2.889240980148315430e+00 -1.650264739990234375e+00 -4.163754463195800781e+00 -3.881153583526611328e+00 -3.710375070571899414e+00 -4.592297971248626709e-01 3.263719320297241211e+00
-3.975087881088256836e+00 1.200304746627807617e+00 3.272808790206909180e-01 -4.208031177520751953e+00 3.510905802249908447e-01 1.359411954879760742e+00 -7.512265205383300781e+00 -3.644726991653442383e+00 -6.001796245574951172e+00 -1.086546778678894043e+00 3.897686243057250977e+00 -4.719063043594360352e-01 -1.182990455627441406e+01 1.917167782783508301e+00 5.956615447998046875e+00 4.414326667785644531e+00 4.052440643310546875e+00 4.830313205718994141e+00 1.404189705848693848e+00 -4.442390918731689453e+00 -4.703914165496826172e+00 -4.994935989379882812e+00 1.304470658302307129e+00 4.673157215118408203e+00 2.532377243041992188e+00 -4.470637142658233643e-01 2.256897211074829102e+00 -1.467535138130187988e+00 9.977011084556579590e-01 -5.254406452178955078e+00
-2.986409366130828857e-01 -5.230396270751953125e+00 5.547810196876525879e-01 -1.657361745834350586e+00 -3.365781784057617188e+00 -2.113345384597778320e+00 -1.181079864501953125e+01 4.030446052551269531e+00 6.397243738174438477e-01 -7.052486419677734375e+00 7.377103328704833984e+00 -5.706103801727294922e+00 -2.808855772018432617e+00 -4.306497097015380859e+00 1.339126944541931152e+00 4.238836765289306641e+00 2.821639537811279297e+00 -3.600181818008422852e+00 1.967057347297668457e+00 1.193376302719116211e+00 -4.728020668029785156e+00 -1.222960114479064941e+00 6.562001705169677734e-01 -4.028026580810546875e+00 -2.056187391281127930e+00 3.682735204696655273e+00 1.540692687034606934e+00 4.960981845855712891e+00 3.740551710128784180e+00 -2.415864467620849609e+00
-4.341691493988037109e+00 -6.570376873016357422e+00 4.811725139617919922e+00 -2.464924335479736328e+00 7.246476650238037109e+00 -6.537945270538330078e+00 -3.005207061767578125e+00 7.560674667358398438e+00 -6.057100296020507812e+00 -6.321251869201660156e+00 9.957223385572433472e-02 -3.542269706726074219e+00 -4.894972801208496094e+00 -3.244700431823730469e+00 -4.775491237640380859e+00 -1.267460823059082031e+00 -2.192319393157958984e+00 4.624545574188232422e+00 -7.087261080741882324e-01 1.151076436042785645e+00 -1.496284753084182739e-01 -4.501700401306152344e+00 -1.643762588500976562e+00 -3.128229141235351562e+00 4.621796607971191406e+00 -1.676188856363296509e-01 2.880124807357788086e+00 4.779255390167236328e+00 6.115919113159179688e+00 -2.807978093624114990e-01
-2.631808519363403320e+00 -7.462755680084228516e+00 6.176524162292480469e-01 -9.627385139465332031e-01 1.420256733894348145e+00 -9.114539146423339844e+00 -4.400365829467773438e+00 4.470052242279052734e+00 -6.309202671051025391e+00 -3.280088424682617188e+00 -1.242338299751281738e+00 4.153926372528076172e+00 -4.532709121704101562e+00 3.864770889282226562e+00 2.265968561172485352e+00 -5.870583653450012207e-01 -1.255930900573730469e+00 1.039450690150260925e-01 -3.283298492431640625e+00 1.200161099433898926e+00 -1.016857147216796875e+01 3.536621332168579102e+00 -5.098410606384277344e+00 4.564796984195709229e-01 3.184573173522949219e+00 3.470771312713623047e+00 3.370261430740356445e+00 -3.214070320129394531e+00 2.038235902786254883e+00 6.231745243072509766e+00
-9.145316481590270996e-01 -1.305248165130615234e+01 3.879851102828979492e+00 -5.405997753143310547e+00 -1.961330890655517578e+00 -1.171286106109619141e+00 -1.274852275848388672e+00 8.514844894409179688e+00 -4.816007137298583984e+00 -6.645260453224182129e-01 5.151278972625732422e+00 -5.999794006347656250e+00 -2.978365659713745117e+00 2.003709554672241211e+00 -8.219394087791442871e-01 2.218461036682128906e+00 -3.491868376731872559e-01 6.646629333496093750e+00 -2.856192365288734436e-02 -2.392887592315673828e+00 1.027420878410339355e+00 4.490027427673339844e+00 -8.273985862731933594e+00 3.265967369079589844e+00 6.249865889549255371e-01 -5.196413993835449219e-01 -3.784808158874511719e+00 -2.958180904388427734e+00 1.791560530662536621e+00 -3.783742904663085938e+00
-9.129668235778808594e+00 -6.384324073791503906e+00 -3.074418604373931885e-01 -4.339975357055664062e+00 -3.581999242305755615e-01 -5.763609886169433594e+00 -2.984910011291503906e-01 2.911471128463745117e+00 -2.081206798553466797e+00 8.761544227600097656e-01 1.472698092460632324e+00 -8.509608268737792969e+00 -3.882861614227294922e+00 -9.693263769149780273e-01 3.506155014038085938e+00 -2.892883419990539551e-01 3.565081596374511719e+00 6.352027416229248047e+00 4.984892904758453369e-02 -5.159900188446044922e-01 -9.204647541046142578e-01 -7.500150799751281738e-01 4.280929565429687500e+00 -6.984465599060058594e+00 -2.222551584243774414e+00 3.079734563827514648e+00 -3.120338678359985352e+00 3.844153583049774170e-01 2.217625379562377930e-01 2.070612430572509766e+00
-9.889245986938476562e+00 1.746280550956726074e+00 3.301886320114135742e-01 1.383500695228576660e+00 8.516485214233398438e+00 -4.297635555267333984e+00 1.920000076293945312e+00 3.927277088165283203e+00 -5.166414260864257812e+00 -1.164447212219238281e+01 1.013305187225341797e+00 1.088582426309585571e-01 -4.131976604461669922e+00 1.043560504913330078e+00 5.085582733154296875e-01 2.512446343898773193e-01 -2.531346797943115234e+00 7.223435401916503906e+00 -2.569741487503051758e+00 3.489828586578369141e+00 -4.312940597534179688e+00 -1.811504602432250977e+00 -4.865601062774658203e+00 3.476689815521240234e+00 -9.944420456886291504e-01 9.809002876281738281e-01 -3.279041051864624023e+00 -1.422354102134704590e+00 1.564068198204040527e+00 -8.960302472114562988e-01
-3.907537221908569336e+00 -4.743715286254882812e+00 3.321839094161987305e+00 1.508303284645080566e+00 3.010147094726562500e+00 -7.993631362915039062e-01 -5.649755001068115234e+00 3.929424047470092773e+00 -6.820778846740722656e+00 -3.233630657196044922e+00 2.043452739715576172e+00 -9.683012366294860840e-01 1.199961900711059570e-01 1.201919198036193848e+00 2.314696311950683594e+00 3.116579532623291016e+00 -4.919785976409912109e+00 5.207514762878417969e+00 3.377063274383544922e+00 2.066776990890502930e+00 -7.198340892791748047e+00 -3.401139259338378906e+00 1.520591378211975098e+00 -5.395343303680419922e+00 6.552659720182418823e-02 -2.552229881286621094e+00 -1.270639801025390625e+01 2.905579328536987305e+00 -4.512188911437988281e+00 5.472347259521484375e+00
2.014578431844711304e-01 -3.557310581207275391e+00 3.367967844009399414e+00 -1.557613372802734375e+00 2.231106281280517578e+00 -1.953797817230224609e+00 -6.355622291564941406e+00 1.722687125205993652e+00 4.800511896610260010e-02 -6.229364871978759766e+00 1.937956809997558594e+00 -3.339454412460327148e+00 -4.665895462036132812e+00 -5.282381534576416016e+00 7.780464172363281250e+00 -7.928293704986572266e+00 2.828600406646728516e+00 -1.047974228858947754e+00 2.439422130584716797e+00 -1.178012728691101074e+00 -9.255876541137695312e+00 -9.390859007835388184e-01 4.684271335601806641e+00 -1.108953356742858887e+00 -1.608078122138977051e+00 2.697680711746215820e+00 -3.157667815685272217e-01 -5.115383267402648926e-01 -3.400822877883911133e+00 4.819731712341308594e+00
-8.695454597473144531e+00 -2.066469907760620117e+00 5.681484341621398926e-01 -8.321327209472656250e+00 -3.654779195785522461e-01 -5.213838100433349609e+00 1.316396892070770264e-01 3.962523698806762695e+00 -1.816453099250793457e+00 -7.241475582122802734e-01 8.007031440734863281e+00 -6.781867980957031250e+00 -4.845284938812255859e+00 -2.678481101989746094e+00 4.885568141937255859e+00 8.835062384605407715e-01 -6.367758750915527344e+00 1.669784903526306152e+00 6.486560106277465820e-01 -1.992461919784545898e+00 9.270306229591369629e-01 -9.706433415412902832e-01 1.218028664588928223e+00 3.491477966308593750e+00 -5.376404285430908203e+00 2.684747934341430664e+00 -4.178692400455474854e-02 -4.069296836853027344e+00 6.249335408210754395e-01 8.808217048645019531e+00
-6.646397113800048828e+00 -7.577106475830078125e+00 -4.451605796813964844e+00 -9.236227869987487793e-01 6.966984748840332031e+00 2.288861274719238281e+00 -7.881215095520019531e+00 8.207373619079589844e+00 -5.486802101135253906e+00 -2.254490852355957031e+00 -1.810643076896667480e-01 -7.409908175468444824e-01 -2.298111438751220703e+00 8.937998414039611816e-01 -8.299658298492431641e-01 -1.104095697402954102e+00 2.578985452651977539e+00 2.387526750564575195e+00 -1.048983931541442871e+00 -7.620404720306396484e+00 1.894865155220031738e+00 -3.514520883560180664e+00 2.380243062973022461e+00 -1.501612216234207153e-01 -3.443904638290405273e+00 7.596244812011718750e-01 5.461881160736083984e-01 3.479387760162353516e+00 1.268754899501800537e-01 -1.083002805709838867e+00
-6.171473026275634766e+00 -2.120148181915283203e+00 3.797931909561157227e+00 -3.486089944839477539e+00 4.454224109649658203e-01 1.637842178344726562e+00 -1.053473663330078125e+01 9.782423973083496094e+00 -4.064240455627441406e+00 -8.008337020874023438e+00 -5.302323341369628906e+00 -7.101106643676757812e+00 1.187294244766235352e+00 2.167699575424194336e+00 4.367072582244873047e+00 7.604093551635742188e-01 9.014638662338256836e-01 1.273848176002502441e+00 -1.754916191101074219e+00 -8.509818315505981445e-01 -2.750829935073852539e+00 7.479160428047180176e-01 3.923193216323852539e+00 3.539384126663208008e+00 -5.189687728881835938e+00 -2.735630273818969727e+00 5.344951629638671875e+00 -7.835103034973144531e+00 1.339459896087646484e+00 2.097162008285522461e+00
2.060481548309326172e+00 -1.997228026390075684e+00 9.022297859191894531e+00 -5.841106414794921875e+00 1.176957011222839355e+00 1.038726687431335449e+00 -8.952769279479980469e+00 3.412503004074096680e+00 -3.733097076416015625e+00 -5.674688339233398438e+00 -3.363857269287109375e+00 4.820959091186523438e+00 -5.375316619873046875e+00 -1.302310347557067871e+00 -3.101918220520019531e+00 4.306918621063232422e+00 -4.227488994598388672e+00 8.724601745605468750e+00 6.125389099121093750e+00 -3.904771089553833008e+00 -6.612270355224609375e+00 1.259214997291564941e+00 -2.816389322280883789e+00 -9.839751720428466797e-01 -3.514231681823730469e+00 -3.980096817016601562e+00 9.279813766479492188e-01 -5.443229675292968750e-01 -2.111592292785644531e+00 7.458512306213378906e+00
-5.278972625732421875e+00 -3.060158967971801758e+00 -6.352898597717285156e+00 -8.228439331054687500e+00 3.469947814941406250e+00 -2.688984870910644531e+00 2.553473234176635742e+00 1.835081458091735840e+00 -5.812280178070068359e+00 -4.718614578247070312e+00 -3.533911406993865967e-01 -3.742020606994628906e+00 -5.018076419830322266e+00 4.706823348999023438e+00 3.433008432388305664e+00 -2.746033668518066406e+00 -1.762311577796936035e+00 4.544874668121337891e+00 3.212336778640747070e+00 8.526032447814941406e+00 -6.731962680816650391e+00 -9.909591674804687500e-01 -8.905141353607177734e-01 -2.637283802032470703e+00 6.398831367492675781e+00 3.991775959730148315e-02 1.687517166137695312e+00 -4.534924030303955078e+00 -1.399152874946594238e+00 2.285237550735473633e+00
-8.517910003662109375e+00 -1.647494792938232422e+00 -3.544011831283569336e+00 5.087457180023193359e+00 -2.562968134880065918e-01 -4.827027022838592529e-01 -4.831783294677734375e+00 6.669435977935791016e+00 -5.483829379081726074e-01 -3.271049499511718750e+00 1.590611040592193604e-01 -7.741703987121582031e+00 2.092734351754188538e-02 5.230195999145507812e+00 -1.166099756956100464e-01 1.868551731109619141e+00 -3.838966369628906250e+00 6.928748130798339844e+00 -2.009770572185516357e-01 -5.104762554168701172e+00 -5.737325668334960938e+00 -4.631540775299072266e+00 -2.477970123291015625e+00 -3.434268474578857422e+00 2.233385562896728516e+00 -1.532069325447082520e+00 -9.650781750679016113e-01 1.771807074546813965e+00 1.484916567802429199e+00 4.533058643341064453e+00
5.180526971817016602e-01 -1.870139241218566895e+00 -3.346467733383178711e+00 -2.073797941207885742e+00 4.404218196868896484e+00 -9.182313680648803711e-01 -2.366390466690063477e+00 7.253941059112548828e+00 -3.186271190643310547e+00 -4.436125278472900391e+00 7.404460757970809937e-02 4.809708118438720703e+00 -3.166999578475952148e+00 -4.750993728637695312e+00 -5.060483813285827637e-01 8.747494220733642578e-01 1.656533777713775635e-01 9.556902885437011719e+00 -3.908239603042602539e+00 -6.639820098876953125e+00 -4.592109203338623047e+00 -3.145078718662261963e-01 -4.074485778808593750e+00 1.257476806640625000e+00 4.934361457824707031e+00 2.681556701660156250e+00 -7.702470302581787109e+00 -7.249100685119628906e+00 -1.022671580314636230e+00 1.144773125648498535e+00
-7.788287162780761719e+00 2.335678040981292725e-01 2.419977426528930664e+00 2.388497591018676758e+00 9.496026635169982910e-01 -1.968281149864196777e+00 -4.197994232177734375e+00 1.017207741737365723e+00 -4.165844917297363281e+00 -8.225987434387207031e+00 -7.578607648611068726e-02 9.095418453216552734e-01 -3.306820631027221680e+00 2.404026240110397339e-01 8.591401100158691406e+00 5.866495132446289062e+00 4.270396232604980469e-01 6.130603790283203125e+00 1.484012305736541748e-01 -1.436964511871337891e+00 -9.600983262062072754e-01 -9.717264175415039062e-01 -2.530185937881469727e+00 -3.281868934631347656e+00 1.056088089942932129e+00 2.835527658462524414e+00 -7.390453338623046875e+00 1.410470485687255859e+00 -4.402563095092773438e+00 -3.334494829177856445e+00
6.883000135421752930e-01 -6.488534927368164062e+00 6.504513621330261230e-01 -2.390621662139892578e+00 -1.570473611354827881e-01 -3.880243778228759766e+00 -2.502367258071899414e+00 5.852074146270751953e+00 -5.040779113769531250e+00 -2.925701856613159180e+00 3.487715244293212891e+00 -4.861127853393554688e+00 -5.920483589172363281e+00 6.143411636352539062e+00 -1.160836338996887207e+00 -7.262999415397644043e-01 -3.809136152267456055e+00 3.276317119598388672e+00 5.324774265289306641e+00 6.514602899551391602e-01 -2.226858139038085938e+00 1.489475250244140625e+00 8.299119472503662109e-01 6.981290817260742188e+00 -4.372810840606689453e+00 -1.006590127944946289e+00 -8.282076835632324219e+00 2.975266218185424805e+00 -5.207356929779052734e+00 -6.920071840286254883e-01
-7.893571257591247559e-01 6.976356506347656250e-01 2.390015363693237305e+00 -7.213757038116455078e+00 -2.842778444290161133e+00 -1.770422220230102539e+00 -9.618090629577636719e+00 2.060016870498657227e+00 -8.909426689147949219e+00 -1.322009086608886719e+00 5.510365962982177734e+00 3.005358278751373291e-01 -8.147524833679199219e+00 2.578621149063110352e+00 2.292470335960388184e-01 1.542053341865539551e+00 -1.575436949729919434e+00 -2.676887273788452148e+00 -1.521649599075317383e+00 6.665981769561767578e+00 -5.412937641143798828e+00 3.705376088619232178e-01 -1.859474301338195801e+00 -1.882211118936538696e-01 3.434421777725219727e+00 -3.078200340270996094e+00 -5.969603538513183594e+00 1.165176630020141602e+00 4.400327682495117188e+00 6.399960517883300781e+00
-1.019112396240234375e+01 -7.692106366157531738e-01 -2.315296649932861328e+00 -5.231489658355712891e+00 9.362809062004089355e-01 -6.203178405761718750e+00 -8.017659187316894531e+00 6.653247833251953125e+00 -3.553573608398437500e+00 -3.515244722366333008e-01 3.528577566146850586e+00 1.450572133064270020e+00 -2.477398395538330078e+00 -5.615476608276367188e+00 5.661363601684570312e-01 -3.837809860706329346e-01 3.708713054656982422e+00 -1.364295601844787598e+00 3.894347667694091797e+00 -7.749854587018489838e-03 -4.538238525390625000e+00 3.672211170196533203e+00 -4.430178165435791016e+00 4.439472556114196777e-01 -1.321526408195495605e+00 1.094235330820083618e-01 3.695040568709373474e-02 2.982159852981567383e+00 1.725795865058898926e+00 3.189249515533447266e+00
1.035488724708557129e+00 6.211542487144470215e-01 3.389651536941528320e+00 -7.372074127197265625e+00 7.927086353302001953e-01 2.550062417984008789e+00 2.545359611511230469e+00 3.339019060134887695e+00 -3.592664957046508789e+00 -7.910552501678466797e+00 3.346871852874755859e+00 -4.417125701904296875e+00 -2.744904756546020508e+00 -3.930011749267578125e+00 7.172577381134033203e+00 -2.206580877304077148e+00 2.400765895843505859e+00 1.374793797731399536e-02 9.594075083732604980e-01 4.626110553741455078e+00 -3.426759958267211914e+00 -8.756828308105468750e+00 -6.610271930694580078e+00 3.164013862609863281e+00 -7.467178344726562500e+00 4.046535968780517578e+00 -2.262124776840209961e+00 -1.675889492034912109e+00 -1.613797247409820557e-01 -7.158318161964416504e-01
-5.169012069702148438e+00 -6.164913177490234375e+00 7.066302299499511719e-01 -1.653928756713867188e+00 -1.035837531089782715e+00 1.985661029815673828e+00 3.324264764785766602e+00 1.407313942909240723e+00 -6.216131687164306641e+00 -5.018551826477050781e+00 4.587239265441894531e+00 -4.484417915344238281e+00 -3.705919742584228516e+00 1.057091712951660156e+00 7.359375000000000000e+00 -5.108324527740478516e+00 7.292674481868743896e-02 -2.654388904571533203e+00 -1.246719248592853546e-02 -7.105880260467529297e+00 -1.046195030212402344e+00 -7.275906562805175781e+00 2.013204336166381836e+00 2.709537744522094727e+00 1.939277052879333496e+00 1.407849341630935669e-01 -1.149119257926940918e+00 -1.356091737747192383e+00 5.088128566741943359e+00 1.666869282722473145e+00
1.094234347343444824e+00 -6.345106124877929688e+00 1.505406141281127930e+00 -2.798705577850341797e+00 -4.963388741016387939e-01 -5.678969383239746094e+00 -5.381067752838134766e+00 3.693726301193237305e+00 -2.419632434844970703e+00 -2.918205499649047852e+00 7.680330276489257812e+00 -4.985476970672607422e+00 -1.938073873519897461e+00 8.375455856323242188e+00 1.598815917968750000e+00 -7.034412384033203125e+00 -5.019328594207763672e+00 4.658851146697998047e+00 5.026291608810424805e-01 -8.993139266967773438e+00 -2.939024448394775391e+00 -1.957053303718566895e+00 3.995033502578735352e-01 3.570405244827270508e-01 1.677974581718444824e+00 6.543678760528564453e+00 -1.234051704406738281e+00 -9.128738641738891602e-01 4.319787919521331787e-01 -3.763436794281005859e+00
-4.806869983673095703e+00 -9.381478309631347656e+00 7.085914015769958496e-01 -1.983314156532287598e+00 4.905003011226654053e-01 -5.638768672943115234e+00 -7.087718844413757324e-01 4.068906784057617188e+00 -8.468225002288818359e-01 -4.239068984985351562e+00 8.175796866416931152e-01 -1.493700265884399414e+00 -4.425690174102783203e+00 -4.938629627227783203e+00 -1.173085927963256836e+00 -4.194407463073730469e+00 1.120903849601745605e+00 3.180722236633300781e+00 1.081081199645996094e+01 9.600291252136230469e+00 -5.819978713989257812e+00 -1.718291044235229492e+00 -2.330173254013061523e+00 -3.896615266799926758e+00 -6.283549964427947998e-02 -1.048517465591430664e+00 2.773602008819580078e+00 -3.000700235366821289e+00 6.081835031509399414e-01 4.345036506652832031e+00
1.031341552734375000e+00 -3.769964694976806641e+00 -7.889722824096679688e+00 -4.153777599334716797e+00 5.402294635772705078e+00 -7.932567596435546875e-01 -6.648472309112548828e+00 3.543338775634765625e+00 -5.518777847290039062e+00 -2.444544136524200439e-01 -2.046673059463500977e+00 -9.535564184188842773e-01 -5.141648292541503906e+00 1.119398236274719238e+00 5.186624526977539062e+00 2.437748908996582031e+00 2.096605777740478516e+00 3.447042942047119141e+00 4.803034305572509766e+00 2.320502996444702148e+00 4.369390487670898438e+00 -5.405819892883300781e+00 -3.620004415512084961e+00 -8.082236289978027344e+00 -1.074953556060791016e+00 3.150974273681640625e+00 -2.824386596679687500e+00 1.114422082901000977e+00 -3.106653213500976562e+00 -1.139948010444641113e+00
-3.951658904552459717e-01 -5.185934305191040039e-01 3.668504238128662109e+00 2.143228769302368164e+00 -3.598157644271850586e+00 -4.738525390625000000e+00 -3.568748474121093750e+00 6.590302467346191406e+00 -3.919504880905151367e+00 -4.471956253051757812e+00 7.246183872222900391e+00 -5.502127647399902344e+00 -8.024440765380859375e+00 3.339768946170806885e-01 2.996716499328613281e+00 3.527842998504638672e+00 6.358368873596191406e+00 -2.262707203626632690e-01 3.699685811996459961e+00 -2.752462923526763916e-01 -4.951277256011962891e+00 -5.445538520812988281e+00 -3.133651316165924072e-01 3.220553636550903320e+00 -1.703314542770385742e+00 -8.243359565734863281e+00 -2.558295011520385742e+00 -2.044862270355224609e+00 -1.874108433723449707e+00 -2.479395866394042969e-01
1.331385374069213867e+00 -2.570431470870971680e+00 -1.996189951896667480e+00 -1.210654067993164062e+01 -1.480496972799301147e-01 4.491594433784484863e-01 -5.391315937042236328e+00 2.454882144927978516e+00 -4.373442649841308594e+00 -3.013052225112915039e+00 7.174196243286132812e+00 -3.610395789146423340e-01 -2.093964576721191406e+00 4.662591934204101562e+00 4.372452735900878906e+00 -2.572806596755981445e+00 -5.532881736755371094e+00 7.298219203948974609e+00 -2.815866708755493164e+00 7.707163333892822266e+00 -1.899184942245483398e+00 -6.748033523559570312e+00 -1.445481181144714355e+00 2.039462924003601074e-01 4.867863357067108154e-01 2.176627814769744873e-01 -4.959139347076416016e+00 -1.358310431241989136e-01 1.864621758460998535e+00 -1.898312091827392578e+00
-6.358882427215576172e+00 -7.172950267791748047e+00 2.703149616718292236e-02 -6.431632995605468750e+00 2.670660972595214844e+00 -7.689689636230468750e+00 -7.383722305297851562e+00 -1.837808966636657715e+00 2.946092367172241211e+00 -2.816754341125488281e+00 8.858469724655151367e-01 -2.466183662414550781e+00 -7.338634490966796875e+00 5.175333023071289062e+00 -2.578232526779174805e+00 -2.123715877532958984e+00 -3.160936832427978516e+00 7.836858272552490234e+00 -3.117570877075195312e-01 2.064992904663085938e+00 -1.587905526161193848e+00 3.784704685211181641e+00 -8.918050527572631836e-01 -8.469453454017639160e-02 1.689677834510803223e+00 3.089240312576293945e+00 -3.978958725929260254e-01 -3.767964124679565430e+00 4.639514446258544922e+00 4.116200447082519531e+00
-4.680142402648925781e+00 -4.880569458007812500e+00 -4.208732128143310547e+00 -7.734907627105712891e+00 -1.797351360321044922e+00 7.427481174468994141e+00 -7.020586729049682617e-01 6.031199455261230469e+00 -1.801807403564453125e+00 -8.862047195434570312e+00 4.407908320426940918e-01 8.620693683624267578e-01 2.978543519973754883e+00 2.022462487220764160e-01 3.484577655792236328e+00 -3.987386226654052734e+00 -1.071990374475717545e-02 6.846866130828857422e+00 -3.145438671112060547e+00 -2.158273011445999146e-01 -7.128586173057556152e-01 -6.713529109954833984e+00 -3.000193834304809570e+00 -4.423547536134719849e-02 4.636748731136322021e-01 -3.353047132492065430e+00 -4.134881019592285156e+00 6.568774700164794922e+00 3.797293305397033691e-01 8.101239204406738281e+00
1.061783075332641602e+00 -2.970923900604248047e+00 1.034670472145080566e+00 1.221001029014587402e+00 2.393589735031127930e+00 2.632478475570678711e-01 -8.526268959045410156e+00 5.940127849578857422e+00 -9.386812210083007812e+00 -7.462097644805908203e+00 5.337586998939514160e-01 -3.629619598388671875e+00 -2.977173805236816406e+00 8.969120383262634277e-01 2.113176584243774414e+00 -2.670560598373413086e+00 -8.435584902763366699e-01 -5.939393043518066406e-01 6.717552185058593750e+00 -5.321585655212402344e+00 -1.525058507919311523e+00 -4.201975822448730469e+00 -7.224335670471191406e-01 1.748199760913848877e-01 2.329547882080078125e+00 7.417218685150146484e+00 -1.864036440849304199e+00 -7.024980545043945312e+00 -1.054483771324157715e+00 4.527052402496337891e+00
3.917432427406311035e-01 -4.106442451477050781e+00 -5.004162788391113281e+00 3.113527536392211914e+00 3.436784744262695312e+00 -7.413858890533447266e+00 -4.153248310089111328e+00 5.742242813110351562e+00 -2.792673587799072266e+00 -8.015517234802246094e+00 4.620774269104003906e+00 -3.669160842895507812e+00 -7.278090000152587891e+00 3.735992014408111572e-01 3.156514167785644531e+00 4.778011143207550049e-01 -7.966103553771972656e+00 5.405616283416748047e+00 -4.135780334472656250e+00 4.567254066467285156e+00 -1.696797966957092285e+00 -6.762274265289306641e+00 -3.020530343055725098e-01 6.144667148590087891e+00 -6.631581783294677734e+00 2.430803537368774414e+00 6.967444717884063721e-02 4.682460784912109375e+00 -2.845765829086303711e+00 2.213928699493408203e+00
1.165159463882446289e+00 -4.735944271087646484e+00 -7.239282727241516113e-01 -3.703435182571411133e+00 5.215726375579833984e+00 4.805676937103271484e+00 -3.670520067214965820e+00 8.116991996765136719e+00 -2.926542043685913086e+00 -8.726784706115722656e+00 7.317718982696533203e+00 2.314625263214111328e+00 -4.443525791168212891e+00 -2.202775001525878906e+00 -2.438816785812377930e+00 -9.031314849853515625e-01 -4.694472312927246094e+00 -3.760499238967895508e+00 1.975288748741149902e+00 -2.586066007614135742e+00 -3.429630517959594727e+00 1.708135008811950684e+00 -1.453091651201248169e-01 8.103914260864257812e+00 -6.122844696044921875e+00 -3.186636209487915039e+00 -3.809718847274780273e+00 1.735333323478698730e+00 -5.468436717987060547e+00 6.843526959419250488e-01
8.531204462051391602e-01 -1.207225704193115234e+01 -3.068498134613037109e+00 -4.868610858917236328e+00 6.372076034545898438e+00 8.811433911323547363e-01 -5.029937267303466797e+00 1.494145512580871582e+00 4.484072327613830566e-01 -3.816632509231567383e+00 3.348645448684692383e+00 -6.889714241027832031e+00 -2.015029191970825195e+00 8.154577255249023438e+00 -6.525377035140991211e-01 4.656226158142089844e+00 1.339094281196594238e+00 -9.348777532577514648e-01 2.594210863113403320e+00 -1.452865839004516602e+00 -5.012940406799316406e+00 -6.632434844970703125e+00 -4.636257886886596680e-01 -1.837777256965637207e+00 -2.501876592636108398e+00 -1.189494848251342773e+00 3.324323415756225586e+00 -4.043149948120117188e+00 -8.956618905067443848e-01 4.019347190856933594e+00
-4.338039398193359375e+00 -7.107896804809570312e-01 -7.355447292327880859e+00 -4.868829548358917236e-01 2.187245368957519531e+00 3.871531486511230469e-01 8.875631690025329590e-01 2.504543066024780273e+00 -6.653546810150146484e+00 -1.651426672935485840e+00 2.832754611968994141e+00 -9.084056615829467773e-01 -6.407979965209960938e+00 -5.961986541748046875e+00 -1.068547725677490234e+00 -5.235677242279052734e+00 3.579250574111938477e+00 8.759762763977050781e+00 6.951291561126708984e+00 -3.490924596786499023e+00 -7.528137207031250000e+00 -1.262286663055419922e+00 -1.940530300140380859e+00 1.319738984107971191e+00 -6.357359886169433594e+00 -1.051786422729492188e+00 3.782975196838378906e+00 -1.080786228179931641e+00 4.011328697204589844e+00 2.678696870803833008e+00
-2.168096780776977539e+00 -1.148482799530029297e+00 5.159642100334167480e-01 3.739659786224365234e-01 5.072203159332275391e+00 -3.516838848590850830e-01 -5.342959880828857422e+00 4.433212757110595703e+00 -7.854112625122070312e+00 4.775366306304931641e+00 1.658894658088684082e+00 -2.053889751434326172e+00 -1.140824699401855469e+01 7.292278409004211426e-01 -6.990137696266174316e-02 1.396839141845703125e+00 4.225141525268554688e+00 1.273435711860656738e+00 -2.252882242202758789e+00 -3.824909925460815430e-01 -3.695029258728027344e+00 -9.108408927917480469e+00 5.340124607086181641e+00 -5.214182376861572266e+00 2.358947753906250000e+00 3.274412155151367188e+00 -5.503374099731445312e+00 -1.010825634002685547e+00 -4.652889072895050049e-01 5.397501468658447266e+00
-5.166045188903808594e+00 -3.941780567169189453e+00 -7.264754772186279297e+00 -5.454639434814453125e+00 -9.449371099472045898e-01 -2.302515983581542969e+00 -6.835410118103027344e+00 -1.974893361330032349e-01 8.451491594314575195e-01 -4.835933208465576172e+00 1.120582866668701172e+01 -1.528822660446166992e+00 -5.241086959838867188e+00 3.590003967285156250e+00 7.053529024124145508e-01 1.794193267822265625e+00 -1.283338665962219238e+00 3.437229394912719727e+00 3.364082574844360352e+00 -2.298842430114746094e+00 -2.458423674106597900e-01 -1.048260331153869629e+00 -3.533825397491455078e+00 -2.001630544662475586e+00 2.540673971176147461e+00 1.931487441062927246e+00 -5.275867938995361328e+00 -3.710412740707397461e+00 6.850015163421630859e+00 9.622632265090942383e-01
1.130304217338562012e+00 6.336166709661483765e-02 -3.059687614440917969e+00 -1.123033761978149414e+00 5.420443534851074219e+00 -4.574253082275390625e+00 -3.960461378097534180e+00 7.172790050506591797e+00 -1.635874986648559570e+00 -7.971238613128662109e+00 -2.495320081710815430e+00 1.054000973701477051e+00 -1.103949069976806641e+01 2.442841529846191406e+00 -1.041751146316528320e+00 -4.125936031341552734e+00 3.112914800643920898e+00 2.436965405941009521e-01 1.959752559661865234e+00 2.259701967239379883e+00 -4.119572639465332031e+00 1.767498999834060669e-01 -1.537402391433715820e+00 -5.169270992279052734e+00 3.870888233184814453e+00 -7.771049141883850098e-01 2.811267852783203125e+00 -2.121349573135375977e+00 -1.087402701377868652e+00 4.219736576080322266e+00
-1.106114768981933594e+01 -3.795065641403198242e+00 2.773454427719116211e+00 -3.533981084823608398e+00 1.349864125251770020e+00 -2.836470842361450195e+00 -4.818670749664306641e+00 3.019481658935546875e+00 -3.947937011718750000e+00 -5.187401294708251953e+00 3.966537952423095703e+00 -1.393341898918151855e+00 -4.825410842895507812e+00 -2.848135948181152344e+00 7.717330455780029297e-01 -1.815470933914184570e+00 -1.228002533316612244e-01 -8.964399099349975586e-01 9.590484619140625000e+00 -7.225034832954406738e-01 5.866433143615722656e+00 -1.210538029670715332e+00 8.058802485466003418e-01 4.464097976684570312e+00 3.351188659667968750e+00 -6.300976753234863281e+00 -1.383769869804382324e+00 -5.633499145507812500e+00 1.652748465538024902e+00 4.233922481536865234e+00
-9.843142509460449219e+00 -2.418411731719970703e+00 5.642597198486328125e+00 -5.894814968109130859e+00 1.870202064514160156e+00 -4.127523422241210938e+00 -2.862468957901000977e+00 5.045067787170410156e+00 2.435378074645996094e+00 -7.282370567321777344e+00 -7.312171459197998047e-01 2.669420719146728516e+00 -7.830149650573730469e+00 1.774379014968872070e+00 1.393251657485961914e+00 -7.539589405059814453e+00 1.272099494934082031e+00 1.171157479286193848e+00 2.545432806015014648e+00 5.694428682327270508e-01 -2.595115900039672852e+00 -4.607094764709472656e+00 1.649754494428634644e-02 1.557716846466064453e+00 -1.046620845794677734e+00 6.803693771362304688e-01 -5.598025798797607422e+00 3.554029941558837891e+00 4.327166080474853516e+00 1.567608475685119629e+00
-1.672752261161804199e+00 -4.111155986785888672e+00 -2.342647790908813477e+00 -4.402256011962890625e+00 6.797426700592041016e+00 -4.937684059143066406e+00 -2.540520668029785156e+00 9.003494262695312500e+00 3.189084768295288086e+00 -2.056171417236328125e+00 4.552939414978027344e+00 -6.229741096496582031e+00 -2.542131900787353516e+00 -5.647026300430297852e-01 2.856178283691406250e+00 -6.995099186897277832e-01 -5.836597442626953125e+00 4.209462165832519531e+00 7.378309369087219238e-01 -6.742812633514404297e+00 -7.883476257324218750e+00 2.720527350902557373e-01 2.671934366226196289e+00 -2.255144357681274414e+00 -9.542012214660644531e-01 -3.168150424957275391e+00 3.196972131729125977e+00 -3.935931205749511719e+00 -8.290240913629531860e-02 1.289596438407897949e+00
-6.924345970153808594e+00 -3.758678674697875977e+00 -5.641837596893310547e+00 3.784371018409729004e-01 -1.779298484325408936e-01 3.022367954254150391e+00 8.606372475624084473e-01 6.206349372863769531e+00 -2.485722064971923828e+00 -2.366570979356765747e-01 4.281977176666259766e+00 -6.014252662658691406e+00 -8.875702857971191406e+00 1.000015020370483398e+00 3.772631406784057617e+00 -5.340207815170288086e-01 3.288375139236450195e+00 3.952299594879150391e+00 4.938610196113586426e-01 -1.455128669738769531e+00 -1.838966250419616699e+00 -9.786876440048217773e-01 -7.868031024932861328e+00 3.289110422134399414e+00 1.279230594635009766e+00 1.389923840761184692e-01 2.919670939445495605e-01 -2.288628339767456055e+00 -9.251942634582519531e+00 3.719027042388916016e+00
-3.515136480331420898e+00 -2.846879243850708008e+00 1.347538471221923828e+00 -4.655144214630126953e+00 -1.960476040840148926e-01 -1.018467712402343750e+01 -4.609931945800781250e+00 2.190814256668090820e+00 -2.611456632614135742e+00 -3.014794349670410156e+00 3.624093294143676758e+00 7.989109516143798828e+00 -4.789442062377929688e+00 -6.288508176803588867e-01 6.692024230957031250e+00 -2.231510400772094727e+00 -1.800965309143066406e+00 7.852483987808227539e-01 -3.226219654083251953e+00 -1.930024385452270508e+00 -9.435418248176574707e-02 -5.173261165618896484e+00 6.923965811729431152e-01 3.951693058013916016e+00 -4.083473205566406250e+00 4.191013336181640625e+00 -2.992950677871704102e+00 -3.882817983627319336e+00 1.214772462844848633e+00 6.530654430389404297e+00
3.927409648895263672e+00 -6.058572292327880859e+00 4.490520000457763672e+00 -8.577982902526855469e+00 -3.671054124832153320e+00 -4.052924156188964844e+00 -8.739868164062500000e+00 7.831200122833251953e+00 7.102961540222167969e+00 -1.581100583076477051e+00 2.253065824508666992e+00 -2.850599765777587891e+00 -4.107602119445800781e+00 -3.353799343109130859e+00 4.333159923553466797e+00 -3.993660449981689453e+00 3.093800306320190430e+00 -1.190988421440124512e+00 -3.750793218612670898e+00 2.398043394088745117e+00 -2.123768806457519531e+00 -2.213369131088256836e+00 -4.161860942840576172e+00 7.891820669174194336e-01 -1.322390198707580566e+00 3.986323356628417969e+00 4.409426450729370117e-01 -2.546481847763061523e+00 -4.918873310089111328e+00 2.848461627960205078e+00
-1.100017309188842773e+00 -5.499104857444763184e-01 -9.685354232788085938e-01 -6.332966327667236328e+00 -3.216363191604614258e+00 -7.793149352073669434e-01 -4.539435386657714844e+00 4.606354713439941406e+00 -2.617334723472595215e-01 -4.125745296478271484e+00 -3.025968790054321289e+00 -5.741804599761962891e+00 -9.319282531738281250e+00 -2.200388669967651367e+00 -1.053748130798339844e+00 -4.749881923198699951e-01 4.384292602539062500e+00 2.264738321304321289e+00 1.834762454032897949e+00 -2.458796977996826172e+00 -9.854523658752441406e+00 -5.012608528137207031e+00 5.064470767974853516e+00 3.272927522659301758e+00 6.586911201477050781e+00 5.774882793426513672e+00 -2.677187681198120117e+00 1.192454934120178223e+00 1.253121614456176758e+00 2.363363027572631836e+00
4.313371777534484863e-01 -7.106701850891113281e+00 4.109749197959899902e-01 -5.104005813598632812e+00 5.085632324218750000e+00 -3.235328435897827148e+00 4.853317260742187500e+00 5.881699085235595703e+00 -6.717700004577636719e+00 -6.536912918090820312e+00 5.298681855201721191e-01 2.145482778549194336e+00 -4.897124767303466797e+00 -4.077877998352050781e+00 -3.337803840637207031e+00 4.214331626892089844e+00 -4.539145946502685547e+00 2.437999486923217773e+00 5.929126739501953125e+00 -6.312022686004638672e+00 -3.859333992004394531e+00 -6.843537688255310059e-01 2.052563190460205078e+00 2.559310913085937500e+00 2.622728109359741211e+00 2.549443006515502930e+00 -6.240213871002197266e+00 -1.330632209777832031e+00 -2.546506404876708984e+00 2.381148785352706909e-01
1.660825729370117188e+00 -8.059656023979187012e-01 -5.569378733634948730e-01 4.213523566722869873e-01 3.854732990264892578e+00 3.142394065856933594e+00 -9.480956077575683594e+00 1.366311430931091309e+00 -7.544844627380371094e+00 -5.242326259613037109e+00 7.139287948608398438e+00 -8.189364433288574219e+00 -3.189697027206420898e+00 -4.935071945190429688e+00 8.369793891906738281e-01 -6.050308704376220703e+00 -2.089451789855957031e+00 1.182607841491699219e+01 2.255228281021118164e+00 -2.298415422439575195e+00 -2.014400482177734375e+00 2.674392461776733398e-01 -1.309976130723953247e-01 -3.512962579727172852e+00 -4.757907867431640625e+00 5.307317733764648438e+00 8.534758687019348145e-01 1.996727585792541504e+00 1.797919034957885742e+00 -7.636081576347351074e-01
-3.139095306396484375e+00 2.669730186462402344e+00 -7.392069697380065918e-01 -8.456189155578613281e+00 -1.716680765151977539e+00 -8.279553651809692383e-01 -1.973954558372497559e+00 8.433757781982421875e+00 9.084511995315551758e-01 5.305796489119529724e-02 -8.765833973884582520e-01 -5.539793491363525391e+00 -9.252021789550781250e+00 4.491498947143554688e+00 1.752890586853027344e+00 4.773494973778724670e-02 -4.943061351776123047e+00 7.086558341979980469e-01 -6.586392521858215332e-01 -3.794780015945434570e+00 -2.126105785369873047e+00 -2.340449571609497070e+00 -8.202820420265197754e-01 1.547179102897644043e+00 -4.793591022491455078e+00 1.226297140121459961e+00 -2.683646678924560547e+00 4.020412445068359375e+00 3.644827127456665039e+00 4.191290855407714844e+00
6.194985389709472656e+00 -8.227541297674179077e-02 -2.351217269897460938e+00 -6.369289755821228027e-01 4.705579757690429688e+00 -1.045137977600097656e+01 -5.159874916076660156e+00 2.853738784790039062e+00 -7.399344921112060547e+00 -7.768037915229797363e-01 1.782352924346923828e+00 -9.714923858642578125e+00 -6.109746456146240234e+00 2.260279655456542969e+00 5.202832698822021484e+00 -4.943613708019256592e-01 4.319966316223144531e+00 5.507162213325500488e-01 1.964246332645416260e-01 -1.037929296493530273e+00 2.768047153949737549e-02 -5.821738243103027344e+00 -2.458083391189575195e+00 -1.248991936445236206e-01 1.394798308610916138e-01 -5.796728134155273438e+00 -1.917610406875610352e+00 1.196399569511413574e+00 3.742363452911376953e+00 1.754147529602050781e+00
-1.463810205459594727e+00 1.100402593612670898e+00 4.667261540889739990e-01 -3.178702354431152344e+00 2.194444894790649414e+00 -2.376831293106079102e+00 -4.040564537048339844e+00 1.076973533630371094e+01 -8.975726127624511719e+00 -5.097408294677734375e+00 -1.217258214950561523e+00 9.785093069076538086e-01 -1.071730971336364746e+00 8.586001396179199219e+00 -2.631403684616088867e+00 -5.030821323394775391e+00 -8.041806817054748535e-01 5.938852787017822266e+00 2.361459732055664062e+00 -1.579289793968200684e+00 -2.574177503585815430e+00 -5.185589790344238281e+00 -5.535410881042480469e+00 -1.462057590484619141e+00 -5.649447441101074219e+00 3.890804290771484375e+00 -1.367995023727416992e+00 -2.771799087524414062e+00 -8.300304412841796875e-02 2.875841557979583740e-01
-3.258688449859619141e+00 -2.048370599746704102e+00 1.669948935508728027e+00 -1.659583687782287598e+00 -2.969997644424438477e+00 1.301881194114685059e+00 -2.660374164581298828e+00 3.236314058303833008e+00 -3.924336910247802734e+00 -7.710236549377441406e+00 1.396490693092346191e+00 -3.190271615982055664e+00 -6.802376270294189453e+00 -1.134276390075683594e+00 4.397288799285888672e+00 -4.158290386199951172e+00 5.305202484130859375e+00 3.459366321563720703e+00 -8.560075759887695312e-01 -4.641046524047851562e+00 -4.094309806823730469e+00 2.526667833328247070e+00 -7.289407253265380859e+00 -2.071522474288940430e+00 -4.472718715667724609e+00 3.029381990432739258e+00 3.717935323715209961e+00 3.630504906177520752e-01 -1.268258690834045410e+00 9.891590118408203125e+00
1.901718527078628540e-01 -3.758098125457763672e+00 5.905297279357910156e+00 -7.967356204986572266e+00 4.075577735900878906e+00 -4.110711216926574707e-01 -2.542571544647216797e+00 5.991469383239746094e+00 -2.956763029098510742e+00 -6.083482742309570312e+00 -1.218298435211181641e+00 -2.352174997329711914e+00 -5.221650600433349609e+00 3.158109664916992188e+00 2.034314632415771484e+00 5.286929130554199219e+00 -8.105465769767761230e-01 2.635792255401611328e+00 -3.586125075817108154e-01 -2.403684854507446289e+00 -1.294625043869018555e+00 -5.465672016143798828e+00 -6.391876339912414551e-01 -5.500515460968017578e+00 -4.935419559478759766e+00 -1.207257151603698730e+00 -2.184659481048583984e+00 -5.804159164428710938e+00 6.500329494476318359e+00 4.718970775604248047e+00
-2.564798355102539062e+00 8.333929181098937988e-01 -5.002685546875000000e+00 -9.774442911148071289e-01 -5.223366260528564453e+00 -6.386712074279785156e+00 -1.767793178558349609e+00 4.412689208984375000e+00 -4.962942600250244141e+00 -9.462603569030761719e+00 5.043944358825683594e+00 -1.705097436904907227e+00 -5.823076248168945312e+00 2.926474571228027344e+00 9.312259674072265625e+00 -2.945764660835266113e-01 6.900451779365539551e-01 5.612595081329345703e-01 3.831270933151245117e+00 -4.653527259826660156e+00 -1.229606032371520996e+00 6.883409339934587479e-03 6.720951080322265625e+00 -2.819816350936889648e+00 -3.747854948043823242e+00 -3.260137796401977539e+00 -1.142856359481811523e+00 -3.983331620693206787e-01 3.639851808547973633e+00 -1.382378458976745605e+00
-3.913248777389526367e+00 -8.841539382934570312e+00 -5.813099741935729980e-01 -5.278075933456420898e-01 -1.192180514335632324e+00 -2.140059471130371094e+00 -6.664689064025878906e+00 1.728347897529602051e+00 6.871089339256286621e-01 -2.939193010330200195e+00 6.813015937805175781e-01 -1.724097251892089844e+00 -3.020204067230224609e+00 1.427349209785461426e+00 -1.913694262504577637e+00 5.543260574340820312e+00 5.246785640716552734e+00 6.974864006042480469e+00 -2.988136112689971924e-01 1.889014720916748047e+00 -5.389922142028808594e+00 -4.461421012878417969e+00 -2.658938802778720856e-02 5.947468757629394531e+00 -4.604583263397216797e+00 -2.748686075210571289e+00 -1.063303089141845703e+01 -9.654211401939392090e-01 3.918075561523437500e+00 4.179587364196777344e+00
-3.576936483383178711e+00 5.250179767608642578e-01 1.896286964416503906e+00 -3.471998691558837891e+00 3.593420743942260742e+00 -2.582605600357055664e+00 -8.802961349487304688e+00 1.008061218261718750e+01 -7.324732780456542969e+00 3.108335256576538086e+00 -1.649348616600036621e+00 -8.490402698516845703e-01 3.864348232746124268e-01 2.036525249481201172e+00 1.602895259857177734e+00 -2.905430316925048828e+00 -1.384096622467041016e+00 5.052019953727722168e-01 5.500815391540527344e+00 3.987616062164306641e+00 -9.888162612915039062e+00 -9.744046330451965332e-01 9.549363702535629272e-02 7.144154548645019531e+00 -3.575781822204589844e+00 -1.490453839302062988e+00 -4.956575870513916016e+00 -6.017876148223876953e+00 1.331681847572326660e+00 -4.155696868896484375e+00
1.226315498352050781e+00 1.615617990493774414e+00 -2.507277429103851318e-01 -6.427939891815185547e+00 -3.894932508468627930e+00 -1.854118943214416504e+00 -4.087717056274414062e+00 6.644297122955322266e+00 -3.881534814834594727e+00 -5.175000667572021484e+00 1.989106774330139160e+00 1.384710431098937988e+00 -9.653489112854003906e+00 4.721558094024658203e+00 2.956709861755371094e+00 3.705807402729988098e-02 3.819338977336883545e-01 1.779466986656188965e+00 1.024876356124877930e+00 -3.290101051330566406e+00 -3.563227415084838867e+00 -2.143580913543701172e+00 9.027030944824218750e+00 -1.902693867683410645e+00 5.426854610443115234e+00 -4.212420940399169922e+00 -5.130047321319580078e+00 -3.284377098083496094e+00 -4.002456188201904297e+00 1.334239602088928223e+00
-5.881601333618164062e+00 -5.539665222167968750e+00 -3.437628746032714844e+00 7.667044997215270996e-01 3.470236063003540039e+00 1.504797339439392090e+00 -6.106304168701171875e+00 7.005679607391357422e+00 8.385141491889953613e-01 -4.279597759246826172e+00 3.914320945739746094e+00 -3.326309442520141602e+00 1.143760159611701965e-01 -4.286509037017822266e+00 7.644295215606689453e+00 -2.985877096652984619e-01 -2.212074279785156250e+00 3.510713338851928711e+00 -1.561057567596435547e+00 -3.907541751861572266e+00 -2.156133413314819336e+00 -6.200241565704345703e+00 -5.046786308288574219e+00 -3.852647304534912109e+00 2.437008619308471680e+00 -1.024778485298156738e+00 3.060925960540771484e+00 -5.478377819061279297e+00 6.911741733551025391e+00 3.452205285429954529e-02
2.467017889022827148e+00 -4.940261363983154297e+00 -4.070343971252441406e+00 -4.307059764862060547e+00 4.688487529754638672e+00 -9.174118041992187500e-01 -2.875129222869873047e+00 7.011967182159423828e+00 1.534836590290069580e-01 -1.025690287351608276e-01 2.199474811553955078e+00 -2.277732849121093750e+00 -6.468857288360595703e+00 4.316370487213134766e+00 -2.323146820068359375e+00 -3.569928884506225586e+00 6.936951637268066406e+00 -4.285573661327362061e-01 8.337760925292968750e+00 8.491945862770080566e-01 -4.498436674475669861e-02 -7.625437736511230469e+00 -3.218288183212280273e+00 -4.535568714141845703e+00 -6.449983119964599609e+00 2.583432912826538086e+00 -8.325436592102050781e+00 -4.331746101379394531e+00 2.526209592819213867e+00 -1.502719759941101074e+00
-3.897799253463745117e+00 -5.170627593994140625e+00 2.026557922363281250e+00 -7.887520790100097656e+00 6.079761028289794922e+00 2.456499099731445312e+00 -1.934407353401184082e+00 3.530858457088470459e-01 -3.972460508346557617e+00 -3.604164123535156250e+00 8.264083862304687500e+00 -1.123319625854492188e+00 -3.869735240936279297e+00 4.779351711273193359e+00 1.301006376743316650e-01 2.554508447647094727e+00 7.131032347679138184e-01 -2.835427522659301758e+00 -8.288195133209228516e-01 1.780847668647766113e+00 -1.054350471496582031e+01 1.862036108970642090e+00 3.202749490737915039e+00 -7.360391616821289062e-01 -3.590845584869384766e+00 1.874266147613525391e+00 1.893433928489685059e+00 -3.593974590301513672e+00 -4.390530586242675781e+00 -8.105211853981018066e-01
-5.086532831192016602e-01 2.677668333053588867e-01 3.801119565963745117e+00 -1.630491018295288086e+00 4.895302772521972656e+00 -4.884761810302734375e+00 -3.313302040100097656e+00 9.252355992794036865e-02 -1.324674129486083984e+00 2.933915376663208008e+00 3.254062652587890625e+00 -3.155426502227783203e+00 -6.286520957946777344e+00 -3.660480499267578125e+00 -1.475166440010070801e+00 -8.254322052001953125e+00 -3.842562437057495117e+00 5.099241733551025391e+00 -1.568452000617980957e+00 2.265206098556518555e+00 -5.201623916625976562e+00 -8.994851112365722656e+00 -8.163673281669616699e-01 4.657948970794677734e+00 2.362230062484741211e+00 2.030532121658325195e+00 -3.223861455917358398e+00 -1.260495066642761230e+00 1.474134922027587891e+00 4.285482883453369141e+00
2.274426698684692383e+00 -2.690620183944702148e+00 2.624008893966674805e+00 7.791532874107360840e-01 -4.201586246490478516e+00 -2.748189926147460938e+00 -2.300600767135620117e+00 -2.206323623657226562e+00 3.153810977935791016e+00 -1.001437759399414062e+01 -7.405895233154296875e+00 -2.701964378356933594e+00 -1.002653017640113831e-01 -4.440843105316162109e+00 6.715829372406005859e-01 -1.429945111274719238e+00 1.672560721635818481e-01 -6.639021635055541992e-01 -1.720263242721557617e+00 4.794515609741210938e+00 3.426728010177612305e+00 4.040274620056152344e+00 4.720324516296386719e+00 1.387325882911682129e+00 3.194008111953735352e+00 -7.124949693679809570e-01 -6.013780593872070312e+00 2.181598663330078125e+00 -2.414841890335083008e+00 -3.190448045730590820e+00
3.120171308517456055e+00 -1.453844904899597168e+00 -4.423716545104980469e+00 2.809642791748046875e+00 -7.406458854675292969e-01 -3.252311468124389648e+00 -4.832893013954162598e-01 -5.507529258728027344e+00 -1.188560843467712402e+00 -5.458591461181640625e+00 -2.196703195571899414e+00 -6.850193500518798828e+00 4.776588439941406250e+00 2.215856552124023438e+00 -2.993294477462768555e+00 1.928946614265441895e+00 -4.529370307922363281e+00 1.178720593452453613e+00 -4.949090480804443359e+00 7.389438152313232422e+00 -5.193077087402343750e+00 2.358584642410278320e+00 -2.068036794662475586e+00 8.982383728027343750e+00 -3.013255596160888672e+00 -3.146525144577026367e+00 7.652235627174377441e-01 6.090943813323974609e+00 -6.078524112701416016e+00 -1.720036983489990234e+00
3.866521641612052917e-02 -1.415901899337768555e+00 -8.054201602935791016e-01 7.978413581848144531e+00 -3.275716543197631836e+00 -3.934255599975585938e+00 -9.727189064025878906e+00 -2.782658338546752930e+00 -4.568026959896087646e-01 3.941629171371459961e+00 -3.669440984725952148e+00 -4.453102588653564453e+00 7.817233800888061523e-01 9.170348942279815674e-02 -3.181035995483398438e+00 2.562927961349487305e+00 -1.555171728134155273e+00 -8.476997375488281250e+00 -7.462618350982666016e+00 -1.649375200271606445e+00 1.216565132141113281e+00 1.172846853733062744e-01 7.402023792266845703e+00 3.677782297134399414e+00 -3.212576866149902344e+00 2.715570926666259766e+00 -3.713831186294555664e+00 7.569018840789794922e+00 -3.933763802051544189e-01 -1.920135378837585449e+00
1.508722901344299316e+00 -3.206029415130615234e+00 -5.885126590728759766e+00 5.976815223693847656e-01 -3.502329826354980469e+00 -6.003848075866699219e+00 -9.840538024902343750e+00 1.691722311079502106e-02 -6.223714828491210938e+00 -2.240648269653320312e-01 -6.360477924346923828e+00 -3.430122375488281250e+00 3.220187664031982422e+00 3.754498004913330078e+00 -4.684511184692382812e+00 -2.773216009140014648e+00 6.511514782905578613e-01 5.026219367980957031e+00 -5.737249851226806641e+00 4.939738750457763672e+00 1.874167799949645996e+00 2.824039459228515625e+00 1.455494284629821777e+00 4.051975309848785400e-01 6.052080631256103516e+00 -7.111083865165710449e-01 4.543137550354003906e+00 -2.521413326263427734e+00 -1.096870660781860352e+00 -1.191183105111122131e-01
2.457772493362426758e+00 3.123702287673950195e+00 1.929152846336364746e+00 2.915853500366210938e+00 -1.293082523345947266e+01 1.694558262825012207e+00 -3.675054550170898438e+00 -1.072113066911697388e-01 -6.504034519195556641e+00 -3.506582021713256836e+00 -1.208334803581237793e+00 -3.419570922851562500e+00 6.249595642089843750e+00 -2.169018030166625977e+00 -3.869060993194580078e+00 1.821531295776367188e+00 -4.050480365753173828e+00 5.319988131523132324e-01 -6.121332049369812012e-01 -3.588034868240356445e+00 7.380459904670715332e-01 -1.766908049583435059e+00 2.769897699356079102e+00 7.166823863983154297e+00 3.065712451934814453e+00 -1.713299393653869629e+00 -2.523097276687622070e+00 3.725146353244781494e-01 -2.218045711517333984e+00 -6.186765670776367188e+00
3.152563571929931641e+00 -6.500679016113281250e+00 5.634157180786132812e+00 -6.546800136566162109e-01 -2.345691204071044922e+00 -7.031230449676513672e+00 -2.333060264587402344e+00 5.376231670379638672e-01 -3.575425148010253906e-01 -2.866319417953491211e+00 -6.141530990600585938e+00 3.519409418106079102e+00 -1.590619564056396484e+00 -4.141960144042968750e+00 -4.680242061614990234e+00 3.887749910354614258e+00 -5.088706970214843750e+00 -6.970373153686523438e+00 -4.537205696105957031e+00 2.830306529998779297e+00 4.597588539123535156e+00 1.140636086463928223e+00 -3.648579359054565430e+00 2.024424076080322266e+00 5.054463386535644531e+00 8.838218450546264648e-01 3.067085504531860352e+00 8.119442462921142578e-01 -4.785063743591308594e+00 2.022724628448486328e+00
1.982968449592590332e-01 -1.780396580696105957e+00 -2.783078432083129883e+00 2.024095296859741211e+00 -7.484325408935546875e+00 -2.155292034149169922e+00 -1.180175304412841797e+01 -9.624958038330078125e-01 1.482377171516418457e+00 -2.879964113235473633e+00 -4.722054004669189453e+00 -6.092269897460937500e+00 4.372524738311767578e+00 -9.175075888633728027e-01 -4.324711322784423828e+00 1.736688911914825439e-01 -3.945891380310058594e+00 1.532009840011596680e+00 1.513004183769226074e+00 -1.830721855163574219e+00 -2.285670518875122070e+00 3.598901510238647461e+00 5.326334953308105469e+00 -4.935243606567382812e+00 7.516849517822265625e+00 2.450325012207031250e+00 3.897416353225708008e+00 1.221409797668457031e+00 -6.647631168365478516e+00 5.703655719757080078e+00
-6.038779258728027344e+00 -5.697497367858886719e+00 -4.405036926269531250e+00 -3.572968542575836182e-01 -7.517414093017578125e+00 -3.822065353393554688e+00 -5.280515193939208984e+00 4.134147644042968750e+00 4.001575946807861328e+00 -3.086244344711303711e+00 1.779956072568893433e-01 -5.047657489776611328e+00 7.682219505310058594e+00 -4.637156963348388672e+00 -2.037146568298339844e+00 1.150353848934173584e-01 2.305252075195312500e+00 -4.239421844482421875e+00 -3.155209779739379883e+00 -5.490924835205078125e+00 2.838864803314208984e+00 -6.287998557090759277e-01 5.025045871734619141e+00 -1.014721155166625977e+00 4.278305530548095703e+00 6.674433231353759766e+00 3.203793287277221680e+00 1.949378609657287598e+00 -2.122375965118408203e+00 -2.652030706405639648e+00
4.981011748313903809e-01 8.330472111701965332e-01 -1.993275761604309082e+00 4.211327552795410156e+00 -6.460840702056884766e-01 -9.860379219055175781e+00 -8.687685132026672363e-01 2.855132818222045898e-01 -2.624136686325073242e+00 -5.674339771270751953e+00 -6.976853847503662109e+00 -2.742767572402954102e+00 2.497072458267211914e+00 -1.129446315765380859e+01 -1.968111991882324219e-01 1.056316018104553223e+00 -6.004603385925292969e+00 -6.412966251373291016e-01 1.521850824356079102e+00 4.737543106079101562e+00 1.412346482276916504e+00 4.223861694335937500e+00 3.291401267051696777e-01 3.066193580627441406e+00 2.337344169616699219e+00 -5.455042049288749695e-02 1.239382252097129822e-01 9.890631437301635742e-01 -3.944754362106323242e+00 8.239007949829101562e+00
5.941870212554931641e+00 -7.247156143188476562e+00 1.302050709724426270e+00 2.167508125305175781e+00 -6.432205677032470703e+00 -9.458010673522949219e+00 -6.231405258178710938e+00 -3.285952568054199219e+00 1.596693694591522217e-01 7.439414262771606445e-01 -4.907402992248535156e+00 -7.155690193176269531e+00 4.320412635803222656e+00 3.424134254455566406e+00 5.662402629852294922e+00 1.469640612602233887e+00 -2.073958873748779297e+00 -2.732223033905029297e+00 -4.605958238244056702e-02 -1.430927753448486328e+00 1.471857070922851562e+00 -3.698320627212524414e+00 2.914391040802001953e+00 6.028146147727966309e-01 8.434578180313110352e-01 -3.161358460783958435e-02 6.006932258605957031e+00 2.229250967502593994e-01 3.619380891323089600e-01 -6.722305774688720703e+00
