5.065488815307617188e+00
-2.149901962280273438e+01
-6.271317481994628906e+00
-3.658221435546875000e+01
-1.143284320831298828e+00
-2.927564048767089844e+01
-4.469944834709167480e-01
4.076521873474121094e+00
5.830340385437011719e+00
-2.201783180236816406e+01
1.839898300170898438e+01
6.171693801879882812e+00
3.548697948455810547e+00
1.735439682006835938e+01
9.202293157577514648e-01
9.796022415161132812e+00
1.606631851196289062e+01
2.092202186584472656e+00
1.684142827987670898e+00
7.712473869323730469e+00
-5.808447265625000000e+01
-2.129068565368652344e+01
-5.183845520019531250e+01
-5.559689712524414062e+01
-9.933657646179199219e+00
-4.158275604248046875e+01
-4.663575363159179688e+01
-8.869490623474121094e+00
-6.953800201416015625e+01
-7.291953277587890625e+01
-6.140018463134765625e+00
-3.347034835815429688e+01
-9.010858535766601562e+00
-1.529428577423095703e+01
-2.426557540893554688e+01
-5.310235214233398438e+01
-7.526349544525146484e+00
-1.614955711364746094e+01
-5.505381584167480469e+00
-4.034916877746582031e+00
-7.089270782470703125e+01
-6.505741882324218750e+01
-1.437610721588134766e+01
-6.856137847900390625e+01
-5.423823928833007812e+01
-5.047578811645507812e+01
-9.743108749389648438e+00
-4.563410186767578125e+01
-4.654619598388671875e+01
-3.232997512817382812e+01
