-7.131199359893798828e+00
-2.727055549621582031e+00
-1.045907688140869141e+01
-1.193635177612304688e+01
-1.694611358642578125e+01
-2.709549903869628906e+00
-8.404300689697265625e+00
1.021641159057617188e+01
-4.838151931762695312e+01
-2.758213043212890625e+01
6.767723083496093750e+00
-4.045681381225585938e+01
-2.890513801574707031e+01
-9.457125663757324219e+00
-1.665204620361328125e+01
1.312967491149902344e+01
1.278150272369384766e+01
1.587908363342285156e+01
-7.217317104339599609e+00
-1.350450420379638672e+01
-1.820396041870117188e+01
2.671462440490722656e+01
-1.006628131866455078e+01
-3.011546897888183594e+01
-1.359705448150634766e+01
-1.998424148559570312e+01
-2.095077133178710938e+01
-4.135919570922851562e+01
-4.644155120849609375e+01
-3.760507822036743164e+00
8.502538681030273438e+00
-1.746840286254882812e+01
-2.648205757141113281e+01
-7.174335122108459473e-01
-2.285010337829589844e+01
-2.947134208679199219e+01
1.202273654937744141e+01
-4.762286376953125000e+01
-4.264469146728515625e+00
-2.323228454589843750e+01
2.614669799804687500e+00
1.312951660156250000e+01
-1.169068050384521484e+01
-6.862448692321777344e+00
-1.960738563537597656e+01
-2.072741889953613281e+01
-1.565032863616943359e+01
-1.377776908874511719e+01
-5.655753612518310547e-01
2.900964498519897461e+00
