1.332416725158691406e+01
1.390009307861328125e+01
5.075292289257049561e-02
4.396540641784667969e+00
1.484129786491394043e+00
2.594347000122070312e+00
3.854832410812377930e+00
-5.775475502014160156e+00
-6.017657279968261719e+00
-3.649363994598388672e+00
-1.411403656005859375e+01
-9.173264503479003906e+00
-2.785941886901855469e+01
-3.020826530456542969e+01
-7.421264648437500000e+01
-1.625415420532226562e+01
-7.086087799072265625e+01
-1.468550872802734375e+01
-8.109168243408203125e+01
-6.568219757080078125e+01
-3.315903472900390625e+01
-3.925177383422851562e+01
-7.420286560058593750e+01
-5.157402038574218750e+00
-4.211999511718750000e+01
-6.030819416046142578e+00
-5.339659500122070312e+01
-2.548656272888183594e+01
-6.259030818939208984e+00
-2.603322410583496094e+01
-1.869582366943359375e+01
-5.092546844482421875e+01
-2.698066520690917969e+01
-1.661242103576660156e+01
-5.175528335571289062e+01
-5.597907257080078125e+01
-2.510788536071777344e+01
-4.069531631469726562e+01
-5.602261352539062500e+01
-3.586002349853515625e+01
9.128659248352050781e+00
4.792696535587310791e-01
-4.681036174297332764e-01
8.156035423278808594e+00
1.783687591552734375e+01
1.014638662338256836e+00
2.087493419647216797e+00
4.435307025909423828e+00
1.662301445007324219e+01
-5.674098968505859375e+00
