-8.549690842628479004e-01 -8.903515934944152832e-01 -2.418978691101074219e+00 6.100790500640869141e-01 2.188640356063842773e+00 2.430058002471923828e+00 -1.190676450729370117e+00 -1.790736019611358643e-01 -7.539157271385192871e-01 -2.447644472122192383e-01 -1.302577257156372070e+00 1.049409389495849609e+00 5.683016777038574219e-01 6.781759858131408691e-01 8.569286465644836426e-01 3.009825468063354492e+00 3.794285058975219727e-01 2.111755132675170898e+00 2.564659118652343750e-01 1.203832268714904785e+00 6.320921778678894043e-01 -4.968324303627014160e-01 -1.647079467773437500e+00 -1.652351140975952148e+00 8.510714769363403320e-01 1.026842594146728516e+00 -1.574294418096542358e-01 -6.948297023773193359e-01 2.610817193984985352e+00 1.719485968351364136e-01 -2.821601368486881256e-02 1.075287699699401855e+00 -2.407802104949951172e+00 -7.840861678123474121e-01 -1.679372906684875488e+00 -7.268530130386352539e-01 1.387670040130615234e+00 -1.076449394226074219e+00 -1.716100335121154785e+00 3.540804386138916016e-01 -2.039334774017333984e+00 -5.834614038467407227e-01 -1.102423071861267090e+00 -1.108284354209899902e+00 1.438375353813171387e+00 3.580754995346069336e-01 -4.476725459098815918e-01 2.015195608139038086e+00 1.820072233676910400e-01 -5.724536180496215820e-01
1.710277497768402100e-01 -2.011908292770385742e+00 1.498460650444030762e+00 -2.155046224594116211e+00 -4.088259935379028320e-01 -1.055378675460815430e+00 -3.043154954910278320e+00 6.579591035842895508e-01 1.664642572402954102e+00 -1.103026986122131348e+00 2.336778163909912109e+00 2.667394876480102539e+00 -2.596245288848876953e+00 4.381721019744873047e-01 1.908495783805847168e+00 -6.075236797332763672e-01 5.872733145952224731e-02 -4.262714982032775879e-01 1.480952262878417969e+00 6.178634166717529297e-01 -6.067200303077697754e-01 8.735241293907165527e-01 1.386249899864196777e+00 -2.131940126419067383e+00 2.156702756881713867e+00 -2.110993623733520508e+00 3.724344670772552490e-01 2.180370807647705078e+00 -1.044875264167785645e+00 1.946700811386108398e+00 9.313141554594039917e-02 1.632790684700012207e+00 -5.336523056030273438e-01 1.708606600761413574e+00 1.140601992607116699e+00 -1.552790284156799316e+00 -1.544867277145385742e+00 7.597211599349975586e-01 -2.532483816146850586e+00 2.373219966888427734e+00 -1.604905426502227783e-01 6.565114259719848633e-01 -1.689445614814758301e+00 1.770220756530761719e+00 -6.137045100331306458e-02 -2.208738088607788086e+00 -2.264742612838745117e+00 1.143288016319274902e+00 -2.681645631790161133e+00 1.787896752357482910e+00
1.705518126487731934e+00 -2.194438457489013672e+00 1.141878962516784668e+00 -1.016563773155212402e-01 2.764437675476074219e+00 -5.709111690521240234e-01 1.240569576621055603e-01 1.638400197029113770e+00 -1.476232051849365234e+00 4.557009339332580566e-01 -2.273502349853515625e+00 2.523383140563964844e+00 -1.257643550634384155e-01 -1.810976386070251465e+00 -1.187543630599975586e+00 -6.880081295967102051e-01 -5.618933439254760742e-01 1.548208355903625488e+00 1.847479820251464844e+00 1.063694596290588379e+00 -2.357562780380249023e+00 -2.304666996002197266e+00 4.594017565250396729e-01 1.028801798820495605e+00 -1.610464334487915039e+00 3.236691474914550781e+00 -1.552781939506530762e+00 -8.474164009094238281e-01 1.575621962547302246e+00 -2.074346542358398438e+00 -8.622582256793975830e-02 1.980662494897842407e-01 1.620561599731445312e+00 -2.054771661758422852e+00 2.894995927810668945e+00 2.725694656372070312e+00 1.750374197959899902e+00 -1.982651233673095703e+00 8.537599444389343262e-01 -1.480839371681213379e+00 2.233648538589477539e+00 -1.886912435293197632e-01 -2.089166402816772461e+00 -1.171447873115539551e+00 1.515162944793701172e+00 1.478865981101989746e+00 -1.800934791564941406e+00 -2.267344951629638672e+00 -5.335837602615356445e-01 -1.636249661445617676e+00
1.070180311799049377e-01 2.709278762340545654e-01 -1.522693037986755371e+00 2.458057641983032227e+00 1.605759859085083008e+00 -1.329016447067260742e+00 1.732787847518920898e+00 1.872698068618774414e+00 1.651469826698303223e+00 9.500673413276672363e-01 -2.064505100250244141e+00 1.646814942359924316e-01 2.059289455413818359e+00 1.820414960384368896e-01 2.468674659729003906e+00 4.756468534469604492e-01 -2.047595024108886719e+00 6.372200846672058105e-01 -1.738110184669494629e+00 -2.219930171966552734e+00 -7.594923675060272217e-02 6.741577386856079102e-01 -2.050665378570556641e+00 -1.883445978164672852e+00 -2.223695516586303711e+00 -1.574445009231567383e+00 1.194684982299804688e+00 6.707627773284912109e-01 -1.151509881019592285e+00 -5.820526927709579468e-02 1.074899435043334961e+00 -1.902104377746582031e+00 -7.643097639083862305e-01 7.692807912826538086e-01 1.092558264732360840e+00 2.911599874496459961e+00 2.532817602157592773e+00 -1.373565196990966797e+00 -7.405979633331298828e-01 1.550130128860473633e+00 2.068406105041503906e+00 1.667822360992431641e+00 -2.286367177963256836e+00 -2.052895784378051758e+00 1.150893926620483398e+00 -1.982018589973449707e+00 -1.416770458221435547e+00 -2.261573672294616699e-01 9.053663611412048340e-01 -2.340914726257324219e+00
-1.759337544441223145e+00 1.544959902763366699e+00 9.991809129714965820e-01 -7.090383172035217285e-01 -1.881490826606750488e+00 -1.927788853645324707e+00 1.723788976669311523e+00 6.194365024566650391e-01 2.035044908523559570e+00 -2.049967288970947266e+00 -1.223756313323974609e+00 -9.600208997726440430e-01 2.147382736206054688e+00 2.309417486190795898e+00 2.288592815399169922e+00 -5.144488215446472168e-01 1.640941381454467773e+00 6.605396866798400879e-01 -1.817239880561828613e+00 -1.423167109489440918e+00 6.927762031555175781e-01 -2.435181662440299988e-02 -1.255537390708923340e+00 1.816302180290222168e+00 -8.981486558914184570e-01 -2.456007301807403564e-01 3.964321315288543701e-01 1.884485840797424316e+00 -4.134736210107803345e-02 -1.443706274032592773e+00 -2.052339553833007812e+00 9.702385663986206055e-01 -1.498749256134033203e+00 -1.270498156547546387e+00 1.058659672737121582e+00 -1.516797661781311035e+00 -2.444849014282226562e+00 9.299899339675903320e-01 1.288560509681701660e+00 -2.613319158554077148e+00 2.162315607070922852e+00 -2.049138069152832031e+00 2.260417222976684570e+00 1.488593459129333496e+00 -1.154815912246704102e+00 2.318179845809936523e+00 1.464505076408386230e+00 -1.811203122138977051e+00 1.343650102615356445e+00 -6.690324544906616211e-01
3.078272819519042969e+00 1.964482665061950684e+00 2.312150478363037109e+00 -1.990182757377624512e+00 2.341189861297607422e+00 1.821109890937805176e+00 -1.354753375053405762e+00 2.753677845001220703e+00 1.815265655517578125e+00 -2.018656969070434570e+00 4.604189693927764893e-01 -1.897800683975219727e+00 -8.966578245162963867e-01 -2.716675758361816406e+00 1.724916696548461914e+00 -1.213612079620361328e+00 1.511126756668090820e+00 -8.620347976684570312e-01 3.119659423828125000e-01 2.688118457794189453e+00 -1.029160737991333008e+00 2.207487583160400391e+00 -1.746224999427795410e+00 2.521097183227539062e+00 -1.253069400787353516e+00 -6.372879147529602051e-01 1.890589147806167603e-01 -1.066330909729003906e+00 2.086194038391113281e+00 1.851225495338439941e+00 -2.229125976562500000e+00 -7.373734563589096069e-02 -1.914836525917053223e+00 -2.262086629867553711e+00 1.957742452621459961e+00 -9.253780245780944824e-01 -2.025648593902587891e+00 -2.718837261199951172e+00 -2.671937048435211182e-01 5.269047617912292480e-01 -1.864594221115112305e+00 1.681600928306579590e+00 1.809114694595336914e+00 -2.466424465179443359e+00 -7.043783366680145264e-02 -6.755162477493286133e-01 1.060455560684204102e+00 -1.395119667053222656e+00 -2.179529666900634766e+00 7.699404954910278320e-01
6.885383129119873047e-01 9.220851659774780273e-01 -3.662703037261962891e-01 -1.588846087455749512e+00 -6.557251811027526855e-01 1.033775210380554199e+00 -1.021410584449768066e+00 2.306899070739746094e+00 1.216607451438903809e+00 -1.161027908325195312e+00 1.792296171188354492e+00 -2.240060329437255859e+00 -2.000636577606201172e+00 -2.513900101184844971e-01 -1.288658738136291504e+00 -1.653002649545669556e-01 -1.939444065093994141e+00 6.308434009552001953e-01 -1.598892211914062500e+00 -9.562110900878906250e-01 -1.696495532989501953e+00 -2.274401664733886719e+00 4.772601723670959473e-01 2.532205343246459961e+00 1.443534255027770996e+00 -1.856372952461242676e-01 -2.772884130477905273e+00 1.636854290962219238e+00 1.160025835037231445e+00 1.994578719139099121e+00 3.717058897018432617e-01 2.397814750671386719e+00 8.501365184783935547e-01 -3.007570505142211914e+00 1.807760477066040039e+00 1.642068147659301758e+00 -2.460958242416381836e+00 2.120316982269287109e+00 2.324986934661865234e+00 -1.735239505767822266e+00 3.202802896499633789e+00 -1.904722213745117188e+00 1.067897439002990723e+00 -2.264753580093383789e+00 -3.160227497573941946e-04 -2.325504541397094727e+00 -1.883900284767150879e+00 -5.999438837170600891e-02 2.389550447463989258e+00 1.699982047080993652e+00
6.295054554939270020e-01 5.089558959007263184e-01 1.805677890777587891e+00 1.858624964952468872e-01 1.636096358299255371e+00 -2.171795964241027832e-01 -1.281557917594909668e+00 1.041222333908081055e+00 -1.708697080612182617e+00 2.192260265350341797e+00 7.845916152000427246e-01 -2.744978666305541992e-01 1.702298760414123535e+00 -5.522445440292358398e-01 -6.734533309936523438e-01 -1.447790861129760742e+00 -1.350722624920308590e-03 1.251643896102905273e+00 1.668697714805603027e+00 8.214309811592102051e-01 2.107192993164062500e+00 -6.559243798255920410e-01 1.201099276542663574e+00 3.759336173534393311e-01 -4.930766820907592773e-01 -2.280464649200439453e+00 3.373907804489135742e-01 -1.477328658103942871e+00 -9.498094916343688965e-01 -1.638478875160217285e+00 2.495388031005859375e+00 1.560973882675170898e+00 1.399791479110717773e+00 2.185479164123535156e+00 -2.987866401672363281e-01 -1.152140140533447266e+00 -1.064187645912170410e+00 1.398071408271789551e+00 -2.061737298965454102e+00 1.540909290313720703e+00 -1.577724695205688477e+00 -7.057211995124816895e-01 -1.325212359428405762e+00 -1.610643416643142700e-01 -2.309618234634399414e+00 -2.209814310073852539e+00 4.597258567810058594e-02 -2.007665872573852539e+00 -8.663430213928222656e-01 6.382763981819152832e-01
3.143369853496551514e-01 4.735611975193023682e-01 -1.703133940696716309e+00 2.299639940261840820e+00 2.013490438461303711e+00 1.477344393730163574e+00 -5.317192673683166504e-01 9.983270764350891113e-01 9.314493089914321899e-02 1.643898248672485352e+00 -2.738763093948364258e+00 9.660839438438415527e-01 1.313786625862121582e+00 1.162545084953308105e+00 -1.016609743237495422e-01 2.081587314605712891e-01 -1.951946973800659180e+00 -1.063470482826232910e+00 -1.364039778709411621e+00 -2.543353557586669922e+00 1.050022363662719727e+00 1.015326142311096191e+00 2.006058931350708008e+00 1.829141736030578613e+00 1.728822827339172363e+00 -1.698204278945922852e+00 1.282263159751892090e+00 1.282249927520751953e+00 9.102978110313415527e-01 1.603925526142120361e-01 -5.358809232711791992e-01 -2.323440551757812500e+00 1.126871466636657715e+00 -8.714842796325683594e-01 -2.343100309371948242e+00 1.666112661361694336e+00 1.658684968948364258e+00 -2.053121328353881836e+00 -2.214174747467041016e+00 1.532855153083801270e+00 6.046033501625061035e-01 -3.182372570037841797e+00 -6.661931872367858887e-01 -2.624751091003417969e+00 9.691378474235534668e-01 5.956987664103507996e-02 -2.974185466766357422e+00 -6.968462467193603516e-01 1.113091111183166504e+00 1.536796689033508301e+00
2.802344322204589844e+00 -3.532715737819671631e-01 -1.076118826866149902e+00 2.254112005233764648e+00 -1.438568949699401855e+00 5.968767404556274414e-01 -1.474413752555847168e+00 -2.410390853881835938e+00 5.455628037452697754e-01 1.982830524444580078e+00 4.441547393798828125e-01 1.988517761230468750e+00 1.109691619873046875e+00 1.719557523727416992e+00 -6.565466523170471191e-01 1.885521411895751953e+00 2.041007041931152344e+00 -2.117300271987915039e+00 -2.072321891784667969e+00 1.606643319129943848e+00 -2.034526586532592773e+00 -2.420249938964843750e+00 2.603736162185668945e+00 1.922404408454895020e+00 -6.590530872344970703e-01 1.864372968673706055e+00 2.300175905227661133e+00 -4.239606857299804688e-02 2.608778715133666992e+00 1.748540282249450684e+00 -1.108309149742126465e+00 -2.710006237030029297e+00 -1.813595175743103027e+00 1.153645515441894531e+00 -2.249536275863647461e+00 -2.643911361694335938e+00 1.241341352462768555e+00 -1.071950674057006836e+00 8.473246097564697266e-01 -4.780688285827636719e-01 -2.983488559722900391e+00 2.286680459976196289e+00 1.773223161697387695e+00 4.225259125232696533e-01 -1.660354614257812500e+00 -2.243035316467285156e+00 2.492444276809692383e+00 -2.695939779281616211e+00 -2.076183795928955078e+00 -1.113755464553833008e+00
4.628271758556365967e-01 2.621409177780151367e+00 -1.784918904304504395e-01 1.774182200431823730e+00 -6.754800677299499512e-01 1.533741593360900879e+00 -3.670201003551483154e-01 -1.240057468414306641e+00 -5.267540216445922852e-01 -3.828858491033315659e-03 -3.659755289554595947e-01 -2.557844638824462891e+00 1.311482191085815430e+00 -1.971290230751037598e+00 -1.829898595809936523e+00 -1.307534456253051758e+00 -2.279311656951904297e+00 -2.463376283645629883e+00 -2.235151529312133789e+00 -1.246456861495971680e+00 2.393192768096923828e+00 -6.323689818382263184e-01 6.259031891822814941e-01 7.595732808113098145e-01 1.786334037780761719e+00 -1.554531574249267578e+00 1.477168560028076172e+00 -1.834090113639831543e+00 2.149022579193115234e+00 -1.696893930435180664e+00 2.260504484176635742e+00 -1.276046276092529297e+00 -2.700424671173095703e+00 -3.692660629749298096e-01 1.585454106330871582e+00 8.757129907608032227e-01 -7.890809178352355957e-01 2.846756935119628906e+00 1.237699508666992188e+00 8.109523653984069824e-01 -5.559842586517333984e-01 1.229257225990295410e+00 2.221676588058471680e+00 8.687871694564819336e-02 -9.345300197601318359e-01 -6.518340110778808594e-02 -2.606776356697082520e-01 -2.391542196273803711e-01 2.359443902969360352e+00 5.672671794891357422e-01
-1.458552837371826172e+00 -1.049156665802001953e+00 -1.510339140892028809e+00 -1.519832134246826172e+00 1.836356401443481445e+00 -1.707055330276489258e+00 -1.685831665992736816e+00 1.421219229698181152e+00 -4.823591709136962891e-01 -2.252120971679687500e+00 5.151172876358032227e-01 -3.953783959150314331e-02 2.479626417160034180e+00 -1.856532335281372070e+00 -2.667979001998901367e+00 -2.533967971801757812e+00 1.829790472984313965e+00 -5.487149357795715332e-01 -1.623050093650817871e+00 -1.659809708595275879e+00 1.952089309692382812e+00 1.827605724334716797e+00 -3.086790740489959717e-01 -5.050932168960571289e-01 1.782184958457946777e+00 1.437011599540710449e+00 4.047211110591888428e-01 1.899788975715637207e+00 8.359732627868652344e-01 1.551039814949035645e+00 1.203521132469177246e+00 9.106456418521702290e-04 -2.779561281204223633e+00 2.199810028076171875e+00 2.799488902091979980e-01 9.700404405593872070e-01 -2.721023261547088623e-01 -1.053146958351135254e+00 9.316814690828323364e-02 2.156922101974487305e+00 -1.599004417657852173e-01 2.303422451019287109e+00 1.256115674972534180e+00 2.351937741041183472e-01 -2.788054943084716797e+00 2.460365295410156250e+00 -5.786674618721008301e-01 -4.672335088253021240e-01 6.490713953971862793e-01 -1.621505975723266602e+00
1.539296507835388184e+00 -1.076319932937622070e+00 9.584091603755950928e-02 -1.013673186302185059e+00 -1.452404975891113281e+00 1.407337307929992676e+00 -3.110470533370971680e+00 1.231097340583801270e+00 2.329840898513793945e+00 -2.563892364501953125e+00 -1.430235505104064941e+00 -1.097228050231933594e+00 1.373053789138793945e+00 9.560782313346862793e-01 2.436540126800537109e+00 1.442099094390869141e+00 1.880811452865600586e+00 -1.979884862899780273e+00 -2.415022373199462891e+00 1.980199337005615234e+00 -3.643719255924224854e-01 -2.808395862579345703e+00 -3.162460088729858398e+00 -2.971757888793945312e+00 1.990202069282531738e-01 -1.045735478401184082e-01 -2.636836767196655273e+00 9.509679675102233887e-01 3.897628784179687500e-01 1.349324882030487061e-01 2.744968652725219727e+00 -4.627168178558349609e-02 4.624269008636474609e-01 1.631288409233093262e+00 1.486087560653686523e+00 1.897693037986755371e+00 2.406439065933227539e+00 -9.152426123619079590e-01 1.189203977584838867e+00 -2.524398326873779297e+00 1.867944002151489258e+00 2.155939817428588867e+00 1.070791006088256836e+00 1.989375948905944824e+00 -1.691511869430541992e+00 -3.162596225738525391e-01 -2.658212482929229736e-01 1.226958990097045898e+00 -2.443863868713378906e+00 -2.462251663208007812e+00
-7.643459439277648926e-01 -2.649552822113037109e+00 2.081702709197998047e+00 4.978709816932678223e-01 -2.275468587875366211e+00 -2.483843326568603516e+00 2.289291143417358398e+00 7.933396100997924805e-01 -1.449680924415588379e+00 -9.027994275093078613e-01 8.104670047760009766e-02 1.967978239059448242e+00 4.045129418373107910e-01 1.764026403427124023e+00 -1.641891241073608398e+00 -1.950570464134216309e+00 1.128389164805412292e-01 -9.727481603622436523e-01 1.755585908889770508e+00 -1.716055750846862793e+00 -2.449013710021972656e+00 2.460754156112670898e+00 3.174930810928344727e-01 -2.327959299087524414e+00 -1.898585081100463867e+00 1.003066897392272949e+00 2.771494626998901367e+00 -1.043086886405944824e+00 1.666675925254821777e+00 -1.951657295227050781e+00 2.516800463199615479e-01 2.012829542160034180e+00 2.995043516159057617e+00 1.803278088569641113e+00 2.340976953506469727e+00 2.851478457450866699e-01 -2.287087403237819672e-02 -1.636684417724609375e+00 2.454621553421020508e+00 -1.447781443595886230e+00 -1.188799381256103516e+00 2.555207252502441406e+00 -6.571742892265319824e-01 -4.835562407970428467e-01 4.971089661121368408e-01 -8.972052335739135742e-01 5.338766574859619141e-01 -1.946461081504821777e+00 -9.221784472465515137e-01 -1.656404376029968262e+00
-2.322597205638885498e-01 7.922154664993286133e-01 -1.367348432540893555e+00 1.771077156066894531e+00 9.184312224388122559e-01 2.304497241973876953e+00 9.295425564050674438e-02 -1.956788301467895508e+00 -9.030278325080871582e-01 -4.878293871879577637e-01 1.467752307653427124e-01 4.874043166637420654e-02 2.251670360565185547e+00 1.520700693130493164e+00 1.717039942741394043e+00 2.405020952224731445e+00 1.768576502799987793e+00 9.984727501869201660e-01 -8.600714206695556641e-01 1.540850877761840820e+00 -1.586421132087707520e+00 -2.032016515731811523e+00 1.168414115905761719e+00 2.242667526006698608e-01 -2.294429063796997070e+00 9.930909872055053711e-01 -2.090433359146118164e+00 -6.865352988243103027e-01 -1.845035910606384277e+00 -2.812441587448120117e+00 -1.466241359710693359e+00 -2.383427619934082031e+00 3.556890040636062622e-02 6.174646019935607910e-01 7.949842810630798340e-01 2.792931199073791504e-01 2.218813747167587280e-01 1.654227852821350098e+00 -1.581769108772277832e+00 -3.030238628387451172e+00 -1.840756535530090332e+00 -1.235605835914611816e+00 1.713977098464965820e+00 -3.321014940738677979e-01 2.697829008102416992e+00 2.003330469131469727e+00 -7.845110297203063965e-01 -2.651771545410156250e+00 2.685651540756225586e+00 2.251333236694335938e+00
-2.112292051315307617e+00 9.606049060821533203e-01 -1.251107692718505859e+00 5.108371973037719727e-01 -8.010083436965942383e-01 1.276686906814575195e+00 -2.869153499603271484e+00 -1.081369280815124512e+00 8.254111409187316895e-01 -4.935432970523834229e-01 -1.666384458541870117e+00 2.584919214248657227e+00 -2.382112741470336914e+00 2.555162429809570312e+00 -1.249795313924551010e-02 2.802728176116943359e+00 -4.131289720535278320e-01 4.383597373962402344e-01 -1.829329013824462891e+00 1.822659611701965332e+00 -8.036488294601440430e-01 -1.240921735763549805e+00 1.826535582542419434e+00 2.046839475631713867e+00 -1.701005697250366211e+00 2.086004018783569336e+00 8.951250314712524414e-01 2.330342769622802734e+00 -4.851719737052917480e-01 1.720884203910827637e+00 -2.272476911544799805e+00 1.015340164303779602e-01 7.310976982116699219e-01 9.658420085906982422e-01 -2.567102909088134766e+00 3.503115177154541016e-01 6.346573233604431152e-01 9.028396010398864746e-02 6.638184189796447754e-01 -2.077456951141357422e+00 -3.721174597740173340e-01 -2.096316337585449219e+00 -1.919430494308471680e+00 2.279043674468994141e+00 -1.881479740142822266e+00 -8.922761678695678711e-01 6.158896684646606445e-01 -9.600126743316650391e-01 1.817423582077026367e+00 2.007636308670043945e+00
-2.588157415390014648e+00 -9.758256673812866211e-01 -1.825689673423767090e+00 -7.256337404251098633e-01 -3.193551301956176758e-01 7.568464279174804688e-01 -2.420855015516281128e-01 -1.901311397552490234e+00 -1.604264736175537109e+00 -7.932451367378234863e-01 2.635785341262817383e+00 2.634390115737915039e+00 2.022247791290283203e+00 1.418316483497619629e+00 -7.068240046501159668e-01 2.365344762802124023e+00 1.504968523979187012e+00 3.089192390441894531e+00 1.771478533744812012e+00 -1.630594134330749512e+00 1.759862661361694336e+00 -2.076758623123168945e+00 -1.908375024795532227e+00 -5.789201855659484863e-01 -8.931562900543212891e-01 -7.694473117589950562e-02 -1.132476925849914551e+00 6.617714464664459229e-02 -1.724899530410766602e+00 1.226474046707153320e+00 2.153244316577911377e-01 2.093146562576293945e+00 -3.147061467170715332e-01 1.238436579704284668e+00 -1.829031705856323242e+00 -4.086204245686531067e-02 5.285783410072326660e-01 4.017185270786285400e-01 -9.126638174057006836e-01 1.245383858680725098e+00 2.081872224807739258e+00 9.617671966552734375e-01 -1.127394556999206543e+00 -2.000407218933105469e+00 -2.485620498657226562e+00 -7.661321163177490234e-01 -1.673851370811462402e+00 1.044844508171081543e+00 3.016426801681518555e+00 -1.099915146827697754e+00
-2.429017782211303711e+00 1.187113523483276367e+00 1.624361276626586914e+00 2.068264245986938477e+00 -2.464207410812377930e+00 -2.812202453613281250e+00 4.776241481304168701e-01 1.728071093559265137e+00 2.419182777404785156e+00 -2.223413944244384766e+00 2.635881423950195312e+00 2.990332365036010742e+00 7.986704111099243164e-01 1.909381985664367676e+00 -1.045222043991088867e+00 -1.328457593917846680e+00 -2.423776626586914062e+00 -4.880479872226715088e-01 -1.829380393028259277e+00 4.748513102531433105e-01 -5.334922075271606445e-01 2.359863519668579102e+00 -8.384960889816284180e-01 -8.378968834877014160e-01 6.159589290618896484e-01 -1.047714710235595703e+00 -2.034646987915039062e+00 2.705804586410522461e+00 1.893183708190917969e+00 -6.033730506896972656e-01 1.566591323353350163e-03 -8.328569531440734863e-01 -2.107065916061401367e-01 -2.721874415874481201e-01 -2.229810953140258789e+00 -1.890715837478637695e+00 -1.267718076705932617e+00 -1.654590249061584473e+00 -1.484438538551330566e+00 -2.972658872604370117e+00 -2.045015811920166016e+00 -2.257325798273086548e-01 1.300574302673339844e+00 2.240360975265502930e+00 9.964054226875305176e-01 1.850554823875427246e+00 1.311433076858520508e+00 6.754875183105468750e-01 1.581560969352722168e+00 2.505971908569335938e+00
-1.195685505867004395e+00 -1.420379430055618286e-01 -2.967157959938049316e-01 -1.424142360687255859e+00 1.556642293930053711e+00 4.210174679756164551e-01 1.465664863586425781e+00 -2.020332813262939453e+00 -2.560151815414428711e+00 -1.045381188392639160e+00 2.776819467544555664e-01 -1.015000581741333008e+00 -1.975008249282836914e+00 9.006391763687133789e-01 -2.573386192321777344e+00 -1.640260577201843262e+00 -2.314921617507934570e+00 -2.391469955444335938e+00 -1.415664076805114746e+00 1.102099657058715820e+00 2.076200962066650391e+00 1.528859496116638184e+00 -8.698155283927917480e-01 -2.766412734985351562e+00 1.510529518127441406e+00 -4.594126641750335693e-01 -1.091899514198303223e+00 -1.212069511413574219e+00 -2.618662357330322266e+00 -1.228681921958923340e+00 1.647355198860168457e+00 -2.612380981445312500e+00 2.844721794128417969e+00 1.976744651794433594e+00 -1.139066666364669800e-01 2.393293857574462891e+00 1.215400934219360352e+00 3.195319771766662598e-01 8.679994344711303711e-01 1.666673183441162109e+00 1.364907145500183105e+00 1.076611399650573730e+00 4.074732959270477295e-01 2.285151481628417969e+00 2.233943939208984375e+00 2.048202037811279297e+00 -1.272544980049133301e+00 9.882335364818572998e-02 1.411400079727172852e+00 1.199196577072143555e+00
-9.414850473403930664e-01 1.248889803886413574e+00 1.147971153259277344e+00 -7.762979716062545776e-02 -7.131914496421813965e-01 7.230644673109054565e-02 -9.936922192573547363e-01 1.556851506233215332e+00 1.858834743499755859e+00 6.663128137588500977e-01 2.336027383804321289e+00 8.332952260971069336e-01 -2.367035865783691406e+00 9.666659832000732422e-01 -2.815338782966136932e-02 -3.152073621749877930e-01 -3.158405065536499023e+00 -2.791948318481445312e-01 5.002858638763427734e-01 -1.572222232818603516e+00 -5.298119187355041504e-01 -1.243809103965759277e+00 -3.112366423010826111e-02 4.684350192546844482e-01 -1.229784846305847168e+00 -1.867770195007324219e+00 -2.517097473144531250e+00 1.344994187355041504e+00 -2.602810561656951904e-01 1.499158382415771484e+00 1.371750950813293457e+00 2.193504810333251953e+00 -1.035974383354187012e+00 -2.733166933059692383e+00 1.340642094612121582e+00 2.159491777420043945e+00 -2.688316106796264648e-01 2.979027986526489258e+00 -1.436510235071182251e-01 -2.109710454940795898e+00 -5.746530294418334961e-01 1.824442625045776367e+00 3.417434394359588623e-01 -2.263667434453964233e-02 -8.728018403053283691e-01 -2.005736351013183594e+00 3.233853280544281006e-01 1.014122009277343750e+00 -1.438193440437316895e+00 1.472820281982421875e+00
-5.680031180381774902e-01 -1.524242401123046875e+00 1.825260758399963379e+00 -2.355463027954101562e+00 -1.465676426887512207e+00 2.390858173370361328e+00 6.181247830390930176e-01 -1.369808793067932129e+00 1.523808836936950684e+00 -9.243302941322326660e-01 -2.561956882476806641e+00 9.288517832756042480e-01 -1.309496521949768066e+00 4.639084637165069580e-01 5.393519997596740723e-01 4.556168615818023682e-01 5.511008501052856445e-01 -2.089362382888793945e+00 3.728774189949035645e-01 1.952366828918457031e-01 -1.131569504737854004e+00 1.479769349098205566e+00 1.838179230690002441e+00 1.307765007019042969e+00 1.892154932022094727e+00 1.530622243881225586e+00 3.833186626434326172e-01 1.770183205604553223e+00 -2.020221710205078125e+00 7.098250389099121094e-01 -1.239344477653503418e+00 -2.067852973937988281e+00 -8.168776035308837891e-01 -1.511237263679504395e+00 1.205523848533630371e+00 -1.881303787231445312e+00 -2.365957021713256836e+00 -1.094103455543518066e+00 2.551326751708984375e+00 6.827197074890136719e-01 1.384042739868164062e+00 -3.017666816711425781e+00 2.141773939132690430e+00 1.932987809181213379e+00 -6.649245619773864746e-01 1.539231061935424805e+00 -1.772565722465515137e+00 2.170957326889038086e+00 -2.320321559906005859e+00 1.589833617210388184e+00
1.971064686775207520e+00 -7.001919746398925781e-01 -1.141139984130859375e+00 4.762617647647857666e-01 2.034017324447631836e+00 -4.373340681195259094e-02 2.553603172302246094e+00 2.669662714004516602e+00 -1.386539220809936523e+00 1.622660636901855469e+00 1.291082620620727539e+00 -8.032365441322326660e-01 1.291474938392639160e+00 -1.958988428115844727e+00 -2.012697219848632812e+00 -2.343346834182739258e+00 1.695911645889282227e+00 9.699297547340393066e-01 7.799096107482910156e-01 -5.156083703041076660e-01 2.376806020736694336e+00 2.378458023071289062e+00 -5.403068661689758301e-01 -6.389398574829101562e-01 6.089875698089599609e-01 -2.370414733886718750e+00 -2.441144466400146484e+00 2.332895755767822266e+00 -2.156881093978881836e+00 -1.795380592346191406e+00 1.962995290756225586e+00 -1.328627347946166992e+00 1.436542987823486328e+00 2.715031623840332031e+00 -6.163536310195922852e-01 -2.028233051300048828e+00 -2.335497379302978516e+00 -2.526171207427978516e+00 -2.649144172668457031e+00 2.233583688735961914e+00 2.631294727325439453e+00 -4.228951930999755859e-01 -1.899607777595520020e+00 -1.991823315620422363e+00 2.981781005859375000e+00 6.553444862365722656e-01 -2.118727207183837891e+00 -2.420538187026977539e+00 -1.430322229862213135e-01 1.589115381240844727e+00
-7.085075974464416504e-01 -2.096146821975708008e+00 -1.914139151573181152e+00 -2.304898023605346680e+00 -2.178190231323242188e+00 -1.696240901947021484e+00 1.427937865257263184e+00 -9.646888375282287598e-01 -4.095538854598999023e-01 1.754455924034118652e+00 1.515679359436035156e-01 1.717257127165794373e-02 -1.943105101585388184e+00 1.979513764381408691e+00 -8.939518928527832031e-01 3.037293672561645508e+00 2.812969207763671875e+00 1.844838261604309082e+00 1.151270747184753418e+00 1.217323094606399536e-01 -7.997224330902099609e-01 -4.953726232051849365e-01 1.553879022598266602e+00 -3.234360694885253906e+00 2.342479467391967773e+00 -6.301968693733215332e-01 7.867234945297241211e-01 -2.237657546997070312e+00 2.229960680007934570e+00 1.683305263519287109e+00 3.006551861763000488e-01 -2.203238725662231445e+00 -3.114825487136840820e-01 -1.609708309173583984e+00 -1.434083700180053711e+00 1.896702289581298828e+00 1.930484294891357422e+00 1.506915688514709473e+00 4.980132877826690674e-01 1.945840835571289062e+00 -2.802146673202514648e+00 1.883170127868652344e+00 -6.889907121658325195e-01 2.354299873113632202e-01 -2.142254590988159180e+00 -8.688645362854003906e-01 1.508449792861938477e+00 3.261925280094146729e-01 -5.662952661514282227e-01 2.672199308872222900e-01
2.399202346801757812e+00 1.519804835319519043e+00 2.700895547866821289e+00 -1.519405722618103027e+00 4.233105182647705078e-01 1.455256342887878418e+00 -1.542243242263793945e+00 -2.314423084259033203e+00 1.816254407167434692e-01 7.641555666923522949e-01 -1.066476464271545410e+00 7.181445360183715820e-01 -2.190680980682373047e+00 -2.038337230682373047e+00 -3.005823194980621338e-01 -5.475566387176513672e-01 1.698789000511169434e-01 -2.153780937194824219e+00 2.199959039688110352e+00 2.885806083679199219e+00 7.687445878982543945e-01 -2.129132509231567383e+00 1.376907587051391602e+00 -2.673981189727783203e-01 1.704508662223815918e+00 6.481088399887084961e-01 -1.856720328330993652e+00 -1.971341252326965332e+00 -9.744973182678222656e-01 -2.477566242218017578e+00 3.030272722244262695e+00 -2.139139652252197266e+00 8.276170492172241211e-02 4.028187394142150879e-01 2.215431213378906250e+00 -2.068937063217163086e+00 -1.721024751663208008e+00 2.108396291732788086e+00 -1.242774605751037598e+00 1.071911454200744629e+00 -8.523849248886108398e-01 -2.654805898666381836e+00 1.538594245910644531e+00 2.213214397430419922e+00 7.688581943511962891e-01 7.511216402053833008e-02 2.166563272476196289e-01 2.412706851959228516e+00 -2.096322059631347656e+00 7.738520503044128418e-01
3.286042213439941406e-01 -1.972304701805114746e+00 5.896266698837280273e-01 2.061693191528320312e+00 -3.602498769760131836e+00 -2.659870862960815430e+00 -1.553303956985473633e+00 -1.006674885749816895e+00 1.401525974273681641e+00 8.284088373184204102e-01 -1.985734105110168457e+00 -1.471431136131286621e+00 -2.167038679122924805e+00 -1.901049375534057617e+00 6.205700635910034180e-01 2.625100612640380859e-01 9.343128800392150879e-01 1.227396130561828613e+00 2.060513012111186981e-02 -2.388695240020751953e+00 -1.792970895767211914e+00 1.621698975563049316e+00 2.403341054916381836e+00 8.458366990089416504e-01 1.934255838394165039e+00 1.204083681106567383e+00 2.692232370376586914e+00 -3.084121465682983398e+00 2.773373603820800781e+00 2.067504882812500000e+00 7.193134631961584091e-03 2.381959438323974609e+00 1.028683423995971680e+00 -1.580458998680114746e+00 1.979891896247863770e+00 -2.467516422271728516e+00 1.193634748458862305e+00 -1.672706723213195801e+00 -1.458972692489624023e-01 8.019852042198181152e-01 8.128818273544311523e-01 -2.456524670124053955e-01 -3.285132408142089844e+00 -2.831249952316284180e+00 2.477359294891357422e+00 1.426947951316833496e+00 1.021123051643371582e+00 -1.054266214370727539e+00 5.107795000076293945e-01 1.295200705528259277e+00
-6.443089246749877930e-01 -7.939262390136718750e-01 -1.936751604080200195e+00 -1.818545103073120117e+00 -1.218521118164062500e+00 2.079339027404785156e+00 2.227555513381958008e+00 7.193322777748107910e-01 -6.408483982086181641e-01 2.657404899597167969e+00 -1.358838915824890137e+00 -1.061965703964233398e+00 -1.914742231369018555e+00 -2.081331253051757812e+00 -1.673544406890869141e+00 1.185187458992004395e+00 -3.330604434013366699e-01 1.247547507286071777e+00 -1.416185498237609863e+00 -1.814158082008361816e+00 1.567769289016723633e+00 4.456565678119659424e-01 2.342772245407104492e+00 -1.768912434577941895e+00 -1.414081811904907227e+00 2.680270195007324219e+00 -1.205814480781555176e+00 1.282851457595825195e+00 -1.292675137519836426e+00 1.531860709190368652e+00 7.969157099723815918e-01 -1.762260675430297852e+00 -2.488780736923217773e+00 1.386091709136962891e+00 1.140881657600402832e+00 1.548162698745727539e+00 -6.546068787574768066e-01 5.530095100402832031e-01 -4.589771032333374023e-01 2.068515777587890625e+00 1.562293648719787598e+00 2.049047470092773438e+00 -2.007286310195922852e+00 -1.055199742317199707e+00 7.362579107284545898e-01 3.870204687118530273e-01 2.506480693817138672e+00 6.573861837387084961e-01 -1.867855787277221680e+00 -7.733665108680725098e-01
-1.142261624336242676e+00 -1.324393153190612793e+00 1.832488656044006348e+00 -8.222765326499938965e-01 1.860712766647338867e+00 -2.489118099212646484e+00 1.258034855127334595e-01 2.810540199279785156e+00 1.226560592651367188e+00 -1.255338191986083984e+00 -1.186968207359313965e+00 1.397349834442138672e+00 -1.401987791061401367e+00 2.619588375091552734e+00 -7.757299542427062988e-01 -1.238658547401428223e+00 -2.675047159194946289e+00 2.998334884643554688e+00 1.583558559417724609e+00 -4.343331158161163330e-01 -2.089441537857055664e+00 2.023951053619384766e+00 -2.177166938781738281e+00 2.223820209503173828e+00 -2.437556743621826172e+00 -2.161304235458374023e+00 1.796282768249511719e+00 -3.788038492202758789e-01 1.727823495864868164e+00 -2.440211296081542969e+00 -1.289877057075500488e+00 2.643614053726196289e+00 8.716979026794433594e-01 5.859072804450988770e-01 -1.012585401535034180e+00 -1.699394732713699341e-01 -1.315130829811096191e+00 5.584084391593933105e-01 1.915801763534545898e+00 1.562891244888305664e+00 1.203433722257614136e-01 2.804103136062622070e+00 1.676041930913925171e-01 1.496622800827026367e+00 -3.138405084609985352e+00 -1.685063987970352173e-01 -1.530038714408874512e+00 -1.554301619529724121e+00 2.170535326004028320e+00 -1.987876176834106445e+00
-1.595148563385009766e+00 2.157348394393920898e+00 1.230468869209289551e+00 -1.165103077888488770e+00 1.835433363914489746e+00 -1.369518160820007324e+00 -1.179498881101608276e-01 -2.415695905685424805e+00 -2.636908054351806641e+00 -1.038998365402221680e+00 1.610906362533569336e+00 1.214510083198547363e+00 -1.191343903541564941e+00 6.084852218627929688e-01 -2.930359840393066406e-01 -1.605034619569778442e-01 -3.073945045471191406e-01 -1.073313713073730469e+00 1.517915964126586914e+00 2.426744937896728516e+00 2.345893859863281250e+00 -1.438709139823913574e+00 2.282042980194091797e+00 1.330142498016357422e+00 1.160365819931030273e+00 1.612955927848815918e+00 2.500332593917846680e+00 -2.315288066864013672e+00 8.697933554649353027e-01 -9.616798162460327148e-01 -2.447244882583618164e+00 1.803886294364929199e-01 1.847798377275466919e-01 -1.809524297714233398e+00 5.519059896469116211e-01 -1.876412391662597656e+00 -2.560350418090820312e+00 9.041827917098999023e-01 -2.509438753128051758e+00 1.292654991149902344e+00 3.490692675113677979e-01 -1.156599760055541992e+00 1.926845461130142212e-01 1.431924700736999512e+00 1.558221578598022461e+00 -2.176957130432128906e+00 2.490262031555175781e+00 -1.833336353302001953e+00 2.244232445955276489e-01 5.639108419418334961e-01
7.895573377609252930e-01 2.351063728332519531e+00 -1.091628909111022949e+00 1.324828982353210449e+00 2.104606866836547852e+00 8.374117016792297363e-01 1.758799195289611816e+00 1.216530650854110718e-01 -2.025451898574829102e+00 2.386599779129028320e+00 -1.436087012290954590e+00 -1.753537178039550781e+00 2.221870899200439453e+00 -1.721074938774108887e+00 2.308728933334350586e+00 -1.606993794441223145e+00 -4.066223651170730591e-02 2.824693918228149414e+00 -1.238802433013916016e+00 -4.100569784641265869e-01 1.297489166259765625e+00 -2.479107618331909180e+00 1.211159825325012207e+00 2.532249689102172852e+00 2.228889703750610352e+00 -1.095917224884033203e+00 -2.525866985321044922e+00 -1.104349136352539062e+00 3.845286369323730469e-02 2.800628185272216797e+00 -1.586470484733581543e+00 -4.303601086139678955e-01 -2.999660491943359375e+00 9.606428742408752441e-01 -2.868520259857177734e+00 -4.633882939815521240e-01 7.225131988525390625e-01 -1.016906976699829102e+00 -2.339369535446166992e+00 8.362065553665161133e-01 -7.083773016929626465e-01 3.850516974925994873e-01 1.358893275260925293e+00 1.368667364120483398e+00 -4.602956473827362061e-01 -7.900362610816955566e-01 2.136880874633789062e+00 -2.054305791854858398e+00 -3.200181126594543457e-01 -2.417573451995849609e+00
-2.672659754753112793e-01 1.650108814239501953e+00 2.328809499740600586e+00 2.162219047546386719e+00 -2.088836431503295898e+00 1.408678591251373291e-01 2.115850448608398438e+00 -1.540485739707946777e+00 1.206929445266723633e+00 2.469940185546875000e+00 2.608046054840087891e+00 4.055345952510833740e-01 2.280149936676025391e+00 -1.748037219047546387e+00 -1.465460538864135742e+00 2.023303270339965820e+00 1.168794989585876465e+00 -1.377803325653076172e+00 2.007984399795532227e+00 1.825499534606933594e-01 2.298674583435058594e+00 -3.361935541033744812e-02 -1.073333844542503357e-01 -1.051542997360229492e+00 -2.242259740829467773e+00 -1.959377169609069824e+00 -8.194578289985656738e-01 -4.387457966804504395e-01 -1.608371257781982422e+00 -7.305508852005004883e-01 2.390002310276031494e-01 -2.010579824447631836e+00 2.065943956375122070e+00 -1.855078220367431641e+00 -1.098851680755615234e+00 -2.073647499084472656e+00 -1.452946305274963379e+00 5.972653031349182129e-01 2.035462617874145508e+00 -9.814109802246093750e-01 -1.918697357177734375e+00 -1.660754442214965820e+00 -1.243338823318481445e+00 -2.402937650680541992e+00 -1.600445508956909180e+00 -2.029389381408691406e+00 1.521899104118347168e+00 1.178569793701171875e+00 1.935659170150756836e+00 3.006112098693847656e+00
-1.632807493209838867e+00 2.741997003555297852e+00 2.330502986907958984e+00 1.211716294288635254e+00 1.605061769485473633e+00 3.712208867073059082e-01 1.365564465522766113e-01 -1.203608587384223938e-01 -3.025775551795959473e-01 -1.615220665931701660e+00 1.285900354385375977e+00 -1.234794259071350098e+00 -5.321153402328491211e-01 -2.135568141937255859e+00 -2.079354763031005859e+00 1.357689261436462402e+00 -2.220313549041748047e+00 -2.174029111862182617e+00 1.039882659912109375e+00 2.510458230972290039e+00 2.438379526138305664e+00 7.796927094459533691e-01 -2.420788288116455078e+00 2.268139839172363281e+00 -2.774867296218872070e+00 2.003527879714965820e+00 1.400538086891174316e+00 -1.957463622093200684e+00 -1.975447773933410645e+00 -2.717291414737701416e-01 -1.109734654426574707e+00 9.660946726799011230e-01 1.454339742660522461e+00 -2.446252346038818359e+00 -1.244255304336547852e+00 1.612511873245239258e+00 -6.071060895919799805e-01 -1.936533689498901367e+00 2.132905483245849609e+00 4.628985524177551270e-01 1.068737268447875977e+00 1.243828892707824707e+00 -1.143585085868835449e+00 -1.751002907752990723e+00 -2.848628282546997070e+00 -2.382197141647338867e+00 2.936240911483764648e+00 2.832048654556274414e+00 2.066806077957153320e+00 -1.531978845596313477e+00
-2.089550495147705078e+00 -9.684771299362182617e-02 -1.789722204208374023e+00 -1.687455177307128906e+00 -1.481704235076904297e+00 1.978953957557678223e+00 -5.125465989112854004e-01 -1.206843972206115723e+00 3.587322533130645752e-01 -5.722114443778991699e-01 3.928191661834716797e-01 -1.177049636840820312e+00 -4.175100326538085938e-01 -1.249627470970153809e+00 -1.278991252183914185e-01 -9.176923036575317383e-01 -1.063331127166748047e+00 -1.648998737335205078e+00 3.395524621009826660e-01 -1.918126702308654785e+00 1.615755558013916016e+00 1.543796062469482422e+00 4.598961770534515381e-01 -2.008705615997314453e+00 3.841283619403839111e-01 1.776163816452026367e+00 5.002495050430297852e-01 -3.769983351230621338e-01 3.008707463741302490e-01 4.306356906890869141e-01 7.010725140571594238e-01 2.212522268295288086e+00 -1.560326337814331055e+00 -3.143648849800229073e-03 1.486369609832763672e+00 5.777049064636230469e-01 1.874473094940185547e+00 2.721996545791625977e+00 5.637941360473632812e-01 -1.312043547630310059e+00 -3.928185999393463135e-01 -1.710721254348754883e+00 -8.065113425254821777e-01 -5.121719241142272949e-01 1.484369516372680664e+00 2.803892850875854492e+00 -5.345983505249023438e-01 2.824059963226318359e+00 -2.006172418594360352e+00 1.258673310279846191e+00
-1.977102279663085938e+00 2.271731853485107422e+00 -5.526409745216369629e-01 9.836096167564392090e-01 5.667043924331665039e-01 -2.704027891159057617e+00 2.522773027420043945e+00 -1.336543917655944824e+00 1.679184675216674805e+00 1.313585758209228516e+00 -6.150860190391540527e-01 -1.686166405677795410e+00 1.837453961372375488e+00 -1.157481312751770020e+00 1.558495640754699707e+00 -6.970832347869873047e-01 1.550499320030212402e+00 1.280449509620666504e+00 2.186070680618286133e+00 2.003710746765136719e+00 -3.313254714012145996e-01 1.170820474624633789e+00 -2.472840309143066406e+00 -1.288779854774475098e+00 -1.812500238418579102e+00 -1.537880301475524902e+00 3.684595525264739990e-01 1.766448020935058594e+00 -2.318897485733032227e+00 -1.634061098098754883e+00 -2.429996252059936523e+00 2.067356258630752563e-01 3.309916853904724121e-01 1.393741071224212646e-01 -2.224073886871337891e+00 -1.260076522827148438e+00 1.566135406494140625e+00 -1.229904174804687500e+00 -2.238931894302368164e+00 5.237331390380859375e-01 -1.012007072567939758e-01 -1.468667030334472656e+00 1.818432927131652832e+00 1.583479166030883789e+00 -1.810459733009338379e+00 2.709643363952636719e+00 1.475230336189270020e+00 2.538062095642089844e+00 -1.998173832893371582e+00 1.510197967290878296e-01
2.652863979339599609e+00 1.747072696685791016e+00 1.602894663810729980e+00 2.581304550170898438e+00 -1.837401032447814941e+00 1.293407320976257324e+00 -2.076574802398681641e+00 1.164736032485961914e+00 1.627756834030151367e+00 -9.233756661415100098e-01 -2.881428718566894531e+00 -1.857639193534851074e+00 -1.481390118598937988e+00 7.146127820014953613e-01 2.467348098754882812e+00 -1.328858494758605957e+00 -2.746991872787475586e+00 -7.647242546081542969e-01 -2.033436298370361328e+00 -9.278349876403808594e-01 1.192007362842559814e-01 8.003554344177246094e-01 -2.447518825531005859e+00 -2.029536962509155273e-01 1.446101665496826172e-01 -1.957821488380432129e+00 1.021270394325256348e+00 -2.481068372726440430e+00 1.864393591880798340e+00 6.264432668685913086e-01 2.522785902023315430e+00 1.043215915560722351e-01 8.305249214172363281e-01 1.952380180358886719e+00 8.658105134963989258e-01 -1.672627568244934082e+00 2.558571100234985352e+00 -1.879581689834594727e+00 2.408357620239257812e+00 -1.734563708305358887e+00 -1.073108196258544922e+00 1.036240339279174805e+00 -4.783388078212738037e-01 1.359585523605346680e+00 2.375619411468505859e+00 6.827245950698852539e-01 -5.078129172325134277e-01 4.500578343868255615e-01 -1.542715311050415039e+00 -2.221466302871704102e+00
2.434320688247680664e+00 1.338074922561645508e+00 -1.611536979675292969e+00 -6.949072703719139099e-03 8.474519252777099609e-01 -3.479414880275726318e-01 2.900350809097290039e+00 -1.783949255943298340e+00 -2.663398742675781250e+00 2.266445636749267578e+00 2.353717327117919922e+00 -2.466317415237426758e+00 -2.454557865858078003e-01 1.815249562263488770e+00 -2.386243343353271484e+00 -2.993995845317840576e-01 2.032482385635375977e+00 -2.112967252731323242e+00 2.177544355392456055e+00 7.256126999855041504e-01 -1.783174395561218262e+00 -3.621813654899597168e-01 -2.190238475799560547e+00 -1.298897504806518555e+00 -1.050600185990333557e-01 -1.670096516609191895e+00 -2.165665626525878906e+00 1.487701535224914551e+00 -2.463245153427124023e+00 2.560735464096069336e+00 -9.586840271949768066e-01 7.092016935348510742e-01 2.894897222518920898e+00 -1.081323146820068359e+00 -2.658099830150604248e-01 1.892859578132629395e+00 6.255881488323211670e-02 2.402690410614013672e+00 2.633518457412719727e+00 -1.107106804847717285e+00 -1.738685965538024902e+00 -1.891485333442687988e+00 3.040791034698486328e+00 9.686350822448730469e-01 3.932463228702545166e-01 -1.720213890075683594e+00 -1.761296153068542480e+00 -7.042909264564514160e-01 -9.893996268510818481e-02 -9.946531057357788086e-01
1.960496753454208374e-01 -1.579760551452636719e+00 -5.430330634117126465e-01 -8.706994056701660156e-01 -1.634366035461425781e+00 2.390861272811889648e+00 -9.147105813026428223e-01 -8.615369796752929688e-01 -1.229438304901123047e+00 -3.383765816688537598e-01 -1.346503615379333496e+00 -1.612286686897277832e+00 -3.438115715980529785e-01 1.462232351303100586e+00 2.031541347503662109e+00 6.038101911544799805e-01 2.227131605148315430e+00 1.229643464088439941e+00 2.484951019287109375e+00 -1.877472639083862305e+00 -2.020504951477050781e+00 2.491360187530517578e+00 6.700447201728820801e-01 4.253023266792297363e-01 -2.570839166641235352e+00 -7.014875411987304688e-01 2.739750862121582031e+00 -1.096738100051879883e+00 -1.807543396949768066e+00 -1.801892280578613281e+00 -1.451011300086975098e+00 2.358587980270385742e+00 1.508314490318298340e+00 2.622836828231811523e+00 2.143496990203857422e+00 -4.713284671306610107e-01 1.587139248847961426e+00 1.321139454841613770e+00 1.037301898002624512e+00 -8.927782177925109863e-01 -2.544482707977294922e+00 -7.830097675323486328e-01 5.940069556236267090e-01 -1.655649781227111816e+00 7.648587226867675781e-03 7.846304178237915039e-01 -1.831792235374450684e+00 2.518497109413146973e-01 -1.802823990583419800e-01 -7.078468203544616699e-01
1.957650035619735718e-01 -1.940737009048461914e+00 -4.312577545642852783e-01 -2.599530696868896484e+00 1.573331117630004883e+00 -2.552805185317993164e+00 1.814733982086181641e+00 9.158926010131835938e-01 -6.032981872558593750e-01 -1.474557280540466309e+00 1.859272003173828125e+00 -2.320208787918090820e+00 2.207401275634765625e+00 -2.644475221633911133e+00 1.200819760560989380e-01 -2.467726945877075195e+00 2.146844625473022461e+00 1.229247331619262695e+00 1.131497979164123535e+00 -1.009435892105102539e+00 -2.444999694824218750e+00 7.683552503585815430e-01 9.413132667541503906e-01 4.797104001045227051e-01 2.234696388244628906e+00 1.601237058639526367e+00 -1.072048425674438477e+00 5.819034576416015625e-01 -8.814210891723632812e-01 2.290504455566406250e+00 -2.778080463409423828e+00 1.468123555183410645e+00 -2.626798868179321289e+00 -1.956155061721801758e+00 -1.468579888343811035e+00 -5.064255595207214355e-01 2.054443769156932831e-02 -7.450625896453857422e-01 3.628510534763336182e-01 1.323766231536865234e+00 1.576874971389770508e+00 2.000229358673095703e+00 2.320102453231811523e+00 -4.878120124340057373e-02 6.035592555999755859e-01 1.790719270706176758e+00 1.809031367301940918e+00 2.028288364410400391e+00 -1.793473243713378906e+00 -2.339980602264404297e+00
