1.588759303092956543e+00 1.097327232360839844e+00 2.208649158477783203e+00 1.572292327880859375e+00 -2.455646276473999023e+00 -3.159086227416992188e+00 -2.170776844024658203e+00 -2.006231069564819336e+00 -1.439675688743591309e+00 -1.906129002571105957e+00 -2.510932683944702148e+00 -1.078802227973937988e+00 3.323536157608032227e+00 -2.348386764526367188e+00 4.258877277374267578e+00 -4.127942562103271484e+00 1.072103381156921387e+00 -1.282315731048583984e+00 -2.809977054595947266e+00 -4.428108692169189453e+00 -2.247506856918334961e+00 -1.098389267921447754e+00 -2.968998670578002930e+00 3.279016733169555664e+00 3.290266275405883789e+00
-1.626086831092834473e-01 -1.319175481796264648e+00 2.341796875000000000e+00 -3.598308086395263672e+00 -2.205463886260986328e+00 -3.095127820968627930e+00 -3.219806671142578125e+00 6.643177270889282227e-01 -2.347121000289916992e+00 -2.709429264068603516e+00 9.295316785573959351e-02 -1.482527136802673340e+00 3.783297061920166016e+00 1.547431230545043945e+00 9.700030684471130371e-01 4.077554225921630859e+00 6.465027481317520142e-02 -1.104797720909118652e+00 -2.871027886867523193e-01 -9.478292465209960938e-01 2.886930704116821289e+00 -1.430378437042236328e+00 -3.768520653247833252e-01 -2.830063104629516602e+00 -3.710047006607055664e+00
1.563079714775085449e+00 -2.552135705947875977e+00 4.481218814849853516e+00 -5.410036087036132812e+00 2.051651239395141602e+00 -2.693788766860961914e+00 1.465461611747741699e+00 4.551302194595336914e-01 -1.595765352249145508e+00 6.956047534942626953e+00 1.172225236892700195e+00 -5.027420520782470703e+00 -1.665196776390075684e+00 1.125754833221435547e+00 -6.024589538574218750e+00 -2.043619871139526367e+00 -1.599046111106872559e+00 -3.848831355571746826e-01 -8.020064830780029297e-01 1.894400358200073242e+00 -1.847768902778625488e+00 -1.535054147243499756e-01 2.638890027999877930e+00 2.852562189102172852e+00 -3.696233034133911133e+00
3.465760231018066406e+00 -5.646927833557128906e+00 -1.889893054962158203e+00 -1.686452627182006836e+00 -3.293567657470703125e+00 -1.897199153900146484e+00 -1.754410147666931152e+00 2.961184978485107422e+00 -7.846183180809020996e-01 9.577737450599670410e-01 -3.677431106567382812e+00 2.356374740600585938e+00 -2.449612379074096680e+00 -2.941256284713745117e+00 -1.786153316497802734e+00 4.688180446624755859e+00 -1.881210207939147949e+00 2.217768192291259766e+00 -5.586430430412292480e-01 9.107102155685424805e-01 -1.175112128257751465e+00 -3.946920111775398254e-02 -5.212000012397766113e-01 1.784525632858276367e+00 -3.763864994049072266e+00
1.659193992614746094e+00 1.249800562858581543e+00 -2.032196283340454102e+00 1.740098446607589722e-01 9.485145807266235352e-01 2.268050909042358398e+00 -3.328809499740600586e+00 -5.075366020202636719e+00 -5.199319839477539062e+00 6.749734282493591309e-01 -2.915176630020141602e+00 -2.013493776321411133e+00 -2.290038019418716431e-01 -1.233580350875854492e+00 1.257102370262145996e+00 1.315794110298156738e+00 -4.993840694427490234e+00 4.574001312255859375e+00 2.106605052947998047e+00 3.676443696022033691e-01 -3.362480163574218750e+00 1.962355256080627441e+00 1.475539896637201309e-02 2.981550216674804688e+00 -3.833144426345825195e+00
4.739419937133789062e+00 -9.653111696243286133e-01 -4.721595287322998047e+00 -2.635316550731658936e-01 3.046743154525756836e+00 1.343981504440307617e+00 -4.055682182312011719e+00 -4.943618297576904297e+00 1.455341577529907227e+00 4.913732707500457764e-01 -4.054518043994903564e-01 -3.234693706035614014e-01 -3.282557010650634766e+00 1.247480139136314392e-01 3.171344757080078125e+00 1.381642341613769531e+00 -2.391719579696655273e+00 -3.948129653930664062e+00 -6.007324457168579102e-01 -3.110145330429077148e+00 3.031558752059936523e+00 -4.080813407897949219e+00 2.488570928573608398e+00 -3.225236415863037109e+00 2.150998353958129883e+00
1.778849244117736816e+00 -3.580121040344238281e+00 -3.079694509506225586e+00 -3.964384555816650391e+00 -1.387894153594970703e+00 -4.831766605377197266e+00 3.035506010055541992e+00 -6.175210475921630859e+00 1.701066970825195312e+00 1.855856418609619141e+00 2.073927640914916992e+00 -6.442209333181381226e-02 -4.826582074165344238e-01 -1.023168206214904785e+00 -2.636172175407409668e-01 -1.014196157455444336e+00 -4.528910636901855469e+00 -3.181879818439483643e-01 2.948557138442993164e+00 -1.222283840179443359e+00 1.033329606056213379e+00 -3.729884028434753418e-01 -2.395624369382858276e-01 -1.051258593797683716e-01 2.706459283828735352e+00
1.427459158003330231e-02 1.503634810447692871e+00 2.452774047851562500e+00 -7.979195713996887207e-01 7.749668508768081665e-02 3.573164701461791992e+00 4.065838456153869629e-01 5.169585704803466797e+00 1.784152239561080933e-01 -3.220174789428710938e+00 -9.624360799789428711e-01 7.169232368469238281e-01 1.903719544410705566e+00 2.386273384094238281e+00 -3.334563493728637695e+00 -5.166424751281738281e+00 -2.876335084438323975e-01 -5.965264797210693359e+00 9.415335208177566528e-02 -2.360142946243286133e+00 -4.267627239227294922e+00 2.746079206466674805e+00 -2.876154661178588867e+00 -5.433103561401367188e+00 2.109591960906982422e+00
-5.457453131675720215e-01 -3.158911228179931641e+00 8.001660108566284180e-01 -3.029358148574829102e+00 -3.804012060165405273e+00 9.007509350776672363e-01 -1.588775664567947388e-01 -1.329725980758666992e+00 5.523464202880859375e+00 3.414243459701538086e+00 2.737470388412475586e+00 -6.901289463043212891e+00 -2.662770271301269531e+00 -5.657892823219299316e-01 1.827108383178710938e+00 -1.651463359594345093e-01 -5.695822238922119141e-01 -1.043415904045104980e+00 -6.069055795669555664e-01 -7.561239600181579590e-01 5.978028178215026855e-01 2.698712348937988281e+00 -4.226997852325439453e+00 -5.093247413635253906e+00 2.779382467269897461e+00
-2.094624042510986328e+00 7.637652873992919922e+00 1.157381892204284668e+00 -4.317427575588226318e-01 4.769658088684082031e+00 -3.578773021697998047e+00 -2.865768194198608398e+00 -8.999580740928649902e-01 -4.976685047149658203e+00 2.631283044815063477e+00 -2.351416826248168945e+00 -5.889288902282714844e+00 -3.841404914855957031e+00 2.180809974670410156e+00 1.652737498283386230e+00 -1.004932761192321777e+00 1.259402513504028320e+00 9.130066633224487305e-01 8.347973823547363281e-01 -4.525925636291503906e+00 -1.968376040458679199e+00 -1.049073457717895508e+00 -8.221228718757629395e-01 -9.629141092300415039e-01 1.024161696434020996e+00
2.125573873519897461e+00 1.557920455932617188e+00 -3.551451861858367920e-01 2.456457138061523438e+00 -7.769744396209716797e-01 8.379509449005126953e-01 5.006596446037292480e-01 5.278919696807861328e+00 -1.047941803932189941e+00 -1.937428355216979980e+00 -2.881641864776611328e+00 -6.383624076843261719e-01 1.566482067108154297e+00 -2.697013378143310547e+00 5.665069222450256348e-01 -5.148157119750976562e+00 -4.255532264709472656e+00 -4.857859134674072266e+00 -1.131026387214660645e+00 -2.133602857589721680e+00 5.197201967239379883e-01 3.623364210128784180e+00 -2.442901611328125000e+00 5.234934091567993164e-01 -2.883759021759033203e+00
1.278110742568969727e+00 6.942130327224731445e-01 -1.988065242767333984e+00 1.260971188545227051e+00 -3.436864852905273438e+00 -3.330510377883911133e+00 -1.417778968811035156e+00 3.066910028457641602e+00 4.097023010253906250e+00 2.090384244918823242e+00 -2.017428725957870483e-01 1.451466202735900879e+00 3.614746809005737305e+00 1.423041939735412598e+00 -6.920125961303710938e+00 2.304125785827636719e+00 1.864721924066543579e-01 -2.366964340209960938e+00 -1.090231418609619141e+00 -3.979171037673950195e+00 2.891556262969970703e+00 -9.388144016265869141e-01 -3.714713752269744873e-01 -1.038578987121582031e+00 -8.183713912963867188e+00
-5.834163665771484375e+00 -3.160523891448974609e+00 5.979112982749938965e-01 2.590375840663909912e-01 3.420449972152709961e+00 -1.374334454536437988e+00 4.542659759521484375e+00 2.043539136648178101e-01 -7.306524515151977539e-01 2.146060168743133545e-01 8.732922673225402832e-01 5.595836639404296875e-01 -2.829360246658325195e+00 -2.120756208896636963e-01 3.191740989685058594e+00 2.157787322998046875e+00 2.275346517562866211e-01 -1.845902800559997559e+00 -4.741967201232910156e+00 -5.211939811706542969e+00 -3.234724521636962891e+00 1.307779312133789062e+00 -3.367611885070800781e+00 -1.282981157302856445e+00 1.414162158966064453e+00
-2.498586893081665039e+00 -2.206277847290039062e-01 5.571956038475036621e-01 -3.644328594207763672e+00 1.007708787918090820e+00 1.098168849945068359e+00 -3.598128795623779297e+00 1.554991483688354492e+00 -1.858574002981185913e-01 1.254989266395568848e+00 3.335401117801666260e-01 3.877124786376953125e+00 -4.535669326782226562e+00 3.202552199363708496e-01 -4.021954536437988281e+00 3.663851022720336914e+00 5.821262598037719727e-01 1.197475790977478027e+00 -5.243957519531250000e+00 -1.992424011230468750e+00 -2.492876768112182617e+00 -2.691966295242309570e-01 -3.676412343978881836e+00 2.869604110717773438e+00 -1.832269430160522461e+00
-3.308253049850463867e+00 3.414193987846374512e-01 5.275878682732582092e-02 2.980000257492065430e+00 -5.115801811218261719e+00 4.310228526592254639e-01 8.266205787658691406e-01 -3.065218210220336914e+00 -1.066840291023254395e+00 -5.090481758117675781e+00 2.275062203407287598e-01 -1.300088223069906235e-02 -1.659480810165405273e+00 -4.450757503509521484e+00 -2.342902183532714844e+00 2.930351257324218750e+00 -3.904640078544616699e-01 -1.115103244781494141e+00 -1.563459277153015137e+00 -3.637470304965972900e-01 -5.175784826278686523e-01 -1.414157599210739136e-01 4.384446144104003906e+00 4.285756051540374756e-01 2.283714294433593750e+00
-4.767678081989288330e-01 3.238275051116943359e+00 -6.139346361160278320e-01 -4.712158143520355225e-01 -1.206342577934265137e+00 -3.456652879714965820e+00 -1.834336876869201660e+00 -3.424231767654418945e+00 4.304533958435058594e+00 -1.785220146179199219e+00 -3.830740451812744141e+00 1.322203993797302246e+00 -2.550792694091796875e+00 -1.261566042900085449e+00 -1.509383171796798706e-01 -5.397729873657226562e+00 2.894374847412109375e+00 3.111901521682739258e+00 -2.403963327407836914e+00 -1.939743518829345703e+00 6.275977134704589844e+00 -2.549761056900024414e+00 -1.598747014999389648e+00 -1.121706962585449219e+00 -3.309651836752891541e-02
-5.615377426147460938e+00 3.830518960952758789e+00 -3.074839115142822266e+00 -1.933363080024719238e+00 -2.997646570205688477e+00 -8.426330685615539551e-01 -1.627799153327941895e+00 -1.388219594955444336e+00 4.906628131866455078e+00 -2.595898151397705078e+00 2.841828584671020508e+00 4.365043163299560547e+00 -2.058079481124877930e+00 1.237703919410705566e+00 -5.609908103942871094e+00 1.067495584487915039e+00 8.936673402786254883e-01 -2.004501819610595703e+00 1.454610675573348999e-01 2.665223598480224609e+00 -1.953029394149780273e+00 -2.642775535583496094e+00 -2.797895669937133789e+00 9.637099504470825195e-01 7.135183811187744141e-01
2.477513313293457031e+00 -3.671258091926574707e-01 -3.759889364242553711e+00 -1.593154072761535645e-01 -3.727655410766601562e+00 1.118013784289360046e-01 -7.530478239059448242e-01 -4.210823535919189453e+00 -4.950229167938232422e+00 3.806478977203369141e+00 1.381294131278991699e-01 -4.512685298919677734e+00 -1.281304001808166504e+00 2.765673637390136719e+00 1.241181969642639160e+00 -1.956973910331726074e+00 2.287654161453247070e+00 -1.380620300769805908e-01 -2.555960416793823242e+00 5.677137374877929688e+00 -2.244792938232421875e+00 2.014912128448486328e+00 3.289907455444335938e+00 -3.801432609558105469e+00 4.527256786823272705e-01
-1.784230351448059082e+00 1.232489109039306641e+00 -1.465018272399902344e+00 -1.587166428565979004e+00 4.885149598121643066e-01 3.641138553619384766e+00 -1.133316755294799805e+00 1.266042351722717285e+00 3.228613853454589844e+00 -9.095470905303955078e-01 -4.344265937805175781e+00 -3.497544765472412109e+00 -5.214302539825439453e+00 1.460147857666015625e+00 -7.967330217361450195e-01 -5.297801494598388672e+00 2.229143142700195312e+00 1.153577089309692383e+00 5.902884960174560547e+00 1.163905382156372070e+00 -5.738610029220581055e-01 -4.710968017578125000e+00 -6.374391913414001465e-01 -4.090027809143066406e+00 1.477065920829772949e+00
-3.485558748245239258e+00 -3.720593690872192383e+00 -3.483309984207153320e+00 6.424090862274169922e-01 9.591225534677505493e-02 -1.198653459548950195e+00 1.463342428207397461e+00 1.820630192756652832e+00 -1.890877842903137207e+00 1.302018404006958008e+00 -4.890482127666473389e-01 8.802261948585510254e-01 -2.695882558822631836e+00 -3.640909671783447266e+00 2.578409016132354736e-01 2.365262269973754883e+00 -7.881652712821960449e-01 -2.603528022766113281e+00 6.517165899276733398e-01 -2.944998741149902344e+00 -1.311125516891479492e+00 8.795980811119079590e-01 -5.687958002090454102e-01 7.460077852010726929e-02 1.464995980262756348e+00
-1.309007167816162109e+00 -3.197492599487304688e+00 -3.233184337615966797e+00 -1.451207756996154785e+00 9.352543205022811890e-02 -1.870314955711364746e+00 3.323364496231079102e+00 1.706348419189453125e+00 -3.026511430740356445e+00 2.293410062789916992e+00 2.990480899810791016e+00 2.303498744964599609e+00 -3.623470544815063477e+00 -3.233733892440795898e+00 3.218658208847045898e+00 -3.763774335384368896e-01 -1.938983201980590820e+00 -3.649667501449584961e+00 1.510936617851257324e+00 -1.382477283477783203e+00 -2.939669489860534668e-01 -4.124966144561767578e+00 1.909936070442199707e+00 1.081765532493591309e+00 -3.770708441734313965e-01
-1.752078652381896973e+00 -5.134785175323486328e-01 -1.229500293731689453e+00 6.365506649017333984e-01 -5.634757041931152344e+00 2.473645210266113281e+00 -4.539461612701416016e+00 -1.577371358871459961e+00 3.715214729309082031e-01 -1.907606363296508789e+00 -3.664512395858764648e+00 -1.707572579383850098e+00 7.108195781707763672e+00 1.023032188415527344e+00 5.476689815521240234e+00 3.960857689380645752e-01 -2.959869861602783203e+00 -3.834738492965698242e+00 -2.293275833129882812e+00 -2.249372243881225586e+00 -9.781116247177124023e-01 -1.950849294662475586e+00 4.931668281555175781e+00 2.443834781646728516e+00 -1.003209829330444336e+00
1.706856489181518555e+00 -1.934915304183959961e+00 -1.807215452194213867e+00 -2.023084402084350586e+00 -3.048141300678253174e-01 -3.115640640258789062e+00 1.580327510833740234e+00 2.698597311973571777e-01 -2.741175413131713867e+00 1.140739679336547852e+00 3.898049116134643555e+00 1.500154376029968262e+00 -2.914713144302368164e+00 -2.480788707733154297e+00 2.692421674728393555e+00 -2.818320751190185547e+00 -2.410234928131103516e+00 -2.261001110076904297e+00 1.049733161926269531e+00 1.240183234214782715e+00 5.875833630561828613e-01 -6.164498805999755859e+00 1.793960809707641602e+00 1.028982162475585938e+00 -2.512073993682861328e+00
-1.220866084098815918e+00 2.360687971115112305e+00 4.529894590377807617e-01 -7.645733952522277832e-01 3.331153869628906250e+00 -2.500571250915527344e+00 2.414824247360229492e+00 -4.786747932434082031e+00 3.759424686431884766e+00 -1.423726677894592285e+00 2.551821947097778320e+00 -4.850436687469482422e+00 -2.450231790542602539e+00 3.184570312500000000e+00 -4.316215991973876953e+00 3.409766197204589844e+00 -4.879241466522216797e+00 -7.761491537094116211e-01 -6.967093944549560547e-01 -3.102760791778564453e+00 1.688951969146728516e+00 -2.101927995681762695e+00 -3.401766419410705566e-01 -1.062585264444351196e-01 -1.360401868820190430e+00
-2.591778278350830078e+00 2.687891960144042969e+00 5.077120780944824219e+00 2.911633551120758057e-01 -3.431931972503662109e+00 -1.178680419921875000e+00 -1.636319875717163086e+00 2.917468309402465820e+00 -3.271440505981445312e+00 -1.790005445480346680e+00 -2.698410272598266602e+00 -3.448111534118652344e+00 -3.300520777702331543e-01 4.748466014862060547e-01 -1.894148707389831543e+00 3.738676071166992188e+00 4.481048583984375000e+00 3.937050327658653259e-02 -3.749992609024047852e+00 -1.016735434532165527e+00 9.151011705398559570e-01 -5.903764724731445312e+00 -3.095817565917968750e+00 9.300597943365573883e-03 7.107014060020446777e-01
2.280877113342285156e+00 -5.013494491577148438e+00 3.194800138473510742e+00 2.416537523269653320e+00 -3.453408241271972656e+00 -4.071985721588134766e+00 1.986957788467407227e+00 -1.279633879661560059e+00 2.993838071823120117e+00 7.695965766906738281e-01 3.329978227615356445e+00 -9.495739936828613281e-01 5.041712760925292969e+00 -3.710170507431030273e+00 -8.216138482093811035e-01 -2.411088228225708008e+00 9.716455340385437012e-01 -2.098148107528686523e+00 -6.523489952087402344e-02 -1.023007631301879883e+00 -3.799661636352539062e+00 -9.529293179512023926e-01 -5.654024600982666016e+00 -1.757800340652465820e+00 1.045521855354309082e+00
-4.006039142608642578e+00 -9.415545463562011719e-01 -3.735962390899658203e+00 1.707710474729537964e-01 -3.949846267700195312e+00 3.642495155334472656e+00 2.100690841674804688e+00 1.234235525131225586e+00 2.763695716857910156e+00 5.585896968841552734e-01 1.779759168624877930e+00 6.165052056312561035e-01 -1.150992155075073242e+00 -5.070274829864501953e+00 -3.435824871063232422e+00 2.346793413162231445e+00 -1.491809356957674026e-02 -4.204730987548828125e+00 -1.124193429946899414e+00 -5.445310592651367188e+00 -2.452757596969604492e+00 4.711948871612548828e+00 4.296303689479827881e-01 2.847107946872711182e-01 1.972670078277587891e+00
-1.131515741348266602e+00 5.019741058349609375e+00 -2.869316749274730682e-02 -5.033867955207824707e-01 -3.351910591125488281e+00 2.397602319717407227e+00 1.947374105453491211e+00 -3.309154272079467773e+00 -1.330203264951705933e-01 -1.435998320579528809e+00 -1.400228738784790039e+00 4.315882325172424316e-01 -2.487704753875732422e+00 1.079576730728149414e+00 -2.042119026184082031e+00 8.994545936584472656e-01 -8.355580568313598633e-01 1.844370603561401367e+00 2.031134843826293945e+00 1.055193066596984863e+00 3.007120266556739807e-02 -3.816476106643676758e+00 -5.126971244812011719e+00 8.065632581710815430e-01 -6.618160724639892578e+00
5.799363613128662109e+00 3.677441358566284180e+00 6.842365860939025879e-01 -2.649833679199218750e+00 2.374723672866821289e+00 1.343436121940612793e+00 -3.836372137069702148e+00 1.560858964920043945e+00 2.326935529708862305e+00 -4.016129970550537109e+00 -1.372087448835372925e-01 -4.084126472473144531e+00 -1.085842370986938477e+00 -2.698542833328247070e+00 -3.294879674911499023e+00 -4.888907074928283691e-01 -1.984162777662277222e-01 4.227069914340972900e-01 -1.332552552223205566e+00 -4.861272811889648438e+00 -1.770337462425231934e+00 -2.145481348037719727e+00 -3.901279687881469727e+00 3.269747495651245117e-01 5.752526283264160156e+00
-1.153073549270629883e+00 1.814063191413879395e+00 1.556321144104003906e+00 6.380164027214050293e-01 -1.077071785926818848e+00 -3.875579595565795898e+00 -4.649963855743408203e+00 -4.049332141876220703e+00 -4.975081920623779297e+00 -2.006965922191739082e-03 -3.674670755863189697e-01 2.527621507644653320e+00 1.216857671737670898e+00 4.095249652862548828e+00 -1.246747612953186035e+00 -1.654771417379379272e-01 1.605622291564941406e+00 -2.156168460845947266e+00 -1.117076277732849121e+00 -8.748972415924072266e-01 2.071575403213500977e+00 3.118962764739990234e+00 3.553172588348388672e+00 -6.478816032409667969e+00 -2.286316156387329102e+00
-6.018784046173095703e+00 -1.284623146057128906e+00 1.287636160850524902e+00 -5.120646953582763672e+00 3.094001054763793945e+00 -5.456792116165161133e-01 -3.252164602279663086e+00 3.605501651763916016e-01 -6.002534866333007812e+00 2.954593896865844727e-01 2.074758291244506836e+00 2.873992204666137695e+00 1.808171749114990234e+00 -2.024140655994415283e-01 3.359230041503906250e+00 3.847954422235488892e-02 -5.235106945037841797e+00 2.608826637268066406e+00 -2.145226001739501953e+00 3.583385050296783447e-01 -1.712731122970581055e-01 -2.091652154922485352e+00 2.705023288726806641e-01 -6.942052245140075684e-01 2.967973649501800537e-01
1.260565280914306641e+00 -4.822790622711181641e+00 4.839097023010253906e+00 -8.086382746696472168e-01 -3.202293872833251953e+00 1.318682670593261719e+00 -2.407541513442993164e+00 -3.911516189575195312e+00 -2.358783245086669922e+00 -1.120140552520751953e+00 2.632878780364990234e+00 -6.726318597793579102e-01 -1.659553885459899902e+00 -1.648073077201843262e+00 7.267920374870300293e-01 5.088678359985351562e+00 -5.571961879730224609e+00 3.173136949539184570e+00 -9.188601374626159668e-01 -1.858918547630310059e+00 -5.487238764762878418e-01 3.696706056594848633e+00 -3.989699482917785645e-01 -3.019653558731079102e+00 4.410947263240814209e-01
4.361187934875488281e+00 -2.396835565567016602e+00 -5.042854309082031250e+00 2.336034327745437622e-01 -9.187185168266296387e-01 3.405881812795996666e-03 8.621031641960144043e-01 1.674253344535827637e+00 7.730932235717773438e-01 -2.503990411758422852e+00 -4.186014652252197266e+00 -1.514424562454223633e+00 -1.532036423683166504e+00 -2.211446046829223633e+00 -1.443048238754272461e+00 5.099813938140869141e-01 4.372876286506652832e-01 2.464865684509277344e+00 -1.789063096046447754e+00 3.187473773956298828e+00 -4.389919757843017578e+00 -8.582342863082885742e-01 4.582134485244750977e-01 -2.525189638137817383e+00 2.364643096923828125e+00
-2.789111852645874023e+00 -2.414991855621337891e+00 -2.087792195379734039e-02 -4.450060844421386719e+00 -5.197302997112274170e-02 -9.318315237760543823e-02 -1.937553405761718750e+00 2.719586610794067383e+00 -1.832554221153259277e+00 3.725620269775390625e+00 1.824582070112228394e-01 -3.858781814575195312e+00 -4.660880088806152344e+00 1.572510123252868652e+00 2.429007053375244141e+00 -3.263293504714965820e+00 -3.510161042213439941e-01 -2.760931849479675293e-01 3.012958765029907227e+00 2.188457012176513672e+00 -1.080005168914794922e+00 -2.831732034683227539e+00 1.716364979743957520e+00 -1.782252550125122070e+00 -1.439282178878784180e+00
-8.586881160736083984e-01 -1.447518110275268555e+00 -6.399633288383483887e-01 -1.597272396087646484e+00 3.523596525192260742e+00 4.579279899597167969e+00 -1.022313117980957031e+00 -8.429474830627441406e-01 1.409255504608154297e+00 -1.198870182037353516e+00 -6.355030059814453125e+00 1.279031991958618164e+00 -2.291524559259414673e-01 1.970861673355102539e+00 3.130932331085205078e+00 -5.672415733337402344e+00 -3.082128763198852539e+00 3.985996544361114502e-01 1.817317008972167969e+00 -1.967193841934204102e+00 3.119421958923339844e+00 -4.002624511718750000e+00 1.458837866783142090e+00 -2.594063043594360352e+00 -4.660179615020751953e+00
1.940645575523376465e+00 8.932367563247680664e-01 8.775098919868469238e-01 -2.579239368438720703e+00 -2.605951070785522461e+00 3.173389673233032227e+00 2.985605239868164062e+00 -2.061916828155517578e+00 -3.603225946426391602e+00 -2.396365642547607422e+00 -2.571340084075927734e+00 -4.078040599822998047e+00 -1.113160133361816406e+00 -2.472705364227294922e+00 -3.455557584762573242e+00 2.776191473007202148e+00 1.492006301879882812e+00 1.859409451484680176e+00 -1.098093628883361816e+00 6.183251857757568359e+00 -4.404689311981201172e+00 -2.425919055938720703e+00 -3.928767442703247070e-01 3.705544471740722656e+00 -1.590152859687805176e+00
-3.075951814651489258e+00 2.557778358459472656e+00 -5.545880794525146484e+00 -3.313405513763427734e+00 3.652965068817138672e+00 -6.878090500831604004e-01 -9.364221692085266113e-01 -3.329891443252563477e+00 -1.105221748352050781e+00 5.163811892271041870e-02 6.088945269584655762e-01 2.030066996812820435e-01 2.999329090118408203e+00 -2.575321674346923828e+00 -5.590899944305419922e+00 -1.112032651901245117e+00 -3.195203244686126709e-01 3.232892751693725586e+00 1.145809173583984375e+00 3.441987931728363037e-02 1.767364263534545898e+00 2.172000885009765625e+00 -3.739843368530273438e+00 3.308928966522216797e+00 -2.484207898378372192e-01
-1.368122816085815430e+00 -4.413458347320556641e+00 -4.793432712554931641e+00 4.993054389953613281e+00 1.418125152587890625e+00 -3.603860616683959961e+00 9.676243364810943604e-02 2.322773933410644531e+00 -3.934803247451782227e+00 -3.879456520080566406e-01 1.338443875312805176e+00 9.538937211036682129e-01 -2.890731811523437500e+00 -5.385794639587402344e+00 -8.551988601684570312e-01 3.343977034091949463e-01 -9.621151089668273926e-01 8.618902564048767090e-01 1.923044443130493164e+00 -2.109831809997558594e+00 3.019599914550781250e+00 3.067588567733764648e+00 -9.184701740741729736e-02 7.921317815780639648e-01 -3.457521438598632812e+00
-1.209088444709777832e+00 -2.954638481140136719e+00 3.469386100769042969e+00 4.338272094726562500e+00 -1.317082643508911133e+00 -6.951149702072143555e-01 -2.115329504013061523e+00 3.957079648971557617e-01 -5.253563523292541504e-01 -3.750074863433837891e+00 -3.964257001876831055e+00 -1.176847457885742188e+00 -3.114227056503295898e+00 -2.008309960365295410e-01 -6.254837989807128906e+00 -3.540572643280029297e+00 5.908086299896240234e-01 -3.076329231262207031e+00 -4.670513629913330078e+00 5.261759281158447266e+00 1.011388897895812988e+00 4.231990814208984375e+00 5.440779209136962891e+00 1.303665190935134888e-01 1.248021602630615234e+00
1.385747313499450684e+00 4.400794029235839844e+00 -1.977577447891235352e+00 2.370276689529418945e+00 -5.725293159484863281e+00 -2.225078582763671875e+00 2.425229310989379883e+00 -4.110914707183837891e+00 -4.081029593944549561e-01 -3.848355710506439209e-01 4.862665653228759766e+00 1.670323133468627930e+00 -4.961926937103271484e+00 -1.187539249658584595e-01 1.037425041198730469e+00 -1.476615428924560547e+00 -6.986063718795776367e-01 9.741932153701782227e-01 4.901878356933593750e+00 -3.024005651473999023e+00 -1.759211540222167969e+00 -2.210260152816772461e+00 -2.450563013553619385e-01 -4.998814105987548828e+00 -2.363917350769042969e+00
5.884477615356445312e+00 -2.484225034713745117e+00 -5.555000782012939453e+00 -4.876064881682395935e-02 1.243966460227966309e+00 1.096003782004117966e-02 -1.786080598831176758e+00 2.056124448776245117e+00 6.616337299346923828e-01 -9.796604514122009277e-01 -5.080218791961669922e+00 1.260049343109130859e-01 -1.470033884048461914e+00 1.201235294342041016e+00 -1.838609099388122559e+00 1.589048624038696289e+00 -4.906687736511230469e-01 1.519509792327880859e+00 -2.627049446105957031e+00 4.653124511241912842e-01 -5.491246700286865234e+00 -2.609557867050170898e+00 3.497431755065917969e+00 7.143197953701019287e-02 -6.021880507469177246e-01
-6.286085247993469238e-01 -3.119483947753906250e+00 8.476309776306152344e-01 7.597635984420776367e-01 6.500862240791320801e-01 -3.779775381088256836e+00 -5.485950112342834473e-01 2.685231685638427734e+00 1.159454941749572754e+00 2.495669275522232056e-01 1.449702262878417969e+00 -4.900514602661132812e+00 -7.602902650833129883e-01 -4.044947147369384766e+00 -3.648405075073242188e-01 -2.264181137084960938e+00 -1.523959279060363770e+00 -2.259117126464843750e+00 -1.622333765029907227e+00 2.669618606567382812e+00 2.591052055358886719e+00 2.353430747985839844e+00 -2.628270387649536133e+00 3.958815932273864746e-01 -1.010390043258666992e+00
-3.456451654434204102e+00 -2.733244419097900391e+00 2.606654405593872070e+00 5.387501239776611328e+00 4.863648414611816406e+00 -4.252703189849853516e+00 3.315666913986206055e-01 -1.270890355110168457e+00 -6.744005680084228516e-01 -4.530419826507568359e+00 -1.311157703399658203e+00 -1.879739761352539062e+00 1.158432126045227051e+00 1.848611831665039062e+00 2.743128538131713867e+00 -4.137547492980957031e+00 -3.927524760365486145e-02 -4.797364711761474609e+00 2.430987358093261719e-01 -1.499452829360961914e+00 -7.343917489051818848e-01 2.820705175399780273e+00 -2.498041152954101562e+00 4.816726744174957275e-01 -2.296259880065917969e+00
1.714506268501281738e+00 -5.317974567413330078e+00 -2.251787662506103516e+00 -7.329022407531738281e+00 -2.884827136993408203e+00 1.508409857749938965e+00 4.430787563323974609e-01 4.232153892517089844e-01 2.503113269805908203e+00 5.959882400929927826e-03 8.898884057998657227e-01 -2.415596246719360352e+00 6.351946830749511719e+00 -2.224217653274536133e+00 7.456791996955871582e-01 -1.398379087448120117e+00 1.979209661483764648e+00 -2.308717012405395508e+00 -2.930634975433349609e+00 6.983496665954589844e+00 3.249421834945678711e+00 -4.465873718261718750e+00 -2.297730684280395508e+00 -4.939828515052795410e-01 -2.477201968431472778e-01
-4.696686267852783203e+00 1.907857537269592285e+00 -2.252894878387451172e+00 -1.545946836471557617e+00 -1.959913969039916992e-01 8.410141468048095703e-01 3.563540220260620117e+00 -2.015249013900756836e+00 -8.770402520895004272e-02 2.252950221300125122e-01 -1.884197473526000977e+00 -2.690648078918457031e+00 2.465656995773315430e-01 4.422379970550537109e+00 2.223890066146850586e+00 8.462001085281372070e-01 -2.336037009954452515e-01 -3.605597019195556641e+00 -3.778818130493164062e+00 -2.004437446594238281e+00 -2.643395900726318359e+00 2.992375612258911133e+00 4.616754949092864990e-01 -2.666475296020507812e+00 -1.171438097953796387e+00
6.394276618957519531e-01 -3.611769199371337891e+00 1.145598530769348145e+00 -3.329301357269287109e+00 4.664595127105712891e+00 6.436274647712707520e-01 -1.745920777320861816e+00 2.219789266586303711e+00 -2.939252376556396484e+00 -3.098689794540405273e+00 3.009212970733642578e+00 4.078261852264404297e+00 2.170013904571533203e+00 -3.711900413036346436e-01 -1.177214026451110840e+00 -3.395991623401641846e-01 -1.267224311828613281e+00 3.540233671665191650e-01 1.533927619457244873e-01 -3.083139896392822266e+00 2.060184478759765625e+00 -5.325837060809135437e-03 -6.283397197723388672e+00 -4.052576541900634766e+00 -3.659883975982666016e+00
6.828716993331909180e-01 1.751667618751525879e+00 1.944565773010253906e-01 2.198351383209228516e+00 -2.392956972122192383e+00 -1.649544119834899902e+00 -4.134717941284179688e+00 -4.092706680297851562e+00 -1.265117645263671875e+00 -6.383473873138427734e-01 -5.151047229766845703e+00 9.595881104469299316e-01 -1.190988659858703613e+00 -1.993441820144653320e+00 -3.366926670074462891e+00 7.611311674118041992e-01 -1.166069626808166504e+00 3.616254091262817383e+00 5.113740563392639160e-01 1.349866032600402832e+00 2.066507101058959961e+00 3.394340515136718750e+00 -1.360504865646362305e+00 8.162931203842163086e-01 -5.255691528320312500e+00
-1.290722846984863281e+00 9.878116250038146973e-01 -4.824658870697021484e+00 -2.874098345637321472e-02 4.290989875793457031e+00 -3.790495395660400391e+00 8.894972205162048340e-01 -2.301970243453979492e+00 -3.795415639877319336e+00 2.333286285400390625e+00 3.229833126068115234e+00 6.708120703697204590e-01 1.518341541290283203e+00 -1.632335543632507324e+00 -3.436563014984130859e+00 -4.469604492187500000e+00 -2.062776565551757812e+00 3.195102453231811523e+00 2.878808975219726562e+00 -3.940954446792602539e+00 1.933352202177047729e-01 -7.593161463737487793e-01 -1.201710999011993408e-01 6.574750542640686035e-01 -2.318994522094726562e+00
-5.378234386444091797e+00 -2.441648006439208984e+00 -3.631476402282714844e+00 3.100536823272705078e+00 5.312159061431884766e-01 -1.095679402351379395e+00 2.838615179061889648e+00 -4.049435615539550781e+00 -1.801508903503417969e+00 -1.109979629516601562e+00 -4.474836826324462891e+00 2.861643075942993164e+00 2.747956514358520508e+00 -5.943177938461303711e-01 2.277042627334594727e+00 -1.929012060165405273e+00 1.960261106491088867e+00 2.196190834045410156e+00 -6.441793441772460938e+00 2.945597648620605469e+00 9.792951345443725586e-01 -2.816026449203491211e+00 8.089624047279357910e-01 -2.799014091491699219e+00 3.288646697998046875e+00
-3.670804262161254883e+00 -9.628958255052566528e-02 -2.878657281398773193e-01 2.494840860366821289e+00 -2.516708374023437500e+00 -2.167270421981811523e+00 -2.674709081649780273e+00 -1.504012823104858398e+00 1.356679558753967285e+00 -4.634770870208740234e+00 1.522343397140502930e+00 7.509812712669372559e-01 -2.306521236896514893e-01 6.419674754142761230e-01 -1.223401784896850586e+00 -3.643259048461914062e+00 2.820360898971557617e+00 -4.354053497314453125e+00 4.383197784423828125e+00 9.894880652427673340e-01 -4.703047752380371094e+00 5.028045922517776489e-02 1.616533637046813965e+00 1.864202134311199188e-02 6.096891164779663086e-01
