6.044880390167236328e+00 -1.403647184371948242e+00 -1.327162146568298340e+00 2.249994277954101562e+00 -3.652974069118499756e-01 -1.599184632301330566e+00 4.660077095031738281e+00 -1.448573827743530273e+00 5.994492173194885254e-01 1.338175177574157715e+00 -6.759106159210205078e+00 4.288378715515136719e+00 -1.288926124572753906e+00 4.696252822875976562e+00 -2.299260854721069336e+00 3.960598468780517578e+00 8.598313927650451660e-01 -4.568546295166015625e+00 -7.208441257476806641e+00 -5.030696868896484375e+00 -6.887631416320800781e+00 6.629242897033691406e-01 -2.467134475708007812e+00 -1.235166668891906738e+00 -1.402917385101318359e+00 -7.526437044143676758e-01 -7.567773461341857910e-01 -1.108148217201232910e+00 -2.728966951370239258e+00 -4.776056110858917236e-01 -4.020809531211853027e-01 5.772736072540283203e+00 3.281265258789062500e+00 3.125591754913330078e+00 -5.631749629974365234e+00 -1.523731827735900879e+00 9.527503252029418945e-01 3.563546895980834961e+00 -2.583518266677856445e+00 5.360617160797119141e+00 1.544283390045166016e+00 5.373815536499023438e+00 -2.485437393188476562e+00 -4.295425415039062500e-01 4.820475578308105469e+00 2.268413156270980835e-01 1.945903658866882324e+00 4.129133701324462891e+00 1.503481745719909668e+00 -6.618745326995849609e+00
-6.127660274505615234e+00 -3.148445188999176025e-01 2.515651099383831024e-02 -5.320921421051025391e+00 -2.047274857759475708e-01 1.907037258148193359e+00 -7.628358602523803711e-01 6.657940387725830078e+00 -1.621653437614440918e+00 6.787458419799804688e+00 4.885841846466064453e+00 1.671188712120056152e+00 -2.861627340316772461e+00 7.661203145980834961e-01 1.118385434150695801e+00 1.374460101127624512e+00 -5.330460071563720703e+00 -1.278957128524780273e+00 -3.264847517013549805e+00 -5.635524272918701172e+00 5.233379364013671875e+00 3.009859472513198853e-02 4.688531398773193359e+00 -4.936081886291503906e+00 1.260828495025634766e+00 -5.112514972686767578e+00 9.752415418624877930e-01 4.679891467094421387e-01 -2.221154123544692993e-01 6.509419441223144531e+00 -4.904474258422851562e+00 -4.107073307037353516e+00 4.724414825439453125e+00 1.820965766906738281e+00 -1.646578669548034668e+00 -4.774817466735839844e+00 1.287406921386718750e+00 5.907732009887695312e+00 2.950895428657531738e-01 1.588773369789123535e+00 -6.284144878387451172e+00 1.119449734687805176e+00 -3.229520797729492188e+00 5.738860607147216797e+00 1.123330965638160706e-01 1.682648658752441406e+00 -6.839247345924377441e-01 6.034317970275878906e+00 -3.818680286407470703e+00 -2.235340833663940430e+00
6.513171672821044922e+00 3.848864793777465820e+00 7.014760971069335938e+00 5.237520694732666016e+00 -4.468171596527099609e+00 -6.469254016876220703e+00 5.037046670913696289e-01 4.883138239383697510e-01 -4.596943259239196777e-01 5.675149440765380859e+00 6.399520874023437500e+00 2.480349063873291016e+00 2.995134592056274414e-01 8.294305950403213501e-02 -1.381643772125244141e+00 8.209872841835021973e-01 9.908486008644104004e-01 1.442535128444433212e-02 2.563364982604980469e+00 1.134960174560546875e+00 -1.205316543579101562e+00 6.316372394561767578e+00 5.592444896697998047e+00 -5.091234683990478516e+00 -5.306799411773681641e+00 -5.487941741943359375e+00 -2.669608592987060547e+00 3.104582548141479492e+00 2.249973453581333160e-02 1.965486556291580200e-01 1.737312316894531250e+00 6.744013428688049316e-01 -7.865676283836364746e-01 -1.369574427604675293e+00 1.490331739187240601e-01 -3.078703880310058594e+00 5.195818424224853516e+00 -6.267451047897338867e-01 -4.598715782165527344e+00 7.839375138282775879e-01 -6.223891735076904297e+00 -3.749923229217529297e+00 3.090535700321197510e-01 -5.123710155487060547e+00 4.032109677791595459e-01 -1.031004190444946289e+00 -4.170420646667480469e+00 -6.132760524749755859e+00 -4.389672279357910156e-01 1.378441810607910156e+00
-6.126016974449157715e-01 -5.759555339813232422e+00 4.242022037506103516e+00 -6.078294277191162109e+00 -6.465721130371093750e+00 -3.135068714618682861e-02 -1.032878756523132324e+00 6.734213352203369141e+00 -1.658709645271301270e+00 -2.068589627742767334e-01 -1.984363436698913574e+00 -1.893112897872924805e+00 5.184511661529541016e+00 -5.902483463287353516e+00 5.632507205009460449e-01 -4.787343978881835938e+00 6.605587005615234375e+00 -2.641970157623291016e+00 -7.676964998245239258e-01 1.255672931671142578e+00 -1.883603185415267944e-01 -6.515038967132568359e+00 7.696722149848937988e-01 -3.544248342514038086e-01 6.469264626502990723e-01 -2.001173049211502075e-02 -1.045554876327514648e+00 -1.080374717712402344e+00 5.278652191162109375e+00 -5.901211261749267578e+00 2.869581058621406555e-02 2.466029405593872070e+00 -6.929719448089599609e-01 6.674679756164550781e+00 3.828279256820678711e+00 -2.585446834564208984e+00 -3.413185477256774902e-01 5.294392585754394531e+00 7.813151478767395020e-01 7.123444676399230957e-01 1.338450551033020020e+00 -1.702069759368896484e+00 -9.634438157081604004e-01 -4.720655918121337891e+00 2.551136016845703125e+00 -2.243595361709594727e+00 3.801542818546295166e-01 1.611351490020751953e+00 5.202770709991455078e+00 5.666622638702392578e+00
5.245744585990905762e-01 5.787089347839355469e+00 6.112493038177490234e+00 -2.021195888519287109e+00 5.345799922943115234e+00 -1.043186187744140625e+00 -8.976554870605468750e-01 -6.471115946769714355e-01 5.656239509582519531e+00 -1.729049921035766602e+00 2.791067838668823242e+00 -3.572851657867431641e+00 -6.479415893554687500e+00 -5.002905726432800293e-01 -6.015252590179443359e+00 -1.559571981430053711e+00 -5.551155090332031250e+00 -1.479967951774597168e+00 -3.013188838958740234e+00 5.787966251373291016e+00 -6.979236602783203125e-01 -1.868451476097106934e+00 1.518954515457153320e+00 -1.173599362373352051e+00 1.945868134498596191e+00 -1.380355358123779297e+00 -6.291293501853942871e-01 -3.988924741744995117e+00 -1.182909369468688965e+00 2.596507310867309570e+00 1.630722880363464355e+00 -7.488502562046051025e-02 6.653941869735717773e-01 1.251263469457626343e-01 3.988799810409545898e+00 -5.445985794067382812e+00 -4.923217773437500000e+00 -3.758586049079895020e-01 -2.644651174545288086e+00 -3.591016292572021484e+00 4.435118675231933594e+00 -6.521024703979492188e+00 7.404194474220275879e-01 -9.385835528373718262e-01 5.686156272888183594e+00 5.659759521484375000e+00 -2.289836168289184570e+00 6.452963829040527344e+00 4.744676589965820312e+00 -2.983430624008178711e-01
-6.381538510322570801e-01 -4.892161488533020020e-01 3.913077354431152344e+00 -9.085612893104553223e-01 5.944776535034179688e+00 -1.738704919815063477e+00 6.700641155242919922e+00 -6.288860321044921875e+00 -2.153359889984130859e+00 2.992247819900512695e+00 -4.962740242481231689e-01 4.549170434474945068e-01 -1.117113471031188965e+00 -2.588559865951538086e+00 -1.368338465690612793e-01 -1.318257093429565430e+00 1.198651790618896484e+00 1.039029598236083984e+00 -8.914339542388916016e-01 3.470784187316894531e+00 2.904832363128662109e+00 6.080765724182128906e+00 -9.687995314598083496e-01 5.068086624145507812e+00 -6.109433770179748535e-01 3.981743097305297852e+00 -2.021030187606811523e+00 3.715741634368896484e+00 -1.957117915153503418e+00 -8.514798879623413086e-01 -4.195992469787597656e+00 -6.809392929077148438e+00 2.764074802398681641e-01 9.394342899322509766e-01 -3.632341146469116211e+00 -6.207813262939453125e+00 -6.060295581817626953e+00 3.622435569763183594e+00 9.572103619575500488e-02 -6.434578895568847656e+00 1.006016731262207031e+00 1.423996925354003906e+00 4.972699642181396484e+00 8.620791435241699219e-01 -5.438676357269287109e+00 -6.533166885375976562e+00 2.719378709793090820e+00 3.506160080432891846e-01 3.799676895141601562e-01 6.373847007751464844e+00
-1.023614525794982910e+00 -1.149678111076354980e+00 -7.315908908843994141e+00 1.116603016853332520e+00 -9.406145215034484863e-01 -2.328842163085937500e+00 -5.537314414978027344e+00 -1.306229829788208008e-01 -5.386858940124511719e+00 5.859665870666503906e+00 2.397353410720825195e+00 -6.780882835388183594e+00 -3.967211961746215820e+00 -5.594895839691162109e+00 -4.712855443358421326e-02 8.172805905342102051e-01 4.729697704315185547e+00 1.082026839256286621e+00 -1.651809811592102051e+00 5.534244060516357422e+00 -3.576626777648925781e+00 3.214568138122558594e+00 -2.197350502014160156e+00 -1.056921124458312988e+00 6.243737697601318359e+00 5.589730262756347656e+00 4.810934066772460938e+00 4.942196369171142578e+00 3.667754650115966797e+00 -1.294648528099060059e+00 3.901413917541503906e+00 -2.899520874023437500e+00 4.134923458099365234e+00 -6.137535572052001953e+00 -4.814061820507049561e-01 -1.554948329925537109e+00 3.913392066955566406e+00 4.802722036838531494e-01 -3.546430826187133789e+00 3.090955913066864014e-01 4.148407459259033203e+00 1.574115514755249023e+00 -5.543493270874023438e+00 6.448958516120910645e-01 4.688939571380615234e+00 -3.470658557489514351e-03 -1.354509234428405762e+00 3.310811281204223633e+00 -4.730057716369628906e+00 -4.444466233253479004e-01
