-3.077903985977172852e+00 -3.345170915126800537e-01 1.227086782455444336e+00 -4.100113391876220703e+00 -1.941897869110107422e+00 -2.100305080413818359e+00 4.200143337249755859e+00 2.839020013809204102e+00 3.007565021514892578e+00 -1.437938570976257324e+00 -2.261137723922729492e+00 2.376982450485229492e+00 -4.081700801849365234e+00 1.424317479133605957e+00 2.913670614361763000e-02 -6.986871361732482910e-01 -1.136755704879760742e+00 -9.664817899465560913e-02 -3.470747470855712891e+00 -2.335435390472412109e+00 -5.821843624114990234e+00 -5.797823667526245117e-01 -1.923469185829162598e+00 6.335546493530273438e+00 -5.800361633300781250e-01
-3.220862627029418945e+00 7.211391627788543701e-02 3.174920320510864258e+00 -5.016933679580688477e-01 -2.517169713973999023e+00 -6.645749807357788086e-01 -8.685940504074096680e-01 -1.704235076904296875e+00 -3.031911849975585938e-01 2.230817794799804688e+00 3.714854478836059570e+00 1.421363711357116699e+00 -2.217712879180908203e+00 -3.323078393936157227e+00 -1.184183001518249512e+00 -2.252435207366943359e+00 -3.068656206130981445e+00 -1.462056040763854980e+00 -1.763319969177246094e+00 1.564167618751525879e+00 -1.128588557243347168e+00 -3.136474847793579102e+00 3.600968837738037109e+00 -9.694739580154418945e-01 4.929238855838775635e-01
-1.745407581329345703e+00 4.156618192791938782e-02 6.072497367858886719e-01 1.745873212814331055e+00 -2.922479629516601562e+00 -1.920455932617187500e+00 -4.413071155548095703e+00 2.580223321914672852e+00 1.833402991294860840e+00 -1.601881504058837891e+00 -2.574548721313476562e+00 3.307148933410644531e+00 -1.382200956344604492e+00 -1.531301259994506836e+00 2.758959531784057617e+00 1.819186687469482422e+00 -2.700076103210449219e+00 8.976033926010131836e-01 3.005202770233154297e+00 2.672387123107910156e+00 -6.493626117706298828e+00 2.529230117797851562e+00 -1.371116518974304199e+00 -5.433054924011230469e+00 -1.765085101127624512e+00
6.720963716506958008e-01 4.478779137134552002e-01 -7.039700984954833984e+00 -2.364870548248291016e+00 -5.213995456695556641e+00 2.868001222610473633e+00 5.016223907470703125e+00 3.724197149276733398e+00 2.995779514312744141e+00 -8.720456957817077637e-01 -1.839634060859680176e+00 -1.042326092720031738e+00 5.901522040367126465e-01 -7.355763912200927734e-01 -3.011891841888427734e+00 -4.891819953918457031e+00 -1.442668586969375610e-02 7.779788374900817871e-01 -1.285249948501586914e+00 3.912396430969238281e+00 -1.574062585830688477e+00 -2.792187213897705078e+00 -1.549991011619567871e+00 -3.577893078327178955e-01 1.067334860563278198e-01
4.043360710144042969e+00 -6.774625778198242188e-01 -6.091059446334838867e-01 -5.048126578330993652e-01 -2.015386343002319336e+00 -3.406102418899536133e+00 1.239883527159690857e-01 7.410861253738403320e-01 1.283035129308700562e-01 -4.051441192626953125e+00 5.361709371209144592e-02 5.350265026092529297e+00 9.453102946281433105e-01 -4.927001595497131348e-01 -1.641336679458618164e+00 1.325800061225891113e+00 -5.414916992187500000e+00 -3.273594856262207031e+00 -1.880538612604141235e-01 -3.422049045562744141e+00 6.313848495483398438e-01 5.386130809783935547e+00 -3.646078348159790039e+00 6.142262816429138184e-01 -4.573002338409423828e+00
-6.162342071533203125e+00 6.367877721786499023e-01 1.091313481330871582e+00 -4.456713795661926270e-01 -7.733470201492309570e-01 2.688485145568847656e+00 -4.847877323627471924e-01 -3.813555002212524414e+00 -4.823037981986999512e-02 3.259424120187759399e-02 6.726696491241455078e-01 3.246538937091827393e-01 3.539322137832641602e+00 -4.335310459136962891e+00 -2.277504920959472656e+00 1.724281787872314453e+00 -5.704821944236755371e-01 3.170184850692749023e+00 -2.441522181034088135e-01 2.661610841751098633e+00 -5.628828525543212891e+00 -1.096110701560974121e+00 1.803688049316406250e+00 4.981050491333007812e-01 -4.124527454376220703e+00
-1.852944612503051758e+00 -7.325268536806106567e-02 -7.699208259582519531e-01 -3.031506538391113281e+00 -1.122127532958984375e+00 -3.588687896728515625e+00 -2.634951353073120117e+00 -6.124943733215332031e+00 2.070750474929809570e+00 -3.883872032165527344e+00 -4.363156557083129883e-01 -3.786041498184204102e+00 -2.401135921478271484e+00 4.864675045013427734e+00 3.731441020965576172e+00 2.336833238601684570e+00 3.318179845809936523e+00 -1.241200089454650879e+00 3.067724943161010742e+00 -3.721835851669311523e+00 -2.710423171520233154e-01 6.334562301635742188e-01 2.704818725585937500e+00 -2.522331953048706055e+00 1.855203866958618164e+00
-4.283676147460937500e+00 2.466364145278930664e+00 -2.690643548965454102e+00 8.907349705696105957e-01 -9.246402382850646973e-01 -1.429152131080627441e+00 4.077447056770324707e-01 -3.902656078338623047e+00 1.712054252624511719e+00 -4.007390499114990234e+00 -2.591506958007812500e+00 -1.394404053688049316e+00 3.029282569885253906e+00 4.880954027175903320e-01 -3.048753976821899414e+00 -8.418405652046203613e-01 -7.199506163597106934e-01 -5.084987163543701172e+00 -2.441085100173950195e+00 1.832513809204101562e+00 4.102912425994873047e+00 2.263915061950683594e+00 2.356403350830078125e+00 -3.102948904037475586e+00 1.218044996261596680e+00
2.455849885940551758e+00 -3.771281719207763672e+00 -3.921350002288818359e+00 2.494014501571655273e-01 -5.523357868194580078e+00 -2.250131368637084961e+00 -4.136511325836181641e+00 -2.959834098815917969e+00 1.497682809829711914e+00 -1.095636844635009766e+00 -8.179657459259033203e-01 -2.863933324813842773e+00 2.486320018768310547e+00 -2.682658731937408447e-01 3.710410594940185547e+00 -3.345389842987060547e+00 2.229444026947021484e+00 1.198447465896606445e+00 9.852944612503051758e-01 -2.801702976226806641e+00 1.425449967384338379e+00 5.242285132408142090e-02 -1.173213005065917969e+00 2.089195489883422852e+00 7.298933267593383789e-01
6.869653701782226562e+00 -4.624104022979736328e+00 -3.654008388519287109e+00 3.334422588348388672e+00 -7.155920863151550293e-01 2.948874235153198242e-01 1.952602267265319824e-01 6.377896070480346680e-01 -1.229960560798645020e+00 1.372351527214050293e+00 -2.962327957153320312e+00 -7.861515879631042480e-01 -1.471577167510986328e+00 1.356760859489440918e+00 -5.119303703308105469e+00 -3.417617321014404297e+00 -1.416973948478698730e+00 2.098681688308715820e+00 4.410655021667480469e+00 1.019939064979553223e+00 -3.162720441818237305e+00 -5.418338775634765625e-01 -4.303219795227050781e+00 -2.562461137771606445e+00 2.593946695327758789e+00
-1.451634764671325684e+00 -3.473243117332458496e-01 -1.716383457183837891e+00 -4.738342285156250000e+00 -6.706574559211730957e-01 7.209264636039733887e-01 -2.145409345626831055e+00 -2.159785985946655273e+00 2.143883228302001953e+00 6.055697917938232422e+00 -7.975726127624511719e-01 8.882929086685180664e-01 9.923468828201293945e-01 1.827190756797790527e+00 -5.989725112915039062e+00 -4.428266525268554688e+00 -4.353887557983398438e+00 -2.272490024566650391e+00 -2.477818012237548828e+00 1.032708168029785156e+00 -1.363161444664001465e+00 3.671431541442871094e+00 2.005249977111816406e+00 3.545917510986328125e+00 6.549952030181884766e-01
7.748905420303344727e-01 3.510426282882690430e+00 -2.788028240203857422e+00 -2.955596446990966797e+00 1.563258409500122070e+00 1.636850714683532715e+00 -5.628988742828369141e+00 3.014221191406250000e+00 2.433851480484008789e+00 -1.445569872856140137e+00 -2.939889907836914062e+00 -1.745390653610229492e+00 7.523131966590881348e-01 1.403810381889343262e+00 7.111850380897521973e-01 -2.711397171020507812e+00 -3.789237499237060547e+00 -3.429428339004516602e+00 2.097526550292968750e+00 4.840027689933776855e-01 -6.325778961181640625e+00 -6.923642754554748535e-01 2.585826396942138672e+00 -3.182858705520629883e+00 2.281351804733276367e+00
-9.689018130302429199e-01 -1.645766973495483398e+00 5.310592651367187500e+00 -3.198448419570922852e+00 -1.577944517135620117e+00 -6.014907956123352051e-01 1.659142136573791504e+00 -8.995370864868164062e-01 -4.929987907409667969e+00 -2.949175357818603516e+00 1.719748735427856445e+00 2.136719703674316406e+00 1.403765320777893066e+00 -1.493984818458557129e+00 -3.180343627929687500e+00 3.719990730285644531e+00 1.033943653106689453e+00 -4.097551345825195312e+00 -3.665807247161865234e+00 2.707900106906890869e-01 5.843466758728027344e+00 -4.822685718536376953e+00 2.652212083339691162e-01 -3.870579957962036133e+00 2.234614372253417969e+00
4.541817307472229004e-01 -6.410234570503234863e-01 8.887373208999633789e-01 4.439402520656585693e-01 5.797304630279541016e+00 5.947289466857910156e-01 3.054445743560791016e+00 -6.635290145874023438e+00 -4.459164142608642578e+00 5.119093894958496094e+00 -5.441301345825195312e+00 -6.207938671112060547e+00 -3.774347066879272461e+00 1.948506474494934082e+00 6.607506275177001953e-01 -2.470960617065429688e+00 6.749307513236999512e-01 3.059547662734985352e+00 -7.683541178703308105e-01 4.187000989913940430e-01 -2.624181747436523438e+00 -4.054656505584716797e+00 9.307764768600463867e-01 1.939823865890502930e+00 -7.341573387384414673e-02
2.102076053619384766e+00 -4.106901168823242188e+00 9.127751737833023071e-02 -2.333106279373168945e+00 1.925612330436706543e+00 1.160525083541870117e+00 -2.972406148910522461e+00 2.234923601150512695e+00 2.330938100814819336e+00 4.205778986215591431e-02 1.411923885345458984e+00 -4.918739199638366699e-02 -4.810293197631835938e+00 2.296444416046142578e+00 -2.855980396270751953e+00 -2.981745719909667969e+00 5.308340787887573242e-01 -3.409266710281372070e+00 -3.412750005722045898e+00 4.034396648406982422e+00 -1.349300384521484375e+00 -2.300981283187866211e+00 -3.845883607864379883e+00 9.142086654901504517e-02 2.814125061035156250e+00
-6.012174487113952637e-01 -3.488826990127563477e+00 1.486031413078308105e+00 -5.121922016143798828e+00 -2.674072742462158203e+00 2.008930921554565430e+00 4.896887779235839844e+00 1.571828573942184448e-01 -1.781743645668029785e+00 -1.461946845054626465e+00 -3.782894611358642578e+00 -4.082317352294921875e+00 -1.557489871978759766e+00 -3.767336130142211914e+00 5.883606672286987305e-01 3.939380645751953125e+00 -7.613270878791809082e-01 4.184733867645263672e+00 -5.423858761787414551e-03 -2.210480690002441406e+00 -3.601461410522460938e+00 -3.210899829864501953e+00 3.180266618728637695e+00 1.525907874107360840e+00 2.504477262496948242e+00
-1.078534603118896484e+00 2.425688266754150391e+00 1.554230451583862305e+00 3.953287363052368164e+00 2.411783218383789062e+00 -8.169454932212829590e-01 2.940038740634918213e-01 1.171925425529479980e+00 -3.743877649307250977e+00 3.232192277908325195e+00 -4.471158027648925781e+00 8.571191430091857910e-01 -5.031636714935302734e+00 -4.190405845642089844e+00 -8.168308138847351074e-01 -1.506778240203857422e+00 -2.680899858474731445e+00 -5.098760128021240234e+00 -3.856267035007476807e-01 -1.585001468658447266e+00 2.894478559494018555e+00 -4.366831302642822266e+00 6.845389604568481445e-01 -5.015199780464172363e-01 2.312003850936889648e+00
-5.131388902664184570e-01 4.887050151824951172e+00 -2.375867128372192383e+00 -2.692566871643066406e+00 7.986707687377929688e-01 1.574700355529785156e+00 2.615146636962890625e-01 -8.467729091644287109e-01 -3.482999324798583984e+00 6.249031424522399902e-01 -8.807291984558105469e-01 -1.343560099601745605e+00 -2.460361003875732422e+00 -4.298589229583740234e+00 5.320370674133300781e+00 -2.519581317901611328e+00 -1.829495072364807129e+00 -4.908868312835693359e+00 2.107013702392578125e+00 7.045202851295471191e-01 -3.118140459060668945e+00 3.920499563217163086e+00 -2.893449783325195312e+00 -7.918378710746765137e-02 -9.881048798561096191e-01
-3.674535155296325684e-01 5.086087584495544434e-01 -3.417183637619018555e+00 1.888055205345153809e-01 -2.767406940460205078e+00 1.770125508308410645e+00 1.828933477401733398e+00 -2.998974084854125977e+00 5.596756339073181152e-01 -8.012657761573791504e-01 -2.529336929321289062e+00 4.680506289005279541e-01 1.648639321327209473e+00 -1.371226429939270020e+00 -3.321039676666259766e+00 -2.503417253494262695e+00 -1.469212770462036133e+00 -2.364211559295654297e+00 -3.267436027526855469e+00 5.062625408172607422e-01 8.666093945503234863e-01 1.861919611692428589e-01 8.346638083457946777e-01 7.500826716423034668e-01 1.006930589675903320e+00
6.606154441833496094e+00 7.369826436042785645e-01 -2.245933532714843750e+00 -3.680845737457275391e+00 -5.856619834899902344e+00 1.551929473876953125e+00 8.605607151985168457e-01 -1.335392713546752930e+00 -3.453689813613891602e+00 -1.691123127937316895e+00 -2.879012525081634521e-01 -3.873714923858642578e+00 -1.285586357116699219e+00 -4.733179569244384766e+00 4.766761779785156250e+00 4.194037914276123047e+00 3.112159013748168945e+00 -1.369008868932723999e-01 -5.652191638946533203e-01 6.792001128196716309e-01 -1.844135165214538574e+00 -2.584007978439331055e-01 -2.320501804351806641e+00 -9.728753566741943359e-01 -2.880867481231689453e+00
-2.354349493980407715e-01 -6.159788131713867188e+00 1.088376045227050781e-01 -1.965341806411743164e+00 1.291534185409545898e+00 -2.143572270870208740e-01 -1.970093369483947754e+00 4.598717212677001953e+00 4.317888259887695312e+00 -5.883601188659667969e+00 1.367341637611389160e+00 2.203451156616210938e+00 -2.844218730926513672e+00 -3.133163452148437500e+00 -4.765722434967756271e-03 2.603188037872314453e+00 -2.568108081817626953e+00 -6.167055368423461914e-01 6.112396717071533203e-01 -1.975953221321105957e+00 -1.385827660560607910e+00 -4.837468862533569336e-01 -1.410807132720947266e+00 1.049478054046630859e+00 -1.097671151161193848e+00
-1.503495573997497559e-01 2.753629207611083984e+00 9.216830134391784668e-01 -3.002421379089355469e+00 2.187132835388183594e+00 -2.928947806358337402e-01 7.332841753959655762e-01 -5.349830150604248047e+00 -1.894528627395629883e+00 -4.464850202202796936e-02 -1.338421553373336792e-01 3.178606748580932617e+00 8.284203410148620605e-01 -4.362803459167480469e+00 -1.175616860389709473e+00 -1.924170732498168945e+00 3.566136360168457031e+00 -2.923479557037353516e+00 -1.243857026100158691e+00 -2.835114240646362305e+00 1.411105394363403320e+00 -3.983490943908691406e+00 -4.072627067565917969e+00 1.162733912467956543e+00 6.557586193084716797e-01
-1.129070520401000977e+00 5.502614498138427734e+00 -1.785089135169982910e+00 4.478196203708648682e-01 -2.509037971496582031e+00 6.291651129722595215e-01 4.869705438613891602e-01 -1.216584205627441406e+00 -1.979504704475402832e+00 -6.221451282501220703e+00 9.760115146636962891e-01 -2.866095900535583496e-01 -3.405381441116333008e+00 2.532082557678222656e+00 8.115596771240234375e-01 -5.684841275215148926e-01 -3.204460859298706055e+00 3.895963728427886963e-01 -3.647657334804534912e-01 4.955416619777679443e-01 2.805691480636596680e+00 4.537408053874969482e-01 3.547036349773406982e-01 1.742422819137573242e+00 -7.376735687255859375e+00
-2.602972030639648438e+00 -2.437290037050843239e-03 -1.621803164482116699e+00 1.193678259849548340e+00 -5.335336685180664062e+00 3.417481899261474609e+00 -5.410517692565917969e+00 -1.956096738576889038e-01 -2.590684175491333008e+00 5.112320423126220703e+00 4.853447437286376953e+00 -2.488408565521240234e+00 -9.309226870536804199e-01 -3.174652576446533203e+00 6.920447945594787598e-02 -1.170108318328857422e+00 -1.473281264305114746e+00 -3.441300392150878906e-01 -3.051552057266235352e+00 -2.415562629699707031e+00 -1.059947729110717773e+00 1.120576024055480957e+00 -7.854518294334411621e-01 4.467129707336425781e+00 6.393768191337585449e-01
-2.279824256896972656e+00 -4.505928516387939453e+00 -1.298987567424774170e-01 -9.402851462364196777e-01 1.321260333061218262e+00 -2.806438207626342773e+00 2.382463932037353516e+00 4.329539775848388672e+00 3.945856094360351562e+00 1.315991729497909546e-01 -2.904511451721191406e+00 -4.316032409667968750e+00 4.118587374687194824e-01 -9.843667149543762207e-01 1.445090532302856445e+00 -2.384563207626342773e+00 1.678905010223388672e+00 3.129579067230224609e+00 -9.094265699386596680e-01 -4.387055873870849609e+00 1.268989324569702148e+00 -4.182059288024902344e+00 1.807778239250183105e+00 2.220780253410339355e-01 -3.564116954803466797e+00
-3.826366662979125977e+00 -1.628616213798522949e+00 -4.240182399749755859e+00 -1.719737529754638672e+00 8.599677085876464844e+00 -1.629378914833068848e+00 1.203982234001159668e+00 3.196743011474609375e+00 3.242304623126983643e-01 -2.967494249343872070e+00 4.443807601928710938e-01 -5.436393246054649353e-02 -2.145189523696899414e+00 5.954523086547851562e-01 3.688045024871826172e+00 -3.639188766479492188e+00 4.762661457061767578e+00 -4.184108257293701172e+00 -4.079105377197265625e+00 -2.154254674911499023e+00 -5.931353569030761719e-01 1.049556732177734375e-01 -1.732329607009887695e+00 -2.827282905578613281e+00 1.577767014503479004e+00
1.137122392654418945e+00 1.328004598617553711e+00 8.988021612167358398e-01 4.287345886230468750e+00 1.293047904968261719e+00 1.667159676551818848e+00 -1.022470951080322266e+00 -4.509021282196044922e+00 6.031380891799926758e-01 -1.913512468338012695e+00 -3.495864868164062500e+00 2.545878887176513672e+00 2.141797780990600586e+00 -6.743251085281372070e-01 -6.057075023651123047e+00 2.041034847497940063e-01 7.914940714836120605e-01 -8.756596446037292480e-01 -9.300575256347656250e+00 1.904352307319641113e+00 3.445181131362915039e+00 3.056925162672996521e-02 -3.301552534103393555e+00 -2.589639902114868164e+00 -9.924131631851196289e-01
-3.277699947357177734e+00 2.949433803558349609e+00 -1.742509722709655762e+00 1.505191028118133545e-01 2.859070599079132080e-01 2.000000000000000000e+00 -1.864901185035705566e+00 -2.224602699279785156e+00 -3.765938758850097656e+00 -4.498665332794189453e+00 1.047001838684082031e+00 -3.786936521530151367e+00 2.069351196289062500e+00 1.591007828712463379e+00 -4.542991161346435547e+00 2.815182924270629883e+00 -1.175241589546203613e+00 1.031112205237150192e-02 2.995948791503906250e+00 -1.178962469100952148e+00 -1.481467485427856445e+00 -3.770577669143676758e+00 3.190738201141357422e+00 -4.407870769500732422e-02 6.372011899948120117e-01
1.446191906929016113e+00 5.749356746673583984e-01 -1.633466720581054688e+00 7.547476887702941895e-01 1.823445916175842285e+00 3.248450756072998047e+00 -4.473360538482666016e+00 -4.735226154327392578e+00 1.219108819961547852e+00 -1.951207995414733887e+00 -7.619900107383728027e-01 -1.879803180694580078e+00 -1.476686120033264160e+00 2.429919004440307617e+00 -2.741446495056152344e+00 5.869644284248352051e-01 2.463514804840087891e+00 -1.043923735618591309e+00 -4.156844913959503174e-01 -3.146147727966308594e-01 -3.510403394699096680e+00 -4.004641056060791016e+00 -1.030334472656250000e+00 -2.355563402175903320e+00 7.060689330101013184e-01
-1.924110770225524902e+00 2.510587215423583984e+00 6.168545484542846680e-01 2.869786500930786133e+00 8.654683828353881836e-03 -2.515788555145263672e+00 -2.724282741546630859e+00 5.182169437408447266e+00 -1.950888037681579590e+00 -1.214404821395874023e+00 1.253154873847961426e+00 -2.668512344360351562e+00 1.822368621826171875e+00 -8.973940610885620117e-01 -2.231920719146728516e+00 -4.939378261566162109e+00 -4.101516246795654297e+00 -9.196454286575317383e-01 5.386839866638183594e+00 -2.276109218597412109e+00 5.500360131263732910e-01 9.452166557312011719e-01 1.009278893470764160e+00 -2.938498497009277344e+00 -4.809468269348144531e+00
-5.146695137023925781e+00 1.322548270225524902e+00 8.975232243537902832e-01 -3.327032327651977539e+00 2.316011190414428711e-01 -3.752614974975585938e+00 -7.515767961740493774e-02 -2.792176246643066406e+00 1.708057403564453125e+00 9.697085022926330566e-01 -6.749898195266723633e-01 -3.325626850128173828e+00 -2.148618847131729126e-01 3.823451280593872070e+00 -5.101401329040527344e+00 -1.719991922378540039e+00 -2.264429092407226562e+00 -1.010085463523864746e+00 1.986295461654663086e+00 1.160480976104736328e+00 4.612601757049560547e+00 3.318594098091125488e-01 2.387261629104614258e+00 -3.683422803878784180e+00 -2.375747919082641602e+00
-1.907559633255004883e+00 3.958192765712738037e-01 -1.941609680652618408e-01 2.322246789932250977e+00 -1.044399887323379517e-01 -2.497429847717285156e+00 -4.861948490142822266e+00 -4.047882080078125000e+00 -1.721617460250854492e+00 -1.695887684822082520e+00 4.574948787689208984e+00 -1.591082513332366943e-01 -2.055704966187477112e-02 2.669295310974121094e+00 1.110994100570678711e+00 -2.894522905349731445e+00 -2.671164870262145996e-01 6.067199707031250000e-01 -4.430876731872558594e+00 -2.931388616561889648e+00 -6.420226693153381348e-01 4.398460388183593750e+00 -3.516192197799682617e+00 3.032567024230957031e+00 -1.049972653388977051e+00
4.384983539581298828e+00 -6.481186151504516602e-01 -2.575133144855499268e-01 -1.124745488166809082e+00 -2.435300111770629883e+00 -2.559984326362609863e-01 -2.589386224746704102e+00 -2.194484233856201172e+00 1.371227860450744629e+00 -1.267158389091491699e+00 -2.502151489257812500e+00 -1.955810308456420898e+00 -1.876980304718017578e+00 -6.325911521911621094e+00 -9.073820710182189941e-02 5.915115475654602051e-01 -3.547833919525146484e+00 -1.946029067039489746e+00 5.003576755523681641e+00 -4.170805931091308594e+00 6.365096569061279297e+00 -1.868585467338562012e+00 -1.584734082221984863e+00 3.816700935363769531e+00 1.288666725158691406e+00
-1.682721376419067383e+00 1.032236695289611816e+00 2.390789031982421875e+00 1.546706676483154297e+00 -4.493183612823486328e+00 -2.490085363388061523e+00 -1.613518118858337402e+00 4.027241766452789307e-01 8.948414325714111328e-01 1.592791795730590820e+00 -3.238698482513427734e+00 2.248803377151489258e+00 -2.396029710769653320e+00 2.057976871728897095e-01 -3.575659275054931641e+00 3.020360231399536133e+00 -3.234462499618530273e+00 -1.465205699205398560e-01 -4.532434940338134766e+00 -4.195672035217285156e+00 3.226937055587768555e+00 1.821905255317687988e+00 -4.226486682891845703e+00 1.978012204170227051e+00 -6.175698041915893555e-01
-3.165621280670166016e+00 -4.098428726196289062e+00 8.008360862731933594e-01 -2.811287403106689453e+00 -1.108186244964599609e+00 1.182241365313529968e-01 -3.112091124057769775e-01 -3.473402738571166992e+00 -3.046551465988159180e+00 3.359058618545532227e+00 -3.001708745956420898e+00 2.371284246444702148e+00 -4.324317932128906250e+00 3.444686651229858398e+00 -2.716142177581787109e+00 2.370686531066894531e+00 -1.731987476348876953e+00 3.557063817977905273e+00 8.309399485588073730e-01 -4.660148322582244873e-01 7.450478076934814453e-01 1.682036757469177246e+00 -4.721050858497619629e-01 -3.344752073287963867e+00 3.544535040855407715e-01
4.551597118377685547e+00 -1.530783295631408691e+00 5.279330015182495117e-01 2.492514610290527344e+00 4.748005867004394531e+00 3.692613914608955383e-02 -1.486638307571411133e+00 4.713864326477050781e+00 -3.548708677291870117e+00 -6.672019004821777344e+00 -3.358168601989746094e+00 8.966397047042846680e-01 2.193058967590332031e+00 -3.416379094123840332e-01 -1.523398637771606445e+00 -4.061355590820312500e-01 -4.673213958740234375e+00 1.420640110969543457e+00 -5.974531769752502441e-01 -1.963157057762145996e+00 -1.080921053886413574e+00 -3.356700181961059570e+00 2.863902568817138672e+00 -2.817918300628662109e+00 -1.763028621673583984e+00
-3.062995910644531250e+00 -9.753659963607788086e-01 1.066951155662536621e+00 7.739428877830505371e-01 -4.784312725067138672e+00 -2.324582338333129883e+00 -3.778472900390625000e+00 -1.142955347895622253e-01 2.557994604110717773e+00 1.644245386123657227e+00 -2.621376514434814453e+00 1.431717872619628906e-01 1.406738042831420898e+00 1.105576232075691223e-01 8.527041077613830566e-01 -1.419868350028991699e+00 2.717365264892578125e+00 3.030984401702880859e+00 1.254418969154357910e+00 -2.567083358764648438e+00 -5.298783183097839355e-01 -2.387481689453125000e+00 1.365045309066772461e+00 -2.054208517074584961e+00 -5.447503089904785156e+00
-2.812762498855590820e+00 1.660140454769134521e-01 -7.375711202621459961e-01 1.174481034278869629e+00 -1.521821498870849609e+00 -2.843970537185668945e+00 -7.482774257659912109e-01 9.273576140403747559e-01 6.084199905395507812e+00 -3.460404157638549805e+00 -5.859864234924316406e+00 2.194015868008136749e-02 1.061907768249511719e+00 1.545906782150268555e+00 2.340200424194335938e+00 -1.785371184349060059e+00 2.979928731918334961e+00 1.581449389457702637e+00 -1.988258481025695801e+00 2.034600496292114258e+00 6.918365955352783203e-01 -1.183374643325805664e+00 1.758671045303344727e+00 -5.460661888122558594e+00 -5.438869953155517578e+00
-2.209747314453125000e+00 -8.647217601537704468e-02 -5.345051765441894531e+00 -1.094765067100524902e-01 2.808516263961791992e+00 -5.297216176986694336e-01 2.135805130004882812e+00 5.668107509613037109e+00 -5.196832180023193359e+00 1.913548946380615234e+00 1.833905577659606934e+00 2.916319847106933594e+00 1.181700468063354492e+00 2.832309961318969727e+00 -2.749685049057006836e+00 -6.330365538597106934e-01 -3.357923269271850586e+00 1.720496296882629395e+00 -7.128227949142456055e-01 -4.800779819488525391e+00 -5.497664928436279297e+00 1.676453351974487305e+00 1.147526860237121582e+00 7.271451354026794434e-01 -5.003941059112548828e+00
-9.415870904922485352e-01 -1.016959071159362793e+00 1.687565445899963379e-01 3.099573135375976562e+00 1.977768778800964355e+00 1.259948015213012695e-01 -6.505762934684753418e-01 9.299002587795257568e-02 -3.111344814300537109e+00 3.638739347457885742e+00 -2.604238748550415039e+00 1.690185666084289551e+00 -1.052587151527404785e+00 -4.161394119262695312e+00 -1.091756343841552734e+00 4.364947319030761719e+00 7.930526137351989746e-01 1.967968821525573730e+00 -3.774803280830383301e-01 2.009454250335693359e+00 -3.721062660217285156e+00 -1.779499948024749756e-01 -4.668184220790863037e-01 -3.689360380172729492e+00 -7.854539394378662109e+00
-2.856524944305419922e+00 -2.347436666488647461e+00 3.569608688354492188e+00 -3.106885671615600586e+00 -4.331024646759033203e+00 4.006516456604003906e+00 -3.301355600357055664e+00 -3.485316991806030273e+00 1.131722927093505859e+00 9.512896835803985596e-02 1.180159807205200195e+00 3.899243116378784180e+00 -6.478412747383117676e-01 -2.651303052902221680e+00 -4.391263008117675781e+00 2.954583466053009033e-01 -6.918510794639587402e-01 7.520087361335754395e-01 -4.077352285385131836e-01 -1.845715284347534180e+00 1.556950211524963379e+00 -2.261815071105957031e+00 -7.576177120208740234e-01 4.098764955997467041e-01 9.068216681480407715e-01
1.147397994995117188e+00 -1.892942309379577637e+00 -3.079320192337036133e+00 -4.247801780700683594e+00 -3.106129884719848633e+00 8.178825378417968750e-01 -1.994390249252319336e+00 -6.229103207588195801e-01 3.676114797592163086e+00 -4.133317947387695312e+00 2.644731760025024414e+00 3.794699907302856445e+00 -7.021769285202026367e-01 -2.249471902847290039e+00 -1.176134109497070312e+00 2.656311035156250000e+00 4.273825645446777344e+00 -1.978889584541320801e+00 3.790299892425537109e+00 -2.224906206130981445e+00 -3.932296276092529297e+00 -2.065370082855224609e+00 -3.290345430374145508e+00 -7.992714047431945801e-01 2.610807895660400391e+00
-2.241732835769653320e+00 -3.529022932052612305e+00 2.415395677089691162e-01 -5.678204536437988281e+00 5.428348541259765625e+00 -2.861117124557495117e+00 2.300684452056884766e+00 -2.847934007644653320e+00 -2.622389078140258789e+00 1.279482841491699219e+00 2.970669031143188477e+00 8.029883503913879395e-01 4.405656456947326660e-01 -1.903716176748275757e-01 -4.397099018096923828e+00 4.721906781196594238e-01 -1.021346449851989746e+00 -1.862248480319976807e-01 -2.527553081512451172e+00 4.540750026702880859e+00 1.683143138885498047e+00 -2.629971802234649658e-01 -2.704482555389404297e+00 2.655994594097137451e-01 -2.270135402679443359e+00
-3.455069303512573242e+00 -2.421456575393676758e+00 -2.917430162429809570e+00 -1.520071506500244141e+00 -1.636363983154296875e+00 -1.193084836006164551e+00 1.623839139938354492e-01 2.260795593261718750e+00 -4.910362720489501953e+00 1.548106193542480469e+00 5.370969772338867188e+00 -7.154895663261413574e-01 -8.414566516876220703e-01 3.885894536972045898e+00 1.173548221588134766e+00 -5.088888645172119141e+00 3.107697665691375732e-01 4.869157075881958008e-01 -4.921920299530029297e+00 9.800259768962860107e-02 1.203032255172729492e+00 -1.542861223220825195e+00 -1.602743387222290039e+00 3.685566425323486328e+00 -1.603560209274291992e+00
3.287101745605468750e+00 -1.231382727622985840e+00 -2.570518493652343750e+00 5.129323005676269531e+00 -2.737228870391845703e+00 -6.727283000946044922e-01 -1.782517552375793457e+00 -2.446738958358764648e+00 -2.427654027938842773e+00 6.555633544921875000e+00 -2.827475368976593018e-01 -6.116233348846435547e+00 -2.777021169662475586e+00 -5.995775699615478516e+00 -4.137065261602401733e-02 1.110169887542724609e+00 -1.193775415420532227e+00 -4.210588932037353516e-01 7.442089915275573730e-01 -6.111833453178405762e-01 7.034168839454650879e-01 8.577776551246643066e-01 -1.637169599533081055e+00 -3.804351091384887695e-01 -6.144385337829589844e-01
1.033919379115104675e-01 4.130808413028717041e-01 4.752144336700439453e+00 1.201382279396057129e+00 1.362534523010253906e+00 -6.842628002166748047e+00 -1.062340378761291504e+00 -5.353314399719238281e+00 -1.794439792633056641e+00 1.180047631263732910e+00 5.085609436035156250e+00 -9.150724411010742188e-01 -1.994537115097045898e+00 -2.828054666519165039e+00 2.191163063049316406e+00 5.358424186706542969e-01 2.268735408782958984e+00 -7.193464636802673340e-01 -2.089381217956542969e+00 -1.511192023754119873e-01 5.104060173034667969e-01 -2.177878141403198242e+00 -1.068431258201599121e+00 -4.245637893676757812e+00 -1.428703308105468750e+00
-9.349473118782043457e-01 -4.687702357769012451e-01 6.525831818580627441e-01 -2.173464536666870117e+00 -4.590308189392089844e+00 1.760765463113784790e-01 7.641308307647705078e-01 -1.520222663879394531e+00 -4.127601623535156250e+00 3.033640861511230469e+00 2.648302555084228516e+00 -1.569708824157714844e+00 -5.691833019256591797e+00 2.528197132050991058e-02 2.859174489974975586e+00 5.693202614784240723e-01 -1.651892542839050293e+00 -2.357135295867919922e+00 -1.064642816781997681e-01 -1.351673483848571777e+00 -2.072334766387939453e+00 4.074610173702239990e-01 4.217983722686767578e+00 -4.212980270385742188e+00 2.780324935913085938e+00
-2.741920232772827148e+00 -4.548413276672363281e+00 1.756288170814514160e+00 2.337195873260498047e+00 2.865753412246704102e+00 -5.372252464294433594e+00 4.502615451812744141e+00 -1.668616831302642822e-01 2.520153522491455078e+00 -2.216936826705932617e+00 -1.110599994659423828e+00 -5.016886234283447266e+00 4.534042358398437500e+00 -5.613491058349609375e+00 2.368841171264648438e+00 -4.310487806797027588e-01 -1.141929030418395996e+00 -1.613182306289672852e+00 5.942078232765197754e-01 1.498191714286804199e+00 -4.326359748840332031e+00 4.282849788665771484e+00 -4.520968437194824219e+00 -9.867824912071228027e-01 1.110857844352722168e+00
-5.243399739265441895e-01 -2.418039321899414062e+00 1.579690933227539062e+00 1.528725862503051758e+00 -2.212398529052734375e+00 1.601990103721618652e+00 6.624162793159484863e-01 -3.134730577468872070e+00 -6.544820785522460938e+00 -4.721661567687988281e+00 -7.250172495841979980e-01 -4.082522869110107422e+00 4.761122226715087891e+00 -4.932727515697479248e-01 1.975548386573791504e+00 -1.928857684135437012e+00 -7.962969541549682617e-01 1.037661314010620117e+00 -1.516410112380981445e+00 1.768783688545227051e+00 -2.520347833633422852e+00 -2.134675025939941406e+00 -5.592626333236694336e-01 2.384986400604248047e+00 1.897305965423583984e+00
7.391824722290039062e-01 6.333605051040649414e-01 -1.497744441032409668e+00 -1.238957524299621582e+00 1.611096382141113281e+00 -4.679157733917236328e-01 -2.890742301940917969e+00 2.303317785263061523e+00 -8.571626245975494385e-02 -3.427487373352050781e+00 -3.121400117874145508e+00 2.312718391418457031e+00 5.692616701126098633e-01 1.527604937553405762e+00 2.187947034835815430e+00 -1.217535734176635742e+00 -2.396291732788085938e+00 3.478895127773284912e-01 -3.736634969711303711e+00 -1.077468991279602051e+00 -3.683424234390258789e+00 -1.116052746772766113e+00 2.568022727966308594e+00 -3.908006668090820312e+00 -1.388636529445648193e-01
