-1.889273524284362793e+00 1.608533263206481934e+00 -1.505338549613952637e+00 -1.895651817321777344e+00 -1.773954629898071289e+00 -1.442215323448181152e+00 -4.346039891242980957e-01 -1.611700654029846191e+00 -1.048035025596618652e+00 -7.315804064273834229e-02 -1.383481979370117188e+00 -3.474313020706176758e-01 -1.986554503440856934e+00 -8.686860799789428711e-01 -3.703518509864807129e-01 -1.659366369247436523e+00 -1.891817688941955566e+00 -2.259256124496459961e+00 -1.793822765350341797e+00 -1.497501015663146973e+00 7.621142864227294922e-01 3.668830916285514832e-02 1.944609045982360840e+00 2.417231798171997070e+00 1.931084036827087402e+00 2.517187118530273438e+00 1.918376803398132324e+00 -1.472855925559997559e+00 -1.039350032806396484e+00 2.049962133169174194e-01 2.104098320007324219e+00 1.291448235511779785e+00 2.031355142593383789e+00 9.604651927947998047e-01 -2.112931013107299805e-01 2.009917795658111572e-01 -1.015346527099609375e+00 2.295367956161499023e+00 1.614951848983764648e+00 2.121920585632324219e+00 1.213941693305969238e+00 -9.543456435203552246e-01 -1.092996120452880859e+00 7.528096437454223633e-01 1.185504436492919922e+00 2.322804927825927734e+00 -1.652561783790588379e+00 1.514739751815795898e+00 -6.313382387161254883e-01 -4.267986118793487549e-01
-7.337249517440795898e-01 -2.590830802917480469e+00 8.217720389366149902e-01 -9.689469337463378906e-01 -2.182318449020385742e+00 -1.996899485588073730e+00 1.354193873703479767e-02 -1.840507149696350098e+00 -1.031509757041931152e+00 1.049191877245903015e-01 1.209641218185424805e+00 -9.203295707702636719e-01 -2.504343032836914062e+00 -5.420985817909240723e-01 1.801174879074096680e+00 5.654016733169555664e-01 4.525545239448547363e-01 -2.299807548522949219e+00 -2.343768596649169922e+00 -1.731140017509460449e+00 3.413085341453552246e-01 2.084317922592163086e+00 3.539910614490509033e-01 2.078336954116821289e+00 1.071622371673583984e+00 -2.156895399093627930e+00 1.038408041000366211e+00 8.183523416519165039e-01 8.117841482162475586e-01 1.964208841323852539e+00 1.973720908164978027e+00 -2.103485822677612305e+00 -1.931852340698242188e+00 -1.934175133705139160e+00 4.196595251560211182e-01 2.395395994186401367e+00 -1.415691614151000977e+00 1.778723597526550293e+00 2.740207195281982422e+00 1.496716499328613281e+00 1.587535619735717773e+00 2.558383047580718994e-01 6.184085011482238770e-01 -1.462362289428710938e+00 1.246142148971557617e+00 -8.966900706291198730e-01 1.400456666946411133e+00 -2.111276388168334961e+00 1.700869679450988770e+00 2.569850921630859375e+00
-2.530984163284301758e+00 2.068359404802322388e-01 1.462407350540161133e+00 2.063318014144897461e+00 -1.014393866062164307e-01 -5.323696136474609375e-01 2.022515535354614258e-01 2.794947028160095215e-01 1.755761951208114624e-01 -1.985633611679077148e+00 -7.513385415077209473e-01 1.871652364730834961e+00 -1.851699829101562500e+00 -1.735274434089660645e+00 -1.826637268066406250e+00 -1.916708827018737793e+00 2.647232294082641602e+00 9.267130494117736816e-01 6.025952100753784180e-01 1.023185253143310547e+00 -7.914698868989944458e-02 1.397442102432250977e+00 -8.596622943878173828e-02 -9.452528953552246094e-01 2.147957682609558105e-01 2.348933935165405273e+00 1.226032301783561707e-01 -2.420322895050048828e+00 2.439953535795211792e-01 2.225153207778930664e+00 2.052383184432983398e+00 2.178390502929687500e+00 2.484705924987792969e+00 2.641120910644531250e+00 -2.399085164070129395e-01 6.443419456481933594e-01 2.004203557968139648e+00 -1.180281862616539001e-01 -7.728183269500732422e-01 8.335884809494018555e-01 -1.982457637786865234e-01 -2.369265794754028320e+00 4.430807754397392273e-02 -2.037865400314331055e+00 -4.686747491359710693e-01 -5.478113293647766113e-01 -1.945183992385864258e+00 -2.063061952590942383e+00 -1.763829469680786133e+00 -1.066390514373779297e+00
2.718448638916015625e-01 4.095439612865447998e-01 2.192579030990600586e+00 3.494583368301391602e-01 1.809772729873657227e+00 1.897176384925842285e+00 1.557944893836975098e+00 5.294209122657775879e-01 2.257861614227294922e+00 8.913607597351074219e-01 9.650328755378723145e-01 -2.655922174453735352e-01 9.235851168632507324e-01 1.377255439758300781e+00 -6.979413032531738281e-01 -8.317534327507019043e-01 -1.051591783761978149e-01 1.103619039058685303e-01 -2.529552206397056580e-03 -6.371297836303710938e-01 -1.567450523376464844e+00 1.563319444656372070e+00 4.841767847537994385e-01 1.607608914375305176e+00 2.101382970809936523e+00 6.038646101951599121e-01 2.070761442184448242e+00 1.624221086502075195e+00 2.383682727813720703e+00 -1.602249741554260254e+00 -2.250086784362792969e+00 -1.068802833557128906e+00 4.776893556118011475e-02 -2.637130618095397949e-01 -2.328175008296966553e-01 -2.645954132080078125e+00 -1.854351401329040527e+00 5.391952395439147949e-02 -1.165806055068969727e+00 1.822570455260574818e-03 7.697494029998779297e-01 -2.631469964981079102e+00 -2.486496925354003906e+00 -3.157171249389648438e+00 -2.273649454116821289e+00 -7.947406172752380371e-01 -1.368976473808288574e+00 6.819923520088195801e-01 4.709568917751312256e-01 -1.405535101890563965e+00
1.130826711654663086e+00 1.528731226921081543e+00 1.996842771768569946e-01 -5.213655233383178711e-01 5.935552120208740234e-01 1.781209230422973633e+00 1.767748951911926270e+00 -1.069463253021240234e+00 1.654083967208862305e+00 1.418343901634216309e+00 1.160779297351837158e-01 1.653044223785400391e+00 5.017334818840026855e-01 1.966997623443603516e+00 -1.088701605796813965e+00 -2.878450393676757812e+00 1.951899886131286621e+00 7.034538388252258301e-01 -1.967260360717773438e+00 2.194993384182453156e-02 1.740949869155883789e+00 -3.419341325759887695e+00 1.873555541038513184e+00 1.435806155204772949e+00 -1.968694090843200684e+00 -1.792467385530471802e-02 -1.959841609001159668e+00 1.790167808532714844e+00 -2.986377716064453125e+00 -2.647420406341552734e+00 -1.694577217102050781e+00 -1.725587487220764160e+00 -9.939160346984863281e-01 -2.737428247928619385e-01 -1.336763620376586914e+00 -2.107232093811035156e+00 -2.830789089202880859e+00 1.571349740028381348e+00 4.759340882301330566e-01 -3.440207242965698242e-01 2.392180860042572021e-01 9.378694891929626465e-01 2.332352876663208008e+00 1.459232330322265625e+00 1.333183288574218750e+00 1.450341701507568359e+00 -8.383992314338684082e-01 -1.131105899810791016e+00 -2.233796596527099609e+00 2.685839891433715820e+00
2.592319250106811523e+00 -5.099615454673767090e-01 -8.830140233039855957e-01 4.173697233200073242e-01 2.283822298049926758e+00 2.597933769226074219e+00 6.893681883811950684e-01 -2.345914125442504883e+00 7.112407684326171875e-01 -2.022846460342407227e+00 1.732823729515075684e+00 -1.616199612617492676e+00 -1.228048563003540039e+00 1.600013017654418945e+00 9.327279329299926758e-01 2.284193515777587891e+00 1.476805359125137329e-01 1.000810980796813965e+00 2.316558808088302612e-01 1.923306465148925781e+00 -5.408967379480600357e-03 -9.597611427307128906e-01 -2.355078905820846558e-01 1.950422406196594238e+00 -2.329966068267822266e+00 -1.935182690620422363e+00 -2.376840591430664062e+00 -1.561985611915588379e+00 -1.699012815952301025e-01 2.448227167129516602e+00 9.262210726737976074e-01 8.221128582954406738e-01 1.704720973968505859e+00 -1.327454209327697754e+00 6.007906198501586914e-01 -1.851843111217021942e-02 6.094418168067932129e-01 -1.591562032699584961e+00 -1.686355710029602051e+00 1.911718130111694336e+00 1.498249918222427368e-01 -1.215751290321350098e+00 3.624845743179321289e-01 -1.682831645011901855e+00 -1.969272494316101074e+00 -9.762659668922424316e-01 -1.171696901321411133e+00 2.200598001480102539e+00 -1.905008554458618164e+00 -1.027886986732482910e+00
-6.422647237777709961e-01 -2.494585990905761719e+00 -1.296750187873840332e+00 -9.107602834701538086e-01 -5.625681877136230469e-01 3.378901481628417969e-01 -2.213922500610351562e+00 -1.756380200386047363e+00 -6.136571168899536133e-01 -2.689684629440307617e+00 -1.803061962127685547e+00 -1.320184111595153809e+00 -1.238438367843627930e+00 -9.449856281280517578e-01 -1.923352479934692383e+00 -2.109471082687377930e+00 -1.387042045593261719e+00 -1.201145887374877930e+00 -2.106148481369018555e+00 -1.274271726608276367e+00 -9.352809190750122070e-01 4.824797511100769043e-01 -1.806042790412902832e+00 -1.470832109451293945e+00 -2.034718036651611328e+00 5.487655401229858398e-01 -2.066681385040283203e+00 -1.846037745475769043e+00 1.081177592277526855e+00 -7.660281062126159668e-01 -2.441452890634536743e-01 2.745437383651733398e+00 2.209823846817016602e+00 2.688516139984130859e+00 2.838153362274169922e+00 7.476606220006942749e-02 2.436973333358764648e+00 1.172897338867187500e+00 1.621115684509277344e+00 6.639187335968017578e-01 7.197143435478210449e-01 2.969878435134887695e+00 2.228248596191406250e+00 2.127462625503540039e+00 3.175880432128906250e+00 1.411499977111816406e+00 1.077276587486267090e+00 2.937556505203247070e+00 1.886212229728698730e+00 2.150136470794677734e+00
-2.316909551620483398e+00 -2.257569074630737305e+00 -2.161328077316284180e+00 -1.228606224060058594e+00 -1.267967343330383301e+00 -2.133609533309936523e+00 -2.740090131759643555e+00 -5.533223152160644531e-01 -2.522548675537109375e+00 -2.660202741622924805e+00 -2.216723203659057617e+00 2.610857248306274414e+00 2.917684800922870636e-02 -8.515881299972534180e-01 -5.112373232841491699e-01 -1.552350759506225586e+00 -3.027567565441131592e-01 1.868661642074584961e+00 1.450862646102905273e+00 1.652498841285705566e+00 1.816971421241760254e+00 1.236884117126464844e+00 2.201318979263305664e+00 2.402660608291625977e+00 2.678391218185424805e+00 -6.083577275276184082e-01 2.662570953369140625e+00 3.007589578628540039e+00 1.968589901924133301e+00 -9.417180418968200684e-01 -1.120408177375793457e+00 2.404298543930053711e+00 -2.210274457931518555e+00 -1.374429464340209961e+00 2.883885860443115234e+00 1.925702691078186035e+00 1.718816161155700684e+00 2.013658545911312103e-02 -5.977267622947692871e-01 -1.191206336021423340e+00 1.994946151971817017e-01 -9.362906217575073242e-01 1.521294593811035156e+00 1.930561542510986328e+00 -1.793041467666625977e+00 -1.122621893882751465e+00 1.796023368835449219e+00 -1.159598231315612793e+00 -5.409439206123352051e-01 -6.259334683418273926e-01
-1.237116456031799316e+00 1.259154081344604492e-01 -1.891368865966796875e+00 -7.374876737594604492e-01 -1.899242997169494629e+00 6.342948228120803833e-02 1.441264152526855469e+00 -2.090912103652954102e+00 -1.297259181737899780e-01 -2.798037230968475342e-01 -8.015761375427246094e-01 -1.181086540222167969e+00 -2.456516027450561523e+00 -1.980411410331726074e+00 -8.488390445709228516e-01 1.171112298965454102e+00 -1.430221438407897949e+00 -1.824232697486877441e+00 1.980248451232910156e+00 -4.397650808095932007e-02 1.568093538284301758e+00 -7.860419750213623047e-01 2.025990962982177734e+00 -8.637134730815887451e-02 1.668095111846923828e+00 1.238674402236938477e+00 1.782755136489868164e+00 2.655500650405883789e+00 1.263127207756042480e+00 -4.097329378128051758e-01 -1.608268380165100098e+00 -1.137771010398864746e+00 1.822317719459533691e+00 3.226271152496337891e+00 4.992072284221649170e-01 6.116299033164978027e-01 -2.075818300247192383e+00 3.255336999893188477e+00 -2.608071327209472656e+00 2.799265623092651367e+00 -1.999906301498413086e+00 1.588379383087158203e+00 -5.545670986175537109e-01 1.920186877250671387e+00 -1.437969088554382324e+00 -2.006893634796142578e+00 2.623104810714721680e+00 -1.765564560890197754e+00 1.430800318717956543e+00 -1.602136015892028809e+00
1.956943392753601074e+00 2.550922155380249023e+00 -1.912085533142089844e+00 1.364445924758911133e+00 5.833871364593505859e-01 2.164812326431274414e+00 2.314068555831909180e+00 2.037915468215942383e+00 7.700788974761962891e-01 2.143955707550048828e+00 7.609483003616333008e-01 5.387068986892700195e-01 -9.327440857887268066e-01 1.188322007656097412e-01 1.953757882118225098e+00 1.882467389106750488e+00 -4.906530976295471191e-01 -9.896944165229797363e-01 -4.883377254009246826e-01 6.765571832656860352e-01 -6.705916523933410645e-01 2.795122146606445312e+00 -2.396968126296997070e+00 -2.538502454757690430e+00 7.262404263019561768e-02 -4.407380521297454834e-01 1.106715649366378784e-01 -1.094194293022155762e+00 -1.138774752616882324e+00 1.566619157791137695e+00 -1.973872661590576172e+00 -1.687306165695190430e+00 -2.753492593765258789e+00 -1.674349069595336914e+00 -1.515484333038330078e+00 1.737002491950988770e+00 -1.773161530494689941e+00 4.613308608531951904e-01 -1.790343046188354492e+00 -2.494800090789794922e+00 -1.218934535980224609e+00 1.163380026817321777e+00 -6.673811674118041992e-01 -1.146988868713378906e+00 2.078343152999877930e+00 -5.434975624084472656e-01 -7.634339332580566406e-01 1.643672227859497070e+00 1.734452605247497559e+00 -1.894907116889953613e+00
4.690386950969696045e-01 -2.473987787961959839e-01 -1.699052602052688599e-01 2.147871732711791992e+00 2.142469167709350586e+00 3.907407522201538086e-01 -9.624435305595397949e-01 1.314793944358825684e+00 -1.650973796844482422e+00 -1.723111867904663086e+00 8.967450261116027832e-01 -1.596872925758361816e+00 -1.532155752182006836e+00 -1.024947166442871094e+00 1.492927908897399902e+00 2.529529333114624023e+00 5.301170349121093750e-01 5.689136385917663574e-01 9.425213932991027832e-01 2.379699349403381348e-01 -1.817123413085937500e+00 -2.258106708526611328e+00 3.788495361804962158e-01 -7.415966391563415527e-01 5.608373880386352539e-01 -9.624242186546325684e-01 5.192186236381530762e-01 -4.892330765724182129e-01 -1.924385547637939453e+00 -1.964785814285278320e+00 1.304834723472595215e+00 1.708626747131347656e+00 2.285714626312255859e+00 1.604530930519104004e+00 -1.010375142097473145e+00 -2.265727043151855469e+00 7.772831618785858154e-02 -1.030428767204284668e+00 -1.855206727981567383e+00 1.228627324104309082e+00 3.644609153270721436e-01 2.711197137832641602e-01 -2.105399370193481445e+00 9.740757942199707031e-01 -2.465266466140747070e+00 -1.195126652717590332e+00 2.664586305618286133e+00 -1.973649859428405762e-01 1.643784880638122559e+00 2.281334400177001953e+00
2.833021879196166992e+00 1.948894381523132324e+00 -2.823462724685668945e+00 -1.902450919151306152e+00 1.359447002410888672e+00 1.598818182945251465e+00 1.832761056721210480e-02 1.816285252571105957e+00 -6.789441108703613281e-01 1.923481941223144531e+00 -4.466923773288726807e-01 4.050226882100105286e-02 -2.004297733306884766e+00 -1.435302138328552246e+00 1.620490431785583496e+00 2.414448261260986328e+00 -9.673948287963867188e-01 7.142316102981567383e-01 1.763767719268798828e+00 1.578538417816162109e+00 -1.096283555030822754e+00 -1.931195735931396484e+00 1.070551037788391113e+00 1.769365072250366211e+00 6.200844645500183105e-01 1.203671216964721680e+00 6.596809625625610352e-01 -1.201871871948242188e+00 -9.014755487442016602e-01 -2.020519971847534180e+00 -4.927417933940887451e-01 2.442690134048461914e+00 6.330199837684631348e-01 2.039999008178710938e+00 2.810388326644897461e+00 -2.585047185420989990e-01 1.210505843162536621e+00 1.582944631576538086e+00 2.357919454574584961e+00 -1.021934151649475098e+00 -1.615699172019958496e+00 -2.486277103424072266e+00 -1.876286864280700684e+00 -2.565428256988525391e+00 -1.176369190216064453e+00 -1.556122422218322754e+00 -2.212253332138061523e+00 -2.473025798797607422e+00 -1.681506037712097168e+00 -1.700737714767456055e+00
-1.826583862304687500e+00 -2.277499914169311523e+00 -6.641448140144348145e-01 -1.976819276809692383e+00 -2.195774793624877930e+00 -1.704827785491943359e+00 -1.641831159591674805e+00 -1.153172969818115234e+00 -1.082638502120971680e+00 -9.007055163383483887e-01 -7.304271459579467773e-01 1.912276029586791992e+00 3.416963815689086914e-01 2.587651491165161133e+00 -8.712354898452758789e-01 -1.156508326530456543e+00 -1.242917776107788086e+00 2.138700723648071289e+00 1.171873688697814941e+00 2.672431230545043945e+00 8.251237869262695312e-01 3.335163831710815430e+00 -2.064667224884033203e+00 -1.486391186714172363e+00 2.325706183910369873e-01 2.620539188385009766e+00 1.036360263824462891e-01 7.684323787689208984e-01 -1.125889182090759277e+00 5.316946506500244141e-01 -1.768241763114929199e+00 -8.834402561187744141e-01 -1.788734674453735352e+00 -1.242988109588623047e+00 -6.084411144256591797e-01 -1.974070429801940918e+00 -2.082760334014892578e+00 -2.197429984807968140e-01 -1.388581752777099609e+00 -1.924689650535583496e+00 3.040329694747924805e+00 4.654446840286254883e-01 1.766243696212768555e+00 2.213426828384399414e+00 -2.658171951770782471e-02 2.126657247543334961e+00 2.666936874389648438e+00 3.186365365982055664e+00 2.513604879379272461e+00 2.522228062152862549e-01
2.691932618618011475e-01 9.467057585716247559e-01 -2.451720952987670898e+00 -1.242570161819458008e+00 5.467812418937683105e-01 -3.465066254138946533e-01 -4.082076549530029297e-01 7.853894233703613281e-01 -1.176246643066406250e+00 8.807072043418884277e-02 2.253640413284301758e+00 1.755277991294860840e+00 -1.429342031478881836e+00 1.441623330116271973e+00 8.429212570190429688e-01 7.838003635406494141e-01 1.713211894035339355e+00 -2.364328622817993164e+00 1.765397667884826660e+00 1.314475774765014648e+00 -1.851778030395507812e+00 3.921285867691040039e-01 -1.679246664047241211e+00 -1.874043345451354980e+00 -9.800264835357666016e-01 -9.957588464021682739e-02 -8.241633772850036621e-01 -1.092949986457824707e+00 1.472344160079956055e+00 -9.850767254829406738e-01 4.486793577671051025e-01 -1.041718348860740662e-01 1.974694132804870605e+00 -2.893214941024780273e+00 -7.799083590507507324e-01 -2.902782678604125977e+00 3.480566740036010742e-01 -2.836224317550659180e+00 1.280519843101501465e+00 6.517714858055114746e-01 -3.241080939769744873e-01 1.304110765457153320e+00 1.798679947853088379e+00 2.127567052841186523e+00 2.553272962570190430e+00 1.800142168998718262e+00 -3.703677356243133545e-01 -2.677527189254760742e+00 -8.137689232826232910e-01 2.455049753189086914e+00
-4.714829623699188232e-01 -2.027359008789062500e+00 -1.518537878990173340e+00 -2.099841833114624023e+00 -2.126186132431030273e+00 -8.528171777725219727e-01 -1.766137123107910156e+00 2.310325622558593750e+00 -1.424740701913833618e-01 1.245843172073364258e+00 2.463388204574584961e+00 -1.390151500701904297e+00 1.079680919647216797e+00 2.260210275650024414e+00 -1.513719439506530762e+00 3.557364046573638916e-01 1.232820034027099609e+00 -1.427547693252563477e+00 1.904834389686584473e+00 6.748276352882385254e-01 -1.206104874610900879e+00 -9.301211684942245483e-02 8.347327113151550293e-01 3.609229624271392822e-01 1.116768270730972290e-01 1.026376724243164062e+00 1.093644052743911743e-01 1.192151427268981934e+00 9.037691950798034668e-01 1.363236665725708008e+00 8.301768898963928223e-01 -2.187270641326904297e+00 -1.225497126579284668e+00 9.394989609718322754e-01 -1.070150136947631836e+00 2.098326921463012695e+00 -1.006242513656616211e+00 1.438852787017822266e+00 -4.854517579078674316e-01 1.713128209114074707e+00 1.907563686370849609e+00 -2.398380279541015625e+00 -3.824333548545837402e-01 5.633842349052429199e-01 -1.711152553558349609e+00 2.716635227203369141e+00 -2.439023494720458984e+00 -3.190491497516632080e-01 -2.751511335372924805e+00 1.606439113616943359e+00
2.627969980239868164e+00 1.046064138412475586e+00 -1.078364729881286621e+00 -1.064802646636962891e+00 -8.960967659950256348e-01 1.283690929412841797e+00 2.120684862136840820e+00 1.697067856788635254e+00 1.443379640579223633e+00 2.759413719177246094e+00 3.938405811786651611e-01 -1.830479383468627930e+00 -1.823374867439270020e+00 -1.753288388252258301e+00 -2.291566610336303711e+00 -2.224821567535400391e+00 1.774384260177612305e+00 -2.118354320526123047e+00 -1.375000000000000000e+00 -2.324589252471923828e+00 -2.216825723648071289e+00 1.526745259761810303e-01 -2.437701940536499023e+00 -2.394261837005615234e+00 -6.107776761054992676e-01 -2.694736719131469727e+00 -6.940917372703552246e-01 1.024188250303268433e-01 -6.097043752670288086e-01 -2.561366081237792969e+00 2.217873096466064453e+00 2.405102968215942383e+00 1.307161569595336914e+00 2.287022352218627930e+00 2.231127023696899414e+00 1.722161531448364258e+00 2.593946695327758789e+00 3.381493687629699707e-01 2.271760702133178711e+00 1.798837661743164062e+00 -1.388939768075942993e-01 9.736261516809463501e-02 1.585592627525329590e+00 -5.172291398048400879e-01 -2.126246213912963867e+00 -2.266197443008422852e+00 1.800010681152343750e+00 1.225534677505493164e+00 1.950645446777343750e-01 -7.169402837753295898e-01
-7.722511887550354004e-01 -1.084933757781982422e+00 2.865782022476196289e+00 2.881548404693603516e+00 2.063210725784301758e+00 -1.506908655166625977e+00 5.998267531394958496e-01 1.086086988449096680e+00 -5.647456049919128418e-01 -7.922111749649047852e-01 1.832648754119873047e+00 1.677160620689392090e+00 1.886020302772521973e+00 2.333500623703002930e+00 8.143812417984008789e-01 5.832428336143493652e-01 1.988265752792358398e+00 1.973484754562377930e+00 2.127113819122314453e+00 2.080700397491455078e+00 -1.911487817764282227e+00 -9.249411225318908691e-01 -1.030136942863464355e+00 -1.346034884452819824e+00 9.822320938110351562e-01 -1.326672911643981934e+00 9.198883175849914551e-01 -1.071490406990051270e+00 -1.371122002601623535e+00 -8.690128922462463379e-01 -1.861739277839660645e+00 -1.657801389694213867e+00 -1.882304787635803223e+00 -2.043967545032501221e-01 -1.181373953819274902e+00 -1.009268045425415039e+00 -2.085636854171752930e+00 4.302638769149780273e-01 -9.698256850242614746e-01 -2.013008832931518555e+00 -1.863753914833068848e+00 1.357366085052490234e+00 2.395664691925048828e+00 1.727352857589721680e+00 9.580966830253601074e-02 -1.100364685058593750e+00 -1.052567064762115479e-01 -1.083520770072937012e+00 -1.556643366813659668e+00 -1.574843525886535645e+00
-1.776785135269165039e+00 2.338538169860839844e+00 -1.185252547264099121e+00 -1.348750948905944824e+00 -1.182352423667907715e+00 -6.144660115242004395e-01 1.696933746337890625e+00 -1.714455127716064453e+00 7.811228632926940918e-01 1.202359199523925781e+00 5.656091570854187012e-01 6.001570224761962891e-01 -2.724467813968658447e-01 -1.209566116333007812e+00 -7.461422085762023926e-01 5.200411081314086914e-01 -1.948844343423843384e-01 -2.307324409484863281e+00 1.940716862678527832e+00 -4.120771884918212891e-01 2.294123888015747070e+00 -2.069148540496826172e+00 6.947230696678161621e-01 -1.703515052795410156e+00 -1.792497038841247559e+00 1.472287297248840332e+00 -1.777963280677795410e+00 -9.912347197532653809e-01 -1.827577710151672363e+00 1.524294137954711914e+00 1.438213109970092773e+00 -1.351727962493896484e+00 5.693481862545013428e-02 -1.952359318733215332e+00 3.856681883335113525e-01 9.821655154228210449e-01 2.011155605316162109e+00 -2.364652395248413086e+00 2.017017126083374023e+00 6.895208358764648438e-01 3.282827138900756836e-01 1.341714620590209961e+00 -2.050369262695312500e+00 1.762578129768371582e+00 -1.429117798805236816e+00 4.199486076831817627e-01 2.364245176315307617e+00 1.808755517005920410e+00 2.044331789016723633e+00 -1.169844865798950195e+00
1.860522985458374023e+00 -2.513147830963134766e+00 -8.749976158142089844e-01 -2.465790033340454102e+00 -2.946020603179931641e+00 -7.834841012954711914e-01 2.594403028488159180e+00 -1.495497822761535645e+00 1.881261110305786133e+00 3.003199577331542969e+00 -1.820996761322021484e+00 -3.568780124187469482e-01 1.031010866165161133e+00 -6.448175907135009766e-01 -1.339380264282226562e+00 1.522786021232604980e+00 -1.818168163299560547e+00 2.589942455291748047e+00 2.263715028762817383e+00 2.133198976516723633e+00 -5.318629741668701172e-01 -1.683746457099914551e+00 1.696355819702148438e+00 -1.170305848121643066e+00 1.518217325210571289e+00 1.154751062393188477e+00 1.532650828361511230e+00 -1.969617009162902832e+00 1.317593574523925781e+00 8.382039070129394531e-01 -2.458873033523559570e+00 -1.598102807998657227e+00 -2.015850782394409180e+00 1.523122191429138184e+00 -8.275188803672790527e-01 -7.338514328002929688e-01 -5.196441411972045898e-01 -1.526745080947875977e+00 -2.708382606506347656e+00 -1.804601550102233887e+00 2.386991500854492188e+00 -6.623874902725219727e-01 2.100492477416992188e+00 -2.375664710998535156e+00 1.392435312271118164e+00 5.813682079315185547e-01 -4.082710146903991699e-01 1.742059469223022461e+00 1.052597761154174805e+00 1.869712471961975098e+00
1.244835779070854187e-01 1.408009171485900879e+00 2.386065721511840820e+00 1.793801784515380859e+00 1.820575833320617676e+00 1.922791838645935059e+00 1.075125336647033691e+00 9.370319843292236328e-01 2.437370300292968750e+00 -3.345521390438079834e-01 -1.430326104164123535e+00 1.558752298355102539e+00 2.055818796157836914e+00 -2.037382364273071289e+00 -6.869471669197082520e-01 -2.374161720275878906e+00 2.695524692535400391e-01 -1.541263461112976074e+00 -3.920690417289733887e-01 -2.409533977508544922e+00 7.679566740989685059e-01 2.103529453277587891e+00 -1.297278642654418945e+00 4.061966240406036377e-01 9.631650447845458984e-01 -1.011053681373596191e+00 1.048517584800720215e+00 1.327302455902099609e+00 2.471126556396484375e+00 -5.652098655700683594e-01 -1.678487658500671387e+00 1.295123100280761719e+00 -1.901537418365478516e+00 8.973004221916198730e-01 1.454073905944824219e+00 -1.943412274122238159e-01 1.748618006706237793e+00 -1.690202593803405762e+00 -1.880944371223449707e+00 -1.159564614295959473e+00 -2.514853715896606445e+00 1.867796629667282104e-01 -2.300665140151977539e+00 -1.043149471282958984e+00 4.126161038875579834e-01 -2.128232419490814209e-01 -1.344357490539550781e+00 -2.331835269927978516e+00 -1.738280534744262695e+00 1.340295553207397461e+00
4.605699777603149414e-01 1.071156859397888184e+00 -1.717428565025329590e+00 1.718553423881530762e+00 1.638552546501159668e+00 -7.666178345680236816e-01 -2.361838668584823608e-01 2.687127113342285156e+00 -1.679174184799194336e+00 5.842928290367126465e-01 -2.290779113769531250e+00 8.738296031951904297e-01 -7.423570156097412109e-01 1.224639296531677246e+00 -1.548306703567504883e+00 -2.100944519042968750e+00 -1.795547008514404297e+00 2.603387355804443359e+00 8.447605371475219727e-02 2.200026035308837891e+00 1.494328260421752930e+00 1.732549190521240234e+00 -7.683574557304382324e-01 -1.786881327629089355e+00 -1.070498824119567871e+00 2.165798664093017578e+00 -1.012627959251403809e+00 1.281221508979797363e-01 -1.792913675308227539e+00 2.121531963348388672e+00 1.875353932380676270e+00 -2.010568618774414062e+00 9.754420518875122070e-01 8.480232357978820801e-01 -1.580500721931457520e+00 2.017023801803588867e+00 -9.357849359512329102e-01 1.770491003990173340e+00 -2.070140279829502106e-02 2.358989953994750977e+00 -2.369911670684814453e+00 5.820002555847167969e-01 -2.392488002777099609e+00 -1.645983457565307617e+00 5.976219773292541504e-01 -1.913781523704528809e+00 -4.746660888195037842e-01 -2.292500257492065430e+00 -5.441490411758422852e-01 1.852253317832946777e+00
-2.264597415924072266e+00 1.536101579666137695e+00 2.977200746536254883e+00 1.817785859107971191e+00 1.569365739822387695e+00 1.718183279037475586e+00 1.423806667327880859e+00 -2.316907405853271484e+00 2.584050416946411133e+00 -1.726489424705505371e+00 1.282829761505126953e+00 1.605134129524230957e+00 -5.640204548835754395e-01 2.092890262603759766e+00 -1.105826854705810547e+00 -1.686485171318054199e+00 -8.833236694335937500e-01 -2.365450620651245117e+00 4.544818103313446045e-01 1.425171136856079102e+00 -4.097074866294860840e-01 6.709156632423400879e-01 -1.061844468116760254e+00 -1.453932881355285645e+00 8.522915244102478027e-01 -8.719844818115234375e-01 9.435180425643920898e-01 -1.747494816780090332e+00 -5.219463109970092773e-01 -1.547355502843856812e-01 -6.306273341178894043e-01 -2.106821537017822266e+00 -9.831534028053283691e-01 8.525270223617553711e-01 -1.095974206924438477e+00 2.758921861648559570e+00 1.579238623380661011e-01 1.407551288604736328e+00 -1.292319536209106445e+00 -8.956429362297058105e-01 -1.783071875572204590e+00 1.679484844207763672e+00 2.248279333114624023e+00 -5.461158156394958496e-01 -8.850442767143249512e-01 -2.146849155426025391e+00 1.983401179313659668e-01 5.627021193504333496e-01 -1.996745228767395020e+00 1.105009436607360840e+00
-1.541292428970336914e+00 1.117643833160400391e+00 -2.617788314819335938e+00 -2.079611539840698242e+00 -2.804421633481979370e-02 -4.254684150218963623e-01 -1.916188955307006836e+00 -1.577018022537231445e+00 -2.089203119277954102e+00 -1.885343432426452637e+00 2.313307762145996094e+00 -6.374584138393402100e-02 2.523231267929077148e+00 4.159160554409027100e-01 2.487074375152587891e+00 2.405235290527343750e+00 1.904046535491943359e+00 1.523367762565612793e+00 1.769801020622253418e+00 -1.196268439292907715e+00 -1.828358769416809082e+00 -9.990198612213134766e-01 -3.373773097991943359e-01 1.614444971084594727e+00 -9.743615388870239258e-01 -2.002845525741577148e+00 -9.276579618453979492e-01 -1.418714284896850586e+00 -3.347257375717163086e-01 -1.099824905395507812e+00 -1.358613491058349609e+00 -1.406551599502563477e+00 -4.761998951435089111e-01 1.163616061210632324e+00 -1.793663740158081055e+00 1.346333771944046021e-01 3.868207633495330811e-01 -1.296865701675415039e+00 -1.149913787841796875e+00 -1.497723340988159180e+00 6.172981858253479004e-01 2.398897886276245117e+00 2.430672883987426758e+00 4.710755050182342529e-01 2.133409261703491211e+00 -1.386732220649719238e+00 1.512412428855895996e+00 2.376987457275390625e+00 1.738772273063659668e+00 1.728067517280578613e+00
-2.731973171234130859e+00 6.577605605125427246e-01 1.339311957359313965e+00 2.493585586547851562e+00 1.155153751373291016e+00 -1.628164887428283691e+00 -1.650917172431945801e+00 -1.865389585494995117e+00 -1.718523025512695312e+00 -2.930104017257690430e+00 -1.080953776836395264e-01 -7.850513458251953125e-01 9.576789736747741699e-01 -6.119424700736999512e-01 3.462720513343811035e-01 1.433756947517395020e+00 -1.445718288421630859e+00 5.383683443069458008e-01 1.086043596267700195e+00 2.669113874435424805e-01 -1.005819082260131836e+00 3.583911657333374023e-01 -5.126419663429260254e-01 -5.017978549003601074e-01 -8.203534483909606934e-01 -1.326104402542114258e+00 -7.024142146110534668e-01 -5.071927905082702637e-01 -1.530876755714416504e+00 1.777253150939941406e+00 4.169561862945556641e-01 2.464895963668823242e+00 -1.079222679138183594e+00 -2.039499767124652863e-02 2.731274366378784180e+00 -1.197776556015014648e+00 9.851977825164794922e-01 -3.350371420383453369e-01 2.513596534729003906e+00 -8.291764855384826660e-01 2.186771631240844727e+00 -1.216359615325927734e+00 9.778040647506713867e-01 -2.284865856170654297e+00 9.671991467475891113e-01 7.976862192153930664e-01 -1.108665466308593750e+00 1.957383513450622559e+00 7.772564888000488281e-01 1.353223919868469238e+00
-1.838388681411743164e+00 2.464906215667724609e+00 8.571863174438476562e-02 1.400681495666503906e+00 -3.031980693340301514e-01 -1.009666323661804199e+00 -1.546039104461669922e+00 1.602354407310485840e+00 -3.370827734470367432e-01 -7.262523770332336426e-01 -1.176875233650207520e+00 -8.008431792259216309e-01 -1.901652097702026367e+00 -2.018327474594116211e+00 1.081684947013854980e+00 1.924926996231079102e+00 -1.178260087966918945e+00 -4.083503186702728271e-01 4.421319961547851562e-01 -3.160991966724395752e-01 -2.663029134273529053e-01 -1.606208443641662598e+00 1.546449184417724609e+00 2.628990173339843750e+00 7.445182800292968750e-01 1.543252348899841309e+00 7.359686493873596191e-01 -1.201733231544494629e+00 2.816767692565917969e+00 -2.042032241821289062e+00 -3.824900984764099121e-01 -1.266897559165954590e+00 -1.404239892959594727e+00 -1.813048124313354492e+00 -1.738486647605895996e+00 -6.403550505638122559e-01 -1.627559781074523926e+00 -1.194673061370849609e+00 -1.774749755859375000e+00 -1.073211669921875000e+00 -6.169051527976989746e-01 2.363209247589111328e+00 1.686702847480773926e+00 2.367186069488525391e+00 2.633918523788452148e+00 2.180127620697021484e+00 -9.349628686904907227e-01 2.343917131423950195e+00 -7.589727044105529785e-01 1.205637097358703613e+00
2.304688453674316406e+00 1.271955013275146484e+00 1.222003459930419922e+00 1.921801209449768066e+00 2.351816892623901367e+00 1.851345539093017578e+00 1.591155648231506348e+00 2.010204315185546875e+00 1.158818364143371582e+00 1.359966754913330078e+00 -2.267112731933593750e+00 -2.789129972457885742e+00 -2.021083593368530273e+00 -3.206381082534790039e+00 -2.424188852310180664e+00 -1.708075284957885742e+00 -1.086862087249755859e+00 -1.514027118682861328e+00 -1.976592302322387695e+00 -2.875087738037109375e+00 5.968450754880905151e-02 4.974179565906524658e-01 1.804763913154602051e+00 1.409563302993774414e+00 1.588425159454345703e+00 2.032343149185180664e+00 1.532238364219665527e+00 -3.450281620025634766e-01 9.215660095214843750e-01 1.719768643379211426e+00 5.286692380905151367e-01 -2.653970718383789062e+00 -2.037472724914550781e-01 -2.494341611862182617e+00 -2.640612125396728516e+00 -1.519932746887207031e+00 -3.126354813575744629e-01 -2.562492847442626953e+00 -9.711838513612747192e-02 -1.073594331741333008e+00 1.095003247261047363e+00 3.272136449813842773e-01 2.231847524642944336e+00 1.147258162498474121e+00 1.685479760169982910e+00 1.034464128315448761e-02 5.556333661079406738e-01 2.087172269821166992e-01 1.219113826751708984e+00 -6.837359070777893066e-01
-1.355286240577697754e+00 -2.719120979309082031e+00 2.229692220687866211e+00 -9.197334647178649902e-01 -8.872382044792175293e-01 -6.808173060417175293e-01 -2.167447090148925781e+00 1.363792896270751953e+00 1.228059172630310059e+00 -3.912375569343566895e-01 -1.430756747722625732e-01 2.651216089725494385e-01 -2.114188671112060547e-02 2.110168933868408203e+00 9.022184014320373535e-01 1.717021465301513672e+00 -2.532253742218017578e+00 9.621064662933349609e-01 1.797533273696899414e+00 2.231683492660522461e+00 2.022736519575119019e-01 -2.315590143203735352e+00 6.546710729598999023e-01 -1.645941495895385742e+00 1.299875617027282715e+00 -1.976864695549011230e+00 1.245812654495239258e+00 2.548170566558837891e+00 -1.705595374107360840e+00 -2.712517261505126953e+00 2.344809532165527344e+00 8.631199598312377930e-02 2.446377277374267578e+00 4.745256006717681885e-01 -1.978537559509277344e+00 -8.364804983139038086e-01 2.405821084976196289e+00 -2.304905891418457031e+00 1.453284263610839844e+00 1.673096299171447754e+00 -2.526012182235717773e+00 1.715398192405700684e+00 -2.032591819763183594e+00 -9.529750347137451172e-01 1.874912738800048828e+00 -1.030707955360412598e+00 -1.436856269836425781e+00 1.223820924758911133e+00 9.120716452598571777e-01 -1.926440238952636719e+00
-1.227814197540283203e+00 -1.153020188212394714e-01 -1.127464652061462402e+00 -3.160113394260406494e-01 -1.484064579010009766e+00 -1.653475403785705566e+00 1.789997890591621399e-02 -1.251290798187255859e+00 -1.406704425811767578e+00 4.475623667240142822e-01 1.842509746551513672e+00 1.962313771247863770e+00 1.428138732910156250e+00 -8.233143687248229980e-01 1.974606156349182129e+00 -5.244226455688476562e-01 3.177770853042602539e+00 1.659238815307617188e+00 8.050725460052490234e-01 -1.654287576675415039e+00 3.273623704910278320e+00 6.491940617561340332e-01 1.459596872329711914e+00 2.474980115890502930e+00 -2.127465009689331055e+00 1.605805397033691406e+00 -2.157154321670532227e+00 2.271720886230468750e+00 3.323790550231933594e+00 2.431089162826538086e+00 -1.508553624153137207e+00 7.404064536094665527e-01 4.048843383789062500e-01 -2.109214782714843750e+00 -4.820078238844871521e-02 -2.100045680999755859e+00 -4.162241518497467041e-01 -2.003919601440429688e+00 -9.868824481964111328e-01 -1.354666233062744141e+00 -2.356200933456420898e+00 2.057854652404785156e+00 -2.066473007202148438e+00 -1.404218554496765137e+00 -1.657810926437377930e+00 -2.301572561264038086e+00 7.471668124198913574e-01 5.626141428947448730e-01 -3.976683020591735840e-01 2.217824757099151611e-01
2.135094165802001953e+00 1.476547598838806152e+00 1.348662495613098145e+00 8.630995452404022217e-02 2.239997625350952148e+00 2.357347488403320312e+00 1.737173676490783691e+00 9.033364653587341309e-01 2.304400682449340820e+00 9.120066761970520020e-01 -2.459866523742675781e+00 1.193902611732482910e+00 -4.735072851181030273e-01 -2.492520093917846680e+00 1.473864167928695679e-02 -7.252622842788696289e-01 -1.096201419830322266e+00 1.365423083305358887e+00 5.710842013359069824e-01 -1.324380189180374146e-01 -2.288535118103027344e+00 -2.462370634078979492e+00 -2.129094839096069336e+00 -1.763109564781188965e+00 -2.517032384872436523e+00 -2.771457910537719727e+00 -2.502418994903564453e+00 -2.282449007034301758e+00 -1.821514844894409180e+00 -2.256730079650878906e+00 -3.623954355716705322e-01 3.085834085941314697e-01 -1.925091385841369629e+00 -1.740483403205871582e+00 1.400086760520935059e+00 3.965206444263458252e-01 -1.739598155021667480e+00 1.416894555091857910e+00 -9.222807735204696655e-02 3.738784193992614746e-01 2.259946107864379883e+00 4.880599677562713623e-01 -8.730013966560363770e-01 2.753817319869995117e+00 -6.453007459640502930e-01 2.093540668487548828e+00 2.673107385635375977e+00 8.340585827827453613e-01 2.290920734405517578e+00 2.009222269058227539e+00
1.881166815757751465e+00 -2.381656169891357422e+00 -9.594298601150512695e-01 -1.464838385581970215e+00 6.447854638099670410e-02 -7.769851088523864746e-01 1.521120905876159668e+00 -2.335567235946655273e+00 -1.012703895568847656e+00 2.233186662197113037e-01 -1.438308715820312500e+00 -2.512951135635375977e+00 4.622157812118530273e-01 -1.617794990539550781e+00 -1.158501863479614258e+00 8.040268719196319580e-02 -6.450967788696289062e-01 1.938114285469055176e+00 -1.732004284858703613e+00 -2.107250690460205078e+00 2.628435611724853516e+00 -4.031472504138946533e-01 2.310003042221069336e+00 2.221211344003677368e-01 5.389048457145690918e-01 2.539515733718872070e+00 6.423282623291015625e-01 2.645251750946044922e+00 -1.065422296524047852e+00 2.158362627029418945e+00 2.332072973251342773e+00 8.347783088684082031e-01 9.490367174148559570e-01 -3.999715745449066162e-01 -1.097238302230834961e+00 1.931470274925231934e+00 2.196558952331542969e+00 -1.732994437217712402e+00 1.618961572647094727e+00 -1.422061085700988770e+00 -1.776089906692504883e+00 1.192056417465209961e+00 3.524066507816314697e-01 6.634236574172973633e-01 -7.337540984153747559e-01 2.131578624248504639e-01 -1.413307785987854004e+00 9.050841331481933594e-01 -2.105017185211181641e+00 -6.840707063674926758e-01
-3.714957237243652344e-01 1.473276019096374512e+00 1.831552624702453613e+00 1.889119386672973633e+00 6.774979233741760254e-01 -1.497837543487548828e+00 1.843766450881958008e+00 6.855366230010986328e-01 5.036492943763732910e-01 1.666384339332580566e+00 -1.631037592887878418e+00 -2.226027250289916992e+00 -4.944229423999786377e-01 1.809179306030273438e+00 -2.389218807220458984e+00 -2.195814371109008789e+00 -2.861094236373901367e+00 3.467214107513427734e-01 -6.891850829124450684e-01 9.787626862525939941e-01 2.219121217727661133e+00 1.544597029685974121e+00 -1.160591602325439453e+00 9.049633145332336426e-01 -1.810202479362487793e+00 -2.002612829208374023e+00 -1.812286615371704102e+00 2.320509672164916992e+00 9.242609143257141113e-01 2.399002909660339355e-01 1.158699393272399902e-02 6.329194903373718262e-01 1.010359406471252441e+00 2.436707317829132080e-01 6.345629096031188965e-01 -2.456761121749877930e+00 -1.452864646911621094e+00 4.697082340717315674e-01 -2.432904392480850220e-01 1.435038924217224121e+00 4.418347477912902832e-01 -1.795993447303771973e+00 5.958316326141357422e-01 1.274638295173645020e+00 -2.328215241432189941e-01 7.529001235961914062e-01 -2.285811901092529297e-01 9.051867723464965820e-01 1.340056300163269043e+00 -3.209137916564941406e+00
-2.332442998886108398e+00 1.295757412910461426e+00 1.912332415580749512e+00 1.286840200424194336e+00 -1.949725151062011719e+00 -2.517919063568115234e+00 2.688323557376861572e-01 1.888511657714843750e+00 2.358232438564300537e-01 1.767209172248840332e+00 9.853658080101013184e-01 -1.902647376060485840e+00 2.636329889297485352e+00 -9.112770557403564453e-01 2.091698169708251953e+00 1.869503736495971680e+00 7.132655382156372070e-02 6.539582461118698120e-02 -1.706521272659301758e+00 -2.894585371017456055e+00 -2.074602365493774414e+00 -1.915458917617797852e+00 -1.933046340942382812e+00 -1.984295725822448730e+00 -2.003406047821044922e+00 -2.201238870620727539e+00 -1.990924000740051270e+00 -1.983861684799194336e+00 -1.582170486450195312e+00 -2.273434400558471680e+00 1.816084861755371094e+00 1.386464595794677734e+00 2.349432706832885742e+00 2.293280601501464844e+00 1.411717176437377930e+00 2.109840631484985352e+00 1.060225248336791992e+00 2.218437910079956055e+00 -2.220193147659301758e-01 2.500162839889526367e+00 4.066724479198455811e-01 -7.112209200859069824e-01 6.122596263885498047e-01 1.072569608688354492e+00 1.334334254264831543e+00 1.752539992332458496e+00 -1.422349452972412109e+00 -7.003168463706970215e-01 7.655594497919082642e-02 -6.462426185607910156e-01
1.748652815818786621e+00 -2.021177768707275391e+00 -2.250335693359375000e+00 -6.961128115653991699e-01 -9.447199702262878418e-01 -4.838753864169120789e-02 -1.037153124809265137e+00 -1.474784910678863525e-01 -2.042590141296386719e+00 -1.406329870223999023e+00 8.364663720130920410e-01 2.469199180603027344e+00 3.121765613555908203e+00 2.468992710113525391e+00 2.102577924728393555e+00 -2.123967885971069336e+00 1.067693352699279785e+00 1.562671899795532227e+00 -1.564094662666320801e+00 -1.500146746635437012e+00 -2.571580171585083008e+00 -1.006629109382629395e+00 1.344996213912963867e+00 7.006026506423950195e-01 1.989694476127624512e+00 -2.025837898254394531e+00 2.025367498397827148e+00 -3.867997825145721436e-01 -2.352419614791870117e+00 1.255489706993103027e+00 5.000000000000000000e-01 -6.852816343307495117e-01 1.329737782478332520e+00 1.257349967956542969e+00 -1.877342581748962402e+00 -9.900046586990356445e-01 -3.598316013813018799e-01 -5.107106566429138184e-01 -1.622246265411376953e+00 2.710202932357788086e-01 2.064491033554077148e+00 -7.944166660308837891e-01 -1.773380279541015625e+00 -1.062207698822021484e+00 2.197205066680908203e+00 1.698049068450927734e+00 1.385736346244812012e+00 -5.385290384292602539e-01 3.216035842895507812e+00 -1.542400002479553223e+00
-1.576140522956848145e+00 -7.902342081069946289e-01 -6.392196416854858398e-01 2.308989286422729492e+00 -2.096712589263916016e+00 -1.568784475326538086e+00 1.801419138908386230e+00 2.196619033813476562e+00 -8.601019382476806641e-01 7.185105681419372559e-01 1.427571654319763184e+00 1.476909160614013672e+00 -3.235071524977684021e-02 -1.257309019565582275e-01 1.482164025306701660e+00 1.569968938827514648e+00 2.342884302139282227e+00 7.560705542564392090e-01 1.573580980300903320e+00 4.389988481998443604e-01 2.537894487380981445e+00 6.182802468538284302e-02 -1.667269587516784668e+00 3.128185570240020752e-01 -1.978844165802001953e+00 -1.630305528640747070e+00 -1.990971446037292480e+00 9.905675053596496582e-01 2.722627162933349609e+00 -1.711772203445434570e+00 7.994846254587173462e-02 -7.371620088815689087e-02 -7.881164550781250000e-01 -4.779460132122039795e-01 -1.137199997901916504e+00 -1.162047266960144043e+00 -3.483690917491912842e-01 -1.666402935981750488e+00 -1.004425048828125000e+00 -1.473312735557556152e+00 1.838381767272949219e+00 -2.014135837554931641e+00 -1.720518589019775391e+00 1.369533300399780273e+00 -6.224136948585510254e-01 2.756998300552368164e+00 -1.382146954536437988e+00 7.843523621559143066e-01 -2.028871327638626099e-01 -1.526784658432006836e+00
-1.793017536401748657e-01 1.910154342651367188e+00 8.767685294151306152e-01 -9.099488258361816406e-01 1.819788217544555664e+00 1.645037293434143066e+00 -1.501073122024536133e+00 2.148129224777221680e+00 2.028254032135009766e+00 6.462339758872985840e-01 4.642019569873809814e-01 4.551135301589965820e-01 7.297526597976684570e-01 1.332909345626831055e+00 1.676395535469055176e+00 9.428874254226684570e-01 -2.036894559860229492e+00 -2.074186801910400391e+00 -1.651755571365356445e+00 -5.043097734451293945e-01 1.897683620452880859e+00 -2.200017452239990234e+00 1.760444641113281250e+00 9.959619641304016113e-01 -1.017317414283752441e+00 -1.619064509868621826e-01 -1.112573623657226562e+00 1.112146139144897461e+00 -4.498699307441711426e-01 1.813427686691284180e+00 -1.121656298637390137e+00 1.454263448715209961e+00 -1.653921961784362793e+00 -8.507027626037597656e-01 1.773453712463378906e+00 1.601453185081481934e+00 1.808561325073242188e+00 -1.675635337829589844e+00 -6.010043025016784668e-01 -2.570555686950683594e+00 -7.065844535827636719e-01 -2.124436616897583008e+00 2.596534490585327148e-01 9.807997941970825195e-02 -1.441492557525634766e+00 -1.459920525550842285e+00 2.562147080898284912e-01 -2.746258735656738281e+00 2.711142301559448242e-01 -1.323930263519287109e+00
1.142598152160644531e+00 -9.234936237335205078e-01 -9.866473674774169922e-01 -1.979575037956237793e+00 1.566454529762268066e+00 2.314835786819458008e+00 -1.710031986236572266e+00 -1.703789353370666504e+00 1.526894688606262207e+00 -2.379717588424682617e+00 7.264528274536132812e-01 -1.466955661773681641e+00 1.824907183647155762e+00 4.539820253849029541e-01 1.242044448852539062e+00 -1.779367029666900635e-01 -4.490327835083007812e-01 -1.589140653610229492e+00 -2.005872249603271484e+00 -2.454889059066772461e+00 8.067371249198913574e-01 2.727060556411743164e+00 -1.626776456832885742e-01 -1.513397812843322754e+00 2.135146617889404297e+00 2.082283973693847656e+00 2.115131616592407227e+00 1.593499064445495605e+00 1.675621151924133301e+00 1.780266642570495605e+00 1.622630238533020020e+00 1.546961903572082520e+00 5.715246200561523438e-01 -2.088665008544921875e+00 7.723472714424133301e-01 -2.738738298416137695e+00 -1.522012472152709961e+00 -5.538553595542907715e-01 2.292173624038696289e+00 2.875791490077972412e-01 -9.223721623420715332e-01 -7.479727268218994141e-01 -9.725677967071533203e-01 2.910113632678985596e-01 -1.253181695938110352e+00 8.126240968704223633e-01 -2.071912288665771484e-01 -9.742971509695053101e-02 -7.280251383781433105e-01 -2.242723464965820312e+00
-2.145823687314987183e-01 -1.469023108482360840e+00 -4.292212426662445068e-01 -7.144930958747863770e-01 1.276288866996765137e+00 1.394805759191513062e-01 -1.944192767143249512e+00 -1.577255010604858398e+00 -1.200258255004882812e+00 -2.319093465805053711e+00 1.841642022132873535e+00 2.934993505477905273e+00 3.295044660568237305e+00 1.177039384841918945e+00 2.746343374252319336e+00 2.431570053100585938e+00 2.933266878128051758e+00 2.944080591201782227e+00 2.729259252548217773e+00 8.626921176910400391e-01 -7.425024360418319702e-02 -1.446080923080444336e+00 -1.056347489356994629e+00 -1.919913291931152344e+00 -1.088580846786499023e+00 1.875347971916198730e+00 -1.123178124427795410e+00 -1.884993553161621094e+00 -1.079053401947021484e+00 -1.418731570243835449e+00 9.388647079467773438e-01 -9.531522393226623535e-01 -1.128654122352600098e+00 -7.949407696723937988e-01 1.927083611488342285e+00 2.752718210220336914e+00 -6.874087452888488770e-01 2.543476819992065430e+00 2.594583749771118164e+00 2.046643972396850586e+00 -1.739863038063049316e+00 -1.853852629661560059e+00 -9.138793349266052246e-01 -5.380429625511169434e-01 -1.625814199447631836e+00 -1.453217625617980957e+00 -1.535560727119445801e+00 -1.727643609046936035e+00 -1.644952058792114258e+00 -2.578953742980957031e+00
