-1.451062560081481934e+00 2.351577207446098328e-02 -5.513179898262023926e-01 -6.142812967300415039e-01 -1.176635503768920898e+00 -1.261166632175445557e-01 -1.483283519744873047e+00 -9.563753604888916016e-01 -1.155660271644592285e+00 -1.337131619453430176e+00 6.755240440368652344e+00 1.771828174591064453e+00 1.636977791786193848e+00 2.566830873489379883e+00 8.731175422668457031e+00 1.660579442977905273e+00 1.961063385009765625e+00 1.696750044822692871e+00 1.639117717742919922e+00 8.904176712036132812e+00 2.264198780059814453e+00 2.859958171844482422e+00 8.409375190734863281e+00 1.339786529541015625e+00 2.207111120223999023e+00 3.757991552352905273e+00 3.509732961654663086e+00 2.242415428161621094e+00 1.087565064430236816e+00 9.968812942504882812e+00 -1.618957877159118652e+00 -2.440571308135986328e+00 -2.759331703186035156e+00 -1.867378950119018555e+00 -9.868096113204956055e-01 -2.495856523513793945e+00 -2.816667258739471436e-01 -1.164095401763916016e+00 2.334283851087093353e-02 -8.565354943275451660e-01 -3.978018999099731445e+00 -4.392937660217285156e+00 -9.928122520446777344e+00 -5.010659217834472656e+00 -2.753948688507080078e+00 -3.464829683303833008e+00 -4.203222274780273438e+00 -3.362726688385009766e+00 -1.092349147796630859e+01 -2.832151651382446289e+00
-3.153642892837524414e+00 -4.050093650817871094e+00 -4.272177696228027344e+00 -9.006078720092773438e+00 -3.633789300918579102e+00 -1.062794303894042969e+01 -2.719195604324340820e+00 -3.595189094543457031e+00 -5.617249011993408203e+00 -4.118586540222167969e+00 1.440392732620239258e+00 2.688784122467041016e+00 2.731894016265869141e+00 2.015034198760986328e+00 1.567005515098571777e+00 2.073749065399169922e+00 2.165497779846191406e+00 2.507728099822998047e+00 2.740631341934204102e+00 1.317865371704101562e+00 -1.162312746047973633e+00 -7.536467909812927246e-01 -5.211279168725013733e-02 -1.677664995193481445e+00 -7.337656021118164062e-01 -3.133595883846282959e-01 -6.666373610496520996e-01 -9.358702898025512695e-01 -1.746736764907836914e+00 -2.168899625539779663e-01 2.340385198593139648e+00 1.720459818840026855e+00 1.185399174690246582e+00 1.981037616729736328e+00 4.167034149169921875e+00 2.023478746414184570e+00 8.796816825866699219e+00 3.080041408538818359e+00 1.088987159729003906e+01 3.610508918762207031e+00 1.659763753414154053e-01 -1.307440847158432007e-01 2.736998796463012695e-01 3.461367189884185791e-01 -1.191740393638610840e+00 -6.105868220329284668e-01 -3.939712643623352051e-01 -9.624188542366027832e-01 2.239442169666290283e-01 -1.154550909996032715e+00
