-6.463243484497070312e+00 -1.325954532623291016e+01 2.323738098144531250e+00 1.243524265289306641e+01 3.962720155715942383e+00 -1.955835151672363281e+01 9.027174949645996094e+00 -8.267691612243652344e+00 -1.123180961608886719e+01 3.719095230102539062e+00 1.717284393310546875e+01 7.828907489776611328e+00 1.495502948760986328e+00 6.896569252014160156e+00 5.013628959655761719e+00 -9.332978248596191406e+00 1.483226680755615234e+01 3.476710081100463867e+00 -6.966019630432128906e+00 -6.678784847259521484e+00 -1.035645103454589844e+01 8.958222389221191406e+00 1.584447741508483887e+00 8.721727371215820312e+00 8.231475830078125000e+00 -6.188047409057617188e+00 -2.893359899520874023e+00 -8.247432708740234375e+00 -1.256992912292480469e+01 2.763490200042724609e+00 8.753149509429931641e-01 1.353961849212646484e+01 -2.853872776031494141e-01 -4.644420146942138672e+00 3.978111982345581055e+00 -4.605141162872314453e+00 1.088189315795898438e+01 -1.209467220306396484e+01 3.545726776123046875e+00 -3.907008171081542969e+00 8.455544471740722656e+00 -9.491974830627441406e+00 8.143479347229003906e+00 -1.052455186843872070e+00 -1.264704036712646484e+01 -1.122032356262207031e+01 1.649090385437011719e+01 -5.577103137969970703e+00 -2.928992271423339844e+00 3.240084886550903320e+00
