-3.176233768463134766e-01 1.620981812477111816e+00 7.214478850364685059e-01 4.958936944603919983e-02 4.927222728729248047e-01 -2.087566768750548363e-03 1.560142636299133301e+00 2.627145051956176758e-01 7.626599073410034180e-02 -1.833221167325973511e-01 -2.645412385463714600e-01 -3.155303597450256348e-01 1.087351441383361816e+00 -1.646928668022155762e+00 -1.059831023216247559e+00 2.220590561628341675e-01 -1.754649996757507324e+00 -5.704761743545532227e-01 -1.407660007476806641e+00 -1.049961090087890625e+00 -1.575821399688720703e+00 -1.164419874548912048e-01 7.313084602355957031e-01 -5.201292634010314941e-01 -8.205910921096801758e-01 2.062707185745239258e+00 -1.253140926361083984e+00 2.458121478557586670e-01 -8.908170461654663086e-01 -9.196265935897827148e-01 -9.200730323791503906e-01 -1.372641205787658691e+00 -2.067737132310867310e-01 6.090356111526489258e-01 1.648787409067153931e-01 7.338496446609497070e-01 7.584226876497268677e-02 2.497089356184005737e-01 -1.001821756362915039e+00 1.178338646888732910e+00 2.618894875049591064e-01 4.245532304048538208e-02 -3.142527341842651367e-01 8.262264132499694824e-01 -7.074389457702636719e-01 -1.994170546531677246e-01 -2.668282017111778259e-02 2.409519851207733154e-01 2.548468532040715218e-03 -4.556945860385894775e-01 4.493446350097656250e-01 7.354315519332885742e-01 -2.044243335723876953e+00 2.395763546228408813e-01 -1.211179614067077637e+00 5.456079840660095215e-01 8.403391838073730469e-01 1.833748668432235718e-01 -1.104615181684494019e-01 8.913791924715042114e-02 -1.664336919784545898e-01 -1.095819950103759766e+00 1.158310532569885254e+00 1.787239611148834229e-01 -7.977302670478820801e-01 4.390826821327209473e-01 -1.486413121223449707e+00 -3.671143054962158203e-01 -1.775590300559997559e+00 1.140007376670837402e+00 -1.775317043066024780e-01 9.067542850971221924e-02 -1.089948415756225586e+00 4.614593684673309326e-01 2.704669535160064697e-01 1.446249127388000488e+00 1.385539054870605469e+00 -1.486070305109024048e-01 1.128934860229492188e+00 2.149538844823837280e-01 1.226464658975601196e-01 -2.254469633102416992e+00 3.749726712703704834e-01 8.693641424179077148e-01 2.795891463756561279e-01 -1.350307464599609375e+00 -1.340917587280273438e+00 -1.401479601860046387e+00 -1.469780355691909790e-01 4.464596509933471680e-01 1.714750677347183228e-01 9.452394843101501465e-01 4.075538218021392822e-01 7.491191476583480835e-02 1.285033941268920898e+00 -1.142396450042724609e+00 7.906199693679809570e-01 8.936784267425537109e-01 8.847542405128479004e-01 -4.172142967581748962e-02 -9.413460493087768555e-01 1.178683117032051086e-01 -1.110521078109741211e+00 1.298989504575729370e-01 -1.362838268280029297e+00 -4.117473959922790527e-01 -2.614061236381530762e-01 -1.272610545158386230e+00 -1.278007388114929199e+00 -2.535809017717838287e-02 -2.932299375534057617e-01 -3.168894350528717041e-02 -9.417324066162109375e-01 7.519509792327880859e-01 4.520716667175292969e-01 -4.144750833511352539e-01 -7.973221540451049805e-01 6.353940814733505249e-02 -4.307887852191925049e-01 1.149967551231384277e+00 -1.142361164093017578e+00 -5.507059097290039062e-01 4.956174492835998535e-01 -2.176064765080809593e-03 1.078702926635742188e+00 -9.436954557895660400e-02 2.130519390106201172e+00 2.941765189170837402e-01 -1.638219803571701050e-01 7.338591217994689941e-01 -6.647197604179382324e-01 -1.842330209910869598e-02 3.386736512184143066e-01 6.161975860595703125e-01 -1.403073549270629883e+00 3.717084825038909912e-01 -9.413734078407287598e-01 -2.329196780920028687e-01 -3.019146025180816650e-01 6.535070538520812988e-01 8.549204468727111816e-01 1.714397370815277100e-01 -1.858393192291259766e+00 1.554234385490417480e+00 8.041237592697143555e-01 2.552306652069091797e+00 -1.894436627626419067e-01 3.452132344245910645e-01 6.156579405069351196e-02 6.567385196685791016e-01 -3.062326014041900635e-01 -3.541026711463928223e-01 -1.859212756156921387e+00 3.586875498294830322e-01 1.528412550687789917e-01 1.057455301284790039e+00 1.894786208868026733e-01 -5.480556488037109375e-01 -1.143436208367347717e-01 1.415640830993652344e+00 1.054568812251091003e-01 -6.596457958221435547e-01 -1.571119785308837891e+00 -1.530695110559463501e-01 1.798225492238998413e-01 1.145055294036865234e+00 -6.791096925735473633e-02 2.306560277938842773e-01 4.482221007347106934e-01 3.131649494171142578e-01 1.831390380859375000e+00 4.855456352233886719e-01 -7.235895395278930664e-01 6.754599213600158691e-01 -1.530143380165100098e+00 9.848875403404235840e-01 1.419507060199975967e-02 -6.014113426208496094e-01 1.302513718605041504e+00 4.251593723893165588e-02 8.464564085006713867e-01 -7.199911475181579590e-01 -2.158527672290802002e-01 2.561924457550048828e-01 4.414077699184417725e-01 -2.546296119689941406e-01 8.155052661895751953e-01 -5.151568651199340820e-01 -2.308906167745590210e-01 9.115855693817138672e-01 7.081271409988403320e-01 -1.001025661826133728e-01 -1.004914164543151855e+00 1.145934581756591797e+00 2.947378158569335938e-01 -2.847799062728881836e-01 4.529319703578948975e-01 1.907645016908645630e-01 1.893576383590698242e+00 1.641654849052429199e+00 -2.931173443794250488e-01 4.373522996902465820e-01 -1.284282207489013672e+00 -8.719853162765502930e-01 1.242047071456909180e+00 -2.036145687103271484e+00 -1.661557257175445557e-01 -3.801869750022888184e-01 6.534076929092407227e-01 1.801572591066360474e-01 -8.753568530082702637e-01 -6.133970618247985840e-01 -1.437504649162292480e+00 -1.365620344877243042e-01 1.189508438110351562e+00 -2.095757573843002319e-01 1.370205402374267578e+00 6.778596043586730957e-01 1.378669738769531250e+00 -7.228224724531173706e-02 -2.103447020053863525e-01 1.415011137723922729e-01 4.982616305351257324e-01 -2.087118923664093018e-01 6.246861442923545837e-02 -4.214097261428833008e-01 6.959262490272521973e-01 -6.904670000076293945e-01 -3.442966639995574951e-01 -1.092811584472656250e+00 1.612116456031799316e+00 -6.472057700157165527e-01 -1.118787750601768494e-01 8.401908278465270996e-01 -5.598579049110412598e-01 1.728325963020324707e+00 -2.870346903800964355e-01 -4.860053956508636475e-01 1.027897357940673828e+00 -3.261980116367340088e-01 -1.054226994514465332e+00 5.799342393875122070e-01 -2.568226754665374756e-01 -9.277543425559997559e-01 3.211840242147445679e-02 4.361104071140289307e-01 -2.727727890014648438e-01 -1.759506911039352417e-01 -1.503016471862792969e+00 6.162546873092651367e-01 -5.657955408096313477e-01 -3.471459150314331055e-01 1.566369652748107910e+00 6.428691148757934570e-01 -1.196951746940612793e+00 -3.659234046936035156e-01 1.350857615470886230e+00 -1.703479051589965820e+00 -1.389919072389602661e-01 -3.541312813758850098e-01 6.920951008796691895e-01 1.182106852531433105e+00 5.611940622329711914e-01 7.804580926895141602e-01 -1.027739048004150391e+00 -4.524394571781158447e-01 -5.311972498893737793e-01 -1.441713213920593262e+00 1.097253441810607910e+00 -4.580725133419036865e-01 6.733949184417724609e-01 -1.403970122337341309e-01 -1.638506293296813965e+00 6.355811953544616699e-01 1.256248448044061661e-02 -2.739297449588775635e-01 1.625112742185592651e-01 2.293990850448608398e+00 1.382994186133146286e-02 1.145042851567268372e-01 -4.365372359752655029e-01 2.983172237873077393e-01 -7.129846215248107910e-01 1.075802803039550781e+00 -6.984930038452148438e-01 7.256279587745666504e-01 6.299429535865783691e-01 4.132041335105895996e-01 -7.519392669200897217e-02 -1.115778446197509766e+00 -1.545351624488830566e+00 7.363508343696594238e-01 -1.215119004249572754e+00 7.895137667655944824e-01 1.421472668647766113e+00 -6.514022350311279297e-01 5.598508119583129883e-01 -5.124964192509651184e-02 -1.828185170888900757e-01 -2.689166367053985596e-02
