8.896084129810333252e-02 -7.707483321428298950e-02 1.723172783851623535e+00 -1.956737160682678223e+00 -1.200235843658447266e+00 2.446706965565681458e-02 1.918427199125289917e-01 9.382970929145812988e-01 -2.507182955741882324e-01 -4.044939875602722168e-01 6.427746415138244629e-01 4.218768775463104248e-01 8.971115350723266602e-01 1.026984691619873047e+00 5.075224041938781738e-01 1.839199542999267578e+00 -3.539477884769439697e-01 -5.377562046051025391e-01 3.089129626750946045e-01 -1.245433688163757324e+00 -6.007593274116516113e-01 -1.202679276466369629e+00 -8.605457544326782227e-01 -1.973311752080917358e-01 4.876605868339538574e-01 -6.469905376434326172e-01 2.909239940345287323e-02 -3.030502200126647949e-01 3.106894195079803467e-01 -1.414485812187194824e+00 8.094090223312377930e-02 1.902947127819061279e-01 8.146627247333526611e-02 -3.424759805202484131e-01 4.420969784259796143e-01 1.161478757858276367e+00 -2.923115789890289307e-01 -2.519470453262329102e-01 -6.539655923843383789e-01 -6.077234148979187012e-01 -2.888564579188823700e-02 -8.462339043617248535e-01 8.532512784004211426e-01 -1.211547732353210449e+00 -1.484499275684356689e-01 -1.729742407798767090e+00 -5.887610912322998047e-01 -2.817564308643341064e-01 -3.156737089157104492e-01 -1.002220883965492249e-01 -8.045955300331115723e-01 3.733634352684020996e-01 -1.195272922515869141e+00 1.486159324645996094e+00 2.063919305801391602e+00 4.458593726158142090e-01 -2.994152605533599854e-01 -1.480953395366668701e-01 4.646428227424621582e-01 -1.703565359115600586e+00 -1.216156005859375000e+00 2.746435642242431641e+00 1.747627377510070801e+00 1.758767813444137573e-01 7.988603115081787109e-01 -8.024218082427978516e-01 4.824389219284057617e-01 1.202385872602462769e-01 8.021303415298461914e-01 -1.617917299270629883e+00 8.570339083671569824e-01 2.490300089120864868e-01 1.099455237388610840e+00 -1.608178496360778809e+00 -1.863245725631713867e+00 -7.815517783164978027e-01 1.432008504867553711e+00 -7.516660690307617188e-01 1.175901532173156738e+00 1.090687632560729980e+00 -6.018658280372619629e-01 -1.099484324455261230e+00 -3.398767709732055664e-01 -7.519580125808715820e-01 -1.289965271949768066e+00 -4.941051304340362549e-01 3.970256149768829346e-01 -1.300528198480606079e-01 -1.122105240821838379e+00 -1.154936194419860840e+00 1.495557188987731934e+00 -7.300004959106445312e-01 9.388552308082580566e-01 -1.580602228641510010e-01 1.500531196594238281e+00 4.325463473796844482e-01 6.247951388359069824e-01 -1.362223744392395020e+00 4.682169854640960693e-02 1.411812782287597656e+00
