-2.928000211715698242e+00 -1.139010787010192871e+00 -1.535736441612243652e+00 -4.721461534500122070e-01 -1.149654984474182129e+00 2.561244070529937744e-01 6.823487877845764160e-01 2.530001878738403320e+00 -1.725531101226806641e+00 1.687583804130554199e+00 1.944770216941833496e+00 1.014043569564819336e+00 1.803213357925415039e+00 1.013214111328125000e+00 -6.251357793807983398e-01 -5.838573575019836426e-01 -1.105141639709472656e+00 -8.087611198425292969e-01 2.364280223846435547e+00 -5.371362566947937012e-01 -6.335660815238952637e-01 8.465489745140075684e-01 -5.448475480079650879e-01 -2.424174070358276367e+00 1.651813507080078125e+00 -1.566763758659362793e+00 7.288572192192077637e-01 2.167438983917236328e+00 1.786775350570678711e+00 -6.042769551277160645e-02 7.162187099456787109e-01 2.745814085006713867e+00 -8.098652958869934082e-01 9.300009608268737793e-01 2.913299798965454102e-01 -3.262869119644165039e+00 1.456030011177062988e+00 -2.359860420227050781e+00 -3.161767244338989258e+00 -2.501020431518554688e-01 3.791073799133300781e+00 2.906937599182128906e+00 1.514069199562072754e+00 1.731421984732151031e-02 -1.246894359588623047e+00 -1.690724790096282959e-01 -2.286022901535034180e+00 -3.686597049236297607e-01 -2.601227521896362305e+00 -1.550324320793151855e+00 1.458132266998291016e+00 -1.860752820968627930e+00 -6.369319558143615723e-01 2.158283472061157227e+00 -6.343994736671447754e-01 1.584247350692749023e-01 2.377258062362670898e+00 1.100525736808776855e+00 2.579047441482543945e+00 -7.988794445991516113e-01 1.078805923461914062e+00 -9.802739620208740234e-01 -1.894683599472045898e+00
-4.805427193641662598e-01 1.966720670461654663e-01 -1.081672906875610352e+00 -2.298928737640380859e+00 1.907248497009277344e+00 4.735002219676971436e-01 1.885447859764099121e+00 9.159949421882629395e-01 1.182110667228698730e+00 -4.375777542591094971e-01 -6.353163123130798340e-01 -4.501617327332496643e-02 -1.338488340377807617e+00 1.863415837287902832e+00 -8.046137690544128418e-01 -3.507740259170532227e+00 2.944479703903198242e+00 5.951162427663803101e-02 7.405610680580139160e-01 2.401366949081420898e+00 2.169469356536865234e+00 7.639166116714477539e-01 5.524041652679443359e-01 2.421778678894042969e+00 -1.575111389160156250e+00 2.194423675537109375e+00 1.611633181571960449e+00 -2.066451549530029297e+00 1.656176447868347168e+00 2.596073389053344727e+00 -1.412036418914794922e+00 1.005722403526306152e+00 1.080631971359252930e+00 4.199843406677246094e-01 2.428919315338134766e+00 -7.794867753982543945e-01 -5.850376486778259277e-01 1.442704916000366211e+00 -1.568918585777282715e+00 2.351328372955322266e+00 4.072913169860839844e+00 -8.917036652565002441e-01 1.190720126032829285e-01 6.303126215934753418e-01 -1.274351000785827637e+00 -1.213903665542602539e+00 -1.174846291542053223e+00 -4.785113334655761719e-01 8.765439391136169434e-01 -4.295150563120841980e-02 1.615528345108032227e+00 3.382848799228668213e-01 -1.572478175163269043e+00 1.463823199272155762e+00 -3.365809202194213867e+00 -2.611325979232788086e-01 9.035043716430664062e-01 -2.616025924682617188e+00 -1.904291749000549316e+00 1.794405341148376465e+00 -1.129393935203552246e+00 1.244130969047546387e+00 9.994025826454162598e-01
1.218703389167785645e+00 -2.812523126602172852e+00 2.397566795349121094e+00 3.022802114486694336e+00 2.693209886550903320e+00 -3.429006040096282959e-02 -5.080881714820861816e-01 2.446751117706298828e+00 -2.276880741119384766e+00 5.015461444854736328e-01 -2.436689138412475586e+00 4.075982570648193359e-01 1.079177856445312500e+00 -2.523423671722412109e+00 -2.057466268539428711e+00 -4.100068569183349609e+00 5.056551098823547363e-01 1.251714468002319336e+00 -4.842856228351593018e-01 -1.498385190963745117e+00 -1.187594890594482422e+00 -4.902314841747283936e-01 1.619642972946166992e+00 2.422901153564453125e+00 1.712999820709228516e+00 -1.055067062377929688e+00 2.099836349487304688e+00 2.349907159805297852e+00 -3.369148373603820801e-01 1.010356187820434570e+00 1.875222921371459961e+00 1.321055531501770020e+00 -1.534092545509338379e+00 -1.903187394142150879e+00 1.255353927612304688e+00 9.616066813468933105e-01 -4.292320311069488525e-01 -5.174079537391662598e-01 1.734389185905456543e+00 -1.424613237380981445e+00 5.795285105705261230e-01 1.215579748153686523e+00 2.287677288055419922e+00 -1.326012134552001953e+00 1.497216701507568359e+00 -2.576839923858642578e+00 -2.344232499599456787e-01 -2.086824417114257812e+00 1.688149094581604004e+00 5.204413533210754395e-01 -9.956937432289123535e-01 4.520520865917205811e-01 -2.857446074485778809e-01 -3.470666110515594482e-01 -1.538991093635559082e+00 2.743121623992919922e+00 -4.727677106857299805e-01 4.386102855205535889e-01 1.316296815872192383e+00 2.589325189590454102e+00 -8.961938023567199707e-01 2.896391749382019043e-01 -1.881270110607147217e-01
1.243544816970825195e+00 -2.483899444341659546e-01 1.213776946067810059e+00 -1.014074802398681641e+00 8.103005886077880859e-01 1.466389656066894531e+00 1.131072878837585449e+00 -6.281883120536804199e-01 7.957978844642639160e-01 -1.648571133613586426e+00 -1.549459457397460938e+00 6.530771031975746155e-03 1.190763950347900391e+00 -9.714967608451843262e-01 -2.103145122528076172e+00 -2.315255165100097656e+00 -2.938014268875122070e+00 -3.667526245117187500e+00 6.369255483150482178e-02 -2.032233953475952148e+00 -1.405805230140686035e+00 3.217127621173858643e-01 1.328490495681762695e+00 3.913215398788452148e-01 8.377503156661987305e-01 2.471727579832077026e-01 -7.795684337615966797e-01 -2.680397033691406250e-01 -1.073157548904418945e+00 1.225818634033203125e+00 1.561733722686767578e+00 -7.816688418388366699e-01 2.372323989868164062e+00 1.592517256736755371e+00 -1.156777620315551758e+00 -1.766866326332092285e+00 -2.565830707550048828e+00 2.850380182266235352e+00 -3.101946830749511719e+00 2.284631967544555664e+00 1.752057194709777832e+00 -2.653772592544555664e+00 1.878120005130767822e-01 -1.394311904907226562e+00 2.020549535751342773e+00 2.118377685546875000e+00 -1.511854585260152817e-02 -1.375754475593566895e+00 9.302287697792053223e-01 -2.433897018432617188e+00 -2.524802684783935547e-01 5.272350311279296875e-01 -2.827527225017547607e-01 1.714455604553222656e+00 -1.672922372817993164e+00 1.925006955862045288e-01 7.264956235885620117e-01 -9.685031175613403320e-01 4.777363836765289307e-01 -2.925342082977294922e+00 5.196220874786376953e-01 -2.540469646453857422e+00 3.491913080215454102e+00
-1.746158897876739502e-01 2.928441762924194336e+00 1.070931181311607361e-01 6.524049043655395508e-01 -2.825937986373901367e+00 3.259429931640625000e-01 -5.936664938926696777e-01 7.008405923843383789e-01 1.886732220649719238e+00 8.897615671157836914e-01 -2.115536689758300781e+00 -1.348111748695373535e+00 -1.783278465270996094e+00 3.155830621719360352e+00 -1.288789987564086914e+00 -1.989704966545104980e+00 -1.954211235046386719e+00 -6.448679566383361816e-01 -1.010304570198059082e+00 1.095048245042562485e-02 4.875540733337402344e-01 2.292423486709594727e+00 2.607174813747406006e-01 -1.445721507072448730e+00 -2.001913785934448242e-01 1.381641387939453125e+00 -1.073095560073852539e+00 1.844365715980529785e+00 3.946994066238403320e+00 1.568434000015258789e+00 -7.264702916145324707e-01 2.182263851165771484e+00 9.829592108726501465e-01 -8.031029701232910156e-01 1.333366870880126953e+00 -4.514046013355255127e-01 -9.806442260742187500e-01 -3.120040178298950195e+00 1.150639176368713379e+00 1.640166640281677246e+00 1.652869433164596558e-01 7.172511518001556396e-02 1.620200276374816895e-01 -2.459317743778228760e-01 1.594510078430175781e+00 2.710477828979492188e+00 5.706830024719238281e-01 1.405611515045166016e+00 -2.119503736495971680e+00 -5.877179503440856934e-01 -1.924498677253723145e+00 2.278413057327270508e+00 -4.446645081043243408e-01 2.793268442153930664e+00 -6.234702467918395996e-01 2.900768518447875977e-01 -1.322699666023254395e+00 2.028594970703125000e+00 1.499579399824142456e-01 9.220604300498962402e-01 -1.489661216735839844e+00 1.699023604393005371e+00 -3.136827230453491211e+00
-9.400038719177246094e-01 -5.350459218025207520e-01 2.036039113998413086e+00 -1.716791033744812012e+00 2.536169528961181641e+00 1.427302211523056030e-01 -1.747065901756286621e+00 -7.671175599098205566e-01 -1.805465668439865112e-01 1.422909498214721680e+00 -1.078779697418212891e+00 -1.467496156692504883e-01 -1.001746773719787598e+00 2.740614891052246094e+00 4.125218987464904785e-01 2.290672063827514648e+00 3.160297632217407227e+00 1.228552103042602539e+00 -4.764117300510406494e-01 -1.411858201026916504e+00 2.556867361068725586e+00 3.004598617553710938e+00 -1.669532179832458496e+00 -1.610340118408203125e+00 6.316424608230590820e-01 -2.717245578765869141e+00 1.075724601745605469e+00 -3.775186538696289062e-01 -2.164007574319839478e-01 -4.005156829953193665e-02 -2.119904518127441406e+00 -3.397562503814697266e+00 -2.818229421973228455e-02 1.092061638832092285e+00 2.871970176696777344e+00 -1.704267501831054688e+00 -1.915911436080932617e+00 4.994304776191711426e-01 -3.125190734863281250e-01 6.144891381263732910e-01 2.885234653949737549e-01 3.690833747386932373e-01 -2.315417766571044922e+00 9.468622207641601562e-01 2.275777459144592285e-01 -2.561221837997436523e+00 -1.537045001983642578e+00 2.753742933273315430e+00 -2.735597610473632812e+00 -3.016385078430175781e+00 -8.669404983520507812e-01 -2.290238618850708008e+00 -1.040484309196472168e+00 5.283102393150329590e-01 5.003733038902282715e-01 2.090472698211669922e+00 4.856097102165222168e-01 -1.653885483741760254e+00 1.639922499656677246e+00 -2.447227239608764648e+00 -1.597577482461929321e-01 -1.915844082832336426e+00 -2.476457059383392334e-01
1.767038941383361816e+00 -4.719583988189697266e-01 8.695569634437561035e-01 -2.283509254455566406e+00 -2.467592239379882812e+00 -2.114954471588134766e+00 -2.732353448867797852e+00 -6.029459834098815918e-02 1.137967482209205627e-01 2.888621985912322998e-01 -1.430220305919647217e-01 1.495999097824096680e+00 -7.443022727966308594e-01 1.940597176551818848e+00 3.135293722152709961e+00 1.751962304115295410e-01 -2.820075511932373047e+00 1.647855758666992188e+00 -1.223640084266662598e+00 -1.783407628536224365e-01 -1.426042795181274414e+00 2.790627002716064453e+00 -8.778330683708190918e-01 1.286527037620544434e+00 -1.462036371231079102e+00 -2.278924435377120972e-01 2.753462076187133789e+00 -8.515862822532653809e-01 -1.110542058944702148e+00 4.512409865856170654e-02 -2.648259103298187256e-01 2.548284292221069336e+00 -7.789105921983718872e-02 -6.985943019390106201e-02 8.608424067497253418e-01 4.860064685344696045e-01 4.263389110565185547e-02 1.738379836082458496e+00 2.298087358474731445e+00 2.321308106184005737e-01 1.120403528213500977e+00 -2.559521913528442383e+00 -1.274615645408630371e+00 1.408602952957153320e+00 2.749213874340057373e-01 6.586498618125915527e-01 -1.188291430473327637e+00 2.453688383102416992e+00 3.145068883895874023e+00 5.043862760066986084e-02 4.715938568115234375e-01 -1.307708501815795898e+00 -1.656538724899291992e+00 -8.767929077148437500e-01 -9.247683882713317871e-01 -2.598657846450805664e+00 3.318802833557128906e+00 7.903770208358764648e-01 1.211068630218505859e+00 -1.712677121162414551e+00 -1.462435126304626465e+00 2.185045003890991211e+00 1.462364315986633301e+00
-2.698805570602416992e+00 1.239510178565979004e+00 7.541311383247375488e-01 3.200016498565673828e+00 -1.243701100349426270e+00 1.830344647169113159e-01 6.376443058252334595e-02 -1.406781196594238281e+00 1.405723214149475098e+00 -1.852071166038513184e+00 2.257275104522705078e+00 -4.352321028709411621e-01 -1.382012009620666504e+00 1.967917084693908691e+00 -1.897176980972290039e+00 -1.254616498947143555e+00 -4.824803024530410767e-02 1.356657028198242188e+00 -3.212965250015258789e+00 -9.853024035692214966e-02 1.628327965736389160e+00 2.106084346771240234e+00 1.661731302738189697e-01 1.476901054382324219e+00 1.939634799957275391e+00 7.324609160423278809e-02 -8.282395005226135254e-01 1.424610614776611328e+00 -7.710950970649719238e-01 5.879798531532287598e-01 -2.764039278030395508e+00 -2.043904066085815430e+00 1.686127185821533203e+00 2.427186518907546997e-01 -3.891881182789802551e-02 6.204303503036499023e-01 5.521399378776550293e-01 -9.616439938545227051e-01 2.249768190085887909e-02 1.433000564575195312e-01 2.137455791234970093e-01 -2.323786497116088867e+00 -9.219616055488586426e-01 2.001671075820922852e+00 3.440998792648315430e+00 -1.226035594940185547e+00 1.384272933006286621e+00 2.418900966644287109e+00 9.773457646369934082e-01 -7.614761590957641602e-01 -1.116625428199768066e+00 -5.147261023521423340e-01 2.844881772994995117e+00 1.783474326133728027e+00 -2.187386751174926758e+00 -1.579975247383117676e+00 2.047834396362304688e+00 2.292175769805908203e+00 2.887110471725463867e+00 1.342661619186401367e+00 -6.026262640953063965e-01 -1.322270750999450684e+00 6.660395264625549316e-01
-2.716928958892822266e+00 1.710294723510742188e+00 -1.846442937850952148e+00 -8.012967705726623535e-01 2.768010616302490234e+00 -5.716950297355651855e-01 -8.433689475059509277e-01 8.560795783996582031e-01 -6.040407419204711914e-01 -8.465182036161422729e-02 1.849630236625671387e+00 -3.278902769088745117e-01 -1.109363555908203125e+00 -6.910148859024047852e-01 2.071209192276000977e+00 6.661628484725952148e-01 -6.187474727630615234e-01 8.862318992614746094e-01 -2.025107145309448242e+00 -9.286004900932312012e-01 -1.355096399784088135e-01 -2.281351327896118164e+00 2.022648096084594727e+00 7.938077449798583984e-01 1.134475827217102051e+00 -2.946823835372924805e+00 -2.921596288681030273e+00 3.470937013626098633e+00 1.500602245330810547e+00 -8.349127769470214844e-01 -1.457283258438110352e+00 -1.574744582176208496e+00 1.276693582534790039e+00 9.049587845802307129e-01 3.351199626922607422e+00 -6.278835535049438477e-01 -1.753545165061950684e+00 1.013384938240051270e+00 2.330516338348388672e+00 -1.568097770214080811e-01 -1.865033984184265137e+00 -8.299525827169418335e-02 -1.563738346099853516e+00 7.320889234542846680e-01 5.149117112159729004e-01 3.371175050735473633e+00 2.883438587188720703e+00 -1.406905204057693481e-01 -1.055873394012451172e+00 1.664154291152954102e+00 1.628081083297729492e+00 1.021776080131530762e+00 1.362219333648681641e+00 1.316391110420227051e+00 -1.818413615226745605e+00 -4.604943394660949707e-01 2.862491607666015625e+00 1.102183461189270020e+00 -4.108199179172515869e-01 -2.767280101776123047e+00 -1.774474382400512695e-01 1.490955948829650879e+00 -5.820564031600952148e-01
-2.537934482097625732e-01 7.094507813453674316e-01 6.701599955558776855e-01 -2.653107166290283203e+00 1.969282984733581543e+00 -5.934000611305236816e-01 8.830298185348510742e-01 6.439678072929382324e-01 -2.015473604202270508e+00 9.312225580215454102e-01 -2.968635082244873047e+00 -1.475478429347276688e-02 1.692525863647460938e+00 -1.631640315055847168e+00 -7.415224909782409668e-01 4.116189777851104736e-01 2.173178911209106445e+00 -6.113395094871520996e-01 1.083687186241149902e+00 -6.382066011428833008e-01 -1.018249750137329102e+00 -3.040075302124023438e+00 -7.475727200508117676e-01 2.207359299063682556e-02 1.685515403747558594e+00 2.711276054382324219e+00 -2.904951810836791992e+00 9.706221818923950195e-01 -6.814989447593688965e-01 3.011460900306701660e-01 -2.264513015747070312e+00 -2.607500553131103516e+00 3.659807682037353516e+00 1.333713531494140625e+00 5.771386027336120605e-01 -1.242180109024047852e+00 2.033608198165893555e+00 -2.004325866699218750e+00 -6.572073101997375488e-01 3.478105366230010986e-01 9.832832813262939453e-01 5.451485887169837952e-02 2.531081140041351318e-01 2.175214290618896484e+00 -1.972504615783691406e+00 1.357264518737792969e+00 3.945635557174682617e-01 6.981427073478698730e-01 4.434034824371337891e-01 -2.629964053630828857e-01 -2.399180978536605835e-01 -1.006338834762573242e+00 2.882429122924804688e+00 4.995349049568176270e-01 2.598429679870605469e+00 -2.265501260757446289e+00 -2.237896919250488281e+00 -8.484707474708557129e-01 -1.458425283432006836e+00 4.462066292762756348e-02 -3.102000474929809570e+00 1.295616030693054199e+00 -2.430052757263183594e+00
-3.413322925567626953e+00 8.768920302391052246e-01 7.595299482345581055e-01 -8.344446420669555664e-01 -2.504601776599884033e-01 1.709683537483215332e+00 7.354395836591720581e-02 -2.348041057586669922e+00 -8.772000670433044434e-01 -8.414100110530853271e-02 -1.936070442199707031e+00 -2.537720441818237305e+00 -1.679482221603393555e+00 5.767547488212585449e-01 5.722367763519287109e-01 6.585841178894042969e-01 -1.192928552627563477e+00 2.742014646530151367e+00 -1.198729515075683594e+00 3.682562589645385742e+00 2.107213258743286133e+00 -1.903557896614074707e+00 -5.301907062530517578e-01 1.120688199996948242e+00 -5.701370239257812500e-01 1.724401116371154785e+00 9.865912199020385742e-01 -2.155313640832901001e-01 1.007221460342407227e+00 7.526406645774841309e-02 9.191438555717468262e-01 1.128115057945251465e+00 -5.902464389801025391e-01 6.913741230964660645e-01 -8.831694126129150391e-01 -1.495265960693359375e+00 1.866446971893310547e+00 -1.432576060295104980e+00 7.878273129463195801e-01 -1.167891383171081543e+00 1.162907242774963379e+00 -1.952158570289611816e+00 1.860332131385803223e+00 2.047523021697998047e+00 -8.530288338661193848e-01 -1.673704028129577637e+00 -1.369827389717102051e+00 -8.368465900421142578e-01 -2.519570112228393555e+00 -3.004712343215942383e+00 3.002318739891052246e-01 1.604235887527465820e+00 1.844827413558959961e+00 -1.828301697969436646e-01 2.668565750122070312e+00 1.393138051033020020e+00 -2.437409400939941406e+00 -2.361258715391159058e-01 -3.476930558681488037e-01 2.473999977111816406e+00 2.402366161346435547e+00 -1.893788456916809082e+00 7.398731112480163574e-01
-8.498961478471755981e-02 2.658531904220581055e+00 1.059988975524902344e+00 -1.337660193443298340e+00 1.445114135742187500e+00 -2.104778289794921875e+00 1.190569877624511719e+00 2.665606498718261719e+00 -7.599941492080688477e-01 3.204366207122802734e+00 8.290383219718933105e-01 -9.497840404510498047e-01 -3.362347126007080078e+00 2.869349241256713867e+00 -1.953741550445556641e+00 5.049982666969299316e-01 -1.308761715888977051e+00 2.528401136398315430e+00 1.080912590026855469e+00 -3.719819188117980957e-01 3.293807268142700195e+00 -2.143429040908813477e+00 1.519229888916015625e+00 1.724597454071044922e+00 1.326718091964721680e+00 5.047278404235839844e-01 -1.185086607933044434e+00 1.457118630409240723e+00 -8.577840924263000488e-01 -1.862469077110290527e+00 -1.007621765136718750e+00 2.582448959350585938e+00 4.008274674415588379e-01 -1.040314912796020508e+00 2.600995302200317383e+00 -1.691657304763793945e+00 -1.446551561355590820e+00 3.391402959823608398e-01 -3.208986759185791016e+00 -2.347270488739013672e+00 -3.937639892101287842e-01 1.397927999496459961e+00 -5.758703351020812988e-01 1.209115743637084961e+00 -8.445376157760620117e-01 1.687794685363769531e+00 -1.062624931335449219e+00 1.136946007609367371e-01 -1.493628978729248047e+00 2.677239656448364258e+00 -1.055667757987976074e+00 2.055194616317749023e+00 -2.338380336761474609e+00 2.752258300781250000e+00 -1.123664826154708862e-01 -1.812496662139892578e+00 -3.567873239517211914e-01 -8.852242231369018555e-01 4.690361320972442627e-01 2.170713663101196289e+00 -8.884938955307006836e-01 1.164613127708435059e+00 -1.965494453907012939e-01
-2.222103834152221680e+00 -8.326852321624755859e-01 2.882030963897705078e+00 2.730423212051391602e+00 1.205487102270126343e-01 9.011167287826538086e-01 -4.443932175636291504e-01 3.035255908966064453e+00 -1.002721190452575684e-01 3.407783031463623047e+00 -1.132486343383789062e+00 -8.516325354576110840e-01 2.494805335998535156e+00 -1.238170623779296875e+00 1.795471310615539551e+00 -6.886212825775146484e-01 6.075619459152221680e-01 3.126595973968505859e+00 -9.342741966247558594e-01 -3.943956196308135986e-01 -1.927539825439453125e+00 2.582535505294799805e+00 8.152887225151062012e-01 -2.389634996652603149e-01 -1.605102568864822388e-01 1.172056198120117188e+00 5.695277452468872070e-01 -1.537063241004943848e+00 -1.230346918106079102e+00 -3.723834156990051270e-01 -6.082871556282043457e-01 1.393605113029479980e+00 -2.282188415527343750e+00 -2.736833572387695312e+00 -2.577812969684600830e-01 1.379685521125793457e+00 1.910256624221801758e+00 2.619513511657714844e+00 -2.953234910964965820e-01 2.326890707015991211e+00 -1.473409295082092285e+00 -1.555129289627075195e+00 3.487818241119384766e-01 -1.692778468132019043e+00 -7.812826633453369141e-01 1.124857187271118164e+00 -1.335200369358062744e-01 2.506015777587890625e+00 -8.972899615764617920e-02 -1.502278208732604980e+00 -2.464561939239501953e+00 9.907206296920776367e-01 1.116965174674987793e+00 -2.477265834808349609e+00 6.503351926803588867e-01 -1.316423654556274414e+00 1.062751933932304382e-01 -5.339273810386657715e-01 -8.713328242301940918e-01 -2.987627744674682617e+00 1.480269193649291992e+00 1.501106381416320801e+00 -1.154302000999450684e+00
-6.261337995529174805e-01 6.470340490341186523e-01 -1.284326672554016113e+00 1.194174066185951233e-01 3.148962736129760742e+00 2.728634119033813477e+00 -1.273088306188583374e-01 -2.109026908874511719e+00 5.761033855378627777e-03 2.158915519714355469e+00 -2.939203381538391113e-01 -5.107803940773010254e-01 -2.406908035278320312e+00 -5.722009539604187012e-01 -1.089947938919067383e+00 -2.031497716903686523e+00 -5.777529478073120117e-01 2.480995468795299530e-02 -1.640164375305175781e+00 -1.242236375808715820e+00 -2.176003932952880859e+00 5.378566980361938477e-01 2.087750434875488281e+00 -3.105734884738922119e-01 2.681125640869140625e+00 2.433493852615356445e+00 3.428246453404426575e-02 -1.592443108558654785e+00 1.651643753051757812e+00 -1.464483499526977539e+00 -2.205749511718750000e+00 -3.235588371753692627e-01 -1.039333581924438477e+00 1.554183244705200195e+00 -1.020903944969177246e+00 1.167408943176269531e+00 8.772754073143005371e-01 1.418617844581604004e+00 -2.955389261245727539e+00 -9.005426168441772461e-01 -1.788837552070617676e+00 1.380423426628112793e+00 -4.683898091316223145e-01 5.760541558265686035e-01 7.658056020736694336e-01 2.302314281463623047e+00 -1.071599125862121582e+00 -1.881237745285034180e+00 2.272089719772338867e+00 -9.569657444953918457e-01 -6.452609896659851074e-01 -3.272814989089965820e+00 -1.293347120285034180e+00 2.716924190521240234e+00 -1.521282792091369629e+00 -2.975787401199340820e+00 2.415737628936767578e+00 9.848355054855346680e-01 8.689707517623901367e-02 8.344390988349914551e-01 5.513598676770925522e-03 2.521016836166381836e+00 1.614537715911865234e+00
-1.080942749977111816e+00 2.491408348083496094e+00 1.813440322875976562e+00 -1.523756265640258789e+00 1.365198493003845215e-01 -1.628473758697509766e+00 1.591863669455051422e-02 -1.897097826004028320e+00 9.872655272483825684e-01 3.301339387893676758e+00 -2.082377672195434570e+00 -7.310164570808410645e-01 -2.321646064519882202e-01 2.439110130071640015e-01 4.944575428962707520e-01 8.510637283325195312e-01 -2.991671323776245117e+00 -1.495264053344726562e+00 3.149949073791503906e+00 -1.796707987785339355e+00 1.297632336616516113e+00 -1.962398588657379150e-01 -1.773596554994583130e-01 9.588520526885986328e-01 -3.622742176055908203e+00 2.170371055603027344e+00 5.757169052958488464e-02 1.089828372001647949e+00 -1.860816597938537598e+00 9.250923991203308105e-01 -7.739157080650329590e-01 1.638246536254882812e+00 6.610361337661743164e-01 1.389206647872924805e+00 -1.496689319610595703e-01 8.272787332534790039e-01 1.029030799865722656e+00 1.558595895767211914e+00 1.843389630317687988e+00 -2.571721315383911133e+00 7.810636758804321289e-01 2.164630413055419922e+00 1.592087745666503906e+00 -2.536919116973876953e+00 -1.896520495414733887e+00 -3.107989020645618439e-02 -1.723921656608581543e+00 1.027314186096191406e+00 -3.032374382019042969e+00 -1.424588799476623535e+00 -6.503776907920837402e-01 -2.126187086105346680e+00 3.284319162368774414e+00 2.266390800476074219e+00 -7.232336401939392090e-01 2.994003295898437500e-01 1.078672289848327637e+00 8.963953256607055664e-01 2.325556516647338867e+00 1.630371809005737305e+00 -3.239998519420623779e-01 1.714359164237976074e+00 2.527690410614013672e+00
-4.446068704128265381e-01 -1.251378536224365234e+00 -7.054576277732849121e-01 2.136177062988281250e+00 1.230059623718261719e+00 2.721554517745971680e+00 -1.445903927087783813e-01 -2.480681657791137695e+00 -2.093033075332641602e+00 2.702106475830078125e+00 2.650335729122161865e-01 2.323365211486816406e+00 -6.978818178176879883e-01 1.683065414428710938e+00 2.660403728485107422e+00 1.471924543380737305e+00 -4.497895836830139160e-01 2.076183557510375977e+00 -1.268359780311584473e+00 -5.654242634773254395e-01 -1.676740884780883789e+00 -9.568947367370128632e-03 -1.888950109481811523e+00 3.899581134319305420e-01 4.175482690334320068e-01 -1.237013101577758789e+00 -1.697742819786071777e+00 1.633842468261718750e+00 1.631624698638916016e-01 -9.164229631423950195e-01 1.653398633003234863e+00 -3.397469758987426758e+00 8.847638368606567383e-01 1.641485095024108887e+00 4.180493354797363281e-01 5.488120391964912415e-02 1.725445747375488281e+00 -3.634603917598724365e-01 -2.405335664749145508e+00 1.803549408912658691e+00 -3.560000360012054443e-01 1.660521626472473145e+00 7.052587866783142090e-01 3.464452743530273438e+00 8.316408991813659668e-01 -1.724423050880432129e+00 -5.744683146476745605e-01 -1.662005037069320679e-01 1.032034993171691895e+00 -1.085225820541381836e+00 -4.046555757522583008e-01 -2.550898313522338867e+00 -2.262392044067382812e+00 -1.453806877136230469e+00 -5.447172522544860840e-01 -6.694342494010925293e-01 1.049427628517150879e+00 -1.531730294227600098e+00 1.589606642723083496e+00 2.503817379474639893e-01 2.329005479812622070e+00 3.113120794296264648e+00 -1.930929541587829590e+00
1.129696011543273926e+00 2.467175126075744629e-01 3.443857669830322266e+00 -2.852329492568969727e+00 -1.084562897682189941e+00 -4.357104599475860596e-01 6.199866533279418945e-02 -1.668031692504882812e+00 1.135728061199188232e-01 2.391248703002929688e+00 -9.924023747444152832e-01 -2.004278421401977539e+00 -2.743767499923706055e+00 3.012791395187377930e+00 -3.784394860267639160e-01 2.403305053710937500e+00 2.211877852678298950e-01 4.490769803524017334e-01 2.876427888870239258e+00 2.794267535209655762e-01 -2.020724773406982422e+00 4.514851570129394531e-01 -9.330801963806152344e-01 -2.889340162277221680e+00 -1.037797093391418457e+00 -1.803833544254302979e-01 -2.404748678207397461e+00 1.697791218757629395e+00 -2.098234415054321289e+00 1.703485369682312012e+00 -9.749500155448913574e-01 1.267247319221496582e+00 -1.906806588172912598e+00 -3.353410005569458008e+00 -9.280471205711364746e-01 2.284042358398437500e+00 2.557640075683593750e-01 3.045492887496948242e+00 -6.709240078926086426e-01 -2.162754833698272705e-01 9.078806042671203613e-01 8.179098963737487793e-01 2.549858570098876953e+00 -2.378667116165161133e+00 2.782891094684600830e-01 -9.304306507110595703e-01 1.426536440849304199e+00 -1.586574196815490723e+00 5.406630635261535645e-01 4.433377385139465332e-01 -2.159532546997070312e+00 -9.222383499145507812e-01 -7.546218037605285645e-01 -9.655212163925170898e-01 -1.138613820075988770e+00 3.534648120403289795e-01 -3.966923356056213379e-01 -4.596243053674697876e-02 9.141336679458618164e-01 9.855297207832336426e-02 5.395714044570922852e-01 -2.513338327407836914e+00 -9.179777503013610840e-01
-9.255582094192504883e-01 2.615966320037841797e+00 -1.877197861671447754e+00 -2.397443056106567383e+00 -1.699136853218078613e+00 1.375089526176452637e+00 -1.529406547546386719e+00 -1.024529244750738144e-02 -5.011177435517311096e-02 1.610707640647888184e-01 3.265767395496368408e-01 -1.229489445686340332e+00 5.458706021308898926e-01 -9.189433455467224121e-01 -5.248332619667053223e-01 2.345559358596801758e+00 4.705585539340972900e-01 -2.122315406799316406e+00 5.359476208686828613e-01 2.290340423583984375e+00 3.069539964199066162e-01 -1.446623086929321289e+00 -4.159312844276428223e-01 5.326809287071228027e-01 1.564871788024902344e+00 2.759085416793823242e+00 -1.839767098426818848e+00 -1.499134898185729980e+00 -1.521207690238952637e+00 1.414842844009399414e+00 -2.611474752426147461e+00 1.747116684913635254e+00 1.636663824319839478e-01 -4.394269585609436035e-01 -1.533749938011169434e+00 3.051098823547363281e+00 -8.364992141723632812e-01 -3.036663830280303955e-01 4.480989277362823486e-01 1.092573404312133789e+00 -5.829298496246337891e-01 -2.933266401290893555e+00 -8.484640717506408691e-01 1.213709473609924316e+00 3.214513659477233887e-01 9.809561371803283691e-01 -2.487719297409057617e+00 2.229036808013916016e+00 -1.697273612022399902e+00 -1.555883646011352539e+00 -1.760154724121093750e+00 -2.520958185195922852e+00 1.318774342536926270e+00 -2.667296171188354492e+00 -2.263219594955444336e+00 2.740505456924438477e+00 2.097523927688598633e+00 -2.467599630355834961e+00 1.753906011581420898e-01 1.193881392478942871e+00 -2.002939730882644653e-01 -5.330242514610290527e-01 -3.156646490097045898e-01
-5.408086776733398438e-01 9.310224652290344238e-01 3.452920198440551758e+00 2.724492073059082031e+00 1.648077011108398438e+00 1.649775624275207520e+00 -1.323098063468933105e+00 -1.783204793930053711e+00 -1.002987623214721680e+00 5.100935697555541992e-01 -1.245847463607788086e+00 -2.026477098464965820e+00 -3.491008996963500977e+00 -4.010058939456939697e-02 -3.551280975341796875e+00 6.520681381225585938e-01 -1.884823799133300781e+00 5.617102980613708496e-01 7.338486909866333008e-01 7.834230065345764160e-01 -2.019412755966186523e+00 1.261781573295593262e+00 2.832585334777832031e+00 -1.154245018959045410e+00 2.779506206512451172e+00 6.901038885116577148e-01 1.992027401924133301e+00 -1.138435840606689453e+00 -8.144077658653259277e-01 -2.047351121902465820e+00 3.819959759712219238e-01 8.660754561424255371e-01 3.143901228904724121e-01 5.823369026184082031e-01 -1.145602226257324219e+00 -8.013422489166259766e-01 -1.959634661674499512e+00 -1.174946188926696777e+00 2.309385299682617188e+00 -1.788387179374694824e+00 3.237076044082641602e+00 1.856022119522094727e+00 -1.331678152084350586e+00 1.068410873413085938e+00 3.282705545425415039e-01 -2.525559186935424805e+00 -1.164161920547485352e+00 -5.198566913604736328e-01 -1.649657964706420898e+00 -4.606133699417114258e-01 -1.099649906158447266e+00 8.148157000541687012e-01 -7.797765135765075684e-01 -4.260915815830230713e-01 1.401395916938781738e+00 -2.568166255950927734e+00 7.637035250663757324e-01 -6.424370408058166504e-01 -1.316732645034790039e+00 -1.678678035736083984e+00 -1.593870878219604492e+00 -6.245695948600769043e-01 -2.150641202926635742e+00
-2.560799121856689453e+00 -2.882097721099853516e+00 -2.720273494720458984e+00 -1.185647964477539062e+00 -1.467028498649597168e+00 -8.520526289939880371e-01 5.985358953475952148e-01 -1.319705843925476074e+00 1.869479775428771973e+00 -3.468353748321533203e-01 1.953768968582153320e+00 5.390154123306274414e-01 -7.213535308837890625e-01 -2.608554840087890625e+00 -2.287044227123260498e-01 1.094099402427673340e+00 -6.518859267234802246e-01 1.584183692932128906e+00 1.646071672439575195e+00 -1.222542405128479004e+00 -8.377191424369812012e-01 -6.080771684646606445e-01 2.143645137548446655e-01 -2.588839054107666016e+00 2.558064222335815430e+00 1.351921260356903076e-01 2.013309955596923828e+00 3.939009606838226318e-01 -1.019583582878112793e+00 1.456504225730895996e+00 -2.534432411193847656e+00 -9.089532494544982910e-01 -1.145498991012573242e+00 -2.363094568252563477e+00 2.839306831359863281e+00 -1.144953250885009766e+00 2.121160030364990234e+00 -2.502395771443843842e-02 6.013715267181396484e-01 1.293835163116455078e+00 -5.825492739677429199e-01 -6.270331740379333496e-01 1.565632700920104980e+00 -1.032943248748779297e+00 2.324521064758300781e+00 1.767587423324584961e+00 -1.547674298286437988e+00 2.138293504714965820e+00 3.335595607757568359e+00 7.716965079307556152e-01 2.205317765474319458e-01 -2.757857322692871094e+00 2.713389873504638672e+00 -1.083526968955993652e+00 1.566976666450500488e+00 5.551118850708007812e-01 -1.538558602333068848e+00 3.352827548980712891e+00 1.306089460849761963e-01 -1.869123727083206177e-01 -2.685199260711669922e+00 3.346380293369293213e-01 1.345166921615600586e+00
7.830840349197387695e-01 7.911272644996643066e-01 5.890781283378601074e-01 2.002995252609252930e+00 1.485977619886398315e-01 1.262011051177978516e+00 3.356099426746368408e-01 2.794466972351074219e+00 2.608608007431030273e+00 -1.144339084625244141e+00 -1.166146159172058105e+00 -5.968016386032104492e-01 -3.327839374542236328e-01 9.498445987701416016e-01 1.589401364326477051e+00 2.639809131622314453e+00 -4.547968208789825439e-01 4.092490375041961670e-01 -1.691468358039855957e+00 1.817481040954589844e+00 6.721906661987304688e-01 6.587666273117065430e-01 7.995589971542358398e-01 -1.021217823028564453e+00 -1.538742065429687500e+00 2.141800642013549805e+00 -1.782412409782409668e+00 1.368612766265869141e+00 7.357516288757324219e-01 7.097929120063781738e-01 2.235779285430908203e+00 -2.433512687683105469e+00 -2.309257268905639648e+00 1.922308057546615601e-01 -1.805282592773437500e+00 -3.240222692489624023e+00 1.185906529426574707e+00 2.325163781642913818e-02 8.235530257225036621e-01 1.837638497352600098e+00 4.268344342708587646e-01 3.313573077321052551e-02 -1.162281155586242676e+00 -5.266706347465515137e-01 2.149868249893188477e+00 1.629107117652893066e+00 9.890085458755493164e-01 1.571342825889587402e+00 -1.520458698272705078e+00 -2.234797179698944092e-01 -2.564322710037231445e+00 -3.760847747325897217e-01 -1.141468524932861328e+00 -7.895348668098449707e-01 2.616769313812255859e+00 -2.204221487045288086e+00 1.664965033531188965e+00 -2.254370927810668945e+00 -2.412955284118652344e+00 -3.153354525566101074e-01 -3.079411745071411133e+00 -1.743400335311889648e+00 2.482682704925537109e+00
-2.122698783874511719e+00 4.614695608615875244e-01 2.156007528305053711e+00 -7.188071608543395996e-01 9.355429410934448242e-01 1.181765794754028320e+00 1.891697496175765991e-01 -1.249484717845916748e-01 -4.474522918462753296e-02 1.677523374557495117e+00 2.701986074447631836e+00 -2.461488485336303711e+00 2.233192682266235352e+00 -2.901767492294311523e+00 2.133571952581405640e-01 -1.176730871200561523e+00 -2.427849054336547852e+00 -7.637861967086791992e-01 -2.272747516632080078e+00 -1.200926184654235840e+00 2.088114261627197266e+00 -1.562119007110595703e+00 2.101559638977050781e+00 6.271412223577499390e-02 -1.436323881149291992e+00 -2.149360895156860352e+00 -2.498644828796386719e+00 -4.723480641841888428e-01 -1.969253271818161011e-01 4.014930129051208496e-01 2.958786487579345703e+00 -1.616499900817871094e+00 -7.237406969070434570e-01 5.360009074211120605e-01 1.241696715354919434e+00 1.780030012130737305e+00 1.383862137794494629e+00 1.351897358894348145e+00 3.013597011566162109e+00 2.729143381118774414e+00 3.543017864227294922e+00 -2.896105766296386719e+00 -1.150746464729309082e+00 6.447172164916992188e-01 -8.534236252307891846e-02 -9.387499094009399414e-01 -5.206892490386962891e-01 1.178522229194641113e+00 -1.198788046836853027e+00 1.465007066726684570e-01 2.463876485824584961e+00 -5.310350060462951660e-01 -7.113330960273742676e-01 -3.082019805908203125e+00 3.830332517623901367e+00 -1.020108819007873535e+00 1.241407036781311035e+00 -1.171393752098083496e+00 -1.184015154838562012e+00 -6.663082838058471680e-01 -1.126894474029541016e+00 3.747993707656860352e-01 1.808115690946578979e-01
-2.529398441314697266e+00 -4.528858065605163574e-01 2.796627581119537354e-01 2.304083347320556641e+00 -7.299846410751342773e-01 -3.920347213745117188e+00 9.263658523559570312e-01 -2.177445441484451294e-01 1.921265721321105957e+00 8.054544329643249512e-01 5.937355160713195801e-01 9.221000075340270996e-01 2.369523763656616211e+00 1.441603422164916992e+00 -9.329475164413452148e-01 1.683507204055786133e+00 4.607113599777221680e-01 8.204899430274963379e-01 -1.320873141288757324e+00 -2.374238729476928711e+00 1.943311452865600586e+00 1.856196403503417969e+00 1.314257383346557617e+00 -2.184554815292358398e+00 2.577529668807983398e+00 2.164634943008422852e+00 3.667058944702148438e-01 6.824406981468200684e-01 -2.671003341674804688e+00 -7.639693617820739746e-01 1.916287660598754883e+00 1.107747316360473633e+00 9.732559323310852051e-02 -4.110243320465087891e-01 -1.136491596698760986e-01 9.379093050956726074e-01 -8.782013058662414551e-01 9.802438020706176758e-01 -1.154732331633567810e-01 3.343590259552001953e+00 1.300642013549804688e+00 -3.091564178466796875e+00 2.241914510726928711e+00 -2.179492264986038208e-01 -1.778070569038391113e+00 1.231099486351013184e+00 -1.665926575660705566e+00 -7.978966236114501953e-01 -5.681054592132568359e-01 3.594382107257843018e-01 6.111789345741271973e-01 1.886085867881774902e+00 2.339734584093093872e-01 -1.116845235228538513e-01 -1.283744454383850098e+00 2.944434165954589844e+00 1.089634075760841370e-01 1.797178089618682861e-01 -2.177272319793701172e+00 2.172555446624755859e+00 -9.247734546661376953e-01 6.788011789321899414e-01 -2.716678857803344727e+00
-9.491420388221740723e-01 -2.404569149017333984e+00 -2.224733829498291016e+00 2.261390924453735352e+00 -3.432885278016328812e-03 6.234751343727111816e-01 5.426186323165893555e-01 -1.392137408256530762e+00 -1.959872692823410034e-01 -1.048237085342407227e+00 5.786865949630737305e-01 -1.350012898445129395e+00 -1.055580258369445801e+00 -6.074220538139343262e-01 2.592686891555786133e+00 1.966585636138916016e+00 -7.247160077095031738e-01 -8.046564459800720215e-01 4.642411693930625916e-02 -2.698440551757812500e+00 -1.886299371719360352e+00 -1.885365486145019531e+00 -3.455212593078613281e+00 8.678295016288757324e-01 -1.646683573722839355e+00 1.046585440635681152e+00 9.740737080574035645e-01 1.578225851058959961e+00 2.863829433917999268e-01 2.784490108489990234e+00 -1.612650513648986816e+00 1.614204883575439453e+00 4.753072857856750488e-01 -1.412022233009338379e+00 1.297688633203506470e-01 1.785788774490356445e+00 2.121416807174682617e+00 4.003018379211425781e+00 -2.814086437225341797e+00 -2.669692516326904297e+00 1.292095780372619629e+00 -3.034103393554687500e+00 -1.660590648651123047e+00 -1.309285759925842285e+00 -5.840807035565376282e-02 1.378435045480728149e-01 5.777103900909423828e-01 2.759219884872436523e+00 -1.079804420471191406e+00 -7.448408007621765137e-01 -1.545892000198364258e+00 6.742560863494873047e-01 -9.679586887359619141e-01 2.234513282775878906e+00 1.349146246910095215e+00 6.505159735679626465e-01 -2.863240242004394531e-01 3.122522830963134766e-01 -1.819005012512207031e+00 -4.561246931552886963e-01 -2.351297616958618164e+00 -1.457113265991210938e+00 -8.370988368988037109e-01
-1.432466626167297363e+00 -1.260274529457092285e+00 -1.114101529121398926e+00 -7.381328940391540527e-01 -2.776709198951721191e-01 3.170117139816284180e+00 1.329024314880371094e+00 4.494089484214782715e-01 3.132462739944458008e+00 -1.035342812538146973e+00 2.052634954452514648e+00 1.030698776245117188e+00 1.378889441490173340e+00 9.782245159149169922e-01 1.604609251022338867e+00 1.081269621849060059e+00 2.377604722976684570e+00 1.076542139053344727e+00 8.909627199172973633e-01 2.190956473350524902e-01 -2.189199447631835938e+00 -2.756376862525939941e-01 1.314411640167236328e+00 7.425829768180847168e-01 -1.584573149681091309e+00 9.068825244903564453e-01 -4.754445329308509827e-02 1.006668210029602051e+00 -1.393442511558532715e+00 2.304691672325134277e-01 -9.913292527198791504e-01 -8.628122210502624512e-01 9.214019775390625000e-02 -1.962200045585632324e+00 1.812724232673645020e+00 -2.333427906036376953e+00 -2.677467584609985352e+00 -2.251815795898437500e+00 1.785820007324218750e+00 2.555983543395996094e+00 -3.821695744991302490e-01 3.480471372604370117e-01 -5.559848546981811523e-01 -1.015647172927856445e+00 6.065577864646911621e-01 -2.978334188461303711e+00 3.454505443572998047e+00 -2.771573066711425781e+00 -1.379999279975891113e+00 1.154099106788635254e+00 -1.971874237060546875e+00 2.223861217498779297e-01 1.498484373092651367e+00 1.828732848167419434e+00 -1.701165199279785156e+00 -8.529657125473022461e-01 -1.372627496719360352e+00 5.511264801025390625e-01 -3.232315063476562500e+00 -8.121855854988098145e-01 -6.345720291137695312e-01 2.463956594467163086e+00 -9.221122264862060547e-01
1.626286864280700684e+00 -2.946849107742309570e+00 -8.706623315811157227e-01 3.619733333587646484e+00 1.532047629356384277e+00 8.906344771385192871e-01 1.952585935592651367e+00 -6.178720593452453613e-01 -5.826113224029541016e-01 -2.339766025543212891e+00 -1.108948230743408203e+00 2.007405608892440796e-01 7.878149747848510742e-01 4.448733031749725342e-01 2.920578241348266602e+00 1.703729152679443359e+00 1.529466390609741211e+00 -7.171864509582519531e-01 7.863062620162963867e-01 1.507988572120666504e+00 2.692341566085815430e+00 7.803622484207153320e-01 -2.707009792327880859e+00 -2.365491390228271484e+00 -1.579508423805236816e+00 -2.988017797470092773e+00 -1.893830895423889160e+00 -1.008749365806579590e+00 -1.527994036674499512e+00 -4.273004531860351562e+00 1.624483227729797363e+00 -8.296964764595031738e-01 -8.865292668342590332e-01 1.449485182762145996e+00 2.744193792343139648e+00 6.634814143180847168e-01 -1.971218109130859375e+00 1.673221349716186523e+00 -1.629796385765075684e+00 9.134225845336914062e-01 1.688681244850158691e+00 -5.088564753532409668e-01 8.515939116477966309e-01 2.121424302458763123e-02 4.132880568504333496e-01 -1.061098694801330566e+00 1.506134510040283203e+00 -5.523829460144042969e-01 1.311800479888916016e-01 -1.726518392562866211e+00 1.037974715232849121e+00 -3.435001969337463379e-01 1.486127972602844238e+00 2.638553380966186523e+00 4.908321201801300049e-01 -8.547387719154357910e-01 -4.618560969829559326e-01 8.575301170349121094e-01 2.440188646316528320e+00 1.288925528526306152e+00 -4.599269032478332520e-01 1.291748285293579102e+00 -1.681425690650939941e+00
1.387532353401184082e+00 6.904081702232360840e-01 -3.489519655704498291e-01 -4.932228028774261475e-01 3.256464302539825439e-01 -9.151481986045837402e-01 2.343792438507080078e+00 1.881041973829269409e-01 -1.230928182601928711e+00 9.977633953094482422e-01 2.120854109525680542e-01 9.429304599761962891e-01 -3.317430019378662109e-01 1.557914316654205322e-01 -2.825003147125244141e+00 3.700174391269683838e-01 1.085240125656127930e+00 -2.366226434707641602e+00 1.326218843460083008e+00 -1.964140892028808594e+00 3.797570466995239258e+00 -7.901337146759033203e-01 -3.478052377700805664e+00 1.738032937049865723e+00 -3.532709598541259766e+00 -2.441197633743286133e+00 3.367881536483764648e+00 -3.829839229583740234e-01 -3.168245553970336914e-01 1.048821687698364258e+00 -6.013848185539245605e-01 2.436172068119049072e-01 2.545450031757354736e-01 7.391471862792968750e-01 -2.226567029953002930e+00 8.858768343925476074e-01 -6.421099603176116943e-02 5.788521766662597656e-01 -3.186505287885665894e-02 1.483293414115905762e+00 -6.331152915954589844e-01 -2.357377052307128906e+00 -1.525832295417785645e+00 -2.399350166320800781e+00 1.467221260070800781e+00 5.589346885681152344e-01 1.980147123336791992e+00 -1.360367894172668457e+00 -1.910039782524108887e-01 -2.664851665496826172e+00 -4.900280758738517761e-02 1.225354075431823730e+00 3.336399316787719727e+00 -1.796259522438049316e+00 7.984949350357055664e-01 6.598106622695922852e-01 1.799525618553161621e+00 1.104188114404678345e-01 -5.267525911331176758e-01 1.150041073560714722e-01 -5.751629546284675598e-02 1.016798317432403564e-01 -8.942584991455078125e-01
1.553694486618041992e+00 -2.318250656127929688e+00 1.251138687133789062e+00 -5.721979737281799316e-01 -1.558209300041198730e+00 8.368291854858398438e-01 1.257848739624023438e+00 -5.639770030975341797e-01 -1.391696691513061523e+00 -6.149232983589172363e-01 1.580755710601806641e+00 -1.084387063980102539e+00 -2.941725969314575195e+00 1.007839560508728027e+00 -1.226632475852966309e+00 -5.318858623504638672e-01 -1.199833512306213379e+00 -1.208295226097106934e+00 -1.944747447967529297e+00 1.395880460739135742e+00 -1.682610511779785156e+00 -7.523679137229919434e-01 -2.909176588058471680e+00 -1.880733847618103027e+00 -6.880555152893066406e-01 1.790852546691894531e+00 -1.317974448204040527e+00 -2.348961122334003448e-02 -2.047055661678314209e-01 7.616492509841918945e-01 1.124356746673583984e+00 1.497449040412902832e+00 2.314543962478637695e+00 -6.982130408287048340e-01 2.512737751007080078e+00 1.770774841308593750e+00 -2.923300303518772125e-02 5.496473908424377441e-01 -2.576136589050292969e+00 -1.295552611351013184e+00 -4.838382303714752197e-01 2.223437070846557617e+00 2.758685588836669922e+00 8.768781423568725586e-01 -1.121587678790092468e-01 2.138824701309204102e+00 2.203568696975708008e+00 1.479230165481567383e+00 -2.926028668880462646e-01 5.768801551312208176e-03 2.259888410568237305e+00 -1.075400233268737793e+00 1.488228321075439453e+00 -3.121746301651000977e+00 9.712265729904174805e-01 1.991795063018798828e+00 -1.301838040351867676e+00 9.917423129081726074e-02 2.066249847412109375e+00 -2.739868879318237305e+00 1.927818775177001953e+00 2.152597427368164062e+00 1.010522842407226562e+00
8.812648244202136993e-03 -1.803465604782104492e+00 -6.519173383712768555e-01 -2.607197284698486328e+00 -2.551529183983802795e-02 1.596363425254821777e+00 -3.056501150131225586e+00 2.677815675735473633e+00 2.127604007720947266e+00 2.316417694091796875e+00 -1.716797828674316406e+00 -1.028928518295288086e+00 1.098397016525268555e+00 -1.058568239212036133e+00 -1.457334280014038086e+00 -1.003480195999145508e+00 -3.059468030929565430e+00 -1.417611002922058105e+00 -1.101214885711669922e+00 2.335649251937866211e+00 2.248701333999633789e+00 1.785845637321472168e+00 2.760175228118896484e+00 2.344074964523315430e+00 -1.368371129035949707e+00 2.683030843734741211e+00 7.445362210273742676e-01 1.537169694900512695e+00 -1.704750657081604004e+00 1.365832328796386719e+00 2.872576475143432617e+00 1.179770231246948242e+00 -1.596092939376831055e+00 -6.863483786582946777e-01 -3.432858586311340332e-01 5.438011884689331055e-01 8.179037570953369141e-01 -5.446138978004455566e-01 -3.587951660156250000e+00 1.301390081644058228e-01 -1.672342270612716675e-01 -2.886415719985961914e+00 -1.465021491050720215e+00 3.604508161544799805e+00 2.684945583343505859e+00 1.616561532020568848e+00 1.633342623710632324e+00 -6.556329727172851562e-01 7.866212725639343262e-01 -5.583810210227966309e-01 -2.804400920867919922e+00 -2.429305464029312134e-01 -3.609550297260284424e-01 7.641493082046508789e-01 -1.470710992813110352e+00 9.826453402638435364e-03 -2.088869333267211914e+00 1.655656218528747559e+00 -6.031624674797058105e-01 -1.137497305870056152e+00 1.142756581306457520e+00 -4.161803424358367920e-01 1.944012880325317383e+00
-9.936574697494506836e-01 1.755858182907104492e+00 1.156631231307983398e+00 -5.043024420738220215e-01 -4.008924588561058044e-02 -1.456382393836975098e+00 1.989203453063964844e+00 2.451055198907852173e-01 3.345976114273071289e+00 -5.881093144416809082e-01 8.306135237216949463e-02 -2.398432254791259766e+00 -3.786244988441467285e-01 -2.854557037353515625e+00 -6.520254611968994141e-01 4.045775234699249268e-01 -1.461465835571289062e+00 8.861488103866577148e-01 -5.628215521574020386e-02 1.928720474243164062e+00 -2.623395442962646484e+00 5.270469188690185547e-01 -1.071523904800415039e+00 -2.976010560989379883e+00 -1.034038782119750977e+00 -1.114587306976318359e+00 3.530231714248657227e+00 1.469750165939331055e+00 -1.469998478889465332e+00 3.454599380493164062e-01 -1.271615028381347656e+00 -5.906403660774230957e-01 2.495532035827636719e+00 -7.187537103891372681e-02 -2.068959474563598633e+00 5.375709533691406250e-01 1.443760514259338379e+00 -1.731831431388854980e+00 -5.011513233184814453e-01 6.079570651054382324e-01 4.327304065227508545e-01 2.176832199096679688e+00 -1.273291826248168945e+00 -2.567410469055175781e+00 -6.249552965164184570e-01 -1.245843768119812012e+00 -2.833641529083251953e+00 -6.840629577636718750e-01 -3.245039582252502441e-01 1.329976081848144531e+00 -5.585390329360961914e-01 5.425497293472290039e-01 -2.288296699523925781e+00 2.614670515060424805e+00 -6.156241893768310547e-02 2.290883779525756836e+00 3.623797178268432617e+00 -1.134305357933044434e+00 2.274514675140380859e+00 -9.687787890434265137e-01 -2.778818607330322266e+00 -1.934200644493103027e+00 1.300792843103408813e-01
-3.723884820938110352e-01 -1.623528748750686646e-01 2.157793045043945312e+00 -1.797454804182052612e-01 -1.552045106887817383e+00 5.324099659919738770e-01 -1.921328902244567871e-01 1.987410545349121094e+00 -9.774398803710937500e-01 -3.147415816783905029e-01 -2.968103885650634766e+00 -1.348967313766479492e+00 -1.890088200569152832e+00 -5.031582117080688477e-01 -2.894809246063232422e+00 1.470959782600402832e+00 -3.321042776107788086e+00 -3.776606917381286621e-01 -2.164716243743896484e+00 -7.531269192695617676e-01 1.407802462577819824e+00 -1.065435290336608887e+00 2.484705746173858643e-01 8.927217125892639160e-01 1.931382179260253906e+00 -1.331533193588256836e+00 -1.641880512237548828e+00 -2.226247042417526245e-01 -2.061004638671875000e+00 1.924296855926513672e+00 -5.527129173278808594e-01 7.394383549690246582e-01 -1.593598425388336182e-01 2.126955986022949219e+00 -9.435622394084930420e-02 -2.485767155885696411e-01 1.365538597106933594e+00 -2.711377143859863281e-01 3.008067131042480469e+00 -2.837143898010253906e+00 4.579866528511047363e-01 8.277710080146789551e-01 2.374256372451782227e+00 -1.557975292205810547e+00 4.687414169311523438e-01 1.376603484153747559e+00 3.170550763607025146e-01 -3.127997398376464844e+00 1.238946557044982910e+00 4.963675737380981445e-01 1.940307378768920898e+00 -1.746718049049377441e+00 1.696336746215820312e+00 2.815138816833496094e+00 2.384734153747558594e-01 -2.591101646423339844e+00 -6.202090382575988770e-01 -2.129518747329711914e+00 2.092351436614990234e+00 1.172215223312377930e+00 5.751300454139709473e-01 -8.019796013832092285e-02 2.820358276367187500e+00
1.724741101264953613e+00 2.521682262420654297e+00 -1.136220335960388184e+00 -7.282420396804809570e-01 1.903217673301696777e+00 4.183769822120666504e-01 -6.996848583221435547e-01 -2.399584531784057617e+00 -1.500180006027221680e+00 2.076508045196533203e+00 1.465356588363647461e+00 4.454066157341003418e-01 1.478832960128784180e+00 8.695902824401855469e-01 9.571628272533416748e-02 -1.844237744808197021e-01 -1.432767510414123535e+00 -1.436513215303421021e-01 -2.090808629989624023e+00 -7.084890007972717285e-01 -1.304013371467590332e+00 -2.030801057815551758e+00 -2.181572765111923218e-01 -1.685470104217529297e+00 1.173585534095764160e+00 1.168185591697692871e+00 3.484560728073120117e+00 6.049469709396362305e-01 6.603047251701354980e-01 -3.930874109268188477e+00 -7.517217397689819336e-01 -3.075187504291534424e-01 -7.451110482215881348e-01 1.200170516967773438e+00 7.847009301185607910e-01 -3.508800864219665527e-01 -1.079023122787475586e+00 2.100721299648284912e-01 1.701539397239685059e+00 -1.168872833251953125e+00 1.990457415580749512e+00 8.639676570892333984e-01 1.942243456840515137e+00 -1.369696855545043945e+00 -2.662453889846801758e+00 -1.517677009105682373e-01 1.228048205375671387e+00 -1.256572734564542770e-02 3.466274976730346680e+00 -1.013473510742187500e+00 -2.914587259292602539e-01 3.169077873229980469e+00 -1.542435050010681152e+00 -1.117589116096496582e+00 7.749018073081970215e-01 -4.158342480659484863e-01 -1.131551384925842285e+00 -8.202728629112243652e-01 -3.035559892654418945e+00 -1.461349487304687500e+00 3.506665229797363281e+00 -7.406945228576660156e-01 -2.169879198074340820e+00
-9.939082264900207520e-01 -2.315953493118286133e+00 1.634484648704528809e+00 -9.879316091537475586e-01 -1.769852876663208008e+00 2.928907155990600586e+00 -1.382479906082153320e+00 -1.034515857696533203e+00 9.607267975807189941e-01 1.258979678153991699e+00 -8.520255684852600098e-01 -6.579942703247070312e-01 5.909605622291564941e-01 -5.512714982032775879e-01 -1.303154826164245605e+00 6.745793223381042480e-01 1.169553041458129883e+00 -7.567490935325622559e-01 3.291111707687377930e+00 -1.380301713943481445e+00 2.204995393753051758e+00 -2.662283897399902344e+00 2.249185800552368164e+00 5.987301468849182129e-02 8.306709527969360352e-01 -2.253672838211059570e+00 1.518301486968994141e+00 -2.659949958324432373e-01 2.431480586528778076e-01 7.354716658592224121e-01 -1.154355525970458984e+00 1.401570439338684082e+00 3.516688644886016846e-01 5.869987886399030685e-03 2.430124044418334961e+00 5.099146962165832520e-01 6.721568703651428223e-01 -7.216187715530395508e-01 2.007990360260009766e+00 5.554285645484924316e-01 -2.256080150604248047e+00 -7.640269994735717773e-01 1.322649717330932617e+00 1.034498810768127441e+00 1.346177220344543457e+00 -5.405823588371276855e-01 8.839377164840698242e-01 2.775089740753173828e+00 -1.877792477607727051e+00 -1.384512186050415039e+00 3.195197880268096924e-01 -3.417156219482421875e+00 -1.561899542808532715e+00 6.911004185676574707e-01 3.732349872589111328e+00 -4.611459374427795410e-01 -1.202517390251159668e+00 -1.902776122093200684e+00 1.468663096427917480e+00 2.012852907180786133e+00 -1.304457783699035645e+00 2.219264030456542969e+00 -3.099101543426513672e+00
-2.298060178756713867e+00 1.577621340751647949e+00 -1.462491750717163086e+00 -3.316143512725830078e+00 4.774164259433746338e-01 7.548726797103881836e-01 1.383438944816589355e+00 -3.801268339157104492e-01 -1.743009209632873535e+00 2.534356594085693359e+00 1.700971722602844238e+00 2.812376737594604492e+00 2.190324068069458008e+00 -1.685408949851989746e+00 1.114851236343383789e+00 1.744473457336425781e+00 8.475510478019714355e-01 1.593046337366104126e-01 -9.158681631088256836e-01 5.480889976024627686e-02 1.463971734046936035e+00 1.561274051666259766e+00 3.692119419574737549e-01 4.317497909069061279e-01 1.738248229026794434e+00 -2.027543067932128906e+00 3.527389049530029297e+00 -1.056768536567687988e+00 2.428420782089233398e+00 1.145719170570373535e+00 1.193542718887329102e+00 -2.898354828357696533e-01 1.226831555366516113e+00 9.950786828994750977e-02 6.872688885778188705e-03 -8.524704724550247192e-02 7.227777838706970215e-01 -1.772904992103576660e+00 -2.826344490051269531e+00 -9.763927459716796875e-01 1.719843626022338867e+00 4.781460762023925781e-01 1.217461824417114258e+00 -1.091860771179199219e+00 2.089720010757446289e+00 -6.400549411773681641e-01 -3.933601081371307373e-01 1.912386775016784668e+00 -2.588205099105834961e+00 1.903847217559814453e+00 -5.711354613304138184e-01 -3.093383550643920898e+00 1.902367591857910156e+00 2.120404481887817383e+00 -1.803358554840087891e+00 6.552667021751403809e-01 -2.183710575103759766e+00 1.401053309440612793e+00 -2.062764912843704224e-01 -1.134091615676879883e+00 7.313833236694335938e-01 -9.282633066177368164e-01 1.084723591804504395e+00
1.039031296968460083e-01 -2.910621643066406250e+00 -6.642903089523315430e-01 -1.192270778119564056e-03 1.183280814439058304e-02 2.790314197540283203e+00 1.143565997481346130e-01 1.669634431600570679e-01 -1.081046938896179199e+00 -1.081624746322631836e+00 1.388031363487243652e+00 1.372551560401916504e+00 2.861693799495697021e-01 1.201427817344665527e+00 -7.242767214775085449e-01 1.686248034238815308e-01 5.413286089897155762e-01 1.925011165440082550e-02 3.338302373886108398e+00 -1.871982574462890625e+00 -1.622153282165527344e+00 1.074889421463012695e+00 -2.639616489410400391e+00 1.775031566619873047e+00 1.517623305320739746e+00 1.033746480941772461e+00 -1.879678606986999512e+00 -5.668859481811523438e-01 -1.211690783500671387e+00 -1.608919739723205566e+00 6.486675143241882324e-02 -3.129898011684417725e-01 -1.403161585330963135e-01 1.025358319282531738e+00 5.659668445587158203e-01 1.611127614974975586e+00 1.985913515090942383e+00 -3.198457002639770508e+00 2.822969913482666016e+00 -2.905869960784912109e+00 1.616756916046142578e+00 -2.680617868900299072e-01 -5.123853683471679688e-01 1.883787214756011963e-01 -1.473549723625183105e+00 1.072489500045776367e+00 -1.807412624359130859e+00 -3.871302902698516846e-01 1.359180212020874023e+00 -3.365195989608764648e-01 -1.581725239753723145e+00 -9.637631177902221680e-01 -2.258530855178833008e+00 9.125710129737854004e-01 -3.323701143264770508e+00 2.757483720779418945e+00 -1.842797517776489258e+00 -5.327898263931274414e-01 1.571577548980712891e+00 -1.607518434524536133e+00 -2.498639822006225586e+00 -4.763680323958396912e-02 -3.929577171802520752e-01
2.719755470752716064e-01 1.273540139198303223e+00 -2.172278165817260742e+00 9.802182316780090332e-01 1.913502454757690430e+00 2.361367940902709961e-01 -1.294434309005737305e+00 6.382048726081848145e-01 4.858124852180480957e-01 -1.066109418869018555e+00 1.033581376075744629e+00 1.018977761268615723e+00 4.574759900569915771e-01 2.698857069015502930e+00 8.285796046257019043e-01 -8.770424723625183105e-01 -5.856763720512390137e-01 8.694925308227539062e-01 1.600246191024780273e+00 -1.720595240592956543e+00 -1.750628471374511719e+00 -2.687173366546630859e+00 8.396990299224853516e-01 -1.512459874153137207e+00 -4.420945793390274048e-02 -7.723000645637512207e-01 4.255445599555969238e-01 2.259226799011230469e+00 -4.966415930539369583e-03 -2.951971769332885742e+00 5.139633417129516602e-01 1.126777291297912598e+00 -1.338473677635192871e+00 8.918174356222152710e-02 -3.959395885467529297e-01 3.513008356094360352e+00 -3.006757020950317383e+00 -6.654689311981201172e-01 2.574605464935302734e+00 2.618836879730224609e+00 -4.830350577831268311e-01 -2.747658491134643555e-01 -1.818588495254516602e+00 -5.098595023155212402e-01 4.301215708255767822e-01 2.691293239593505859e+00 8.784281611442565918e-01 2.619647502899169922e+00 -2.205611228942871094e+00 -3.560841560363769531e+00 -4.157997667789459229e-02 -2.459389686584472656e+00 -1.767349600791931152e+00 2.550514936447143555e+00 -2.702575683593750000e+00 1.154943823814392090e+00 -7.458953261375427246e-01 2.029526948928833008e+00 -8.237397670745849609e-01 1.297397851943969727e+00 2.281855583190917969e+00 -9.816440939903259277e-01 -6.002909690141677856e-02
2.107254981994628906e+00 -1.365646719932556152e+00 1.110185742378234863e+00 -1.058457016944885254e+00 -1.643961548805236816e+00 5.534458532929420471e-02 2.015889167785644531e+00 -1.637602448463439941e-01 -1.223008990287780762e+00 3.359733223915100098e-01 1.274184942245483398e+00 7.751669883728027344e-01 -2.233980655670166016e+00 -7.432163953781127930e-01 -1.707482218742370605e+00 -4.010979533195495605e-01 -1.657548189163208008e+00 2.313313484191894531e+00 5.059933662414550781e-01 2.112846612930297852e+00 1.780433297157287598e+00 -2.389884948730468750e+00 1.404197812080383301e+00 2.528431177139282227e+00 1.484890699386596680e+00 6.257902383804321289e-01 -3.352836966514587402e-01 -2.685271501541137695e-01 1.853185415267944336e+00 -2.330000162124633789e+00 -1.119797706604003906e+00 -1.088409125804901123e-01 -2.198341131210327148e+00 -1.743492007255554199e+00 2.038357973098754883e+00 -1.052192039787769318e-02 3.105061948299407959e-01 4.596053659915924072e-01 -1.338677287101745605e+00 1.802246451377868652e+00 2.313703745603561401e-01 3.638119995594024658e-02 -2.400167226791381836e+00 -8.268136382102966309e-01 -1.397349476814270020e+00 -3.238083362579345703e+00 1.941338658332824707e+00 -8.097001314163208008e-01 3.695611476898193359e+00 -1.824808478355407715e+00 -1.018203854560852051e+00 -6.939015388488769531e-01 3.096545934677124023e+00 1.970193624496459961e+00 1.086689949035644531e+00 -1.515627384185791016e+00 2.171635866165161133e+00 3.186059236526489258e+00 1.454374074935913086e+00 -1.220964074134826660e+00 3.012152910232543945e+00 9.269303083419799805e-01 -8.421787023544311523e-01
1.938439607620239258e+00 -6.831668019294738770e-01 -1.351675510406494141e+00 -2.596899747848510742e+00 1.173543810844421387e+00 1.175926327705383301e+00 -3.120814085006713867e+00 -6.684294342994689941e-01 -8.607839345932006836e-01 -1.744676232337951660e+00 8.119217157363891602e-01 -5.704351067543029785e-01 9.973984360694885254e-01 1.553956866264343262e+00 -2.232630729675292969e+00 -3.980795741081237793e-01 -7.997805476188659668e-01 2.626607418060302734e+00 -4.090920686721801758e-01 8.471328616142272949e-01 -2.786165475845336914e-01 -1.420391798019409180e+00 1.143861055374145508e+00 9.788480401039123535e-01 1.720837950706481934e+00 -7.671998143196105957e-01 -1.259680747985839844e+00 -3.254326879978179932e-01 -1.221361875534057617e+00 -6.981377303600311279e-02 -4.890684485435485840e-01 6.952007412910461426e-01 1.107946276664733887e+00 -2.631152391433715820e+00 -1.886436820030212402e+00 -3.027465105056762695e+00 9.761481285095214844e-01 1.284037590026855469e+00 -1.062575221061706543e+00 2.600930213928222656e+00 2.102652311325073242e+00 -1.568143486976623535e+00 3.958916962146759033e-01 -2.514135837554931641e+00 9.551543593406677246e-01 2.065404176712036133e+00 -1.336117267608642578e+00 -3.160451650619506836e+00 -1.802757143974304199e+00 -1.543406248092651367e-01 1.831730723381042480e+00 2.871183872222900391e+00 -1.634639501571655273e+00 -2.459808826446533203e+00 -1.550648331642150879e+00 -6.892445087432861328e-01 -9.180162549018859863e-01 2.219209194183349609e+00 1.511930823326110840e+00 2.283574819564819336e+00 1.540824323892593384e-01 3.170693397521972656e+00 1.414076447486877441e+00
2.746772050857543945e+00 1.340930342674255371e+00 -7.390507459640502930e-01 -4.110433161258697510e-01 -3.145263671875000000e+00 -4.518045485019683838e-01 -1.311721801757812500e+00 -1.541557610034942627e-01 -7.813180685043334961e-01 -8.145472407341003418e-01 1.515792012214660645e-01 2.903400421142578125e+00 -5.166263133287429810e-02 1.121205836534500122e-01 1.112159013748168945e+00 1.659667015075683594e+00 -2.053977966308593750e+00 2.045200824737548828e+00 3.277441501617431641e+00 -1.626641869544982910e+00 6.414963006973266602e-01 -1.735581278800964355e+00 2.479154825210571289e+00 -1.965103983879089355e+00 5.045427083969116211e-01 -8.382303714752197266e-01 -6.488508582115173340e-01 -5.008680820465087891e-01 -6.339948177337646484e-01 2.301176071166992188e+00 6.497553586959838867e-01 -6.572945117950439453e-01 1.537371516227722168e+00 -2.028268873691558838e-01 9.705871343612670898e-01 -2.260804176330566406e+00 3.177915811538696289e+00 -4.000913351774215698e-02 -1.802993893623352051e+00 -3.262229442596435547e+00 -6.185097694396972656e-01 -1.154954805970191956e-01 -3.379790544509887695e+00 -2.258394479751586914e+00 9.234541058540344238e-01 -8.369562625885009766e-01 9.277599453926086426e-01 -2.226446390151977539e+00 2.113231897354125977e+00 2.426014661788940430e+00 -7.470724582672119141e-01 1.412356734275817871e+00 1.830945722758769989e-03 -3.154711008071899414e+00 -1.397249817848205566e+00 4.106994867324829102e-01 8.669356107711791992e-01 9.485623836517333984e-01 2.070202678442001343e-01 -1.771788477897644043e+00 2.742366790771484375e-01 -1.187267303466796875e+00 -1.650591015815734863e+00
-1.350554466247558594e+00 3.509963750839233398e+00 -5.345364660024642944e-02 -1.321526169776916504e+00 1.707663893699645996e+00 -3.029180526733398438e+00 6.245346665382385254e-01 3.413845062255859375e+00 -1.615695357322692871e+00 6.307340860366821289e-01 -1.896674513816833496e+00 1.235067725181579590e+00 6.407355070114135742e-01 -8.903188705444335938e-01 1.489881277084350586e+00 -8.111880421638488770e-01 1.724551558494567871e+00 -2.187101125717163086e+00 -1.272974252700805664e+00 1.045520424842834473e+00 -1.642803788185119629e+00 2.423552751541137695e+00 4.242687523365020752e-01 2.422897577285766602e+00 1.424127936363220215e+00 -7.061280310153961182e-02 -1.932587862014770508e+00 8.207540512084960938e-01 -9.520297050476074219e-01 -2.468208968639373779e-01 -1.609842181205749512e+00 1.322723269462585449e+00 2.947427928447723389e-01 -2.077270299196243286e-01 2.399612665176391602e+00 1.740596532821655273e+00 1.957608342170715332e+00 1.405705571174621582e+00 9.021232724189758301e-01 -1.355344772338867188e+00 1.217901945114135742e+00 2.155406713485717773e+00 1.403246402740478516e+00 8.528845906257629395e-01 1.794328331947326660e+00 4.281392097473144531e-01 1.767316579818725586e+00 -2.705904722213745117e+00 -1.938334584236145020e+00 -2.380996704101562500e+00 -1.352543115615844727e+00 -6.564899086952209473e-01 -2.623572349548339844e+00 -1.827307105064392090e+00 5.369047522544860840e-01 1.677226901054382324e+00 -2.691339552402496338e-01 3.243823051452636719e+00 6.612057685852050781e-01 -1.644477725028991699e+00 -2.376675128936767578e+00 2.635572552680969238e-01 -6.043134331703186035e-01
-2.378369122743606567e-01 -7.265166938304901123e-02 -6.908302903175354004e-01 1.469827592372894287e-01 -1.181479215621948242e+00 2.383044362068176270e-01 -3.032068967819213867e+00 2.149881124496459961e-01 4.973306357860565186e-01 -5.277997255325317383e-01 -1.197155356407165527e+00 -1.107330560684204102e+00 3.584223985671997070e-01 1.188939809799194336e+00 -2.516564607620239258e+00 1.749213457107543945e+00 3.268086194992065430e+00 -3.845568299293518066e-01 1.722779512405395508e+00 -1.490467548370361328e+00 -8.648999929428100586e-01 4.035292565822601318e-01 2.602701902389526367e+00 -2.682608067989349365e-01 -1.633842349052429199e+00 -1.646644026041030884e-01 7.585217356681823730e-01 -8.487890958786010742e-01 -2.250313460826873779e-01 -2.829442501068115234e+00 -2.982147693634033203e+00 -7.823551893234252930e-01 -2.233876466751098633e+00 -4.992239475250244141e+00 -1.378281950950622559e+00 3.154035329818725586e+00 -1.552951455116271973e+00 2.024192094802856445e+00 -2.216540098190307617e+00 -9.723832607269287109e-01 2.772792100906372070e+00 1.227802932262420654e-01 2.214719057083129883e+00 -1.178919553756713867e+00 -5.307264924049377441e-01 -3.741345107555389404e-01 -1.190564632415771484e+00 3.040838241577148438e-01 3.145103693008422852e+00 -2.142533361911773682e-01 -1.689145416021347046e-01 1.288978695869445801e+00 1.013139963150024414e+00 -1.200369477272033691e+00 3.582451641559600830e-01 -3.105185508728027344e+00 -6.239642500877380371e-01 -9.153611660003662109e-01 1.195694684982299805e+00 -1.133022427558898926e+00 -6.888239830732345581e-02 -2.825264692306518555e+00 2.314147233963012695e+00
-9.642290472984313965e-01 -1.110412836074829102e+00 2.674902677536010742e+00 -3.410854578018188477e+00 1.053751349449157715e+00 -9.697362035512924194e-02 9.417241066694259644e-02 -2.134397268295288086e+00 1.117411613464355469e+00 1.201154828071594238e+00 1.681941866874694824e+00 2.564637899398803711e+00 2.061841189861297607e-01 4.574405550956726074e-01 7.280425429344177246e-01 -6.008150577545166016e-01 -2.417677879333496094e+00 -1.623162746429443359e+00 4.546566307544708252e-01 3.602580308914184570e+00 -1.292436480522155762e+00 1.981456756591796875e+00 -2.268696308135986328e+00 1.915026009082794189e-01 1.923486471176147461e+00 -5.900264978408813477e-01 -1.833939194679260254e+00 2.592324495315551758e+00 -9.948599934577941895e-01 1.798012852668762207e+00 -2.586551666259765625e+00 -2.676601409912109375e+00 1.336688160896301270e+00 2.343652546405792236e-01 -1.075886964797973633e+00 1.186644062399864197e-01 -3.844771981239318848e-01 -4.726864397525787354e-02 -1.135102510452270508e+00 -2.583156108856201172e+00 6.785733103752136230e-01 2.925871849060058594e+00 2.906622648239135742e+00 -1.826304316520690918e+00 4.207849502563476562e-01 1.703151613473892212e-01 1.900792717933654785e+00 1.661879062652587891e+00 4.436452984809875488e-01 1.057297945022583008e+00 -2.678097009658813477e+00 2.664438724517822266e+00 -2.633830070495605469e+00 2.561497390270233154e-01 -1.816503882408142090e+00 -1.259038448333740234e+00 1.005437493324279785e+00 1.145728230476379395e-01 -1.165262460708618164e+00 -4.711871221661567688e-02 1.046610951423645020e+00 9.351434111595153809e-01 -4.941624701023101807e-01
2.486981391906738281e+00 -9.566104412078857422e-02 -1.999659419059753418e+00 -7.412047125399112701e-03 -3.060745477676391602e+00 -1.560347914695739746e+00 -4.162621021270751953e+00 1.083385109901428223e+00 1.399665772914886475e-01 1.831499338150024414e+00 1.060315370559692383e+00 -5.905913114547729492e-01 -9.679129719734191895e-01 -2.328256845474243164e+00 1.807252407073974609e+00 -1.222060918807983398e+00 3.554839193820953369e-01 -1.427981734275817871e+00 3.451505661010742188e+00 -1.281476259231567383e+00 -1.766766071319580078e+00 -8.928995728492736816e-01 -4.144181311130523682e-01 -1.963453441858291626e-01 2.733150482177734375e+00 -7.685065269470214844e-01 -6.410629153251647949e-01 -7.352353930473327637e-01 1.963078618049621582e+00 1.574463844299316406e+00 -7.992107272148132324e-01 5.544947981834411621e-01 -3.831774890422821045e-01 3.852008879184722900e-01 -1.935137510299682617e-01 -2.717725753784179688e+00 -3.436639010906219482e-01 2.690843343734741211e+00 1.799847841262817383e+00 1.906866192817687988e+00 3.061564862728118896e-01 2.157164573669433594e+00 -1.368760824203491211e+00 1.590226739645004272e-01 -1.488756179809570312e+00 4.432868361473083496e-01 -6.072662472724914551e-01 -8.443853855133056641e-01 -4.385549426078796387e-01 -2.392878532409667969e+00 6.856517791748046875e-01 -6.223356127738952637e-01 8.462523221969604492e-01 -2.181743383407592773e-01 -3.060934066772460938e+00 -2.086714506149291992e+00 -2.463663578033447266e+00 -7.005736231803894043e-01 2.029940128326416016e+00 1.995678186416625977e+00 5.795010328292846680e-01 -1.233739376068115234e+00 2.338396072387695312e+00
-2.466632366180419922e+00 -6.920298337936401367e-01 -3.419668376445770264e-01 1.735121250152587891e+00 1.878012657165527344e+00 -1.166544947773218155e-02 -8.832759857177734375e-01 1.069540977478027344e+00 5.704008936882019043e-01 -6.893587112426757812e-01 -4.977175593376159668e-01 -1.557940840721130371e+00 -1.021166801452636719e+00 3.197746515274047852e+00 3.138281822204589844e+00 -1.326667070388793945e+00 -7.329076528549194336e-01 -1.161307573318481445e+00 -3.948651850223541260e-01 -8.829369544982910156e-01 2.864480018615722656e-01 1.408109068870544434e+00 -1.615370512008666992e-01 3.271856009960174561e-01 9.781478047370910645e-01 2.205862522125244141e+00 1.388707041740417480e+00 3.907925605773925781e+00 3.287140727043151855e-01 8.974168300628662109e-01 -2.059822797775268555e+00 2.340148448944091797e+00 2.121258229017257690e-01 2.470799237489700317e-01 -1.187790110707283020e-01 -2.029397726058959961e+00 -6.713957190513610840e-01 -1.652454614639282227e+00 -8.647077530622482300e-02 3.277974843978881836e+00 -1.914598941802978516e-01 -1.880489945411682129e+00 2.989122152328491211e+00 -2.233448743820190430e+00 -1.998703598976135254e+00 9.239439666271209717e-02 -1.373925209045410156e+00 -1.906714200973510742e+00 1.350817084312438965e-01 2.122681617736816406e+00 8.833225369453430176e-01 6.943410038948059082e-01 4.102691709995269775e-01 -3.059560775756835938e+00 2.720076799392700195e+00 -1.986700177192687988e+00 -1.293679237365722656e+00 3.815506994724273682e-01 -1.019131764769554138e-01 -1.250288248062133789e+00 3.112177371978759766e+00 -2.451618671417236328e+00 -1.571061968803405762e+00
7.433342933654785156e-01 6.999694705009460449e-01 2.816973030567169189e-01 -1.318982362747192383e+00 -8.164123296737670898e-01 -3.211551189422607422e+00 -3.946819543838500977e+00 3.332571029663085938e+00 -3.676341772079467773e-01 -2.229032278060913086e+00 -1.653724670410156250e+00 -1.280031681060791016e+00 -4.351795092225074768e-02 1.417349576950073242e+00 -3.994559645652770996e-01 -4.041307605803012848e-03 -1.555498540401458740e-01 1.978625416755676270e+00 1.992469310760498047e+00 -1.850843548774719238e+00 -1.888268470764160156e+00 -8.604185581207275391e-01 -2.590061187744140625e+00 -5.502899289131164551e-01 2.149616926908493042e-01 7.493148744106292725e-02 3.045098304748535156e+00 -5.551521182060241699e-01 5.790127515792846680e-01 -2.011526823043823242e-01 2.533254623413085938e+00 7.735488414764404297e-01 1.828429937362670898e+00 1.083737730979919434e+00 2.099773645401000977e+00 -9.387502670288085938e-01 3.056390762329101562e+00 4.141707718372344971e-01 -2.897230863571166992e+00 -2.573243379592895508e-01 2.645903266966342926e-02 8.123183846473693848e-01 -2.566726922988891602e+00 1.823931097984313965e+00 -5.200117826461791992e-01 8.991935253143310547e-01 1.828360795974731445e+00 1.338286280632019043e+00 -2.321377992630004883e+00 -1.168181419372558594e+00 -2.002004861831665039e+00 -5.184925198554992676e-01 -1.638452410697937012e+00 1.061105847358703613e+00 2.993847608566284180e+00 6.561690568923950195e-02 -1.129077300429344177e-01 -8.171791434288024902e-01 7.921943068504333496e-01 1.049841791391372681e-01 -6.625297069549560547e-01 6.790480017662048340e-01 -9.025242924690246582e-02
2.676655292510986328e+00 1.350083112716674805e+00 -9.836684465408325195e-01 -1.502287685871124268e-01 6.792293488979339600e-02 2.234927654266357422e+00 1.074836492538452148e+00 -2.260677665472030640e-01 -1.785333275794982910e+00 -2.229840040206909180e+00 -2.357466936111450195e+00 1.998787522315979004e+00 -3.344002485275268555e+00 -1.332627415657043457e+00 2.014656543731689453e+00 5.954227969050407410e-02 1.856779098510742188e+00 -3.290233135223388672e+00 1.015797257423400879e+00 -9.809050559997558594e-01 -1.539354324340820312e+00 5.389768481254577637e-01 -2.138083577156066895e-01 1.837962746620178223e+00 1.347051382064819336e+00 2.044953346252441406e+00 1.471028566360473633e+00 2.434744596481323242e+00 -1.318397641181945801e+00 -6.756066679954528809e-01 -8.477465510368347168e-01 -2.878655195236206055e-01 -2.059534788131713867e+00 -2.953204810619354248e-01 -1.972828656435012817e-01 -2.846099138259887695e+00 5.967375040054321289e-01 -3.364171981811523438e-01 1.301816344261169434e+00 3.067568302154541016e+00 -6.597906351089477539e-01 2.805131912231445312e+00 2.560658454895019531e+00 -1.547340273857116699e+00 -5.963891148567199707e-01 -5.166188478469848633e-01 5.405074954032897949e-01 -4.078091979026794434e-01 1.629937887191772461e-01 2.256692409515380859e+00 -2.279088497161865234e+00 -4.839186370372772217e-01 -3.521960973739624023e-01 1.629690527915954590e+00 1.846079587936401367e+00 -3.178855478763580322e-01 1.577482461929321289e+00 -1.697547554969787598e+00 1.570202350616455078e+00 -4.038624763488769531e-01 2.282545715570449829e-01 2.539417743682861328e+00 2.184553384780883789e+00
-1.928894042968750000e+00 -1.029070973396301270e+00 -1.006814956665039062e+00 4.675699770450592041e-01 1.001580119132995605e+00 -2.963543891906738281e+00 -5.621643066406250000e-01 -2.127013683319091797e+00 1.321475386619567871e+00 -1.901381462812423706e-01 6.643467545509338379e-01 -4.336741864681243896e-01 1.869103074073791504e+00 4.057248830795288086e-01 -1.798834279179573059e-02 1.719457209110260010e-01 2.226181626319885254e-01 -1.850913882255554199e+00 1.629253983497619629e+00 2.173185110092163086e+00 3.198546886444091797e+00 3.004405498504638672e+00 -2.527783870697021484e+00 4.078348875045776367e-01 -1.924083232879638672e+00 1.182292103767395020e+00 -2.317734479904174805e+00 -9.008486270904541016e-01 3.304664850234985352e+00 8.378056287765502930e-01 -2.128672748804092407e-01 1.644248843193054199e+00 -3.269906997680664062e+00 -5.139012932777404785e-01 -2.482188493013381958e-01 2.078582286834716797e+00 2.560256481170654297e+00 1.508443951606750488e-01 1.899384617805480957e+00 2.194414585828781128e-01 -4.232321977615356445e-01 -5.818058848381042480e-01 -5.240955948829650879e-01 -5.619336366653442383e-01 -4.923204183578491211e-01 2.775629043579101562e+00 1.955078244209289551e+00 -3.779254198074340820e+00 1.839517354965209961e+00 -2.705044448375701904e-01 5.917081981897354126e-02 -4.511429071426391602e-01 -2.520897626876831055e+00 -1.413900256156921387e+00 1.809919714927673340e+00 -1.298015117645263672e+00 -1.694067358970642090e+00 9.437195211648941040e-02 2.111515522003173828e+00 -7.287064194679260254e-01 -2.421033620834350586e+00 7.797636985778808594e-01 -8.595993518829345703e-01
2.622297763824462891e+00 6.571015715599060059e-01 -1.649344086647033691e+00 2.599982023239135742e+00 -3.394962072372436523e+00 8.107616305351257324e-01 -4.818930029869079590e-01 1.123452067375183105e+00 -1.346488833427429199e+00 -4.975332021713256836e-01 7.113860249519348145e-01 -7.292813062667846680e-01 7.181179523468017578e-01 2.332479238510131836e+00 3.407896041870117188e+00 -1.618814706802368164e+00 1.231582388281822205e-01 2.806745052337646484e+00 -4.201347529888153076e-01 -1.032290458679199219e+00 2.998344898223876953e+00 -3.494492471218109131e-01 1.175579190254211426e+00 -1.087512731552124023e+00 -8.314880132675170898e-01 -5.476862192153930664e-01 1.847383618354797363e+00 -4.700530171394348145e-01 -9.350525140762329102e-01 -9.634193778038024902e-01 -1.326716303825378418e+00 -7.091714143753051758e-01 -6.379953622817993164e-01 1.272282004356384277e+00 5.750123262405395508e-01 2.251498252153396606e-01 -7.920309305191040039e-01 1.877599120140075684e+00 1.219410657882690430e+00 -1.798784852027893066e+00 3.375013351440429688e+00 1.679086446762084961e+00 -1.374512165784835815e-01 -1.766431570053100586e+00 -2.383511304855346680e+00 -2.391290515661239624e-01 3.365640342235565186e-01 8.557438850402832031e-01 -2.415573358535766602e+00 -2.348987460136413574e-01 -2.512585163116455078e+00 2.436427354812622070e+00 2.712875843048095703e+00 5.241791605949401855e-01 -1.124885156750679016e-01 1.431960225105285645e+00 -1.651292920112609863e+00 -1.034450054168701172e+00 3.454948425292968750e+00 -5.669132471084594727e-01 -2.809148311614990234e+00 2.380018711090087891e+00 2.292171418666839600e-01
2.777953863143920898e+00 -1.130915880203247070e+00 2.003100156784057617e+00 4.168662428855895996e-02 1.161897420883178711e+00 1.349335014820098877e-01 8.346231579780578613e-01 1.490694936364889145e-02 3.276646435260772705e-01 -2.002520561218261719e+00 2.131818294525146484e+00 -1.800818324089050293e+00 4.017328917980194092e-01 2.560658931732177734e+00 -2.155504465103149414e+00 1.070712804794311523e+00 1.965351462364196777e+00 6.284720897674560547e-01 -1.770656704902648926e+00 2.408835478127002716e-02 -6.194589138031005859e-01 2.203178167343139648e+00 -1.053747534751892090e+00 -2.297377347946166992e+00 9.499102830886840820e-01 -2.625025510787963867e+00 -1.288670182228088379e+00 1.652807235717773438e+00 -5.896345973014831543e-01 3.372778296470642090e-01 -2.655493021011352539e-01 -2.894187211990356445e+00 -1.306485056877136230e+00 1.150286316871643066e+00 1.229796484112739563e-01 1.325633287429809570e+00 7.350613474845886230e-01 3.127290010452270508e-01 9.896548986434936523e-01 2.091941595077514648e+00 1.893929481506347656e+00 3.662250339984893799e-01 -3.670247793197631836e-01 6.411194205284118652e-01 -1.178764462471008301e+00 4.328564703464508057e-01 2.636026620864868164e+00 -1.336340069770812988e+00 -2.156397342681884766e+00 1.241114139556884766e+00 4.328705966472625732e-01 -1.400242328643798828e+00 2.479650735855102539e+00 -1.189578771591186523e+00 1.599845170974731445e+00 5.106421113014221191e-01 -9.443880915641784668e-01 -2.542781591415405273e+00 -2.691023349761962891e+00 7.321046590805053711e-01 2.318114280700683594e+00 -2.576819658279418945e+00 2.314876466989517212e-01
2.393940210342407227e+00 1.634011268615722656e+00 3.313314437866210938e+00 3.317805528640747070e+00 1.182649493217468262e+00 1.290805697441101074e+00 1.435394644737243652e+00 3.029166460037231445e+00 3.639253139495849609e+00 -1.122600555419921875e+00 9.523307532072067261e-02 -1.754470944404602051e+00 3.157129287719726562e+00 -8.848570585250854492e-01 1.947589993476867676e+00 -2.923768281936645508e+00 2.455373764038085938e+00 7.592461109161376953e-01 -6.148185729980468750e-01 -4.486085474491119385e-01 6.645858287811279297e-01 -6.212896704673767090e-01 1.159162163734436035e+00 1.833654046058654785e+00 8.498978018760681152e-01 -1.425665736198425293e+00 2.109298557043075562e-01 -4.277777671813964844e-01 -1.820719122886657715e+00 8.441063165664672852e-01 1.052412033081054688e+00 -1.031317114830017090e+00 7.922887802124023438e-01 1.577812910079956055e+00 -1.437958240509033203e+00 2.834735870361328125e+00 4.501402974128723145e-01 -5.569882988929748535e-01 -1.743214130401611328e+00 -6.340391039848327637e-01 1.412190198898315430e+00 1.218141078948974609e+00 1.741237521171569824e+00 1.837702155113220215e+00 -5.843713283538818359e-01 4.034871757030487061e-01 -2.116335332393646240e-01 -4.265317618846893311e-01 -2.901603937149047852e+00 2.459556579589843750e+00 -2.600610256195068359e+00 1.443950057029724121e+00 3.745701536536216736e-02 1.519719004631042480e+00 -2.726087093353271484e+00 -1.169747471809387207e+00 -2.545891106128692627e-01 1.746686816215515137e+00 7.981187701225280762e-01 -9.989843368530273438e-01 5.818969011306762695e-01 1.463691592216491699e+00 -1.531485766172409058e-01
-2.215412259101867676e-01 3.275526046752929688e+00 -3.322844982147216797e+00 -7.754483819007873535e-01 -5.553098917007446289e-01 -2.511941790580749512e-01 2.812212705612182617e+00 -2.319866895675659180e+00 4.616681933403015137e-01 1.735569357872009277e+00 4.219107031822204590e-01 -1.748695135116577148e+00 1.337541103363037109e+00 5.523626804351806641e-01 1.682741761207580566e+00 -2.962108373641967773e+00 -2.481459140777587891e+00 -2.119157761335372925e-01 2.316512823104858398e+00 -1.461386442184448242e+00 -1.764189638197422028e-02 2.886853694915771484e+00 -2.216570228338241577e-01 -9.861085414886474609e-01 7.209197282791137695e-01 -2.337559461593627930e+00 -3.025331534445285797e-02 2.333368062973022461e+00 -6.682350765913724899e-03 1.523340582847595215e+00 -1.264947891235351562e+00 -2.561256408691406250e+00 -2.793576955795288086e+00 -1.069356679916381836e+00 8.158785104751586914e-01 1.318457841873168945e+00 -1.410546660423278809e+00 -1.137750744819641113e-01 -3.209029436111450195e+00 -1.053487658500671387e+00 1.748045682907104492e+00 2.883657455444335938e+00 -4.601521492004394531e-01 2.016941070556640625e+00 2.019046783447265625e+00 2.014828443527221680e+00 1.216731071472167969e+00 1.089261293411254883e+00 1.293526053428649902e+00 -2.130838185548782349e-01 2.325099945068359375e+00 -6.931992769241333008e-01 1.673879623413085938e+00 1.585275173187255859e+00 3.166001081466674805e+00 1.452887773513793945e+00 4.549493789672851562e-01 -2.459060907363891602e+00 -9.660053849220275879e-01 2.296715021133422852e+00 -1.573668360710144043e+00 1.505355685949325562e-01 1.005485415458679199e+00
3.139652729034423828e+00 -2.620727777481079102e+00 -2.748260974884033203e+00 2.376999616622924805e+00 2.105152845382690430e+00 1.550899905851110816e-04 5.089589357376098633e-01 -2.255417346954345703e+00 2.183052539825439453e+00 3.292477130889892578e+00 -9.499170780181884766e-01 -1.813062548637390137e+00 2.558588504791259766e+00 -9.576843380928039551e-01 -3.697408437728881836e-01 -3.880906105041503906e+00 9.913172125816345215e-01 8.444778919219970703e-01 -2.460517644882202148e+00 3.565142154693603516e+00 1.440176725387573242e+00 -2.827882528305053711e+00 -1.085663199424743652e+00 9.012804031372070312e-01 3.270894289016723633e+00 9.655103832483291626e-02 -9.530048966407775879e-01 -2.925393879413604736e-01 -2.360226631164550781e+00 2.463629394769668579e-01 6.488845944404602051e-01 1.380514383316040039e+00 -1.081580281257629395e+00 1.371616274118423462e-01 -2.283497154712677002e-01 -2.210764646530151367e+00 -1.433315396308898926e+00 1.722489953041076660e+00 6.085725426673889160e-01 -8.654640913009643555e-01 8.740762472152709961e-01 7.129946947097778320e-01 -4.396827518939971924e-01 -1.372857809066772461e+00 6.714135408401489258e-01 -1.089104533195495605e+00 -2.087156057357788086e+00 1.616310834884643555e+00 -1.209265232086181641e+00 -7.140750288963317871e-01 -6.215036511421203613e-01 -1.810213804244995117e+00 1.130490899085998535e+00 3.036880254745483398e+00 -2.458102554082870483e-01 1.470353007316589355e-01 -6.195393204689025879e-01 1.447483062744140625e+00 2.550661563873291016e+00 -1.815731674432754517e-01 -1.472498755902051926e-03 -1.640686035156250000e+00 -8.605856299400329590e-01
-2.674627065658569336e+00 7.495360970497131348e-01 -5.253143906593322754e-01 1.140597701072692871e+00 -3.355670869350433350e-01 -2.230512142181396484e+00 2.283583641052246094e+00 -6.963374614715576172e-01 7.340977340936660767e-02 -2.622489690780639648e+00 -6.208223104476928711e-01 -4.043122529983520508e-01 2.467534737661480904e-03 -1.346576094627380371e+00 -1.600969433784484863e+00 1.174286365509033203e+00 -1.173539757728576660e+00 -2.985717535018920898e+00 3.827298432588577271e-02 1.196858137845993042e-01 1.393760085105895996e+00 9.623599052429199219e-01 9.201900959014892578e-01 -5.982045531272888184e-01 -2.086673736572265625e+00 -2.019518136978149414e+00 3.418372571468353271e-02 -1.291687965393066406e+00 -1.845219850540161133e+00 1.852741956710815430e+00 2.222821235656738281e+00 5.924776792526245117e-01 -1.131000757217407227e+00 -2.588543176651000977e+00 2.724456548690795898e+00 -2.660776376724243164e+00 1.351235747337341309e+00 -8.931659460067749023e-01 1.564923286437988281e+00 4.905204474925994873e-02 -3.111304044723510742e-01 1.675473690032958984e+00 -3.584590435028076172e+00 1.828293204307556152e+00 -1.342591166496276855e+00 2.418649196624755859e+00 1.669333934783935547e+00 1.602482199668884277e+00 1.203376889228820801e+00 3.958911597728729248e-01 6.976832151412963867e-01 1.897423386573791504e+00 -2.173772305250167847e-01 1.417753338813781738e+00 -3.021839618682861328e+00 -2.732586860656738281e+00 1.511612534523010254e+00 -2.095361709594726562e+00 -2.449551820755004883e-01 2.647362470626831055e+00 3.175096809864044189e-01 2.122884273529052734e+00 -2.335939884185791016e+00
-1.729952335357666016e+00 -1.251864194869995117e+00 -2.754333972930908203e+00 8.550900965929031372e-02 1.691339164972305298e-01 -1.293783783912658691e+00 -5.574347376823425293e-01 2.976151704788208008e-01 -5.129305124282836914e-01 -6.190727949142456055e-01 -2.409450292587280273e+00 -8.887860774993896484e-01 1.942431926727294922e+00 1.870863199234008789e+00 -4.421557188034057617e-01 2.180151641368865967e-01 -1.408442139625549316e+00 2.708047389984130859e+00 -2.705619335174560547e+00 -6.635425686836242676e-01 3.863916918635368347e-02 -2.745258331298828125e+00 -2.772364616394042969e-01 -2.281355381011962891e+00 1.421065807342529297e+00 -2.606838941574096680e+00 -1.669033885002136230e+00 -3.912841901183128357e-02 2.057417631149291992e+00 8.713966608047485352e-01 -2.145398616790771484e+00 2.726701974868774414e+00 2.487027347087860107e-01 -3.197588026523590088e-01 -1.657789826393127441e+00 1.688807904720306396e-01 -2.802425920963287354e-01 1.130498386919498444e-02 4.481860399246215820e-01 -8.177527785301208496e-01 -1.978945255279541016e+00 2.605655431747436523e+00 -3.234517574310302734e-02 -2.175348281860351562e+00 5.089669823646545410e-01 -2.196865558624267578e+00 2.684550523757934570e+00 5.388997197151184082e-01 7.961593270301818848e-01 -2.279747486114501953e+00 -6.472255587577819824e-01 1.015784621238708496e+00 -6.179353594779968262e-01 -2.884001970291137695e+00 1.612069159746170044e-01 1.253442645072937012e+00 1.621385931968688965e+00 -2.477867364883422852e+00 -6.612249016761779785e-01 -3.363400697708129883e+00 -2.072776079177856445e+00 2.420723676681518555e+00 2.595597028732299805e+00
-7.138958573341369629e-01 -6.290359497070312500e-01 2.098209857940673828e+00 1.570885032415390015e-01 3.581106960773468018e-01 -2.489359378814697266e+00 -2.324562311172485352e+00 -2.097100973129272461e+00 -2.883129119873046875e+00 -1.008365511894226074e+00 1.044658184051513672e+00 3.496427297592163086e+00 1.224277973175048828e+00 -1.840538620948791504e+00 -1.896225094795227051e+00 -1.331807017326354980e+00 8.873618841171264648e-01 -1.457991302013397217e-01 6.373587250709533691e-01 3.943994283676147461e+00 7.049747705459594727e-01 1.266951560974121094e+00 2.649493217468261719e+00 -2.657422423362731934e-01 -1.768625378608703613e+00 -1.513249993324279785e+00 -6.408637017011642456e-02 3.509272575378417969e+00 -2.697365283966064453e-01 1.218243122100830078e+00 1.278768420219421387e+00 -3.338577747344970703e+00 -2.010721206665039062e+00 -7.804008126258850098e-01 1.586428642272949219e+00 -7.011102437973022461e-01 1.212629199028015137e+00 -1.518901348114013672e+00 -1.556517958641052246e+00 2.913677453994750977e+00 -2.576265633106231689e-01 -1.010573804378509521e-01 1.754524588584899902e+00 -2.139571428298950195e+00 -1.566267490386962891e+00 -2.741132676601409912e-01 -4.194801747798919678e-01 -9.016096591949462891e-02 -1.301655411720275879e+00 -8.498759269714355469e-01 -2.184503078460693359e+00 5.293370485305786133e-01 1.398654818534851074e+00 1.325432062149047852e+00 3.259003639221191406e+00 7.992272377014160156e-01 1.009443402290344238e+00 -1.536820173263549805e+00 2.034476041793823242e+00 -1.670738309621810913e-01 3.902346193790435791e-01 9.947202801704406738e-01 2.285827636718750000e+00
-5.943580269813537598e-01 9.363987296819686890e-02 -2.265820503234863281e+00 -1.337347626686096191e+00 1.358444452285766602e+00 -2.936211347579956055e+00 2.338314294815063477e+00 -1.596780657768249512e+00 -3.110789954662322998e-01 -9.967780709266662598e-01 -3.549771308898925781e-01 6.874774098396301270e-01 -1.757340669631958008e+00 -3.528894782066345215e-01 9.168149828910827637e-01 -1.536262392997741699e+00 2.444492578506469727e+00 1.874769777059555054e-01 2.078232288360595703e+00 2.814874410629272461e+00 2.260702103376388550e-01 1.721830606460571289e+00 1.808281421661376953e+00 1.006015181541442871e+00 1.650418162345886230e+00 1.096299886703491211e+00 -4.514029622077941895e-02 2.892335891723632812e+00 -5.226794481277465820e-01 -3.209332466125488281e+00 1.710903286933898926e+00 1.414926290512084961e+00 -9.239678978919982910e-01 -1.748939752578735352e+00 -1.608539342880249023e+00 1.657941937446594238e+00 -6.182372570037841797e-01 -1.258602380752563477e+00 -1.100039720535278320e+00 6.374691724777221680e-01 9.074478745460510254e-01 -1.101421356201171875e+00 -5.284341573715209961e-01 8.498691320419311523e-01 -3.369661569595336914e-01 1.000985860824584961e+00 1.139770865440368652e+00 5.216355323791503906e-01 -1.124098777770996094e+00 2.361294746398925781e+00 2.581110000610351562e+00 -3.050245285034179688e+00 8.271354436874389648e-01 -1.208646148443222046e-01 -9.404483437538146973e-01 -2.934806823730468750e+00 -1.528250813484191895e+00 -1.843848943710327148e+00 1.825406074523925781e+00 -5.465247631072998047e-01 8.258054852485656738e-01 -1.265672802925109863e+00 2.926396608352661133e+00
2.905347347259521484e-01 -2.004292249679565430e+00 1.013515889644622803e-01 -8.727613687515258789e-01 -1.476160287857055664e+00 -8.471816778182983398e-01 1.156162858009338379e+00 3.196805715560913086e+00 7.013951539993286133e-01 -2.332270622253417969e+00 -4.902898073196411133e-01 -1.775049209594726562e+00 -1.699095368385314941e+00 3.118770837783813477e+00 7.352312207221984863e-01 6.395031809806823730e-01 7.629962563514709473e-01 -1.539882898330688477e+00 1.916006922721862793e+00 3.253917217254638672e+00 4.937271773815155029e-01 4.595571756362915039e-01 9.968107342720031738e-01 5.349338054656982422e-01 1.636034965515136719e+00 -2.333143234252929688e+00 1.003319025039672852e+00 3.325652837753295898e+00 5.307082533836364746e-01 1.030620694160461426e+00 -5.822990536689758301e-01 4.031169712543487549e-01 -2.059787273406982422e+00 6.406127810478210449e-01 -1.896679401397705078e+00 1.177327632904052734e+00 -9.158995151519775391e-01 -1.490418434143066406e+00 1.669470071792602539e+00 -2.018930673599243164e+00 -1.125534534454345703e+00 -2.626055777072906494e-01 -3.491894602775573730e-01 -1.962776303291320801e+00 4.082108139991760254e-01 -9.266658425331115723e-01 -2.028470516204833984e+00 -1.707346200942993164e+00 -2.971564792096614838e-02 3.949448823928833008e+00 9.334179759025573730e-01 -2.675674676895141602e+00 2.678172588348388672e+00 -2.555018901824951172e+00 -1.622351050376892090e+00 -5.191859230399131775e-02 2.633693628013134003e-02 2.727296590805053711e+00 -9.892811775207519531e-01 -1.108780503273010254e+00 -1.719773054122924805e+00 2.241016387939453125e+00 -2.523264646530151367e+00
9.533244967460632324e-01 -1.733528017997741699e+00 -2.249305695295333862e-01 -2.417055130004882812e+00 1.223386406898498535e+00 1.394367456436157227e+00 1.648778200149536133e+00 1.137593507766723633e+00 -3.580785989761352539e-01 6.653141975402832031e-01 9.157667160034179688e-01 -9.487897753715515137e-01 1.376215934753417969e+00 1.296004295349121094e+00 3.208437204360961914e+00 3.646245896816253662e-01 -2.159561216831207275e-01 -4.101181328296661377e-01 -2.433078050613403320e+00 3.467748641967773438e+00 1.432476639747619629e+00 -1.239893957972526550e-01 1.623581171035766602e+00 1.485033035278320312e+00 -3.273889541625976562e+00 1.930805802345275879e+00 -1.108328223228454590e+00 8.320910334587097168e-01 1.199567198753356934e+00 -1.749078273773193359e+00 7.618743181228637695e-01 6.801954507827758789e-01 -1.460178792476654053e-01 -6.101954579353332520e-01 5.668932199478149414e-01 -7.693513631820678711e-01 2.025179624557495117e+00 2.548537731170654297e+00 -1.277192115783691406e+00 -2.237638711929321289e+00 -2.408830404281616211e+00 2.666798233985900879e-01 -8.642153739929199219e-01 -2.372667938470840454e-01 2.155938148498535156e+00 -2.423146963119506836e+00 2.323194026947021484e+00 4.033187627792358398e-01 -1.052803874015808105e+00 -6.175405383110046387e-01 2.029806137084960938e+00 -1.800246596336364746e+00 1.126055479049682617e+00 -3.572107255458831787e-01 -2.615791320800781250e+00 1.885739207267761230e+00 2.213563680648803711e+00 1.195258855819702148e+00 2.971319675445556641e+00 -5.622651576995849609e-01 -2.556408166885375977e+00 -2.356767177581787109e+00 -2.626252889633178711e+00
1.040861368179321289e+00 -2.041721820831298828e+00 -1.887047171592712402e+00 3.499075412750244141e+00 1.938300013542175293e+00 -3.533694028854370117e+00 -1.369199275970458984e+00 -1.372331846505403519e-02 2.907186985015869141e+00 8.884869217872619629e-01 -1.673832535743713379e+00 2.522190093994140625e+00 -5.048768520355224609e-01 1.627641677856445312e+00 -3.438461422920227051e-01 9.567233324050903320e-01 -2.206739664077758789e+00 7.333046197891235352e-02 -1.043799877166748047e+00 -1.452444195747375488e-01 -2.896557807922363281e+00 1.336136311292648315e-01 1.943496316671371460e-01 2.266109466552734375e+00 -6.403917074203491211e-01 5.503737926483154297e-01 6.345094740390777588e-02 4.165129661560058594e-01 -2.037262201309204102e+00 7.354699373245239258e-01 4.397204145789146423e-02 1.288758635520935059e+00 1.386391758918762207e+00 -4.213244915008544922e+00 -2.408257126808166504e-01 2.586633861064910889e-01 1.291473746299743652e+00 -1.970631957054138184e+00 -3.385614395141601562e+00 -8.563756942749023438e-01 2.028520032763481140e-02 1.275074243545532227e+00 -4.475491940975189209e-01 2.315286636352539062e+00 -2.139425277709960938e+00 2.208214282989501953e+00 6.050802469253540039e-01 -2.295990288257598877e-01 -4.214438498020172119e-01 -9.505786299705505371e-01 5.918097682297229767e-03 -1.647144794464111328e+00 3.601235151290893555e+00 2.942581176757812500e-01 1.229384064674377441e+00 8.008780889213085175e-03 3.077153921127319336e+00 -1.696821570396423340e+00 2.744761109352111816e-01 1.848674416542053223e-01 -8.984928727149963379e-01 -1.052951931953430176e+00 1.010488986968994141e+00
2.795873880386352539e+00 -1.487094163894653320e+00 -1.101124048233032227e+00 -8.338435888290405273e-01 7.027894258499145508e-01 -8.779733777046203613e-01 1.849493086338043213e-01 7.847099006175994873e-02 -2.683548927307128906e+00 -5.276362597942352295e-02 1.750510782003402710e-01 -2.554074764251708984e+00 2.875525474548339844e+00 2.848347425460815430e-01 -5.803270936012268066e-01 1.475972414016723633e+00 1.345950663089752197e-01 -1.848482608795166016e+00 -3.310374617576599121e-01 -2.501084804534912109e+00 -2.062247037887573242e+00 2.048659086227416992e+00 1.907725930213928223e+00 9.925315380096435547e-01 1.686133980751037598e+00 -1.548229813575744629e+00 -5.259947776794433594e-01 -2.164884805679321289e+00 -2.565547704696655273e+00 4.055261611938476562e-01 4.953096508979797363e-01 2.197649002075195312e+00 -3.281725883483886719e+00 9.897291660308837891e-01 3.053276777267456055e+00 -1.436206698417663574e-01 -4.232299327850341797e-01 -1.650172829627990723e+00 -1.479935646057128906e+00 -1.622150540351867676e-01 -1.509856700897216797e+00 -2.352710723876953125e+00 4.288648962974548340e-01 -1.915729403495788574e+00 -1.298363566398620605e+00 2.040807723999023438e+00 1.604530930519104004e+00 2.547622919082641602e+00 8.259463310241699219e-01 2.991272926330566406e+00 -4.662680029869079590e-01 -6.741347908973693848e-01 1.667332410812377930e+00 1.320994853973388672e+00 -2.027974367141723633e+00 -2.399564027786254883e+00 -2.372776746749877930e+00 5.791538953781127930e-01 -8.625153452157974243e-02 -3.773198723793029785e-01 1.089824438095092773e-01 2.437853813171386719e-01 -5.253957509994506836e-01
8.228425979614257812e-01 1.239004135131835938e+00 -2.559288263320922852e+00 8.723477125167846680e-01 -6.166723370552062988e-01 -3.607199430465698242e+00 -6.278205513954162598e-01 -3.453223705291748047e-01 -8.035744428634643555e-01 -6.388379633426666260e-02 -3.182027816772460938e+00 -1.565351366996765137e+00 1.090982437133789062e+00 -2.054530382156372070e+00 -1.023947715759277344e+00 -5.787382721900939941e-01 1.594068646430969238e+00 1.130537867546081543e+00 -2.174357414245605469e+00 7.437756657600402832e-02 2.214744329452514648e+00 2.137318134307861328e+00 -1.940807342529296875e+00 4.374168872833251953e+00 -5.774836540222167969e-01 1.102260470390319824e+00 2.351896524429321289e+00 2.047764778137207031e+00 2.844093799591064453e+00 2.263789415359497070e+00 1.515761017799377441e+00 -3.527009248733520508e+00 1.827801465988159180e+00 -1.950888931751251221e-01 8.787949085235595703e-01 5.115732550621032715e-01 -2.363602399826049805e+00 -1.044681787490844727e+00 -5.158820152282714844e-01 -5.379593968391418457e-01 -9.428256750106811523e-01 6.199665665626525879e-01 1.322398185729980469e+00 9.426067024469375610e-02 2.523572921752929688e+00 3.353343307971954346e-01 5.769570916891098022e-02 2.858709692955017090e-01 1.257370471954345703e+00 -2.369532585144042969e+00 2.133928775787353516e+00 -2.834921777248382568e-01 6.781167984008789062e-01 -3.110035896301269531e+00 -8.018093109130859375e-01 -2.965959548950195312e+00 -5.061047077178955078e-01 3.991452753543853760e-01 -6.284139156341552734e-01 -1.671667814254760742e+00 1.916349411010742188e+00 -5.745415687561035156e-01 -9.967980533838272095e-02
8.857043981552124023e-01 1.351884245872497559e+00 1.872800290584564209e-01 2.793025255203247070e+00 -1.810080558061599731e-01 1.023732542991638184e+00 2.726333379745483398e+00 -1.079389095306396484e+00 -8.316967487335205078e-01 -1.029218792915344238e+00 7.256989479064941406e-01 -6.545277237892150879e-01 1.645755767822265625e+00 -3.067401647567749023e+00 -7.337822318077087402e-01 1.423271179199218750e+00 3.223329544067382812e+00 2.258054971694946289e+00 -3.668731749057769775e-01 1.018316626548767090e+00 5.530101656913757324e-01 -3.957849442958831787e-01 -2.062402248382568359e+00 -2.557207345962524414e+00 2.063983440399169922e+00 1.436031460762023926e+00 1.063348293304443359e+00 -2.128144979476928711e+00 -1.042929649353027344e+00 1.455113649368286133e+00 -3.261587619781494141e+00 -7.777151465415954590e-01 -1.084087014198303223e+00 -1.420692920684814453e+00 -2.690931260585784912e-01 -1.882052779197692871e+00 -1.491970181465148926e+00 -2.035175263881683350e-02 1.062754154205322266e+00 1.933610320091247559e+00 -1.215372085571289062e+00 1.942237257957458496e+00 -1.654985427856445312e+00 -2.467799425125122070e+00 -2.397342920303344727e+00 2.601057767868041992e+00 1.023440599441528320e+00 -1.453915983438491821e-01 -1.655425429344177246e+00 -8.552498370409011841e-02 1.600187897682189941e+00 -2.479201316833496094e+00 -2.275000572204589844e+00 -1.013454675674438477e+00 4.270198643207550049e-01 3.249840259552001953e+00 1.194327116012573242e+00 -1.400349009782075882e-02 1.473865270614624023e+00 -2.163748264312744141e+00 -5.847030878067016602e-01 -1.813528835773468018e-01 -7.109528779983520508e-02
