1.458173155784606934e+00 1.415876150131225586e+00 -2.288327813148498535e-01 -1.613525390625000000e+00 -1.546116709709167480e+00 2.219281435012817383e+00 -5.669538378715515137e-01 1.928015112876892090e+00 7.180048227310180664e-01 -2.294609785079956055e+00 1.687490701675415039e+00 -1.407192468643188477e+00 -2.250867605209350586e+00 7.889631986618041992e-01 -1.030990406870841980e-01 2.521639585494995117e+00 -2.724576950073242188e+00 -7.574204206466674805e-01 -1.492594480514526367e+00 2.502160668373107910e-01 7.161993533372879028e-02 -4.400280416011810303e-01 2.986979246139526367e+00 -2.796892166137695312e+00 -8.099411129951477051e-01 4.748357236385345459e-01 8.429724574089050293e-01 -2.762621343135833740e-01 -3.570180237293243408e-01 1.116108775138854980e+00 -5.672947168350219727e-01 1.173754215240478516e+00 2.889801263809204102e+00 1.811497449874877930e+00 4.390709102153778076e-01 -3.903094053268432617e+00 -6.171413660049438477e-01 -2.540540099143981934e-01 -1.192672252655029297e+00 6.470128893852233887e-01 -1.613055467605590820e+00 -1.204617261886596680e+00 9.502345323562622070e-02 8.737620711326599121e-01 -1.671696424484252930e+00 -1.128093242645263672e+00 -8.231227397918701172e-01 2.163430929183959961e+00 1.688588261604309082e-01 -6.460238695144653320e-01 1.619992733001708984e+00 8.164157867431640625e-01 -1.507348895072937012e+00 -1.289076924324035645e+00 -7.884953618049621582e-01 -1.625706315040588379e+00 -1.740837931632995605e+00 -1.308856248855590820e+00 -2.324640512466430664e+00 4.546742439270019531e-01 1.273798465728759766e+00 6.318058073520660400e-02 2.201786756515502930e+00 7.388741374015808105e-01 -2.438605874776840210e-01 -2.356586903333663940e-01 -6.676896810531616211e-01 1.496271729469299316e+00 9.021880626678466797e-01 7.901614904403686523e-01 -1.011864900588989258e+00 -2.661729097366333008e+00 -2.546762704849243164e+00 4.133616983890533447e-01 4.664597511291503906e-01 1.626404285430908203e+00 -8.191497623920440674e-02 1.034542918205261230e-01 2.394377231597900391e+00 2.759161293506622314e-01 9.554522037506103516e-01 -2.868656396865844727e+00 2.418780699372291565e-02 -2.223612546920776367e+00 1.356525897979736328e+00 -1.278029680252075195e+00 -2.371724843978881836e-01 -2.626486063003540039e+00 -2.581124603748321533e-01 6.899594664573669434e-01 -1.296117067337036133e+00 1.445976972579956055e+00 -1.313641190528869629e+00 -1.549388408660888672e+00 -4.974520206451416016e-01 -1.160846114158630371e+00 1.406866759061813354e-01 -1.067323565483093262e+00 8.456107974052429199e-01 1.731085300445556641e+00 1.551258325576782227e+00 -2.155508756637573242e+00 7.382289171218872070e-01 6.284554004669189453e-01 -7.955605983734130859e-01 1.230261206626892090e+00 3.366484344005584717e-01 9.771823883056640625e-01 -1.032303690910339355e+00 1.620197653770446777e+00 -5.295830965042114258e-01 3.085852600634098053e-02 1.005737781524658203e+00 1.478926181793212891e+00 -1.443973928689956665e-01 7.873160839080810547e-01 9.910548329353332520e-01 1.686352968215942383e+00 -6.678098440170288086e-01 6.070443391799926758e-01 -1.762037277221679688e-01 -1.878319501876831055e+00 -6.531277298927307129e-01 -1.023050904273986816e+00 -9.054729938507080078e-01 1.235501408576965332e+00 -2.325895786285400391e+00 8.592419624328613281e-01 -9.478825330734252930e-01 -3.214229047298431396e-01 -1.723190069198608398e+00 9.249403476715087891e-01 -1.024168252944946289e+00 1.244061533361673355e-02 -6.172314882278442383e-01 -1.052165985107421875e+00 -1.642516613006591797e+00 1.962112903594970703e+00 4.030376911163330078e+00 1.538265347480773926e-01 -2.878982573747634888e-02 2.942825853824615479e-01 4.997439086437225342e-01 -7.493051290512084961e-01 -2.139051914215087891e+00 1.553365826606750488e+00 -1.175498485565185547e+00 -2.521329402923583984e+00 -9.246844053268432617e-01 -1.176842823624610901e-01 7.874650359153747559e-01 -1.899296402931213379e+00 4.052040874958038330e-01 2.075598955154418945e+00 6.869102120399475098e-01 1.510472416877746582e+00 5.201219916343688965e-01 3.295284748077392578e+00 6.759702563285827637e-01 8.897133916616439819e-02 -2.088843345642089844e+00 5.292641520500183105e-01 -1.737790107727050781e-01 1.450571268796920776e-01 3.739576041698455811e-01 4.526723384857177734e+00 1.031303882598876953e+00 9.962592124938964844e-01 -2.155025023967027664e-03 5.659333895891904831e-03 1.129436612129211426e+00 -1.790863037109375000e+00 9.131109118461608887e-01 1.486428380012512207e+00 7.279833555221557617e-01 9.936065077781677246e-01 2.130924463272094727e-01 -2.940298616886138916e-01 -2.119130492210388184e-01 5.860810875892639160e-01 6.017669439315795898e-01 2.091818571090698242e+00 -2.336027145385742188e+00 7.289252281188964844e-01 5.389539599418640137e-01 3.144472837448120117e-01 -6.348432898521423340e-01 2.171427726745605469e+00 1.106895804405212402e+00 1.499782919883728027e+00 -3.350488841533660889e-01 -1.996581435203552246e+00 -1.915795683860778809e+00 -1.410271406173706055e+00 -1.632675290107727051e+00 1.878323793411254883e+00 -7.801790237426757812e-01 1.359132289886474609e+00 -9.262449145317077637e-01 3.168862760066986084e-01
-1.356897592544555664e+00 -1.516564249992370605e+00 1.587315559387207031e+00 -7.903851270675659180e-01 5.760753750801086426e-01 -2.141103982925415039e+00 -1.993685364723205566e+00 -2.347009778022766113e-01 -1.326083779335021973e+00 1.862191438674926758e+00 -1.826180815696716309e+00 1.641870379447937012e+00 5.844863653182983398e-01 9.538910984992980957e-01 -2.411573082208633423e-01 3.640272617340087891e-01 -2.754509210586547852e+00 -6.294364482164382935e-02 -2.662718296051025391e-01 1.136646196246147156e-01 -9.633445739746093750e-01 3.740546226501464844e+00 -1.660352796316146851e-01 1.796448469161987305e+00 -1.748009085655212402e+00 1.446174263954162598e+00 -1.912869095802307129e+00 6.200878620147705078e-01 -7.613264769315719604e-02 -6.643452215939760208e-03 -3.433902561664581299e-01 -1.837612032890319824e+00 -2.347259283065795898e+00 -1.533667087554931641e+00 -2.013696670532226562e+00 -4.229404449462890625e+00 2.801708459854125977e+00 -9.611302018165588379e-01 -5.951020717620849609e-01 1.765042543411254883e+00 -9.696814417839050293e-01 -1.372883915901184082e+00 1.147569656372070312e+00 9.075715541839599609e-01 1.236493706703186035e+00 9.587430953979492188e-01 4.322167634963989258e-01 -8.681979775428771973e-01 -1.049600243568420410e+00 5.550147593021392822e-02 -2.041845798492431641e+00 -9.159598946571350098e-01 -4.169742465019226074e-01 -1.780684113502502441e+00 -2.241045236587524414e+00 -4.978666007518768311e-01 -1.670824170112609863e+00 -1.092365831136703491e-01 -4.557576477527618408e-01 9.032002687454223633e-01 1.709203235805034637e-03 2.212888240814208984e+00 -7.241671681404113770e-01 -3.456586599349975586e-02 3.518848121166229248e-01 -5.159012675285339355e-01 -2.809210121631622314e-01 -2.578974485397338867e+00 -1.229657173156738281e+00 1.113287806510925293e+00 -1.677670329809188843e-01 8.794552087783813477e-01 2.041387856006622314e-01 2.468050241470336914e+00 5.716079473495483398e-01 8.085627555847167969e-01 9.701407551765441895e-01 -2.056384682655334473e-01 -1.314813733100891113e+00 1.019670367240905762e+00 1.755745291709899902e+00 8.038552403450012207e-01 -2.054213523864746094e+00 2.018648147583007812e+00 -2.848186016082763672e+00 1.235034942626953125e+00 2.942848682403564453e+00 1.312807321548461914e+00 1.169978260993957520e+00 -3.390680253505706787e-01 1.384380936622619629e+00 2.241822183132171631e-01 5.592395067214965820e-01 1.132492303848266602e+00 -1.109987124800682068e-01 2.775152683258056641e+00 1.868696928024291992e+00 2.874092817306518555e+00 1.709195494651794434e+00 -1.288201332092285156e+00 7.420766353607177734e-01 -1.243757843971252441e+00 1.061349660158157349e-01 -5.140292923897504807e-03 1.681408762931823730e+00 -5.818718910217285156e+00 -3.654703795909881592e-01 -3.933554291725158691e-01 -7.678821086883544922e-01 -2.605351448059082031e+00 1.133730888366699219e+00 7.843217998743057251e-02 -2.900055050849914551e-01 4.406077265739440918e-01 8.502307534217834473e-02 9.805732220411300659e-02 1.242939755320549011e-01 1.381791591644287109e+00 7.589246630668640137e-01 6.670182347297668457e-01 -8.583843708038330078e-01 -1.462354958057403564e-01 2.015332698822021484e+00 -1.488657832145690918e+00 3.746297210454940796e-02 -2.183894515037536621e-01 -3.794342279434204102e+00 -1.007877230644226074e+00 1.039398670196533203e+00 3.018182218074798584e-01 1.542554378509521484e+00 1.045168519020080566e+00 1.108431577682495117e+00 9.879544973373413086e-01 1.465892195701599121e+00 -1.687932252883911133e+00 2.961459159851074219e-01 9.876793622970581055e-01 1.794181615114212036e-01 2.212697029113769531e+00 3.897037804126739502e-01 3.447248458862304688e+00 -1.003678560256958008e+00 -3.385245561599731445e+00 9.208196401596069336e-01 -1.839012742042541504e+00 -1.906978130340576172e+00 -3.608229756355285645e-01 -2.026282787322998047e+00 -3.086384057998657227e+00 9.533168673515319824e-01 -2.738358378410339355e-01 -2.733812630176544189e-01 7.758027911186218262e-01 1.913678884506225586e+00 2.609790563583374023e+00 -1.987432241439819336e+00 -7.013483047485351562e-01 -6.506279706954956055e-01 -2.794418931007385254e-01 -8.237822055816650391e-01 2.243577092885971069e-01 1.282446384429931641e+00 2.108856886625289917e-01 -4.605895280838012695e-01 7.882578670978546143e-02 1.609474301338195801e+00 8.793962001800537109e-02 -1.609082221984863281e+00 -1.596054911613464355e+00 2.730456590652465820e+00 1.022723436355590820e+00 1.528443098068237305e+00 -2.011052846908569336e+00 6.590446829795837402e-02 -1.865632057189941406e+00 6.375169754028320312e-01 4.392548799514770508e-01 -2.078481435775756836e+00 -5.221239924430847168e-01 6.672308444976806641e-01 1.877925992012023926e+00 -2.099927216768264771e-01 -1.688212901353836060e-02 5.875567197799682617e-01 8.495007753372192383e-01 1.096823692321777344e+00 5.184130668640136719e-01 -2.976750135421752930e+00 -6.348571181297302246e-01 5.191438198089599609e-01 1.488460540771484375e+00 -3.603869676589965820e-01 2.208411931991577148e+00 -1.147406846284866333e-01 -2.049777209758758545e-01 9.316618442535400391e-01 3.024324476718902588e-01 6.947440505027770996e-01 -2.008341789245605469e+00
-2.851990222930908203e+00 1.428698450326919556e-01 1.087964653968811035e+00 -7.596094608306884766e-01 1.051171422004699707e+00 -1.668547272682189941e+00 2.638120651245117188e+00 -8.605940341949462891e-01 1.691251158714294434e+00 3.724627196788787842e-01 -3.683242946863174438e-02 -1.700629591941833496e+00 1.218779087066650391e+00 3.297969341278076172e+00 1.361975073814392090e+00 -8.089769631624221802e-02 2.640475034713745117e+00 1.022093057632446289e+00 3.662056922912597656e-01 -1.046258330345153809e+00 -6.974036246538162231e-02 -4.460965991020202637e-01 -8.973851203918457031e-01 2.014818787574768066e-01 -1.950376987457275391e+00 -1.883560538291931152e+00 -1.445124894380569458e-01 7.802799344062805176e-01 9.854722619056701660e-01 -2.230519354343414307e-01 -7.456344366073608398e-01 7.972915172576904297e-01 4.395082220435142517e-02 1.052734136581420898e+00 5.794507265090942383e-01 1.452554106712341309e+00 -1.073593854904174805e+00 1.207543373107910156e+00 -2.577388763427734375e+00 1.375820394605398178e-02 1.279433727264404297e+00 3.005136549472808838e-01 -8.858303427696228027e-01 -2.243090629577636719e+00 -1.012822270393371582e+00 -3.445245027542114258e-01 2.464571148157119751e-01 1.250879526138305664e+00 6.725794821977615356e-02 -3.215861320495605469e-02 1.143361926078796387e+00 1.184201478958129883e+00 1.032995700836181641e+00 3.125166177749633789e+00 1.158535718917846680e+00 8.700901865959167480e-01 4.278664588928222656e-01 -1.721082180738449097e-01 2.919700145721435547e-01 -7.610313892364501953e-01 1.133121922612190247e-01 -3.879761934280395508e+00 6.010194420814514160e-01 1.394664287567138672e+00 -8.709082603454589844e-01 4.419136643409729004e-01 -1.492882132530212402e+00 -1.284026384353637695e+00 -5.732391402125358582e-02 1.020362854003906250e+00 3.253336250782012939e-01 -1.836324095726013184e+00 7.978902757167816162e-02 -1.453363895416259766e+00 -2.078321695327758789e+00 -7.023257613182067871e-01 2.427671849727630615e-01 -6.840285658836364746e-01 -2.978425025939941406e+00 -1.463530421257019043e+00 1.411914348602294922e+00 3.394519567489624023e+00 -3.276068568229675293e-01 -3.566747307777404785e-01 4.028166644275188446e-03 1.942738533020019531e+00 2.105270624160766602e+00 -1.288270592689514160e+00 -7.810779213905334473e-01 -1.440159976482391357e-01 1.314645558595657349e-01 9.451399445533752441e-01 2.151700496673583984e+00 1.248821973800659180e+00 1.913314700126647949e+00 -1.775247812271118164e+00 7.443419098854064941e-02 -4.422041177749633789e-01 -1.166495561599731445e+00 1.067290067672729492e+00 -2.456670999526977539e+00 -8.749931454658508301e-01 -2.516407012939453125e+00 -1.456040501594543457e+00 -6.925975680351257324e-01 -5.165853723883628845e-02 4.684475362300872803e-01 2.904331922531127930e+00 -2.486217021942138672e+00 3.281417846679687500e+00 -1.976093173027038574e+00 4.406928718090057373e-01 3.698023259639739990e-01 1.763382792472839355e+00 -9.405044913291931152e-01 1.614439010620117188e+00 -7.115413993597030640e-02 -3.318660557270050049e-01 9.733064174652099609e-01 -1.172978043556213379e+00 -1.869599699974060059e+00 9.015884995460510254e-01 6.277621984481811523e-01 -1.277473688125610352e+00 1.351019024848937988e+00 -8.249498158693313599e-02 -5.335869193077087402e-01 -1.981724381446838379e+00 -2.534905374050140381e-01 2.119810342788696289e+00 7.949549555778503418e-01 1.516416370868682861e-01 1.606633663177490234e+00 8.237110376358032227e-01 1.921315789222717285e+00 -7.639545798301696777e-01 -1.060852169990539551e+00 -1.260540962219238281e+00 -1.216441273689270020e+00 9.509611129760742188e-02 -1.529134362936019897e-01 -2.730348587036132812e+00 -3.576692104339599609e+00 -1.104111075401306152e+00 -1.673277616500854492e-01 1.234160542488098145e+00 -3.679788708686828613e-01 -6.828074902296066284e-02 -9.979050755500793457e-01 3.307467401027679443e-01 -1.370079040527343750e+00 -5.074363350868225098e-01 -1.014986157417297363e+00 -1.161536574363708496e+00 8.408414721488952637e-01 1.897706151008605957e+00 -1.111239075660705566e+00 -1.816805452108383179e-01 9.234391897916793823e-02 1.361697554588317871e+00 -6.511803716421127319e-02 -5.664860084652900696e-02 -1.370790749788284302e-01 6.459245085716247559e-01 2.402572631835937500e+00 -1.868267059326171875e+00 5.231060385704040527e-01 2.709446907043457031e+00 -5.529452562332153320e-01 1.102727770805358887e+00 -3.002166032791137695e+00 5.408238172531127930e-01 -6.631148457527160645e-01 1.812780857086181641e+00 -3.686349689960479736e-01 1.541489124298095703e+00 8.784409165382385254e-01 -1.987765908241271973e+00 -1.481350302696228027e+00 -6.028794497251510620e-02 -2.627869546413421631e-01 -2.113245248794555664e+00 1.328108459711074829e-02 6.362816202454268932e-05 -4.235402345657348633e-01 8.048546314239501953e-01 -2.443676143884658813e-01 -7.446840405464172363e-01 2.834785699844360352e+00 -1.960528731346130371e+00 3.334430754184722900e-01 1.210827231407165527e-01 1.739251255989074707e+00 9.398309588432312012e-01 9.589962959289550781e-01 2.673043489456176758e+00 1.064865104854106903e-02 -9.302822351455688477e-01 1.263609677553176880e-01 -2.554381787776947021e-01
