1.099964380264282227e+00
-8.183506131172180176e-01
-1.729267686605453491e-01
-1.254811525344848633e+00
4.377613067626953125e-01
4.853638410568237305e-01
-9.365240931510925293e-01
6.657160520553588867e-01
6.539919972419738770e-02
-1.895820498466491699e-01
-1.336961627006530762e+00
7.077499628067016602e-01
9.062688946723937988e-01
4.587564468383789062e-01
-3.178383588790893555e+00
4.357493519783020020e-01
-3.919554471969604492e+00
-5.134836435317993164e-01
-6.954925060272216797e-01
7.289852499961853027e-01
-1.185133121907711029e-02
4.559438526630401611e-01
1.392072737216949463e-01
1.606631875038146973e+00
-4.307745397090911865e-01
-1.090782761573791504e+00
1.017519831657409668e+00
1.294156789779663086e+00
-1.493665099143981934e+00
-1.687819600105285645e+00
6.260565519332885742e-01
5.918417498469352722e-02
6.478326320648193359e-01
-2.277400493621826172e+00
3.207741081714630127e-01
-1.310628354549407959e-01
-8.630836755037307739e-02
6.718420386314392090e-01
4.548392593860626221e-01
3.361720144748687744e-01
1.108223199844360352e+00
-2.513358831405639648e+00
-5.681859850883483887e-01
-1.419271081686019897e-01
3.378682136535644531e-01
-3.611757457256317139e-01
-8.411453962326049805e-01
8.169189095497131348e-01
4.152178168296813965e-01
8.611890077590942383e-01
1.207788825035095215e+00
-6.787530779838562012e-01
4.126327335834503174e-01
-1.323614865541458130e-01
-3.405724465847015381e-01
-4.606471061706542969e-01
9.039435386657714844e-01
-5.457487106323242188e-01
1.889767050743103027e-01
-2.183075398206710815e-01
8.575425744056701660e-01
1.231428980827331543e+00
1.710045337677001953e-01
-2.915803492069244385e-01
7.987789511680603027e-01
-3.464854240417480469e+00
-2.297390937805175781e+00
2.916852831840515137e-01
3.116190731525421143e-01
-3.203451037406921387e-01
-3.586749434471130371e-01
1.947478652000427246e+00
1.718268394470214844e-01
-3.612854480743408203e-01
-6.659098267555236816e-01
9.276652336120605469e-01
2.694007873535156250e+00
9.763527661561965942e-03
-3.233570754528045654e-01
-8.606901168823242188e-01
5.633073449134826660e-01
1.435277581214904785e+00
-1.452533841133117676e+00
2.566018104553222656e-01
-1.170031577348709106e-01
-1.215015172958374023e+00
-1.674648672342300415e-01
4.281614303588867188e+00
-5.680517554283142090e-01
1.118599891662597656e+00
1.179442882537841797e+00
5.832587368786334991e-03
5.458258986473083496e-01
9.970859438180923462e-02
2.618417263031005859e+00
-4.554892182350158691e-01
5.328201130032539368e-02
1.961255788803100586e+00
-1.775492578744888306e-01
3.815246522426605225e-01
2.912567853927612305e-01
1.214222431182861328e+00
5.447723865509033203e-01
-1.136385679244995117e+00
2.681901693344116211e+00
2.896889925003051758e+00
-1.035796880722045898e+00
5.647244453430175781e-01
-1.572560071945190430e-01
-5.015491247177124023e-01
-5.786637067794799805e-01
8.891878128051757812e-01
9.370478987693786621e-02
-6.994199156761169434e-01
3.192567586898803711e+00
3.596120178699493408e-01
8.433605432510375977e-01
1.959876298904418945e+00
5.722038745880126953e-01
-3.100679814815521240e-01
-2.912467479705810547e+00
5.142349600791931152e-01
1.072284460067749023e+00
-8.986815065145492554e-02
-3.798175454139709473e-01
-9.875419139862060547e-01
6.120492145419120789e-02
-7.227103114128112793e-01
-1.078622102737426758e+00
5.126579403877258301e-01
1.373112946748733521e-01
2.201570034027099609e+00
1.270435214042663574e+00
-4.238322973251342773e-01
9.827233850955963135e-02
1.797882914543151855e+00
-8.369953036308288574e-01
2.093728035688400269e-01
1.298036932945251465e+00
-6.739120483398437500e-01
2.885863482952117920e-01
3.771691918373107910e-01
-3.498713076114654541e-01
1.979409158229827881e-01
-8.313040733337402344e-01
7.450889348983764648e-01
1.466854810714721680e+00
1.133822798728942871e+00
1.512160778045654297e+00
-7.955312728881835938e-01
3.866371870040893555e+00
4.318378567695617676e-01
-3.015582799911499023e+00
-7.267247140407562256e-02
2.466048002243041992e-01
-4.015351235866546631e-01
1.274441838264465332e+00
-1.006445810198783875e-01
1.180095314979553223e+00
7.252919077873229980e-01
-3.723538219928741455e-01
-3.671862185001373291e-01
-2.776223421096801758e-01
-1.073560833930969238e+00
6.676191091537475586e-02
-1.137715458869934082e+00
2.203560620546340942e-01
5.786089301109313965e-01
-1.219592332839965820e+00
-5.299582332372665405e-02
5.334398746490478516e-01
-8.641198873519897461e-01
9.144207239151000977e-01
4.880436509847640991e-02
-2.346273064613342285e-01
-5.134164094924926758e-01
2.751931846141815186e-01
-2.272039651870727539e-02
-1.233417868614196777e+00
2.441668987274169922e+00
6.447502374649047852e-01
6.796028017997741699e-01
1.759078055620193481e-01
-4.831362366676330566e-01
4.932744204998016357e-01
5.527612566947937012e-01
1.047947764396667480e+00
-5.557962656021118164e-01
-7.254226803779602051e-01
1.562171697616577148e+00
-4.131304323673248291e-01
-1.455498635768890381e-01
-4.060376286506652832e-01
-2.478764772415161133e+00
1.810333579778671265e-01
-4.256139099597930908e-01
-3.996199667453765869e-01
-1.076261028647422791e-01
1.552581667900085449e+00
3.251077175140380859e+00
