-3.928528130054473877e-01
-9.670890122652053833e-02
4.747963905334472656e+00
1.147369891405105591e-01
-2.083811521530151367e+00
5.836060047149658203e-01
-3.434971272945404053e-01
-6.047128513455390930e-02
-1.584887057542800903e-01
6.936849951744079590e-01
-2.800040841102600098e-01
-1.148473024368286133e+00
2.512656450271606445e-01
2.446458935737609863e-01
1.069242134690284729e-01
-4.310380220413208008e-01
3.065006434917449951e-01
-3.175335168838500977e+00
-2.200892418622970581e-01
-3.279277682304382324e-01
8.998465538024902344e-01
1.032022237777709961e+00
7.413563728332519531e-01
-4.007184803485870361e-01
2.672744169831275940e-02
7.395626306533813477e-01
4.321511983871459961e-01
-2.382704496383666992e+00
-1.794376015663146973e+00
4.065170764923095703e+00
-9.568757414817810059e-01
1.272487044334411621e+00
1.127030611038208008e+00
-1.644611358642578125e+00
2.110790312290191650e-01
7.085105180740356445e-01
-2.388919115066528320e+00
-2.371467202901840210e-01
-2.750059068202972412e-01
8.553276769816875458e-03
9.231554269790649414e-01
5.339064002037048340e-01
-9.582029283046722412e-02
1.544756889343261719e-01
-5.458942055702209473e-01
-2.332461327314376831e-01
4.782953560352325439e-01
-1.384966373443603516e+00
-4.172932147979736328e+00
1.182294189929962158e-01
1.187016367912292480e+00
5.758553147315979004e-01
-3.717818558216094971e-01
-7.174152135848999023e-02
3.884818792343139648e+00
3.327499330043792725e-02
4.400341033935546875e+00
1.182073235511779785e+00
-2.512672543525695801e-02
1.887862563133239746e+00
3.448149442672729492e+00
1.360538244247436523e+00
-9.388498663902282715e-01
1.032936293631792068e-02
-2.161936044692993164e+00
-4.698734879493713379e-01
5.134050846099853516e-01
-1.776456594467163086e+00
7.269912213087081909e-02
-7.735765576362609863e-01
-3.291296362876892090e-01
-1.039461866021156311e-01
7.807019352912902832e-01
3.599072396755218506e-01
5.630422115325927734e+00
-2.190096974372863770e-01
-1.246722817420959473e+00
9.747359156608581543e-01
-2.235000133514404297e+00
6.458313465118408203e-01
-1.228641346096992493e-01
3.871345818042755127e-01
-4.009796619415283203e+00
-1.291033774614334106e-01
-4.444131851196289062e-01
8.194564841687679291e-03
-5.294713377952575684e-01
-1.781681627035140991e-01
-9.564706087112426758e-01
5.630602240562438965e-01
-9.200085401535034180e-01
-3.103156328201293945e+00
-1.150638222694396973e+00
9.532668590545654297e-01
-1.079114317893981934e+00
4.887010753154754639e-01
1.075572252273559570e+00
-3.109086751937866211e-01
2.486638069152832031e+00
-4.668949604034423828e+00
