8.977051973342895508e-01 -7.413992285728454590e-01 -1.584850549697875977e-01 -8.146076649427413940e-02 1.494870424270629883e+00 -1.795164823532104492e+00 -1.130221262574195862e-01 -5.354340672492980957e-01 1.169145345687866211e+00 5.290124192833900452e-02 -9.555897712707519531e-01 -1.560011386871337891e+00 -3.625152111053466797e-01 -4.582177400588989258e-01 1.227546811103820801e+00 -7.771216332912445068e-03 1.493628501892089844e+00 9.593257308006286621e-01 -8.183515667915344238e-01 -2.331866323947906494e-01 -1.978309601545333862e-01 1.858169399201869965e-02 -4.354661703109741211e-01 -3.334090411663055420e-01 -1.030218243598937988e+00 1.278847694396972656e+00 -1.226495623588562012e+00 4.445497393608093262e-01 3.715341985225677490e-01 -1.425023913383483887e+00 3.060622513294219971e-01 -5.379064679145812988e-01 6.170724034309387207e-01 -4.129446446895599365e-01 -2.228654146194458008e+00 -1.049555540084838867e-01 1.055742979049682617e+00 -1.318467497825622559e+00 6.024073958396911621e-01 5.350782275199890137e-01 -1.990888357162475586e+00 1.843323856592178345e-01 5.983506441116333008e-01 -6.176701933145523071e-02 -9.696856737136840820e-01 5.163238644599914551e-01 -9.973893314599990845e-02 5.362156033515930176e-01 -2.899317145347595215e-01 1.916841149330139160e+00 -1.260288596153259277e+00 7.785274386405944824e-01 2.122996002435684204e-02 -1.043823480606079102e+00 -1.026247382164001465e+00 8.963813781738281250e-01 8.853712677955627441e-01 -4.602122902870178223e-01 9.284344315528869629e-01 3.971209526062011719e-01 1.229291200637817383e+00 1.192252278327941895e+00 6.114378198981285095e-02 -1.498469859361648560e-01 1.462900191545486450e-01 -1.267627716064453125e+00 -5.044476985931396484e-01 -5.008209347724914551e-01 -7.337898612022399902e-01 -8.803688287734985352e-01 -2.980436086654663086e-01 6.931329369544982910e-01 5.616461038589477539e-01 -7.477149963378906250e-01 -2.487319111824035645e-01 8.361281752586364746e-01 2.572382092475891113e-01 6.427288055419921875e-01 -3.024072349071502686e-01 -1.352068305015563965e+00 -1.594077825546264648e+00 -1.376473307609558105e+00 -2.786604873836040497e-02 -9.464560747146606445e-01 -2.098354578018188477e+00 -1.689745664596557617e+00 1.197168946266174316e+00 -7.186856865882873535e-01 -7.978529334068298340e-01 -7.107309103012084961e-01 1.422451734542846680e-01 -2.755373716354370117e-01 -6.374696493148803711e-01 5.196004509925842285e-01 -2.760052919387817383e+00 3.832481428980827332e-02 -5.294715054333209991e-03 2.026789039373397827e-01 1.500445723533630371e+00 1.507127046585083008e+00 -2.769488096237182617e-01 -1.639497280120849609e+00 1.077124834060668945e+00 -5.866730213165283203e-02 -2.600095234811306000e-03 3.965502083301544189e-01 -6.410552263259887695e-01 9.769761562347412109e-01 2.831775665283203125e+00 3.700466454029083252e-01 6.656839251518249512e-01 1.365393638610839844e+00 -8.418604135513305664e-01 1.334351539611816406e+00 2.494610399007797241e-01 -1.181166410446166992e+00 3.062842786312103271e-01 1.454895436763763428e-01 1.445631504058837891e+00 -9.735469222068786621e-01 -1.819342970848083496e-01 2.588863611221313477e+00 -3.961245417594909668e-01 1.656298995018005371e+00 1.098306655883789062e+00 -1.388874053955078125e-01 -1.944329380989074707e+00 -1.034248709678649902e+00 1.273904681205749512e+00 1.510917544364929199e-01 1.034041523933410645e+00 1.025138616561889648e+00 -3.754961490631103516e-01 3.853483796119689941e-01 5.239746570587158203e-01 1.200498223304748535e+00 -8.737258315086364746e-01 9.120324254035949707e-01 2.163186222314834595e-01 -7.234758138656616211e-01 1.557192683219909668e+00 -6.204213500022888184e-01 3.692027330398559570e-01 -2.620642781257629395e-01 1.811549812555313110e-01 -1.302984058856964111e-01 -4.955071508884429932e-01 2.702702283859252930e-01 -6.109281182289123535e-01 -7.758032083511352539e-01 5.739238262176513672e-01 1.287784799933433533e-02 -1.892238482832908630e-02 -9.410709142684936523e-01 -4.354452192783355713e-01 -2.453478336334228516e+00 8.237847089767456055e-01 8.680059313774108887e-01 1.813487149775028229e-02 -2.664701342582702637e-01 1.114121437072753906e+00 -3.513552248477935791e-01 -5.143013596534729004e-01 -2.433900594711303711e+00 4.289549887180328369e-01 -1.188818097114562988e+00 7.450891286134719849e-02 -3.744135797023773193e-01 -1.204641461372375488e+00 -1.343290567398071289e+00 6.914860606193542480e-01 -3.162251114845275879e-01 -7.512108683586120605e-01 2.165894508361816406e+00 3.948927521705627441e-01 9.479621052742004395e-01 3.537122309207916260e-01 -4.416944086551666260e-01 2.257200628519058228e-01 1.703329011797904968e-02 1.302050471305847168e+00 9.733552336692810059e-01 1.126433849334716797e+00 1.116083979606628418e+00 -1.686376631259918213e-01 4.843844473361968994e-01 3.236566483974456787e-01 -1.390731334686279297e+00 2.729951739311218262e-01 -2.094791382551193237e-01 8.048987984657287598e-01 3.751802071928977966e-02 -1.189713120460510254e+00 -6.803921461105346680e-01 -8.594064712524414062e-01 1.343279182910919189e-01 8.618208169937133789e-01 8.535871505737304688e-01 2.103167772293090820e+00 -1.861831098794937134e-01
