6.966297030448913574e-01 1.469137072563171387e+00 -6.014127135276794434e-01 3.514078617095947266e+00 2.516090273857116699e-01 1.334136962890625000e+00 4.348123073577880859e-01 -1.461356401443481445e+00 3.495073318481445312e-01 1.003674745559692383e+00 2.933081865310668945e+00 9.895302057266235352e-01 7.173657417297363281e-01 -3.973066806793212891e+00 3.278505325317382812e+00 -2.142955809831619263e-01 1.212249159812927246e+00 6.010135412216186523e-01 -1.486779451370239258e+00 -2.104594230651855469e+00 -2.863159894943237305e+00 -8.371775150299072266e-01 2.371630430221557617e+00 2.915069580078125000e+00 -1.296746015548706055e+00 -8.830396533012390137e-01 -2.142139911651611328e+00 1.387067914009094238e+00 -1.760615587234497070e+00 -2.398723840713500977e+00 -3.580744266510009766e+00 -3.092539072036743164e+00 -1.669546514749526978e-01 2.202286958694458008e+00 9.598540067672729492e-01 2.473313570022583008e+00 -3.456646203994750977e+00 -2.521985054016113281e+00 -3.094904661178588867e+00 -2.692922115325927734e+00 3.574240580201148987e-02 3.325173854827880859e+00 5.086835622787475586e-01 4.388407707214355469e+00 2.463693380355834961e+00 2.386697530746459961e+00 -3.629625439643859863e-01 3.398870527744293213e-01 -1.186981081962585449e+00 -6.099888682365417480e-01
