-5.429685115814208984e-01 1.367891073226928711e+00 -2.232334136962890625e+00 -1.877312779426574707e+00 1.524425446987152100e-01 1.455096721649169922e+00 -1.995664089918136597e-01 -1.018352746963500977e+00 3.411173820495605469e-01 1.818836331367492676e+00 -4.368337392807006836e-01 -3.715404272079467773e-01 3.359241783618927002e-01 1.682975292205810547e+00 -9.425926208496093750e-01 -7.482374906539916992e-01 9.612101912498474121e-01 -1.414886832237243652e+00 7.791284918785095215e-01 -9.548057317733764648e-01 2.805042564868927002e-01 -9.016063213348388672e-01 2.388948053121566772e-01 -1.897896677255630493e-01 -2.401237726211547852e+00 6.854966878890991211e-01 4.026654064655303955e-01 -5.027638077735900879e-01 1.849336475133895874e-01 2.610485851764678955e-01 -1.486352562904357910e+00 3.014476895332336426e-01 -5.868160128593444824e-01 -5.828685164451599121e-01 -1.540660500526428223e+00 -9.203257560729980469e-01 1.664104163646697998e-01 -2.627955973148345947e-01 7.025482058525085449e-01 5.073436498641967773e-01 9.230065941810607910e-01 -1.298281192779541016e+00 1.750026702880859375e+00 -1.331345915794372559e+00 7.545668482780456543e-01 5.371675491333007812e-01 1.380418181419372559e+00 1.399393320083618164e+00 1.968207001686096191e+00 9.779195785522460938e-01 3.284147083759307861e-01 9.961884021759033203e-01 5.943799018859863281e-01 -1.715739727020263672e+00 -4.556607604026794434e-01 3.606509864330291748e-01 3.353830277919769287e-01 -9.305282235145568848e-01 8.713844418525695801e-01 5.157474875450134277e-01 5.102914571762084961e-01 2.804923653602600098e-01 -1.499350816011428833e-01 5.756655335426330566e-01 1.811186552047729492e+00 -4.342550039291381836e-01 -1.126389265060424805e+00 -1.340113878250122070e+00 1.154089689254760742e+00 3.107893168926239014e-01 1.371095538139343262e+00 -8.079075217247009277e-01 -5.942863225936889648e-01 -2.058452665805816650e-01 -1.418748617172241211e+00 4.444574415683746338e-01 -9.243053793907165527e-01 -5.171198844909667969e-01 6.991716623306274414e-01 7.490663528442382812e-01 3.015774860978126526e-02 1.934812664985656738e-01 -3.231289863586425781e+00 2.756906449794769287e-01 -1.072337385267019272e-03 5.189948678016662598e-01 -1.433282852172851562e+00 8.192677497863769531e-01 9.858408570289611816e-01 -6.144267916679382324e-01 -3.318480253219604492e+00 2.545117437839508057e-01 -4.836600124835968018e-01 1.200978755950927734e+00 -8.058895915746688843e-02 9.602062106132507324e-01 -2.013009190559387207e-01 7.286472320556640625e-01 -1.195811986923217773e+00 2.573186397552490234e+00 -2.091915905475616455e-01 -6.476288437843322754e-01 -6.450169086456298828e-01 -1.540440440177917480e+00 4.984145760536193848e-01 -5.126272439956665039e-01 1.473880887031555176e+00 -1.442772429436445236e-02 5.184262394905090332e-01 2.326308786869049072e-01 1.860864758491516113e-01 1.283606171607971191e+00 -7.302251458168029785e-02 -6.285410374402999878e-02 -8.537726402282714844e-01 -4.014482200145721436e-01 8.628614544868469238e-01 -2.624389648437500000e+00 -2.244709253311157227e+00 -3.508136570453643799e-01 -1.588249057531356812e-01 -2.372431941330432892e-02 4.787308573722839355e-01 -7.708988785743713379e-01 -4.994997680187225342e-01 -3.915905207395553589e-02 4.973738193511962891e-01 -1.711296290159225464e-01 2.100191831588745117e+00 -4.542741179466247559e-01 4.174771606922149658e-01 1.568631827831268311e-01 9.138364195823669434e-01 -1.573375344276428223e+00 -1.318003654479980469e+00 -9.793098568916320801e-01 -8.079946041107177734e-01 1.463332176208496094e-01 -1.606989949941635132e-01 3.477135598659515381e-01 1.215889379382133484e-01 7.373740524053573608e-02 -1.403357267379760742e+00 -2.519372999668121338e-01 -6.771371960639953613e-01 2.123521119356155396e-01 1.237495183944702148e+00 4.188635945320129395e-01 1.230590343475341797e+00 -5.945013165473937988e-01 -9.377536177635192871e-01 7.018424868583679199e-01 -6.428951025009155273e-01 1.987459138035774231e-03 -9.508137702941894531e-01 -9.198409914970397949e-01 -2.944676280021667480e-01 4.922007918357849121e-01 1.274367690086364746e+00 3.777738213539123535e-01 -3.404864072799682617e-01 2.683797776699066162e-01 -3.703493177890777588e-01 3.806559741497039795e-01 -8.700772523880004883e-01 -1.380387425422668457e+00 6.161006093025207520e-01 -1.469845175743103027e+00 1.142483949661254883e+00 9.161157608032226562e-01 -8.641804754734039307e-02 -1.270424604415893555e+00 -1.277265548706054688e+00 -1.426167041063308716e-01 6.680236458778381348e-01 6.916932463645935059e-01 1.567618966102600098e+00 6.607145071029663086e-01 -8.245771527290344238e-01 1.381788849830627441e+00 -3.726969957351684570e-01 -3.594948947429656982e-01 8.914169073104858398e-01 1.743993535637855530e-02 -1.801352262496948242e+00 7.263178825378417969e-01 1.367797136306762695e+00 1.016203165054321289e+00 -1.227700471878051758e+00 -1.827042251825332642e-01 1.273818612098693848e-01 -2.681281864643096924e-01 -3.260613083839416504e-01 -3.734147846698760986e-01 1.778586626052856445e+00 1.130193591117858887e+00 -1.282393932342529297e+00 6.709045916795730591e-02 -6.427301168441772461e-01 -9.174621701240539551e-01 1.639243364334106445e-01 -2.276903763413429260e-02 7.612208127975463867e-01 2.340440601110458374e-01 -1.241110444068908691e+00 4.838777482509613037e-01 1.871011137962341309e+00 1.365292310714721680e+00 7.546498775482177734e-01 -2.040380716323852539e+00 1.939044356346130371e+00 2.389379888772964478e-01 -6.090782582759857178e-02 3.167138695716857910e-01 6.117820739746093750e-01 -9.157256036996841431e-02 -6.951330900192260742e-01 1.313725709915161133e+00 -5.192269086837768555e-01 -1.500541567802429199e+00 -8.889201283454895020e-01 5.249823257327079773e-02 -1.057355642318725586e+00 2.092181593179702759e-01 -1.459847111254930496e-02 1.103520274162292480e+00 -1.928238272666931152e+00 -1.013653397560119629e+00 4.045566320419311523e-01 -8.573222160339355469e-01 -7.613468766212463379e-01 -1.874993443489074707e+00 8.545388579368591309e-01 2.634961009025573730e-01 2.406684905290603638e-01 2.455897182226181030e-01 7.589341998100280762e-01 -1.603285968303680420e-01 -4.396473765373229980e-01 4.547484815120697021e-01 -1.835327744483947754e+00 5.825061202049255371e-01 -1.475785493850708008e+00 -6.099824309349060059e-01 -6.352322697639465332e-01 2.918321788311004639e-01 5.683925747871398926e-01 1.816893219947814941e-01 -2.277169525623321533e-01 1.298912763595581055e+00 -5.342141985893249512e-01 8.941532969474792480e-01 7.825914621353149414e-01 -2.265703305602073669e-02 -5.990788340568542480e-01 4.078470170497894287e-01 7.429289817810058594e-01 -1.004041638225317001e-02 8.248009532690048218e-02 -6.333055496215820312e-01 -1.374480605125427246e+00 -7.579667568206787109e-01 -4.618588089942932129e-01 2.524032890796661377e-01 1.318596839904785156e+00 -6.339786648750305176e-01 -4.894222915172576904e-01 -6.884720921516418457e-02 -2.380055785179138184e-01 1.104112386703491211e+00 6.090285181999206543e-01 -1.064646363258361816e+00 -2.060081481933593750e+00 -6.860772371292114258e-01 1.282748430967330933e-01 4.068087637424468994e-01 1.526102066040039062e+00 1.444854974746704102e+00 1.930773615837097168e+00 2.643818557262420654e-01 1.143301010131835938e+00 -8.729540705680847168e-01 -2.839618623256683350e-01 4.070117175579071045e-01 2.884373962879180908e-01 -2.853644825518131256e-02 1.029761075973510742e+00 6.049457788467407227e-01 -6.253353953361511230e-01 -1.045483499765396118e-01 6.028097271919250488e-01 2.198375612497329712e-01 -8.455777168273925781e-01 -2.815420031547546387e-01 -7.187454104423522949e-01 -6.325509548187255859e-01 -6.309237480163574219e-01 9.674030542373657227e-01 -1.407739996910095215e+00 1.849651336669921875e+00
3.815443068742752075e-02 5.888124462217092514e-03 -1.221359372138977051e+00 6.573112010955810547e-01 7.614498138427734375e-01 -9.178515672683715820e-01 -1.304575681686401367e+00 -4.444497227668762207e-01 1.146374106407165527e+00 2.089208602905273438e+00 4.883338138461112976e-02 1.272585839033126831e-01 6.458803415298461914e-01 6.850528120994567871e-01 6.605932116508483887e-01 -8.185192346572875977e-01 -1.067396640777587891e+00 2.041588544845581055e+00 9.706451892852783203e-01 -7.484439611434936523e-01 -1.500611066818237305e+00 -1.411899477243423462e-01 -9.806206822395324707e-01 1.133712455630302429e-01 -3.753848969936370850e-01 -1.704297773540019989e-02 -1.386582136154174805e+00 -2.401300072669982910e-01 -1.638419181108474731e-01 -4.605454802513122559e-01 -1.057973742485046387e+00 -8.910435438156127930e-01 1.165221095085144043e+00 -6.052443981170654297e-01 -7.524652481079101562e-01 2.324018180370330811e-01 6.229543685913085938e-01 2.836562395095825195e-01 8.325453996658325195e-01 -1.066082596778869629e+00 -4.081411659717559814e-01 4.342472851276397705e-01 1.850672066211700439e-01 -7.532803714275360107e-02 -1.245991587638854980e+00 -1.283398628234863281e+00 -1.112764358520507812e+00 1.305619239807128906e+00 1.562707781791687012e+00 -1.983837008476257324e+00 -9.185037612915039062e-01 5.813509225845336914e-01 -4.662462174892425537e-01 3.008288741111755371e-01 1.568949341773986816e+00 2.263098001480102539e+00 -6.803252696990966797e-01 -4.250980019569396973e-01 5.594772100448608398e-01 7.003626823425292969e-01 2.033201009035110474e-01 -6.328094005584716797e-01 -5.648522824048995972e-02 -3.547063171863555908e-01 5.883357524871826172e-01 -1.353444457054138184e-01 1.883890271186828613e+00 2.952916622161865234e-01 6.383591294288635254e-01 7.886422872543334961e-01 6.802073717117309570e-01 1.365786671638488770e+00 -1.209471464157104492e+00 -8.005334138870239258e-01 -2.447006940841674805e+00 7.666012048721313477e-01 -1.288622975349426270e+00 -1.557609558105468750e+00 6.529484987258911133e-01 -4.953551664948463440e-02 -1.877095699310302734e+00 -1.061938881874084473e+00 -3.820893168449401855e-01 -2.437928766012191772e-01 4.778110086917877197e-01 -1.499093413352966309e+00 8.344811387360095978e-03 3.361234366893768311e-01 -1.892043948173522949e-01 -5.769748687744140625e-01 7.141883485019207001e-03 -1.053360223770141602e+00 6.336669921875000000e-01 -1.759751796722412109e+00 7.146177887916564941e-01 1.284597039222717285e+00 -1.787188529968261719e+00 -7.156869769096374512e-01 2.769396007061004639e-01 2.768521308898925781e-01 1.878014564514160156e+00 -7.268016338348388672e-01 -5.653866529464721680e-01 -1.818196058273315430e+00 3.977385163307189941e-01 2.731495797634124756e-01 -1.106473207473754883e+00 -1.172488808631896973e+00 -2.403801918029785156e+00 1.002457857131958008e+00 -5.465520620346069336e-01 -6.999751329421997070e-01 1.719671607017517090e+00 -1.485860705375671387e+00 1.458493918180465698e-01 4.311182796955108643e-01 4.261696711182594299e-02 -7.312137484550476074e-01 -1.703186988830566406e+00 9.326457381248474121e-01 -1.186404347419738770e+00 -1.323496818542480469e+00 -1.344147443771362305e+00 1.030838727951049805e+00 8.426634669303894043e-01 -2.261352300643920898e+00 7.271127700805664062e-01 -8.017739057540893555e-01 3.735227882862091064e-01 -6.246730685234069824e-01 6.037520766258239746e-01 -1.164419353008270264e-01 1.500379681587219238e+00 -4.293011128902435303e-01 -1.680820822715759277e+00 -8.294290304183959961e-01 -3.838799297809600830e-01 8.071081638336181641e-01 5.782667398452758789e-01 -9.930878877639770508e-01 -9.337176084518432617e-01 1.219872474670410156e+00 -5.748327970504760742e-01 2.604550719261169434e-01 -4.569767415523529053e-01 1.385087370872497559e+00 -9.738664031028747559e-01 2.933865308761596680e+00 -5.359910726547241211e-01 -1.954176545143127441e+00 1.108556628227233887e+00 -8.226038813591003418e-01 7.829709351062774658e-02 2.630456387996673584e-01 -2.728114724159240723e-01 1.016262769699096680e+00 -1.197934389114379883e+00 -1.341416686773300171e-01 1.332118641585111618e-02 -4.111591726541519165e-02 1.406516313552856445e+00 3.313313722610473633e-01 -2.928989939391613007e-02 -8.514416217803955078e-01 2.910021841526031494e-01 -8.874254822731018066e-01 -5.900769233703613281e-01 -6.921188533306121826e-02 3.052606247365474701e-02 -3.280674517154693604e-01 -9.682742357254028320e-01 -2.967845499515533447e-01 2.434843540191650391e+00 1.504478931427001953e+00 2.593540668487548828e+00 4.105399549007415771e-02 1.712622880935668945e+00 -4.435161948204040527e-01 -5.430382862687110901e-02 -5.386116504669189453e-01 7.480461597442626953e-01 -2.366489619016647339e-01 -5.380291342735290527e-01 8.609038777649402618e-04 2.499729245901107788e-01 -6.785246729850769043e-01 -1.499451883137226105e-02 -2.284865617752075195e+00 1.453523159027099609e+00 -1.065065741539001465e+00 2.405657619237899780e-01 1.554887890815734863e+00 1.125257238745689392e-01 1.378873348236083984e+00 -2.801433205604553223e-01 -1.745659708976745605e+00 3.774842917919158936e-01 1.239283382892608643e-01 1.493473887443542480e+00 -1.132235646247863770e+00 -7.411699295043945312e-01 -5.652186870574951172e-01 -7.919835448265075684e-01 5.103646963834762573e-02 -1.775865405797958374e-01 -6.169194579124450684e-01 2.903065383434295654e-01 1.023651480674743652e+00 -8.343099355697631836e-01 1.779935359954833984e+00 7.110813260078430176e-01 -1.212067365646362305e+00 -1.352637171745300293e+00 7.439898252487182617e-01 -1.513304591178894043e+00 -1.077807903289794922e+00 -9.740675091743469238e-01 5.894480347633361816e-01 -5.079119205474853516e-01 -6.416916847229003906e-01 1.333027243614196777e+00 -3.755638301372528076e-01 -9.961447864770889282e-02 6.136753559112548828e-01 -1.501289486885070801e+00 -1.096969366073608398e+00 -1.820176362991333008e+00 -1.661257594823837280e-01 -5.831588506698608398e-01 -1.378885269165039062e+00 4.363641440868377686e-01 -8.678011894226074219e-01 -8.741119503974914551e-01 8.639115691184997559e-01 -6.439040899276733398e-01 9.923209995031356812e-02 -5.616962313652038574e-01 -3.003801703453063965e-01 -1.245449855923652649e-01 7.349367737770080566e-01 -4.300787150859832764e-01 4.103282094001770020e-01 -1.814954727888107300e-01 -7.844244837760925293e-01 -1.428686141967773438e+00 -1.184388399124145508e+00 -1.127018809318542480e+00 2.142204940319061279e-01 -1.896512150764465332e+00 1.174357056617736816e+00 1.369438767433166504e+00 8.313885927200317383e-01 -1.916103601455688477e+00 -1.304957628250122070e+00 1.233352944254875183e-01 1.484976172447204590e+00 1.068524241447448730e+00 -1.166481375694274902e+00 1.126528024673461914e+00 1.450264215469360352e+00 -1.677821040153503418e+00 9.690709114074707031e-01 -9.765370488166809082e-01 -1.742831110954284668e+00 1.051318049430847168e-01 1.494613647460937500e+00 -7.780704498291015625e-01 -1.284804224967956543e+00 -5.839494466781616211e-01 -1.901430785655975342e-01 -9.949543476104736328e-01 7.899826765060424805e-01 -1.046956032514572144e-01 4.441445767879486084e-01 -2.438203245401382446e-01 7.620427012443542480e-01 2.116204023361206055e+00 5.126423388719558716e-02 -1.051199316978454590e+00 8.442733287811279297e-01 -2.362248748540878296e-01 7.665280699729919434e-01 6.222564578056335449e-01 -1.060799360275268555e+00 -6.048697829246520996e-01 -8.850283622741699219e-01 9.982611536979675293e-01 -9.719282984733581543e-01 -5.352948904037475586e-01 3.703923895955085754e-02 -4.361904859542846680e-01 -1.800487190485000610e-01 -1.187438011169433594e+00 -8.868727684020996094e-01 2.406158685684204102e+00 1.286570429801940918e-01 -1.372945070266723633e+00 7.649927586317062378e-02 2.488905668258666992e+00 -8.264698982238769531e-01
2.470407336950302124e-01 -1.602745801210403442e-01 -2.205323219299316406e+00 -1.470678687095642090e+00 1.259395956993103027e+00 -5.598706603050231934e-01 -1.232935428619384766e+00 -1.439289152622222900e-01 -2.061892151832580566e-01 -7.045198678970336914e-01 -1.029661655426025391e+00 1.737704992294311523e+00 -1.568625688552856445e+00 1.396902918815612793e+00 -3.478266894817352295e-01 -2.135092735290527344e+00 6.015293002128601074e-01 -1.425048351287841797e+00 -4.969542622566223145e-01 -1.169873118400573730e+00 1.001845955848693848e+00 -6.447105407714843750e-01 -2.499092221260070801e-01 1.941060274839401245e-01 5.046049952507019043e-01 5.482682585716247559e-01 -1.907973527908325195e+00 -2.923124730587005615e-01 1.649096608161926270e-01 5.782603025436401367e-01 -1.057366609573364258e+00 2.931142151355743408e-01 2.490501105785369873e-01 5.284486711025238037e-02 1.347962170839309692e-01 -3.677352964878082275e-01 7.699472904205322266e-01 3.148614168167114258e-01 -1.049823462963104248e-01 3.436746299266815186e-01 1.001585125923156738e+00 5.884739160537719727e-01 9.926399588584899902e-01 -3.068249821662902832e-01 5.803678631782531738e-01 -6.189090386033058167e-02 5.126298069953918457e-01 9.643837213516235352e-01 4.917465150356292725e-01 -5.698903799057006836e-01 -2.350448518991470337e-01 6.151304841041564941e-01 -4.140697419643402100e-01 2.404716253280639648e+00 7.275626659393310547e-01 2.933149337768554688e-01 1.294216871261596680e+00 1.790817737579345703e+00 9.956489503383636475e-02 -4.914990365505218506e-01 -6.691475212574005127e-02 4.535135626792907715e-01 -2.595515847206115723e-01 2.962096214294433594e+00 5.789273381233215332e-01 -1.245570540428161621e+00 -8.303239345550537109e-01 8.540344834327697754e-01 2.204256132245063782e-03 4.685322344303131104e-01 -2.758350670337677002e-01 1.728860378265380859e+00 -4.541617631912231445e-02 3.215976059436798096e-02 3.279259428381919861e-02 1.365071892738342285e+00 3.804005682468414307e-01 3.905015885829925537e-01 8.295505642890930176e-01 9.811109304428100586e-01 -3.836501240730285645e-01 -7.146295905113220215e-01 -5.234413146972656250e-01 1.586260646581649780e-01 -7.827257513999938965e-01 -9.241580367088317871e-01 -1.169326663017272949e+00 1.154405176639556885e-01 -1.128847524523735046e-01 -6.458795070648193359e-01 1.191574573516845703e+00 6.800237894058227539e-01 -3.456928431987762451e-01 3.424057364463806152e-01 -1.184185981750488281e+00 -2.225900411605834961e+00 -6.077897548675537109e-01 8.478119969367980957e-01 -7.040094137191772461e-01 -1.030968070030212402e+00 6.482028365135192871e-01 8.601463437080383301e-01 -1.875292882323265076e-02 3.207724094390869141e-01 2.175224781036376953e+00 9.242029190063476562e-01 -4.479317069053649902e-01 -4.147117435932159424e-01 4.924396276473999023e-01 1.239935159683227539e+00 -1.984490394592285156e+00 1.448852270841598511e-01 -1.055957913398742676e+00 1.462048411369323730e+00 8.439806103706359863e-01 -3.499335348606109619e-01 1.593998789787292480e+00 -3.887853026390075684e-02 2.470463752746582031e+00 2.288461685180664062e+00 -1.409916281700134277e+00 -1.138347268104553223e+00 7.744044065475463867e-01 5.750822648406028748e-02 -1.724544882774353027e+00 1.189946174621582031e+00 2.650859057903289795e-01 5.615393444895744324e-02 1.038573503494262695e+00 -8.446995615959167480e-01 7.450779080390930176e-01 -6.307145953178405762e-01 3.723069131374359131e-01 -2.659587264060974121e-01 -1.199904203414916992e+00 -1.149915158748626709e-01 3.476662635803222656e-01 -9.002348184585571289e-01 -1.131366491317749023e+00 -1.946804225444793701e-01 -7.834333777427673340e-01 4.534643292427062988e-01 1.756200671195983887e+00 -3.655761480331420898e-01 1.190913438796997070e+00 1.990551710128784180e+00 -4.737855792045593262e-01 1.149070262908935547e+00 -2.108219861984252930e-01 4.064991176128387451e-01 1.966130852699279785e+00 -1.852764129638671875e+00 2.092896550893783569e-01 -1.417409926652908325e-01 8.118574023246765137e-01 -2.321723252534866333e-01 5.169514417648315430e-01 1.174431920051574707e+00 7.788035273551940918e-01 -6.355633586645126343e-02 3.073851168155670166e-01 -8.179768323898315430e-01 7.105352282524108887e-01 -1.459635347127914429e-01 -8.391388058662414551e-01 2.121370077133178711e+00 1.008456587791442871e+00 -1.504995822906494141e+00 -2.227822691202163696e-01 2.445469856262207031e+00 -1.628109097480773926e+00 1.362488269805908203e+00 -1.631649017333984375e+00 -4.103350937366485596e-01 1.236956268548965454e-01 1.351953268051147461e+00 5.033636093139648438e-01 -1.202595710754394531e+00 3.962493538856506348e-01 -3.491087257862091064e-02 1.494521647691726685e-01 -2.407165050506591797e+00 -2.369745969772338867e+00 9.245564937591552734e-01 1.351243615150451660e+00 3.640750646591186523e-01 -5.099792405962944031e-02 1.050450563430786133e+00 1.485782980918884277e+00 -2.565095424652099609e-01 1.446876168251037598e+00 1.059089004993438721e-01 8.227373361587524414e-01 -2.177745103836059570e+00 -5.255472660064697266e-01 1.049512267112731934e+00 -2.042891979217529297e+00 1.532688736915588379e+00 6.300055384635925293e-01 4.430630505084991455e-01 -1.686050653457641602e+00 -1.914498209953308105e+00 -2.114859521389007568e-01 -1.018946290016174316e+00 1.066661477088928223e+00 -2.240299224853515625e+00 7.595211267471313477e-01 3.622764348983764648e-01 1.404413461685180664e+00 -7.050249576568603516e-01 6.668866872787475586e-01 -6.951372027397155762e-01 7.537542581558227539e-01 -6.589696407318115234e-01 -5.643938779830932617e-01 -1.196059703826904297e+00 -1.551064252853393555e+00 -1.779275894165039062e+00 2.492620229721069336e+00 -1.295277476310729980e-01 7.615545392036437988e-01 -4.590213298797607422e-01 -5.517133325338363647e-02 1.136495709419250488e+00 -9.951828718185424805e-01 1.408154964447021484e+00 -3.397338688373565674e-01 -1.047852516174316406e+00 3.178747594356536865e-01 -5.754185914993286133e-01 1.643267422914505005e-01 -2.215730994939804077e-01 1.313499569892883301e+00 -3.564297854900360107e-01 -2.244950771331787109e+00 -4.468083381652832031e-02 7.608016580343246460e-02 -1.877730727195739746e+00 -1.088180899620056152e+00 9.914757013320922852e-01 -5.401067137718200684e-01 6.765733361244201660e-01 4.855959713459014893e-01 -4.323096573352813721e-01 -6.329760551452636719e-01 3.270183324813842773e+00 5.772492289543151855e-01 -6.836788654327392578e-01 -5.054841041564941406e-01 1.055227160453796387e+00 -4.020037353038787842e-01 -5.794278979301452637e-01 -1.599148273468017578e+00 -3.237246572971343994e-01 1.175226643681526184e-01 -6.613592505455017090e-01 5.822846293449401855e-01 8.065850734710693359e-01 -2.005822420120239258e+00 -9.670016169548034668e-02 8.006236553192138672e-01 -1.145750164985656738e+00 -1.988438516855239868e-01 6.063942313194274902e-01 8.497176170349121094e-01 -1.040343999862670898e+00 -1.411624252796173096e-01 -4.297351539134979248e-01 -1.660102605819702148e-01 1.079510211944580078e+00 8.408219218254089355e-01 1.534216046333312988e+00 -7.772378325462341309e-01 -1.535803914070129395e+00 -5.136338472366333008e-01 -1.191819667816162109e+00 -8.191751837730407715e-01 2.045266479253768921e-01 5.179213285446166992e-01 -9.500837922096252441e-01 8.977294564247131348e-01 9.176718592643737793e-01 -9.127039462327957153e-02 -5.574147105216979980e-01 2.960070073604583740e-01 6.289699673652648926e-01 4.504524469375610352e-01 -2.068914324045181274e-01 7.406528592109680176e-01 1.015124440193176270e+00 -9.706758856773376465e-01 -1.246730923652648926e+00 -9.618955850601196289e-01 -8.799293637275695801e-01 8.581987023353576660e-01 -5.132278203964233398e-01 -4.018161296844482422e-01 1.267164826393127441e+00 -7.270469069480895996e-01 -3.537149429321289062e-01
4.636116325855255127e-01 5.575811862945556641e-01 -1.806671619415283203e+00 -8.471003174781799316e-01 3.950519561767578125e-01 -4.223419129848480225e-01 6.676201820373535156e-01 -5.310195088386535645e-01 5.182560086250305176e-01 -7.261896729469299316e-01 3.907104432582855225e-01 3.314007222652435303e-01 -6.760302186012268066e-01 -2.466995716094970703e-01 -4.525884687900543213e-01 2.835244834423065186e-01 -6.205203533172607422e-01 -1.535328745841979980e+00 -4.193155169486999512e-01 1.119973659515380859e-01 1.340695470571517944e-01 -4.075697362422943115e-01 1.210561394691467285e-01 -2.455606013536453247e-01 2.465314716100692749e-01 -1.400886893272399902e+00 5.093003511428833008e-01 1.049924939870834351e-01 2.013107538223266602e+00 3.837186098098754883e-01 -1.218553662300109863e+00 -5.986286997795104980e-01 -1.934929192066192627e-01 -6.364654898643493652e-01 1.158574581146240234e+00 -1.537107825279235840e-01 -5.022326111793518066e-01 1.524273514747619629e+00 3.496215045452117920e-01 1.184621453285217285e+00 9.385960698127746582e-01 1.061424255371093750e+00 1.227842926979064941e+00 1.259970217943191528e-01 5.461304187774658203e-01 1.572231203317642212e-01 3.510682880878448486e-01 -4.276337102055549622e-02 9.453609585762023926e-01 2.418568134307861328e+00 -1.944988518953323364e-01 3.593433201313018799e-01 1.045182228088378906e+00 -4.541133344173431396e-02 -1.941909790039062500e-01 -2.915880680084228516e-01 1.872861385345458984e-01 1.034341573715209961e+00 -6.676688790321350098e-01 1.952556073665618896e-01 -5.711565017700195312e-01 2.356523752212524414e+00 8.364301323890686035e-01 1.034555912017822266e+00 2.116243988275527954e-01 -1.112793207168579102e+00 -6.935486793518066406e-01 -1.318347640335559845e-02 1.114725992083549500e-01 1.607974246144294739e-02 1.389525294303894043e+00 1.463794857263565063e-01 2.611286938190460205e-01 -3.248293399810791016e-01 -5.616459250450134277e-02 -4.616931974887847900e-01 8.745930194854736328e-01 1.263034462928771973e+00 -7.167499065399169922e-01 -2.851850092411041260e-01 6.520807743072509766e-01 -2.979380190372467041e-01 -3.881240785121917725e-01 5.913857370615005493e-02 -1.288586556911468506e-01 1.691161632537841797e+00 -2.937057971954345703e+00 -1.158978417515754700e-01 -3.046716935932636261e-02 -6.927510499954223633e-01 6.695446968078613281e-01 -9.101566672325134277e-02 -1.207053065299987793e+00 -6.821430474519729614e-02 -2.174133807420730591e-01 -6.834571361541748047e-01 -1.468759477138519287e-01 -5.185767412185668945e-01 1.538152456283569336e+00 1.161575198173522949e+00 1.493858098983764648e-01 1.126112118363380432e-01 4.827497899532318115e-01 -2.106756210327148438e+00 -5.200598835945129395e-01 -1.392499446868896484e+00 -5.773043632507324219e-01 -1.325381278991699219e+00 7.179477810859680176e-01 1.104482412338256836e+00 1.623902440071105957e+00 8.660748600959777832e-01 4.705061912536621094e-01 1.343136429786682129e+00 -1.512311577796936035e+00 2.608439028263092041e-01 3.126679956912994385e-01 1.133784577250480652e-01 1.439795732498168945e+00 -1.650165915489196777e+00 -7.837042808532714844e-01 3.863974809646606445e-01 2.966535985469818115e-01 -5.235395953059196472e-02 6.287071704864501953e-01 -2.587912417948246002e-02 1.449179351329803467e-01 2.642019279301166534e-02 -6.770763993263244629e-01 1.401356607675552368e-01 1.615239828824996948e-01 4.734991490840911865e-01 -5.214549899101257324e-01 -6.118128895759582520e-01 -6.851539760828018188e-02 -2.216478437185287476e-01 -7.637695968151092529e-02 1.184437394142150879e+00 2.280505299568176270e-01 -5.879495143890380859e-01 7.774903774261474609e-01 -1.998717784881591797e-01 -5.706046223640441895e-01 -3.443522453308105469e-01 2.978294193744659424e-01 8.349516391754150391e-01 -6.847222447395324707e-01 -3.058658838272094727e-01 -1.083430886268615723e+00 -1.514062285423278809e+00 1.129941418766975403e-01 -1.291901111602783203e+00 3.535471558570861816e-01 -1.127007007598876953e-01 2.272916078567504883e+00 2.800588607788085938e-01 -1.222270369529724121e+00 1.071437716484069824e+00 -2.342799901962280273e-01 9.847391247749328613e-01 3.179257735610008240e-02 9.295588135719299316e-01 4.125528931617736816e-01 -4.980804026126861572e-01 1.705451726913452148e+00 2.845863401889801025e-01 1.069965839385986328e+00 -1.485216021537780762e+00 -2.161453813314437866e-01 -6.327642798423767090e-01 -7.835589349269866943e-02 4.887922108173370361e-02 1.458611130714416504e+00 -1.418880820274353027e-01 2.925753034651279449e-02 1.088193878531455994e-01 -1.072690561413764954e-01 8.702487349510192871e-01 7.878307253122329712e-02 -1.368674397468566895e+00 6.433359980583190918e-01 3.428235650062561035e-01 6.886655688285827637e-01 1.376366138458251953e+00 1.363871335983276367e+00 3.087249696254730225e-01 -1.709498018026351929e-01 1.278196811676025391e+00 1.186120390892028809e+00 5.125055313110351562e-01 7.573009729385375977e-01 4.880590140819549561e-01 9.831541776657104492e-01 -2.861521542072296143e-01 5.167570710182189941e-01 9.523069858551025391e-02 1.592252135276794434e+00 2.035748660564422607e-01 -7.903957962989807129e-01 6.598178744316101074e-01 1.045020461082458496e+00 -4.018257558345794678e-01 1.189367175102233887e+00 -4.934392869472503662e-02 1.373504042625427246e+00 1.443812727928161621e+00 1.605224213562905788e-03 9.237079620361328125e-01 -7.132611703127622604e-03 1.374780058860778809e+00 -6.906443834304809570e-01 5.164337158203125000e-02 3.410694003105163574e-01 1.153238058090209961e+00 1.650529354810714722e-01 8.296006321907043457e-01 2.099127292633056641e+00 4.761228561401367188e-01 1.866726875305175781e+00 1.270751357078552246e-01 1.572046279907226562e+00 6.044502258300781250e-01 5.278688669204711914e-02 3.812596797943115234e-01 1.439789414405822754e+00 3.806775808334350586e-02 1.041885614395141602e-01 1.307710289955139160e+00 -1.632114052772521973e-01 3.281106352806091309e-01 1.440693259239196777e+00 -9.381318092346191406e-01 1.263800501823425293e+00 1.731581985950469971e-01 2.740930914878845215e-01 -8.135364651679992676e-01 -4.929216951131820679e-02 -1.118197917938232422e+00 -1.090449333190917969e+00 -6.538939476013183594e-01 1.282845973968505859e+00 6.093859672546386719e-01 3.844893872737884521e-01 -2.420718818902969360e-01 4.775621294975280762e-01 -1.202634871006011963e-01 -8.255151510238647461e-01 -4.199299514293670654e-01 -9.471700787544250488e-01 -3.282549679279327393e-01 6.488922238349914551e-01 -1.666749835014343262e+00 7.157701253890991211e-02 -9.563957341015338898e-03 -1.210119485855102539e+00 -8.937441110610961914e-01 1.036698579788208008e+00 -1.546233594417572021e-01 -1.085855126380920410e+00 2.334515571594238281e+00 -1.684232950210571289e+00 1.123572468757629395e+00 -1.859574578702449799e-02 -1.025465488433837891e+00 -5.419905185699462891e-01 4.542649909853935242e-02 -6.288946866989135742e-01 -8.957896828651428223e-01 2.533596754074096680e-01 1.221353054046630859e+00 -1.024069547653198242e+00 -9.800508022308349609e-01 -2.138614207506179810e-01 -1.097039818763732910e+00 -7.902771234512329102e-01 -1.216775178909301758e+00 1.412331461906433105e+00 1.766986101865768433e-01 1.209459424018859863e+00 1.041812181472778320e+00 9.581671357154846191e-01 2.416054010391235352e+00 -1.004382133483886719e+00 -7.653250098228454590e-01 -1.093275666236877441e+00 -7.534880638122558594e-01 -1.700817942619323730e+00 4.590602219104766846e-01 1.214600205421447754e+00 5.854652523994445801e-01 -5.865879654884338379e-01 -1.045430898666381836e+00 5.882611274719238281e-01 5.828585028648376465e-01 2.498422563076019287e-01 8.308662772178649902e-01 4.694621264934539795e-01 -9.752572774887084961e-01 1.713275313377380371e-01 8.500537872314453125e-01
-9.527926445007324219e-01 -5.883533954620361328e-01 -1.157714962959289551e+00 4.089857935905456543e-01 6.775779724121093750e-01 1.105844020843505859e+00 -3.157445788383483887e-01 6.661265343427658081e-02 7.611801028251647949e-01 -9.098932147026062012e-03 -6.199535727500915527e-01 -7.037493586540222168e-02 3.596955537796020508e-01 -4.021620154380798340e-01 1.321923613548278809e+00 8.647207021713256836e-01 1.143078446388244629e+00 3.535002097487449646e-02 1.103500247001647949e+00 2.102696418762207031e+00 -9.721999764442443848e-01 3.170581758022308350e-01 -9.079189896583557129e-01 -6.997125148773193359e-01 -3.223453164100646973e-01 1.909001111984252930e+00 -1.622860789299011230e+00 -1.047972083091735840e+00 9.179975986480712891e-01 4.202907979488372803e-01 7.207810878753662109e-01 -6.610572338104248047e-01 9.972946643829345703e-01 6.584194898605346680e-01 -8.356541395187377930e-01 1.832613945007324219e+00 8.775095939636230469e-01 -1.327783107757568359e+00 -1.392037719488143921e-01 -1.507317543029785156e+00 -7.624008059501647949e-01 1.774422526359558105e+00 -9.762465953826904297e-01 6.819004416465759277e-01 8.517112135887145996e-01 -7.530328035354614258e-01 8.515297770500183105e-01 4.714458286762237549e-01 2.174866944551467896e-01 -1.687127500772476196e-01 -6.280617117881774902e-01 -1.452980488538742065e-01 9.025735259056091309e-01 4.639337658882141113e-01 -1.065351068973541260e-01 -9.050287604331970215e-01 -5.344448685646057129e-01 4.898071885108947754e-01 -6.101033091545104980e-01 2.248986244201660156e+00 -6.776738166809082031e-01 -4.504608511924743652e-01 8.332779407501220703e-01 2.620911896228790283e-01 5.370922088623046875e-01 1.367923140525817871e+00 -2.598828077316284180e-01 -6.139083504676818848e-01 -1.051573276519775391e+00 5.748818516731262207e-01 -9.202777743339538574e-01 1.000321388244628906e+00 4.766095429658889771e-02 8.609603047370910645e-01 -4.250564575195312500e-01 3.035235106945037842e-01 -7.745985388755798340e-01 -2.469100803136825562e-01 -2.196261137723922729e-01 2.065643370151519775e-01 -5.653137341141700745e-02 1.872410476207733154e-01 -1.446324139833450317e-01 -7.958237528800964355e-01 1.365863442420959473e+00 -2.853710353374481201e-01 -4.599106907844543457e-01 3.685661852359771729e-01 -1.212760925292968750e+00 -2.122209072113037109e+00 -1.607749462127685547e+00 -6.837850213050842285e-01 -7.535538077354431152e-01 -8.605458736419677734e-01 -2.815297842025756836e-01 -4.681686162948608398e-01 6.619240045547485352e-01 1.187227666378021240e-01 -1.319018244743347168e+00 3.638882040977478027e-01 1.539048671722412109e+00 1.641425371170043945e+00 1.097892597317695618e-01 -1.294232368469238281e+00 6.623028218746185303e-02 -1.026914358139038086e+00 1.651721596717834473e+00 -7.893585562705993652e-01 -1.068596005439758301e+00 9.358643293380737305e-01 1.000197052955627441e+00 1.765470027923583984e+00 7.366430759429931641e-02 4.209358096122741699e-01 4.058219790458679199e-01 -7.607380747795104980e-01 1.073444247245788574e+00 -2.714450955390930176e-01 7.926107943058013916e-02 2.401036024093627930e-01 1.318383455276489258e+00 8.807546496391296387e-01 2.008662700653076172e+00 -1.005584955215454102e+00 7.581186890602111816e-01 -3.421072065830230713e-01 -9.224612265825271606e-02 4.485659599304199219e-01 3.208611905574798584e-01 -3.685717657208442688e-02 3.640945255756378174e-01 -1.155878543853759766e+00 9.356633424758911133e-01 2.624915122985839844e+00 4.213550984859466553e-01 1.074638843536376953e+00 2.056913852691650391e+00 1.310633778572082520e+00 -1.730026245117187500e+00 -5.534921288490295410e-01 -3.752824366092681885e-01 -9.671559929847717285e-01 1.698659658432006836e+00 1.260258674621582031e+00 -1.688664555549621582e+00 2.037446349859237671e-01 8.433707356452941895e-01 -6.564558148384094238e-01 -1.917703598737716675e-01 -5.768511295318603516e-01 -1.070366978645324707e+00 -2.399317920207977295e-01 9.959172606468200684e-01 8.462591096758842468e-03 -8.427232503890991211e-01 -1.498245745897293091e-01 -2.908637762069702148e+00 -1.431855678558349609e+00 8.800806999206542969e-01 -1.191659331321716309e+00 2.187142372131347656e-01 -3.090334236621856689e-01 3.927124664187431335e-02 6.568009853363037109e-01 6.400970816612243652e-01 -2.686288058757781982e-01 1.059977173805236816e+00 4.789216443896293640e-02 -1.290747523307800293e+00 -8.013341426849365234e-01 -1.341913342475891113e+00 -6.670089364051818848e-01 9.112017750740051270e-01 9.016079902648925781e-01 -2.320693135261535645e-01 1.916234642267227173e-01 -8.903228640556335449e-01 2.722939252853393555e+00 6.779654026031494141e-01 1.654916048049926758e+00 -7.545330524444580078e-01 -1.582822352647781372e-01 1.894246935844421387e-01 -1.127993702888488770e+00 3.609975427389144897e-02 2.547352313995361328e-01 -1.562774181365966797e+00 -5.551086068153381348e-01 -8.492566943168640137e-01 7.858758568763732910e-01 1.263418197631835938e-01 1.383177161216735840e+00 7.299830913543701172e-01 -1.076335087418556213e-01 6.030976176261901855e-01 2.123789042234420776e-01 2.797095775604248047e+00 -1.344626784324645996e+00 8.805288374423980713e-02 -1.476837158203125000e+00 -9.465174376964569092e-02 -2.829480171203613281e-01 -8.287584185600280762e-01 1.686361551284790039e+00 2.762939333915710449e-01 -8.371636867523193359e-01 -5.740944743156433105e-01 1.996493786573410034e-01 -9.489236474037170410e-01 1.101639986038208008e+00 -5.811033248901367188e-01 1.063311815261840820e+00 6.384266614913940430e-01 -3.403774201869964600e-01 3.292929887771606445e+00 -1.316196560859680176e+00 -9.018523693084716797e-01 -7.336241006851196289e-01 -5.375058054924011230e-01 -1.075090885162353516e+00 -3.100978136062622070e-01 1.100432649254798889e-01 1.042436242103576660e+00 -8.423363789916038513e-03 -1.585947632789611816e+00 -2.070598006248474121e-01 -1.104546070098876953e+00 -5.345172286033630371e-01 -4.661968648433685303e-01 -1.076589941978454590e+00 4.766167700290679932e-01 2.096687406301498413e-01 -6.811692714691162109e-01 7.843489050865173340e-01 1.743538856506347656e+00 -1.211798563599586487e-01 1.558040380477905273e-01 -9.252824634313583374e-02 3.829500079154968262e-01 -1.398293256759643555e+00 -3.293312072753906250e+00 2.764485776424407959e-01 3.185956478118896484e-01 -1.005494713783264160e+00 1.071107909083366394e-01 -2.742235660552978516e-01 -5.453557521104812622e-02 1.366741657257080078e-01 2.373699665069580078e+00 -6.901699900627136230e-01 -4.045870900154113770e-01 8.661025166511535645e-01 -3.940242230892181396e-01 1.458782076835632324e+00 -3.396526277065277100e-01 -7.626590728759765625e-01 1.589826941490173340e-01 -6.608102917671203613e-01 -9.640403985977172852e-01 6.226183772087097168e-01 1.450719237327575684e+00 1.805067062377929688e-01 9.244299530982971191e-01 -5.950102806091308594e-01 1.739215373992919922e+00 1.466908454895019531e+00 7.975766062736511230e-01 3.427361547946929932e-01 7.023414969444274902e-01 -7.199383378028869629e-01 5.009451508522033691e-01 1.523629307746887207e+00 9.427986145019531250e-01 -1.440886974334716797e+00 -7.735422849655151367e-01 4.845375120639801025e-01 -3.739781081676483154e-01 -9.471493959426879883e-01 -1.032718494534492493e-01 2.394486367702484131e-01 1.715070903301239014e-01 2.592931687831878662e-01 -1.779831290245056152e+00 2.781992435455322266e+00 -8.870627284049987793e-01 7.884607315063476562e-01 1.831356883049011230e+00 5.925964713096618652e-01 -5.949847698211669922e-01 -1.182490348815917969e+00 -1.536937355995178223e-01 -2.199313603341579437e-02 -4.505327939987182617e-01 -1.086884498596191406e+00 3.705576360225677490e-01 -8.845566511154174805e-01 1.822775006294250488e+00 1.855566740036010742e+00 3.059263527393341064e-01 5.346592068672180176e-01
